{"format_version": 1, "architecture": {"layers": [6, 8, 8, 2], "activations": ["tanh", "tanh", "asinh"]}, "weights": {"layer_0": {"w": [[-1.1368734264133669, 1.5228656443121995, -2.135912108033875, -0.6522774090180818, 0.9684138246738385, 1.1138017853055615], [1.4929274433508812, 2.440421149004349, -1.997940032043946, -2.61538109407187, -0.12803845273517966, -0.5108262760357061], [-2.1985351338979173, -1.8481574731059738, -2.8550698100251775, 0.6929274433508814, 0.5718928816662849, 1.6243076218814378], [-2.1059739070725567, 0.4862897688258183, -0.6385442893110551, -1.936873426413367, -2.64614328221561, 2.1576104371709777], [-0.5750972762645912, -0.06285191119249278, -2.2802014190890363, -0.014328221560997889, -0.5435111009384297, 2.344289311055162], [1.9839322499427787, 0.1481803616388193, 1.4585030899519342, -1.6393224994277866, -0.941405355916686, 2.5921263447013043], [-2.220874341954681, -2.1183337148088808, 1.2896772716868847, 1.6601968413824677, 1.2451819638361181, 2.7946440833142594], [1.906019684138247, 2.887022201876859, 2.2202334630350196, 1.8778210116731522, 2.462577248798352, 0.6856031128404672]], "b": [0.009567406729228622, 0.028244449530784976, 0.41066605630579067, -1.2099336232547495, 1.5940032043945989, 0.33183794918745724, 0.38896772716868844, 0.22572671091783025]}, "layer_1": {"w": [[1.1521629663538562, -1.090180819409476, -0.1457084000915545, 2.0763103685053785, 1.9531700617990388, 2.829434653238727, -0.7014419775692375, -1.3479972533760585], [-1.705149919890135, -0.7246051728084231, -2.2797436484321354, 1.7701533531700617, 0.6809338521400781, -1.900434882124056, -1.9135271229114215, -0.14213778896772755], [-1.0906385900663769, -0.07072556649118811, -1.3194323643854429, -1.3202563515678645, -2.9177843900205995, 0.14927901121538145, 0.18699931334401487, -0.2725108720531013], [-1.3956969558251315, 1.395605401693751, 0.3694666971847105, -1.842114900434882, -0.9753719386587321, -1.833875028610666, -1.1065690089265279, -1.4730601968413826], [-1.549691004806592, -0.4780498970016023, -2.853788052185855, -2.9234607461661706, -1.7624628061341268, -1.0581368734264132, 0.7175555046921493, 0.5618219272144653], [1.6276951247425044, -1.633371480888075, -0.8302586404211492, 0.5867246509498738, -2.4213778896772715, 2.778988326848249, 2.6226138704509037, -2.719386587319753], [-2.904692149233234, -1.1485923552300297, -2.9796749828336004, 0.09398031586175382, -2.544701304646372, -1.2327306019684139, 1.7811398489356831, 2.3678187228198677], [0.2381780727855345, -0.1805905241474024, -2.162005035477226, 1.6869306477454797, -0.9297779812314033, -2.2576791027695124, -1.2596475165941863, 1.5623254749370563]], "b": [0.7501487754634928, -0.6942092011902035, -2.4770428015564203, 1.7837949187457092, 2.2659189745937285, -2.9893797207598993, 0.8958113984893572, -1.4954909590295262]}, "layer_2": {"w": [[-0.03620965896086048, 0.6215152208743415, -0.9055161364156561, -0.9736324101625087, 0.05571068894483844, -0.38475623712520024, 0.8477454795147636, -0.2961318379491873], [0.9764705882352942, 0.432913710231174, -2.4132295719844357, -1.386175326161593, -1.4465094987411304, 0.2693064774547951, -2.8195468070496683, -1.8701304646372168]], "b": [0.03520256351567852, 1.407049668116274]}}, "output_interpretation": "atan2"}