{"format_version": 1, "architecture": {"layers": [6, 16, 64, 16, 2], "activations": ["asinh", "asinh", "asinh", "asinh"]}, "weights": {"layer_0": {"w": [[0.22572671091783025, 0.5307850766765849, 1.7727168688487067, 0.29027237354085633, -0.03584344243533977, 0.39739070725566483], [2.0269626916914625, 1.616159304188602, 1.4621652552071414, -0.1249256122682536, -1.8150148775463493, 1.1710231174181729], [-0.08290226596475181, -2.792355230029755, -1.7562371252002746, -1.4479743648432133, 2.6496223392080562, 2.3986724650949878], [0.5454337376974134, 0.9969787136644541, -0.5928587777523457, -0.8110322728313117, 0.19771114671549572, 2.147539482719157], [2.1794918745708403, 2.7788967727168687, -2.845181963836118, -2.4401464866102085, 0.06981002517738588, -0.2750743877317463], [-1.9714808880750745, 2.619226367589837, -1.7813229571984435, -2.426047150377661, 2.8731975280384523, -1.7382009613183795], [0.3713893339436942, -0.29173723964293874, -2.3710231174181735, 1.4908216983291371, -0.03163195239185157, -2.7007095445181966], [-0.5738155184252687, -0.20906385900663782, -2.896452277409018, -1.9992217898832685, 0.015518425268940206, -0.15980773632410195], [0.28184939345387994, -0.4421606775005724, 0.11595330739299659, -0.11384756237125204, -0.165484092469673, 1.7049668116273748], [0.264637216754406, 0.0697184710460057, -1.1711146715495535, 0.3480430304417488, 0.6086976424811166, -0.9800411993591212], [-1.8105287251087205, 0.5576104371709771, 2.416342412451362, -2.7848477912565803, -0.23112840466926077, -2.8699015793087663], [-1.672739757381552, -1.2176241702906845, 0.7076676585030901, -1.250217441062028, 0.1663080796520946, 2.6357976653696493], [-0.5499198901350422, -0.47731746395056085, -2.7484092469672694, 0.3088578622110325, 0.652094300755321, -0.6957656214236665], [-2.8142366674296175, 0.9518425268940263, 1.6472877088578626, -1.351842526894026, 0.6802014190890366, 2.763515678644999], [-1.7431448844129092, -0.6325017166399634, -1.7233691920347907, 0.38979171435111004, -2.68697642481117, 2.695674067292286], [-2.7663538567177843, -2.8125886930647743, 2.3626001373311976, 0.42796978713664435, -1.779034103913939, 0.6902723735408562]], "b": [0.09416342412451417, 1.5000686655985351, 0.0002288853284504455, 0.5625543602655068, 4.57770656900891e-05, 0.005905241474021494, 1.5029983978027008, -2.76415655756466, 4.57770656900891e-05, 2.4493018997482263, -2.9531242847333488, 1.5151750972762645, 0.09965667200732486, 0.7544518196383612, 0.7539024948500801, 1.5249713893339436]}, "layer_1": {"w": [[0.131059739070726, 2.897184710460059, -2.930968184939345, 2.6656443121995874, 2.5984435797665366, -0.8387731746395057, 1.7402151522087435, -0.5833371480888072, -1.8910048065918974, 0.4350194552529181, -0.6979629205767908, -0.056626230258640664, -2.1934996566720075, -0.05122453650721015, 0.26234836346990154, 1.8711375600823992], [-0.8216525520714124, -0.08079652094300771, 0.8944380865186545, -0.40572213321126105, 0.1965209430075534, 1.582192721446555, -0.05543602655069835, 0.20823987182421622, 1.7452506294346533, -0.0677958342870224, -0.07933165484092486, -0.5996337834744789, 2.477500572213321, 0.2556649118791485, -2.747585259784848, 0.4350194552529181], [-2.3427328908216984, 2.7040970473792623, -0.813229571984436, 0.9463492790112156, 0.6743419546807052, 0.19972533760585964, -0.36205081254291605, -2.3914396887159532, 0.20164797436484339, 0.5241016250858319, 0.10478370336461484, 1.6186312657358668, -0.06092927443350904, 0.04142824444953064, -0.11421377889677276, 0.07063401235980749], [2.805630579079881, 0.34520485236896326, 0.1575188830395975, 1.0033875028610666, -0.6109864957656215, 0.3684596017395285, -0.14039826047150372, 0.41405355916685727, 0.10029755092698611, -0.8646829938200962, 2.7539940489814603, 0.480979629205768, 0.24458686198214696, 1.7100938429846648, 0.5158617532616159, -2.7309224078736554], [0.432913710231174, 0.9158617532616162, -1.9167315175097277, -1.3864499885557335, 0.050766765850308815, 2.9598077363241018, -2.6131837949187458, 0.390798809796292, -1.7482719157701991, -1.1322041657129778, -1.4264591439688714, -0.11522087434195472, 1.0234378576333256, -0.003616388189517039, -1.7176928358892196, 0.06431677729457519], [2.4684367132066836, 1.7126573586633098, 0.1826962691691465, 0.2670176241702906, 0.28001831082627593, 0.9674982833600367, -0.5089036392767223, -0.9596246280613414, -0.03630121309224066, 1.328862439917601, 1.233829251544976, 0.15165941863126609, -1.7278553444724194, 0.29530785076676613, -0.6271000228885328, 1.148500801098649], [1.8944838635843446, -0.2116273746852828, 1.4747081712062258, -0.5684138246738382, 1.4711375600823988, -0.2578622110322728, -0.9074387731746398, 1.6965438315403985, 2.0887617303730828, -0.13911650263218123, 1.6908674753948274, -0.12300297550926986, 0.07081712062256784, -0.1826962691691465, 0.1742732890821701, -2.262073701075761], [1.0264591439688715, 0.22948043030441756, -0.11201647974364848, 1.2201876859693295, -2.9900205996795606, 0.025131609063858917, 2.7694666971847104, -1.6504005493247882, 2.532341496910048, 0.1414969100480663, -0.10707255664911886, -0.4448157473105976, -0.06422522316319546, -0.2352483405813688, -0.8824444953078507, -2.898008697642481], [-1.8601510643167773, -0.8929732204165717, 2.9911192492561227, 1.7361867704280156, 1.1405355916685735, -0.28084229800869753, 0.05159075303273042, 0.27067978942549775, -2.4919661249713894, -0.12391851682307164, 0.00508125429159989, 2.5351796749828335, -0.20128175783932267, -0.8085603112840469, -0.7041886015106433, 0.5850766765850306], [-0.11723506523231864, -2.8421606775005723, -1.1322041657129778, -0.782101167315175, -0.16191348134584604, -2.5708857862211034, 0.37541771572442206, 0.24422064545662625, 0.539024948500801, -0.8564431219958801, -0.5254749370565346, -1.6262302586404211, -0.018631265735866265, -0.16145571068894515, 1.0183108262760356, -0.3673609521629664], [-2.5171435111009384, -0.16282902265964783, -2.753444724193179, -0.030258640421148897, -1.0126344701304646, -1.1140764476997025, -2.00517280842298, 0.010025177386129513, 0.23543144884412914, -0.257953765163653, -0.20173952849622356, 0.34346532387273987, 0.08509956511787564, -2.0290684367132066, -2.8494850080109866, -0.05992217898832708], [0.09205767910276919, 0.1793087663080799, 1.359716182192721, 0.9589837491416802, -1.2057221332112613, 0.47685969329365996, 1.8537422751201653, -0.38686198214694434, 1.656809338521401, 1.8303959716182199, 1.2953536278324558, -0.20485236896314962, -1.404119935912108, 2.9642023346303503, -0.06395056076905492, 0.14094758525978524], [0.2216983291371024, 2.4939803158617533, -0.22746623941405364, -0.1089951934081026, -2.583428702220188, 1.1291828793774314, -0.11503776607919436, -0.16768139162279727, -0.14076447699702488, -0.13005264362554358, 1.0140993362325474, -0.09379720759899302, -2.9065232318608376, 0.5890135042343783, 0.5024948500801099, 0.6029297322041653], [-2.4852826733806364, 0.7867704280155641, 2.629938200961318, 2.110917830167086, -0.8737468528267338, 1.4741588464179447, 0.5379262989242388, 0.22609292744335097, 0.19496452277409038, 1.0237125200274662, 0.5423208972304874, -0.1663080796520946, -1.2504921034561685, 1.0704966811627372, -1.7766536964980544, 2.952758068207828], [0.36324101625085836, 0.011947814145113256, 0.24010070954451823, 2.02568093385214, 0.25767910276951245, 2.970153353170062, 1.914717326619364, 0.24165712977798126, -1.709269855802243, -0.32314030670633986, 1.8286564431219965, -0.7654383154039825, -0.05726710917830191, 1.5027237354085603, -0.9079880979629209, -0.5649347676813914], [-0.24211490043488215, 1.485145342183566, -2.4570840009155415, -0.5249256122682535, 0.011306935225452008, -1.804669260700389, -1.0110780498970016, -0.42897688258182676, 0.5522087434195466, 2.01551842526894, 0.0033417257953765045, -0.6273746852826734, -0.47850766765850317, 2.200366216525521, -0.19807736324101644, 1.4631723506523233], [-0.37413595788509957, 0.047745479514762934, -0.9391165026321815, 2.18956282902266, 1.6705424582284278, -0.12016479743648434, 2.4919661249713894, -0.03465323872739745, -1.1769741359578854, 1.0476997024490728, -1.8186770428015564, -0.18159761959258436, 2.9421377889677274, -2.605584802014191, 0.04170290684367117, -1.6737468528267339], [-0.9385671778439004, 2.7490501258869307, -0.5598992904554816, -1.3009384298466469, -0.3638818951705196, -1.3011215381094072, -1.3018539711604487, -0.3007095445181962, 0.2377203021286336, 2.9500114442664227, 0.2281071183337149, 0.9200732433051044, 0.3020828564888993, -2.5131151293202105, -0.601739528496223, 2.250171663996338], [-1.5474021515220875, 2.9268482490272376, -0.27580682078278773, -0.5193408102540626, 0.1688715953307396, -0.19963378347447946, -0.5712520027466237, -0.08070496681162753, -1.2063630121309226, 2.3521629663538572, 2.51284046692607, 0.5469901579308765, -2.864499885557336, 0.1760128175783935, -0.8726482032501717, 2.871000228885328], [2.790890363927672, 2.7834744792858777, 1.7402151522087435, 0.007278553444724167, -1.1886930647745482, -0.08601510643167787, 0.045639734493018835, 0.29906157015335344, 0.1020370794232095, -1.3850766765850309, 0.9319752803845276, 2.9761043717097735, -0.6411078049897001, -0.12108033875028612, 2.691187914854657, 1.4284733348592358], [2.9108262760357064, -2.68706797894255, -2.6407415884641794, 2.3749599450675216, -0.07063401235980793, 0.3450217441062029, 0.5116502632181277, -0.0547951476310371, -0.7046463721675442, 1.4895399404898146, -1.7287708857862212, 2.1245593957427324, -0.24898146028839552, -0.4181734950789653, 2.8528725108720527, 1.2190890363927673], [-2.8853742275120164, -2.9864499885557336, -0.7487754634927901, 0.03556878004119923, 1.2912336919203478, 1.5519798580910962, 0.5739070725566489, 0.020553902494850007, 1.8116273746852833, -1.0207827878233005, 0.0525062943465322, -0.17409018081940975, -0.1354543373769741, -2.381002517738613, 0.16493476768139193, 0.12547493705653512], [2.8841840238040737, 1.5681849393453877, 1.8444037537193871, -0.27873655298695343, 0.6389105058365754, -2.7350423437857634, -1.9377889677271687, 1.6817120622568096, -2.126207370107576, -0.2432135500114443, -1.8607919432364386, -0.004715037766079178, -1.525520714122225, -0.10240329594872977, -1.8184023804074159, -0.31435111009384276], [-2.202014190890364, 2.8117647058823527, 2.5193408102540626, 0.3924467841611352, -1.2790569924467843, -2.0690775921263445, -0.10579079880979636, 0.13133440146486652, 0.17061112382696297, -1.833417257953765, 1.3417715724422061, 0.3236896314946214, 2.908628976882582, -0.14790569924467878, 1.940352483405814, -0.904966811627375], [2.6111696040283814, 1.4792858777752347, -0.027145799954222838, 1.2289768825818266, 0.0697184710460057, -0.7761501487754634, -0.6886243991760126, 1.8403753719386593, 2.9425955596246283, -0.8308079652094302, -0.04399176012817563, -0.178850995651179, 0.06907759212634446, 0.7513389791714351, -0.10872053101396206, 0.5470817120622566], [-2.983978027008469, 0.993316548409247, -0.5067978942549782, -2.775326161593042, -0.2431219958800641, 2.5782101167315172, 1.579171435111009, 0.6472419317921716, 2.4662394140535593, 2.6127260242618444, 2.785305561913481, 0.10588235294117698, -2.825955596246281, 1.250217441062028, -2.314442664225223, -2.012954909590295], [-1.3847104600595102, -0.21593041886015119, -2.2904554818036162, 1.6446326390478374, -0.12172121766994737, -0.021560997940031967, 0.005447470817120603, -0.4081025406271457, -0.9354543373769744, -0.18681620508125452, -0.015518425268940206, -0.4262302586404214, -0.2570382238498512, 0.2566720073243305, -0.5109178301670863, 0.17756923781185652], [1.012359807736324, -0.24266422522316322, 2.8258640421149, -1.3571526665140763, -0.05882352941176494, 0.0924238956282899, 0.23955138475623716, -0.08857862211032286, 0.1924010070954454, 0.9781185626001374, 0.06926070038910481, -0.007827878233005237, 2.8477454795147628, 0.18379491874570864, 2.1446097505149915, 0.23552300297550932], [0.981506065461204, 0.11979858091096407, 0.37669947356374456, 1.130464637216754, 0.04847791256580436, -0.41487754634927887, 0.0986495765621429, -1.866193636987869, 0.20192263675898392, 2.9674982833600367, -0.004623483634698999, -0.6745250629434651, 2.0527809567406727, -2.4479285877775236, 2.404531929503319, 2.409567406729229], [0.4348363469901577, -1.724559395742733, 1.6309910734721909, -0.7128862439917603, -0.3706569008926528, 1.8398260471503782, -0.1978027008468759, 0.48784618905928134, 1.2526894026092927, 1.5294575417715723, -1.4714122224765394, -2.623163195239185, -1.07196154726482, -1.2097505149919892, -2.1427786678873884, -2.1457999542229342], [-1.2807965209430077, 0.7625085831998168, 1.9076676585030903, 0.6331425955596242, -0.13911650263218123, -0.08656443121995894, -0.5387502861066604, -1.344701304646372, 2.1205310139620046, 0.11741817349507944, -1.6397802700846875, 1.3557793545433734, -0.009842069123369157, -0.2120851453421837, 0.061478599221789665, 2.266193636987869], [-2.8386816205081256, -2.1848935683222708, 1.4893568322270543, 0.7357747768368048, -2.838498512245365, 0.3940947585259784, -0.35069810025177395, 2.7205767910276952, 0.2359807736324102, -1.8253604943923094, -1.1147173266193637, 2.2416571297779813, -2.9936827649347677, 1.9462119478141453, -0.2556649118791485, -0.3280842298008695], [-0.09571984435797676, 2.1940489814602886, 2.926939803158618, -0.209155413138018, -0.8222018768596935, -0.19807736324101644, -1.5453879606317236, 0.2726024261844815, -0.9259327077134358, 2.5762874799725335, 0.25648889906157013, 0.15046921492332377, -2.756923781185626, 0.24724193179217213, -0.36745250629434656, 2.679743648432135], [1.0814831769283586, -0.17253376058594672, -0.4189974822613869, 0.15440604257267143, 2.733760585946441, 1.3644769970244903, -2.6953994048981462, -0.10038910505836585, 0.07356374456397319, 0.08628976882581796, 0.8309910734721901, -0.8438086518654155, 1.891554131380179, 2.3701991302357523, 0.2937514305333031, 0.1297779812314035], [-0.7696498054474707, 0.49031815060654615, -0.9204394598306251, 0.9140306706340127, -0.7810025177386128, -0.1566948958571759, -2.7366903181506066, -0.8226596475165944, 2.782192721446555, 0.14717326619363735, -0.5024948500801099, -2.422201876859693, 1.7802243076218813, 0.7099565117875946, 0.13572899977111508, -0.24898146028839552], [2.125841153582055, 1.101716639963378, 0.4918745708400092, 0.04655527580682062, 2.725154497596704, 0.37203021286335547, 1.5583886472877087, 0.7693751430533302, -0.17070267795834315, -1.9248798352025636, -1.7485465781643397, -2.4359349965667203, 2.7788052185854886, -2.410940718699931, 2.9740901808194096, -1.5759670405127033], [-1.4832227054245823, 2.067887388418402, 2.796932936598764, -0.0875715266651409, 0.9324330510414285, 1.4813000686655986, 2.5721675440604255, -0.4473792629892426, -0.42568093385214034, 0.3479514763103686, -1.6378576333257038, -1.609201190203708, -2.9523918516823073, -2.078690775921263, -0.22499427786678883, 0.6195010299839776], [2.5201647974364842, 1.4411993591210805, 0.4373998626688027, -0.28825818265049197, -2.9967040512703136, -0.42403295948729713, -0.11348134584573133, 0.2112611581597621, 2.977386129549096, 0.07319752803845248, 2.7201190203707943, -2.3349507896543833, -0.2608834973678187, -1.9577477683680478, -2.421560997940032, -2.793362325474937], [-0.8220187685969331, -1.6493934538796062, 2.3907988097962924, 0.05003433279926739, 1.5469443808651864, 0.6394598306248565, 2.7978484779125656, 2.8449073014419772, 1.718425268940261, -0.33183794918745724, -1.7382009613183795, 2.3136186770428013, 0.4807965209430076, 1.4860608834973679, -1.6233920805676356, 0.23442435339894718], [-0.08354314488441306, 0.5525749599450673, -1.8817578393224994, -0.1338063630121309, -0.16914625772488012, -0.09755092698558032, 2.546715495536736, -0.8270542458228429, 1.5523460746166169, 0.9753719386587321, 1.0233463035019454, -1.5785305561913483, 1.8010986495765628, 2.7006179903868155, 0.8207370107576102, 1.01025406271458], [-0.27315175097276256, -0.7102311741817351, -2.4975509269855802, 1.6523231860837724, 2.5065232318608377, 0.085282673380636, 0.8897688258182654, -2.7578393224994278, 0.9543144884412911, -0.10295262073701084, -0.20906385900663782, -0.5702449073014417, 0.9247425040054935, 2.454703593499657, 0.8619363698786913, 1.5310139620050354], [-1.891279468986038, 1.435248340581369, 1.7725337605859464, 1.0130006866559853, -0.004989700160219712, 0.5399404898146027, 2.3120622568093383, 0.9903868162050813, 1.4350652323186086, -2.9724422064545664, -0.3811856260013733, 0.06852826733806339, 2.4056305790798813, 0.181414511329824, -0.2179446097505151, -1.2126802471961549], [-0.4511329823758299, -0.3048294804303042, 1.3256580453192948, 0.43227283131151273, 1.7151293202105746, -0.05580224307621906, -0.35609979400320446, -0.042069123369191885, -0.6283817807278553, 2.1509269855802238, 2.942412451361868, -1.5987640192263677, -0.12162966353856719, -0.21657129777981243, -2.8690775921263447, -0.03978027008468743], [-0.6536507209887845, 0.4538796063172348, -0.2619821469443808, 2.3991302357518887, 0.15770199130235785, -0.6016479743648429, -0.2335088120851454, -0.004165712977798108, -0.3233234149691002, 2.9612726024261846, -0.07676813916227987, -0.27443350881208506, -0.8535133897917144, -0.9217212176699476, -1.9985809109636072, 0.07713435568780014], [0.6227054245822838, 0.0869306477454792, -1.631265735866331, -2.191760128175784, 0.012680247196154681, 2.79501029983978, 2.290272373540856, -0.09691004806591907, 0.9609063859006639, -2.2231631952391853, 2.7021744106202785, -0.6545662623025863, -0.9876401922636759, -0.5717097734035246, -0.06358434424353421, 2.6313115129320206], [0.7037308308537424, 1.1958342870222012, -2.6383611810482948, 0.06312657358663287, -0.5007553215838865, -0.09498741130693533, -0.25429159990844585, 1.034424353398947, -2.869626916914626, -1.6692607003891051, 1.5614099336232545, 0.041519798580910816, -1.036530098420691, -0.09141680018310838, -0.6190432593270772, -1.3111924925612268], [-0.1411306935225456, 1.2807049668116273, -0.4317235065232321, -0.24010070954451823, 0.33476768139162294, -0.2692149233234149, -2.957427328908217, 0.01945525291828787, 0.0588235294117645, -1.6850080109864958, 0.38731975280384523, -0.03062485694666961, -1.5777065690089267, -0.5944151979858088, 0.16685740444037567, 0.13380636301213134], [-0.4194552529182878, 0.37807278553444723, 0.12776379034103957, 1.6636758983749145, 0.04728770885786204, 0.3638818951705196, 0.3492332341496911, -0.24632639047837035, -2.4689860379949646, 0.36067750057221337, -0.09452964065003444, 2.974731059739071, 0.30693522545204877, -0.09654383154039836, 1.563149462119478, -0.320119020370794], [-0.3344930189974824, -2.956328679331655, 2.4829022659647517, -2.905241474021515, -0.08400091554131395, 1.7597161821927214, -0.5294117647058822, -0.6436713206683451, 1.719890135042344, 2.804623483634699, 0.2742504005493247, -1.516456855115587, 0.10981918059052465, 0.3844815747310597, -2.9872739757381552, -0.9672236209658962], [2.6800183108262754, 1.108949416342412, -0.47722590981918067, 1.744609750514992, -2.8002288853284503, -0.30858319981689153, -0.264637216754406, -0.15367360952163, -1.2688029297322043, 1.1490501258869301, -0.5866330968184936, 0.39400320439459824, 1.5157244220645456, -0.10167086289768834, 2.7978484779125656, 0.3550011444266423], [-1.546669718471046, -0.6908216983291369, 0.16475165941863157, -0.07869077592126361, 0.8932478828107122, -2.743007553215839, -0.15403982604715072, -2.0202792401007095, 0.06321812771801305, 1.2373083085374228, -2.791897459372854, 1.2475623712520028, 2.501945525291829, 0.25053788052185855, 0.2608834973678187, -0.6296635385671778], [0.6156557564660101, -2.44600595101854, 0.38970016021972986, 1.0086060883497368, -0.2960402838178071, -2.8177157244220647, 0.0697184710460057, -2.096269169146258, -1.9762417029068438, 0.4821698329137103, 2.0756694895857173, 0.857175555046922, -1.3640192263675899, -1.5513389791714352, -0.36580453192950335, 0.03620965896086048], [-0.2556649118791485, 0.9277637903410394, 1.5422751201647973, 1.4422064545662625, -2.465140764476997, -0.10258640421149012, 0.014969100480659137, 0.9963378347447929, -0.005813687342641316, 1.9997711146715496, -1.8597848477912566, 0.5640192263675896, -0.3871366445410849, -1.6694438086518655, 1.9242389562829025, 2.226733806363012], [-0.26317235065232314, 1.7611810482948043, 2.934172579537652, 2.157793545433738, 1.0089723048752575, -0.31105516136415634, -2.713893339436942, 0.9735408560311285, -0.714808880750744, 0.6016479743648429, -1.5430991073472191, 0.20347905699244695, 2.560082398718242, -0.07264820325017185, 1.2796063172350651, -2.7345845731288625], [-2.8700846875715267, -2.3684596017395285, -0.06816205081254312, 0.7456626230258641, 0.3441977569237813, 2.9355458915083545, -0.19349965667200753, 0.07008468757152642, -0.35957885099565123, 1.1686427100022883, -0.5057907988097963, -0.8520485236896316, 0.9484550240329597, 1.6543373769741363, 0.8308079652094298, -0.19395742732890842], [-0.5802243076218812, -1.6360265506981002, 1.534950789654383, 1.8953078507667662, 0.13371480888075116, 0.695307850766766, 2.138109407186999, 0.2267338063630122, 1.155184252689402, -1.0997024490730145, 0.6041199359121077, 1.6478370336461436, 0.8160677500572211, -1.349828336003662, 2.8470130464637213, -0.941405355916686], [-0.20045777065690107, 0.20146486610208303, 0.035477225909819055, 0.11329823758297142, 0.43639276722362075, -2.1588921950102997, 0.778530556191348, 0.0625772487983518, 0.5174181734950789, -0.5645685511558707, -0.6245365072098878, 0.2566720073243305, 0.6724193179217215, 1.885969329365988, 0.7870450904097046, -0.008560311284046662], [2.4842755779354544, -0.3243305104142822, 0.014969100480659137, -2.647241931792172, 2.3945525291828798, 1.6974593728542002, 2.1509269855802238, 2.6616159304188596, -0.29539940489814587, -0.09068436713206696, 0.4269626916914624, -2.983611810482948, 1.5177386129549095, -0.5054245822842756, -0.2070496681162739, 0.02650492103456159], [0.1864499885557338, -0.10258640421149012, -2.966124971389334, -0.15761043717097767, -0.2780956740672922, 2.6466010528725104, -0.294941634241245, -0.8007782101167318, -0.02504005493247874, 1.6011444266422528, 0.7427328908216984, -0.24769970244907302, -0.018722819867246443, 0.02494850080109856, -2.772304875257496, -0.011490043488212365], [0.4937972075989929, -1.5774319066147862, 2.971160448615244, 2.74346532387274, -0.377431906614786, 0.8650492103456173, -0.018631265735866265, -0.4393224994277869, -0.07045090409704757, 2.147905699244678, 0.017441062027923948, 2.2401922636758984, -0.19368276493476788, -2.4080109864957655, 2.11311512932021, -2.8915999084458686], [0.25392538338292514, -1.0955825131609065, -2.8628519111924926, 0.06834515907530303, -1.4302128633554587, -2.959899290455482, 1.6769512474250403, -0.05214007782101193, -0.2510872053101396, -1.675852597848478, 1.6676127260242621, 1.4458686198214696, 0.33101396200503563, -0.0005035477225909801, -2.1515678644998855, -1.7385671778439002], [-0.0064545662623025635, 2.545616845960174, -1.2167086289768827, -0.12941176470588234, 0.03364614328221549, -1.6054474708171207, -2.7802700846875714, -2.520439459830625, 1.6254978255893802, -0.6126344701304647, -2.832181277180133, -0.9602655069810027, 0.8944380865186545, 0.6550240329594867, 0.40242618448157463, 0.314259555962463], [-2.703547722590982, 1.1519798580910958, 0.02705424582284266, 1.506111238269627, -2.4591897459372856, 0.1852597848477915, 0.2987869077592129, 0.24184023804074162, 0.006179903868162029, 0.8132295719844356, 0.7870450904097046, 1.1629663538567172, -2.3142595559624626, -0.5245593957427328, -1.1450217441062027, -0.1944151979858093], [2.5942320897230484, -2.396932936598764, -0.13261615930418857, -0.1692378118562603, 0.29228656443122025, -1.0763561455710686, 1.5274433508812084, 0.24165712977798126, 2.679926756694895, -2.9291371023117416, -0.7909819180590523, 2.9746395056076906, -2.8371252002746625, -0.8005951018539714, -0.6418402380407415, -0.015701533531700562]], "b": [0.0004119935912108019, 0.9434195468070499, 1.5470359349965666, 0.37541771572442206, 1.5000686655985351, 4.57770656900891e-05, 0.1410391393911654, 0.37505149919890135, 2.2736095216296635, 0.0001373311970702673, 1.5938200961318385, 0.023849851224536422, 0.0004119935912108019, 0.0032501716639963263, 0.0004119935912108019, 4.57770656900891e-05, 4.57770656900891e-05, 0.030441748683909253, 4.57770656900891e-05, 0.0117647058823529, -3.0, 0.024216067750057135, 0.017624170290684305, -2.226550698100252, 0.0007782101167315147, 0.1301441977569242, 1.5469443808651864, 0.12043945983062532, -2.900022888532845, 0.07402151522087408, 0.09416342412451417, -2.2494392309452964, 0.011947814145113256, -2.9941405355916686, -2.9941405355916686, 0.02348363469901571, -2.8824444953078507, 0.18764019226367612, 0.18754863813229594, 1.5004348821240558, 1.511787594415198, 0.04728770885786204, 0.09379720759899346, 0.0015106431677729404, 4.57770656900891e-05, 4.57770656900891e-05, 0.05864042114900414, -1.4941176470588236, 0.0005035477225909801, 4.57770656900891e-05, 0.5156786449988555, -2.915037766079194, 1.148500801098649, 0.7500572213321126, 0.008834973678187197, 0.7529869535362783, 0.09379720759899346, 4.57770656900891e-05, 0.7734950789654382, 0.02348363469901571, 0.18974593728542022, 0.09388876173037364, 0.3047379262989245, 0.0029755092698557917]}, "layer_2": {"w": [[0.797024490730144, 2.3811856260013737, 0.010299839780270048, -0.1755550469214926, -0.8052643625543605, -0.33138017853055635, -0.12684824902723735, -0.3533531700617991, -0.8196383611810485, -2.354909590295262, -1.6418860151064316, -0.4251316090638593, 1.7102769512474252, 1.1498741130693517, 0.2154726482032503, -2.905607690547036, 1.6287937743190666, -0.04985122453650748, -2.8470130464637218, -0.16594186312657389, 1.6666056305790802, 0.6022888532845041, -2.0172579537651636, 1.3575188830395968, 0.17143511100938458, 0.2474250400549325, 0.16008239871824248, 0.8511329823758302, -0.5771114671549551, -0.06184481574731082, 0.0027924010070954353, -0.31865415426871113, -1.9679102769512475, -2.724971389333944, 1.5330281528953993, -0.07484550240329613, -1.4813916227969788, 0.7506065461203937, -0.9585259784847793, 0.8203707942320895, 0.12959487296864314, 0.03428702220187674, -2.2588693064774548, 0.619684138246738, 1.9911650263218128, 0.22142366674296188, 0.4113984893568321, -2.472739757381552, -0.16539253833829282, 2.9570611123826964, -0.6739757381551841, -0.6054932478828103, 1.7617303730830853, -0.42934309910734747, 2.4910505836575876, -0.6419317921721217, 0.5820553902494847, 1.6789654383154042, 2.9063401235980777, 0.13875028610666096, 0.06349279011215359, 0.9800411993591212, 1.9061112382696273, -0.8482032501716641], [-0.3593957427328909, -0.22957198443579774, -0.21657129777981243, -0.2512703135729, -0.321675440604257, -1.4528267338063627, 2.5186999313344014, 0.25227740901808193, 0.09608606088349791, 0.847928587777524, -2.5137560082398718, 0.2377203021286336, -0.10716411078049903, -0.004715037766079178, -2.0844586861982144, 0.2608834973678187, -1.8259098191805905, -0.2120851453421837, -0.11503776607919436, 0.9197070267795837, -0.35454337376974143, 1.66138704509041, -1.5283588921950104, 2.397299153124285, -2.1386587319752803, 2.0614785992217897, -0.5048752574959945, -2.2876173037308307, 2.3697413595788515, 0.8627603570611129, -0.5642938887617301, 0.9092698558022434, 0.9047837033646147, 0.854612039368277, 2.98461890592813, -0.8415197985809111, 1.7591668574044403, 0.20924696726939818, -0.056534676127260486, 0.004348821240558465, 1.7897459372854208, 0.28230716411078083, 1.2891279468986037, -0.9880979629205768, -0.02806134126802462, -0.12382696269169147, 0.146990157930877, 0.01634241245136181, -0.9698786907759214, 0.2586861982146944, 0.18287937743190685, 0.565758754863813, -0.22407873655298705, 0.2721446555275806, -0.3908903639276722, -1.654886701762417, -0.6067750057221328, -0.37248798352025636, 1.5237811856260013, 1.6072785534447247, -1.0195925841153581, 0.3659876401922637, 0.23653009842069128, -0.14799725337605896], [-1.1195696955825132, -0.1826962691691465, -2.3396200503547724, 2.4939803158617533, 2.095628290226596, 1.032867933165484, -2.87173266193637, -0.10615701533531707, 0.8225680933852137, -0.3289997711146717, -2.918608377203021, -1.8762645914396887, -2.0392309452964064, -0.029251544975966937, -2.0986495765621425, -0.04820325017166427, 0.03868162050812529, -1.9509727626459146, 2.6327763790341034, 2.849485008010986, -0.11732661936369881, -0.41451132982375816, 1.5474021515220873, -2.0150606546120393, 0.3916227969787136, 0.1520256351567868, -0.26353856717784385, -0.30473792629892404, 1.7226367589837492, 2.745662623025864, -0.576562142366674, -2.9688715953307394, 0.4948043030441749, 0.41066605630579067, -2.838315403982605, 2.701991302357518, 0.15403982604715072, -0.43694209201190226, -2.566308079652094, 0.5317921721217669, 0.07191577019912998, -0.1156786449988556, -1.1728542000457773, 2.775417715724422, -0.3596704051270314, 1.8616159304188606, -2.0612954909590293, 0.033920805676356025, 0.7198443579766538, 0.4493018997482259, 0.15898374914168034, -2.5045090409704738, -0.3665369649805448, 2.211169604028382, 1.5408102540627144, -0.060105287251087436, 2.875577935454337, -0.20888075074387746, 2.4381322957198446, -2.7706569008926527, -1.4777294575417717, -0.06962691691462597, -0.7216754406042574, -0.023575188830395888], [-0.18178072785534471, -0.03410391393911638, 0.1301441977569242, 0.1372854200045781, -2.141588464179446, 0.8000457770656899, 0.7420004577706569, -2.9591668574044405, 0.053330281528953805, -1.0535591668574043, 2.06678873884184, -1.1409933623254749, 0.824765392538338, -1.417029068436713, 1.5566491187914853, -0.9237354085603116, 0.8162508583199815, 0.15806820782787856, -0.8124055848020144, -2.182970931563287, -2.7823758297093155, 0.08574044403753689, 1.6016937514305338, -0.08024719615472664, -1.7930418860151063, 0.4092011902037078, -2.942961776150149, -0.30135042343785745, -2.770840009155413, 0.037491416800182975, -0.2613412680247196, -0.08784618905928143, -0.5232776379034103, -0.11934081025406273, 0.24669260700389106, 0.1781185626001376, 0.2809338521400777, 2.392538338292516, -2.9981689173723964, 1.9870450904097048, -0.26527809567406724, 0.029434653238727293, -0.20549324788281087, -1.0130922407873655, 2.1586175326161596, 0.07429617761501461, -2.628198672465095, -0.19349965667200753, 1.0250858319981688, -1.4511787594415195, 2.4330052643625546, -2.850217441062028, -2.237994964522774, -0.23707942320897235, -0.6522774090180818, -1.9632410162508585, -2.848111696040284, -0.7592126344701304, -0.8381322957198445, -2.8539711604486153, 2.8261387045090407, -2.8850080109864957, 0.24586861982146946, -0.20274662394140552], [2.691096360723277, 0.013595788509956463, 0.8536964980544752, -0.8163424124513621, -0.8013275349050129, 0.34236667429617773, 1.7005722133211263, 0.5048752574959945, -0.1838864728770888, -2.6150148775463493, -2.5412222476539252, 0.1309681849393458, -0.1337148088807507, 0.24751659418631267, -0.19835202563515697, 2.754818036163882, 1.3614557106889444, 0.2583199816891737, 0.5368276493476767, 0.6976882581826507, 2.121355001144426, -2.1062485694666973, 0.03685053788052173, 0.478416113527123, 0.20695811398489372, 2.190203707942321, -2.3606775005722134, -0.6582284275577934, 0.03675898374914155, -2.0460975051499197, 0.09983978027008522, 0.0025177386129549006, -0.06889448386358454, 2.8748455024032955, -0.0034332799267566827, 1.6101167315175102, -1.6298924238956283, -0.09590295262073711, 0.18635843442435363, -1.8745250629434653, 0.18681620508125452, 1.2179903868162043, 1.526710917830167, -0.05085831998168944, -0.5357289997711145, 0.5037766079194324, 0.24055848020141912, -0.5886472877088575, -0.25255207141222247, -0.8579995422293432, -0.10496681162737476, -0.7918059052414739, 0.029892423895628184, -2.0125886930647745, 1.540535591668574, 2.385397116044862, -2.0192721446555275, 0.8678873884184028, -2.917601281757839, 0.42211032272831295, 1.599221789883269, -0.1646601052872514, 0.27370107576104363, -1.6775921263447013], [-1.7340810254062715, 0.22417029068436722, 1.7673151750972762, -0.14561684596017432, 2.628381780727855, -1.6002288853284505, -2.7588464179446097, 0.07566948958571729, 1.7341725795376517, -1.692881666285191, 0.17628747997253402, 0.9845273517967499, -0.042618448157472955, -1.7647516594186312, 1.5065690089265278, -1.6308995193408102, 0.7994964522774088, -0.883085374227512, 2.793820096131838, 0.1708857862211035, -1.9363241016250858, -1.3587090867475393, 0.26179903868162047, 0.11165026321812821, -2.198260471503777, -0.2653696498054474, -2.90771343556878, -1.745616845960174, -2.8263218127718015, -2.180956740672923, 0.8867475394827196, -1.66166170748455, -1.9323872739757382, -0.32744335088120824, -0.5359121080338749, -2.4673380636301214, 2.14891279468986, 0.9088120851453425, -1.2776836804760816, 0.15303273060196876, 0.17326619363698814, -0.009933623254749335, 1.1928130006866553, -0.406729228656443, -2.733852140077821, 2.4251316090638593, 1.3423208972304872, 2.7822842755779353, 0.31746395056076926, -0.8602883955138476, -2.411856260013733, 1.7179674982833602, 0.9566948958571757, 1.3978027008468752, 2.1635614557106893, -1.3420462348363469, -0.01533531700617985, 2.842252231631952, 1.9138933394369424, 0.03996337834744779, 2.9523918516823073, -0.6371709773403524, 0.3567406729228657, 0.3790798809796292], [1.9185626001373315, 2.4544289311055163, 0.266193636987869, 2.607415884641794, 0.14076447699702488, -2.9493705653467615, -1.6597390707255664, 2.566674296177615, 0.06111238269626895, -0.2772716868848706, 0.13170061799038724, -2.119432364385443, 0.7983062485694665, 0.8170748455024031, -0.2733348592355229, 0.13636987869077632, 2.8964522774090176, -1.291783016708629, 0.38091096360723276, -0.7861295490959028, 0.018722819867246443, -0.007827878233005237, -0.46688029297322053, -2.6644541084916455, 2.1241931792172117, 2.2690318150606545, -2.7776150148775463, 0.4736552986953537, 0.8608377203021291, -0.16273746852826765, -0.018997482261386978, -0.37798123140306705, 1.1307392996108945, 1.9779812314030671, -0.017990386816205017, -0.10066376745250638, 2.8177157244220643, 1.5566491187914853, 1.7024032959487299, -2.6909132524605175, 0.967132066834516, 0.16575875486381353, 0.28514534218356635, -0.7383382925154498, 1.6687113756008243, 2.2514534218356603, 0.15339894712748947, -1.637949187457084, 0.40059510185397107, 1.4587777523460748, 1.592996108949416, -0.00865186541542684, 1.6384069581139853, 0.5493705653467611, 2.786312657358663, -1.5342183566033418, 2.922453650720989, -0.9663996337834746, 1.6523231860837724, -1.335454337376974, 1.477363241016251, -0.08445868619821484, 0.10817120622568144, -0.11265735866330973], [0.16218814373998658, 0.17839322499427812, 2.858640421149004, -2.401144426642252, 0.03675898374914155, 1.3053330281528952, 2.7797207598992903, -2.1562371252002746, -0.41066605630579067, -0.19176012817578414, 0.8917830167086294, 1.5744106202792398, 1.7664911879148546, -0.03630121309224066, -0.06330968184939367, -2.3560082398718243, -0.2624399176012817, -1.0470588235294116, -2.1566033417257953, 0.21538109407187012, 1.2622110322728313, -1.7747310597390706, -1.6762188143739987, 0.3657129777981232, 0.5218127718013275, 0.7638818951705195, -0.515953307392996, 0.006088349736781851, 0.1671320668345162, -0.30675211718928797, 2.174731059739071, -0.10835431448844135, -2.869260700389105, 0.06532387273975715, 1.6725566491187918, -0.031815060654611926, 0.02751201647974355, -0.03282215609979389, -2.293385214007782, 2.814419775692378, -0.1760128175783935, -1.714763103685054, 0.0059967956054016724, 0.3514305333028154, -2.8683451590753033, 1.6971847104600597, -1.357518883039597, 0.3572899977111468, -2.693293659876402, 0.06843671320668321, -0.09022659647516607, -0.5648432135500112, 2.4009613183794922, -1.5686427100022888, -2.6715953307392994, 2.8258640421149, -0.05012588693064801, 2.9921263447013047, -0.1852597848477915, 2.4473792629892426, 1.3255664911879146, -1.7436942092011902, 0.9835202563515679, 1.3752803845273514], [0.41121538109407174, 2.6317692835889215, 2.7315632867933166, -0.236896314946212, 0.06495765621423644, -0.8978255893797211, 0.9110093842984668, -2.4797894254978257, 1.2392309452964065, 2.9582513160906387, 0.035477225909819055, 0.5851682307164108, 1.5260700389105057, 2.8110322728313113, 1.0212405584802013, -0.08198672465095003, -0.1132066834515908, -0.5834287022201874, 2.4780498970016023, -1.6778667887388419, -0.6440375371938658, 0.06349279011215359, 0.2691233691920347, -1.9968413824673839, -2.504692149233234, -0.046738384069580974, 0.07768368047608121, 1.477363241016251, -0.4658731975280386, 0.22444495307850776, 0.09764248111696094, -2.9652094300755323, 0.9389333943694211, 0.33302815289539955, 0.43382925154497576, 1.9146257724879838, -0.012039368276493434, -1.6940718699931334, -2.6655527580682077, 0.04628061341268008, -1.746166170748455, 0.06614785992217875, -1.7362783245593958, -0.1990844586861984, 0.18361181048294828, 0.15056076905470395, 0.1969787136644543, 0.04792858777752329, 0.316823071641108, 0.7557335774776837, 0.11778439002060015, 0.20686655985351354, 1.7824216067750065, 0.06688029297322018, 0.12565804531929547, 0.2869764248111699, 0.7969329365987639, 0.17839322499427812, -1.5977569237811857, -0.042618448157472955, 0.0024261844815747224, -1.5598535133897917, -0.1927672236209661, 0.73842984664683], [-0.11073472190432598, -0.08683909361409947, 1.5161821927214465, -0.883085374227512, 0.5689631494621192, 2.8146028839551382, -0.15632867933165517, -1.927168688487068, 0.1280384527351801, -0.5579766536964978, 0.03428702220187674, 1.7686884870679789, -0.22819867246509506, 2.6451361867704275, -2.837857633325704, 0.045090409704737766, 2.107438773174639, 1.9879606317235066, -1.1501487754634927, 0.4855573357747769, -1.7684138246738383, -0.0168001831082627, 1.9864042114900435, 1.9929961089494164, -0.1224536507209888, 0.11778439002060015, -0.08995193408102553, 0.35280384527351805, 1.1086747539482715, 0.08601510643167742, 0.3206683451590755, -0.11979858091096363, 0.043076218814373846, 0.054337376974135765, 0.18992904554818058, 2.9648432135500116, -0.08693064774547965, 2.7300068665598536, 0.03840695811398476, -1.9008010986495767, 0.255390249485008, -0.42128633554589134, 2.946990157930877, 0.04582284275577919, -0.04097047379262975, -1.5929045548180363, -0.5438773174639504, -0.2414740215152209, -0.00563057907988096, -0.6432135500114442, -0.7821927214465552, -0.845090409704738, -0.20988784618905942, 2.101304646372167, 0.2066834515907532, -1.285099565117876, 0.47402151522087443, 2.794369420920119, 0.9998168917372396, -0.1759212634470133, -0.6314030670634012, -1.119478141451133, -0.6025635156786446, 0.05626001373311951], [-1.395422293430991, -2.633783474479286, -0.6513618677042801, 0.4591897459372851, 1.0532845044632637, -0.27397573815518417, -0.20000000000000018, 2.04115358205539, 2.5864499885557333, 0.2853284504463267, -0.2549324788281071, -0.11705195696955828, -1.5004348821240558, -1.869764248111696, -0.8376745250629436, 0.0037994964522773955, -1.2938887617303731, 2.74877546349279, 1.2549782558937972, -0.2078736552986955, 0.3890592813000686, -2.1458915083543144, 0.5271229114213778, -0.08738841840238054, 0.572442206454566, -0.21739528496223404, -2.813870450904097, -2.152849622339208, 0.202471961547265, 0.35820553902494856, 1.6796978713664457, 0.977386129549096, -0.5296864271000228, 1.8091554131380185, 0.7375143053330282, -0.15111009384298502, 0.20292973220416588, 2.373128862439918, 1.3942320897230482, -0.33302815289539955, 0.15184252689402644, -0.6289311055161364, -2.3711146715495537, 0.9237354085603116, -1.8762645914396887, 1.0659189745937283, -1.045685511558709, 2.050400549324788, 2.8238498512245362, 1.2048065918974586, -1.3322499427786678, -2.5360952162966353, -1.474341954680705, 0.11567864499885605, -0.35609979400320446, -0.2049439230945298, -0.11357289997711151, 1.675303273060197, 2.9056076905470354, -0.06761272602426205, -2.418448157473106, -0.27699702449073005, -0.18544289311055184, -0.18883039597161844], [2.0151522087434195, 2.3081254291599906, -2.2449530785076677, -0.9488212405584804, 0.36955825131609066, -1.292790112153811, -1.1203936827649348, 0.15898374914168034, -0.11174181734950794, 0.841702906843671, 1.5723048752574957, -2.0326390478370335, 0.2481574731059739, 2.757473105973907, -0.048386358434424626, 0.41579308766308065, -0.05928130006866583, 1.7099107347219045, -2.7632410162508583, -2.9463492790112156, 2.383474479285878, 0.2659189745937285, 0.611993591210803, 0.20613412680247212, 0.15678644998855606, 0.11558709086747587, -0.2066834515907532, -0.33934538796063185, -1.9182879377431907, 1.5171892881666285, 0.21647974364843225, 1.8752574959945072, -0.30006866559853496, 0.18736552986953559, 2.8266880292973218, 2.1195239185168226, 0.2477912565804532, 0.20512703135729016, -0.5835202563515676, -0.3576562142366675, 1.2871137560082397, 0.09123369192034758, -0.13746852826733802, -2.803707942320897, 1.7180590524147403, 0.11888303959716229, -0.0023346303501945442, 0.5229114213778896, 1.8146486610208292, -2.2588693064774548, -0.2532845044632639, -0.2498970016021973, -1.8106202792401007, 1.5265278095674066, -0.9303273060196844, 0.06358434424353376, -2.774868390936141, -0.20604257267109194, -0.2746166170748454, 0.1587090867475398, 2.7901579308766307, -0.5241016250858319, -0.010849164568551117, 2.4782330052643626], [0.14296177615014916, -0.9012130922407877, 0.2679331654840924, -0.24367132066834518, -1.4774547951476311, -0.6280155642023346, 0.2099794003204396, -0.09105058365758767, -2.4173495078965437, 0.1848020141908906, -2.823392080567636, -1.020050354772259, 1.6436255436026554, -0.06688029297322062, -2.900572213321126, -0.23881895170519574, 0.10615701533531752, 0.14552529182879415, 0.40782787823300515, -0.833279926756695, -1.8040283817807277, 0.7034561684596019, -0.9035934996566723, -2.4339208056763564, -2.031448844129091, 2.4376745250629437, 1.5042801556420233, -0.09169146257724892, -2.4883955138475624, -0.2167544060425728, -0.18498512245365095, 0.17024490730144226, 0.14186312657358702, -1.4780956740672924, -0.008834973678187197, -1.5219501029983977, 2.3816433966582746, 0.791897459372854, -0.8690775921263447, 0.7083085374227513, -0.10890363927672242, 0.24449530785076679, -1.6737468528267339, -0.7753261615930418, 1.6683451590753036, -1.7686884870679789, 2.3126115815976194, -0.5988097962920573, -1.6848249027237354, 1.772808422980087, 2.906981002517739, -0.24513618677042803, -0.38265049210345614, -1.8447699702449072, -1.8377203021286335, -0.1111009384298467, -2.5864499885557337, 0.026779583428702125, -0.6946669718471044, -0.02037079423208965, -0.880521858548867, 0.03767452506294333, -0.8279697871366447, 0.979949645227741], [-0.4016937514305332, -1.2864728770885787, 1.9838406958113985, -1.5382467383840697, -1.5138017853055619, -2.52318608377203, -1.7791256580453192, -1.9443808651865415, 0.07237354085603087, 0.19963378347447946, 1.8912794689860384, -0.7821927214465552, -0.9485465781643398, 1.6635843442435343, -0.8125886930647748, 0.3314717326619365, 2.8131380178530554, -0.5696040283817805, -0.012497138933394325, 0.8265964751659416, -2.927214465552758, -2.381460288395514, 0.020553902494850007, -1.9757839322499429, -2.4653238727397575, 0.8265964751659416, -0.06962691691462597, -0.8742046234836347, -2.963103685053788, 0.06422522316319501, -0.8568093385214008, 1.5301899748226138, 0.4738384069581141, -0.2709544518196383, 1.3765621423666738, -2.730830853742275, 2.2563057907988098, -2.7642481116960402, 0.25008010986495766, 0.16603341725795406, 0.49407186999313346, -2.9286793316548407, -0.9225452048523692, -0.5228198672465094, 0.16218814373998658, -0.3433737697413597, 1.512336919203479, 0.013595788509956463, 0.2789196612497138, 2.849942778667887, 0.3308308537422753, -0.8110322728313117, 2.616205081254291, 1.5920805676356142, -0.278004119935912, -2.7402609292744335, -0.9728084229800871, 0.13554589150835472, -2.6525520714122224, -0.5972533760585943, 0.18123140306706365, -0.24476997024490732, 2.083726253147173, 0.11265735866331017], [-2.0244907301441977, 0.11531242847333534, 0.447837033646143, -0.36488899061570157, -1.0077821011673151, 0.010116731517509692, 0.11622796978713712, 0.7653467612726024, 2.455252918287938, -0.9854428931105517, -2.986724650949874, -0.1822384985122456, 1.3849851224536502, -0.20769054703593515, -0.3162737468528265, 2.876585030899519, 2.8517738612954906, -0.6156557564660106, 0.30775921263447037, -0.02906843671320658, -0.20695811398489372, -2.250263218127718, -2.9921263447013047, 1.1187457084000911, 0.0768596932936596, 0.04802014190890347, -2.118883039597162, -0.7504234378576333, -0.20897230487525764, -1.7083543144884412, 1.8540169375143059, -0.07338063630121328, 0.8091096360723276, -1.7115587090867477, -1.663126573586633, 0.12703135728999815, 2.683863584344243, -0.13472190432593267, -0.22124055848020152, 0.8152437628747995, 0.24925612268253605, 1.894209201190204, -2.9273975738155182, -2.776058594644083, -0.16539253833829282, -0.007461661707484524, -0.06431677729457563, 0.5499198901350422, -2.835385671778439, -0.38420691233691917, 0.937834744792859, 0.0701762417029066, -2.4797894254978257, 1.1385214007782096, -0.8816205081254291, -0.5465323872739756, -0.0012359807736324058, 0.13279926756694937, -2.291462577248798, 2.54369420920119, -1.2563515678644999, -0.13975738155184247, 0.6442206454566257, -0.7766994735637445], [-2.7673609521629663, -0.02449073014419767, -0.9707942320897232, -0.14579995422293468, 0.278004119935912, 0.06422522316319501, 0.2112611581597621, -0.6955825131609061, 1.7696040283817807, 1.7356374456397345, -2.058548867017624, -1.2889448386358435, 0.08628976882581796, -0.30464637216754387, -0.32524605172808396, -0.08079652094300771, 2.3178301670862895, 1.2375829709315633, 0.1713435568780044, 1.187045090409704, 2.723964293888762, 2.7894254978255892, 1.9916227969787137, 1.805310139620051, -0.018997482261386978, -0.011306935225452008, 1.9766994735637446, 0.7727626459143968, 0.28130006866559887, -0.7542687113756008, 0.2767223620965895, -0.09645227740901818, 2.080247196154726, 0.08592355230029725, 0.5452506294346531, 2.9770199130235753, 0.415976195925841, 0.05571068894483844, -2.799496452277409, 2.224078736552987, -1.529182879377432, -2.4392309452964067, -0.004165712977798108, -0.17747768368047634, 1.0379034103913938, 2.732845044632639, -0.8960860608834977, -0.34016937514305345, -1.4899977111467155, -1.3919432364385442, -1.3163195239185168, -0.5728999771114669, -0.23588921950103003, -0.1717097734035251, -2.694850080109865, -2.51274891279469, -0.19478141451133002, 2.0581826504921032, 1.218905928130007, 2.1169604028381777, 0.3349507896543833, -0.10588235294117654, 0.12455939574273334, 0.007186999313343989]], "b": [0.09416342412451417, 0.0001373311970702673, -2.8945296406500343, 0.0002288853284504455, 1.5235065232318608, 0.0588235294117645, 4.57770656900891e-05, 0.0029755092698557917, 1.5038223849851224, 0.04701304646372151, 0.014694438086518602, 0.04710460059510169, -2.6161135271229115, 0.0004119935912108019, 0.0007782101167315147, 0.02494850080109856]}, "layer_3": {"w": [[2.01533531700618, 1.5004348821240558, 2.7720302128633554, -0.32973220416571314, 2.302082856488899, -2.1264820325017166, -2.932524605172808, -2.2884412909132523, 0.4348363469901577, 0.7726710917830166, -1.6306248569466697, 1.9086747539482722, -1.2534218356603342, -0.03273060196841371, -0.4400549324788283, 0.0701762417029066], [0.3266193636987871, 0.24687571526665142, 1.7833371480888083, -1.268162050812543, 0.3844815747310597, -0.08802929732204179, -2.445639734493019, 1.0571297779812312, 0.20384527351796766, 0.5777523460746163, 0.2577706569008926, -2.26674296177615, 0.2570382238498512, 0.36745250629434656, 0.5705195696955823, 0.11869993133440193]], "b": [0.0117647058823529, 1.1250629434653234]}}, "output_interpretation": "atan2"}