{"format_version": 1, "architecture": {"layers": [6, 12, 2], "activations": ["tanh", "asinh"]}, "weights": {"layer_0": {"w": [[0.49910734721904326, -2.545250629434653, -2.699977111467155, -0.8449988555733579, -2.951750972762646, 2.218402380407416], [-0.19789425497825608, 2.9560540169375145, -0.07585259784847809, -2.1100938429846647, 1.679880979629206, 1.6307164110780503], [0.8043488212405583, -1.3632867933165485, 2.7809109636072327, -1.8520943007553217, 0.6122682536049435, 0.7561913481345846], [-2.260517280842298, 2.6419317921721213, -2.8387731746395057, -2.847562371252003, 2.6919203479056986, -0.862027924010071], [2.94854657816434, -0.0096589608606088, -2.2493476768139162, -2.7655298695353627, -0.8904097047379262, 0.7422751201647975], [-2.1711604486152436, -0.035019455252918164, -0.8929732204165717, -2.637537193865873, -2.1142137788967728, 2.6769054703593493], [-1.8315861753261615, -1.010803387502861, -0.9452506294346534, 1.9594872968642711, 0.9341725795376519, 2.669031815060654], [-0.8046234836346993, -1.4016479743648431, 1.3458915083543141, -2.7258869306477456, 0.40654612039368265, -0.18260471503776632], [-1.1034561684596018, -0.6707713435568778, -2.8279697871366447, 0.5567864499885555, -1.247653925383383, 1.1152666514076444], [-0.2709544518196383, -0.09224078736552999, -2.612909132524605, 0.8217441062027921, -1.7521171892881666, 2.3945525291828798], [-2.718471046005951, 0.1012130922407879, 2.305745021744106, 0.6920119020370796, -2.572259098191806, 2.2324101625085833], [-2.549370565346761, 1.6375829709315637, -0.43273060196841406, 1.359716182192721, -2.844998855573358, -0.3375143053330283]], "b": [0.06825360494392285, 2.3210345616845958, -1.2824444953078509, -0.061661707484550465, 1.1070267795834283, -1.5298237582970933, 1.406958113984894, -1.8746166170748455, 2.2442206454566263, 1.315495536736095, -2.1908445868619824, 0.6476997024490725]}, "layer_1": {"w": [[0.9158617532616162, -0.4669718471046007, -2.9879148546578165, -1.309178301670863, 2.493430991073472, -0.8921492332341501, 0.09297322041657097, -0.5175097276264591, 0.09929045548180415, -0.07841611352712308, -2.71279468986038, -2.816250858319982], [1.5800869764248109, -1.7680476081483176, 2.4929732204165713, -2.8736552986953536, 0.713801785305562, 0.17839322499427812, 1.6666056305790802, 1.4314946211947817, 2.386861982146945, 1.8881666285191123, 0.3290913252460519, -0.4590066376745252]], "b": [-2.627100022888533, -2.660059510185397]}}, "output_interpretation": "atan2"}