{
  "format_version": 2,
  "architecture": [
    {
      "type": "dense",
      "input_size": 23,
      "output_size": 32,
      "activation": "swish"
    },
    {
      "type": "gru",
      "input_size": 32,
      "hidden_size": 16
    },
    {
      "type": "dense",
      "input_size": 16,
      "output_size": 2,
      "activation": "asinh"
    }
  ],
  "weights": {
    "layer_0": {
      "w": [
        [
          0.06428711332413815,
          0.026256805865869245,
          -0.23711140016464385,
          -0.05436429374232838,
          -0.17302110986739955,
          0.45458216701910364,
          0.3720928626839629,
          0.1734010887801324,
          0.01682961174433478,
          0.14243003383339609,
          -1.6221776391710736,
          1.2098672732933469,
          0.19407945263424453,
          -2.6543577146503774e-06,
          -0.006586397595840304,
          0.25832444588982906,
          -18763686.71655655,
          0.1569148742768482,
          0.22607962816763683,
          0.309470241575492,
          -0.49323231986997357,
          0.1409507778278802,
          0.8922906457703589
        ],
        [
          -0.16556835185903196,
          -0.01755507452994276,
          -0.30901766193552577,
          -0.2012602554017942,
          -0.13194154423802104,
          0.3724243142110644,
          0.08042328871741844,
          0.25366446827232325,
          0.22247208530195658,
          0.200753468794891,
          -1.7433273590100866,
          0.14434233707123195,
          0.1830099743572729,
          1.3912598469624403e-06,
          -0.004164110565048976,
          0.24830687253225828,
          -1470491.7557537556,
          0.8402548330938369,
          -0.16115133373013982,
          -0.09937411407254441,
          -0.17926437599337472,
          1.1102358345476895,
          -0.035536485447661456
        ],
        [
          -0.23444534298168634,
          -0.06091401012123162,
          -0.19205691010711298,
          0.0881211218757477,
          -0.25013861903001133,
          0.28415654540804375,
          -0.4681368330592487,
          0.3268893276968129,
          -0.05047573011532528,
          -0.25599429004920793,
          -1.3691590609714483,
          -0.6187191562642684,
          -0.3471743418826718,
          -1.535176763645819e-06,
          0.015807108208890558,
          0.16828984075027956,
          7888111.472129822,
          -0.6327504922140339,
          0.2844828934867292,
          -0.6761405904736034,
          0.26961716010028186,
          0.33611661426222256,
          0.26387762096980083
        ],
        [
          0.2427001982956645,
          0.0015532439640698237,
          -0.33005270236146494,
          -0.01849690873436992,
          0.047432901270114444,
          0.12822934310272363,
          -0.032050952017850895,
          0.20272934402932088,
          -0.09733196243883203,
          -0.30840528732952976,
          1.76294399972948,
          -0.10818384455044917,
          -0.6702865751921632,
          -3.2041709453200117e-06,
          -0.007038960797187348,
          -0.1083937781050542,
          -1450032.088905573,
          0.5242844976364762,
          0.20540488752045552,
          0.38356866659138145,
          -0.34780765304086086,
          -0.11359286416497218,
          -0.2927995113042028
        ],
        [
          -0.44953174100849425,
          0.045485618751083555,
          0.4941339647810282,
          -0.18421042286329334,
          -0.10623384101438584,
          -0.3571955853526163,
          0.27758339569390666,
          0.013017138251337547,
          0.47070427010463295,
          0.37097193780020704,
          0.3689680242289009,
          -0.29734363711721495,
          -0.030900228319381898,
          -4.029529914506638e-06,
          -0.01791952289789024,
          -0.11971707724126901,
          -8654219.657182693,
          0.32500753417764755,
          -0.2108722290649953,
          0.11742164005385419,
          -0.20780277255366505,
          0.2899428427634393,
          0.03435892758122168
        ],
        [
          -0.14588558595189263,
          0.05257090700662861,
          0.027102767721737142,
          0.08648536254456424,
          -0.08583643014256988,
          -0.257344899100814,
          0.3088276908501182,
          0.2709724101284571,
          -0.2472390572384738,
          0.02930321269987267,
          0.7215476995338481,
          1.2924019413372445,
          0.35114130086659745,
          -3.349447501406223e-06,
          0.015938352303774512,
          0.061230799502055365,
          19759941.10107422,
          0.569219134255771,
          0.14904057579228389,
          0.8136465935701251,
          -0.11268595484001272,
          -0.8422950564960184,
          -1.0841632206860572
        ],
        [
          0.022321259359758944,
          0.08922657235743345,
          0.11505970772939313,
          -0.01962520500695307,
          0.13051212153937397,
          -0.17307995803175386,
          -0.19522422914991558,
          -0.3963550033063333,
          -0.12874912348020828,
          0.07491673959536194,
          0.0792246693203275,
          -1.1489637256140315,
          -0.10200151839806461,
          2.0849812289113092e-06,
          -0.012232162960596116,
          -0.0007559442270236355,
          10903481.394052505,
          0.5872296269612991,
          -0.009733602422065458,
          -0.5228162021653427,
          -0.11745520033819594,
          -0.5235841569533237,
          -0.43496752468614175
        ],
        [
          0.30432666918870455,
          -0.01927565849374748,
          0.02968530181682011,
          0.19014944895388738,
          0.03255046677036122,
          -0.09890213532330983,
          -0.13986336774234123,
          -0.5002330855535464,
          -0.3904474829907507,
          -0.00793211303062952,
          -2.575557981961094,
          -1.1159995410483095,
          0.6932979707786566,
          9.680640061370332e-07,
          -0.02696075840505809,
          0.18629889876989966,
          -15870520.47252655,
          0.5163825317980832,
          0.09368286525668756,
          0.21501245257539725,
          -0.41490703252568917,
          0.4267173837160409,
          -0.504126883248314
        ],
        [
          -0.44178539159751967,
          -0.07613038586691591,
          -0.13376454732057444,
          -0.1181350935466672,
          0.10241938962165244,
          -0.16821196265070543,
          0.10846228762156918,
          0.2690764627381787,
          0.45571819605930636,
          -0.13188399002103018,
          -1.9126473648771616,
          -0.9267802062498548,
          -0.20649287076793282,
          -1.9215885859798803e-06,
          -0.008111775496786584,
          -0.08201587159784786,
          -16496396.0647583,
          -0.4101303411143808,
          0.03404877977481213,
          -0.12618468104056904,
          -0.2610033628828478,
          -0.6132502834253944,
          0.2198315283344639
        ],
        [
          0.029247798253488406,
          -0.03524958186668073,
          -0.19127788780943525,
          0.17515168910035508,
          -0.0402451840917489,
          0.5470196018233175,
          0.483782010655305,
          -0.06347065392983586,
          0.30389333937886714,
          0.23189227800961124,
          -3.9518192437341852,
          1.844815057228435,
          0.7401199013942236,
          3.4768844565379376e-06,
          -0.005340524965277346,
          0.26117162223702106,
          -18907363.71278763,
          0.5262099665191623,
          0.2802787477924258,
          -0.26288717993762456,
          -0.11690044661353376,
          0.8249539108547089,
          -0.3704473694732811
        ],
        [
          -0.22130515115700447,
          0.12725743800853453,
          -0.25330581331939755,
          0.05652336420785905,
          0.016086525585557447,
          0.24193563643025676,
          0.14715325208589478,
          0.19958132247859509,
          -0.15160397454104257,
          -0.17924118092083047,
          -2.8337157801440402,
          1.310457081550416,
          0.4093710824481926,
          -3.2602820538491335e-06,
          0.01024375481144686,
          0.05892675286107387,
          9947723.150253296,
          0.2513096571601534,
          0.2189623959886165,
          -0.423686096934986,
          -0.06404336460347132,
          0.8437855924151055,
          1.1421416317990356
        ],
        [
          0.01659548699775985,
          -0.015221406183525134,
          -0.10509846184825153,
          -0.07535000644888099,
          0.0358046489652685,
          0.2802323953526997,
          -0.42251547721450033,
          0.15198431510224397,
          0.4079731538893667,
          -0.06363205590765822,
          0.8843996002791948,
          0.9325551772056789,
          -0.3698703297041543,
          -3.7488138397451306e-06,
          -0.00488109212568667,
          0.043641707295779535,
          -18125267.326831818,
          0.3393267524130347,
          -0.02434105523439436,
          -0.10288592500175826,
          -0.12151780270409487,
          -0.25145675745829354,
          0.003670323845601053
        ],
        [
          0.25194175932605306,
          0.03494512208958072,
          -0.17213905939567714,
          0.18004503731410554,
          -0.19365293712153267,
          -0.7102467267349835,
          0.09052483547855589,
          -0.4659660692454762,
          0.4402634771195104,
          0.007484158139632333,
          -1.998550664434231,
          -0.24328970030734035,
          0.04618557698933635,
          -3.365136322623839e-06,
          0.007371048902417267,
          0.17090542024831892,
          413163.1925702095,
          -0.6141551011972294,
          -0.1834795386049802,
          -0.5423906395062434,
          0.108962855082386,
          -0.24983866018068396,
          -0.25217976705179895
        ],
        [
          -0.12352619698935687,
          -0.08185612814859906,
          0.1853168681615395,
          0.23457051785978345,
          0.1706003543834021,
          0.3152814816766114,
          0.015479732399433321,
          0.12202693133877343,
          -0.11077406885820958,
          -0.19200685046049734,
          0.7589442740749969,
          0.4224170694180219,
          -0.8830465181373505,
          -2.688981812340521e-06,
          0.0023701557301868755,
          -0.1494898722631812,
          4872902.855277061,
          0.19986070389711064,
          -0.12849986089046106,
          0.2022695546778161,
          0.40701432282538186,
          0.3889274945080829,
          -0.22625821744284663
        ],
        [
          0.26144188441975735,
          -0.09653973963056049,
          -0.25389887893566665,
          -0.1343379972894721,
          -0.0006553936090819331,
          0.056067521629902896,
          -0.3438004650814102,
          -0.31642598192261906,
          0.18777303653718005,
          0.2557435909372641,
          0.020287369659572004,
          0.5816325484693966,
          0.40350500549961754,
          -2.9513949719284793e-06,
          -0.011690626609183843,
          0.2367557617344389,
          -16552504.897117615,
          0.029521591779356825,
          0.27865870466156767,
          0.4169939721477932,
          -0.43955552646565876,
          -0.6497450959466025,
          -0.4995721728492139
        ],
        [
          0.4708046143177134,
          -0.06870798308538495,
          0.017429681372670484,
          0.11940682614211495,
          -0.20094925192364174,
          -0.6180074471049385,
          -0.21768499054137044,
          -0.27461460267938204,
          -0.2693666274080236,
          -0.330310816672745,
          1.0974089425115454,
          0.034932191048640905,
          0.112122599481234,
          -1.341016425187539e-06,
          0.025577790780660775,
          0.1924135414029397,
          -15350042.283535004,
          -0.49978336309459354,
          0.19234268973428156,
          -0.3872747064788215,
          -0.18152499667681718,
          -0.017897024642303798,
          0.5587223555288069
        ],
        [
          0.15278976736843236,
          -0.02567089648432291,
          -0.21092277056413333,
          -0.2299074559665842,
          -0.14274268967159148,
          -0.36181851294046213,
          0.10130682953389364,
          0.2738419795846194,
          -0.28739148638242457,
          0.23551118723366785,
          -0.4450051385950031,
          1.3946789014485026,
          0.9021946746575817,
          -1.9979321255748194e-06,
          0.032061231601171455,
          0.017159221943033338,
          10517109.18545723,
          0.38344617253757574,
          -0.1471315516488692,
          0.5194829969011446,
          -0.3996007795327672,
          0.9055186004942944,
          0.9357903077166742
        ],
        [
          -0.007052573958918823,
          0.060334745025612146,
          0.09901066172660353,
          -0.07241692513536832,
          0.15170535265088816,
          -0.11997536625338645,
          -0.2757251568392114,
          -0.2662848048545975,
          -0.4613436025683637,
          0.36291287069835393,
          0.11199627506308303,
          -0.4234675619766266,
          -0.3931215526538651,
          -9.065796422574564e-07,
          -0.0025976836954403042,
          0.19350993438832417,
          5254567.414522171,
          -0.04246227291102994,
          0.08326587314359074,
          -0.45816670505034635,
          -0.028692558724857396,
          0.5283478386514747,
          1.1712932384601669
        ],
        [
          0.039177587868295706,
          0.04079726535476451,
          0.3939862905464718,
          0.050766605744477306,
          0.03936339091165931,
          0.2811012557775946,
          -0.08249077056090552,
          -0.11219487002886626,
          0.3490227537570176,
          0.4988580167440181,
          -2.0571395004737183,
          0.15264296085103024,
          -0.12581838980748447,
          2.509162520297634e-07,
          -0.02048907605649918,
          -0.13483550376846004,
          -16506230.83114624,
          0.5636928774456663,
          0.17759360662364748,
          -0.4145807708381693,
          0.24363550900382352,
          -0.48736584152088464,
          0.33128601433863303
        ],
        [
          0.37347792913913963,
          -0.002712244784587266,
          -0.24527230038900064,
          -0.09267526996261052,
          -0.23732540963893156,
          -0.7741204534974904,
          -0.507221883464293,
          -0.32779140691599146,
          -0.18330887589547692,
          0.18554859981890265,
          2.472782840667676,
          -1.748734926849906,
          -1.0721645920877956,
          5.405192976994978e-06,
          -0.010541530495146525,
          -0.3280902807504917,
          -16748788.952827454,
          -0.8263884417415923,
          0.15657561968480752,
          0.06810313008691536,
          0.15407732986555597,
          -1.1463520881515092,
          0.3909591514788111
        ],
        [
          0.14614423983003777,
          -0.03959004830103971,
          -0.1492789959578424,
          0.14142826428831384,
          0.2729213326269005,
          0.07204786521787311,
          0.1189071200220804,
          0.10645133248291148,
          0.47146902689076514,
          0.3732836970593176,
          -1.2097705118250142,
          0.8116617629983709,
          -0.5943430681561417,
          3.4520550718786977e-06,
          0.004705633444760609,
          0.021368443635960355,
          4754196.479916573,
          -0.753695894110273,
          -0.08692268303969314,
          -0.35702196952171494,
          0.21942335461504445,
          -0.9163137731225093,
          0.1394751182029812
        ],
        [
          0.136885023770316,
          0.11490244792988537,
          -0.20341757328636784,
          0.1353399334783782,
          0.027696804240792957,
          -0.23760234093477983,
          -0.4669262843465111,
          0.023046938277509872,
          -0.20628872835950074,
          -0.3643647267403948,
          -2.009300664199175,
          0.9305700427418407,
          -0.5009474162716758,
          -4.2330260344788414e-06,
          0.0071817427068574195,
          -0.047101193612548616,
          13704274.594783783,
          0.5049680227357926,
          -0.26919900882262476,
          0.25284717815337465,
          -0.3798792503714543,
          0.6968171962933549,
          -0.9543384606759915
        ],
        [
          0.08382706082175152,
          -0.09190880988341114,
          -0.18061934932265636,
          0.19153568906124963,
          0.22356194642012447,
          0.12246415508646966,
          -0.2956849350022941,
          0.3274348078290188,
          0.22862576785230246,
          0.1936405759306103,
          2.9229212327389535,
          -0.6684234769886979,
          0.18810241419046717,
          -1.9907520073800867e-06,
          -0.0034712468326175143,
          0.1404198773915651,
          326847.75069355965,
          -0.5138952235216236,
          0.054736257348128266,
          -0.48020749830468323,
          0.11570547159018517,
          -0.12066532840884711,
          0.20855073534054736
        ],
        [
          0.32667531886377527,
          0.058881386796077455,
          0.1699273682999896,
          0.29391730041782166,
          0.1861820988346708,
          0.25836419540608024,
          0.17669231209976788,
          -0.3713557965423034,
          0.311141098958856,
          -0.44780188822391787,
          0.9555935054210538,
          -0.5741667433647775,
          -0.5261074506362851,
          -2.2597194353068784e-06,
          0.008148580182935251,
          0.25727809487210784,
          -17237365.24581909,
          -0.6541621752512446,
          -0.10605278870580456,
          0.2880209869200323,
          -0.18734612844169796,
          -0.10930962004943469,
          -0.5415705371443961
        ],
        [
          -0.06421998956980925,
          -0.07939540594377328,
          -0.08468578858842274,
          0.24582992073314375,
          0.2261293769898357,
          -0.23106770171367375,
          -0.1087952433183286,
          -0.19429511892500173,
          0.18513903051423516,
          -0.06790547577684035,
          -0.9159514153787656,
          0.9332697311948503,
          0.19863645763685125,
          3.289743078058195e-06,
          0.01452345860702584,
          0.19955976686133814,
          -7130613.923072815,
          -0.11123169740235264,
          0.2196823203361772,
          -0.44355025120890457,
          -0.23565857513787797,
          0.45284791947536784,
          -1.4354819015632858
        ],
        [
          -0.3729609549807873,
          0.004348155136746047,
          0.16412869553246065,
          -0.10235264395268569,
          0.0025208075691636337,
          -0.3853925252684418,
          -0.027219840619917734,
          0.0071500687970356,
          -0.02719472973188423,
          0.12604475332268328,
          1.1192982051908156,
          0.026878369524137247,
          0.5369930812252268,
          2.928421849426873e-06,
          0.0033675402874660636,
          0.06382768777378692,
          17811465.2633667,
          0.34657779654388227,
          0.05687984254708375,
          0.6812688368880211,
          0.09496624617000814,
          0.19735564241018702,
          -0.9790510560943267
        ],
        [
          -0.08133194712134195,
          -0.08403017224796348,
          0.46189567483266114,
          0.19752010044482926,
          0.030299760358909345,
          -0.0014198657843178827,
          0.21685799232389996,
          0.12642019987493197,
          0.28603921482593186,
          -0.1797687338398002,
          0.8517109084102245,
          0.9229632718462817,
          0.06148757202183223,
          3.7749114531639846e-07,
          0.0018797785103613128,
          -0.011437447129606293,
          -2479486.1674308777,
          -0.2187428286113688,
          0.1862076943095686,
          -0.5085678472746967,
          0.2644019628339846,
          0.17799444344119522,
          -0.2709311182200537
        ],
        [
          -0.21049984979232653,
          0.0195706497507701,
          0.15535459225087003,
          0.09507223636764436,
          0.3006044567270216,
          0.37446584670295785,
          0.38852275971379224,
          -0.037921590083375166,
          -0.17827389458840434,
          -0.19030362279898128,
          -1.444316989950076,
          0.22140428917487556,
          -0.4604445888530819,
          1.1557408255899298e-06,
          0.01789638687793583,
          -0.10212482947017701,
          -18531851.47047043,
          -0.5865623472182602,
          0.12713078000771694,
          0.30419419349626936,
          0.28930303992415873,
          -0.6700578207840985,
          0.2687950140473927
        ],
        [
          0.010945395658349764,
          -0.12121846982037505,
          -0.1371055982471519,
          -0.2677949496276366,
          0.17789987192267,
          0.30075524105457796,
          -0.23575978708054937,
          -0.2423971761757133,
          -0.05612045093537254,
          0.39074632001569465,
          0.925787407986661,
          1.523884387595121,
          1.2306829524954177,
          -3.2895414737628777e-06,
          0.03148236470274415,
          -0.2697025110269856,
          -7228679.209947586,
          -0.3462469404946682,
          0.007765804671736532,
          0.6089030704960622,
          0.3446347428801085,
          -0.5670362796889251,
          0.4693338959495506
        ],
        [
          -0.3771596699509851,
          -0.09496455054187784,
          0.009793377920158702,
          0.04146439595749412,
          -0.16661697145074136,
          -0.46365378044584277,
          0.2366880570961701,
          0.05295452455208037,
          -0.1937383749196593,
          0.21921343504014698,
          0.2044707048592453,
          -0.5028463147076208,
          0.063377509718893,
          2.1772292186658128e-06,
          -0.009198625850287167,
          -0.11886886737960815,
          7894802.838563919,
          0.1325594716008722,
          -0.21316645455072886,
          0.21062914514021724,
          0.3666024781222581,
          -0.41405662024671525,
          -0.20697417776806964
        ],
        [
          -0.27468549160521355,
          -0.1079140235700303,
          -0.06962664052417221,
          -0.1377083683526876,
          -0.019625206536930145,
          0.41504008152261446,
          -0.21982178164173555,
          0.07183627274004217,
          -0.08784004751689867,
          -0.28667645203034026,
          1.7429547609321092,
          -0.3260136052477491,
          5.642163120164809e-05,
          -6.84983275777525e-07,
          0.005071462121055682,
          0.026003634911654624,
          18783685.564994812,
          -0.696781262966762,
          0.33166240936464686,
          0.43274716441081007,
          0.03499160790487541,
          -1.2498509371243456,
          0.14002093156739842
        ],
        [
          0.49731913239678066,
          -0.05838462968385554,
          -0.1741857291071197,
          0.15896477645417836,
          0.19485870771756492,
          0.2726007680835331,
          0.7065831450297434,
          -0.28611872712305236,
          0.27304647577919755,
          -0.23567365628143036,
          -2.894843673544277,
          1.7479903479970247,
          -0.2975511466959071,
          6.989142578040411e-07,
          -0.01133823943833775,
          0.10778464605376309,
          18824590.742588043,
          0.07970860513331882,
          -0.09975260793670476,
          0.48677888557380805,
          -0.27869112265833734,
          -0.6493004070803335,
          -0.13024347607982967
        ]
      ],
      "b": [
        7998079.268506795,
        626802.4708244915,
        -3362331.6769605624,
        618080.9271085799,
        3688886.189858316,
        -8422732.010560313,
        -4647642.719889727,
        6764856.059077127,
        7031637.220796095,
        8059323.169844904,
        -4240245.004705468,
        7725950.095048113,
        -176112.7646462505,
        -2077088.4232678895,
        7055555.285295266,
        6543000.452853049,
        -4482948.146517793,
        -2239776.057186849,
        7035831.195503544,
        7139218.920224695,
        -2026489.326019215,
        -5841487.326309158,
        -139321.1190580328,
        7347477.781861309,
        3039446.353732254,
        -7592190.518686646,
        1056888.9053466583,
        7899258.093612663,
        3081247.833561549,
        -3365183.8142869323,
        -8006602.349407932,
        -8024035.239553788
      ]
    },
    "layer_1": {
      "weight_ih": [
        [
          0.3519841730594635,
          0.011962749995291233,
          0.16295693814754486,
          -0.053782738745212555,
          0.29241088032722473,
          0.30256029963493347,
          -0.0995679423213005,
          0.09217164665460587,
          0.08518590033054352,
          -0.2347297966480255,
          0.2977530062198639,
          0.06723056733608246,
          -0.06461784243583679,
          0.16725987195968628,
          0.06846379488706589,
          -0.005743484012782574,
          0.15853694081306458,
          0.23350276052951813,
          0.1706944704055786,
          -0.03804580122232437,
          -0.2271285355091095,
          -0.050839655101299286,
          -0.28402194380760193,
          0.09084020555019379,
          -0.08577895164489746,
          0.16862787306308746,
          -0.16865190863609314,
          -0.024461133405566216,
          0.06389477103948593,
          -0.14678454399108887,
          0.11489218473434448,
          -0.16183482110500336
        ],
        [
          0.026588765904307365,
          0.1540946215391159,
          -0.16405679285526276,
          0.09519945085048676,
          0.2236674427986145,
          0.28984275460243225,
          0.2445722222328186,
          -0.200069397687912,
          -0.18966464698314667,
          -0.2207770049571991,
          0.2498665153980255,
          -0.02457474172115326,
          0.12262094020843506,
          -0.3656799793243408,
          -0.2105637490749359,
          0.11556553095579147,
          -0.08065711706876755,
          -0.015637461096048355,
          -0.18423761427402496,
          -0.1923094391822815,
          -0.012546241283416748,
          -0.1317671537399292,
          -0.4041694104671478,
          -0.1019737645983696,
          0.11297041922807693,
          -0.23375189304351807,
          0.08812723308801651,
          0.07387816905975342,
          0.21014823019504547,
          0.03373920917510986,
          0.19506296515464783,
          -0.11971499770879745
        ],
        [
          -0.05744059011340141,
          0.07654497027397156,
          -0.0024871432688087225,
          -0.20529158413410187,
          0.377619206905365,
          0.1372370570898056,
          -0.12052558362483978,
          0.3234284818172455,
          0.10798057168722153,
          0.12390930205583572,
          -0.002437749644741416,
          -0.29971903562545776,
          0.17852577567100525,
          0.028961023315787315,
          0.18614627420902252,
          0.24947302043437958,
          -0.052799295634031296,
          0.18975737690925598,
          0.2525841295719147,
          0.3684307038784027,
          0.18544019758701324,
          -0.2852327227592468,
          -0.12092795222997665,
          0.08309926092624664,
          -0.11023104190826416,
          0.20692293345928192,
          -0.15823858976364136,
          -0.06695180386304855,
          0.005068428348749876,
          -0.27389007806777954,
          -0.11276952177286148,
          0.0013808072544634342
        ],
        [
          0.13450761139392853,
          -0.038720063865184784,
          0.10427967458963394,
          -0.166911780834198,
          0.2649155855178833,
          0.16285932064056396,
          0.12357968091964722,
          0.23929168283939362,
          0.133649542927742,
          0.024851446971297264,
          0.0023870368022471666,
          -0.2881886065006256,
          0.24342289566993713,
          0.031510017812252045,
          -0.0692841038107872,
          0.036452073603868484,
          -0.17156106233596802,
          -0.1880635917186737,
          -0.10098657011985779,
          0.22198989987373352,
          0.03057507798075676,
          -0.004077626392245293,
          0.10428115725517273,
          0.039747707545757294,
          0.01267099380493164,
          0.06360229849815369,
          -0.12874025106430054,
          0.026211809366941452,
          0.20679642260074615,
          -0.2972952425479889,
          -0.22273990511894226,
          -0.09844018518924713
        ],
        [
          0.07298611849546432,
          -0.09703956544399261,
          -0.143496572971344,
          -0.008170018903911114,
          0.26409101486206055,
          0.08303327858448029,
          -0.07581395655870438,
          -0.04756191745400429,
          -0.10054755210876465,
          0.13325364887714386,
          0.2691318690776825,
          -0.3705316483974457,
          0.10589834302663803,
          -0.05368741601705551,
          0.18254204094409943,
          -0.23636965453624725,
          0.026542091742157936,
          0.18651723861694336,
          0.05498139187693596,
          0.2006116658449173,
          0.16981624066829681,
          -0.35542795062065125,
          0.0764845684170723,
          0.003321262774989009,
          -0.14464086294174194,
          0.12266314774751663,
          0.015097933821380138,
          0.15502150356769562,
          0.14751845598220825,
          -0.16966332495212555,
          -0.15712231397628784,
          0.34119322896003723
        ],
        [
          -0.2455756813287735,
          0.0996026024222374,
          -0.1648547351360321,
          -0.033823177218437195,
          -0.019274894148111343,
          0.3275437653064728,
          -0.004346825648099184,
          -0.08905458450317383,
          0.19681988656520844,
          -0.11689260601997375,
          -0.022350912913680077,
          -0.22719833254814148,
          0.01064923033118248,
          -0.009599009528756142,
          -0.28591546416282654,
          -0.04489372298121452,
          0.1610310971736908,
          0.0004194290086161345,
          0.1923341453075409,
          -0.13620316982269287,
          -0.0010448634857311845,
          -0.23284243047237396,
          -0.3049365282058716,
          -0.01706605777144432,
          0.13517466187477112,
          0.06338594108819962,
          0.24781975150108337,
          0.09926505386829376,
          0.39886024594306946,
          0.22650139033794403,
          0.06879015266895294,
          -0.15824364125728607
        ],
        [
          -0.05273345485329628,
          -0.014848838560283184,
          0.23668572306632996,
          0.015666408464312553,
          -0.08135220408439636,
          0.11201123148202896,
          -0.007884008809924126,
          0.2467208057641983,
          -0.10443191230297089,
          0.19531282782554626,
          -0.09328678250312805,
          0.06699074059724808,
          -0.0029406389221549034,
          -0.1613920032978058,
          0.1918507069349289,
          0.10598832368850708,
          0.22110748291015625,
          0.016623605042696,
          -0.007932933047413826,
          0.24442636966705322,
          -0.13577941060066223,
          0.16778947412967682,
          0.2417127937078476,
          -0.201642706990242,
          -0.12555119395256042,
          0.0725451409816742,
          -0.19065909087657928,
          -0.0005969727062620223,
          -0.2531660199165344,
          -0.042414724826812744,
          -0.04580007866024971,
          0.14734706282615662
        ],
        [
          0.1323387175798416,
          -0.22908839583396912,
          0.20580406486988068,
          -0.22310742735862732,
          0.12713372707366943,
          0.1027199774980545,
          -0.14042000472545624,
          -0.232431098818779,
          -0.03645229712128639,
          0.035594403743743896,
          0.04353954643011093,
          -0.09826250374317169,
          0.007960655726492405,
          -0.11712393164634705,
          -0.00024014251539483666,
          0.14650176465511322,
          -0.001649731071665883,
          -0.14604781568050385,
          0.05654172971844673,
          -0.052938103675842285,
          -0.14305326342582703,
          -0.005864158272743225,
          -0.17221508920192719,
          -0.2531128525733948,
          -0.14747028052806854,
          0.19578850269317627,
          0.13512375950813293,
          0.07881090044975281,
          0.4190063774585724,
          -0.28710901737213135,
          0.23032401502132416,
          -0.1338173747062683
        ],
        [
          -0.09321602433919907,
          0.16635587811470032,
          0.23093457520008087,
          0.22819273173809052,
          -0.02835785411298275,
          -0.10429353266954422,
          0.01839340850710869,
          0.23092319071292877,
          -0.002626875415444374,
          -0.0938393771648407,
          0.21240313351154327,
          0.006519367918372154,
          -0.0735681802034378,
          -0.3110959827899933,
          0.0728645771741867,
          0.03274482488632202,
          0.08199793100357056,
          0.38284432888031006,
          -0.1425456553697586,
          0.25414490699768066,
          -0.2572304606437683,
          0.09231029450893402,
          -0.23822954297065735,
          -0.03381678834557533,
          0.15434204041957855,
          0.1537548154592514,
          -0.35933974385261536,
          0.04129929840564728,
          0.01590881124138832,
          -0.19768941402435303,
          -0.16522912681102753,
          0.171897754073143
        ],
        [
          -0.07848266512155533,
          0.07089220732450485,
          -0.06458040326833725,
          0.1191159039735794,
          -0.22759267687797546,
          0.3459019958972931,
          -0.29589658975601196,
          -0.262269526720047,
          -0.13500167429447174,
          0.2797427475452423,
          0.09806669503450394,
          -0.11033713817596436,
          -0.003025676356628537,
          0.1156836748123169,
          0.1804719865322113,
          0.10642047971487045,
          0.43820780515670776,
          -0.160517618060112,
          -0.18846605718135834,
          0.28207170963287354,
          -0.027441971004009247,
          0.050080928951501846,
          0.012266550213098526,
          -0.006141134072095156,
          -0.00930673349648714,
          0.019300449639558792,
          0.09885784983634949,
          -0.02208510972559452,
          0.012294258922338486,
          -0.3559175431728363,
          -0.20604200661182404,
          0.027574116364121437
        ],
        [
          0.1455029398202896,
          -0.0019394612172618508,
          0.20033493638038635,
          0.172697052359581,
          -0.06145458295941353,
          0.11807634681463242,
          0.26923713088035583,
          -0.07207971811294556,
          0.1517155021429062,
          0.14825116097927094,
          0.3451412320137024,
          -0.02951733022928238,
          0.05312686786055565,
          -0.04303061589598656,
          -0.4075572192668915,
          0.175516739487648,
          -0.016186518594622612,
          0.3932395875453949,
          -0.2530243992805481,
          -0.026110272854566574,
          0.0385233536362648,
          0.09626136720180511,
          0.22430746257305145,
          -0.3259055018424988,
          0.1647510528564453,
          0.06093877926468849,
          0.13313572108745575,
          -0.2418583631515503,
          0.030851656571030617,
          -0.19507507979869843,
          -0.13242961466312408,
          -0.2882307171821594
        ],
        [
          -0.09212476760149002,
          0.07001040875911713,
          -0.26889118552207947,
          0.05494972690939903,
          -0.09504794329404831,
          -0.02196398936212063,
          0.15336580574512482,
          -0.061131224036216736,
          -0.008105933666229248,
          0.2268790751695633,
          -0.10224533081054688,
          0.06467251479625702,
          -0.11191742867231369,
          -0.10215714573860168,
          -0.1699002981185913,
          -0.15739212930202484,
          -0.18702054023742676,
          0.13521116971969604,
          -0.07375985383987427,
          -0.14968644082546234,
          -0.05904000252485275,
          -0.13827389478683472,
          0.01561284065246582,
          -0.21794013679027557,
          -0.05696514993906021,
          -0.04775673896074295,
          -0.3028642535209656,
          0.04939773678779602,
          0.22603702545166016,
          -0.24450430274009705,
          0.05862865224480629,
          0.05836249515414238
        ],
        [
          0.22340425848960876,
          0.013876576907932758,
          0.18063920736312866,
          -0.1274641752243042,
          -0.031063301488757133,
          0.3723410367965698,
          0.3287445604801178,
          0.05393749848008156,
          -0.28041449189186096,
          0.2849423289299011,
          -0.09627188742160797,
          -0.19477984309196472,
          -0.20738588273525238,
          -0.027869191020727158,
          -0.2664293050765991,
          -0.044361356645822525,
          0.08481238037347794,
          0.16392818093299866,
          -0.11663561314344406,
          0.04608331248164177,
          0.10415032505989075,
          -0.12738575041294098,
          -0.33466437458992004,
          -0.11999735236167908,
          0.1691984087228775,
          -0.009921267628669739,
          -0.25211742520332336,
          0.08111473172903061,
          -0.013891705311834812,
          -0.3141647279262543,
          0.006474169436842203,
          0.12977106869220734
        ],
        [
          -0.1222754493355751,
          -0.08731944113969803,
          -0.020682984963059425,
          -0.2574392259120941,
          0.2102591097354889,
          0.31055575609207153,
          0.1345347911119461,
          0.057353872805833817,
          -0.20506469905376434,
          -0.2027181088924408,
          0.15857233107089996,
          0.07133466005325317,
          -0.133688285946846,
          -0.08175178617238998,
          -0.11337918043136597,
          0.17878134548664093,
          0.02973341755568981,
          0.34067633748054504,
          -0.03876187652349472,
          0.04427453130483627,
          0.06337463110685349,
          0.05737918242812157,
          -0.2157880812883377,
          -0.05235942825675011,
          -0.19385743141174316,
          -0.2132156789302826,
          -0.05715082213282585,
          0.05585608258843422,
          0.04611336439847946,
          -0.09780491143465042,
          0.041828710585832596,
          -0.22910360991954803
        ],
        [
          0.004589652176946402,
          -0.08678624778985977,
          -0.2009497582912445,
          0.09782585501670837,
          -0.025845251977443695,
          0.18092715740203857,
          -0.17437127232551575,
          -0.09981879591941833,
          -0.24240052700042725,
          -0.1162489578127861,
          -0.14725936949253082,
          0.0582435168325901,
          0.2868466377258301,
          0.06021414324641228,
          0.051618028432130814,
          0.12386137247085571,
          -0.1385992020368576,
          -0.22127145528793335,
          0.2804937958717346,
          -0.12065140157938004,
          -0.12526844441890717,
          0.09537199884653091,
          -0.0529462955892086,
          0.158793643116951,
          0.031445927917957306,
          -0.20222218334674835,
          -0.3093608319759369,
          -0.07291615009307861,
          0.4976843595504761,
          -0.13090670108795166,
          -0.21809159219264984,
          0.2159656286239624
        ],
        [
          0.2815435528755188,
          0.1617521494626999,
          -0.17838506400585175,
          0.06925349682569504,
          0.028063010424375534,
          -0.013523152098059654,
          0.10804683715105057,
          0.05721279978752136,
          0.05590812489390373,
          0.01920061558485031,
          0.14109711349010468,
          -0.33836445212364197,
          0.128492072224617,
          -0.3286269009113312,
          0.07488571852445602,
          -0.121834896504879,
          0.14721821248531342,
          0.07184284925460815,
          -0.19368219375610352,
          0.3491896390914917,
          0.2689107060432434,
          0.02679743617773056,
          -0.118165522813797,
          0.07672470808029175,
          0.09755176305770874,
          0.1700468510389328,
          -0.05446387082338333,
          0.1485843062400818,
          0.24608874320983887,
          -0.2852868139743805,
          -0.1214095950126648,
          0.01645388826727867
        ],
        [
          -0.026862967759370804,
          0.12321851402521133,
          -0.24063889682292938,
          -0.35709723830223083,
          -0.026645824313163757,
          0.03341903164982796,
          0.15835893154144287,
          -0.2064693570137024,
          -0.07234776765108109,
          0.003165042493492365,
          -0.2786356210708618,
          -0.030721822753548622,
          -0.020936720073223114,
          0.14129716157913208,
          0.09084269404411316,
          0.10891763865947723,
          -0.030317947268486023,
          -0.1261325627565384,
          -0.025785885751247406,
          0.03953083977103233,
          -0.2776740491390228,
          -0.03762705996632576,
          0.19077445566654205,
          -0.04618403688073158,
          -0.1913394033908844,
          -0.1418248862028122,
          -0.2540326416492462,
          -0.12632426619529724,
          -0.05059606954455376,
          -0.16030628979206085,
          -0.1274680346250534,
          -0.2853790819644928
        ],
        [
          0.20181041955947876,
          0.006751821842044592,
          0.003970697056502104,
          -0.10504262149333954,
          -0.2469078004360199,
          -0.026847513392567635,
          0.10360126197338104,
          -0.15283289551734924,
          0.019239695742726326,
          0.11460404843091965,
          -0.2385185807943344,
          0.2771058678627014,
          -0.21067951619625092,
          -0.2479749470949173,
          0.14659623801708221,
          0.0628892257809639,
          0.003560814308002591,
          0.2243308126926422,
          -0.17950086295604706,
          0.2831896245479584,
          -0.22738417983055115,
          -0.11200510710477829,
          0.18773311376571655,
          -0.2832784354686737,
          -0.32867273688316345,
          0.11389477550983429,
          -0.32338792085647583,
          -0.05710688978433609,
          0.09389007836580276,
          -0.03760005161166191,
          -0.21761693060398102,
          0.1374017596244812
        ],
        [
          -0.135155588388443,
          -0.1309203952550888,
          0.06208288297057152,
          -0.1099889725446701,
          -0.05621377378702164,
          0.1985798180103302,
          0.12052583694458008,
          -0.3071778118610382,
          -0.029676537960767746,
          -0.23150068521499634,
          -0.2312026470899582,
          -0.32343488931655884,
          -0.19494065642356873,
          -0.0984596461057663,
          -0.12143368273973465,
          0.0767240971326828,
          0.10281138122081757,
          0.08211172372102737,
          0.14684247970581055,
          0.15943001210689545,
          0.06106526032090187,
          -0.3171084523200989,
          -0.23491832613945007,
          -0.0916295200586319,
          -0.2736974358558655,
          0.10210002213716507,
          0.24459613859653473,
          0.05442487820982933,
          -0.04984531179070473,
          -0.0899900272488594,
          0.06975481659173965,
          -0.5131017565727234
        ],
        [
          -0.3005945086479187,
          -0.04424060136079788,
          -0.12332268804311752,
          -0.16375602781772614,
          -0.29526886343955994,
          -0.37876206636428833,
          0.26363787055015564,
          0.07509125024080276,
          0.08322570472955704,
          -0.3043486177921295,
          -0.06460979580879211,
          -0.15642164647579193,
          0.08859676867723465,
          0.13950470089912415,
          -0.08015339076519012,
          0.0749826729297638,
          0.09770581871271133,
          0.14959540963172913,
          0.01008444931358099,
          -0.017777442932128906,
          0.08117035776376724,
          0.1511385589838028,
          0.10684818774461746,
          0.08105156570672989,
          -0.09347555041313171,
          -0.11096976697444916,
          -0.23070135712623596,
          0.2259240448474884,
          -0.16541646420955658,
          -0.020323187112808228,
          0.1488599330186844,
          -0.07601475715637207
        ],
        [
          0.22845110297203064,
          0.15688259899616241,
          -0.10554296523332596,
          -0.10591816902160645,
          0.17731626331806183,
          -0.039436645805835724,
          0.3538345694541931,
          -0.08146799355745316,
          0.036436356604099274,
          0.1898394376039505,
          0.1255408525466919,
          -0.06342379003763199,
          -0.12314242869615555,
          0.14069858193397522,
          -0.14910364151000977,
          0.17764045298099518,
          -0.022916525602340698,
          -0.007813951000571251,
          0.16933804750442505,
          -0.13897427916526794,
          -0.19489504396915436,
          0.13011284172534943,
          -0.024548089131712914,
          0.19712191820144653,
          -0.06138591468334198,
          -0.10077068209648132,
          0.12033890932798386,
          -0.31343504786491394,
          0.10029059648513794,
          0.16737832129001617,
          -0.04836336150765419,
          0.06553172320127487
        ],
        [
          -0.24707970023155212,
          -0.07088985294103622,
          -0.17081093788146973,
          -0.002979299519211054,
          0.21851368248462677,
          0.04245034232735634,
          -0.022195328027009964,
          -0.2334349900484085,
          0.10479728877544403,
          0.06858158856630325,
          -0.07105423510074615,
          0.09343457967042923,
          0.024583138525485992,
          -0.21145382523536682,
          -0.1825466901063919,
          0.2612309753894806,
          0.2226352095603943,
          -0.07357336580753326,
          0.038092151284217834,
          0.022748291492462158,
          -0.08503106236457825,
          -0.038596589118242264,
          -0.15382230281829834,
          -0.10001435875892639,
          0.16310639679431915,
          -0.04588685184717178,
          -0.13407450914382935,
          -0.22381287813186646,
          -0.025559112429618835,
          0.07514172047376633,
          0.263239324092865,
          -0.2098126858472824
        ],
        [
          -0.42488351464271545,
          -0.12512683868408203,
          0.06931876391172409,
          -0.12447196990251541,
          0.04029898717999458,
          0.1495966762304306,
          0.020632587373256683,
          -0.3118606507778168,
          -0.10512498766183853,
          -0.41382235288619995,
          -0.18730096518993378,
          -0.08070006221532822,
          0.12314556539058685,
          0.04285102337598801,
          -0.10265440493822098,
          -0.044564370065927505,
          -0.2735171616077423,
          0.22628389298915863,
          -0.06372026354074478,
          0.013499310240149498,
          0.21747039258480072,
          -0.2870583236217499,
          -0.037639010697603226,
          0.12420626729726791,
          -0.38265901803970337,
          0.09668916463851929,
          -0.27676278352737427,
          -0.046073827892541885,
          0.18486785888671875,
          -0.2905219495296478,
          0.26703616976737976,
          -0.21919329464435577
        ],
        [
          -0.15259361267089844,
          0.08450191468000412,
          0.024098282679915428,
          -0.1709422916173935,
          -0.10766836255788803,
          0.06420350074768066,
          -0.001392831327393651,
          -0.10786664485931396,
          -0.11128974705934525,
          0.21080240607261658,
          -0.1401446908712387,
          -0.1197279840707779,
          0.01822921819984913,
          -0.17304711043834686,
          0.0006679726648144424,
          0.28367364406585693,
          0.16693158447742462,
          0.1896592378616333,
          -0.052337128669023514,
          0.03055977076292038,
          -0.035027746111154556,
          -0.0984419584274292,
          -0.1645704209804535,
          -0.03406403586268425,
          0.15762369334697723,
          -0.22740046679973602,
          -0.019576387479901314,
          -0.0732664242386818,
          0.056370459496974945,
          0.17006263136863708,
          -0.12476081401109695,
          0.05369565635919571
        ],
        [
          -0.21802560985088348,
          -0.15877021849155426,
          -0.22113825380802155,
          -0.28060632944107056,
          0.16100546717643738,
          -0.07578232139348984,
          -0.05883327126502991,
          -0.020813969895243645,
          0.10463453829288483,
          0.05439838394522667,
          0.17525272071361542,
          0.1737012416124344,
          -0.03362284228205681,
          0.1441299319267273,
          0.07810286432504654,
          -0.11583945155143738,
          -0.2871653735637665,
          -0.08583393692970276,
          0.2784762382507324,
          0.13915535807609558,
          0.15981610119342804,
          0.1442241221666336,
          -0.1586194783449173,
          0.045337989926338196,
          -0.2205667495727539,
          -0.0792507454752922,
          0.3411295711994171,
          0.043446995317935944,
          0.1081378161907196,
          -0.3101005256175995,
          0.13869361579418182,
          -0.2524261772632599
        ],
        [
          -0.11392229795455933,
          -0.10799042880535126,
          0.13903772830963135,
          0.12444843351840973,
          -0.17611339688301086,
          -0.26142579317092896,
          0.05775121971964836,
          -0.13997963070869446,
          0.3365006148815155,
          -0.36352649331092834,
          -0.26236632466316223,
          -0.10063360631465912,
          -0.14622089266777039,
          -0.03929903730750084,
          -0.12032648175954819,
          0.08644349873065948,
          -0.31566953659057617,
          -0.1868084967136383,
          -0.08608334511518478,
          0.1899632066488266,
          -0.2082674354314804,
          0.0908764973282814,
          0.061839133501052856,
          -0.26493367552757263,
          -0.2925659716129303,
          -0.265492707490921,
          -0.08271859586238861,
          -0.28015586733818054,
          -0.176144540309906,
          -0.02141456864774227,
          -0.023679355159401894,
          0.03831346333026886
        ],
        [
          0.11348454654216766,
          0.21528661251068115,
          0.03505750000476837,
          -0.225012868642807,
          0.17607304453849792,
          0.1963086724281311,
          -0.16765540838241577,
          0.21579913794994354,
          -0.05760083347558975,
          0.20420508086681366,
          -0.05931882560253143,
          0.04755162075161934,
          0.08040477335453033,
          0.03733574226498604,
          0.006103496998548508,
          -0.04290134459733963,
          -0.1706724911928177,
          0.2387988120317459,
          0.016817377880215645,
          0.19397421181201935,
          -0.09572312980890274,
          0.024489395320415497,
          0.02278665080666542,
          -0.28538379073143005,
          -0.1624714434146881,
          -0.07523220032453537,
          0.188376784324646,
          0.2502862811088562,
          0.01122474204748869,
          -0.05982746556401253,
          0.03557568043470383,
          0.28249770402908325
        ],
        [
          -0.2863426208496094,
          -0.17457129061222076,
          -0.04892614483833313,
          -0.22103838622570038,
          -0.0547974593937397,
          -0.19344420731067657,
          0.07867735624313354,
          -0.08187285810709,
          0.192002072930336,
          -0.07840704172849655,
          0.028065554797649384,
          -0.1440400779247284,
          0.05679282918572426,
          -0.2616782486438751,
          -0.05169442668557167,
          -0.1687694787979126,
          -0.17415471374988556,
          0.15949416160583496,
          -0.26069363951683044,
          -0.148818701505661,
          0.19459697604179382,
          -0.13165462017059326,
          -0.06910751760005951,
          -0.11472491919994354,
          -0.23633070290088654,
          -0.18022607266902924,
          -0.15244299173355103,
          -0.36313819885253906,
          -0.18110044300556183,
          -0.14875183999538422,
          0.004752467852085829,
          -0.08031606674194336
        ],
        [
          0.1465802788734436,
          -0.08780988305807114,
          0.060768380761146545,
          -0.0037378701381385326,
          -0.1925124078989029,
          0.2579669952392578,
          -0.334635466337204,
          -0.21759189665317535,
          -0.07162019610404968,
          0.20800593495368958,
          0.08162057399749756,
          -0.09125755727291107,
          0.09876489639282227,
          0.23234903812408447,
          -0.21254616975784302,
          -0.17948953807353973,
          0.05959264189004898,
          0.1390732079744339,
          0.15954679250717163,
          0.07586441189050674,
          0.1665511578321457,
          -0.1751418560743332,
          0.10957757383584976,
          -0.16738402843475342,
          -0.20592394471168518,
          -0.04212494567036629,
          -0.009202106855809689,
          0.32768958806991577,
          0.04767131805419922,
          -0.17486946284770966,
          -0.014042344875633717,
          0.25683385133743286
        ],
        [
          0.21171516180038452,
          -0.3605298101902008,
          0.12580129504203796,
          0.12215390801429749,
          0.17121560871601105,
          0.19914741814136505,
          -0.014869037084281445,
          0.07364939898252487,
          -0.10216403007507324,
          -0.37549924850463867,
          -0.09960009157657623,
          0.24341605603694916,
          -0.15481708943843842,
          0.1966462880373001,
          0.07268062233924866,
          0.043964847922325134,
          -0.041322316974401474,
          0.16329094767570496,
          -0.039128463715314865,
          0.28484535217285156,
          -0.14653712511062622,
          -0.01716301590204239,
          0.13327737152576447,
          -0.1448293924331665,
          0.10165219008922577,
          -0.10338252782821655,
          0.0715034157037735,
          0.15302126109600067,
          0.1544102430343628,
          -0.23628132045269012,
          -0.0839218720793724,
          -0.2779337167739868
        ],
        [
          0.04529399424791336,
          0.05349215865135193,
          0.22813937067985535,
          -0.09287787228822708,
          0.1500224620103836,
          0.006430939305573702,
          -0.11370152980089188,
          0.004484894219785929,
          0.15941058099269867,
          -0.13179612159729004,
          -0.05948004126548767,
          0.22729697823524475,
          -0.10063698142766953,
          0.13290823996067047,
          -0.031184598803520203,
          -0.07801228761672974,
          -0.05831553786993027,
          -0.21359512209892273,
          0.10068859159946442,
          0.01864296942949295,
          -0.14506050944328308,
          -0.15709209442138672,
          0.15720181167125702,
          0.05724943056702614,
          -0.18537560105323792,
          -0.12760652601718903,
          -0.3476341664791107,
          -0.16436395049095154,
          0.07407184690237045,
          0.16857817769050598,
          0.1993502527475357,
          -0.2443920224905014
        ],
        [
          -0.1414492428302765,
          -0.09519976377487183,
          0.056724246591329575,
          0.10475040972232819,
          0.07526621967554092,
          -0.2931087017059326,
          0.18114358186721802,
          -0.0924609899520874,
          0.09121238440275192,
          -0.20867285132408142,
          -0.07069792598485947,
          -0.25730010867118835,
          -0.11377394199371338,
          0.1864297091960907,
          -0.145822674036026,
          -0.035666752606630325,
          0.07473905384540558,
          0.24418558180332184,
          0.178185373544693,
          -0.11288110911846161,
          0.23279212415218353,
          -0.20527787506580353,
          0.05593022331595421,
          0.1265179067850113,
          0.0060709756799042225,
          -0.1924438178539276,
          -0.2797313928604126,
          -0.1929480880498886,
          0.07591822743415833,
          0.014711233787238598,
          -0.17306487262248993,
          0.09801925718784332
        ],
        [
          -0.04169705882668495,
          -0.14908720552921295,
          -0.11246629804372787,
          -0.07491204887628555,
          -0.02128344029188156,
          0.31474435329437256,
          -0.24177883565425873,
          0.11947373300790787,
          -0.19987273216247559,
          0.0528244785964489,
          -0.17131054401397705,
          -0.1634853333234787,
          -0.21929258108139038,
          -0.23497478663921356,
          -0.07940559089183807,
          -0.08504457026720047,
          0.1985282003879547,
          0.2136687934398651,
          0.15703868865966797,
          0.16383925080299377,
          -0.05183255299925804,
          0.05007125809788704,
          -0.3133337199687958,
          -0.06361046433448792,
          -0.20363186299800873,
          0.1699601262807846,
          0.00767130684107542,
          -0.22926504909992218,
          0.12303687632083893,
          -0.3477261960506439,
          0.16931463778018951,
          0.18561598658561707
        ],
        [
          0.11211328953504562,
          -0.23613309860229492,
          0.06595822423696518,
          -0.05155336111783981,
          -0.11595946550369263,
          0.154891699552536,
          -0.09282956272363663,
          0.09294358640909195,
          -0.12768658995628357,
          0.21558065712451935,
          0.04090864583849907,
          -0.3008263111114502,
          0.16527128219604492,
          0.033817946910858154,
          0.06839841604232788,
          0.13683399558067322,
          0.29074856638908386,
          0.13015763461589813,
          -0.06821732968091965,
          -0.17861181497573853,
          -0.21183690428733826,
          -0.28537115454673767,
          0.08277782052755356,
          -0.07610006630420685,
          -0.24172669649124146,
          -0.23159928619861603,
          -0.29591792821884155,
          0.09303103387355804,
          0.12103591114282608,
          0.04481429234147072,
          0.06088962033390999,
          0.09449020773172379
        ],
        [
          0.08255630731582642,
          0.3016747534275055,
          -0.20087619125843048,
          -0.006673404946923256,
          0.03468353673815727,
          -0.22020071744918823,
          0.20607902109622955,
          0.26899510622024536,
          -0.1571032851934433,
          0.044057391583919525,
          0.12377262115478516,
          0.03552492335438728,
          0.19284950196743011,
          -0.3097395896911621,
          -0.16829268634319305,
          0.1303296536207199,
          0.019355136901140213,
          -0.1099066287279129,
          -0.2792692184448242,
          0.2015870362520218,
          -0.0008179666474461555,
          -0.01903427205979824,
          0.043723177164793015,
          0.042498037219047546,
          0.11259788274765015,
          -0.25053513050079346,
          0.15033547580242157,
          -0.21409624814987183,
          -0.3098404109477997,
          0.03995620459318161,
          -0.2724212110042572,
          -0.10999254137277603
        ],
        [
          0.02223917469382286,
          -0.2796773910522461,
          -0.0350823812186718,
          0.024909235537052155,
          0.2301587611436844,
          0.22350582480430603,
          -0.18742501735687256,
          -0.1876995861530304,
          0.19663463532924652,
          -0.23388953506946564,
          -0.22255845367908478,
          0.18104372918605804,
          -0.16006705164909363,
          0.10596002638339996,
          -0.01320455502718687,
          -0.29564839601516724,
          -0.2591177225112915,
          0.16052193939685822,
          0.08517434448003769,
          -0.2982741892337799,
          -0.052976734936237335,
          -0.10072524100542068,
          -0.16053588688373566,
          -0.254611611366272,
          -0.2592346668243408,
          0.11519058048725128,
          0.1363999992609024,
          -0.05969748646020889,
          0.20694127678871155,
          0.09695642441511154,
          -0.1519627720117569,
          0.17796649038791656
        ],
        [
          0.23482196033000946,
          -0.002764214761555195,
          -0.22540737688541412,
          0.17224371433258057,
          0.03630867972970009,
          0.07659170031547546,
          -0.032010793685913086,
          0.017438320443034172,
          0.20537221431732178,
          -0.11602184176445007,
          0.14100193977355957,
          0.1965402066707611,
          0.2712949514389038,
          -0.21388964354991913,
          0.2624235153198242,
          0.17802582681179047,
          -0.14202915132045746,
          -0.22233295440673828,
          -0.08357831835746765,
          0.1514994502067566,
          0.023423537611961365,
          0.14885221421718597,
          -0.0006027875933796167,
          0.24088387191295624,
          -0.0037791638169437647,
          0.08166869729757309,
          -0.18295881152153015,
          0.1086435616016388,
          -0.11222050338983536,
          -0.24899880588054657,
          -0.04761376231908798,
          0.1240435391664505
        ],
        [
          0.047393664717674255,
          0.06796985864639282,
          -0.2743990123271942,
          0.19909901916980743,
          0.058668866753578186,
          -0.08445144444704056,
          0.16349844634532928,
          -0.01247691735625267,
          0.05848109349608421,
          0.1357043832540512,
          0.002316670725122094,
          0.30197662115097046,
          0.24336400628089905,
          -0.20769156515598297,
          0.3168538808822632,
          0.11271489411592484,
          0.12343934178352356,
          -0.2523956596851349,
          -0.2927047908306122,
          0.09518387913703918,
          -0.175238698720932,
          0.11751233041286469,
          0.19765079021453857,
          0.2526678740978241,
          0.1527491807937622,
          -0.22841517627239227,
          -0.04465753585100174,
          -0.3354322910308838,
          0.032037507742643356,
          0.11383044719696045,
          0.08070364594459534,
          0.27371785044670105
        ],
        [
          -0.2140243947505951,
          -0.24290718138217926,
          -0.020196113735437393,
          0.03414582088589668,
          0.2753489911556244,
          0.1577298492193222,
          -0.2890494465827942,
          -0.1464620977640152,
          -0.007801226805895567,
          -0.18321067094802856,
          -0.08278264105319977,
          0.035535700619220734,
          -0.1803942322731018,
          0.24687401950359344,
          0.16188183426856995,
          -0.1792360246181488,
          -0.3786245584487915,
          -0.16763336956501007,
          0.23053544759750366,
          -0.42173489928245544,
          -0.22498716413974762,
          -0.04148494079709053,
          -0.001631457358598709,
          0.221431702375412,
          -0.138644278049469,
          0.0826292559504509,
          0.10147769749164581,
          0.11210951209068298,
          -0.07609038054943085,
          0.07879328727722168,
          0.1324261575937271,
          0.12150171399116516
        ],
        [
          0.11151222884654999,
          -0.025077952072024345,
          -0.152312234044075,
          -0.12333247065544128,
          -0.18355591595172882,
          0.1853817254304886,
          -0.15723378956317902,
          0.1451801359653473,
          0.2653340995311737,
          -0.07721585780382156,
          -0.0011170950019732118,
          -0.16528721153736115,
          0.020477574318647385,
          -0.008472630754113197,
          -0.11351671069860458,
          -0.11403324455022812,
          -0.23947161436080933,
          0.06523461639881134,
          -0.2457858920097351,
          -0.05673399940133095,
          0.11077021807432175,
          0.02000676840543747,
          0.03684327006340027,
          0.047961797565221786,
          -0.010990308597683907,
          -0.12890717387199402,
          -0.08854268491268158,
          0.17507165670394897,
          0.06785786151885986,
          0.07552890479564667,
          -0.1571313440799713,
          -0.07761893421411514
        ],
        [
          -0.023049984127283096,
          0.10823734849691391,
          0.27684444189071655,
          0.21925528347492218,
          -0.08915455639362335,
          0.0817713811993599,
          0.033192187547683716,
          0.24344594776630402,
          0.05661385878920555,
          -0.07160641252994537,
          0.16398920118808746,
          -0.19331882894039154,
          0.19376742839813232,
          -0.19223903119564056,
          0.026354391127824783,
          0.18378117680549622,
          0.26043006777763367,
          0.12899520993232727,
          0.17741529643535614,
          0.14875635504722595,
          -0.17480891942977905,
          0.057887814939022064,
          0.1960454285144806,
          -0.05404344201087952,
          0.0018060762668028474,
          -0.1839078664779663,
          -0.27836334705352783,
          -0.030996281653642654,
          -0.06609708815813065,
          0.022094324231147766,
          0.16115404665470123,
          -0.1335480809211731
        ],
        [
          0.2444061040878296,
          -0.02840108424425125,
          0.15533682703971863,
          -0.016537705436348915,
          -0.12939979135990143,
          -0.046527501195669174,
          -0.01252050418406725,
          -0.25738340616226196,
          0.024755632504820824,
          0.19902803003787994,
          0.1648808717727661,
          0.06439334154129028,
          -0.1583191156387329,
          -0.30387118458747864,
          -0.21382181346416473,
          0.27584603428840637,
          0.007382325362414122,
          -0.2059132605791092,
          -0.18712954223155975,
          0.023194070905447006,
          -0.29171037673950195,
          0.01778338849544525,
          -0.28204792737960815,
          -0.33046621084213257,
          -0.3267393708229065,
          -0.07309728860855103,
          -0.18175090849399567,
          -0.13985352218151093,
          0.13049106299877167,
          -0.04516511410474777,
          0.08184696733951569,
          0.02689705230295658
        ],
        [
          -0.12852928042411804,
          0.21488025784492493,
          0.2038319706916809,
          0.13376891613006592,
          0.21159030497074127,
          0.2819949686527252,
          -0.2478380650281906,
          -0.19708511233329773,
          0.02459983341395855,
          0.2617020905017853,
          0.27838748693466187,
          -0.04689768701791763,
          -0.19543176889419556,
          -0.25173333287239075,
          -0.18113112449645996,
          -0.12734445929527283,
          0.11783118546009064,
          0.2402247190475464,
          0.10836857557296753,
          0.17859520018100739,
          0.13518524169921875,
          -0.05777382478117943,
          -0.11382512003183365,
          0.16040568053722382,
          0.11907383054494858,
          0.11676272004842758,
          -0.21375234425067902,
          -0.08964908123016357,
          0.3744165301322937,
          -0.19767530262470245,
          -0.054525669664144516,
          0.17091253399848938
        ],
        [
          -0.030277656391263008,
          -0.08555971831083298,
          -0.13365419209003448,
          -0.08486993610858917,
          -0.15371941030025482,
          0.20189736783504486,
          -0.05156458541750908,
          0.16079704463481903,
          -0.026013949885964394,
          0.08852918446063995,
          0.1892332285642624,
          -0.19434858858585358,
          0.15422619879245758,
          -0.22327786684036255,
          -0.15557247400283813,
          -0.1997787058353424,
          0.1238982081413269,
          0.011304841376841068,
          -0.24015726149082184,
          -0.0033115483820438385,
          0.09379234910011292,
          -0.18058842420578003,
          -0.2586113512516022,
          0.10024978220462799,
          0.07554391026496887,
          -0.271783709526062,
          -0.059174083173274994,
          -0.05978047102689743,
          0.2648162543773651,
          -0.2973025441169739,
          0.10039959847927094,
          0.22185803949832916
        ],
        [
          0.1908697485923767,
          0.02504638209939003,
          0.12512467801570892,
          0.10359294712543488,
          -0.16413754224777222,
          -0.19701074063777924,
          0.00762384245172143,
          0.15105581283569336,
          -0.17785336077213287,
          0.11978346854448318,
          0.12841930985450745,
          0.16505174338817596,
          -0.18769659101963043,
          0.057995229959487915,
          0.05558217316865921,
          0.16949346661567688,
          -0.13671384751796722,
          -0.05265124887228012,
          -0.17374278604984283,
          0.1217588260769844,
          0.005705816205590963,
          -0.0007758124265819788,
          -0.270116925239563,
          0.182384192943573,
          -0.1942708045244217,
          -0.24355308711528778,
          -0.16679295897483826,
          -0.045216720551252365,
          0.020477453246712685,
          -0.2797714173793793,
          -0.16899150609970093,
          0.13778240978717804
        ],
        [
          0.2465244084596634,
          0.13606104254722595,
          0.05252421274781227,
          0.05824216455221176,
          0.2523517906665802,
          0.040438733994960785,
          -0.10648317635059357,
          -0.2254483848810196,
          -0.18892508745193481,
          0.030519764870405197,
          0.268248587846756,
          0.05912802368402481,
          0.1824563443660736,
          -0.2954888343811035,
          0.027116576209664345,
          0.00661206291988492,
          0.14244858920574188,
          0.11808803677558899,
          0.2468930184841156,
          0.17906413972377777,
          -0.30704465508461,
          0.1804288774728775,
          -0.34157800674438477,
          -0.13365256786346436,
          -0.07765466719865799,
          -0.11974646151065826,
          -0.16496331989765167,
          -0.28469589352607727,
          0.20207686722278595,
          -0.26908645033836365,
          -0.246098592877388,
          -0.2636307179927826
        ],
        [
          -0.18167363107204437,
          -0.0189202930778265,
          -0.028776658698916435,
          0.07592518627643585,
          -0.04516181722283363,
          -0.03972512111067772,
          -0.213164821267128,
          -0.1937071681022644,
          -0.07291325181722641,
          -0.2134837508201599,
          -0.02547718584537506,
          -0.2626814842224121,
          -0.18232449889183044,
          0.18354564905166626,
          -0.2137041538953781,
          0.27406394481658936,
          -0.09890726208686829,
          0.09394588321447372,
          -0.1710577756166458,
          -0.21273832023143768,
          -0.1953936368227005,
          -0.0635104551911354,
          -0.25937220454216003,
          -0.3246306777000427,
          -0.2893475294113159,
          0.02860412932932377,
          0.11404430121183395,
          0.08250986039638519,
          0.33826151490211487,
          -0.12173920124769211,
          0.007071513682603836,
          -0.08724226802587509
        ],
        [
          -0.12880446016788483,
          -0.20152035355567932,
          -0.05148426443338394,
          0.03323739022016525,
          0.19325681030750275,
          0.049226656556129456,
          -0.28806760907173157,
          0.12341921776533127,
          0.14658911526203156,
          -0.12527601420879364,
          0.12241688370704651,
          0.19451452791690826,
          -0.10258565843105316,
          -0.0047125122509896755,
          -0.14612239599227905,
          0.1470765769481659,
          -0.30196091532707214,
          0.11689012497663498,
          -0.08699872344732285,
          -0.10886367410421371,
          -0.0020604743622243404,
          -0.19887402653694153,
          -0.1842183917760849,
          -0.1353321224451065,
          0.057863760739564896,
          -0.19750894606113434,
          0.23552176356315613,
          0.16968536376953125,
          0.2668665051460266,
          0.2790285050868988,
          -0.0003864589671138674,
          0.038369033485651016
        ]
      ],
      "weight_hh": [
        [
          0.1697365641593933,
          0.10167813301086426,
          -0.018072621896862984,
          -0.15181361138820648,
          0.038914620876312256,
          -0.35845473408699036,
          0.03639696538448334,
          0.06233251467347145,
          -0.07962944358587265,
          -0.049340762197971344,
          0.20649126172065735,
          0.15418875217437744,
          -0.005566573701798916,
          0.12233646214008331,
          0.14645810425281525,
          0.010688817128539085
        ],
        [
          -0.0625101625919342,
          -0.14705845713615417,
          0.013936839066445827,
          0.28762581944465637,
          -0.17032624781131744,
          -0.09642726927995682,
          -0.08580726385116577,
          -0.2578519582748413,
          0.20601655542850494,
          0.23954135179519653,
          0.19814050197601318,
          0.13088035583496094,
          0.11436154693365097,
          0.0372283011674881,
          0.08417977392673492,
          -0.07749050110578537
        ],
        [
          0.18177229166030884,
          0.14293541014194489,
          0.21202899515628815,
          -0.01101455744355917,
          0.1575738936662674,
          -0.11972170323133469,
          -0.013739246875047684,
          -0.13683488965034485,
          0.23926641047000885,
          -0.011363870464265347,
          0.2316555231809616,
          0.1546279937028885,
          -0.14830990135669708,
          -0.04645339772105217,
          0.08853667974472046,
          0.1944572627544403
        ],
        [
          0.2500845491886139,
          0.21623346209526062,
          0.30419114232063293,
          -0.0724930539727211,
          -0.1593945473432541,
          -0.2097824364900589,
          0.08689399063587189,
          -0.01815650425851345,
          -0.13548848032951355,
          -0.2013608068227768,
          0.19311855733394623,
          0.20885924994945526,
          0.1151500940322876,
          0.10460925102233887,
          -0.11483192443847656,
          -0.19067665934562683
        ],
        [
          0.17195771634578705,
          0.26847147941589355,
          0.058793894946575165,
          0.258548766374588,
          -0.26461631059646606,
          -0.10102611780166626,
          0.22914718091487885,
          0.07433570921421051,
          -0.21952642500400543,
          0.29149457812309265,
          0.30566737055778503,
          0.35452017188072205,
          -0.10199525952339172,
          0.3075008988380432,
          0.2007155567407608,
          0.017018165439367294
        ],
        [
          0.1450328230857849,
          -0.144917830824852,
          -0.048470523208379745,
          0.1412571370601654,
          0.07676330208778381,
          0.1498263031244278,
          0.23175571858882904,
          -0.04182930663228035,
          0.13514892756938934,
          0.04436156526207924,
          0.19556355476379395,
          -0.04421642795205116,
          0.2823200523853302,
          0.10432256013154984,
          0.13941055536270142,
          -0.11547457426786423
        ],
        [
          -0.10703746974468231,
          0.25951874256134033,
          0.38440021872520447,
          -0.31605279445648193,
          -0.11223490536212921,
          -0.12767164409160614,
          -0.12389101088047028,
          -0.06069484353065491,
          0.3931642472743988,
          0.07293137162923813,
          0.24181868135929108,
          0.17637652158737183,
          0.2841454744338989,
          -0.01243573147803545,
          0.18780742585659027,
          -0.061194539070129395
        ],
        [
          0.00626402860507369,
          0.1575092375278473,
          -0.1755940318107605,
          0.2224704921245575,
          0.006037075072526932,
          -0.10879305750131607,
          0.12800335884094238,
          -0.012101730331778526,
          0.18441441655158997,
          -0.057283222675323486,
          0.2782142460346222,
          0.04135899245738983,
          -0.14936180412769318,
          0.09054307639598846,
          -0.030264941975474358,
          -0.07628866285085678
        ],
        [
          -0.15785829722881317,
          0.07890039682388306,
          0.36228370666503906,
          -0.24055851995944977,
          -0.017994839698076248,
          0.0943780243396759,
          -0.36311864852905273,
          -0.060472216457128525,
          0.0469355545938015,
          -0.12845924496650696,
          0.11014889925718307,
          -0.031759753823280334,
          0.35839399695396423,
          0.34670695662498474,
          -0.0576779767870903,
          -0.2343418300151825
        ],
        [
          0.353229820728302,
          -0.07524427771568298,
          0.03435785695910454,
          0.137392058968544,
          -0.28210732340812683,
          -0.12886805832386017,
          -0.2926037907600403,
          0.18039697408676147,
          0.342292845249176,
          -0.008516503497958183,
          0.03845301270484924,
          -0.012874177657067776,
          0.292179137468338,
          0.05841636657714844,
          0.22938622534275055,
          0.028516162186861038
        ],
        [
          0.1478733867406845,
          0.17784571647644043,
          0.09384792298078537,
          -0.11422543972730637,
          -0.22752709686756134,
          0.20567762851715088,
          -0.37889495491981506,
          -0.17763614654541016,
          -0.047288164496421814,
          0.05215093865990639,
          0.2717222571372986,
          -0.0912674218416214,
          -0.10855977237224579,
          0.1105719581246376,
          -0.08754462003707886,
          -0.054589416831731796
        ],
        [
          0.07558170706033707,
          0.11890680342912674,
          0.10880817472934723,
          -0.04612056165933609,
          0.0073729949072003365,
          -0.02615712210536003,
          -0.0594555102288723,
          -0.27201157808303833,
          0.19921942055225372,
          0.18948809802532196,
          -0.05994546785950661,
          0.034541819244623184,
          0.21248339116573334,
          0.20603398978710175,
          -0.10687766969203949,
          -0.22273069620132446
        ],
        [
          0.31545501947402954,
          -0.06812112778425217,
          0.2261335253715515,
          -0.1009913831949234,
          -0.3624047636985779,
          -0.15620338916778564,
          0.07894501090049744,
          -0.17532260715961456,
          -0.0799446851015091,
          0.04055633768439293,
          0.15138085186481476,
          0.42374569177627563,
          -0.00458596833050251,
          0.30565711855888367,
          -0.1563430279493332,
          0.049146637320518494
        ],
        [
          -0.06767667084932327,
          0.0357043631374836,
          0.27141666412353516,
          0.12532196938991547,
          -0.3510494828224182,
          -0.3105629086494446,
          0.10784560441970825,
          -0.20627525448799133,
          0.2805767059326172,
          -0.11781680583953857,
          0.30472201108932495,
          0.041563402861356735,
          0.03302798047661781,
          0.12951335310935974,
          -0.17043228447437286,
          -0.00029951916076242924
        ],
        [
          0.00397111801430583,
          -0.0017071922775357962,
          0.1601794809103012,
          0.2143086940050125,
          -0.18933284282684326,
          -0.15785805881023407,
          0.20914003252983093,
          0.21565093100070953,
          -0.19231495261192322,
          0.010310597717761993,
          -0.056547507643699646,
          0.22179211676120758,
          -0.13816259801387787,
          0.07774396985769272,
          -0.11196495592594147,
          -0.01846541464328766
        ],
        [
          0.08719797432422638,
          0.2652626037597656,
          0.10137851536273956,
          -0.14904317259788513,
          0.1642082780599594,
          0.005206188652664423,
          -0.3468663692474365,
          -0.25702840089797974,
          0.042885199189186096,
          0.202703595161438,
          0.29881006479263306,
          0.14105956256389618,
          -0.01595442369580269,
          -0.04843269661068916,
          -0.2292531281709671,
          -0.025590727105736732
        ],
        [
          -0.14034074544906616,
          0.18561632931232452,
          0.173406183719635,
          0.05763091519474983,
          -0.03429264575242996,
          -0.24953623116016388,
          -0.09147170186042786,
          0.25171422958374023,
          -0.017270073294639587,
          0.14846807718276978,
          0.2430589348077774,
          -0.06314530223608017,
          0.1420895904302597,
          -0.0692332535982132,
          0.049217961728572845,
          0.22599008679389954
        ],
        [
          0.08721192926168442,
          -0.06105853617191315,
          0.35302624106407166,
          -0.13674220442771912,
          0.25307497382164,
          0.3171765208244324,
          -0.34795576333999634,
          -0.09331255406141281,
          0.13758420944213867,
          -0.1126125380396843,
          0.06011630967259407,
          -0.2622945010662079,
          -0.08403279632329941,
          -0.22885587811470032,
          -0.09555684030056,
          -0.15724657475948334
        ],
        [
          0.12178483605384827,
          -0.17064161598682404,
          -0.0779673382639885,
          0.27494123578071594,
          -0.23124119639396667,
          -0.009345787577331066,
          -0.14362987875938416,
          -0.05066106840968132,
          0.23813562095165253,
          0.24648816883563995,
          -0.2708593010902405,
          -0.010538803413510323,
          -0.3290930986404419,
          0.1660233587026596,
          0.1470681130886078,
          0.28367379307746887
        ],
        [
          -0.20973743498325348,
          -0.3523823618888855,
          0.02971547096967697,
          -0.05024360120296478,
          0.4154982566833496,
          0.22979873418807983,
          0.07827668637037277,
          0.23197878897190094,
          -0.13999797403812408,
          -0.2693449556827545,
          -0.25399526953697205,
          -0.2070913314819336,
          -0.22783485054969788,
          -0.1535567045211792,
          -0.06275883316993713,
          0.026831014081835747
        ],
        [
          -0.3028110861778259,
          0.13555079698562622,
          0.028490500524640083,
          -0.04595184698700905,
          -0.029666464775800705,
          0.04217343032360077,
          0.18588510155677795,
          -0.1881003975868225,
          0.0208490788936615,
          -0.2359446883201599,
          -0.0451187901198864,
          0.06824672222137451,
          -0.026141995564103127,
          0.06041664630174637,
          -0.09145846217870712,
          0.2451126128435135
        ],
        [
          0.04905293881893158,
          0.07652277499437332,
          -0.2132098227739334,
          0.1715737283229828,
          -0.1343279480934143,
          0.3340632915496826,
          -0.13846449553966522,
          -0.1679667979478836,
          0.08844192326068878,
          0.009973105974495411,
          -0.0055372510105371475,
          -0.25977835059165955,
          -0.12168572098016739,
          0.2154483199119568,
          0.1555320918560028,
          -0.020561380311846733
        ],
        [
          -0.07390487194061279,
          -0.23030954599380493,
          -0.06720281392335892,
          0.29488253593444824,
          0.16968978941440582,
          0.23462826013565063,
          0.16387230157852173,
          0.19893620908260345,
          -0.06812208890914917,
          -0.2441950887441635,
          0.2300422042608261,
          0.020158937200903893,
          0.11934294551610947,
          -0.049383021891117096,
          -0.12588289380073547,
          0.012220025062561035
        ],
        [
          -0.11605830490589142,
          -0.10525742918252945,
          0.18241024017333984,
          0.044169701635837555,
          -0.003738963045179844,
          -0.09681840240955353,
          -0.1279565840959549,
          0.027048012241721153,
          0.25126737356185913,
          -0.1828705221414566,
          0.1263524740934372,
          -0.10885290056467056,
          0.11470342427492142,
          0.1458069235086441,
          0.2135724574327469,
          -0.03258444368839264
        ],
        [
          -0.14661236107349396,
          -0.06541357934474945,
          -0.10764121264219284,
          -0.031661391258239746,
          0.16909320652484894,
          -0.19666369259357452,
          0.08597011864185333,
          0.14128701388835907,
          0.07156337052583694,
          0.25416457653045654,
          0.1252393126487732,
          -0.13636857271194458,
          0.10616239160299301,
          0.1901935487985611,
          -0.1833241730928421,
          -0.1077100932598114
        ],
        [
          0.011092452332377434,
          -0.012508808635175228,
          0.19831052422523499,
          0.07466062158346176,
          0.026266859844326973,
          0.17836308479309082,
          -0.012604078277945518,
          0.21596302092075348,
          0.19237066805362701,
          0.18412508070468903,
          0.0886370912194252,
          -0.049360405653715134,
          -0.17538608610630035,
          0.018080933019518852,
          -0.21913555264472961,
          -0.15456868708133698
        ],
        [
          0.03555108606815338,
          0.05600621551275253,
          -0.16612005233764648,
          0.06383942067623138,
          0.08547402918338776,
          -0.15472474694252014,
          0.04432886838912964,
          -0.2250746190547943,
          0.23076581954956055,
          0.026950092986226082,
          0.10866124927997589,
          0.05430421605706215,
          0.3185865581035614,
          0.24157698452472687,
          -0.05160512402653694,
          -0.05046491324901581
        ],
        [
          0.025427693501114845,
          -0.10090938210487366,
          0.05919068679213524,
          0.17206861078739166,
          -0.1915227770805359,
          -0.23825696110725403,
          -0.09042371064424515,
          0.28384506702423096,
          -0.024252232164144516,
          -0.12310320138931274,
          -0.0856817364692688,
          0.22692716121673584,
          0.03151646628975868,
          -0.013911605812609196,
          -0.21427029371261597,
          -0.008592137135565281
        ],
        [
          0.07587755471467972,
          0.21006722748279572,
          -0.32482942938804626,
          0.16681241989135742,
          -0.19051246345043182,
          -0.09570499509572983,
          -0.08882635086774826,
          -0.16872160136699677,
          -0.2843337655067444,
          -0.20750771462917328,
          -0.06360343098640442,
          0.11036045104265213,
          0.045134544372558594,
          0.1274539679288864,
          0.010308310389518738,
          0.05263715609908104
        ],
        [
          -0.030187753960490227,
          0.05436491221189499,
          -0.006060445215553045,
          0.07551151514053345,
          -0.14496013522148132,
          0.013708986341953278,
          -0.13086700439453125,
          -0.16496481001377106,
          -0.09548147767782211,
          -0.34410345554351807,
          0.021373257040977478,
          0.0901099294424057,
          0.0099647743627429,
          -0.21798868477344513,
          -0.20526230335235596,
          -0.03726227208971977
        ],
        [
          0.09585310518741608,
          -0.15183904767036438,
          0.03526695817708969,
          -0.15861034393310547,
          0.04384405165910721,
          0.2647174298763275,
          0.11576008051633835,
          0.3368850648403168,
          0.2560127377510071,
          -0.1140144020318985,
          0.03406044468283653,
          0.036321964114904404,
          -0.1580732762813568,
          -0.32716092467308044,
          0.026346979662775993,
          0.0690627247095108
        ],
        [
          -0.19881269335746765,
          -0.18569588661193848,
          0.3272627294063568,
          0.10861118137836456,
          -0.10649678111076355,
          -0.00877771619707346,
          0.08591528236865997,
          0.12194697558879852,
          0.27369555830955505,
          -0.34491172432899475,
          -0.3031088411808014,
          -0.25437846779823303,
          -0.1267726719379425,
          0.010276452638208866,
          -0.2876433730125427,
          0.13238412141799927
        ],
        [
          0.06493832170963287,
          0.012172933667898178,
          0.2527112066745758,
          -0.15038996934890747,
          -0.03849174827337265,
          0.0074774520471692085,
          -0.0408179797232151,
          -0.16619794070720673,
          -0.062068477272987366,
          0.20073239505290985,
          0.1198204979300499,
          0.16668345034122467,
          0.29072102904319763,
          -0.14204910397529602,
          0.32744133472442627,
          -0.04981789365410805
        ],
        [
          -0.01208574790507555,
          0.03280143067240715,
          0.03842999413609505,
          -0.18901243805885315,
          -0.02598831057548523,
          0.14069128036499023,
          -0.17330825328826904,
          -0.10581395030021667,
          0.14452263712882996,
          0.33956438302993774,
          0.298307865858078,
          0.007443499285727739,
          0.3135003447532654,
          0.04562678560614586,
          0.16680870950222015,
          0.2056003361940384
        ],
        [
          0.17072594165802002,
          0.006923380773514509,
          0.13605304062366486,
          -0.044387295842170715,
          0.16012689471244812,
          0.2713756561279297,
          -0.016446059569716454,
          -0.10187964141368866,
          0.20177702605724335,
          -0.0322507880628109,
          0.09358340501785278,
          -0.15734882652759552,
          0.24901507794857025,
          0.2300790399312973,
          -0.06717975437641144,
          -0.3327106535434723
        ],
        [
          -0.2121707797050476,
          0.15709714591503143,
          -0.29633453488349915,
          0.10150976479053497,
          -0.19016222655773163,
          -0.13651104271411896,
          0.27853691577911377,
          0.027439836412668228,
          -0.22840449213981628,
          -0.1921941041946411,
          0.10892550647258759,
          -0.050467126071453094,
          -0.12705117464065552,
          -0.2464711219072342,
          0.12341286987066269,
          0.3501240313053131
        ],
        [
          -0.2520191967487335,
          -0.10900358110666275,
          0.044244520366191864,
          -0.09461776167154312,
          0.313294917345047,
          0.0789145678281784,
          -0.37365373969078064,
          -0.015588371083140373,
          0.31615155935287476,
          0.04050486907362938,
          -0.06782616674900055,
          -0.049915485084056854,
          0.2939770519733429,
          0.35209256410598755,
          -0.33491799235343933,
          0.02943008951842785
        ],
        [
          0.07701338827610016,
          -0.008202810771763325,
          -0.0768342986702919,
          -0.24033614993095398,
          0.011908705346286297,
          0.08387342840433121,
          0.07164835184812546,
          0.2668195962905884,
          -0.11574917286634445,
          -0.016546988859772682,
          0.10764047503471375,
          -0.15205135941505432,
          -0.10450825095176697,
          -0.11392953246831894,
          -0.21207700669765472,
          -0.18991021811962128
        ],
        [
          -0.246728777885437,
          -0.031207658350467682,
          -0.3109598457813263,
          0.08821716904640198,
          -0.046524930745363235,
          0.01385630201548338,
          0.013081873767077923,
          0.21738168597221375,
          0.13237464427947998,
          -0.11952868849039078,
          -0.03972703218460083,
          -0.1332419067621231,
          0.02860433980822563,
          -0.34843552112579346,
          -0.1571187973022461,
          0.13696308434009552
        ],
        [
          -0.2739754319190979,
          0.18536598980426788,
          0.03839077427983284,
          -0.31018176674842834,
          -0.027406996116042137,
          0.13159750401973724,
          -0.26191720366477966,
          0.11029849946498871,
          0.06959447264671326,
          0.03540011867880821,
          -0.17326602339744568,
          -0.0603925958275795,
          0.07372135668992996,
          0.19230017066001892,
          -0.21179713308811188,
          0.02769274264574051
        ],
        [
          0.3363338112831116,
          0.2121603786945343,
          -0.013095556758344173,
          -0.2592179477214813,
          0.04891827702522278,
          -0.06432215869426727,
          -0.33205434679985046,
          0.07546927779912949,
          -0.06610026210546494,
          0.15970201790332794,
          -0.16357818245887756,
          0.11372817307710648,
          0.2255956083536148,
          0.22909747064113617,
          0.15954065322875977,
          0.09056330472230911
        ],
        [
          0.061185020953416824,
          0.3958980441093445,
          -0.21220074594020844,
          0.19862350821495056,
          0.14223648607730865,
          0.05625416338443756,
          0.15947473049163818,
          -0.08347060531377792,
          0.22651322185993195,
          -0.013649790547788143,
          -0.07872341573238373,
          0.17917457222938538,
          0.40484172105789185,
          -0.05608660727739334,
          0.1986808329820633,
          -0.12951721251010895
        ],
        [
          0.11962433159351349,
          0.2885179817676544,
          0.015797818079590797,
          0.04887235909700394,
          0.04003455489873886,
          0.0015889952192083001,
          -0.13423442840576172,
          -0.007602520752698183,
          0.19076818227767944,
          0.03519861027598381,
          -0.06280606985092163,
          0.15878398716449738,
          -0.04631548002362251,
          -0.09375547617673874,
          0.12153995782136917,
          0.08101386576890945
        ],
        [
          0.04785210266709328,
          -0.05133896693587303,
          -0.09803342819213867,
          -0.18062227964401245,
          0.022978847846388817,
          -0.24950888752937317,
          -0.1982491910457611,
          -0.07539267838001251,
          0.2933593988418579,
          0.19741475582122803,
          0.33267831802368164,
          0.3108319938182831,
          0.011927234940230846,
          0.29080861806869507,
          0.21993999183177948,
          0.19935661554336548
        ],
        [
          0.1359579861164093,
          0.2729579210281372,
          0.1292419284582138,
          0.11579980701208115,
          0.16515041887760162,
          0.2194937765598297,
          -0.39202362298965454,
          -0.07919391244649887,
          0.19184407591819763,
          0.2089945375919342,
          0.2763998210430145,
          -0.18647156655788422,
          -0.06359481811523438,
          0.19112908840179443,
          0.11742956936359406,
          -0.28777962923049927
        ],
        [
          0.37922778725624084,
          0.30086272954940796,
          0.04243950918316841,
          -0.10478577762842178,
          0.14817242324352264,
          0.0012812074273824692,
          0.010263470001518726,
          -0.23617228865623474,
          0.0839066207408905,
          0.3209708333015442,
          -0.04880431666970253,
          0.289043664932251,
          0.060405194759368896,
          0.010099533013999462,
          -0.16843757033348083,
          0.07102099061012268
        ],
        [
          0.04490730166435242,
          0.11549321562051773,
          0.12204897403717041,
          0.3189268708229065,
          -0.15764017403125763,
          -0.1435413509607315,
          0.24078990519046783,
          -0.10982780903577805,
          -0.007915879599750042,
          0.1337393969297409,
          0.2106831669807434,
          -0.18710078299045563,
          -0.09154532104730606,
          -0.0759618878364563,
          0.0948430523276329,
          0.17056559026241302
        ],
        [
          0.11885199695825577,
          0.07037052512168884,
          -0.04896983131766319,
          0.3123365342617035,
          -0.21110844612121582,
          0.07006556540727615,
          0.08724557608366013,
          -0.128444641828537,
          -0.030647123232483864,
          -0.2665988504886627,
          -0.18205006420612335,
          -0.12511171400547028,
          -0.22673961520195007,
          -0.34088149666786194,
          0.20175506174564362,
          0.05656067654490471
        ]
      ],
      "bias_ih": [
        0.061160676181316376,
        0.28004440665245056,
        0.18722350895404816,
        -0.04221397638320923,
        0.1328757256269455,
        0.12392200529575348,
        -0.048616327345371246,
        0.3042038381099701,
        -0.029532916843891144,
        0.07970315217971802,
        -0.10171843320131302,
        -0.02665756456553936,
        0.055806953459978104,
        -0.07278630882501602,
        0.3199639916419983,
        -0.00408957852050662,
        -0.1345873922109604,
        -0.2716974914073944,
        -0.21391792595386505,
        0.05153186619281769,
        -0.015984514728188515,
        -0.07837294042110443,
        0.0455206036567688,
        -0.22226688265800476,
