{
  "format_version": 2,
  "architecture": [
    {
      "type": "dense",
      "input_size": 17,
      "output_size": 72,
      "activation": "swish"
    },
    {
      "type": "dense",
      "input_size": 72,
      "output_size": 36,
      "activation": "swish"
    },
    {
      "type": "dense",
      "input_size": 36,
      "output_size": 2,
      "activation": "asinh"
    }
  ],
  "weights": {
    "layer_0": {
      "w": [
        [
          -0.25089465141767353,
          0.4662738710165123,
          -0.3110886414412374,
          0.17069903656903507,
          0.1525215277489651,
          -0.079321218338337,
          -0.21180334258961525,
          0.46618184609483415,
          0.1682845122748201,
          0.07569213640366534,
          -0.255663827435935,
          0.11502621047640316,
          0.07137438051866296,
          -0.30652071282224636,
          -0.09944368860452835,
          -0.4161101324367118,
          0.03386067844759599
        ],
        [
          0.12169114351643207,
          0.2603390174954453,
          -0.029801607197152247,
          -0.2641624503937909,
          0.06174715210769599,
          -0.24105845015922167,
          0.031119455807867347,
          0.13716122520760055,
          -0.03548927163597809,
          0.050370545742200346,
          0.43438176784059745,
          0.12504236857743467,
          0.0917836329098991,
          -0.08960996094267076,
          -0.4358852760345142,
          -0.02111170407908719,
          -0.28553310563612355
        ],
        [
          -0.19039912088147215,
          -0.1846055149405344,
          -0.013916907542112944,
          0.07032736798403538,
          -0.14243457746393517,
          0.12363696950563985,
          -0.1819580111046833,
          0.2576605260506607,
          -0.19486143659798688,
          0.11547975816897971,
          -0.25477689699734274,
          0.0516656840256704,
          0.24049166551971002,
          0.32822952068539046,
          -0.021576792300367575,
          -0.14671510535834892,
          -0.1553032068715708
        ],
        [
          -0.2016512825225335,
          0.3313357024071353,
          0.1694423257375376,
          0.1200144500426037,
          -0.40544915469589055,
          0.05813197303991713,
          -0.25941228309035735,
          -0.0811882226729857,
          0.1471630936871331,
          -0.04803877494820824,
          -0.022620866159688002,
          0.12000467690474448,
          0.23055011106027612,
          0.2508097534148338,
          0.18504278974619515,
          -0.02632296057511596,
          0.09897700687200905
        ],
        [
          -0.12209226106012111,
          -0.23737772618822722,
          -0.09831201398131945,
          0.17724003290710322,
          0.1524380525081046,
          -0.05490133111745249,
          -0.062186874317124996,
          0.1333427778641637,
          0.4779102835025897,
          -0.1720946428874794,
          -0.3608042382340248,
          -0.5190443722176314,
          -0.025662593875106388,
          -0.045841125241902536,
          -0.22259935041897744,
          -0.5036686891737563,
          -0.11709496676069009
        ],
        [
          0.030473288692855482,
          0.43623758352797726,
          -0.06618435303569653,
          -0.08182474204560464,
          0.32193772428866774,
          0.5080225460364033,
          0.127387454645139,
          -0.4258702123947854,
          -0.0037566473915543463,
          0.3222802132948832,
          0.2567100002114735,
          0.2753350884631889,
          -0.01544477144667189,
          -0.06975276832467747,
          0.39161748335575064,
          -0.35327222583006285,
          0.07812539766674131
        ],
        [
          0.07643366210916702,
          -0.01709936551181923,
          0.019133697311645048,
          0.36888685753552664,
          0.32682429069078045,
          0.2026040483776992,
          -0.019839708141092705,
          0.15367045158581782,
          -0.008563064075622573,
          0.2778526606566346,
          -0.1339330240957623,
          0.13575902884476287,
          -0.11173007185446127,
          -0.26025496644555957,
          0.13272682258660495,
          0.291698633009293,
          0.10188105381424795
        ],
        [
          0.5057116268192458,
          -0.3110156128673671,
          0.19462574095730067,
          0.36035594333612986,
          0.19742240360919072,
          0.1732276023728998,
          0.1291178562007308,
          0.3394904734417229,
          0.276091439640722,
          0.16798533848007113,
          -0.4273367851729055,
          -0.1907217548469754,
          -0.024690169891036118,
          -0.4435007434702037,
          -0.20136245886809528,
          -0.4230490284458561,
          -0.3479361979119478
        ],
        [
          -0.2016131958290201,
          -0.154964646152151,
          0.015430529654910652,
          0.019816410820978847,
          0.05786946088123268,
          0.40937186260453906,
          0.27753966270944475,
          0.2572315540803123,
          0.20976179218375424,
          -0.47926366106181706,
          0.3363403784492196,
          -0.27895727364589573,
          -0.06856384866285542,
          0.3410492378895723,
          0.030501105463951017,
          -0.05821456660739632,
          -0.200727241824875
        ],
        [
          -0.34073815094681403,
          0.16369413651535636,
          -0.12995198873683955,
          0.07285864272991138,
          -0.4846125444843793,
          -0.17013314873065116,
          -0.17206595025309013,
          0.18021288252474388,
          -0.16871186313097786,
          -0.22492604797876437,
          0.23523877097537604,
          0.08117058661903997,
          0.10249382282228903,
          0.1133104330521999,
          0.14860265500549408,
          0.12064778317776759,
          0.19037976578339022
        ],
        [
          0.34796753896184696,
          0.18598422373928758,
          -0.27002443098440415,
          0.12004934833956493,
          -0.19030832849967094,
          -0.20864684510666465,
          -0.003711507702720218,
          0.5118844802346328,
          -0.1367242605305713,
          -0.16252288707724005,
          -0.02420255288953055,
          -0.09843469861489823,
          0.35177351703503446,
          0.2926140693952949,
          0.452828684287653,
          0.38427799104345084,
          0.3649762888204454
        ],
        [
          -0.21324144850151927,
          -0.16251698504488743,
          0.2021863724807852,
          -0.17397371333277595,
          -0.035340167623430896,
          0.4419830167752016,
          0.051737093512714605,
          0.5096468665178909,
          0.13090961858532646,
          -0.3889920308317454,
          -0.2699594966372301,
          0.4989164970206156,
          -0.2516755116365194,
          0.32706929715863675,
          0.15053608776334348,
          -0.2509436081789573,
          0.044161626179995306
        ],
        [
          0.019227451486643177,
          -0.219964310371756,
          -0.14873063520136592,
          -0.07890637838646147,
          0.14366352960549333,
          0.010476297293965486,
          0.2815668580415591,
          -0.1310295257487229,
          0.47429525365344993,
          -0.10568541181634555,
          -0.10441160733456717,
          -0.1770126248909687,
          -0.06388761653127961,
          -0.21027754611604788,
          -0.019335681763301416,
          0.236670825809991,
          -0.2726823127715572
        ],
        [
          0.032985366190979915,
          0.08723375154038016,
          -0.4730932603956573,
          0.3805407623579441,
          0.4896998020996973,
          -0.12076664623257949,
          0.08008683348241774,
          -0.09720838603651116,
          -0.020749147881905294,
          0.43062395221598415,
          -0.03306031789666708,
          -0.31469153515418047,
          -0.469090668398971,
          0.03827715508337648,
          -0.20634234763079345,
          -0.31893192069535015,
          0.16832332976243425
        ],
        [
          0.2993962472548358,
          0.17705207378124033,
          -0.389006120319716,
          -0.05016331492310461,
          0.32133140639393887,
          0.09565304873077862,
          -0.027028374896396534,
          -0.48386285571248755,
          -0.09706305926885467,
          -0.3308412987870363,
          -0.26287230889426266,
          -0.2691446043188404,
          0.1987122488778169,
          -0.1733948719663264,
          0.22011491547601802,
          -0.20102133505746006,
          0.06789014117101055
        ],
        [
          0.1688178097479508,
          -0.30370447556123314,
          0.4848842905075622,
          0.006103195781249293,
          0.282082695122021,
          -0.4212286709766,
          -0.17573663855794192,
          0.0707566270681721,
          -0.020837177946116947,
          -0.1813902233898264,
          0.13788458240862467,
          0.37115221964815703,
          -0.08169731293958515,
          -0.16489881509878135,
          0.21179058254965388,
          -0.13492983591411983,
          -0.08629717297795947
        ],
        [
          -0.2650872908589423,
          0.06597754159254232,
          0.2626961395957538,
          0.30499884818175715,
          0.2946725804127769,
          -0.1917681189095226,
          -0.08975648521204083,
          0.25897945933862454,
          0.1686541696362216,
          0.2926758280448938,
          0.17709623787244166,
          -0.3148120133747755,
          -0.44043266866265085,
          -0.10164322030234851,
          -0.14345403767628173,
          -0.30189024994059943,
          0.10777204367321613
        ],
        [
          -0.36996080460841474,
          -0.1803166954300518,
          -0.13260380674968492,
          -0.02169019310139131,
          0.4243433478144636,
          0.45129783678311175,
          0.30466023385389984,
          -0.49534005057539765,
          0.08787912400963371,
          0.21862211636260365,
          0.4451174757451756,
          0.39837918835367603,
          0.19600420920214723,
          -0.24827294641208814,
          -0.3183558322910351,
          0.22640719004933207,
          0.4434167868309461
        ],
        [
          -0.16677091963160967,
          0.03291462135697354,
          -0.28272617386523397,
          -0.04129043282313405,
          -0.0885915307415035,
          0.29855945789766447,
          -0.19246579029444388,
          -0.36310953418172576,
          -0.034702589151713314,
          -0.24978483323504147,
          -0.08199403269313071,
          0.512774663821386,
          0.13830995379236244,
          -0.08189466605337281,
          0.286746500991239,
          -0.3381237396821576,
          0.26858406306453975
        ],
        [
          0.028872080394146682,
          0.007841226580895366,
          -0.33204487304474084,
          0.27833428894911194,
          0.4798489075289909,
          -0.32855728900205045,
          -0.04138062395149328,
          -0.025408632828621325,
          0.02637661797690971,
          0.2913042588337157,
          0.17637974258076428,
          0.10461859031686493,
          -0.05638519862950231,
          -0.04928548995687804,
          0.05663308698049696,
          0.4203089652677541,
          -0.15415980227124726
        ],
        [
          -0.1906716601232396,
          0.06580137872883196,
          0.17825385031565644,
          0.4903588097254107,
          0.16675592763686375,
          0.43904433386094377,
          0.2690969118663141,
          -0.14597320783411905,
          -0.3008429130966024,
          -0.022141998915356398,
          0.27379802640338746,
          0.22734829830555636,
          -0.049630757178082796,
          0.1884805605992329,
          0.30838508670286013,
          -0.438056625023196,
          0.18716731249894436
        ],
        [
          -0.49159400412069765,
          -0.3251043051391811,
          -0.4430812604915387,
          -0.3591385254839826,
          0.19605239257754858,
          -0.29818344198643365,
          0.027729568780808456,
          -0.34109157818887736,
          -0.1316015620395632,
          -0.08828955660754811,
          -0.00007769621462727638,
          0.2635265460907724,
          -0.07934898572180676,
          0.1224516916307653,
          0.19882759832140884,
          -0.04970333329513421,
          0.028698712301773455
        ],
        [
          0.26457546411125854,
          0.11314584522390625,
          -0.3972811790368483,
          -0.025661459204926684,
          0.1634585016684874,
          -0.3350737644109577,
          -0.08885029518277843,
          -0.0162850040836946,
          -0.4307473051240797,
          -0.024049027700847547,
          0.17241954625480027,
          -0.11428203936971759,
          0.38187549915503294,
          -0.15807926143750006,
          -0.19289392313997872,
          -0.08593413292869045,
          0.19079151253477356
        ],
        [
          -0.32978722315447906,
          0.0030269197082561927,
          0.03614937981999378,
          -0.14878856842986193,
          -0.10064593764145269,
          -0.223702850663748,
          0.26418544772085717,
          0.22760186740047572,
          0.16944607397070066,
          0.39442177206247653,
          -0.10177883637816204,
          0.503626987065119,
          0.3605011076881134,
          -0.01623203115743843,
          -0.47615785102384633,
          0.11698659880244633,
          -0.37719505425610117
        ],
        [
          0.10529881498121685,
          0.19358783477560682,
          0.3094643494030904,
          -0.4530458403751719,
          0.2794106087635394,
          0.11875745133644877,
          0.07764908588087704,
          -0.30907790565382,
          0.0959697394258281,
          -0.2772621915211476,
          -0.2743138407917599,
          -0.011221422099769507,
          0.04952007178966644,
          0.21702088725003832,
          0.32820827515633266,
          -0.27327072315045886,
          -0.4757596801596784
        ],
        [
          0.03357524354358532,
          0.05671910981484518,
          -0.08678038093102097,
          -0.423596847793389,
          0.10694874810620814,
          -0.46286845126042303,
          0.23829801956244923,
          0.19324599745467785,
          -0.021092447759813282,
          0.2312372304980833,
          0.1700931508333372,
          -0.020852848506116795,
          -0.47866817364226044,
          0.4209233868389213,
          -0.3581344676632428,
          0.2712765112212757,
          0.2151767107908329
        ],
        [
          0.024191754827715073,
          -0.1122571895190092,
          -0.2937777298220706,
          0.13834059677700294,
          0.014233407276660004,
          -0.012117613517270254,
          -0.06151302276368892,
          -0.21772967210975258,
          -0.2259118594593097,
          0.07819720844782019,
          -0.5096648053787807,
          -0.23216357624046136,
          -0.1622639274968738,
          -0.06118662724410423,
          -0.28324768060038136,
          -0.35381816146128975,
          0.1014125452625213
        ],
        [
          0.054911124122884236,
          0.13408841342308198,
          -0.017606109384681323,
          0.07788771766531033,
          0.3113021299075317,
          0.14714825229587913,
          0.24152494248910172,
          -0.1773572634615343,
          -0.08474362072795777,
          -0.013477964838451317,
          0.5098527862349475,
          -0.15838416392598131,
          0.16548450209420218,
          0.29314184014088573,
          -0.0669433341205436,
          -0.24085467991349369,
          -0.1776686712924878
        ],
        [
          0.30409876390094137,
          -0.2086411741214942,
          -0.20115768052752092,
          0.35882197126800774,
          0.20421206239320455,
          0.09230168157776697,
          -0.2120507034011111,
          0.3652410362051163,
          -0.06383837310988122,
          -0.12126530165008681,
          -0.13622601518561722,
          0.10941953419917716,
          0.052026635010697486,
          -0.08043106207962636,
          -0.5007742742879402,
          0.25135812474555097,
          0.09976538027533144
        ],
        [
          0.08634996408505025,
          -0.16703201706800358,
          0.07363841002936011,
          0.1695450683294819,
          0.49883589313417465,
          -0.4878911864050548,
          0.2042883242989676,
          -0.06170023064705199,
          -0.22329371220663158,
          0.3897636462935836,
          0.3536737279990817,
          0.3111754015559769,
          -0.06702709487752084,
          -0.16595042474027716,
          0.2646948759726935,
          -0.39952169222568923,
          -0.26862330491734054
        ],
        [
          0.041464743889092937,
          0.38996293177884767,
          0.30999730022799,
          -0.1155596915905861,
          -0.2307617277456987,
          -0.2329705195426784,
          0.32735630767377055,
          -0.1258402828964777,
          0.4954828087026525,
          0.24387805284668562,
          -0.16332000777105293,
          0.10305632586251945,
          -0.4096451122499964,
          0.27639099925134203,
          -0.49412470438305184,
          -0.297534608331241,
          0.3654952103019947
        ],
        [
          0.24788861491434933,
          -0.431143486083229,
          0.002870906588797739,
          -0.15270379517476973,
          0.19709013198489278,
          -0.09058357362913921,
          0.23187716897443822,
          0.0702063574202555,
          0.17186135706386108,
          0.19700742156150308,
          0.20035799292315248,
          0.4393625256051277,
          -0.09156819118941945,
          -0.4021567794519795,
          0.227109614111763,
          0.27277342242914626,
          -0.132333173143862
        ],
        [
          0.03694601841001299,
          -0.20216550320952992,
          0.2651790400251194,
          0.010574251858066486,
          -0.36819109103495745,
          0.15740514407694273,
          0.38402324627407614,
          0.19119003081974362,
          -0.16774977226797488,
          -0.05535255511961362,
          -0.2807453598001905,
          -0.08753096336520133,
          0.04424270417490428,
          -0.08615525156283943,
          0.3224002421415183,
          0.1286429825469605,
          -0.36135702135874287
        ],
        [
          -0.07777045624471435,
          -0.1587473422133724,
          -0.25337237522236034,
          -0.23314164488722472,
          0.5170525366709716,
          -0.27169198816740436,
          -0.23243539697184556,
          0.20439479075853206,
          -0.01582035638202728,
          0.08822117245308969,
          -0.1211456608754703,
          -0.2648157752078818,
          -0.0272219681658879,
          0.1991446891707489,
          -0.20570439469014984,
          -0.42792248717079207,
          0.3194554451179983
        ],
        [
          0.5151159300546407,
          -0.007441811029179957,
          0.05118722191810787,
          -0.10859609572049589,
          0.28596256251661056,
          0.2806823703679169,
          0.012750994384510439,
          0.16057516888104661,
          0.33072826218212104,
          0.3523901620941835,
          0.4039216153410553,
          -0.06707788569155182,
          -0.4775995927266658,
          -0.46822454232627014,
          -0.3501985972503249,
          0.014337666896863555,
          -0.17138250241153413
        ],
        [
          0.10723976453786677,
          0.10768153963256932,
          -0.4952305290934057,
          0.006000273153396352,
          0.16340765781118205,
          0.31004584273573776,
          -0.3143312443911425,
          -0.23403287706747894,
          0.26830921985003087,
          0.22926727578652828,
          0.37081537851346713,
          -0.3527942880899252,
          -0.5018187807457404,
          0.1087500719812875,
          -0.10038209737280668,
          0.09553237882573029,
          0.2676870306345319
        ],
        [
          0.09166566235984697,
          0.19856399206722308,
          0.027165978072794417,
          0.15750380416850018,
          -0.04696203298300128,
          0.25084654452291033,
          0.050787611981980785,
          -0.4731939633896517,
          -0.3279037545925342,
          0.15546518340827387,
          0.18926713155253605,
          0.324413289889123,
          -0.00553503030092628,
          -0.12174688626702579,
          -0.5183570607106472,
          0.3809842353385783,
          -0.029394277592763196
        ],
        [
          0.4380703045127492,
          0.32886859573639027,
          -0.09805526938832865,
          0.08227015211080113,
          0.12145006394568814,
          0.11286839436625562,
          0.22176262925308232,
          0.019446966406159172,
          -0.26709661216875996,
          -0.23728730388405578,
          -0.2492836557462021,
          0.2752414435466569,
          0.09472075309909733,
          0.17828251434361497,
          0.14805535124510683,
          -0.10062307709563467,
          -0.058641704277583806
        ],
        [
          0.3618780461853238,
          0.3004890711816405,
          -0.2867652431861404,
          0.22613671731818352,
          0.308759159811832,
          0.25131055779609157,
          0.23878824285108047,
          0.2990881019408481,
          0.5142513241763037,
          -0.08664542692687388,
          -0.31614535802339117,
          0.4035807682589726,
          0.026298449851900663,
          -0.2922241292795193,
          -0.20707038370005898,
          -0.4340724743911489,
          -0.44459694030916763
        ],
        [
          0.050060030545045264,
          -0.48581414766955167,
          -0.29729504561108616,
          -0.0408894118641242,
          -0.16805815995337176,
          -0.36699108147769627,
          0.12298509552728554,
          0.06694872542704688,
          -0.020960270496841127,
          -0.15568619537128603,
          0.009589135773886426,
          0.37868939287948655,
          0.1973728870916155,
          0.40354746032400335,
          0.14293450687986686,
          -0.02271614988285464,
          -0.4435652342860852
        ],
        [
          0.0570870644725161,
          0.39071348861857447,
          -0.0039012421854919266,
          -0.2064587265354672,
          0.08255798964235372,
          -0.33707160625289245,
          -0.17396291702830435,
          0.18546035623123347,
          -0.026092183419201387,
          -0.5027101374624465,
          0.1584808994387894,
          -0.3332662426877515,
          -0.10396675810219613,
          -0.05771094834781587,
          0.004263231073048712,
          -0.26746126012985016,
          0.06445773694197854
        ],
        [
          -0.3297938081876819,
          -0.3098470602573951,
          -0.18000297321624087,
          -0.06116190942750105,
          -0.06486158643181683,
          -0.5016197991784859,
          -0.2022215597643146,
          0.07826979268658096,
          -0.35205283537072024,
          0.17915876918559348,
          -0.45339509764869723,
          -0.0993079607104786,
          0.33724155365639363,
          0.10602092456565215,
          -0.37262366868500263,
          -0.04430317870878081,
          0.44687787426774794
        ],
        [
          0.1690494243619881,
          0.18502048697640128,
          -0.41072420101485496,
          0.17376067112064675,
          0.03546497605678012,
          -0.16090731736317476,
          0.4794760305924599,
          -0.5039411173313186,
          -0.19347922830577863,
          0.22700610939305743,
          0.02032071043454542,
          -0.023813181632831804,
          -0.12205839326864798,
          -0.01643543815159909,
          -0.22729285185030657,
          0.1995073995890153,
          0.4155003800707212
        ],
        [
          -0.18928569055988492,
          -0.12140767301115002,
          -0.04746050196924434,
          0.06257657659033922,
          0.37204852586779225,
          0.37521137350731537,
          -0.51533200837288,
          0.1348797332910202,
          -0.1234802805561282,
          0.13936826903890875,
          -0.3080210105164176,
          -0.4311598204055343,
          -0.5054625302319771,
          -0.32566935795463914,
          -0.218735071566518,
          0.13159102775207188,
          -0.18024237692751566
        ],
        [
          -0.11850978790293681,
          0.5033272017389415,
          0.12428983171670005,
          0.027765055182805032,
          0.22627341761294284,
          -0.5187173630345785,
          -0.1552224284132157,
          0.05692944010066614,
          0.1699127508659548,
          0.04908968642739664,
          -0.015022363424464613,
          -0.3255194769545194,
          -0.20064706247981934,
          0.2548573513582688,
          0.18493699831229216,
          -0.2701077224614955,
          0.13716915691208742
        ],
        [
          0.03210439048396607,
          -0.47305373707369996,
          0.03571725898219047,
          0.4513108451175064,
          -0.18885206385231773,
          -0.3409187487129385,
          0.5074200673381065,
          0.024884519670792304,
          0.30975093314610436,
          -0.041031044937796635,
          0.04231632386754813,
          -0.16143516470563846,
          0.00017672844129656973,
          -0.27381732443661555,
          0.2072244319565617,
          0.19714302115260507,
          -0.10061945202458356
        ],
        [
          0.1385893920145157,
          -0.12196330744545203,
          -0.1260917633431769,
          -0.15262954885281438,
          -0.30160286598887975,
          -0.20571946003174735,
          -0.1856693816232955,
          0.42055380013031296,
          -0.3491057589252956,
          -0.07793215867200542,
          -0.5093406293215768,
          0.08226060622638798,
          -0.20871957137548286,
          0.2113547523467555,
          0.30076104702686257,
          -0.478849323254378,
          -0.48863217522950975
        ],
        [
          -0.13422790194436895,
          -0.023955841533771338,
          0.1458427489802524,
          -0.18116198347126128,
          0.26301648581060155,
          0.13948513665912166,
          -0.32043038051803946,
          -0.013434409385566615,
          0.27816086033553067,
          0.10765028187357739,
          -0.1110813006782192,
          -0.238827654380579,
          0.17915985891130837,
          0.18758001808824842,
          -0.27100449563686885,
          -0.5118062747285963,
          -0.023663810003498875
        ],
        [
          0.01771479112309704,
          0.48587696783087375,
          0.4686266346855765,
          0.14438517525183614,
          -0.43479300432020807,
          0.20517104317711798,
          0.46184618985976533,
          -0.3043410364549236,
          -0.10373993492310746,
          0.1812321195608938,
          0.10215378309935275,
          -0.032822526659620266,
          0.2530855978016602,
          0.07618808360012042,
          0.08427996343350108,
          -0.14676959980333276,
          -0.10835019632643317
        ],
        [
          -0.22344082809172316,
          -0.35361097565037025,
          -0.10337273402145558,
          -0.39572115315201783,
          0.37498747862241966,
          0.49271012634015043,
          -0.27636639795564416,
          0.08237971449185522,
          0.18703328095656158,
          0.44221356314331106,
          -0.2105480749905933,
          -0.11005188565570284,
          0.3971086082815215,
          -0.31896034685139574,
          -0.11645007042805444,
          -0.369797628788592,
          -0.4178820910194171
        ],
        [
          -0.28120185558807803,
          -0.47222704438356305,
          0.3647142883786173,
          -0.023471671007823325,
          0.2371822194637243,
          -0.023589950815148975,
          0.14345211878433095,
          0.10559536676545866,
          -0.07775199955962842,
          0.49912035665047394,
          0.3116795230828383,
          -0.03587431752440934,
          0.08021367640517818,
          -0.28241876785791875,
          0.43195797188333185,
          0.04076378690234028,
          -0.3507567088408582
        ],
        [
          0.4887101719488792,
          -0.5189002317657146,
          0.21437148053503818,
          0.15813990656183508,
          0.02713610156974766,
          0.4359020984223536,
          0.06032351083428544,
          -0.29453041302224825,
          -0.23025882348351717,
          0.3010680922427409,
          0.37863587060050785,
          0.1040618545819112,
          -0.4384750235702865,
          -0.22206406472170154,
          0.5066672019441599,
          0.44392357639443003,
          -0.030760808872321688
        ],
        [
          0.3937282767652658,
          -0.39611158165447385,
          -0.5093824297347264,
          0.0022842196148814553,
          -0.080980816621195,
          -0.20507290710736664,
          -0.07358958774778307,
          0.20627909472592676,
          -0.192345497346465,
          0.2949571893229366,
          0.18772660267138264,
          0.29090089570706923,
          0.5153783384789162,
          0.40941923602469055,
          -0.128084097128548,
          0.5043668860721672,
          -0.4263627877997145
        ],
        [
          0.21231927202654077,
          -0.27199719336438877,
          0.39989150357803416,
          -0.22015789883960074,
          0.49068542653666525,
          0.15768238794792533,
          -0.4985699072527314,
          -0.43952914530065246,
          0.5160561448472872,
          -0.12551403389823756,
          -0.14477898930386757,
          0.01215208974592319,
          0.21043975670691262,
          0.1458777744523656,
          0.21346672045128756,
          0.31365360671368225,
          -0.14574020650050618
        ],
        [
          -0.17289225029768418,
          -0.4892619302795285,
          0.04027359827590282,
          0.47282735110874363,
          0.40255579908187034,
          0.22133305471484765,
          0.32318766808558597,
          0.447486114902621,
          -0.3610390899456202,
          -0.4615370325566134,
          0.22352294646997972,
          0.3241753546352092,
          -0.16799862849214375,
          0.221238454365288,
          0.19774391396695867,
          0.07248021859660614,
          0.059938533937107574
        ],
        [
          0.029460831954297384,
          -0.4506408195591077,
          -0.20716656595340943,
          -0.04337308946318508,
          -0.26755442725521644,
          0.38868474221587657,
          -0.1431373046310419,
          0.4453836935783263,
          -0.19577671621463866,
          0.04150064302654999,
          0.3917260106018968,
          0.28902144765713533,
          0.5165583795178007,
          -0.46443580621216,
          0.1731311721411688,
          -0.2732896869594621,
          0.22233796875396528
        ],
        [
          0.23889226826124577,
          -0.2974419688628914,
          -0.27476952413503697,
          0.051592709232397005,
          -0.16273904251408294,
          -0.23627056887621783,
          -0.06249948457249588,
          0.49035598532568125,
          0.49464941584280886,
          0.049412035173089786,
          0.01732594120765285,
          0.10959824510752392,
          -0.5002242575528438,
          0.3284081661948912,
          0.019300418386589024,
          -0.2642034141191484,
          -0.053704118696438374
        ],
        [
          0.26593055362924356,
          -0.47451986470834523,
          -0.22315970435440735,
          0.1313109198875363,
          0.13741341352402703,
          -0.060611369424524664,
          0.19179629621775718,
          -0.039456399890597404,
          0.2238745642164569,
          0.23442531775109965,
          -0.1263048487270017,
          -0.054303553575699826,
          0.43990625269809136,
          -0.2116404885481012,
          0.1633332492731865,
          0.1759493076459524,
          0.19267160619964763
        ],
        [
          -0.13959782103874935,
          -0.32389866809496104,
          0.32050967523947993,
          -0.0044654274548735495,
          -0.19404228183682665,
          -0.19421130608655512,
          0.01652691939087081,
          -0.2621530920103019,
          -0.15361608365788676,
          0.13993655657612813,
          0.11196699936227728,
          -0.2118271641271714,
          0.3315723357928616,
          0.3118615749361153,
          -0.460522747676526,
          0.14082271274124802,
          -0.5168333839195837
        ],
        [
          0.464877194608199,
          -0.014259268700798966,
          -0.0737022638652644,
          0.31390137204427204,
          0.15913768160333852,
          -0.02467481946052813,
          -0.4074618836656031,
          0.2270162034920511,
          -0.384844613655827,
          0.35760532750462604,
          0.09412712764156439,
          -0.0383227156077407,
          0.4058015692734295,
          -0.08958245034840129,
          -0.24596406103524865,
          -0.004911614689462551,
          -0.09200055293967879
        ],
        [
          0.034092468561639944,
          0.2694446364037366,
          0.281796411335142,
          0.38372248981978396,
          -0.10809574388970594,
          -0.314843467124637,
          0.09957003950138421,
          -0.11510705030442608,
          0.20643205035301304,
          0.03470773510119407,
          -0.02264670547852643,
          0.0031816557884616348,
          -0.19169217384749243,
          0.028116972653870365,
          0.36928796696979205,
          -0.44256879392079723,
          0.028145794931701662
        ],
        [
          -0.038224590090999044,
          0.26559818359234055,
          0.12364813088404047,
          -0.3026493458774211,
          -0.18541038849380453,
          -0.06563209539350229,
          0.4429469372094743,
          -0.01750621404208552,
          0.2656475666527146,
          -0.16757465555955697,
          -0.08812118384414952,
          0.005901259997775576,
          0.36526819122392373,
          -0.004524229595844975,
          0.17003932991954918,
          -0.08679025693853687,
          -0.35041477185218217
        ],
        [
          -0.43252636109151676,
          -0.10854564639686842,
          -0.5045447083071667,
          0.11694168882166867,
          0.037738942881677895,
          0.20532040775534766,
          0.4260068731779081,
          0.2632627339274446,
          -0.01920704451147892,
          0.30901962755923706,
          0.467599682452959,
          -0.49544335249698634,
          0.24889645296453067,
          -0.1045132343311061,
          0.3647864254736439,
          -0.16250435720040657,
          0.062159312869723204
        ],
        [
          0.4644303616519305,
          0.24253318548424097,
          0.2613672662354768,
          0.2123722503625881,
          -0.12130903851714697,
          0.409069360764707,
          0.3367099001884001,
          0.3133154810649643,
          0.47109256842225744,
          -0.077206522173971,
          0.47920257195655336,
          0.21142755771049793,
          0.026177716398990247,
          0.23429695955865815,
          -0.34343670528818443,
          -0.45681072673242323,
          -0.286061115216166
        ],
        [
          0.09008034784277696,
          0.2957134709383985,
          -0.07710211332673644,
          -0.022508381544328937,
          -0.07908587765535896,
          -0.10193525684855032,
          -0.10048465545389118,
          0.0686227966850177,
          -0.048951700692684175,
          0.5176072396621146,
          0.20051361525309574,
          -0.017462186204103447,
          0.019625765301496956,
          -0.01241310207738977,
          -0.1047820063449934,
          0.08301140001753649,
          0.5075741441775455
        ],
        [
          -0.004087032308906502,
          -0.06425173896695552,
          -0.4956217193007557,
          0.48227211758363564,
          -0.022994910973508365,
          0.027285482347343293,
          0.409842028917378,
          0.46795401346481147,
          0.25425537335364157,
          0.22631902568901552,
          0.16599885253999103,
          0.507778978867896,
          -0.2608256865962003,
          0.14389042019519038,
          -0.3609680872711881,
          0.16142406023806422,
          0.0487475049141991
        ],
        [
          0.15926274577619515,
          0.06230435862525263,
          0.4384672198202615,
          -0.2141468096121959,
          0.21151186804996747,
          -0.2996901428857356,
          0.1450106991392759,
          0.2520302608074727,
          0.24652220414544812,
          -0.43647949053448604,
          -0.011130520016750522,
          -0.3812272358492721,
          0.09570837645505637,
          -0.03982738486405041,
          0.5171401707560749,
          0.04850738144124078,
          -0.03923100812417751
        ],
        [
          0.070705796007967,
          0.3068674182155646,
          0.2552464625589814,
          -0.06587995686007214,
          -0.1503209265579753,
          0.022189429343039246,
          0.44767193406022177,
          0.09055352678604489,
          0.19770780734509308,
          -0.2199222442298016,
          -0.10472577332654937,
          0.08905473489304438,
          -0.025782840330137224,
          0.06942867796437391,
          0.08726417697657074,
          -0.16800966873670842,
          -0.11877949366682944
        ],
        [
          0.08206320183682714,
          -0.1875772468558457,
          0.040503792616604306,
          -0.04457392016747991,
          0.29390478003611,
          0.16160501103454072,
          -0.23005886913295975,
          0.10150020531984694,
          -0.21591657666349262,
          -0.1395371876832739,
          0.005554492381880105,
          -0.2465894492627274,
          0.5128284232155661,
          -0.4614103754512962,
          0.3614438882026285,
          0.16032023010957563,
          -0.23569285347104907
        ],
        [
          0.09658093355465802,
          0.295900935918624,
          -0.1037765560283565,
          0.42543605581191934,
          0.002636881166811267,
          -0.24166715960982832,
          0.1979243810113338,
          0.3039058739584354,
          -0.06400333886845644,
          -0.15700340792737372,
          0.39773338109893,
          0.24357609522401258,
          -0.27981152451421665,
          0.15580928785489034,
          -0.07388408156280352,
          0.42943310284042857,
          -0.4002758456340294
        ],
        [
          -0.004756274530853699,
          0.42300219309349674,
          -0.1758101924792379,
          0.3278848905259353,
          -0.12424680054764436,
          0.2653077952518096,
          -0.43692934834222263,
          0.1796444545093847,
          -0.025686976079737578,
          0.40647686077101,
          -0.1597716111946087,
          -0.20478081329284742,
          0.40702047602093516,
          -0.11545401221957807,
          -0.09427070769949536,
          -0.10494025112494887,
          0.2109793253299065
        ],
        [
          -0.16326254860405004,
          0.0842871812695658,
          0.33029738881778536,
          -0.02153260209027752,
          -0.2744274304199221,
          -0.25032287294579586,
          0.18103548841230344,
          -0.2752819053063464,
          -0.34607321809548663,
          0.502174090348109,
          -0.3023161162004814,
          -0.37539601042445603,
          -0.49338235719013496,
          0.2451302429712754,
          0.035303933817354305,
          0.11702156784976459,
          -0.07901762984823618
        ]
      ],
      "b": [
        0.29696173749322907,
        -0.042223366142036034,
        -0.05229085790313842,
        0.029791598888607718,
        0.21146003086745047,
        0.08755678212327234,
        0.214849771933883,
        0.06645320198162141,
        0.23947692610151028,
        0.3088063607942356,
        0.39685045915507333,
        0.010762020590326604,
        -0.03663845251686787,
        0.13819963375071365,
        0.17276189990603985,
        -0.4804410813230863,
        -0.4943649522002205,
        0.03412185384003874,
        0.09248137078745111,
        -0.27964539277451106,
        -0.03757693640035642,
        -0.27182026517660235,
        -0.37148607071643724,
        0.25234487613224243,
        0.03945149841300177,
        -0.17223978590694755,
        -0.027279561194416713,
        -0.12107928718207828,
        0.23895128164837143,
        -0.48572451782876813,
        -0.23384953249447654,
        0.44248821357894286,
        0.259212106951476,
        0.23401914316592876,
        0.38483826426856815,
        -0.3108438012677752,
        -0.10063964637990291,
        0.5106883120009994,
        0.40482933562960577,
        0.33547286183893554,
        -0.254326045576666,
        0.05578490629661159,
        0.29315943216481066,
        -0.06805642724258959,
        0.1684576175559923,
        -0.07359144717282773,
        -0.15126071612037145,
        0.05655398305396675,
        -0.0861052388672971,
        -0.17161849994055667,
        -0.2919144326989046,
        0.1377681485595743,
        0.2336139814218572,
        0.29692641785296325,
        -0.10870431402704528,
        -0.04707396871600944,
        0.3261460354745239,
        -0.3188613487246004,
        0.3365900104999786,
        0.4286380843982176,
        -0.20873845449334244,
        -0.054257436813488547,
        -0.20949505186063105,
        0.507855913459421,
        0.4057238957551357,
        0.20171341830865808,
        -0.30939883782106303,
        0.004835322219881477,
        0.26348952523263947,
        -0.240592427719387,
        -0.04703023329757561,
        -0.36048996479905354
      ]
    },
    "layer_1": {
      "w": [
        [
          0.44253317749801413,
          -0.21979588860505778,
          0.018724114349199683,
          -0.208165262778028,
          -0.19621404155486705,
          -0.18382279472616614,
          0.07372369425216052,
          -0.08144476803945527,
          0.2993202235239646,
          -0.14778861708841562,
          -0.03719410217914121,
          -0.26658023101080186,
          0.2531782395852451,
          0.17735122908678724,
          0.3548940254586962,
          -0.13072677010511918,
          -0.22438120788062133,
          -0.19636217430420272,
          -0.13162914937047265,
          -0.31487888515066753,
          -0.39071981774451736,
          -0.03562534375755849,
          -0.20296588301828933,
          -0.45647320829667415,
          0.36198305758203164,
          0.38669226704708193,
          -0.20872382628662833,
          0.05885117769844217,
          -0.15155754685217304,
          -0.051466888277790834,
          -0.08783043341921937,
          -0.02714833585077925,
          0.1848054701640175,
          -0.44372185318298074,
          0.4321522926935769,
          -0.27857991862752685,
          -0.004598433309644212,
          0.2434426390874379,
          -0.08007898852982093,
          0.267862506452761,
          0.17181989510535733,
          -0.17780224474633566,
          -0.07418157388443436,
          0.18570601932550557,
          -0.3228718917194221,
          -0.005155728227216216,
          -0.1815997148240825,
          0.4278798210467384,
          0.28701188747111783,
          0.004741439287164861,
          0.4398064420643081,
          0.24632058164451243,
          -0.43409164278674806,
          0.16004268728921223,
          0.4188835580534014,
          0.17793969473233084,
          0.1543049270964204,
          0.32325793942033343,
          -0.06278167539301288,
          0.02633823402788288,
          0.4481028668438263,
          0.23975207053801428,
          -0.12030198588553564,
          -0.4097013074348371,
          0.27616212516999494,
          -0.10113461807244678,
          -0.47123137910194357,
          0.31491964522539284,
          0.4674727296944856,
          0.3886476166454401,
          -0.12334377094806143,
          -0.06185447218211121
        ],
        [
          0.05130471072464082,
          0.017688737788112974,
          0.09005342083145695,
          -0.21775535479077257,
          0.23390485450305143,
          -0.13615496882445755,
          0.04552441702199472,
          0.09701194001528346,
          0.17523969586889587,
          0.030021992122302943,
          -0.24580715580672224,
          -0.12974845168155735,
          0.18675647415208463,
          -0.08908321682082415,
          0.01609399721297672,
          -0.2772903241379805,
          0.11903330412841984,
          -0.29916871965656106,
          0.23485426546026578,
          0.4156997531153559,
          0.06129722956457828,
          0.2552309394197091,
          0.23721231073491789,
          -0.09797046168867041,
          0.4270476626932346,
          0.23935372199693639,
          0.09573279171103,
          -0.09230682556635367,
          -0.4059752744815102,
          -0.13500233334406125,
          -0.1541310798213027,
          -0.2072348863919966,
          0.11428670089092774,
          -0.41802326896807673,
          -0.07847736139718337,
          -0.16285157411664886,
          0.04587862057993297,
          -0.21581369878200163,
          -0.19001235110613096,
          0.27892660589561735,
          0.46565855096198616,
          -0.4348818343982743,
          0.36897924561277495,
          -0.4489841160058824,
          -0.045894315367035754,
          -0.029378307372008805,
          0.2665175905670767,
          0.4121196705313235,
          -0.19980055468899355,
          -0.29398096644675176,
          0.15875660184906992,
          0.3013394258641039,
          -0.3637696222943259,
          -0.24064966555952041,
          -0.31754331484636966,
          0.3035178075539059,
          0.08950658497204622,
          -0.004555676815153453,
          0.20888351415286566,
          -0.2405316453149872,
          0.1928719348226361,
          0.3201344172953535,
          -0.03444634618224707,
          -0.24479306617843907,
          -0.0736623239106245,
          0.3856130711827369,
          0.1401925841147421,
          0.007143136764694191,
          0.1310959474762624,
          0.38892959250864845,
          0.1697160481144424,
          -0.4154817548068129
        ],
        [
          0.07832579364412728,
          0.004306794996732699,
          -0.1314136673046739,
          0.4072491064252046,
          0.36948135135201665,
          -0.2794925607895299,
          0.3301102558930631,
          0.11696762535730032,
          -0.17774968596741347,
          0.22346728828261586,
          0.41268287145089,
          0.12127574987168666,
          0.1825065566306674,
          0.04743589672685333,
          -0.1162550881051943,
          -0.30102929013339663,
          -0.31635889048032995,
          -0.44903228948863066,
          -0.07451001506014987,
          0.08665981786955523,
          -0.10584644324895298,
          0.048474892976652084,
          -0.21916430885185506,
          -0.04908523349607191,
          0.42552578734104596,
          0.03608972199038374,
          0.19374482916653424,
          0.2537093061934972,
          -0.1715275577277054,
          0.2938326838997687,
          -0.05296683849516187,
          -0.18316536635233283,
          -0.27799070923037084,
          -0.03199831207611442,
          0.10757668395990205,
          -0.2568080008770896,
          -0.16045102691074764,
          0.26535034764403076,
          -0.05553466828056258,
          0.15585539823576933,
          -0.33446653882052635,
          -0.3034516931584112,
          0.026543947603116236,
          -0.14019881781145332,
          -0.06773988235178335,
          -0.023190632181778525,
          0.2944617582960182,
          -0.1216300645436233,
          0.3484962150988221,
          0.1115614961202146,
          -0.17683847111143208,
          0.06616783351598243,
          -0.06818780802035534,
          0.4137819281123237,
          0.3620224054757315,
          0.12402919567303095,
          -0.11417437538462055,
          -0.2459075969985374,
          -0.23396170092941312,
          0.16239805637516425,
          0.39475004683815784,
          0.11937901468822265,
          -0.20798161966822615,
          0.15635102114271482,
          -0.10430827283357341,
          -0.21770422859491567,
          -0.016190613562398926,
          0.23481432636081812,
          0.3955765935491077,
          0.1296987373501255,
          0.1812904514967184,
          -0.40109576198466496
        ],
        [
          0.033470694950256785,
          -0.14463727474874843,
          -0.3200252998095503,
          -0.1837055172819525,
          -0.376750833089733,
          -0.33061966070347026,
          -0.1074726870873316,
          0.11324574698292156,
          -0.018042268622913138,
          0.2110389354375417,
          0.2935993076579143,
          -0.25034543005387355,
          -0.02869085379931241,
          -0.20009092766958408,
          0.0036971053741580717,
          0.059937696056380996,
          -0.3219471477413562,
          0.4199850188653864,
          -0.15689434909171762,
          -0.034472533356009194,
          0.04782885972516848,
          -0.13968601742768666,
          -0.14850593957054142,
          -0.0538763320672474,
          -0.06922403666905647,
          -0.2426891698039074,
          0.2321402430719336,
          -0.20473552682551927,
          -0.20689071135220632,
          -0.400855945702726,
          -0.26923228643931574,
          -0.0648888034926105,
          -0.4390698618813721,
          0.2037817932153626,
          0.43152814183458454,
          -0.35072527721497593,
          0.022959105222214615,
          -0.34925457182574104,
          0.016654261002980564,
          0.02376291916829415,
          -0.25285457728033256,
          0.11122636461306035,
          0.250531132109606,
          -0.4189158065707288,
          0.14589664863754026,
          -0.18052472846500078,
          0.3527717423412525,
          0.3685817096502456,
          -0.11967303868934592,
          -0.09266675072086472,
          0.09737993966065328,
          -0.07410414894597817,
          0.06756366231270239,
          0.33748535149300174,
          0.1117529176710308,
          0.4569818558609723,
          -0.04822012758274841,
          -0.38295514693081867,
          -0.27842476880956113,
          0.1364328874670978,
          0.2285348954127664,
          -0.1256028988896934,
          0.06689238350284321,
          0.07195646480681495,
          -0.4631490712234984,
          0.17423819747601033,
          0.4000683659864056,
          -0.14563495459380643,
          0.43311660845546174,
          0.10110289953611062,
          -0.13522955262866776,
          -0.040475629926154666
        ],
        [
          -0.09521458785142944,
          -0.4626694301579743,
          0.30267703988176387,
          -0.10450215321732287,
          -0.2971560504797358,
          -0.25287324523645427,
          -0.19650696807287998,
          -0.3668709944299317,
          -0.36460111290387986,
          0.4477664261401212,
          -0.06551292531889263,
          0.23486646522056054,
          -0.1706278226486233,
          -0.3984228107858507,
          -0.38629692942994726,
          0.0149634436113939,
          0.2760207814242355,
          -0.22526448793284506,
          -0.06722601228135883,
          -0.14562583263823042,
          0.24788497184591152,
          -0.14282007827391097,
          0.12202115152176796,
          0.1783823908006722,
          0.024180171317273236,
          -0.12332666680934157,
          0.0799395583699265,
          0.16750500447536243,
          -0.11738914362287789,
          0.32537847578629897,
          -0.03847682207616948,
          -0.2718249264607162,
          0.23134317889726586,
          -0.011791153832716783,
          0.3714714129639807,
          -0.1763565667534513,
          0.07741748887446809,
          0.020094205692509304,
          0.1438462449914807,
          -0.10010626171928849,
          -0.07397963012261999,
          0.3005318162955285,
          0.25312279954966754,
          0.2671350296965028,
          0.1207966294690821,
          0.21832628135648546,
          0.18151751409279404,
          0.3368307286400898,
          0.3855174438772888,
          -0.07068407405008137,
          0.004878745025677478,
          -0.034623794689930654,
          0.023459054367574506,
          0.37131803320408174,
          0.043960103682941565,
          0.08128409634051703,
          -0.12230443208384517,
          -0.231270822718185,
          -0.04121684155448929,
          0.2535173171015248,
          -0.44357184706322617,
          -0.20903535230141368,
          0.40918227140135977,
          0.2679560752018407,
          0.0133530234406532,
          0.205025494676069,
          0.0612428010916366,
          0.26121624759185025,
          0.03199870531779836,
          0.46822812916504675,
          -0.09308231282994356,
          0.05736625312143284
        ],
        [
          0.14958944514396344,
          -0.2153932289403953,
          0.41502158529043953,
          0.1417966076902708,
          -0.16130554676126874,
          0.1638354812938062,
          -0.39247572484628845,
          -0.04624778315992051,
          0.4117923098223992,
          0.2525358316393339,
          -0.007922588559092003,
          -0.4711687945888076,
          -0.17302046664294723,
          -0.23948960727236893,
          0.37362557343990177,
          0.024142893865866488,
          -0.02932198436725114,
          -0.04329125522582489,
          -0.19904079512533157,
          0.07791784137335955,
          -0.307722740151188,
          0.17353480539506716,
          0.2561995182670833,
          0.006609213582866924,
          0.11885384226204854,
          0.009257983473709486,
          -0.08707728576816076,
          -0.05282005479796248,
          0.1574514095278282,
          -0.048374179789945015,
          0.1269416582352738,
          0.42811270101827237,
          -0.11544132669548013,
          -0.022587726047972545,
          -0.15552591097889817,
          -0.4461129940080061,
          0.26126373831422955,
          0.4230530807601972,
          0.2220007599386683,
          0.1443752658049796,
          0.15870241944020114,
          -0.23665486218036144,
          -0.14712653213623522,
          0.044094725923745526,
          0.02446011265878051,
          -0.08149100527760372,
          -0.09729930235998602,
          0.06392329324173207,
          -0.22103077518089848,
          0.05226173646776022,
          0.2350202355259079,
          0.4230776209428082,
          -0.07025891330757911,
          0.04692810180539142,
          0.02903111705232786,
          -0.25922771478400664,
          0.3409880236580536,
          -0.06512014443069719,
          0.15484216812438534,
          0.08051848996337152,
          -0.17358008411404074,
          -0.20089116398833723,
          0.12947129014822112,
          0.03191447849325735,
          -0.4171484310692061,
          -0.09152953950009274,
          -0.20623865499221083,
          -0.26591095494651573,
          -0.16540202920707064,
          0.44814143695908426,
          -0.3013881696127111,
          -0.23326419415246738
        ],
        [
          -0.24514246881833343,
          -0.37196589488038,
          -0.2807208854084599,
          -0.12393062558937801,
          -0.20629161447586913,
          -0.005798066347104225,
          -0.01700035863039473,
          -0.013556620506352368,
          -0.24074027434192233,
          -0.2245528469224737,
          0.47112527640234325,
          0.3851364735447216,
          0.07191797159921731,
          0.3658898596069913,
          0.12978319884454592,
          0.2407063472169575,
          0.18752448166955626,
          0.10951423699661955,
          0.37849004590245294,
          -0.09812926567303215,
          0.040275403194121484,
          -0.1878536551664865,
          -0.13038736908029702,
          -0.010684478250041651,
          0.17975589488410915,
          0.21669735436655402,
          0.002672654961401011,
          -0.04323246440093986,
          -0.065839911899642,
          -0.1404469225158551,
          -0.09108391253660614,
          0.135583938674801,
          -0.014771152258697628,
          0.37061321400055613,
          -0.13633321783095786,
          -0.26847031377960295,
          0.2067537897796986,
          0.33086940683680055,
          0.2952180631631335,
          0.4201312698889208,
          0.17757058437444928,
          0.249125055282735,
          -0.24502959499543103,
          0.04886028595835534,
          -0.20078666925984423,
          0.19648397326031153,
          0.4194781393659781,
          0.33319212570768864,
          -0.25906163112584357,
          0.38081212979735857,
          -0.20409551367075307,
          -0.11702609783390017,
          0.09248555942198922,
          0.10665758994779917,
          -0.17032027340601552,
          -0.0920149605960956,
          0.035752632407727525,
          -0.07531008201780715,
          0.13569162013297276,
          -0.14009482544924334,
          0.2518543928537589,
          -0.20966379173780397,
          0.027487162331740422,
          -0.2179442263712496,
          -0.10702849724454633,
          0.1622495013368177,
          0.2155155299704702,
          0.11102182873930444,
          -0.0924170003438895,
          0.12098860635292152,
          -0.42936771465240964,
          -0.09991335239884774
        ],
        [
          -0.1883217929973317,
          -0.20538837934877163,
          0.20512797970983643,
          -0.2753147086389714,
          -0.07418125910251733,
          -0.22150242830336694,
          -0.09829565356299391,
          -0.3169661279005534,
          0.016555574379933047,
          0.28893891647590286,
          0.46564675505114916,
          0.013369520444611649,
          0.1895415416580406,
          0.22141375277504916,
          -0.15302728512581582,
          0.21973656356560844,
          -0.07199747252658373,
          0.4414773150940381,
          0.19637934239645016,
          -0.41705129425710585,
          -0.4160345618824807,
          -0.454249112617463,
          0.010570365948609606,
          -0.4704739647473218,
          -0.38958221577898544,
          0.0524223434781379,
          -0.07767776676960231,
          -0.35475383475571937,
          0.24333340244529167,
          -0.2394685998074682,
          0.23345018464971556,
          -0.4628965579651811,
          0.10575121963988454,
          -0.06921923932423057,
          0.4356575487650456,
          -0.030630990943038006,
          -0.07757947877841365,
          0.37032695526284565,
          0.09192859016236044,
          0.28581454326461464,
          -0.10285906048109095,
          0.3171663534285596,
          -0.14727187906561684,
          -0.16226494882030706,
          -0.453030511936765,
          -0.03520940650709192,
          -0.2869861630433218,
          0.3893573764508004,
          -0.05819803940983054,
          0.19161722236814738,
          -0.3833677496419645,
          -0.17899282545860856,
          0.3299301756513099,
          0.06289158375626502,
          -0.19387381548908011,
          -0.0601517307037675,
          0.07983500658132481,
          -0.2244233905238775,
          0.3053264347397944,
          0.2189191835481743,
          -0.28263627478280917,
          -0.03251302773470388,
          -0.06869946288758089,
          0.46238334286911553,
          -0.039134838498372015,
          -0.09056422688192961,
          0.43479611265242113,
          0.16642590920003286,
          -0.27662260547329687,
          -0.03939890953144326,
          0.40607848079327313,
          0.10159110279602557
        ],
        [
          0.28176699212885725,
          -0.1543664394807917,
          0.10998910275491725,
          -0.2854308014838326,
          -0.04945944683793119,
          -0.054308861624144,
          -0.05128784139266185,
          0.1967212417543439,
          0.16359191767715964,
          -0.14173922307734216,
          0.1676865887885005,
          0.2495935119326158,
          0.022961772019481352,
          -0.18793089244082684,
          0.039560769556984066,
          -0.14149941027974933,
          0.16692531720114556,
          -0.05611958819887242,
          0.32504904355773245,
          0.26557801506494605,
          0.2595429275101573,
          -0.02116343570749496,
          -0.24741707398971172,
          0.18534004625521783,
          -0.09872617612660817,
          -0.4617285660726951,
          -0.2076822604522497,
          0.15027978313629298,
          0.210454024101976,
          0.12664709773613492,
          0.46835270016812447,
          -0.05582067360250692,
          0.4665011071345664,
          -0.1495468827479835,
          -0.12063136148770937,
          0.1278464557951524,
          -0.10410400705788336,
          0.28244191596542634,
          0.005493210139294935,
          0.16308662992846557,
          -0.37118960189922307,
          0.04627783789807283,
          0.12348119179108752,
          -0.2267884287710826,
          -0.006403135619584777,
          -0.1469483533398081,
          0.0461463675018603,
          0.0223846904700693,
          0.29009705918804873,
          -0.09348867167799302,
          0.017449474285624877,
          -0.37823352887837186,
          0.0640285293538283,
          -0.11713306152747704,
          0.2810783291033241,
          -0.05374632439397847,
          -0.06920067760473608,
          0.36463987955442434,
          -0.1233621816509512,
          0.394434253613968,
          -0.09182159803298451,
          -0.1933941280038569,
          -0.2662543588499504,
          0.16384747346108264,
          0.030196199642839927,
          -0.39857056441027605,
          -0.19774146915973217,
          0.36450209663788224,
          -0.2351938689489268,
          -0.19869058837919074,
          -0.40677493681747295,
          0.29330001290159824
        ],
        [
          0.4256628337773135,
          0.4260395525130867,
          0.4468242071830554,
          0.12891110767657576,
          0.3163019779611902,
          0.29701586606708474,
          -0.13234809222136323,
          0.3479056505659309,
          -0.14116709570128588,
          0.09260448292943024,
          -0.0582912044941134,
          -0.132541001177917,
          0.1401643577681786,
          0.03279703161710468,
          -0.20717236618839635,
          0.4470151760137896,
          -0.2753198823612415,
          -0.25028363108971724,
          -0.1797131105272542,
          0.03736230689201103,
          0.2537145168869027,
          0.12346968448012008,
          -0.11560175676395973,
          0.1503613687961758,
          0.2234348639680117,
          -0.21637920884009543,
          -0.06094097777654284,
          0.010629846404721366,
          0.05762591942486461,
          0.44532139410941984,
          -0.4568507574126224,
          0.011654431131784826,
          0.339730554093421,
          -0.08348550647559072,
          -0.2327396662952606,
          0.09240296658419023,
          0.27955968882964277,
          0.31647985398894407,
          -0.14863141928799295,
          0.41719796454711244,
          0.446171151847066,
          0.2710719838362494,
          0.2385521998328506,
          0.4356951628426662,
          0.10785667996114423,
          -0.13977544029166183,
          -0.10321342495802732,
          -0.01402876278042725,
          0.2950873754664183,
          0.052873712566371855,
          -0.266426788711978,
          0.17754228230398694,
          0.043974032927920015,
          0.2837455908230405,
          0.4473870191896987,
          -0.267222496365967,
          0.44117691687254346,
          0.19050066680471422,
          0.14831060983461442,
          0.14005592757530805,
          0.0552415652619328,
          0.00260179206749217,
          -0.04246753612803156,
          0.2987585742068366,
          0.26243009915221926,
          0.07343472190981892,
          0.37903913051669136,
          -0.07886638757840181,
          0.15504957078775217,
          -0.1252596528296856,
          0.20408171044673173,
          0.11878249433109056
        ],
        [
          -0.31034610975599686,
          0.20633427784709935,
          -0.17972798873521123,
          -0.14176223325885162,
          0.05100778101920089,
          0.25762056514075815,
          -0.02195319237971516,
          0.010249390247844825,
          0.22058214097386086,
          0.19569999400656413,
          0.05198353992550375,
          0.41215430577664625,
          -0.05053196071141919,
          0.2386043325347028,
          -0.08764772693125567,
          0.07673310508508369,
          -0.33509862465394724,
          -0.19236382598924684,
          -0.11455314036083764,
          -0.037701958579181405,
          0.4682533930595614,
          -0.03188124689641669,
          -0.06878960680712037,
          0.1618406726139313,
          0.15139102867047427,
          0.08808144273110408,
          0.005016128698117406,
          0.4392089126002592,
          -0.46625090825953075,
          0.18870432575864904,
          -0.09030393436161865,
          -0.4645370845629374,
          0.3956367043938558,
          0.38421930778844915,
          0.07679694774865431,
          -0.007200367102399685,
          -0.004062774907455102,
          0.33333941647259424,
          0.039004955690569165,
          0.3774129512160307,
          0.45853541377921536,
          -0.3025193946971192,
          0.036965804555032844,
          0.11135943632556677,
          0.3991025256510553,
          -0.12840598498805783,
          0.2720949355398643,
          0.23227567364144375,
          0.22932984162096703,
          -0.3814818285372344,
          0.12619642103136275,
          0.2025673014330911,
          0.16819337856464467,
          0.15391017464648782,
          0.016210433294927662,
          -0.21150022582049416,
          0.23698043720019957,
          0.46729536995200305,
          0.25752236968474584,
          -0.2752033199526255,
          0.2931796697372975,
          0.26345267766696423,
          -0.23187474483170262,
          0.24416254030952955,
          -0.052343510022655526,
          0.016020054514345794,
          -0.07131801626441275,
          -0.32507994245908667,
          -0.1976245873645026,
          -0.040246118104411366,
          -0.3637697641172719,
          -0.2328345657460233
        ],
        [
          0.0492208099895346,
          -0.2002481950884793,
          0.3409552659995233,
          0.21354481073185383,
          0.4364844673866505,
          0.07356406020050155,
          0.07698788669994483,
          0.1306976789131178,
          0.0923206233124294,
          -0.10965473986106311,
          0.4619810852724259,
          0.40481824925725174,
          -0.25846350140376806,
          -0.2147544601583372,
          -0.21821447051654752,
          0.07821261031138604,
          -0.023400425609369446,
          -0.02641045329032904,
          0.07349297749802597,
          0.08287328379889447,
          -0.27451342552195745,
          0.18072831058701877,
          0.4681328807927796,
          0.01207244505238142,
          0.014701569491874733,
          0.3041518958385785,
          0.3538945020477956,
          0.11399048144625201,
          0.01991635880033893,
          -0.22724923422587057,
          -0.23687064717587816,
          -0.12907889938242856,
          -0.15896268152718018,
          -0.457082598745225,
          0.0632052855532943,
          -0.23939817272157604,
          0.46334304520198577,
          0.3521779895176701,
          0.13292166186634802,
          0.07849435966239893,
          -0.032807871893164975,
          0.19673944047996883,
          -0.4576950462613,
          0.4592018011290766,
          -0.13962996762407742,
          0.3848149800289892,
          0.4698796248510304,
          0.3405063931542788,
          0.1376678621280354,
          -0.09921317982931277,
          -0.26971090490431504,
          0.30477718064064807,
          -0.33725644076401085,
          0.3530654441944696,
          -0.029217959149410055,
          -0.19841219416552575,
          -0.13066848009248722,
          -0.04052649291143873,
          0.07367250692689675,
          0.18050558116364224,
          0.32289002816275825,
          -0.3851091990212766,
          -0.029563070349434284,
          0.29189975096857745,
          0.2406992730524954,
          0.1711055112289398,
          0.27733807770562513,
          -0.37812999517363594,
          0.05531881000944705,
          0.022252703188087863,
          -0.2634102982104807,
          0.11788712525354528
        ],
        [
          -0.19367229411952247,
          0.2517834717180166,
          -0.4618240662284324,
          -0.20866493502592176,
          0.370491975504846,
          0.2625823140468948,
          -0.3919804626064595,
          -0.11603397759957002,
          0.303300127139859,
          0.21721345114159207,
          0.10941386421944332,
          -0.20052086552801562,
          0.13668767797008463,
          0.1547033729679631,
          -0.16608777231660243,
          -0.09429429931040212,
          0.22340795004540615,
          0.027474497476981774,
          0.29383111349174573,
          0.3166063485748992,
          0.19703363563976417,
          0.42279480340225006,
          -0.0025002284012668463,
          -0.10422012853561136,
          0.16656455598407283,
          0.30491201905794774,
          -0.054409552901985736,
          0.0828666306708935,
          -0.06960999567119636,
          -0.07734007215101207,
          0.05225232198224283,
          -0.17446952241907576,
          -0.09070899094635732,
          -0.20443222782010995,
          -0.10244935825879808,
          0.15500743774119807,
          0.2873420106830803,
          -0.13596732300325404,
          -0.06421002065855208,
          -0.0033817911124662814,
          0.035389311215656916,
          -0.10261021724472735,
          -0.06587844854589131,
          0.062003730862354334,
          -0.19888212490203183,
          0.3653698020288758,
          0.38041000644429845,
          0.15867741852658446,
          0.007035943836056546,
          0.2099629766226211,
          0.023475595641180402,
          -0.21611205868928973,
          0.34914700421640066,
          0.11922094309634057,
          -0.024159543465920197,
          0.38649415139771326,
          -0.04054613583388195,
          -0.10734244824291433,
          0.23049220298149653,
          0.08278614584285149,
          0.21245220531955378,
          0.23623382176480234,
          0.1846189641444108,
          0.3409205109583522,
          -0.17688247969832588,
          -0.089051013038978,
          0.21893947709168093,
          -0.007000010037050419,
          0.434144614270744,
          -0.12813314889690924,
          0.15529282776340236,
          0.18300350184738534
        ],
        [
          -0.14893396278615573,
          0.43616511258832025,
          0.10028725701603647,
          0.19564447072746027,
          -0.04615065807227564,
          -0.342594998028981,
          0.08523724884432349,
          0.43319919375454274,
          -0.2376375679571191,
          -0.17269461656515206,
          -0.14721049694798188,
          0.20624624081091503,
          0.17261383902655014,
          0.0790444798056853,
          0.14051178151131305,
          -0.06961647905565571,
          0.12005223139026344,
          -0.23519468049258455,
          0.05477131845393579,
          -0.2967891592391789,
          0.175586568446909,
          -0.43251604272737193,
          0.25920738338937777,
          -0.15328362241218413,
          0.4579618568484576,
          0.12178859461331504,
          0.01149533522810009,
          -0.40912239924282684,
          -0.05647746971596612,
          0.09341554749324854,
          -0.03662178327713411,
          -0.2990263514181106,
          -0.07338522339247039,
          -0.09502571041997021,
          -0.05702912483120659,
          -0.3703750806246689,
          -0.34219752530296665,
          0.06904504122861699,
          0.23735351535995108,
          0.28304900002760847,
          0.4081334000854179,
          0.12270909025245791,
          0.04561187026016267,
          -0.1795903464460069,
          0.24077791520247982,
          -0.29431455372490706,
          0.3544443887813098,
          0.18549976831952486,
          0.21357743950849695,
          0.008806026270765155,
          -0.24544696806675145,
          -0.0755799895884457,
          -0.2251006000088414,
          -0.12357010805946711,
          0.12000374690879423,
          0.24979367192791124,
          0.21931764675314458,
          -0.045808694202861655,
          -0.13630282382829773,
          -0.16349981407988257,
          -0.14584159416954623,
          0.03295185280157642,
          0.4568635796033861,
          -0.12283682500757165,
          0.36021016102376724,
          -0.045454154337004504,
          -0.35919204133951205,
          -0.045709098031169126,
          0.4610319135661429,
          -0.02422138552133768,
          0.4595238909946914,
          0.35439970956859423
        ],
        [
          -0.12209408672540567,
          -0.07666791121316618,
          0.3415614791030347,
          -0.19631957033210623,
          -0.005539342609338915,
          -0.27479720791491913,
          0.36647492606159715,
          0.34155537849145,
          0.3725555269741391,
          0.115764099394571,
          -0.3753498046996543,
          -0.22201012808600137,
          0.16429184575844635,
          0.038895079003068544,
          0.37491936749617927,
          0.4108947641699424,
          0.10022505967789663,
          0.1899159953847407,
          -0.2267488425319755,
          0.4113780285295813,
          0.3028713698169675,
          0.27769053902520324,
          -0.278425491525774,
          0.16150475622098814,
          -0.28228864842004286,
          -0.08809233368724295,
          -0.4471794722618126,
          0.3267619655031343,
          -0.28585940102614926,
          -0.11249521872402501,
          0.033103710288299726,
          0.3456892317546367,
          0.3555049188424121,
          0.065336785705154,
          -0.0749547949593099,
          -0.28357176684613733,
          0.37648181318405893,
          0.46891800859079125,
          0.23771620683874362,
          0.0648917186683754,
          -0.014585604232868143,
          0.2546377598801276,
          0.4084926116130685,
          -0.039092263729406496,
          0.18615291955108526,
          0.3618301465492241,
          0.202555911744692,
          0.018353246922010458,
          0.30491107429040243,
          0.20560736002753488,
          0.18837827225699144,
          -0.41531438682364735,
          -0.3253037638540138,
          -0.35527168940424525,
          -0.11934731655293523,
          0.3787098450252656,
          -0.31465371990265134,
          0.3926124254286495,
          0.12287155084174661,
          0.40985563126159474,
          0.11317499332512226,
          0.03605274782492762,
          0.3911956995337176,
          0.2687092553653161,
          0.04292970444009647,
          0.13226384768463484,
          0.06799756530131407,
          0.12037289291159647,
          -0.4389306320337012,
          0.07920322744392172,
          0.3328344926516559,
          0.1498938937771429
        ],
        [
          0.16376301253121472,
          -0.367305788975595,
          -0.07723040584358032,
          0.13947964023869563,
          0.2937692006385443,
          0.004003717399908735,
          0.185068360270899,
          0.017437086090390685,
          0.21091111676099583,
          -0.18146755579918727,
          0.20633429477017895,
          -0.11263905895719861,
          -0.11562995079502025,
          -0.12217683143997454,
          0.039721236771537494,
          -0.05368021704907894,
          -0.020498728455504822,
          0.1542574746033588,
          0.27740540528124036,
          -0.18809828800534983,
          -0.02556549890480897,
          0.445446144140233,
          -0.14666713903401613,
          0.03255334642286023,
          -0.26827608661276814,
          -0.245767873595615,
          -0.20236754775579896,
          -0.4382271392201219,
          0.38720048636244064,
          -0.15828017366420272,
          -0.15937539108326554,
          0.3816104386570922,
          0.22744946192862125,
          -0.11928046814683929,
          -0.12411890526547137,
          -0.2831003830866937,
          0.18200740168456042,
          -0.3118390024189227,
          -0.16837408594064868,
          0.19447379954196542,
          0.3352874547396524,
          -0.33766795647663284,
          0.44262807326846854,
          0.28030148423459145,
          -0.42207000860606186,
          -0.09569048415767734,
          -0.3549290606412261,
          0.3804768510411861,
          -0.0010245913919407768,
          0.3985526310591321,
          -0.03855566208093347,
          0.25788177636520804,
          0.24996859104712965,
          -0.21280146878365352,
          0.27820397229259464,
          0.22594195944180295,
          0.23267397729885764,
          -0.23371828739237455,
          -0.19136297904438765,
          0.09698615081514106,
          0.11821717936146825,
          -0.07186900705640675,
          0.027629994814538705,
          -0.035488922841738324,
          -0.001938198339689834,
          0.26948027291324383,
          0.11859862751623806,
          0.23514977207281884,
          -0.01766732505129409,
          -0.24715300966336087,
          -0.058579040060783405,
          -0.23050749054369363
        ],
        [
          -0.2953122150616913,
          -0.47124026937134306,
          0.24308786155701734,
          0.17557157920238686,
          -0.0642396162128776,
          -0.15309660876872738,
          0.31836750871747876,
          -0.23394395347355096,
          -0.1396697461040527,
          0.45783303673119013,
          0.1546776107191038,
          -0.3398832289534486,
          0.4621558805278553,
          -0.20637468822854121,
          -0.4250908635515936,
          0.14079440840873303,
          -0.22082038427669654,
          0.2237895556901961,
          0.20201360212863007,
          -0.26904637218753563,
          -0.2495518925750261,
          0.13541997061183086,
          -0.4058231128217175,
          -0.20523549348999076,
          0.07089870851523361,
          -0.09607925365984965,
          -0.015164523765849536,
          -0.10290844298701446,
          -0.1274687454086444,
          -0.006736083125217174,
          -0.06102423699369913,
          0.1869676935859499,
          -0.4344656108782497,
          0.10626851067336418,
          0.14767431363470984,
          0.20037514340986873,
          0.14404069509073014,
          -0.2620843848875497,
          0.25256051508306754,
          -0.003408205830861877,
          0.27906268279262103,
          -0.07788879686915384,
          0.3993049664603191,
          0.11025543002251648,
          0.1954226373080189,
          -0.11462708202607391,
          -0.0006227385729402624,
          0.07702365078540507,
          -0.2308908117857467,
          -0.4652274312038621,
          0.11710531157216875,
          -0.1010811446811864,
          0.03634324778004672,
          -0.4567533235470539,
          0.37598922689658,
          -0.038734823126034046,
          -0.2865149341616211,
          0.26552534790510884,
          0.2693802215190083,
          0.28412104638336777,
          0.18688133978072063,
          0.42397575704463686,
          0.37333597282888076,
          0.25705642965961684,
          -0.20913135176271602,
          -0.18150630621463604,
          -0.22470523076821267,
          -0.27795534680039674,
          -0.15608768717606697,
          -0.2527324630095945,
          0.13569690018150615,
          -0.2408948749071223
        ],
        [
          0.09068693907080405,
          0.09337024748869505,
          0.06920240371438302,
          0.15356879932356193,
          0.44063902320802695,
          0.3397540024078033,
          0.3941342803344321,
          0.18511286968740093,
          0.13567076338476924,
          0.18995860493822492,
          -0.06752990381683333,
          -0.12537684939072563,
          -0.005595641365557402,
          -0.01704093224348363,
          0.24835121982575759,
          -0.4576084547728545,
          -0.3890434610288054,
          -0.1813370886422691,
          0.2991022019008063,
          -0.1629022603408764,
          -0.2381187142291739,
          0.3337814120740046,
          -0.17262988323208123,
          -0.0866570210316317,
          0.05214672290281375,
          0.037042570105712214,
          -0.09695070724279536,
          -0.4145752290378992,
          -0.037479025659566956,
          0.022293117542753926,
          -0.42761604324007507,
          -0.23152852373262625,
          -0.09753211132293477,
          0.44437700661858626,
          0.11103241820568333,
          -0.0760507719197876,
          0.23847479161593066,
          0.147289705629576,
          -0.3131409083207687,
          -0.07968906641130408,
          -0.3267414320092734,
          0.17737187943035215,
          -0.06437125749424338,
          -0.11726339256401253,
          0.3761564767608637,
          0.4318198176896285,
          0.004924579950275565,
          -0.026435274201468295,
          -0.25987909174096824,
          0.264082305713797,
          0.42909426239887827,
          -0.055421191501595524,
          -0.02432927415943892,
          -0.2342680439905848,
          0.13726156131563694,
          0.06057223460153638,
          -0.1633390347744877,
          -0.2370650952704053,
          0.3346754963457065,
          -0.07265580903724106,
          0.4412080798198176,
          0.1020394731927391,
          0.2947974592537159,
          -0.15877013849303778,
          0.249743331859409,
          -0.018877992826158763,
          0.05164894936925657,
          -0.2754922526101594,
          0.010790161174583757,
          0.3185774054523227,
          -0.022533788836691493,
          -0.11705908189651942
        ],
        [
          0.14082978684280556,
          0.02277343227371631,
          -0.04746945698656568,
          0.10140391290941109,
          -0.21150409503111395,
          0.0950292921320749,
          0.43010585611843544,
          -0.023647642554149306,
          -0.1725598331300781,
          -0.11466097393454955,
          0.3293620753770944,
          -0.29363437059143294,
          -0.36671404214898595,
          0.05088164609408219,
          -0.2072057747100251,
          -0.05006083516698473,
          0.0616914057757042,
          -0.168742277923914,
          -0.3192816681655455,
          0.05624191183569782,
          -0.3741090958183855,
          0.46074357870968685,
          -0.2244302266599496,
          0.2580252859186676,
          -0.06060595478809533,
          0.4346890590097484,
          -0.09453445322290516,
          0.24329000732788786,
          0.17631106592274748,
          -0.30350346995476885,
          0.2368124471083144,
          -0.14520013261088816,
          -0.12807558703215205,
          -0.06860620194749706,
          0.16078357600585813,
          -0.10831563513285958,
          -0.4185715212546883,
          -0.204194921816425,
          0.03683572261514234,
          0.2454364457139666,
          -0.08046337172575935,
          0.10674001442615377,
          -0.25645779084610665,
          -0.08656307915647765,
          0.41551509788125607,
          0.2857904417088961,
          0.2703192941921415,
          -0.0922314459022821,
          0.020008650171437437,
          0.2474469500856169,
          -0.33918196034374626,
          -0.13916973426534202,
          -0.03885216662241486,
          -0.41683366382721654,
          0.028286852935951234,
          0.029712887425489942,
          -0.08687693048867556,
          0.1938745645661818,
          -0.06831658953102604,
          0.07898887667449028,
          -0.24005365656638494,
          0.08064708623750116,
          -0.259063109872426,
          -0.4603367371839604,
          0.2602716743122384,
          0.30520642268765197,
          0.10956294723931148,
          0.19543120893577615,
          0.05210042946657767,
          -0.0717161969930829,
          0.35114647111614883,
          0.1729546008581988
        ],
        [
          0.25348071848508713,
          -0.05982259960348385,
          -0.1988175654390133,
          -0.003885188898710923,
          -0.09473413317909762,
          0.32436902091600883,
          0.39115732773643785,
          -0.38476397558450864,
          0.31720633724537517,
          -0.06105138212215511,
          0.23761497851094582,
          -0.34908008033693394,
          -0.08774896413904842,
          0.0470322165113104,
          -0.31543007539917534,
          0.10133686603072833,
          0.0776072633032765,
          -0.11146726436176096,
          0.07582479109921103,
          -0.0517617457947549,
          0.4664075857414055,
          0.02976853227206211,
          -0.3624161217310874,
          0.09929180035120155,
          -0.08465864663413736,
          -0.10608081846512629,
          0.2079127515910727,
          -0.14587439752683934,
          -0.18766815316955743,
          0.1533596933333028,
          -0.09295247588301353,
          0.2965784209914013,
          -0.06525534124329835,
          0.3486399023240694,
          0.367310033418097,
          -0.1906775052947326,
          -0.4175530955410413,
          -0.14337762159524425,
          -0.2121528026507103,
          -0.311287507042523,
          -0.13338062288370295,
          0.013807142155921548,
          0.2745489417140855,
          0.0015545456402684121,
          0.06380019544283655,
          -0.06921107391117337,
          0.3802617109761437,
          -0.19812428785212693,
          -0.026280639707059295,
          0.024891189241115996,
          -0.3367035394838943,
          0.24226846300825433,
          0.32424615923778033,
          -0.015958889051621516,
          -0.39316938855716216,
          0.1654629797679641,
          0.20030375949160184,
          0.3876414131206284,
          0.027793066707660796,
          -0.2324749020271113,
          -0.14354988873955887,
          0.32270729200969084,
          -0.1957924098191839,
          0.22242756851903756,
          0.11762959953840846,
          -0.13227592730850313,
          -0.4380326442584749,
          0.11824720831137292,
          -0.052107069615680235,
          -0.1265878443536111,
          0.2125092695732178,
          0.20480426130045915
        ],
        [
          0.19556165667175351,
          0.16382169690966852,
          0.2400071768363934,
          -0.1463219472525023,
          -0.05673120059324804,
          0.2077734255046617,
          0.45982383285896766,
          -0.026359273959088048,
          -0.2842428243254064,
          0.17042685905234312,
          0.4162017336235898,
          0.15966179658542246,
          0.11529375205929115,
          0.22014008932577822,
          -0.46901225210486885,
          0.2663286449519071,
          -0.2619816020688676,
          0.16654719310233335,
          -0.23223187164510575,
          -0.2176824887050784,
          -0.1404326926964221,
          0.20810187813698122,
          -0.05266673502459823,
          0.01830449710115567,
          0.45960978615547043,
          0.0972448720190845,
          -0.00014947028850331723,
          0.25214825331269786,
          -0.11445979639455806,
          0.11167799060949934,
          0.449717518554428,
          -0.1171597644067282,
          0.20186574415597358,
          0.26416679255693043,
          0.11759406846083276,
          0.4520534294089963,
          -0.38983640249147933,
          -0.45859238263328106,
          0.40984949908800616,
          0.28176541176960535,
          -0.2638561332104048,
          -0.058345965113469844,
          0.15761772332174862,
          0.24115022798822017,
          -0.08219003524298296,
          -0.25141936805346576,
          0.21997353337520353,
          -0.015444888786395827,
          0.4581152388771319,
          0.08350186972266405,
          -0.0006965138994250997,
          0.1633456646760405,
          0.28337547886400816,
          0.15167114755491384,
          0.19905601304686615,
          0.2801860164165352,
          -0.21128011115199768,
          0.22731175962970673,
          0.34243502751282673,
          0.1967203560718146,
          -0.039935207995202504,
          -0.1992209243256859,
          0.21728425307277266,
          -0.31824839645998293,
          0.31537043100464124,
          0.44730207328403504,
          0.29392216222646905,
          -0.37150342413593546,
          -0.004579345608373475,
          0.23523927904616493,
          0.09211943005101308,
          0.25873102214194954
        ],
        [
          0.40194475377429506,
          0.15780665558210394,
          0.08644561360094338,
          -0.15524466322292785,
          -0.23586570781279056,
          -0.04311230395559562,
          -0.08026621261960803,
          0.016317397625155383,
          -0.13253685443825286,
          -0.021772114984106694,
          0.20289181162776804,
          0.02156918350202064,
          -0.12519159392700702,
          -0.09898823355216835,
          0.4458748234059129,
          0.20465266558636963,
          0.44155647572865975,
          0.24358498728849065,
          -0.24327834138225563,
          -0.010085474844855835,
          0.39692195460301616,
          0.3717310285144302,
          -0.2714237749217263,
          -0.13469307474046704,
          -0.017201603500570706,
          -0.1534983177121672,
          0.08861907270440239,
          0.10387299764207736,
          -0.13697810025520413,
          0.07085419956242167,
          -0.033478020310744205,
          -0.33715711706276574,
          0.2954481935646206,
          0.4374231384793563,
          0.037070223011840375,
          -0.13222913521970142,
          -0.29893418748432843,
          -0.35855285911761425,
          0.25903382264405495,
          0.16045695525806902,
          -0.41781638205020855,
          -0.09777659331061528,
          0.06877495790730781,
          -0.1987821278201325,
          -0.4676174123268917,
          -0.35180029566196236,
          -0.21097123078110552,
          -0.006284601785527477,
          -0.4474994613897172,
          -0.3268174627820409,
          -0.23630505816533304,
          -0.24580740306206036,
          -0.14207027931570848,
          -0.1603422468623193,
          0.09457471422714625,
          -0.177568831259591,
          -0.13391350521774376,
          0.22636553758295452,
          0.293363248647848,
          0.2169009068204305,
          -0.20008331467032098,
          -0.047469381777483666,
          0.007740107726760648,
          -0.18475896303816913,
          -0.08120851480097696,
          0.3123559062909157,
          -0.17579392238386138,
          0.45392677169636486,
          0.07862482163101281,
          0.16969818653962299,
          0.10215085253742662,
          0.1097694075071044
        ],
        [
          0.18245128647815745,
          -0.2238962313248718,
          -0.4321544156216634,
          -0.3356664184426472,
          -0.02623131078360519,
          -0.10337562351428536,
          -0.033858813003035115,
          0.1547752576795377,
          -0.239080743135881,
          0.0498880677564848,
          0.21797313580799604,
          0.26861352614443734,
          -0.37060960335212867,
          0.27014514732776895,
          0.31912384356287515,
          0.08169825538533992,
          0.18952052381661055,
          0.14251662383616703,
          0.4164657992366624,
          0.16063715230763687,
          -0.20168199559187283,
          -0.024309923546318224,
          0.36786452294560734,
          0.3061147141151044,
          0.044553035313995015,
          0.027001735541688,
          0.2700447407371426,
          0.3011526119743493,
          -0.43697570934429897,
          -0.3332032173872982,
          -0.20935875244925523,
          -0.24708801808404654,
          0.4324332671692148,
          -0.17003290184027287,
          0.310709462647498,
          0.3580315785854231,
          -0.46900772440041444,
          -0.24121364321519548,
          0.0009524409484965579,
          0.47104762852559157,
          0.06727125149268176,
          -0.4343355768120771,
          0.32970968633342135,
          0.08478310671445244,
          0.05505093489363455,
          -0.031025300673077127,
          0.2483187935795813,
          -0.16210282050056174,
          -0.02412841843761976,
          0.14007959040223916,
          0.3012093490083061,
          0.4207376431349825,
          -0.06499407656407785,
          -0.16269614266388888,
          0.05930554605748439,
          0.10559629934997194,
          0.10785448562041211,
          -0.019652490782285037,
          0.013246526607830711,
          0.19245182185043674,
          0.40244228280200267,
          -0.28353595057089104,
          0.03101129255915369,
          -0.12335804637515935,
          0.17743350591290563,
          0.12584796933165587,
          -0.4569646099661497,
          0.15688818736368482,
          0.25421149948077437,
          -0.05307832576744903,
          -0.12404260828043318,
          0.2885811979938344
        ],
        [
          0.41672028939045946,
          -0.26010282810476915,
          -0.059638402024059234,
          -0.2792430123514128,
          0.2803618038799842,
          0.17692608228804796,
          0.25702017383716724,
          -0.25775180129231245,
          0.00026401290935984534,
          0.01566841518395401,
          0.24767993268416066,
          -0.14098206361588106,
          0.3986653197889972,
          0.11541940759810287,
          0.21836728092855906,
          0.18509234543492803,
          -0.4048488456934023,
          -0.1306280452181539,
          -0.30608275868418594,
          -0.033933962469322176,
          -0.26296292264252685,
          0.1248419802321531,
          -0.07191207113975773,
          0.19697585262426676,
          -0.3741450440788586,
          0.26419843289005673,
          0.014214494681878465,
          0.03817083074722105,
          -0.21743803670465978,
          -0.049849220145379125,
          -0.38397266536100294,
          0.07078904257760898,
          -0.1732615748716388,
          -0.2805788790111179,
          -0.3461184994314316,
          -0.1423728965126505,
          0.38502950176912065,
          0.21525391607684652,
          0.1388983297870935,
          -0.021247232665170368,
          -0.0817707162128411,
          0.17446152292212025,
          0.39664795069611525,
          -0.06661581809279427,
          0.1831695160784238,
          0.13213159819922693,
          -0.06383249869990726,
          0.4174766926130049,
          -0.3338411619971379,
          -0.465125909728193,
          0.3087710791621411,
          -0.22657091696137086,
          0.06174754769942814,
          0.22266749629590998,
          -0.3381066819118507,
          -0.2646670090342004,
          0.18721831880753148,
          0.08493350087536744,
          0.24689473796900885,
          -0.363828675431673,
          -0.11895542440330942,
          0.09577247287816526,
          -0.22826224825745037,
          0.021267873293642936,
          0.07907615826887893,
          -0.07792201546101418,
          0.17377028647855042,
          -0.3641290584502014,
          -0.18707675549371638,
          0.23607177150310177,
          0.10494489041004385,
          0.2533491471138941
        ],
        [
          -0.20720245454193043,
          -0.00942512160534481,
          0.2358237543543643,
          -0.010525918262402179,
          0.3633890977049048,
          0.017000844702005635,
          0.12706651070859876,
          -0.14037400472858508,
          -0.11799977747458174,
          -0.36160576134812095,
          0.1798749647917991,
          -0.346061778687307,
          0.3910192244099012,
          -0.07755667947698258,
          -0.19269386576695302,
          -0.18767137210299029,
          0.4556723173106735,
          -0.12144050878521467,
          0.2201246670132726,
          0.19093237005609476,
          0.05474527565486842,
          0.2297639350435161,
          0.04503074851409994,
          -0.11995809377346078,
          0.4264562347082771,
          0.00168974371077385,
          0.3695414387791083,
          0.07208889969138321,
          -0.1834573169744778,
          0.06212916546481184,
          0.16592829990042723,
          -0.01940038707601205,
          0.12244535887611507,
          -0.21062284997460362,
          -0.06958619935572058,
          0.22331284776970672,
          -0.44902511962214375,
          0.1478120361337928,
          0.04564608138536064,
          0.12791142830786095,
          0.0700710503773071,
          -0.05460981970757883,
          0.425173444314769,
          0.25480106410029313,
          -0.29240130836996747,
          -0.3574120775425298,
          0.0153513388245608,
          0.31160782590802394,
          0.2646644577512177,
          -0.12259429675694544,
          -0.08314064744868682,
          -0.005908843947970088,
          0.05983850918971134,
          0.13507070236827856,
          -0.22274680098881003,
          -0.13885417674584283,
          -0.1826452213587738,
          -0.441624143704631,
          -0.0526361381959054,
          -0.282955813288378,
          -0.19275566471749234,
          -0.03630926607425633,
          -0.09138666281529861,
          -0.191544175561208,
          -0.3485235751914194,
          -0.14993809241263328,
          -0.34004740039505665,
          0.46284127121168617,
          -0.05497858275135298,
          0.059043612652164734,
          -0.2765383638614569,
          0.4289799872369835
        ],
        [
          -0.07394273794304446,
          0.19632101168347083,
          -0.23584868804948333,
          0.0722417505236227,
          0.1831149596452072,
          -0.07224365865888127,
          0.29456681741401225,
          0.0005325128517750244,
          0.06559873143581418,
          -0.3787064160685154,
          0.004034234901729605,
          0.10586515926323103,
          0.21012775623541846,
          -0.12844990764501107,
          0.16393536092097882,
          0.09592552318245062,
          0.08578020087596283,
          0.4610708957464579,
          0.2896636962860387,
          0.00906865027542958,
          -0.35226882375454777,
          -0.13915758180173837,
          -0.06238325118205873,
          -0.06063202186556682,
          -0.04083540988172629,
          -0.0005095149137064325,
          -0.14345919648500333,
          0.07338998330681779,
          0.0013898283230238118,
          -0.4238413866934049,
          -0.09777865553692028,
          -0.17486876041546695,
          0.28655221651386487,
