{
  "format_version": 2,
  "architecture": [
    {
      "type": "dense",
      "input_size": 17,
      "output_size": 15,
      "activation": "swish"
    },
    {
      "type": "dense",
      "input_size": 15,
      "output_size": 8,
      "activation": "swish"
    },
    {
      "type": "dense",
      "input_size": 8,
      "output_size": 2,
      "activation": "asinh"
    }
  ],
  "weights": {
    "layer_0": {
      "w": [
        [
          0.40822945309784053,
          0.40950876341642806,
          -0.404432503880983,
          -0.4267934450169455,
          0.18879932122859677,
          -0.28230545860900846,
          -0.5824692148703385,
          -0.6188751909486869,
          0.8230951299468734,
          -0.8109141349991971,
          0.01590065184832401,
          0.37697487114647377,
          -0.3891391954521373,
          -0.123134406830399,
          0.523026398966397,
          0.1443510538235806,
          -0.3112279454109075
        ],
        [
          0.5223450094357172,
          -0.39662156194332376,
          -0.498541652143598,
          0.006024728013814928,
          0.548334757902615,
          0.8364670954639115,
          0.24383747237650466,
          -0.33403618312954897,
          -0.04505520356494075,
          -0.3952502984827532,
          0.6312574210006046,
          -0.09899299884921497,
          -0.6084726370029793,
          0.14435358723582215,
          -0.6196388158854983,
          0.34832988713499513,
          0.30772436092148325
        ],
        [
          -0.11136034862678201,
          0.616705401662955,
          0.5839170701781695,
          -0.4873433596768055,
          -0.7960802261290535,
          0.2572363298549063,
          -0.06790111116984732,
          0.20890781859453633,
          -0.8378862862622098,
          -0.6964246341802494,
          -0.24236965443497105,
          0.8437864117979001,
          -0.5807451865482883,
          -0.1762198885813886,
          0.7350237420407673,
          -0.03279281082001384,
          0.6332301123719295
        ],
        [
          -0.654175599363272,
          -0.3045454880912286,
          -0.4546280177251803,
          -0.14196757286937556,
          0.601229663848482,
          -0.15004808715840512,
          0.4579207125192337,
          -0.38973572606481727,
          0.5451934112620795,
          0.8268322813286613,
          0.8101620875316853,
          -0.8042883710103557,
          0.16645135753607088,
          0.7836529406777306,
          0.6901107720783362,
          -0.7002999194586486,
          -0.28171213038863874
        ],
        [
          0.3448500672049033,
          0.7300728782977337,
          0.19535817559508795,
          -0.6119494704703131,
          0.6334471807307378,
          0.16297069668445952,
          0.45648178499267456,
          0.4099462752871048,
          0.8325264392680802,
          0.40209107639918384,
          0.4044377674530599,
          -0.21091900715941403,
          0.45788055672086836,
          0.36142963327839484,
          -0.3606764878476899,
          -0.8626377055765848,
          0.41750256352658965
        ],
        [
          0.35905053373703444,
          0.19143668293266836,
          -0.3460880995630822,
          -0.2367964690715979,
          0.37625260097239877,
          -0.6905426263941592,
          0.8062918142109086,
          -0.20373582673581692,
          0.42827178839512525,
          0.6990574563085112,
          0.3614021230417477,
          -0.3272127222994432,
          0.6603976494201127,
          0.3936887714748636,
          -0.44883475006395157,
          0.8357706816552171,
          0.749570525373713
        ],
        [
          0.30772650526193446,
          -0.3871067540949548,
          -0.5837598010682801,
          0.10140900154173071,
          0.6114300811803834,
          0.7782151045682406,
          -0.02259167413848262,
          -0.10342335191003782,
          0.6792893645438114,
          0.7499194403547247,
          0.3805988551161934,
          -0.5134781995647381,
          -0.2572641961514096,
          -0.3753618351503983,
          -0.4887269729786485,
          0.39851379905296724,
          0.5649983854440406
        ],
        [
          0.04024098749787308,
          -0.5168192158340656,
          -0.3067155299418488,
          0.7732562275481769,
          0.10619515203642083,
          -0.1137664299527944,
          -0.24978393015187428,
          -0.27928291033276686,
          -0.2031157063288751,
          0.8343455610487014,
          0.02504897863271416,
          0.7400433587206625,
          -0.3292361011730246,
          -0.5742891650815656,
          0.7109064524355511,
          -0.25613336234837814,
          -0.7886903063068852
        ],
        [
          0.49611384687121096,
          0.55165066301058,
          0.16903119905804398,
          -0.7900955924001544,
          -0.19034716948212838,
          0.20339735285531524,
          -0.7709883848612629,
          -0.44056122683895016,
          -0.407577305320219,
          -0.7510426635598175,
          0.6152605681133072,
          0.6361066741386632,
          0.6122530379387081,
          0.12310279740698482,
          0.025383936896382187,
          0.08305653239395938,
          -0.1536118086386955
        ],
        [
          0.13685267974656345,
          0.33999059885701977,
          0.6692462906225047,
          0.16969431008872538,
          -0.07829223552593978,
          0.4194440936734942,
          0.7783746753887848,
          0.7750209380491118,
          0.5631018626538873,
          -0.4010812593616591,
          0.39668794010484976,
          0.38080132304624303,
          -0.26034209418253196,
          -0.5912658660398209,
          0.11571657004121272,
          0.445281621968068,
          0.16813955010417847
        ],
        [
          0.7477329616072073,
          0.17579271387341033,
          0.2931135686516315,
          0.5743065895130754,
          0.25579547620641785,
          -0.14117979755034082,
          -0.020932979651617,
          0.5201231691437098,
          0.26732500871000986,
          0.3419178203514581,
          0.7323666543534559,
          0.5708482375192427,
          -0.1863968630275178,
          -0.2500281578119209,
          0.19771728649075593,
          0.8445193399435242,
          -0.6565022926197033
        ],
        [
          -0.7462767545894065,
          -0.8157301668271331,
          0.8519518029704032,
          0.3817413348532537,
          -0.6564031488220214,
          0.01897429899244052,
          -0.5880216856045672,
          -0.8301525746960591,
          -0.5541986181881569,
          -0.0066306083697713625,
          -0.7062505705875082,
          -0.08707315830360696,
          0.0060564958909372635,
          -0.4182189207147899,
          0.6064077871449032,
          0.8583999311583286,
          -0.1095818886022738
        ],
        [
          -0.7801996905355301,
          -0.7243963112176605,
          -0.5216721971884444,
          -0.7695589078676242,
          0.5042671582449265,
          -0.07290508183065059,
          -0.16066788990230785,
          0.450925569791768,
          -0.13912551933645234,
          0.672402386899539,
          -0.14611699079209384,
          0.44512959784429507,
          0.8156977970050479,
          0.5016446961687888,
          0.7136209522060926,
          0.22453976780429352,
          -0.15962857138699338
        ],
        [
          0.4864223714201803,
          -0.7245295689951459,
          0.8150460420886094,
          0.44428927670410046,
          -0.32911959658511203,
          -0.3175348960163481,
          0.06471550049623187,
          0.15039195687945628,
          -0.33272016878680255,
          -0.7632361848292033,
          0.8290006708736306,
          0.10334167225705315,
          0.685368491957999,
          -0.253707912240248,
          -0.8610305821770683,
          0.5179182000867748,
          0.3486031407556951
        ],
        [
          -0.1179008988685295,
          0.1894373072133697,
          -0.06266521253601343,
          0.4144442229693237,
          0.7666984110244508,
          -0.784914158674191,
          0.8326803517406478,
          -0.2220499006642621,
          -0.1931354709771156,
          -0.5842952121504534,
          -0.29376912376988573,
          0.17969771296362502,
          -0.24617753772963624,
          0.33853969647977356,
          0.630117750477508,
          0.5379675548196363,
          0.2782379324785522
        ]
      ],
      "b": [
        -0.3503812717504752,
        0.41271198751720606,
        -0.11871501409135266,
        0.31930707379422185,
        0.5770130506811089,
        0.4314794560952864,
        -0.784633730436706,
        0.5658490631633877,
        0.8209844661373682,
        0.007493205979667628,
        -0.060428589643139796,
        -0.20973894422944683,
        -0.2649592074431425,
        -0.10526265830709658,
        0.6653489143951854
      ]
    },
    "layer_1": {
      "w": [
        [
          -0.5561510215030494,
          -0.0030024997011210974,
          -0.4731273917355404,
          0.9325081272685161,
          0.4226659715168384,
          0.7498454147298863,
          1.0034184498257464,
          0.0383412054864114,
          -0.14770561154823214,
          -0.04392504202494063,
          -0.1348660137115415,
          -0.8657355929683307,
          -0.4803729064342881,
          0.9514038844186457,
          -0.09475581491904883
        ],
        [
          -0.16961791148441163,
          0.407125442662744,
          -0.39422569355207915,
          -0.2099103602958179,
          0.9317045681858751,
          -0.15287163048045294,
          0.32648857634181927,
          0.9153147191787716,
          0.7608423952475671,
          0.18871745050700905,
          -0.5133254674692129,
          0.6501415454456327,
          0.13714555944470064,
          0.9637360469093643,
          -0.6576054931179838
        ],
        [
          0.5016650118997046,
          -0.16350002949846565,
          0.11510758937746046,
          -0.24133620728761762,
          -0.4579199379933837,
          -0.2973561799676602,
          -0.8678074479455528,
          -0.008720302930333768,
          0.6155720630288277,
          -0.43166034648164797,
          0.6982679031114378,
          -0.1361353700997039,
          0.3298409060588523,
          0.3234756295545942,
          0.5599893910285958
        ],
        [
          0.8902647372521624,
          -0.700367954868794,
          -0.43669087979094245,
          -0.6132836376988345,
          -0.6029626473445611,
          -0.8526218755843368,
          -0.9282900382909586,
          -0.8375272982710451,
          -0.04299275877141384,
          -0.6689083427520475,
          -0.14059465317239261,
          -0.9962193641229472,
          0.532392558337929,
          0.24721539912393875,
          -0.9568486277353562
        ],
        [
          -0.7772728366207802,
          -0.444982119734207,
          -0.45264272256391214,
          0.6121057095170874,
          -0.12521648823278442,
          0.17838230543506728,
          -0.5474943830447123,
          0.10816391719765694,
          0.5034028599099161,
          0.011217967023102515,
          -0.7856574359301913,
          0.0973425361111635,
          0.9299146279541104,
          -0.01376583335490067,
          -0.07556176359260225
        ],
        [
          -0.8771118889727992,
          -0.8381962044268216,
          -0.8424225008556447,
          0.34596415076914355,
          -0.1818437847584473,
          -0.4807651650091679,
          0.44065449279680724,
          -0.4635943553285333,
          0.6231874067708199,
          1.0106712056602372,
          -0.5654651012237073,
          0.9383039228894292,
          -0.46070039343444924,
          0.359354763489361,
          0.5601489516513714
        ],
        [
          -0.2651140821649417,
          -0.36082483947465116,
          -0.24112725200734808,
          -0.08674663812919636,
          0.9616971364073617,
          -0.7509732571293328,
          -0.906157454112792,
          -0.013129472723349522,
          -0.9028337132116458,
          0.09381619684098097,
          -0.027455016301131674,
          -0.756355342359865,
          -0.6598463526141389,
          0.7682861488542085,
          0.1723854276592609
        ],
        [
          0.09513184514081963,
          -0.8422095546748742,
          -0.17752868334593308,
          -0.8058519079385456,
          0.34813365245926975,
          0.3865289875145248,
          0.7738042293898169,
          -0.048562137234753666,
          0.8328924012142587,
          -0.8943026352873973,
          -0.5542666272597441,
          -0.06526637620746789,
          -0.784700737564817,
          0.14283870801544518,
          0.3500670551224965
        ]
      ],
      "b": [
        -0.32383445739927386,
        -0.4348320181136307,
        0.10596586728118385,
        -0.6278842055340539,
        0.9712515094917864,
        -0.45053455562875877,
        -0.8267970302668579,
        -0.6093921680214913
      ]
    },
    "layer_2": {
      "w": [
        [
          -0.09323758816305316,
          0.6788550545418071,
          -1.107143449694362,
          0.9658997507542391,
          -0.08382859111483532,
          0.665537435949934,
          -1.3819580295410685,
          0.5453013467770087
        ],
        [
          0.8722392950691344,
          0.2842465773418177,
          -0.3536803056807529,
          1.2602969985308685,
          0.9172321285982497,
          0.6548032892217246,
          1.4422862597271489,
          -0.6472948255455442
        ]
      ],
      "b": [
        -0.042681848363101516,
        -0.23740838733608038
      ]
    }
  },
  "input_mask": [
    0,
    2,
    3,
    5,
    6,
    7,
    11,
    12,
    18,
    19,
    27,
    28,
    29,
    30,
    32,
    33,
    34
  ],
  "ablated_input": null,
  "ablated_value": 0.0,
  "output_param": "atan2_signed",
  "scaled_pi_n": 1.0,
  "delta_max": 0.35,
  "normalization": [
    {
      "transform": "none",
      "scale": 0.8655390346546353,
      "center": 0.9204641308303162
    },
    {
      "transform": "asinh",
      "scale": 0.8175600848274288,
      "center": 0.8867681772014051
    },
    {
      "transform": "asinh",
      "scale": 462.6300273768903,
      "center": -333.1697854608212
    },
    {
      "transform": "none",
      "scale": 5413222.0902614985,
      "center": -508770.60939412704
    },
    {
      "transform": "none",
      "scale": 1157.3507227945558,
      "center": 4549.679429911598
    },
    {
      "transform": "asinh",
      "scale": 10.358129862795693,
      "center": 12.17320223341297
    },
    {
      "transform": "asinh",
      "scale": 0.33924629426269115,
      "center": 0.40005844701414567
    },
    {
      "transform": "none",
      "scale": 0.42411593596120784,
      "center": 0.42858041580763234
    },
    {
      "transform": "asinh",
      "scale": 33.09832239288295,
      "center": 82.65759631477488
    },
    {
      "transform": "asinh",
      "scale": 0.0911362193061205,
      "center": -0.04718278665783951
    },
    {
      "transform": "asinh",
      "scale": 0.2151370816795333,
      "center": 0.29274513397808116
    },
    {
      "transform": "asinh",
      "scale": 9.832939972853932,
      "center": 11.55598244317186
    },
    {
      "transform": "asinh",
      "scale": 3.256400734674897,
      "center": 3.827025266270693
    },
    {
      "transform": "asinh",
      "scale": 5107742.117847206,
      "center": -3590633.2113008387
    },
    {
      "transform": "asinh",
      "scale": 10217099.16686349,
      "center": -6706141.091617538
    },
    {
      "transform": "none",
      "scale": 0.5,
      "center": 0.5
    },
    {
      "transform": "none",
      "scale": 1e-6,
      "center": 0.4262529995153208
    },
    {
      "transform": "asinh",
      "scale": 594.4827404994671,
      "center": 716.3429422450554
    },
    {
      "transform": "asinh",
      "scale": 412.89140647256187,
      "center": -302.7939124482325
    },
    {
      "transform": "asinh",
      "scale": 154.12675819494976,
      "center": -169.7611160606572
    },
    {
      "transform": "none",
      "scale": 1.5707963267948966,
      "center": 1.5707963267948966
    },
    {
      "transform": "none",
      "scale": 0.1,
      "center": 0.0
    },
    {
      "transform": "none",
      "scale": 3.141592653589793,
      "center": 0.0
    },
    {
      "transform": "tanh",
      "scale": 30.0,
      "center": 0.0
    },
    {
      "transform": "tanh",
      "scale": 100.0,
      "center": 0.0
    },
    {
      "transform": "none",
      "scale": 1.0,
      "center": 0.0
    },
    {
      "transform": "none",
      "scale": 1.0,
      "center": 0.0
    },
    {
      "transform": "none",
      "scale": 1.0,
      "center": 0.0
    },
    {
      "transform": "none",
      "scale": 1.0,
      "center": 0.0
    },
    {
      "transform": "none",
      "scale": 1.0,
      "center": 0.0
    },
    {
      "transform": "none",
      "scale": 1.0,
      "center": 0.0
    },
    {
      "transform": "asinh",
      "scale": 17774.23743300369,
      "center": 20521.130577512882
    },
    {
      "transform": "asinh",
      "scale": 500.0,
      "center": 500.0
    },
    {
      "transform": "none",
      "scale": 60.0,
      "center": 60.0
    },
    {
      "transform": "none",
      "scale": 100.0,
      "center": 0.0
    }
  ]
}