{
  "format_version": 2,
  "architecture": [
    {
      "type": "dense",
      "input_size": 17,
      "output_size": 14,
      "activation": "swish"
    },
    {
      "type": "transformer",
      "d_model": 14,
      "n_heads": 2,
      "d_ffn": 28,
      "n_seq": 32
    },
    {
      "type": "dense",
      "input_size": 14,
      "output_size": 2,
      "activation": "asinh"
    }
  ],
  "weights": {
    "layer_0": {
      "w": [
        [
          0.698399946282272,
          -0.47916715764815776,
          -0.5141344340105355,
          0.6303872754141905,
          0.2882539082488059,
          -0.05739082708264731,
          0.5898780711291914,
          0.10074580625211393,
          0.5003489659678241,
          0.6373847973624952,
          -0.44487642520668674,
          0.2163702039589962,
          0.01127609582272604,
          -0.49691323016077804,
          0.6259516290218857,
          0.31728084005905177,
          -0.3577675606790369
        ],
        [
          -0.6535848454701949,
          0.6877258624746264,
          0.03127631965394195,
          0.8477071303232225,
          0.14994984466340144,
          0.015792495291668818,
          0.8454325451020163,
          -0.14437732010651372,
          -0.5247928368105652,
          -0.5142682753006464,
          0.8479198962869662,
          -0.7494394447306105,
          0.6748382999572954,
          -0.4122450058077543,
          0.039646215759428505,
          0.4796936715483183,
          -0.4773296688330413
        ],
        [
          0.6911987872851925,
          -0.8265582710199222,
          -0.5305330062758362,
          -0.08184545659207632,
          0.3246483966181769,
          -0.11456454322203047,
          -0.3093206710546098,
          -0.5627642393800651,
          -0.4531417717673271,
          0.04267264830048478,
          0.5540512440393243,
          -0.26886986590195416,
          0.44801937626847954,
          -0.8270250018290242,
          -0.34669211917906384,
          0.29321370525848744,
          0.3522416773180187
        ],
        [
          0.6824749010695085,
          0.049652621648384354,
          0.41602824190600984,
          0.5134315759376867,
          -0.21247940578469526,
          0.31228729469815175,
          -0.5814725462123251,
          -0.43890434525706556,
          0.27402717595541237,
          0.4474830248824021,
          -0.12232543618701408,
          0.6421796710689979,
          0.04735320413568278,
          0.6740315908668649,
          -0.7435328064995562,
          0.29178250914893467,
          -0.5771566999869461
        ],
        [
          -0.37462372399779664,
          -0.5901593715012937,
          -0.469427847117578,
          -0.61774247715862,
          0.43977664746248746,
          -0.22030965023095928,
          0.2949497703365974,
          -0.03724149637913421,
          0.7580563712408547,
          0.8548015907825682,
          0.4189439807900034,
          -0.25726953063585445,
          -0.357075839297067,
          -0.6229550610965378,
          -0.10762181203443721,
          0.22329131699423,
          0.8650876539284654
        ],
        [
          0.6352534652261844,
          -0.38360034742544313,
          0.4887707722473277,
          -0.18382927302929286,
          -0.5669233499503725,
          -0.2583782128508132,
          0.11222158943745209,
          -0.43980815175641996,
          0.5337734229885377,
          -0.25682943154505944,
          0.841627889366673,
          -0.15430057224572913,
          -0.401651930052424,
          -0.5687371136668649,
          0.7296578366348349,
          -0.12835826521406646,
          0.1973293727017903
        ],
        [
          0.4777849097482355,
          0.12004318753551957,
          -0.11697884242437173,
          0.10990682429441978,
          0.8313127078231045,
          -0.5884790575440746,
          0.052613448388423745,
          0.09358081536647156,
          -0.708486863450589,
          0.042464984477902146,
          0.08780753170442024,
          -0.5251795572658516,
          0.273193214898544,
          -0.3025334824800968,
          -0.5013622349473015,
          -0.517035894816933,
          0.1641780671267562
        ],
        [
          -0.03921686904771948,
          -0.03081388741149438,
          0.19443637462153462,
          0.796219847993544,
          0.7520965499108335,
          -0.3806877113365478,
          -0.4214439442543244,
          -0.6669077459274225,
          -0.0692970595850606,
          -0.200851530527431,
          -0.6821878502826035,
          0.41878114709592873,
          -0.8700680168323561,
          -0.7236353007310534,
          -0.1735990621875474,
          0.5385697877068255,
          0.6993323813378293
        ],
        [
          -0.3128918375453944,
          0.49528471621299397,
          -0.02623528269569897,
          -0.1811731965922979,
          0.2404686347035011,
          0.15833020401704212,
          -0.36826074300143496,
          -0.7331735942713424,
          -0.16667327625943396,
          -0.25473961381987187,
          0.7033269439872648,
          0.5016325329148718,
          -0.2877860146127682,
          0.14846461529896204,
          0.46117768279621274,
          -0.5759414062541661,
          0.5914134946727344
        ],
        [
          0.5529749854130478,
          -0.23423433404007132,
          -0.4662126677881012,
          -0.7445853039478594,
          -0.7549079402165187,
          -0.4115501159562002,
          0.14400740660318212,
          -0.02639070373108776,
          -0.45045379455527906,
          0.46302471175735616,
          0.6870133669238282,
          0.8217261515492215,
          -0.254361723184362,
          0.31049630968179154,
          -0.7215546489424861,
          -0.8714897519358453,
          -0.8017354443090723
        ],
        [
          0.2950379568361575,
          -0.20754475860253896,
          -0.23443374924885363,
          0.6390286467061034,
          -0.5721041580466713,
          -0.4779386546380846,
          -0.18641523475604915,
          0.5447354391780034,
          -0.011451077982181812,
          -0.8645515983887145,
          0.39358385038665344,
          0.6786342734923444,
          -0.4009590893458916,
          -0.8304375884938243,
          0.7959749199441556,
          -0.659697440492334,
          0.26208774101649246
        ],
        [
          -0.4284657899480719,
          0.267246616478534,
          0.6953477964513893,
          0.7045867335872772,
          -0.8094730312686467,
          -0.8466264400636211,
          0.18670106030815192,
          -0.7943248543575273,
          0.5924269879905236,
          -0.5470645074576278,
          -0.5270013200560231,
          0.33937119477154487,
          0.3065388166723372,
          -0.7535141888231179,
          -0.28496799932008854,
          -0.3260629650724014,
          0.7516883178884449
        ],
        [
          -0.5203316526272922,
          0.834057340866737,
          -0.5361069465602939,
          -0.30689738832448643,
          0.0035738483787064457,
          -0.2726916563563765,
          -0.7745328856979338,
          -0.406948185376984,
          0.5881832306355174,
          -0.06782617343214592,
          0.8767022172275384,
          0.38472438000799125,
          0.34098517351098045,
          -0.44007447111371484,
          0.4219721890351994,
          -0.2130435827706526,
          0.055257686309048926
        ],
        [
          -0.6532953135132906,
          0.42327521996606465,
          -0.7101329023960044,
          0.5415792245098418,
          0.7893655261974196,
          -0.47758107111068804,
          0.37628985911402635,
          -0.4477221351739277,
          -0.07667905357402982,
          -0.674514970285848,
          0.1571247438906852,
          -0.4902929437112767,
          0.03377891555943291,
          -0.3267824471191906,
          -0.7197576433234938,
          -0.575659113492798,
          -0.8029693105621889
        ]
      ],
      "b": [
        0.8166203205865087,
        -0.7966390302515848,
        0.6452760786401398,
        0.66492424756758,
        -0.7108769040119568,
        -0.184007737967675,
        0.6216227103669555,
        -0.6853768001974192,
        -0.3760900108037314,
        -0.489517727394917,
        0.7278619606499729,
        0.7761635936621966,
        -0.8759003189736883,
        -0.18826522386875078
      ]
    },
    "layer_1": {
      "w_q": [
        [
          0.16276617489043765,
          0.06525314823390127,
          0.3573587095285182,
          0.8935633478941571,
          0.5630517769591254,
          -0.6551664141560937,
          -0.523217475931455,
          -0.04509666261224066,
          -0.9208160622241361,
          0.900077162301069,
          0.7356758788720841,
          -0.5836677556794417,
          -0.6451102777718538,
          0.03696376863486339
        ],
        [
          -0.5284289533675897,
          -0.3577601323677806,
          0.8867806529515292,
          -0.5288039044922916,
          -0.3214308090518462,
          0.1832490185935287,
          0.273691388198098,
          0.06603366597789817,
          -0.25109685734479636,
          -0.3642578781711987,
          -0.5805985254423347,
          -0.6102881552126875,
          -0.05732723452619115,
          0.2838744097094541
        ],
        [
          0.1780804095411992,
          0.6866527282676325,
          -0.5418701106618575,
          -0.5406215191498094,
          0.23320871541378851,
          0.5391272772279692,
          0.5725466926689495,
          0.28781522731605014,
          0.014027685875612872,
          0.8598559329187196,
          0.2353199062648934,
          -0.0013139602129311756,
          -0.4562850781070718,
          -0.13594151747010086
        ],
        [
          0.13988149069445033,
          -0.4372813530660157,
          0.6298637511026695,
          -0.06811566202537633,
          -0.8725460023735281,
          0.42249406362753295,
          -0.6995783500579379,
          0.5109628950721612,
          -0.6809052080390339,
          0.3036520197012069,
          0.8279045359235575,
          0.10901129128732245,
          0.9111442165543917,
          -0.5501756068793631
        ],
        [
          0.5476582352298074,
          -0.6828256667964758,
          -0.20170752435973982,
          0.23396562882182215,
          0.5424454110236261,
          0.35904261754783273,
          -0.7666706490321722,
          -0.6992319459133246,
          -0.5201337675565533,
          -0.3247214490366902,
          -0.8891613159621509,
          -0.8528144809272957,
          -0.4368150071724465,
          -0.6417748290705938
        ],
        [
          0.7563581447851944,
          0.6832546626546858,
          0.49685308450163057,
          0.8261966485657783,
          -0.36111202631494954,
          0.6806384769936265,
          -0.4233052799239626,
          -0.6935694390313778,
          0.8027908991317125,
          -0.49458882068317506,
          0.8970254973036713,
          0.8879650373091952,
          0.06568861573107843,
          0.9248410515691212
        ],
        [
          0.4047870700518599,
          -0.6904915828275925,
          0.4173311551818266,
          0.095722633892658,
          -0.3043739674850804,
          -0.13683900575152785,
          0.3062676682822263,
          -0.8503213023327396,
          -0.32570142640373867,
          0.19753677191247365,
          -0.553226714375584,
          -0.5364919067688912,
          -0.43309008886272904,
          -0.8487950651230618
        ],
        [
          0.8315386305386436,
          0.37920069738121054,
          0.8619123733505307,
          0.3230868157581497,
          0.6442289410501516,
          -0.1557047938028755,
          0.37975284775736085,
          -0.8037343054563105,
          0.4281818761162728,
          -0.09755714441761332,
          -0.5288431804289824,
          -0.24668102560752514,
          -0.6322379846842987,
          0.5203995887559958
        ],
        [
          0.5681526221709137,
          -0.40851582517864504,
          -0.39017962630135417,
          0.10356174633977844,
          0.6214443961402651,
          0.5279259953620121,
          0.6212136739272176,
          0.22375099696802803,
          -0.47566741873662916,
          0.7651251119751734,
          0.5900456100903493,
          0.5279132220346643,
          0.8042708155225808,
          -0.431174515684979
        ],
        [
          0.16230131246880308,
          -0.6717128045706668,
          0.753325209427993,
          0.9004978955565004,
          0.39532254944779743,
          0.35555406420016156,
          -0.5507350869342638,
          -0.34726034211062673,
          -0.6282711685767395,
          0.3988875580608018,
          0.5153195631712362,
          -0.7771630135097991,
          -0.5302547527754433,
          0.0840649454541027
        ],
        [
          -0.09250411339442555,
          -0.2521373650122465,
          -0.5261086647526216,
          -0.5348024708152463,
          -0.7843982042970231,
          -0.8392656718329484,
          0.4424879565258282,
          0.2747929603856314,
          -0.4497484606616383,
          -0.5842623083972844,
          0.2603407083985685,
          -0.5309520690439848,
          -0.6432198088103986,
          -0.8156771829272953
        ],
        [
          0.25596891916884634,
          -0.9173228207647193,
          0.41928219372467,
          0.21084587683111278,
          0.1063884121918619,
          -0.04266083567357293,
          0.20020032027836354,
          0.9064011138285104,
          -0.8238278196445129,
          -0.7835830288706553,
          0.5123126085921483,
          0.19058825018800718,
          -0.19677141954059751,
          -0.9231466968909314
        ],
        [
          0.2563639308451744,
          -0.8533592111889375,
          -0.17091352620332778,
          0.023412733062851854,
          0.005328941336101067,
          0.15424972773876333,
          0.8075872731336124,
          0.8910909951728585,
          0.9105647969755806,
          -0.028184711629680392,
          0.8159875660987497,
          -0.24892495433789463,
          -0.0685769981006692,
          -0.5439066767518415
        ],
        [
          -0.16845400604964023,
          -0.4732499085458251,
          0.7025243075473444,
          0.04328467254945789,
          -0.48869717002955715,
          -0.4140953537027732,
          0.19344410687220748,
          0.014350322356719514,
          -0.23923166279276242,
          -0.3488640901272706,
          -0.9117339164485591,
          0.037189167253106614,
          0.5116077186959254,
          -0.4862976474594432
        ]
      ],
      "b_q": [
        -0.18288741219069132,
        -0.022415490486545758,
        0.17290937044103172,
        0.08452355245052995,
        -0.19487106727442158,
        0.1134280042451995,
        -0.03310622087234569,
        -0.15862841820237286,
        -0.11990288763980175,
        -0.1173726806138123,
        0.1960085916118952,
        -0.13847537238906865,
        0.1122607245870878,
        0.05569688572446713
      ],
      "w_k": [
        [
          0.5451213267503614,
          -0.6555386705034112,
          0.8925429595203445,
          -0.26375314921096116,
          -0.32547790714473923,
          0.8788623015057679,
          0.6283756129463136,
          0.3884234575634915,
          -0.17514775994719156,
          -0.3393424900143974,
          -0.8858319466346899,
          0.8421656384350629,
          0.48795021205028566,
          -0.8953688678872592
        ],
        [
          -0.35798652637640505,
          -0.6392189201117452,
          0.270717261459811,
          -0.7985882318650179,
          -0.16523526297289892,
          -0.3533790955178151,
          -0.6706614252724452,
          0.5452821189081243,
          0.7007528874291056,
          -0.9025841512832803,
          -0.5922556126913133,
          0.244345451554284,
          -0.3746515999519915,
          0.4607539130363949
        ],
        [
          0.4936852423137681,
          -0.21231513619390663,
          -0.7899241505836796,
          -0.6815543540835418,
          0.6419684246147086,
          0.3634969541531228,
          0.20467348513780026,
          -0.6466005282177605,
          0.25412987437309575,
          -0.726513424995701,
          -0.25821178267255784,
          -0.4985887223325838,
          0.5453185859972953,
          0.5625018309275682
        ],
        [
          -0.39717886922319867,
          0.21180874310323117,
          -0.8760054442120689,
          -0.3255550597198287,
          -0.5940802403863403,
          -0.5553908901419623,
          0.8621951023561383,
          0.7661134742763982,
          0.03998910651140508,
          -0.6043069953020439,
          0.5745372949670398,
          0.779274238356338,
          -0.4222002720769019,
          -0.7858570801884656
        ],
        [
          0.7825899664430758,
          -0.07669251366155272,
          0.6913426565176655,
          0.24931486008089676,
          0.4158650868690621,
          0.24002973591904198,
          0.8536176136647164,
          0.8888974606053395,
          -0.12255151137163312,
          -0.7727443759649889,
          0.35413439866864294,
          -0.8421439267561388,
          0.6217079232136535,
          0.4743996083657447
        ],
        [
          -0.36074802344434587,
          -0.7663011837822635,
          0.4369607045360806,
          -0.7690874557808778,
          0.4758349817327916,
          -0.5361060179388353,
          0.16284663211438755,
          0.27436472852930205,
          -0.07151165540600857,
          0.7757018576554258,
          -0.5116570528391715,
          -0.2244741320533381,
          -0.6977539508507119,
          0.022496156245314536
        ],
        [
          0.896452275459843,
          -0.5527744109740044,
          -0.11706085423832735,
          -0.5476876181345478,
          0.382392649946921,
          -0.4369282935290918,
          0.7168594482039519,
          0.6979303586071763,
          -0.030653063838447014,
          -0.5707568208205602,
          0.24641965826178902,
          -0.7407714213194663,
          0.3370922300078958,
          -0.6771708704756001
        ],
        [
          0.2104380079045276,
          0.7020093685669226,
          0.8376577811455028,
          0.12012550254801257,
          0.49299640464999595,
          -0.5290382053503717,
          -0.6016352658087718,
          -0.23356505313332754,
          -0.6422855237739,
          -0.33113264124975483,
          -0.4569736272025718,
          -0.8254807825101027,
          -0.38753688097749006,
          -0.4037641925256652
        ],
        [
          -0.258324893124528,
          0.4613093703649367,
          0.3758422218320654,
          0.16747594046148873,
          0.14805635194272293,
          -0.7838711540102209,
          -0.39850749544507846,
          -0.19439027083975524,
          0.07152686972407052,
          0.8858066002075935,
          0.7261098062566675,
          0.4513317644300989,
          -0.8147507556848176,
          -0.3132858618356289
        ],
        [
          -0.4514025833589993,
          0.4435413276257325,
          0.4920070312331246,
          0.6843745477916088,
          0.5249090176025666,
          -0.34415060762390326,
          -0.24778587170466226,
          -0.36293116394426683,
          0.05077488958571286,
          -0.3190110072917557,
          0.11508525734249675,
          0.8357977114399404,
          -0.8862765027438017,
          -0.4993365418850007
        ],
        [
          0.8537406373704532,
          0.2672025861113525,
          0.853955161747957,
          0.913092014297995,
          0.6267105556831487,
          -0.6005769993924892,
          0.15414548009560103,
          -0.5297893713522036,
          0.5116323277550998,
          0.06857982161115617,
          -0.8144926086532693,
          -0.250143141427317,
          0.4844968408670969,
          0.4870533437762672
        ],
        [
          0.8974509055557041,
          0.6088970782817344,
          0.05314515453564872,
          0.114699228533369,
          -0.45412033030629334,
          -0.8684916067920697,
          -0.8813240689828306,
          -0.059517734596421734,
          0.20799210685917058,
          0.4268675869476528,
          0.13815032586015108,
          -0.5982393353535909,
          0.7187026773931842,
          -0.8459149036743165
        ],
        [
          -0.4280920468247273,
          -0.46618011111075125,
          0.6687516367776865,
          -0.17194975307746507,
          -0.006595162726099391,
          0.8920970833886108,
          -0.8102302560087025,
          0.6469358961689227,
          0.8799452608648579,
          -0.6653074057082352,
          -0.6160204865815035,
          -0.7328754419015329,
          0.8894542836105939,
          -0.4546668171099857
        ],
        [
          0.5634137087442099,
          -0.3819989937779871,
          -0.12657862444572765,
          -0.008816247571416524,
          -0.17801424408864386,
          -0.422361717382976,
          -0.5728723717206109,
          -0.6380066508723239,
          0.5305637334004838,
          -0.9187131727491287,
          0.784833632755358,
          -0.2822784347259927,
          0.37204367602653754,
          -0.6810806664407361
        ]
      ],
      "b_k": [
        0.10464132004751409,
        -0.15331250409889408,
        0.15163765330929707,
        -0.1640123584723407,
        -0.11183183259278101,
        -0.04400918714486768,
        0.1984272534925608,
        0.14798332768682937,
        0.08554404035563284,
        -0.08697539096800873,
        0.12582913550159358,
        0.12552850690361045,
        -0.19529067696612348,
        0.14228864189340434
      ],
      "w_v": [
        [
          -0.5860356396602627,
          0.700961484903716,
          -0.8950833932415312,
          -0.6971944117442156,
          -0.03574320415028054,
          -0.6783921562818256,
          0.5344468354391059,
          0.4099779595215438,
          0.9221008351918567,
          -0.7606070072638084,
          -0.3272517660149955,
          0.19689315141677977,
          0.8130191688495805,
          -0.451345559066264
        ],
        [
          -0.8288147608882644,
          -0.6908867035220734,
          -0.1674276966125373,
          -0.722688236177315,
          -0.5896778818028385,
          -0.32170510743996916,
          0.6233016612845841,
          -0.13964632653024567,
          0.5610736710184137,
          0.5855119709575951,
          -0.028413953650964885,
          0.31876823170059,
          -0.6472553799119254,
          0.1579989394392276
        ],
        [
          0.012653632774252355,
          -0.5001380734974443,
          -0.7881931940491024,
          0.29291375436360667,
          -0.5281189335539049,
          0.6468435282525367,
          0.09044317551324021,
          0.38884149298485804,
          0.6066310256694658,
          -0.7935872502630166,
          0.7134082990596899,
          0.14907016070807622,
          0.6904012082401796,
          0.7856680676780663
        ],
        [
          0.1459935353481825,
          -0.5902127981506106,
          0.03907872184755046,
          -0.06623326099785987,
          0.6315121249105309,
          -0.2597440356963846,
          0.16230324647583227,
          0.9043636782872659,
          -0.913557259873085,
          0.43337245199936625,
          -0.8615839109612181,
          -0.6537516476429839,
          0.443634265301853,
          -0.6676264283950243
        ],
        [
          0.270517855794117,
          0.8087691284984961,
          0.3761082586575557,
          0.5229370323972793,
          0.6192420686252433,
          -0.4832096478268895,
          -0.2508959645654779,
          0.2956147929793802,
          0.7107936582612786,
          -0.06517643346407331,
          0.6952989403855239,
          -0.8377413828894357,
          0.5536824623126879,
          0.10804474981079815
        ],
        [
          -0.7983127911726682,
          -0.35925324155072813,
          -0.10042260582758744,
          0.4751008926206921,
          -0.2518029330130831,
          -0.0793493417005775,
          -0.6453469896790722,
          0.5452823939938847,
          0.21410263222810744,
          -0.8708382007833608,
          -0.1710528685730135,
          -0.8960929422800494,
          0.8900648504383917,
          0.8662513157896852
        ],
        [
          0.8707707786167007,
          0.6260208257593958,
          0.6003140566997582,
          -0.5938180696642259,
          0.5975656260014961,
          0.6570707171881431,
          0.3709319860417344,
          0.852099164027954,
          0.24809107497542437,
          0.5159080946899919,
          -0.7420177341474049,
          -0.4110993884788172,
          0.6464572908114516,
          0.660947962268245
        ],
        [
          0.696597286753343,
          0.750462634572562,
          -0.15050419513518443,
          -0.8889062193820377,
          -0.4147744405707695,
          0.6058728313242088,
          0.3147560858465779,
          -0.24373567044430666,
          -0.5870016386460635,
          0.3123020644727783,
          0.2272244799085692,
          -0.0248926711512083,
          0.700877514419586,
          -0.25346735628677375
        ],
        [
          -0.10529949454220666,
          0.9046661338720059,
          0.5535507845654768,
          -0.5833618221516336,
          0.29842140296360853,
          0.04991756779710799,
          -0.7937111012828819,
          -0.7018590783525576,
          -0.7965297190239691,
          0.1126966759258008,
          0.15488365160193562,
          0.1781782027192842,
          0.023108151210516792,
          -0.03281612605765494
        ],
        [
          -0.15365575048147517,
          0.39762369252693675,
          0.5500817994485039,
          0.07428829797206782,
          0.23630967683324444,
          -0.24019398796655622,
          -0.3182695283973104,
          0.014452610601342952,
          0.8441272975512151,
          0.09202496376362745,
          -0.29726862084821837,
          0.6003590099050109,
          -0.6222005561525992,
          -0.6441267523323584
        ],
        [
          -0.8967601299007978,
          -0.8866257936044266,
          0.9007322174748751,
          0.47428185281722235,
          -0.4681904032036504,
          0.38033823217583707,
          -0.6167733615817435,
          0.2512190178434974,
          -0.5287730782580071,
          0.29823327637153696,
          0.016931340541106343,
          -0.8738320330626393,
          0.6372344172449538,
          -0.5850587146404882
        ],
        [
          0.6168783445269539,
          0.3564673280108379,
          -0.16696769821642232,
          -0.21985446558084432,
          0.9208805275038514,
          -0.40546931664534425,
          -0.48048831355113236,
          0.3893533758067762,
          -0.013336206903584058,
          -0.7399870558177326,
          0.48064053134322604,
          0.7716011382381309,
          0.2438503231757152,
          -0.5719552857795585
        ],
        [
          0.6732332983351206,
          0.2588484332741028,
          0.769311535800778,
          -0.8331945555261591,
          0.7884318153484864,
          0.017948687272408836,
          0.23808799486767995,
          0.194943189943537,
          0.8997003427269012,
          -0.1980953071613496,
          0.06617794084487594,
          0.11532372201330188,
          0.30419297516593247,
          0.34427604797040257
        ],
        [
          -0.6467521109132941,
          0.3067193603488996,
          -0.332905232309027,
          -0.39146276160789106,
          0.5884128211172002,
          -0.9185035546138272,
          0.8456744478930438,
          -0.8131715536667322,
          0.5773297724799595,
          0.8497565760888421,
          -0.4855107045218133,
          0.5889582054416669,
          -0.36721191965890654,
          -0.19177491475557817
        ]
      ],
      "b_v": [
        -0.013309305004607253,
        0.0138444020492757,
        0.08831652414103924,
        0.16842495484469278,
        0.024359404654084926,
        0.023700085784627095,
        0.08154803113170372,
        -0.06061378342181606,
        0.15224624499959827,
        0.15137735515275214,
        -0.18517362526285602,
        -0.13016696000394745,
        -0.007199372587935432,
        -0.06966686216355383
      ],
      "w_o": [
        [
          0.5540916243562239,
          0.910281899475158,
          0.07770741770634815,
          -0.8984279351040706,
          -0.7775541819742489,
          -0.6076835385166202,
          -0.13373758004578817,
          0.10958080687742777,
          0.35399521667010725,
          0.821623544912292,
          0.20857905215943862,
          -0.9177682543600904,
          0.26738408809679237,
          0.7253304715179576
        ],
        [
          -0.3357215887940749,
          -0.3539756153319312,
          0.07275535462262461,
          0.2807845065695347,
          -0.030168565825110738,
          -0.08580692921321509,
          0.7116585804329036,
          0.5874551306011244,
          0.8762145550976399,
          -0.038080316962482486,
          -0.5239748634215184,
          -0.036979882405565156,
          -0.5760724545159968,
          0.3681669835821262
        ],
        [
          -0.41049234715333804,
          0.5688666485819713,
          0.47992016178091457,
          -0.8752364889377192,
          0.5684199206271321,
          0.5737249079250941,
          -0.18799499159457378,
          0.15076159721426374,
          -0.16065589620220055,
          0.8655001672396834,
          0.4809358640441097,
          0.6131878805333755,
          0.20229124884326843,
          0.9018448816433653
        ],
        [
          -0.8387254865948873,
          0.515849739182118,
          -0.3882382373380152,
          -0.9197000519796154,
          0.4749189731959511,
          -0.16282221829633847,
          0.18647098154802233,
          -0.5604604792467971,
          0.17215663279724125,
          -0.7723836111698947,
          0.16726832515771717,
          -0.682890498746883,
          0.7014895882871302,
          0.4094461762684287
        ],
        [
          0.4923709866439021,
          0.8529375916060846,
          0.5449869106303182,
          0.16640896963867302,
          0.7561917452931963,
          -0.4035661688790718,
          -0.1457522393390397,
          0.36624702740572035,
          -0.9035570406249943,
          -0.3619531216273524,
          -0.35410065565757476,
          0.5913355636767157,
          -0.393774237800273,
          -0.03970822478410996
        ],
        [
          -0.18743931986810014,
          0.3577934163886962,
          0.46434631849409325,
          -0.3816416872455115,
          -0.6245234276664079,
          -0.23038320892591446,
          -0.8349513929646712,
          0.4064007551132587,
          0.5849483252463512,
          -0.3564217030479532,
          -0.7083432506521155,
          -0.9155665270501303,
          -0.5030030100282938,
          0.7526788789613374
        ],
        [
          -0.12736169559222643,
          0.9095582122216013,
          0.5734945339422022,
          0.7742508298143913,
          -0.8931386155214927,
          -0.33608078881267367,
          -0.2051728391449893,
          -0.5628594942657108,
          0.5712330026812036,
          -0.16076663459462603,
          -0.044886111221638214,
          -0.8728538066057272,
          -0.2377734504418253,
          0.2590191691005814
        ],
        [
          -0.19508408547588263,
          -0.6210950759048798,
          0.7730785901086163,
          0.014677832869572804,
          -0.5633467531148422,
          0.3880742446046792,
          0.7026011046987619,
          0.7766231899376728,
          0.8976797751745953,
          -0.001989583714209431,
          0.8766497079395064,
          -0.7379915527223926,
          -0.07141889763752063,
          -0.22908121772669532
        ],
        [
          -0.8073693427677682,
          -0.29249994806882096,
          -0.9074014127795293,
          -0.043053104850080626,
          0.23071019109632696,
          -0.80700119220543,
          0.13677730900801954,
          0.23531838712685116,
          -0.005161280452613437,
          0.720658362828849,
          0.15961617827715768,
          0.4476097497280327,
          -0.14181478448065843,
          -0.3778513508114598
        ],
        [
          0.49820305644193774,
          0.43168726805118474,
          0.1744278416423477,
          0.333283192678288,
          0.006094393262389475,
          0.29887138176880024,
          -0.5066164203650518,
          -0.588971561080287,
          0.0165391388892413,
          0.852442439805559,
          0.514263322325142,
          -0.6373164099157433,
          -0.1444610187610582,
          -0.3016660634768801
        ],
        [
          -0.13548752548356113,
          0.16083195713896759,
          0.7745864587756157,
          -0.31461764567177264,
          -0.4577221359397065,
          0.9244062605010355,
          0.06755352539580406,
          -0.6084911156760142,
          0.9038357482175157,
          -0.27431700817784865,
          0.6176624821037844,
          0.44657864909792777,
          -0.35123884739799427,
          0.6203285027830874
        ],
        [
          0.22797786047689828,
          -0.6618334737998282,
          0.2894281668637748,
          0.27543534084088495,
          -0.3344573956884688,
          0.7571958856121033,
          -0.047926472831705036,
          0.5780207274949105,
          0.4165596684564892,
          -0.5932956281614392,
          0.5376241233372121,
          0.20308314323780552,
          -0.004629337726865468,
          0.3122899920618527
        ],
        [
          0.8011556095440595,
          -0.31103534561137447,
          -0.5496066650165968,
          0.8002299352620368,
          -0.6743985697355553,
          0.7486007590373793,
          -0.43605219802271594,
          0.5708983853870062,
          0.5238033311331038,
          0.25158488365706067,
          -0.077136881671377,
          -0.8814479287734812,
          -0.2392434547754183,
          0.5491210914687477
        ],
        [
          -0.5434132951846071,
          0.63976591144505,
          -0.16011687124958318,
          0.4670709307629872,
          0.5309797249367991,
          -0.826546569118198,
          -0.7909826358562981,
          0.15533098395693634,
          0.639843706833376,
          0.5377231186306504,
          -0.007753022530307407,
          0.9045534709778325,
          0.8918385574869869,
          0.627949451456699
        ]
      ],
      "b_o": [
        0.18120290220688606,
        -0.18965608078990587,
        0.1761220594472125,
        -0.026924057074569963,
        0.16101216244436273,
        0.006319368702522088,
        0.14413355531054528,
        0.09043977815991833,
        -0.15343346495739565,
        -0.196858032421468,
        0.027543522862904263,
        -0.15913963723138844,
        -0.1387787771856164,
        0.10276311000084482
      ],
      "w_ffn1": [
        [
          0.27899353893397594,
          0.673228922402374,
          0.7520439263247574,
          0.6014064618515993,
          -0.028618735668552886,
          -0.019503210131099458,
          0.31462431276679914,
          -0.41525084436763937,
          0.2520533926547819,
          0.22883140431303062,
          0.5875491800663493,
          0.5029543015591762,
          0.7113895617946,
          0.6398502748034942
        ],
        [
          -0.5774810905264944,
          0.04374845086566359,
          -0.33118534247150455,
          0.30386492117149166,
          0.41353792511663023,
          -0.36817474638934955,
          -0.7230953393335602,
          -0.13301272837590417,
          0.012825624146013515,
          -0.14582294815498442,
          0.5614706308051547,
          0.052848519742686784,
          0.039221032607450135,
          0.14835109474294106
        ],
        [
          0.46627101936109194,
          0.5193338267478285,
          0.0879013614738382,
          0.6807359488372675,
          -0.03001411630819273,
          0.4281583994276814,
          0.5368558824397518,
          0.45150295974712473,
          -0.5643171260623487,
          -0.13694947104765376,
          0.7056213867011043,
          0.6956312422009756,
          -0.7035593527586971,
          0.3452427653998056
        ],
        [
          -0.3522825510303772,
          -0.7435983973714376,
          0.2562548377005185,
          -0.4220581806177238,
          -0.11934126453816518,
          0.4201530619186702,
          0.6817187942153144,
          -0.4740664283915339,
          -0.23547031201210333,
          -0.1500636279571299,
          -0.19818685000833725,
          -0.04080776101880079,
          -0.6777884337009668,
          -0.05238283327955162
        ],
        [
          0.4973450340363452,
          0.7419908068600245,
          0.5372388327038393,
          0.5557609305872409,
          -0.3522728287877393,
          -0.650130078791215,
          -0.2692478772508487,
          -0.34367742195048223,
          0.46523544930546135,
          0.6807350690548262,
          0.7379179938311307,
          0.11078339128574133,
          0.1194342388760622,
          -0.6112121003483467
        ],
        [
          -0.4387779222850588,
          -0.28290434740354325,
          -0.49275502322170045,
          0.440354521758169,
          -0.6029650664986052,
          0.6096892963625555,
          0.24772751426034323,
          0.11023730319788205,
          0.05207854534866907,
          -0.10815937918440266,
          -0.5427556511491236,
          -0.3053348511010957,
          0.6697743024693623,
          -0.45039833047195843
        ],
        [
          0.586337357616449,
          -0.39030473339023514,
          0.6652083346421218,
          -0.48308913573196144,
          -0.2039649576460384,
          0.4940662053159932,
          -0.6088577777446665,
          -0.6681128731100354,
          -0.13676045425606742,
          0.7508785185445161,
          0.7085776463499136,
          -0.4788639710580136,
          0.2716633871120615,
          -0.10678924197825646
        ],
        [
          -0.15119315338781014,
          0.7100876359862074,
          -0.547246344812131,
          -0.7158742174888023,
          -0.4121433423193438,
          -0.18666620514641652,
          0.7499877537512363,
          -0.6210868729382242,
          0.19268045375509812,
          0.580028615451416,
          0.06979094767858884,
          -0.23361114104397696,
          0.052280460065181944,
          0.3856877281743194
        ],
        [
          -0.43585216884183065,
          -0.47379517073267763,
          -0.3173680621839365,
          -0.2699152856406004,
          -0.21943814944160067,
          -0.3698381674030498,
          -0.18118407839125872,
          0.032035308557969655,
          -0.08903231349402252,
          -0.06663814616396846,
          -0.3965392350996093,
          0.573034865610673,
          -0.013908552921539807,
          -0.16390265764458167
        ],
        [
          -0.08690640903112357,
          -0.6312219587043153,
          -0.5227344829418111,
          0.05483823108108998,
          -0.33280379059279713,
          0.7144706203581845,
          0.025071097332336034,
          0.5778163653175439,
          0.3987676303969008,
          0.5659199348641242,
          0.6079543175726465,
          0.5532739039753145,
          -0.2068138116388032,
          -0.5272073630542335
        ],
        [
          0.6940340533401372,
          -0.37375558026725053,
          0.5692364225653654,
          0.4721401528668614,
          0.38221960183688974,
          -0.6413627746043747,
          -0.4363118445859254,
          -0.4868795291159663,
          0.2828245986543896,
          -0.3006215358775147,
          -0.7428035438839808,
          -0.18346394544965383,
          -0.5342967610190635,
          -0.5033135780441627
        ],
        [
          0.18986183955362457,
          0.621280313928884,
          -0.2724436800719835,
          -0.16595290395858198,
          -0.7257689112824615,
          0.5592329661582649,
          -0.021992139187036464,
          0.514155790914169,
          0.053841226883151294,
          0.6039655811051106,
          0.04726499722527455,
          -0.1717687954966799,
          -0.2329339766804629,
          0.6260864379329676
        ],
        [
          0.06829160041453763,
          -0.1305546013432548,
          0.7380325154684668,
          0.6854168335533968,
          0.6544503278796558,
          -0.7278033539426589,
          0.40946869306350964,
          0.5113785023829758,
          0.574878369375557,
          0.13679748971565808,
          0.4431830271245578,
          -0.3709299132494638,
          -0.15735966847462857,
          -0.28859562899673397
        ],
        [
          -0.717285269192676,
          -0.6400603496724588,
          0.7546050919734664,
          0.433616509430957,
          -0.2601449215731426,
          -0.1863377346600673,
          0.3681779848697604,
          -0.5424727294517042,
          0.00854852619279578,
          -0.5753028997202823,
          -0.18521932619464154,
          -0.6910667924900693,
          0.1324684699385612,
          -0.320208945461056
        ],
        [
          -0.16131829459251612,
          -0.38192137893999,
          -0.27932885667612156,
          -0.11922440413755564,
          -0.14159884768703257,
          -0.37350660099030325,
          -0.24089070502104581,
          0.5421857130451648,
          -0.4631752594427019,
          0.002013374470994922,
          0.3975539077192667,
          0.4122120381129719,
          0.5050931408044597,
          0.024463729083720964
        ],
        [
          -0.4193415153490726,
          -0.25445896468466034,
          -0.47352195122272,
          -0.5966655991650742,
          -0.02380685223650736,
          -0.2959136936233637,
          -0.60740985874656,
          -0.1702768263773945,
          -0.19137088361896337,
          0.4217762568163723,
          -0.6095856402138753,
          0.6514507088488404,
          -0.09128606337942202,
          0.7098285887862155
        ],
        [
          -0.2502327564883916,
          -0.7172646052577482,
          0.4837200533185053,
          0.3918136442208149,
          0.029014512181907426,
          0.4501807799388149,
          -0.3710176824625283,
          0.6738953921315756,
          -0.6395321674453638,
          -0.3446210411842398,
          0.019995776460786763,
          -0.6379635686572056,
          -0.7491029600593219,
          0.3015002534927518
        ],
        [
          -0.3523360430301754,
          -0.33307889945485203,
          -0.5542986995294297,
          -0.6936940568569125,
          -0.5860934168597942,
          -0.2297389940221357,
          0.13248685009923233,
          0.24958180670976837,
          -0.43806451709966376,
          -0.5633485695036061,
          -0.6770579768476321,
          0.34183626611434503,
          0.14371803244918036,
          -0.176228116795338
        ],
        [
          0.40118704342921574,
          0.3725348152536774,
          0.4266372153200968,
          -0.5902057837261399,
          0.07779705038194051,
          -0.5602665031373255,
          -0.5145874807634601,
          -0.17659263088663724,
          0.17625957405708126,
          -0.05857196356441152,
          -0.30211321826119153,
          -0.3250638314996398,
          -0.5069768530314441,
          -0.24784150079593936
        ],
        [
          -0.16442099148979183,
          -0.33750242401349934,
          0.41477989260307857,
          -0.6706733066420287,
          0.11391965803779858,
          -0.495875994235159,
          0.5961262320240321,
          -0.28055467670468975,
          0.4805579749566278,
          0.3178945599117915,
          -0.3320405528911088,
          0.5972266648184275,
          -0.644030061785789,
          -0.41799565355229334
        ],
        [
          0.38016342279011517,
          0.46747085915189923,
          0.2819823684931331,
          0.4794477436172935,
          -0.67664849137861,
          0.4867980214226113,
          0.5194476012287452,
          0.410193388678348,
          0.3502289534405214,
          -0.6757785641976111,
          -0.1697306606868122,
          -0.27857950859274855,
          -0.1255841133188249,
          -0.3922871072956959
        ],
        [
          0.5437135066802703,
          0.374762598686158,
          0.020671944508909523,
          0.020986466936264048,
          0.4911298313504946,
          -0.42923292728949614,
          -0.4557987064702294,
          0.12776262090308899,
          -0.31090090524413677,
          0.17172207566373998,
          0.4374318294972299,
          0.47245584647535854,
          0.7215260138673623,
          -0.7446560908507074
        ],
        [
          -0.5369571061908759,
          -0.7183265308654911,
          -0.3695989100261444,
          0.11395045582770535,
          -0.1700383657855421,
          0.047025541286690675,
          0.3239236277230675,
          -0.46619805579080636,
          -0.1771152015144537,
          -0.4954319241914233,
          0.25180364140620237,
          -0.6410563029218793,
          -0.44730355786869874,
          0.41812411929795745
        ],
        [
          0.6487466003426092,
          -0.6791283692675046,
          0.22098548061291756,
          0.754697743099916,
          0.22488874066062603,
          0.506200500524884,
          -0.5625204525287261,
          0.07841322685661323,
          0.7035869810368498,
          -0.1366829987644962,
          0.5711560498956667,
          -0.6373308694857066,
          0.05350352593892116,
          0.34593563855172316
        ],
        [
          0.5268023936676649,
          0.4134508737699538,
          -0.26144121903368983,
          0.39425474342293376,
          0.48392146885704723,
          0.26306031684203424,
          -0.48166724590808147,
          -0.011953284597371439,
          -0.7234093908265431,
          0.4644377213448492,
          -0.05988131341573799,
          -0.6603922892388494,
          0.28331428623306176,
          0.060487841047059066
        ],
        [
          -0.4030323275237433,
          0.7287826425755806,
          0.2565574146300378,
          0.12808997013570944,
          -0.5784998723734822,
          -0.34702588844056326,
          0.028062157199385762,
          0.5594365173318425,
          0.622310650983182,
          0.7228828832689993,
          -0.44269642730763115,
          -0.7374428802543197,
          -0.7232766343211909,
          0.49139916450576826
        ],
        [
          -0.06404063964116846,
          -0.1333926900442074,
          -0.5188932842963833,
          0.18526399264980087,
          0.30902773386844995,
          -0.6812221155423144,
          -0.6042656182833219,
          0.6880031613786171,
          0.3144644764770308,
          0.15893355765911654,
          -0.44727063132791045,
          -0.4696209779495443,
          0.377675830192469,
          -0.0928399170786175
        ],
        [
          -0.5263132587053012,
          0.07497409435472335,
          0.5505221226073655,
          -0.6996070704065473,
          -0.7013759182756558,
          0.6509199503838801,
          0.18850052627716551,
          -0.33123305286931165,
          0.09334095770701545,
          -0.7251278781566344,
          0.08039505237643152,
          -0.2676419352546187,
          -0.5484175704671674,
          0.257831644934269
        ]
      ],
      "b_ffn1": [
        0.17811261237284387,
        -0.16768331571033876,
        -0.057549996975866685,
        0.06044796150526699,
        0.15433460693148232,
        0.15331330420340727,
        0.010706806294838278,
        -0.12708324168961538,
        0.08754855987125465,
        -0.15278193179798036,
        -0.13490420096428324,
        -0.17515252021261585,
        0.10031993061198285,
        -0.13848043377468083,
        -0.04022448289300756,
        -0.03867956585700971,
        0.02969391920295522,
        0.18830354865023186,
        0.05043768470266963,
        -0.1363931946749034,
        0.15877269576130687,
        -0.12793869104748212,
        0.12802936732344877,
        -0.11752813871026345,
        0.14081762322139596,
        0.14806293522430042,
        -0.19919003471648683,
        -0.19072774436016166
      ],
      "w_ffn2": [
        [
          0.18059679589043676,
          -0.026731827734649438,
          -0.4741056432343365,
          0.7085582017562888,
          -0.46987073887042713,
          -0.18953040220288397,
          0.6057888347055826,
          0.6993441117948742,
          -0.34634441315350256,
          0.3696567237855961,
          0.01900557269734915,
          0.4930852944161226,
          -0.0035843769535591763,
          0.7140585124219878,
          0.13793076652001712,
          0.4200404883110973,
          -0.1538887404727335,
          -0.3720462988156745,
          -0.7353160444977032,
          -0.04613911683628191,
          -0.6200153701118458,
          0.6587419923328544,
          0.182887176265211,
          -0.13648892737581542,
          -0.4122311068673274,
          -0.28826630154019245,
          0.5042504803459287,
          -0.5834905695038316
        ],
        [
          0.15644981086506837,
          0.6766216220294974,
          -0.4240918101542404,
          0.04140544784902911,
          -0.5816090579347133,
          0.6026935285329058,
          -0.49989427580330803,
          0.38825795052760737,
          -0.20855711074221062,
          0.5802950632849588,
          0.7445576728404202,
          0.6217891731715168,
          0.3392337083691237,
          0.689032723004827,
          0.44881874879508254,
          0.25278886793168986,
          -0.7263412805897952,
          -0.05085990029385967,
          0.12131373633570341,
          -0.09816294145425908,
          0.5754938717280189,
          -0.1132810755148691,
          0.04047142411375382,
          0.7463417932675436,
          0.16332242849330436,
          0.499384184923356,
          -0.6126607038439187,
          0.2561673719276678
        ],
        [
          -0.2963418574326107,
          -0.6830584608652434,
          0.38789839744541,
          0.5599318320660744,
          0.1737948008699095,
          0.20672503405729525,
          -0.5521467793803512,
          0.13603042689899014,
          0.08557925130224553,
          -0.32970792972682306,
          0.2917610386956666,
          0.6463468179459415,
          0.1022016009644724,
          -0.5419917649023972,
          0.4619833125518349,
          0.34226065833749253,
          0.12824917409692027,
          -0.6065892921578383,
          -0.529706843860295,
          0.37310679314656814,
          -0.5801567039927726,
          0.5532038022206809,
          -0.4090336892649545,
          -0.2297048523894325,
          -0.3704157256220729,
          -0.3908269835054995,
          -0.49818408858660546,
          0.14989469399032695
        ],
        [
          0.17614581404496144,
          0.31185670260107035,
          0.05029455158885121,
          0.4505084544736224,
          -0.5865298926739725,
          0.33938171819533913,
          -0.7027261138358588,
          -0.3477185742405777,
          0.6339504107740641,
          -0.717932198813798,
          0.4467945517301586,
          0.35847128832651665,
          -0.12216314968501563,
          0.3906095520203574,
          -0.33416918724004313,
          -0.4253395540769547,
          -0.19046577428046307,
          -0.6411275268310503,
          -0.6038308615955886,
          0.6347182340625452,
          0.6573484836372321,
          0.6124274271211423,
          0.6916627984918446,
          0.4130816508546207,
          -0.5395907614489197,
          0.5551824291906171,
          0.08760407945773951,
          0.15107895188621623
        ],
        [
          -0.5972858200321611,
          0.5728610242671781,
          0.24787968933821514,
          0.4633881523083798,
          -0.27668313895066377,
          -0.6464489674193669,
          0.012658245367952348,
          0.07764482741124012,
          0.09317828144923457,
          0.6494037438585643,
          0.3240053426751588,
          -0.5773437259541101,
          0.39385931175085154,
          0.673366276438828,
          0.5918226512885749,
          -0.631662993167013,
          0.40164258876663483,
          -0.35407564670910424,
          0.4941761982175099,
          -0.6497900330630983,
          -0.47762114687168844,
          -0.7402390635968279,
          -0.5726182252384917,
          0.02807190682838978,
          -0.30102099400773724,
          -0.6071894610556191,
          -0.028520473589894846,
          0.2651349166824044
        ],
        [
          0.4914447272469744,
          0.13654328758000644,
          0.26020023145592064,
          0.28364643776617005,
          -0.19092283821167488,
          0.51146392782431,
          0.19934180889466324,
          0.30138173967533644,
          0.6155711611776773,
          0.5577460338041136,
          -0.04932224324370116,
          0.37379969633971166,
          -0.09738590724883078,
          -0.1269931341714995,
          -0.7430314128114557,
          0.41125930509131536,
          -0.6899365523037967,
          -0.727426280541567,
          -0.7533173566229141,
          0.5599654372547944,
          -0.18584891351715593,
          0.15391691114118822,
          0.06359952118735102,
          0.4827396049205015,
          -0.7169944075074406,
          -0.3734184480913719,
          -0.42804067386103906,
          -0.29929293382677075
        ],
        [
          -0.04810379581513802,
          -0.34630265222201345,
          -0.7551396545999083,
          -0.39250107475257207,
          -0.1997519652038795,
          -0.36504643673429893,
          0.6224751903432191,
          0.22049762933281525,
          -0.19380173466513473,
          -0.2411864445103048,
          0.6117464886203368,
          0.4231545986428644,
          -0.3772951198792577,
          -0.040202334237183,
          0.2879324820799998,
          -0.5141806045030273,
          0.025588337022781182,
          -0.24158454283677633,
          -0.34743116870452123,
          0.5504178833323436,
          -0.7270939905751816,
          0.3901985714061793,
          -0.18682244447425123,
          -0.02315592254328569,
          -0.5288969275458577,
          -0.1044160883839308,
          -0.2544954131260153,
          -0.41322507042517537
        ],
        [
          -0.7530659849799479,
          -0.16055605583060528,
          0.709513879359978,
          -0.7074823434054116,
          -0.659305988600852,
          0.5292712118955236,
          -0.6379589183510306,
          0.677912908981462,
          -0.20319518866556296,
          -0.664758251153604,
          0.1845045612511852,
          0.41240648706350114,
          0.6205920856965002,
          0.6886032113467992,
          0.7195697043510614,
          -0.6795868815642419,
          -0.3226180950626804,
          0.7548474426351723,
          0.1748320801222477,
          -0.4882862907005911,
          0.54356405424994,
          -0.025582151930045538,
          0.4963028170458881,
          0.48004791074343833,
          0.4902053634918375,
          0.43312561404765515,
          0.0860352650948194,
          0.40861022974029404
        ],
        [
          0.5516385136798876,
          0.5257300892838015,
          -0.7057018117492941,
          -0.5208799062527867,
          0.3379949419040993,
          -0.5538637779108356,
          -0.3360947209552103,
          -0.23594121890215491,
          -0.3277737091290242,
          -0.2573296311312885,
          -0.5768488615673547,
          -0.377893601236603,
          0.496824225312797,
          0.04018373356761229,
          0.7413033185557096,
          -0.04358190543946272,
          -0.457882145728456,
          0.3966186317653495,
          -0.399523731333935,
          0.6879486214102455,
          0.4973532077650966,
          0.1625533384015766,
          0.48355984532073326,
          -0.4928537818187934,
          0.6778941404725913,
          0.45507441490626666,
          -0.5847512355251212,
          0.00614311860298844
        ],
        [
          -0.15895958943696675,
          -0.45878051597475217,
          0.7254176172828126,
          0.45087348610459776,
          -0.08476126160378317,
          0.733426882202816,
          -0.33518213881077563,
          0.6700177972471055,
          -0.7551047494547019,
          -0.08790795850999611,
          -0.07174731391911116,
          0.20853498861909725,
          0.2481967400352283,
          -0.5400732327667557,
          -0.6858765938377093,
          0.25326393402820746,
          0.03407096411214383,
          -0.6765179809222321,
          0.1277895098056374,
          -0.4353751207124277,
          -0.5603341639382221,
          0.5905694172388922,
          0.4691680725879708,
          -0.2516320474570545,
          -0.701714059396807,
          0.3352461427742026,
          -0.7321672301287554,
          0.101361845239886
        ],
        [
          0.39955287130478534,
          -0.12413098408214085,
          0.015346312254625238,
          -0.10476391524065187,
          0.30894013692601696,
          0.3063495675483918,
          -0.042419694833836785,
          0.1870843480293275,
          -0.5588786513731056,
          -0.2129413229150915,
          -0.3219315942908118,
          -0.5761119747495335,
          0.18338797184264466,
          0.2347087401707736,
          -0.16378167695592427,
          0.40053419766673826,
          0.5924873610962478,
          0.18598596679794588,
          -0.7024028901708598,
          -0.1618999778500423,
          0.276501562570038,
          -0.5622911236323679,
          0.5646594159425933,
          -0.6619093245879262,
          -0.22636215019577943,
          -0.5792469613005238,
          -0.5475132752920033,
          -0.031164891611754175
        ],
        [
          -0.024796764439881547,
          -0.3314229607212055,
          -0.640025125972081,
          -0.6311438816247699,
          -0.6584170575992303,
          -0.37013443705592247,
          -0.27158238209945373,
          0.7325278354648637,
          0.7214586798765887,
          -0.6756950587341133,
          -0.4829436651044764,
          0.6526603896882162,
          0.43053285426291343,
          -0.2772940552437853,
          0.43393726726422077,
          -0.44251799577680495,
          0.751190606719202,
          0.30721238925004823,
          0.20779340939608815,
          0.4276369809252898,
          0.479166829709174,
          0.6812293805729768,
          0.06819104272488907,
          0.3170351127924469,
          -0.3912327829708814,
          0.510550628798248,
          -0.24441263491708287,
          -0.19392989221984813
        ],
        [
          0.1507850056130714,
          -0.3879982693711414,
          0.6929398508565467,
          -0.3232315388099649,
          -0.6646407837404908,
          -0.4590086698705584,
          -0.4749859526628812,
          -0.605993828082862,
          -0.33597715420242313,
          -0.34915590561231025,
          0.6806612055480246,
          0.1786446883445333,
          -0.4652766996096686,
          -0.4838988753695679,
          0.43611249899344084,
          0.58294109852874,
          0.6333087348111419,
          0.47525745428702204,
          0.523128661418852,
          -0.19863894498034607,
          0.04721675608745146,
          0.12266416715796935,
          -0.04233477965376542,
          -0.285778237151961,
          0.04796819056013213,
          -0.26654895516793414,
          0.7074366161127668,
          -0.6550438659094134
        ],
        [
          0.6782117584350429,
          0.4730409166741427,
          0.6946992370227423,
          -0.2357266660875621,
          0.4334319881130815,
          0.7549057443381852,
          -0.6400537607938485,
          -0.4980282460503495,
          -0.4564717261598403,
          0.017205387011576034,
          0.017154221157986704,
          0.23166437075143353,
          -0.34726094057520623,
          0.596975248858981,
          0.6347287573620826,
          0.4234409742973688,
          -0.4692361195569846,
          -0.1297666272285557,
          -0.1746038276984765,
          0.3992125235373831,
          0.005231989855433827,
          0.2827138453788012,
          0.3581990105014268,
          -0.14670678222526867,
          -0.6907776483721361,
          0.7190002074608031,
          -0.5559276777092093,
          0.14320877498302176
        ]
      ],
      "b_ffn2": [
        -0.02004476711196318,
        -0.10903753910482823,
        0.1452031194093783,
        0.01743095252900942,
        0.1517210031702309,
        -0.04740899922221167,
        -0.11030673900439507,
        0.10969628441273571,
        0.15357231811925315,
        -0.15659865979288534,
        -0.046170222489916035,
        -0.033307986823065044,
        0.08420135074908941,
        0.15176339680693268
      ],
      "ln1_gamma": [
        1.0083675268093013,
        1.0155703609801556,
        1.003225471526298,
        1.0176095810771029,
        1.001228995093276,
        1.000447832180754,
        1.0139805933834871,
        1.0064553769254847,
        1.019099858245914,
        1.0147778096489606,
        0.9914812758604815,
        0.9908042340440386,
        0.9863022573648483,
        1.0097934800440505
      ],
      "ln1_beta": [
        -0.006032987404207029,
        0.018685628302548832,
        0.004758282582646309,
        0.010354653693757796,
        0.006145589847269227,
        -0.01030004106043774,
        0.005047976459458252,
        0.011564610691867708,
        0.0174975184835456,
        0.0021606282475045736,
        -0.013530392086376245,
        -0.009411549754025566,
        0.017317101397650938,
        0.007690932829537821
      ],
      "ln2_gamma": [
        0.9803168979469409,
        1.0155416850725814,
        1.0154240834966015,
        1.0067508245038295,
        1.0141436898503957,
        1.0151914195923584,
        1.000546568407723,
        1.0064294878286582,
        0.9883683023301828,
        0.9947284161644598,
        1.015519194536868,
        1.0151541464651348,
        0.9871526875552191,
        0.9841019458590304
      ],
      "ln2_beta": [
        0.014215554239262514,
        0.015042176747597533,
        0.010277508465245607,
        -0.012214475058182423,
        -0.012923186894665803,
        0.011061630992981946,
        -0.01761054658729886,
        -0.014128557378208164,
        0.010902504331348026,
        0.011578027161435831,
        0.016468938812161677,
        0.0016265107632311218,
        0.014642796022321627,
        0.009828725877246255
      ]
    },
    "layer_2": {
      "w": [
        [
          -0.8763698142706992,
          0.12875949964115474,
          -0.6866772806005098,
          0.8453682111338967,
          0.22034717056040143,
          -0.7339983508844223,
          0.9686681255517544,
          0.5889990819701891,
          -0.5234911082505499,
          -0.05465062594450143,
          0.5113697770288621,
          -0.6937922937697173,
          0.7533070096568417,
          -0.2872773945717969
        ],
        [
          -0.04364148643943788,
          1.0706690577412243,
          0.7965049718922446,
          -0.14610051223516063,
          -0.7858978741998297,
          0.21645394680665508,
          -0.5085079864416623,
          -0.595782190409237,
          1.1836576191723824,
          -0.5825302333782818,
          -0.3802934954643058,
          0.906937705285817,
          -0.021897346461464906,
          1.1922480123980774
        ]
      ],
      "b": [
        1.0147790513827255,
        -0.928340019630451
      ]
    }
  },
  "input_mask": [
    0,
    2,
    3,
    5,
    6,
    7,
    11,
    12,
    18,
    19,
    27,
    28,
    29,
    30,
    32,
    33,
    34
  ],
  "ablated_input": null,
  "ablated_value": 0.0,
  "output_param": "atan2_signed",
  "scaled_pi_n": 1.0,
  "delta_max": 0.35,
  "normalization": [
    {
      "transform": "none",
      "scale": 0.8655390346546353,
      "center": 0.9204641308303162
    },
    {
      "transform": "asinh",
      "scale": 0.8175600848274288,
      "center": 0.8867681772014051
    },
    {
      "transform": "asinh",
      "scale": 462.6300273768903,
      "center": -333.1697854608212
    },
    {
      "transform": "none",
      "scale": 5413222.0902614985,
      "center": -508770.60939412704
    },
    {
      "transform": "none",
      "scale": 1157.3507227945558,
      "center": 4549.679429911598
    },
    {
      "transform": "asinh",
      "scale": 10.358129862795693,
      "center": 12.17320223341297
    },
    {
      "transform": "asinh",
      "scale": 0.33924629426269115,
      "center": 0.40005844701414567
    },
    {
      "transform": "none",
      "scale": 0.42411593596120784,
      "center": 0.42858041580763234
    },
    {
      "transform": "asinh",
      "scale": 33.09832239288295,
      "center": 82.65759631477488
    },
    {
      "transform": "asinh",
      "scale": 0.0911362193061205,
      "center": -0.04718278665783951
    },
    {
      "transform": "asinh",
      "scale": 0.2151370816795333,
      "center": 0.29274513397808116
    },
    {
      "transform": "asinh",
      "scale": 9.832939972853932,
      "center": 11.55598244317186
    },
    {
      "transform": "asinh",
      "scale": 3.256400734674897,
      "center": 3.827025266270693
    },
    {
      "transform": "asinh",
      "scale": 5107742.117847206,
      "center": -3590633.2113008387
    },
    {
      "transform": "asinh",
      "scale": 10217099.16686349,
      "center": -6706141.091617538
    },
    {
      "transform": "none",
      "scale": 0.5,
      "center": 0.5
    },
    {
      "transform": "none",
      "scale": 1e-6,
      "center": 0.4262529995153208
    },
    {
      "transform": "asinh",
      "scale": 594.4827404994671,
      "center": 716.3429422450554
    },
    {
      "transform": "asinh",
      "scale": 412.89140647256187,
      "center": -302.7939124482325
    },
    {
      "transform": "asinh",
      "scale": 154.12675819494976,
      "center": -169.7611160606572
    },
    {
      "transform": "none",
      "scale": 1.5707963267948966,
      "center": 1.5707963267948966
    },
    {
      "transform": "none",
      "scale": 0.1,
      "center": 0.0
    },
    {
      "transform": "none",
      "scale": 3.141592653589793,
      "center": 0.0
    },
    {
      "transform": "tanh",
      "scale": 30.0,
      "center": 0.0
    },
    {
      "transform": "tanh",
      "scale": 100.0,
      "center": 0.0
    },
    {
      "transform": "none",
      "scale": 1.0,
      "center": 0.0
    },
    {
      "transform": "none",
      "scale": 1.0,
      "center": 0.0
    },
    {
      "transform": "none",
      "scale": 1.0,
      "center": 0.0
    },
    {
      "transform": "none",
      "scale": 1.0,
      "center": 0.0
    },
    {
      "transform": "none",
      "scale": 1.0,
      "center": 0.0
    },
    {
      "transform": "none",
      "scale": 1.0,
      "center": 0.0
    },
    {
      "transform": "asinh",
      "scale": 17774.23743300369,
      "center": 20521.130577512882
    },
    {
      "transform": "asinh",
      "scale": 500.0,
      "center": 500.0
    },
    {
      "transform": "none",
      "scale": 60.0,
      "center": 60.0
    },
    {
      "transform": "none",
      "scale": 100.0,
      "center": 0.0
    }
  ]
}