{
  "format_version": 2,
  "architecture": [
    {
      "type": "dense",
      "input_size": 17,
      "output_size": 16,
      "activation": "swish"
    },
    {
      "type": "gru",
      "input_size": 16,
      "hidden_size": 16
    },
    {
      "type": "dense",
      "input_size": 16,
      "output_size": 2,
      "activation": "asinh"
    }
  ],
  "weights": {
    "layer_0": {
      "w": [
        [
          -0.8349278363643656,
          -0.15770416234588958,
          -0.7978827497737668,
          0.002144259310577379,
          -0.2865204866314386,
          -0.3411919411520302,
          0.3348952909436511,
          0.8070415440550722,
          -0.17468561700148522,
          -0.5279130345099321,
          0.31726806555812437,
          -0.5153230407702916,
          0.35677727233226886,
          -0.37685548774332706,
          0.16275736164516963,
          0.15021955888330707,
          0.8255985036859426
        ],
        [
          0.67170164176689,
          -0.4446358966902878,
          -0.8520135558284745,
          0.12388872417609598,
          -0.02628559376916695,
          0.8277538510049434,
          0.23616656197622743,
          0.49867014717820757,
          0.5038440651148053,
          -0.7616523181186162,
          0.7725671499134621,
          0.32537890700273997,
          -0.3973811542761415,
          0.30327561147169635,
          -0.7966963937901771,
          -0.47831954743159955,
          -0.016762577115184252
        ],
        [
          -0.05547601246855416,
          0.8425237336693199,
          0.4475995135793953,
          0.0655131754416064,
          0.6153748563282144,
          0.4873344007682039,
          0.5703734817707,
          -0.25217318236340847,
          0.8359014359744799,
          -0.22102270226416842,
          0.4349918704343416,
          -0.44346794897908226,
          0.8486098416452479,
          0.30797482850187796,
          0.17453527840906702,
          0.6107334137384037,
          -0.35280141729404146
        ],
        [
          -0.6487725573091395,
          0.6593902220748205,
          0.06955809643548971,
          -0.012097799269091492,
          -0.7885594380026523,
          0.7561675869635185,
          0.12501671619947397,
          0.827081073362834,
          -0.0074433629806375246,
          0.8474236377569395,
          0.8456098853637419,
          -0.6421115329834193,
          0.003501879527483376,
          -0.1942098053353638,
          -0.5112011891059761,
          0.3549760463176528,
          0.07714453249371489
        ],
        [
          -0.025006424980623332,
          0.7905579679011818,
          0.29662269157900734,
          0.1743721351817522,
          -0.8312694698519582,
          0.4026279524191889,
          0.8342730164652405,
          0.39157130277114827,
          0.812698783089965,
          -0.0359795947051712,
          0.7784374982384417,
          0.06604991040717556,
          0.06738341927556701,
          0.43038875588003034,
          -0.26497729410899207,
          0.740590565577657,
          -0.05457138199308864
        ],
        [
          0.6689139088717411,
          0.5008266641899424,
          -0.8501116039654176,
          -0.5715148880250724,
          0.015160684855256235,
          -0.42969479425594004,
          -0.6461406668231544,
          -0.10018172435381245,
          0.4405551571002808,
          -0.8018691347894817,
          0.6442567982856529,
          -0.24528722746978215,
          0.2933632573459777,
          0.2161930637329026,
          0.8196559651862236,
          -0.4278352875460608,
          0.2826385020975144
        ],
        [
          0.18793161244022039,
          0.3711660839303741,
          0.2219211066647062,
          -0.4583218777483833,
          0.8498316164871433,
          0.6665928302381936,
          0.13255424895407297,
          0.04119560337648098,
          -0.8055230714121765,
          -0.8207564938111275,
          0.27899805654835585,
          0.09049753597811427,
          0.2627917391931869,
          -0.7212283258365273,
          -0.4430297852274379,
          -0.06839622334424855,
          -0.44798391155568146
        ],
        [
          0.06720165370522702,
          0.4526396971530331,
          -0.2536201886543815,
          -0.5365775969217823,
          -0.5198027617306578,
          -0.6368806937525042,
          0.1220209193888937,
          -0.5090696775349005,
          0.7295744658020751,
          0.8345656100154402,
          0.5948129950952568,
          0.7179496478566558,
          0.39553314202979184,
          -0.6990330148407794,
          -0.6015297050018323,
          0.02537901146089183,
          -0.03573055078756959
        ],
        [
          -0.7922789705533859,
          0.6334444752727317,
          0.06859195375741711,
          -0.3271073395174272,
          -0.2905597945986437,
          0.5332408308968384,
          -0.6494568334783946,
          -0.84578117202076,
          0.006764427056832667,
          -0.014337858992545471,
          0.5925650047648308,
          0.1149150197106128,
          -0.202137211514005,
          0.8132059373465146,
          0.3368793511558512,
          0.666826089052525,
          0.29006880271393953
        ],
        [
          -0.48877707709809926,
          0.46551135393393217,
          -0.12102127704112098,
          0.15598929868533795,
          -0.7976982943721133,
          -0.2114372100402897,
          -0.6492282678310426,
          -0.7675849702309552,
          -0.703497521545434,
          -0.7880808757003261,
          -0.5730589279134016,
          -0.40371994290635943,
          -0.0764334121310406,
          -0.7788883922126054,
          0.4709489516624734,
          -0.5711680749261876,
          -0.051901063167085315
        ],
        [
          0.1419714857603117,
          0.09287127344821144,
          -0.22582711964114466,
          0.056016709665220654,
          -0.685523423561819,
          -0.8201143228226245,
          0.3730352637962664,
          0.2711937845253354,
          0.8511383334926337,
          0.23348197641726265,
          0.6410588737109026,
          -0.6724321549739651,
          -0.798500100609261,
          -0.027094086804936968,
          -0.16480447360200468,
          0.19102287219544434,
          -0.8523944067595836
        ],
        [
          -0.725937830049344,
          -0.6708222085186397,
          0.12309728121012298,
          0.8131642513858208,
          -0.2330467773591962,
          0.03347440913981414,
          -0.17758412795537726,
          -0.3621291076795201,
          -0.23983102585613925,
          0.7149092474135348,
          0.7163026429459789,
          0.31021426619389736,
          -0.19693162672195075,
          0.08235512083422336,
          0.3857300941357351,
          0.8395896556623359,
          0.1783461722931221
        ],
        [
          0.0217294670229099,
          0.6124922298665494,
          0.37355848769817546,
          0.2814505746668665,
          0.8438355874745818,
          0.33216050615539583,
          -0.12283982259507509,
          -0.5360694812233411,
          0.4302847646398644,
          -0.19235747524744207,
          -0.8265506853320005,
          -0.7277893330019527,
          -0.8199418822578708,
          0.5152053834371089,
          -0.8170057829682111,
          0.8467145657433615,
          -0.7752600958062713
        ],
        [
          -0.19042714390888205,
          0.014025585452612677,
          0.02639239839728902,
          0.2759272888577584,
          0.3219827805301594,
          -0.5892816763277122,
          0.6692382470042495,
          0.3533678775649869,
          0.8219559751141723,
          0.6336310976127095,
          -0.8512620336942391,
          -0.6495328737299396,
          -0.21553613752096545,
          -0.06292468774593962,
          -0.8140224477163456,
          -0.17117567871697326,
          0.38455169652514476
        ],
        [
          0.4614633886687731,
          -0.8103939707256023,
          -0.6883591290976472,
          0.27679060535670863,
          -0.22799336454471386,
          -0.02151170704274863,
          0.7238901268476705,
          0.7855471226657746,
          -0.8209038325523114,
          -0.663823062574763,
          -0.06149151318688639,
          -0.7824690481511936,
          -0.6769059823427812,
          0.14882443212601726,
          -0.4534560901074349,
          -0.07084693109886964,
          -0.592523025151766
        ],
        [
          -0.48422276362178424,
          -0.030749208551559715,
          0.4084515779443332,
          -0.7468779891941433,
          -0.2575906550819752,
          -0.4331394741999866,
          0.33568027766088937,
          0.272548994192638,
          0.6932957640163242,
          0.3822196201478958,
          -0.7403089894916918,
          -0.8235007948987788,
          0.3412188206847855,
          0.22846006205396452,
          0.3344381811748791,
          -0.7168180214543585,
          -0.7077839415852181
        ]
      ],
      "b": [
        -0.13528908874041934,
        0.6812606488674058,
        0.18858059729007737,
        0.39844956196731873,
        -0.10338354051213772,
        -0.5589356018116063,
        -0.21286524327407075,
        0.5514213396575671,
        0.65196836004711,
        0.35045625381775447,
        0.41728889086702226,
        -0.09530016129794472,
        0.6803379825478526,
        0.7700233830046073,
        -0.4816514826031469,
        0.7375842527176577
      ]
    },
    "layer_1": {
      "weight_ih": [
        [
          -0.3435071672201432,
          0.290302490275665,
          0.47975518193560274,
          0.3383017423697916,
          -0.3416608625463709,
          0.5080351643825933,
          -0.4951794969033049,
          -0.4405125407678485,
          0.2495554668537524,
          0.5034289091716724,
          0.6090723279739174,
          0.10173938965034757,
          -0.46065200590090316,
          -0.23881200208086223,
          -0.30004128373623346,
          -0.2818056532191966
        ],
        [
          0.6013776348829083,
          0.32039103178578376,
          -0.24045402924360781,
          -0.01342332238859556,
          0.3822436303010659,
          0.2587299578014478,
          0.45706656936987256,
          0.5320204045508423,
          -0.3736697461606177,
          -0.5265634042150065,
          -0.6120607334364392,
          -0.49984533476331994,
          -0.22370273421483122,
          -0.5020394100869875,
          0.03999986942811995,
          -0.4733738244933341
        ],
        [
          0.5978891061076601,
          0.4143417885104017,
          -0.5211323137776764,
          -0.23585874457641987,
          -0.5907802921921161,
          -0.09508832893514152,
          -0.12913852881868032,
          0.38316656211057076,
          -0.5826535830709751,
          -0.5660415045585663,
          -0.3917307573919082,
          -0.5437294629625921,
          0.4227321206382597,
          -0.5722209667256433,
          -0.15614795817858557,
          -0.06447620021539402
        ],
        [
          -0.12718103974098838,
          0.09897276722756077,
          0.13532207102493332,
          0.6051265804973229,
          -0.13357940976990973,
          0.6015640975478886,
          0.42046476088277585,
          0.5900839587196665,
          -0.35436157164861565,
          -0.4232625895828662,
          0.41254071378722834,
          0.5425880683940005,
          0.2750689385491275,
          0.5251326252954129,
          0.09167634019797577,
          0.5875094986280163
        ],
        [
          0.6076075402326631,
          0.2869665808092643,
          -0.5598095225951171,
          -0.253736893262866,
          -0.49389397951030606,
          -0.3713419224261054,
          -0.5082561438811594,
          -0.41635065049160425,
          0.23856936932831707,
          -0.22378919616692144,
          -0.14415150982976765,
          0.01717339424349562,
          -0.30666990722707393,
          0.28955195727022265,
          -0.13420307208991095,
          -0.31960905349798885
        ],
        [
          0.05852824238305443,
          0.5299957936128576,
          0.13804433205319655,
          -0.3322257943940411,
          0.5873193978298195,
          0.5271582239272494,
          -0.022856785355090614,
          -0.5380902209021555,
          -0.46208454091073936,
          -0.3622129836554689,
          0.34442509918264685,
          0.5200185740595413,
          0.5531709945424215,
          0.2943872499637967,
          -0.28097580286335694,
          -0.6097083050393018
        ],
        [
          -0.5409450898248268,
          0.1534125797125172,
          0.3303655764739012,
          0.4797786501749226,
          -0.0038882828490818255,
          0.39241243025929995,
          -0.3991889047848162,
          -0.06147480741188638,
          0.2527054507039609,
          0.34969214303200846,
          0.26477987550188276,
          0.5822560172541118,
          -0.5042571776074114,
          -0.26939434806643714,
          -0.0062585784173451176,
          0.30788888425072736
        ],
        [
          0.37645334949721443,
          -0.2450699205440231,
          0.4078044047966891,
          0.5412926457768359,
          0.04409321694350321,
          0.4169618228204863,
          -0.599163210089882,
          -0.6059997302626587,
          -0.4767157760583773,
          -0.45142164676702334,
          -0.5423789440425861,
          0.4865890035090037,
          0.05444500831896004,
          -0.5794520256678637,
          -0.5974121929073376,
          -0.42847310759421753
        ],
        [
          -0.16689427348203068,
          -0.6004286371815122,
          -0.14787021862552302,
          -0.5017363619235188,
          0.2848909206817939,
          0.4175197826721151,
          0.34434478169882765,
          0.6049677151858572,
          -0.5049912070450605,
          0.05893327475642007,
          -0.4400188596697949,
          -0.2806480222011476,
          0.6048162532924761,
          -0.5129774623643434,
          -0.0864270937350925,
          0.2350022044711052
        ],
        [
          -0.3213697351631597,
          -0.467355044281022,
          -0.3502726041477417,
          -0.45013053108652656,
          -0.4503164797416229,
          0.5864500103549553,
          0.3364143398845495,
          0.16551779192677318,
          0.4276553348232004,
          -0.008391644554334388,
          0.5571703244062465,
          -0.48930596567879264,
          -0.3885982717919652,
          0.4419544331524976,
          -0.05396464015459568,
          0.2769614698650634
        ],
        [
          0.18897005613751616,
          -0.5297585027983204,
          0.2978685288318912,
          -0.4196885908968205,
          -0.5746497116371951,
          0.24163310092305224,
          0.4770439503409549,
          -0.42176493051418684,
          0.22104287449306548,
          -0.5658773789892201,
          -0.4316359699370544,
          -0.22249455014185887,
          0.5944225328027697,
          0.5784571102671174,
          0.19164074540629839,
          -0.4634275522327952
        ],
        [
          0.5563700393241204,
          -0.6073458418452349,
          -0.49191221467221613,
          -0.29836547708865296,
          -0.030502744558321693,
          -0.4774518562782594,
          -0.5206616491421994,
          0.5891676315019141,
          -0.4331934129071183,
          0.3493020977098237,
          -0.37153253757224824,
          0.5628362719232418,
          -0.6075663029927574,
          0.1893885604791572,
          -0.4575142725622962,
          0.27399640157482286
        ],
        [
          0.406538311459828,
          0.027687191438186542,
          -0.05259201160591065,
          -0.334739422453746,
          0.0537468135423681,
          -0.5634073794982345,
          -0.025685774292861563,
          -0.35925893904150724,
          -0.464221925329789,
          -0.36962113090722803,
          0.5667591612331888,
          -0.6025334652424891,
          -0.16996858661541203,
          0.5647170649279003,
          0.029101323731592355,
          -0.24818566560800548
        ],
        [
          -0.07720669514252343,
          -0.573182499153687,
          -0.5849075794737141,
          0.21369979445880116,
          -0.5413114134213334,
          0.5662421365620962,
          -0.5764569530973551,
          0.21819350431812068,
          0.14752753641551608,
          -0.4385389546431961,
          0.6101920495115101,
          0.4091223596244322,
          -0.4841074288232626,
          0.5877778305624781,
          0.46465207991711655,
          -0.3969696312718646
        ],
        [
          0.04839752491525007,
          -0.3863656134118142,
          -0.46451995177190175,
          -0.42300595864140145,
          -0.14234623558963416,
          0.5776661275870962,
          -0.3529645423843201,
          -0.19127092317236288,
          0.06104620163862906,
          0.5847904320311854,
          0.5340359709649403,
          0.20125896260378018,
          -0.32456281312001023,
          0.28333306524353785,
          0.36407934804093955,
          0.4419522242081413
        ],
        [
          0.44491723699148,
          -0.2561298536365608,
          0.5266197138637063,
          -0.41346226271221886,
          0.5255648668557362,
          0.2196712622661754,
          -0.5139460712742707,
          -0.6111219646160728,
          0.14333968283256238,
          0.2991925103592593,
          -0.5920059572185098,
          -0.3149662578256839,
          0.4668122989262822,
          -0.3437124522571197,
          -0.14292709296371597,
          -0.12520199596374854
        ],
        [
          -0.4749845215867905,
          -0.14589242147182552,
          0.571266042999985,
          -0.6062969642032788,
          -0.1852727228932015,
          -0.2274195986462198,
          0.30086436666387784,
          0.21115877355985757,
          -0.597880600996329,
          -0.30127681064336204,
          -0.02646866967280237,
          -0.5762614825577346,
          -0.0317343413752349,
          0.2854281207309818,
          -0.5966637696846014,
          0.49828176779344835
        ],
        [
          0.13545997232732143,
          0.6110520141321827,
          -0.40395863450457137,
          -0.430721265710282,
          -0.45549800407881774,
          -0.46171729428499003,
          -0.598611271937526,
          -0.025503510510111904,
          -0.2651683448427021,
          -0.0847207825619718,
          -0.10337131122026266,
          0.08417583966819375,
          -0.27470274458278454,
          0.5567773273286096,
          -0.5803584348739813,
          -0.2604039365138806
        ],
        [
          -0.26023904877633985,
          -0.03255307307272903,
          0.43927835300331,
          0.39424531920078665,
          -0.15720876528140237,
          0.5419143103671928,
          0.11023984977603829,
          0.1856004212232737,
          0.37528239012028985,
          0.37273344422272503,
          0.4551371417243679,
          -0.10978777525387251,
          0.009333825964452314,
          -0.4108516064858947,
          0.15342716882707164,
          0.257493889644248
        ],
        [
          -0.4122494159273446,
          0.5612337347256235,
          -0.40550811010114424,
          -0.039831652840655374,
          -0.36951270280710885,
          -0.5409617027917075,
          -0.12412127610093682,
          -0.48973360646838276,
          0.5697869623116529,
          -0.012427968461253047,
          -0.18881800312435015,
          0.15054463876483137,
          0.5517461338017808,
          -0.5277240677799407,
          -0.2267159761015583,
          0.4507403816666713
        ],
        [
          -0.49327942940902925,
          0.07645044878364537,
          0.26806600709509554,
          0.4933825467245967,
          -0.5630639200417484,
          -0.20217305683067965,
          0.6073857817390518,
          -0.45803594443462003,
          0.46969608764902593,
          -0.20467330095163855,
          -0.48148678418662083,
          -0.5448505571138149,
          -0.5301312025465059,
          -0.32575999656390237,
          0.5901888579476011,
          -0.09834034670998282
        ],
        [
          -0.6034510487570146,
          -0.4973083353365306,
          -0.5035121164163767,
          -0.3270776523651749,
          0.3426263757888057,
          0.23899494516503594,
          0.406372624923808,
          0.5370101049733524,
          0.25030901452087895,
          0.599541325190377,
          -0.06222361777817742,
          0.5438991243235856,
          0.2406431891924844,
          -0.4608138947310406,
          -0.423042594522429,
          -0.46315241695386394
        ],
        [
          -0.2025844676424981,
          0.2670826831672969,
          -0.5821459965085473,
          -0.46446763254732926,
          -0.14965210278483437,
          -0.24612935199408398,
          -0.5386003789211522,
          -0.4060255045637367,
          -0.2543762304527418,
          -0.182179521182099,
          -0.5077066244765024,
          -0.41365859137876937,
          0.6056003909284877,
          -0.589829498877961,
          0.5129940783130222,
          -0.2534829589438423
        ],
        [
          0.4423562722965393,
          0.19363041134969605,
          0.5485684137651163,
          -0.48202997695032657,
          -0.39898676316681414,
          0.0495290357020145,
          -0.34892084693246905,
          -0.24610255878267695,
          -0.5788624316088012,
          -0.048643034387089834,
          -0.264239677094831,
          0.008890364503881254,
          0.25073596023006883,
          -0.43104809630749497,
          0.5780094157672515,
          0.0016894915931658927
        ],
        [
          0.20748113041059568,
          -0.15492361680943295,
          -0.11308635923460675,
          -0.5606883938688729,
          -0.4011002335964222,
          0.32561988089111493,
          -0.40384225140093355,
          -0.5764911666328789,
          0.15134243005048453,
          0.048121339381934525,
          0.30398155717056474,
          0.4775928527815574,
          0.25267128533156613,
          0.5320746291716398,
          -0.2794856461591097,
          0.12740320220585333
        ],
        [
          -0.5904199937513506,
          0.5936503354524274,
          0.17089556240820458,
          -0.47813893557412157,
          0.38532952876724835,
          0.5987545867719748,
          0.5120312181660662,
          -0.0732286586473011,
          0.043680022631572224,
          -0.14831819779015576,
          -0.5437623704034412,
          -0.4321549540393895,
          0.571965564083851,
          0.19526913725322448,
          -0.040531461711006744,
          -0.40120115641486187
        ],
        [
          0.600130224325329,
          0.28917321580401345,
          -0.0042402930104533665,
          0.5387074186217966,
          0.5045810993478528,
          0.4573398994641833,
          -0.340906126099277,
          -0.14083946462489133,
          -0.3752578687739595,
          -0.5333570666941243,
          -0.43901828466303294,
          0.30316828071213364,
          -0.47043776761369327,
          0.44769255144731734,
          0.5661023338061943,
          -0.42830580989309874
        ],
        [
          0.5162372813370077,
          -0.5419968294100103,
          -0.33235183131292134,
          0.34920013239127246,
          0.5651979788850241,
          -0.44737109948727544,
          0.2896037710962638,
          -0.07850942372131131,
          -0.06546405591466509,
          -0.2749326846952529,
          0.46141442735427973,
          -0.5821520058177131,
          0.5914600736731779,
          -0.14008250805881656,
          -0.5664328458203276,
          -0.5890227152771863
        ],
        [
          -0.5869005473392429,
          -0.5001967745208746,
          -0.47074731560433347,
          0.12143511670886875,
          0.5703983533823784,
          0.5006370511102514,
          -0.6045383043835141,
          0.5985182220901355,
          0.22240981883100608,
          -0.13804590042427256,
          -0.14962947378316838,
          -0.04427598804347399,
          0.48379769318371735,
          0.43478073161746944,
          -0.5648531180654229,
          -0.12350774156546246
        ],
        [
          -0.48130115353547787,
          0.1507600657481154,
          0.6047130164436463,
          -0.3359343105955296,
          0.5898841528601568,
          0.6061025218396445,
          0.6107217455182659,
          -0.43728882044545514,
          0.15483025518548688,
          0.16862372492629263,
          -0.08378727978768019,
          0.008832432448646843,
          0.33151682647241587,
          -0.10153170567129555,
          -0.4800877137143772,
          -0.4107574155086119
        ],
        [
          0.5300945499899201,
          -0.46937371226208857,
          0.5583913264899798,
          0.4038159031602835,
          -0.07177376640519884,
          -0.1849150994022214,
          -0.4229171804731795,
          -0.2732066322202378,
          -0.17672694718876397,
          0.08543595315850272,
          0.5006055447306434,
          -0.5580384890147858,
          -0.01520177098225628,
          -0.5833453651313273,
          0.6060673793561937,
          0.2951677049612065
        ],
        [
          -0.2264979315219875,
          -0.2982942632677569,
          0.12344999695328152,
          0.44544086892961055,
          -0.5532781252187442,
          0.4773047284953329,
          -0.18244402874552335,
          -0.5658899328672451,
          0.5443918972579429,
          -0.07345838344275946,
          -0.22766633567461925,
          -0.5670978786295074,
          -0.17602481447053164,
          0.5507591556323468,
          0.3009312960734182,
          -0.41316532765187314
        ],
        [
          0.19125297388924656,
          -0.042270971807955804,
          0.6115831667181468,
          -0.5806047861902136,
          0.2551854034412371,
          -0.4994397438708419,
          -0.19128992887239354,
          -0.4493631604501317,
          0.5793572394010367,
          -0.1936694867850718,
          -0.14068016066786876,
          -0.5473260944643548,
          0.6111691191473194,
          -0.5728853063336146,
          0.21861790108099766,
          0.00471556111531668
        ],
        [
          0.5678766351008928,
          0.05528714352829078,
          -0.09702891684003012,
          0.2698426804205426,
          0.5275150355298739,
          -0.034832047361551544,
          -0.5725278502317137,
          0.3740492300604771,
          -0.3225073593788846,
          -0.19940600722016227,
          -0.33407189653403035,
          0.5899341709709927,
          -0.0845726757241061,
          0.4903340469856019,
          0.41550423351610366,
          0.5698523428068967
        ],
        [
          0.10558713770757022,
          -0.30359280761250623,
          0.16133912929026606,
          -0.5650524492863335,
          -0.3537193046675562,
          0.2231071026502509,
          -0.19998787399134504,
          -0.5891528621723437,
          -0.5391872513583809,
          -0.5310314239742264,
          -0.5266993270754405,
          -0.045321647055384884,
          -0.3246088270260306,
          -0.3400500450351964,
          0.4350818630012383,
          0.43102615050660265
        ],
        [
          0.5934271977310306,
          0.019363086377738425,
          0.49271580346793975,
          0.23637897309468248,
          -0.2331374682338096,
          0.2610990193499898,
          -0.21294631128748348,
          -0.5816580803931889,
          0.2067284380590132,
          0.4860809310339067,
          0.5844071825196067,
          -0.170683382505526,
          0.24089925160775905,
          -0.22937854415128922,
          -0.27113406069696283,
          -0.2756767135077264
        ],
        [
          -0.33143705568978976,
          -0.40800534172861275,
          0.16679726384426485,
          -0.5051370447127922,
          -0.5224197071602859,
          0.3466023808398645,
          0.20196108539542657,
          -0.29431423226304226,
          0.10349725591468961,
          -0.26769978838914565,
          -0.4428283735330436,
          -0.5767175488105217,
          0.015056407351556111,
          -0.495868728979893,
          0.5654313692078157,
          0.16031870559550077
        ],
        [
          -0.48192594542288575,
          0.5023149277030248,
          0.15210041533437013,
          -0.03443371687442742,
          -0.43335694402893854,
          0.5714737294154988,
          0.024684970412807705,
          0.5715639232380283,
          -0.5780856410542737,
          -0.3650949065510941,
          -0.6069970762303128,
          -0.5893871757061495,
          -0.5838243215044572,
          -0.45497676661429964,
          0.11951948696550874,
          0.5953516740079912
        ],
        [
          0.5456242658076873,
          0.4607268110010092,
          -0.5738893040221594,
          -0.19322477046683828,
          -0.4843419798798263,
          -0.28325670806368447,
          -0.46863233418886285,
          -0.12343608913184284,
          -0.3670969300004467,
          0.20986445296490364,
          0.16593963402134293,
          0.2101630932745545,
          -0.4441331625698532,
          -0.5298246311796614,
          -0.19514189972205553,
          -0.15584396284540059
        ],
        [
          0.08700327016468468,
          -0.06433181451558967,
          -0.22751434798204084,
          0.3973792860952019,
          -0.5384575527179982,
          -0.11822761127373393,
          0.26705730032867137,
          0.44705119016997275,
          -0.3466601497251951,
          -0.28286865864481253,
          0.5768298766234807,
          0.10964066616205514,
          0.13454806226459193,
          0.5990690206115314,
          -0.153442948519384,
          0.5575656209750328
        ],
        [
          -0.4892997056802736,
          0.020024648778623755,
          -0.24402538811151514,
          -0.1235218473308678,
          0.587539822652817,
          0.6029028924838167,
          0.2509840394336673,
          -0.51397801936876,
          0.01272282551739956,
          0.02619221689480511,
          0.5372214855941118,
          0.3940671669493909,
          0.025474194688883234,
          -0.28540381941095955,
          -0.5187503605627326,
          0.5756113872926627
        ],
        [
          0.33830953889893856,
          0.10928638462651608,
          0.463316791960094,
          0.5755050631770104,
          0.39609282955641056,
          0.10721476074027192,
          -0.5726342304489646,
          -0.20648295260201194,
          -0.3250282816017318,
          -0.22894912324302585,
          -0.1479217773473671,
          0.5652698074964071,
          0.5554591249135417,
          -0.45803902458836887,
          -0.4992451932736773,
          0.2589522639087918
        ],
        [
          -0.4448173317472312,
          -0.35978663575894254,
          0.2212229946555453,
          0.5519846837561948,
          0.24240371320958276,
          0.38961938684432806,
          -0.49300477528386255,
          -0.31325264043707207,
          -0.3513413726635668,
          -0.5714972082747586,
          0.2730710486596475,
          -0.22998810403969172,
          0.07888229620346476,
          0.09792808561874633,
          -0.5894556047535585,
          -0.08321247819210731
        ],
        [
          0.2779748047344184,
          0.6006141653730277,
          0.4406399046805336,
          -0.011880956371727924,
          0.1127283850137093,
          0.2042483149544968,
          -0.31293868193306257,
          0.26817670390459525,
          0.5358536094118256,
          0.5117491374733181,
          0.01796055031106436,
          -0.01025019811676664,
          -0.20445322133065458,
          -0.35804813887433745,
          -0.1420472971714316,
          0.470554620703892
        ],
        [
          -0.45159538604863164,
          -0.5682477768725045,
          0.5791845653876615,
          0.47876995828814417,
          -0.010045654732223186,
          0.39530570401865006,
          0.5577352500296153,
          0.006194720378823848,
          0.188522425781378,
          -0.2036080421916418,
          0.5009887770012451,
          0.5248935513017725,
          0.27095885822257193,
          0.5621842251215117,
          -0.47144478245983557,
          0.23471373227829462
        ],
        [
          -0.47102128575597657,
          -0.11155367176659314,
          -0.14976635311141995,
          -0.08555292350255739,
          -0.5928108194892492,
          0.5073838973434159,
          0.5353389663034949,
          -0.35353642587311124,
          -0.3386298899869652,
          0.47298041049528194,
          -0.11094170507796519,
          0.32911783710507614,
          0.598600990468257,
          0.01209192008011073,
          -0.5066872514195022,
          0.22845575321417955
        ],
        [
          0.41835865017770213,
          0.2770433890347872,
          -0.29066180722633866,
          0.37392504789327163,
          0.11044034694655669,
          -0.5141162092975237,
          -0.4069487685710567,
          0.5603136876426569,
          -0.6023463189464713,
          -0.6102075236598573,
          0.5836572025173212,
          0.3712551096258314,
          0.17485211458181327,
          -0.2941097418657991,
          -0.33874406564618154,
          0.298261828816654
        ],
        [
          -0.5766483022377259,
          -0.09280457889837235,
          -0.38684125478407816,
          -0.3073073190409407,
          0.41831513514243257,
          0.01337022376384589,
          -0.2924167171321969,
          0.3949037249899199,
          0.24524848772478347,
          -0.5966236408071267,
          -0.5367246806212944,
          0.27650517509168504,
          -0.23409093842457251,
          -0.4353318174586941,
          0.6032546741126941,
          -0.16490326220557916
        ]
      ],
      "weight_hh": [
        [
          0.41466480752669876,
          -0.1968641913148776,
          0.5966451823599104,
          0.4560160589472293,
          0.46489132896943386,
          0.08908624423143008,
          -0.5007284060103196,
          0.019844986505926143,
          -0.17032711097863706,
          -0.5570839010176255,
          -0.3088510594528345,
          0.17192639373031338,
          0.5137862119748609,
          -0.1638306181195039,
          0.559267836215678,
          0.09880752335652931
        ],
        [
          0.5119403120199313,
          0.07873967609527688,
          -0.4691865176233,
          -0.12741615284123414,
          -0.1753085699580169,
          -0.3552364711288672,
          0.3636403186071536,
          -0.18691633327234597,
          -0.5376575348599101,
          -0.5520634670781477,
          0.465715815662028,
          -0.2534420483228368,
          -0.5887758782986962,
          0.3271552685493959,
          -0.1493732987757086,
          0.42978408892439735
        ],
        [
          -0.44472097362521024,
          0.5708311187304482,
          0.022173798479954043,
          -0.4844278760446838,
          -0.06613179504860733,
          -0.4020412699804602,
          0.30032286595263413,
          -0.26031298689361837,
          -0.5109115294232394,
          0.29442851084163546,
          0.18503255374651684,
          -0.097999269375602,
          -0.5887503998873891,
          0.4253752459066913,
          0.38974048087518853,
          -0.050842445213964305
        ],
        [
          -0.538962126995389,
          -0.16403139295002672,
          0.3780264700673541,
          0.26607367510887714,
          -0.6121568752143148,
          -0.3470597044406186,
          -0.495850774836098,
          -0.0044971879709841955,
          -0.5624385499828104,
          -0.3582989981719825,
          -0.0061745689099768075,
          0.41592189585383865,
          -0.2891776699466367,
          -0.2715293818399324,
          -0.4388165001781775,
          -0.0966957886729557
        ],
        [
          -0.10634291233197035,
          0.11810967945339812,
          -0.14404200607397505,
          -0.25405045230806583,
          0.6045199018743463,
          0.5832926397353795,
          0.6055764211322545,
          -0.4929566609481774,
          -0.5093185476818501,
          -0.2681771057682285,
          0.11578401952341244,
          0.028263410546505607,
          -0.0634701255820539,
          -0.5956127953190554,
          -0.3042896368105891,
          0.5319719694261682
        ],
        [
          -0.4120382471290346,
          -0.5645218872267395,
          -0.5548653417796825,
          -0.3477050900763206,
          0.19376827997253476,
          -0.0002448270575264866,
          0.552030615961925,
          0.5015891292840513,
          0.3497718245146295,
          -0.5185336785069377,
          -0.2034128168066512,
          -0.08043829331654062,
          0.0009490751280032406,
          0.6072933251521004,
          0.31118154807395426,
          -0.5490932724477415
        ],
        [
          0.463050566024114,
          0.5037823075313521,
          -0.612128607109238,
          0.07150433119642952,
          0.37117534735912705,
          0.5825772722903328,
          0.4860040542438977,
          0.46530290131533736,
          0.33625223397477977,
          0.5557018493245287,
          -0.2912462533911619,
          0.5819368732061478,
          -0.5867922594969779,
          -0.17617093991036248,
          0.39783826626509877,
          -0.31220390885368055
        ],
        [
          -0.5709827805432033,
          -0.4739074755479188,
          0.5944125457472174,
          -0.38878916071638026,
          -0.350292596529318,
          -0.5713356474941705,
          -0.034670035798467946,
          0.6088463271147635,
          0.4378840888547695,
          0.5695722920495028,
          0.05778783238035434,
          -0.5865299640321809,
          0.21063586075085972,
          -0.055573525850689864,
          0.5746849760647212,
          0.5412879081395692
        ],
        [
          -0.5354028198006511,
          -0.5975477423389481,
          0.5775954081124388,
          -0.18099598626214525,
          0.3905858930451236,
          0.3608550252125218,
          -0.5503441271798385,
          -0.6076810019953566,
          -0.03948187106453982,
          -0.5441498376822387,
          0.5496085042796661,
          -0.5987041871314962,
          0.03554555632714429,
          -0.2620571731941594,
          -0.4711928211833031,
          -0.24203804026029813
        ],
        [
          0.3815629912589341,
          -0.35507500322943164,
          -0.11493092673784705,
          -0.5924157708306431,
          -0.5597598275393737,
          -0.049736003958466446,
          0.5499811280069633,
          -0.31656449427446104,
          -0.026538916342445762,
          -0.14470155573114102,
          -0.5833512507982038,
          0.285951745192046,
          -0.39993228966418015,
          0.05430837805538635,
          0.1912506299962815,
          0.36386869506780184
        ],
        [
          -0.5554780010425993,
          0.6070481293187335,
          -0.4304338161130842,
          -0.5875307115214751,
          -0.5912543058728604,
          0.4329466653976979,
          -0.36942090343630407,
          0.3972543841053655,
          0.029294866482465376,
          0.44424544198812876,
          0.5511481238957952,
          0.6121854261267008,
          0.5885887116562853,
          -0.37945136288349424,
          -0.19564677472859643,
          0.38498189179908526
        ],
        [
          -0.5053659510175229,
          -0.4054781973231152,
          -0.320089992087443,
          0.5995527050222662,
          0.30474157820724046,
          0.1937089025008939,
          0.15277013394353567,
          -0.0682771790700315,
          0.018234944532965702,
          -0.5676149679554057,
          0.012508073033162037,
          -0.3962219799269462,
          -0.5797867861993088,
          0.0024544847292122807,
          -0.4427401171185143,
          -0.35623346008699674
        ],
        [
          -0.5209539708935575,
          -0.4913330410406883,
          0.24955716137033834,
          0.3835245959360789,
          -0.3734650227989982,
          0.1587320882731531,
          -0.3893788989756892,
          0.5741531283947281,
          -0.17204116489029436,
          0.12269337374494005,
          0.5650067352263464,
          -0.22596714315072763,
          -0.045918568578392494,
          0.4631035989333865,
          0.5738203116115144,
          -0.4226951009326315
        ],
        [
          -0.5913446857517205,
          -0.5204949179367692,
          0.38102705389997693,
          0.08186980054591242,
          -0.43423333113330037,
          -0.30812554209133036,
          -0.1776281944129386,
          0.2969855718412331,
          -0.08776467985480207,
          0.3544205131256799,
          0.4201682864098635,
          0.33328219953203264,
          -0.6094533275365698,
          -0.584511042193206,
          0.07732295240766829,
          0.5840191872085438
        ],
        [
          -0.594578818279013,
          0.02620605805443399,
          -0.20732890297598588,
          -0.5751815024865033,
          -0.14011226404349109,
          0.16010809481706523,
          0.5435683961097468,
          -0.3284018951240129,
          -0.38264382589028734,
          0.5185624177057571,
          0.37226660177382465,
          -0.1837149685359914,
          -0.5393566597666065,
          -0.46943099682689843,
          0.331520360970051,
          -0.4300882974883644
        ],
        [
          -0.05261025759303839,
          0.4965938071722653,
          0.577624055132814,
          -0.11333123701500425,
          0.4448764206511924,
          0.5368053191927493,
          -0.5502773458745149,
          0.5919280406805854,
          -0.4028204752547434,
          -0.6040426812507796,
          0.2236763623004724,
          -0.48226273669798625,
          -0.10201733322650364,
          -0.27639253255532686,
          0.11170133813824035,
          -0.24731756545956146
        ],
        [
          0.552481206752832,
          -0.5361078173940003,
          0.25830920031406157,
          0.4429346101195306,
          -0.03420143996068392,
          -0.1552420401856412,
          -0.5392035274238767,
          0.32552532593444916,
          0.6066475242633975,
          0.6119115804695388,
          -0.1156605839453188,
          0.5415140783495547,
          0.12922168110928012,
          0.5911990251703181,
          -0.4351976655450338,
          0.25975007739156786
        ],
        [
          0.5030985754236594,
          -0.4769004561873119,
          0.4748787179871157,
          0.06445297480964773,
          0.3048317724548725,
          -0.5670484265149246,
          -0.3962102109689484,
          0.26003498557969795,
          -0.01906960000444169,
          0.1332631284866257,
          0.15482643368390714,
          0.28650800818059097,
          0.13431633058243042,
          0.5854705298570009,
          -0.5846105291977386,
          0.11724887318817556
        ],
        [
          -0.09283730681872004,
          0.2876453999022972,
          0.23597367091735877,
          0.5371962717381003,
          0.5498146375571387,
          0.09723104568367058,
          0.5170870678637784,
          -0.4855821835548987,
          0.5896976919274226,
          -0.14282011229066055,
          -0.516974955136898,
          0.054291611161710884,
          -0.4190613645064316,
          -0.12467048704593786,
          0.4215266625280045,
          0.3592331546447377
        ],
        [
          -0.4324606438382652,
          0.1517932880469688,
          0.5858826246587401,
          -0.47976851522697866,
          -0.4736560118004952,
          -0.5241203605170026,
          -0.40162885221900757,
          -0.2700159940484862,
          0.09762940886815841,
          -0.45144192006747397,
          -0.5849827477260969,
          -0.585480802556517,
          -0.3848107189944428,
          -0.3279927830414145,
          -0.5790802529224727,
          0.5160982179526938
        ],
        [
          0.43742746309111147,
          0.5409614099575037,
          0.6088707109464946,
          -0.21194833453349166,
          0.610888241075789,
          0.4616435350516055,
          0.2446327798393536,
          0.39623774930020783,
          -0.19145956908448436,
          0.3917517120830061,
          0.22244812454254903,
          -0.17004432480186832,
          -0.3924300981808396,
          -0.30469525447248336,
          -0.1278090594367951,
          0.3033656446794726
        ],
        [
          -0.2509756249507818,
          0.44612735818050364,
          0.2885967998578045,
          0.5148078189479555,
          0.5814640138487475,
          -0.6088388265333566,
          0.5195460616644103,
          0.34890185566405674,
          -0.0816729545859659,
          -0.1892296637630263,
          0.10994070399816369,
          -0.3348484732357925,
          0.17444320253933643,
          -0.34216941427857706,
          0.58551980915224,
          -0.5609629106084386
        ],
        [
          0.4780725001572457,
          0.5471660646351837,
          -0.47108729844468034,
          -0.0031524567433518502,
          -0.3599486564565836,
          -0.45828505238414985,
          -0.11996467465093996,
          -0.33366159147393637,
          -0.4122090191411952,
          0.22484466445480977,
          0.5184162145704654,
          -0.5876124854781435,
          -0.11549008850115478,
          0.5737151103759794,
          0.45712547791336955,
          -0.1692063905200068
        ],
        [
          0.5697211767401646,
          0.4816954720967046,
          0.21709972980280723,
          -0.5708226387227571,
          0.24175246838262998,
          0.5313318247792089,
          0.37647646898985143,
          0.22556657042903372,
          -0.3124650818229474,
          0.45803092678747737,
          -0.5513987724683207,
          -0.42626632385948227,
          0.3123433662637676,
          0.5238305072530549,
          0.27578961144262215,
          -0.2555832661039858
        ],
        [
          0.05756511610114834,
          0.177203959195518,
          -0.4898474197804555,
          -0.019709073444136194,
          0.3907932213543295,
          -0.3388587077492006,
          -0.055450264546078376,
          0.5726973501308732,
          0.41745761173856044,
          -0.26614140451487267,
          -0.5755146988669282,
          0.5529888330784967,
          -0.5905393177209114,
          0.37323552974927476,
          -0.3160011105664657,
          0.24108784934063443
        ],
        [
          0.4391682948741027,
          0.2964423425743731,
          -0.40302281683674124,
          -0.08266217795278263,
          0.4265521120244573,
          -0.2545779229267378,
          0.04159413684880098,
          -0.21590199067485066,
          0.0701771150015773,
          -0.51696773442765,
          0.5841128704628016,
          -0.17696803935979982,
          0.39301549674719904,
          -0.36281578634958955,
          -0.5970314018530275,
          -0.4881045405636978
        ],
        [
          -0.5141196172562499,
          0.44678201443266263,
          -0.0034424088302157374,
          0.020530579880244537,
          0.32689452843823197,
          -0.007313939134916736,
          -0.3542255622556599,
          -0.47883721968289394,
          0.5886258078099957,
          -0.5679062340612427,
          0.36087425115549654,
          -0.07295976899117129,
          -0.5585495240085498,
          -0.48620224603220785,
          0.052103141585639556,
          0.45843451249380496
        ],
        [
          0.4040555500263292,
          -0.37425132902575936,
          -0.36895139051624937,
          -0.16739575747807395,
          -0.36683451897228386,
          0.5442944841289004,
          -0.4935833759019991,
          -0.22822063325253583,
          0.5332370049523549,
          -0.5734229185452788,
          0.45835086397428326,
          -0.1375755803862379,
          -0.553153855235136,
          0.07564140547778331,
          0.40847367945493707,
          -0.5619894157907507
        ],
        [
          0.5985980228544237,
          0.5325382119126034,
          0.2596624288969197,
          -0.5997376322067939,
          -0.11007366923049411,
          -0.3965085491162855,
          0.09157466182612861,
          -0.03402826755817023,
          -0.5495652427847665,
          -0.4697606455141182,
          0.5942018856308524,
          -0.4783256439254914,
          -0.2600928885941323,
          -0.1459397292568364,
          0.5706370942243482,
          0.3463340622067814
        ],
        [
          -0.375574741097941,
          -0.5890922453335147,
          0.07249250568207188,
          -0.0566988858330324,
          0.5206069921450605,
          0.509798191651244,
          0.04866310638636262,
          -0.5390553867820033,
          -0.2556942303678684,
          0.6019618953492745,
          0.4735326148661745,
          0.4771825306456172,
          0.19773806161739838,
          -0.3338622977265344,
          -0.4707402991808558,
          -0.3539731157918075
        ],
        [
          -0.2174210095948304,
          -0.5959358691826324,
          0.10473370294031936,
          0.412157772685787,
          0.3991942865752163,
          -0.4417628379404354,
          0.4173287950313249,
          0.062294850444696404,
          -0.4630702924550413,
          -0.5887551276444084,
          0.41181262710573074,
          0.5909939201187406,
          0.42525614035292647,
          0.5715635109546031,
          -0.46423735303180363,
          -0.27082267251529546
        ],
        [
          0.5723474550978325,
          0.5112524952727828,
          -0.39523762102888194,
          0.5995853438261542,
          0.11526919209108955,
          -0.32646403978570027,
          -0.3977544637786553,
          -0.5546264971609668,
          0.5580198306185822,
          0.26481150345232185,
          0.5747278974769621,
          -0.5413632015695694,
          -0.593583017067808,
          0.48768296811511114,
          0.21066523594439313,
          0.45305875246584293
        ],
        [
          0.07659851721224542,
          0.414171168593207,
          -0.3731598803344064,
          0.17163404882623767,
          0.5993761545914071,
          0.08306535383489888,
          -0.44733259939916903,
          -0.1049341681504542,
          0.5989857690465568,
          -0.589361202295728,
          -0.057115288441801804,
          -0.40882385376554536,
          -0.1586848227811531,
          0.04245752857531837,
          0.1143928840163162,
          -0.4269691802611404
        ],
        [
          0.3859489367280252,
          0.192314724753482,
          -0.42668835778337905,
          0.5927625568969681,
          0.21784664583695534,
          0.3445694837917064,
          0.4002826455906623,
          0.604980598625356,
          0.16641915197089097,
          0.39773550318467965,
          0.14119698225877098,
          0.6051739092133144,
          -0.24211595261712926,
          -0.44892600858655096,
          -0.08105605853873721,
          0.5070845036131209
        ],
        [
          -0.19571462540118517,
          0.5942848448812839,
          0.4998516605534582,
          0.08129015233245762,
          0.3621934796404914,
          -0.3910848152064569,
          -0.5901215308041154,
          0.2192717636856204,
          0.34754853587170365,
          0.296283859713135,
          0.03561819838586344,
          -0.5309548103168197,
          0.15141810982603443,
          -0.5683207039509691,
          -0.561751678516214,
          -0.4971960169905115
        ],
        [
          0.14904298927253345,
          -0.00023749923324245525,
          0.6066849248313624,
          -0.5876133923320845,
          -0.5701309950661347,
          0.13706644589327022,
          -0.6080679538525166,
          -0.5660323996626817,
          -0.45607606613626117,
          -0.25706758956118814,
          0.061891563937530814,
          -0.06669519455449657,
          0.02881738197391348,
          -0.11729414450837883,
          -0.48604141821348934,
          0.010754057463639333
        ],
        [
          -0.29340156191197525,
          -0.5151005897218671,
          -0.5721472406098963,
          0.16853562583315151,
          0.43928565153252586,
          -0.12751392192092292,
          -0.46954342555139894,
          -0.517961666341931,
          -0.4652749940889316,
          -0.25747067379113986,
          0.2428117093129566,
          0.2726334461320423,
          -0.06395608415841614,
          -0.280461400236696,
          -0.5137078718322612,
          0.4991268075737578
        ],
        [
          -0.6076595941504287,
          0.6097942276568731,
          0.3146366787785132,
          0.5373770025919364,
          0.38076541428206956,
          0.33181145677328416,
          0.4057697263089195,
          0.44183755430571003,
          0.5458661919461836,
          -0.14804926414722702,
          0.1372824409042227,
          0.1628466748459666,
          -0.20392070299150117,
          -0.20844874030988786,
          -0.1809073432024738,
          -0.31783765075214787
        ],
        [
          0.605738199144527,
          0.28014283486414726,
          0.611878580082899,
          0.28754182507855586,
          0.46555919198960094,
          0.4443825529644645,
          -0.4556567776418867,
          -0.09541617517936096,
          0.07749146524115713,
          -0.5396335879845571,
          -0.11443102240784775,
          0.44164133349554757,
          -0.5018052479589239,
          0.4499228287270556,
          -0.510038067659219,
          0.5964356816823311
        ],
        [
          -0.5191205544950919,
          0.018914273531417947,
          0.1717460016784902,
          0.5755543874980786,
          0.5676985769898191,
          0.2639332551942424,
          -0.2923998886892213,
          0.4687992178383178,
          -0.25005708492891404,
          -0.40747861813720176,
          -0.5918608251802421,
          -0.0890306710069988,
          -0.3429688008840342,
          -0.387430341988274,
          -0.5263112440392759,
          -0.5984690548055033
        ],
        [
          -0.05307458146611055,
          -0.0494264659001612,
          0.11226764570816039,
          0.00706071530935537,
          -0.5499876712101004,
          0.5487832203654299,
          0.2125967069422996,
          -0.12698079880798896,
          -0.49585171122320193,
          0.5656823748948474,
          -0.6007787351178361,
          -0.09999294703202333,
          0.379109779672578,
          0.2722373805668571,
          0.53641570810724,
          0.122710594481654
        ],
        [
          -0.056533800051157934,
          0.6060492911472344,
          -0.17742600858327173,
          0.5418952251766374,
          0.3349708878779245,
          -0.5598864333815651,
          -0.2765925255736034,
          0.3331289442037154,
          0.5996889111440606,
          -0.42635255792928256,
          0.5405556891076915,
          -0.5448198639679183,
          -0.5763881499971373,
          0.24855943917263246,
          -0.5137862650580807,
          -0.4664579497780167
        ],
        [
          0.5913796303306544,
          -0.5837541149336951,
          -0.2917772752356067,
          0.03384570116841623,
          -0.264068446621805,
          -0.26498036018168436,
          0.5862284171652588,
          0.32502930783612793,
          -0.5977281071306358,
          0.5280308954923822,
          -0.26151860000852273,
          -0.11532660413128976,
          -0.31486085595003865,
          0.5703916356752037,
          -0.596876770479584,
          -0.5440639638268046
        ],
        [
          0.07771889525317677,
          0.055450952090302486,
          0.3088674639796245,
          -0.2022426983914561,
          0.26385590807546244,
          -0.32603534907204096,
          0.2574354052358192,
          0.05213961966464764,
          0.030119416487053963,
          0.09447157152843288,
          0.43164761866574697,
          0.13963907191136105,
          -0.41760258908611964,
          -0.6063036896632347,
          0.13095269747683103,
          -0.3387322530463921
        ],
        [
          -0.48985961734101324,
          0.5363595314290033,
          -0.0747741961265721,
          -0.5014912901284554,
          -0.2772700999870121,
          0.5277165389895955,
          0.3320676487251204,
          -0.31160560983570246,
          -0.518338101913338,
          0.033066150111163095,
          -0.5098103522097212,
          -0.6114960471940526,
          -0.37959537308690383,
          -0.05570226745582707,
          -0.5536888217907477,
          -0.31150666706984653
        ],
        [
          0.4424947954256566,
          -0.011835208303765943,
          0.40872166354084105,
          -0.46387839325255853,
          0.5916361388675884,
          -0.28215457348443357,
          0.02903986479110876,
          0.6087425479131852,
          -0.1940246327718801,
          -0.4963728824623685,
          0.3944519357217162,
          -0.42620241842555107,
          0.18461328614587758,
          -0.552215366261264,
          -0.42764957350411537,
          0.04987825444994065
        ],
        [
          -0.10619475967248582,
          -0.015959226363749135,
          0.17340904371994426,
          -0.5939635645763429,
          0.3036724198764239,
          -0.08084494836888856,
          -0.39604476426880153,
          -0.122364393298376,
          0.23079485014921308,
          -0.5150409088300824,
          -0.47163888738249615,
          -0.3836215298691581,
          0.6094967258065731,
          -0.03958178322846251,
          -0.463579993884102,
          -0.32019066704588106
        ],
        [
          -0.15538466293394343,
          -0.4747319877088704,
          0.150123885121335,
          -0.04099660965482943,
          0.5279207017690202,
          0.39578672827180417,
          0.009912467590655893,
          -0.044128670445859,
          -0.4773142531076828,
          0.4546149615489088,
          -0.39224291185748006,
          -0.32426618241480376,
          0.48957415125818526,
          0.46318008449935255,
          -0.468855078112973,
          0.1894961441952715
        ]
      ],
      "bias_ih": [
        0.16463385605403213,
        0.038872919532316474,
        -0.0062167313462049845,
        -0.08866120535075613,
        -0.07523967730494636,
        0.07824759729618924,
        -0.16652893436377778,
        0.07398988867703699,
        -0.13864151011132028,
        -0.07450585907330523,
        -0.047301367575314585,
        -0.06026264242025864,
        -0.14869800397802563,
        -0.10813638525687755,
        0.17431495134352515,
        -0.015579207190247746,
        0.15288445385376992,
        -0.12432658444253802,
        0.12930304443968915,
        -0.0018234059399199753,
        -0.029828272609255524,
        -0.12415349534576008,
        -0.09182058339433384,
        0.13345584442543768,
        0.11187980805826675,
        -0.19891054798122962,
        -0.03209454928021965,
        -0.10904113492536834,
        0.024617055474999955,
        -0.08862285696240327,
        -0.07405592998619731,
        0.11135617122279745,
        0.12052699344833628,
        0.19055402462737375,
        -0.026951506463919583,
        0.1490029917656368,
        -0.1051210006660437,
        0.18919789642962864,
        0.1650704815606484,
        0.10202718617538453,
        0.036102353559740064,
        0.02372234928716277,
        -0.008606419140689742,
        0.022565714858074903,
        0.18652546509579726,
        0.0800624455332159,
        -0.1867441675194559,
        0.023612627741172065
      ],
      "bias_hh": [
        -0.15338284945305458,
        -0.14142186287382638,
        -0.06689752999691231,
        -0.05357984699800439,
        -0.01079858186695462,
        0.16215281259868508,
        -0.08741786519802724,
        -0.1639540113410145,
        0.09365145148428855,
        -0.09804257128087837,
        0.05287110520153887,
        0.13936368815278993,
        0.10395314596863026,
        -0.19765387641870816,
        -0.16247235242633065,
        -0.003193574719791259,
        0.0019320639319703459,
        -0.014873891419091706,
        0.0248866731775422,
        0.0989509375231521,
        0.07470244900028333,
        0.06549640069326057,
        -0.012450265052565579,
        -0.07445473864071045,
        0.1861466541953325,
        0.13029070609396826,
        0.13212109631874752,
        0.18631131841482734,
        0.19663970068093956,
        0.03404099212236092,
        -0.14280898422705515,
        -0.1880266405401291,
        -0.16169823988586327,
        0.008805709130510847,
        0.15601528696363526,
        -0.04238082982734745,
        0.17845220176449073,
        -0.15232457921455317,
        0.13773093554468158,
        -0.004383249413382639,
        -0.04744875565797693,
        -0.0005725101197539828,
        0.025818045045566673,
        -0.14650614605237322,
        0.12936751732981827,
        0.059066948615418335,
        0.039863535706477826,
        -0.03893931180360674
      ]
    },
    "layer_2": {
      "w": [
        [
          -0.044113351396953826,
          0.08889839469268401,
          1.1278956455320124,
          0.6799928405793678,
          -0.6397511733171076,
          0.33535576954663004,
          0.6998246073411529,
          0.5943568783495365,
          0.4168310031044624,
          0.1996732477770904,
          -0.05650354218646281,
          -0.6521870843957064,
          0.50261777713771,
          0.6170119462716717,
          0.503725590374295,
          -0.06301842001386104
        ],
        [
          -0.3868875140997423,
          0.8575412002204041,
          -0.1351613612869198,
          -0.722644821913242,
          -0.5788320417181363,
          -0.32775481430135,
          -0.19027404897817934,
          1.0490858632503186,
          -0.5796844879334373,
          -0.4709406360901124,
          0.5896716366784458,
          -0.12315514966981045,
          -0.18137476629164861,
          -0.048130491935507,
          0.9105163696496694,
          0.8359146149620873
        ]
      ],
      "b": [
        -0.3321046072643652,
        0.8813047797192626
      ]
    }
  },
  "input_mask": [
    0,
    2,
    3,
    5,
    6,
    7,
    11,
    12,
    18,
    19,
    27,
    28,
    29,
    30,
    32,
    33,
    34
  ],
  "ablated_input": null,
  "ablated_value": 0.0,
  "output_param": "atan2_signed",
  "scaled_pi_n": 1.0,
  "delta_max": 0.35,
  "normalization": [
    {
      "transform": "none",
      "scale": 0.8655390346546353,
      "center": 0.9204641308303162
    },
    {
      "transform": "asinh",
      "scale": 0.8175600848274288,
      "center": 0.8867681772014051
    },
    {
      "transform": "asinh",
      "scale": 462.6300273768903,
      "center": -333.1697854608212
    },
    {
      "transform": "none",
      "scale": 5413222.0902614985,
      "center": -508770.60939412704
    },
    {
      "transform": "none",
      "scale": 1157.3507227945558,
      "center": 4549.679429911598
    },
    {
      "transform": "asinh",
      "scale": 10.358129862795693,
      "center": 12.17320223341297
    },
    {
      "transform": "asinh",
      "scale": 0.33924629426269115,
      "center": 0.40005844701414567
    },
    {
      "transform": "none",
      "scale": 0.42411593596120784,
      "center": 0.42858041580763234
    },
    {
      "transform": "asinh",
      "scale": 33.09832239288295,
      "center": 82.65759631477488
    },
    {
      "transform": "asinh",
      "scale": 0.0911362193061205,
      "center": -0.04718278665783951
    },
    {
      "transform": "asinh",
      "scale": 0.2151370816795333,
      "center": 0.29274513397808116
    },
    {
      "transform": "asinh",
      "scale": 9.832939972853932,
      "center": 11.55598244317186
    },
    {
      "transform": "asinh",
      "scale": 3.256400734674897,
      "center": 3.827025266270693
    },
    {
      "transform": "asinh",
      "scale": 5107742.117847206,
      "center": -3590633.2113008387
    },
    {
      "transform": "asinh",
      "scale": 10217099.16686349,
      "center": -6706141.091617538
    },
    {
      "transform": "none",
      "scale": 0.5,
      "center": 0.5
    },
    {
      "transform": "none",
      "scale": 1e-6,
      "center": 0.4262529995153208
    },
    {
      "transform": "asinh",
      "scale": 594.4827404994671,
      "center": 716.3429422450554
    },
    {
      "transform": "asinh",
      "scale": 412.89140647256187,
      "center": -302.7939124482325
    },
    {
      "transform": "asinh",
      "scale": 154.12675819494976,
      "center": -169.7611160606572
    },
    {
      "transform": "none",
      "scale": 1.5707963267948966,
      "center": 1.5707963267948966
    },
    {
      "transform": "none",
      "scale": 0.1,
      "center": 0.0
    },
    {
      "transform": "none",
      "scale": 3.141592653589793,
      "center": 0.0
    },
    {
      "transform": "tanh",
      "scale": 30.0,
      "center": 0.0
    },
    {
      "transform": "tanh",
      "scale": 100.0,
      "center": 0.0
    },
    {
      "transform": "none",
      "scale": 1.0,
      "center": 0.0
    },
    {
      "transform": "none",
      "scale": 1.0,
      "center": 0.0
    },
    {
      "transform": "none",
      "scale": 1.0,
      "center": 0.0
    },
    {
      "transform": "none",
      "scale": 1.0,
      "center": 0.0
    },
    {
      "transform": "none",
      "scale": 1.0,
      "center": 0.0
    },
    {
      "transform": "none",
      "scale": 1.0,
      "center": 0.0
    },
    {
      "transform": "asinh",
      "scale": 17774.23743300369,
      "center": 20521.130577512882
    },
    {
      "transform": "asinh",
      "scale": 500.0,
      "center": 500.0
    },
    {
      "transform": "none",
      "scale": 60.0,
      "center": 60.0
    },
    {
      "transform": "none",
      "scale": 100.0,
      "center": 0.0
    }
  ]
}