{
  "format_version": 2,
  "architecture": [
    {
      "type": "dense",
      "input_size": 17,
      "output_size": 18,
      "activation": "swish"
    },
    {
      "type": "dense",
      "input_size": 18,
      "output_size": 9,
      "activation": "swish"
    },
    {
      "type": "dense",
      "input_size": 9,
      "output_size": 2,
      "activation": "asinh"
    }
  ],
  "weights": {
    "layer_0": {
      "w": [
        [
          -0.4603087450939531,
          0.05517380992003951,
          0.23155862242174963,
          -0.8011741907703984,
          -0.3458906247621493,
          0.5400105845032694,
          0.8000035779939656,
          -0.3227712432284674,
          0.44146997881163785,
          0.27232775118476216,
          0.09233446108865706,
          -0.19871963194739695,
          0.5451856346381792,
          -0.5448670279154259,
          0.5211284413423884,
          0.8205088007816854,
          0.7797551690219244
        ],
        [
          -0.41116184343204115,
          -0.40430149132602483,
          -0.6531515853571244,
          0.7912106835767003,
          0.07774163669112599,
          -0.7097327947436199,
          -0.8140270327199716,
          -0.6804170640087086,
          -0.5540075895714167,
          -0.3481059626926534,
          0.36254816624153685,
          -0.8082689410475714,
          0.34646144459917116,
          0.37668715607229175,
          0.2821973364713535,
          0.5613388474999812,
          -0.7027001546450036
        ],
        [
          0.23658106004705215,
          0.5586829972636556,
          -0.6031447655758881,
          -0.6905048923196185,
          -0.22032839596023368,
          0.2370907690422408,
          -0.005936225894466962,
          0.30077319618744713,
          -0.7314937768371559,
          0.1454290086574309,
          -0.8137096122246131,
          -0.12736233615421322,
          -0.46456318680225117,
          -0.15918890779694306,
          -0.3668962422777932,
          -0.6534198050281763,
          -0.8116326955221769
        ],
        [
          0.619333821791028,
          0.4814733876983357,
          -0.29691621916279576,
          0.49173383914050883,
          0.1838835768923759,
          -0.026058987937992883,
          -0.6013612987097852,
          0.704981754724123,
          -0.5829234659635307,
          -0.8139838042329322,
          0.10391492617027875,
          -0.04602362829898454,
          -0.29938783316096895,
          0.10176451020874888,
          0.42463892056614383,
          -0.6850214985932015,
          0.41437505937985586
        ],
        [
          -0.021518889245779604,
          0.019818042547123715,
          -0.531015357127869,
          0.41216670792362575,
          -0.022598743816813704,
          -0.7142605354047791,
          0.02467995050799421,
          0.32926642215025814,
          -0.2704435223975675,
          0.7548577548355453,
          -0.03700343209362966,
          -0.551885198620175,
          -0.7982881375155387,
          -0.7871247040365987,
          0.6705064712339448,
          0.07464032292977929,
          -0.11722344655367123
        ],
        [
          -0.7583784646462959,
          -0.7201085308122462,
          0.7675080465385942,
          0.5784921765500024,
          0.2609643818113012,
          -0.5290675030818728,
          -0.5492310391600044,
          -0.6848926583791889,
          -0.5383888020750625,
          -0.2303643082897353,
          -0.10245454458370606,
          0.4338200214772603,
          0.2032729407969922,
          0.03573383394977203,
          0.2990458285739859,
          -0.3420619144391122,
          -0.7296799838339126
        ],
        [
          0.6717907735022715,
          -0.46801213247582263,
          -0.7500941006338842,
          -0.6710193373288186,
          -0.47120612492743563,
          0.7496041702092227,
          0.6578280019428053,
          0.015836715656860734,
          -0.7274352631763449,
          0.6658260566978331,
          -0.6741498482374542,
          0.7465791032630815,
          0.10468842607122708,
          0.2417642216712228,
          0.15996386733778423,
          -0.09240864079732503,
          0.2176920567524374
        ],
        [
          0.19773118176865134,
          -0.549975215637106,
          -0.48362064809636107,
          -0.0439116018880783,
          -0.6310515435107089,
          -0.5286097966882333,
          -0.6781070873473741,
          -0.7589389962001762,
          0.7842595691806393,
          0.8202766536603046,
          0.3099519477627306,
          0.8231476316993858,
          -0.12002122586336028,
          0.5058578654065546,
          0.5257855867770649,
          0.5132671343808257,
          -0.602820008045446
        ],
        [
          -0.22568043921678926,
          0.1068983275412485,
          -0.3303788818451678,
          0.7969996501808785,
          -0.3192601600081143,
          0.06661087496971108,
          0.7200471472309458,
          -0.32281964973626676,
          0.6863584985222773,
          0.015526428683155347,
          0.18762984785978976,
          -0.24277776258383077,
          -0.3185687088104725,
          0.28328080999595384,
          0.26620726311437926,
          -0.41185459636389576,
          -0.38977445780926945
        ],
        [
          -0.7838916933521587,
          0.12381023555179071,
          -0.3829938719490882,
          -0.8256938338242749,
          0.7968222400636649,
          0.5141909141087166,
          0.8150774768353315,
          -0.4249171682795856,
          0.051018709550902264,
          0.7614640423526118,
          0.4947396560138002,
          -0.40826308348092544,
          0.5500927320638602,
          0.723089084746444,
          -0.06705748699410374,
          -0.7631581737457724,
          -0.816005418865924
        ],
        [
          0.09457165258751232,
          -0.6080812767444875,
          0.1623594935257512,
          0.5056067715168968,
          -0.2792984288467255,
          -0.7918863865618957,
          -0.042560617291053426,
          -0.3111597816824744,
          0.5849755232256251,
          0.7345860883292259,
          0.7652328456880559,
          -0.23015788383057656,
          -0.38192616534425367,
          -0.5323789360515908,
          0.4441754391501793,
          0.7166177108653653,
          -0.5388677261900454
        ],
        [
          0.1382440270712556,
          -0.029432620784639707,
          -0.2281503546385809,
          -0.7165988854311292,
          0.6042383953328256,
          0.16617052434037627,
          0.6822872076367299,
          -0.6456249650213295,
          0.38598992399265586,
          0.4750152377023116,
          0.04942743208163447,
          -0.8041020536616149,
          0.8015986166915285,
          -0.6821747135360018,
          0.05211248555073167,
          -0.1640382335543441,
          -0.5003515660559823
        ],
        [
          -0.2062431797824853,
          0.7781548767885302,
          -0.18428852549554087,
          -0.28989359851214225,
          -0.17649634867987285,
          -0.6770737286198247,
          0.7205741140009376,
          -0.6575776471843255,
          -0.7350969927991426,
          -0.4522228955481059,
          -0.795517310549677,
          0.7606699098046792,
          0.3294304378833979,
          0.01382287931885684,
          -0.19310407181099298,
          -0.5046035837184781,
          0.5148472372874804
        ],
        [
          -0.6248915923764088,
          0.20305540467540206,
          -0.628883530903869,
          0.6000667153220465,
          0.030873607491703647,
          -0.6351195185406824,
          0.48359796314109005,
          -0.32440112566809465,
          -0.44245371750812235,
          0.7733181219553342,
          0.1564586437840899,
          0.017194262164026308,
          0.6623466710763846,
          -0.16598481401844234,
          0.49950656798649407,
          0.13573138328345946,
          0.22776457562689467
        ],
        [
          -0.8199505440888954,
          -0.35863256877151023,
          0.339467596092041,
          -0.6976423511925802,
          -0.6992395981153692,
          -0.19423467690244312,
          0.28943827352291884,
          -0.430893665031467,
          -0.557045425015152,
          0.3471965859413131,
          -0.41256257547173664,
          -0.5956298023674949,
          0.21437887621246965,
          -0.02762768774955815,
          -0.8140476674782569,
          -0.44142962517812584,
          0.8057151824491209
        ],
        [
          0.27297457260762115,
          0.019409781137932347,
          0.6406076622850654,
          -0.7936132245782099,
          -0.3601392711940475,
          -0.42788128899654504,
          -0.8239489016515653,
          0.7289828144139825,
          0.24323329244439051,
          -0.8158000954279808,
          0.46501450367512054,
          0.5480876507449033,
          0.794087790359346,
          -0.09301702830203107,
          -0.638576088754613,
          0.36172371620030175,
          0.7827259058940663
        ],
        [
          0.16341702583508655,
          -0.18714029947513267,
          0.38518684983267715,
          -0.8101247139236275,
          -0.8148550931356331,
          -0.2508582435730554,
          -0.7490661085595617,
          0.09879172593263175,
          0.7244618934319433,
          -0.2232965446716455,
          0.26733263883884595,
          -0.18114174884559264,
          -0.826542582468611,
          -0.7275783044824761,
          -0.6169562709606672,
          0.7495759513427265,
          0.8279230317283544
        ],
        [
          0.5703176835147077,
          0.733480434891989,
          0.6932672615946389,
          0.7222319787634877,
          0.7052555900897675,
          -0.27607093877553945,
          -0.7439542745650871,
          -0.3536773537842403,
          -0.38691850267236755,
          -0.5019954187087197,
          -0.7788701116521461,
          -0.10327904499779517,
          0.35432875166502575,
          0.14552518081599042,
          0.3308336792959794,
          -0.7947092400164284,
          -0.39605567357283483
        ]
      ],
      "b": [
        -0.4349334595060044,
        0.3145479498213204,
        0.6949955763277511,
        -0.35675472692019494,
        0.33258553672403357,
        -0.6569249247564101,
        -0.7556603979004642,
        -0.4134554191671408,
        -0.5886169722063367,
        0.14148584052025748,
        0.2571603936569147,
        -0.6916042385433733,
        -0.14041503332924088,
        0.424188870023102,
        -0.8178682362387071,
        0.5553998456411073,
        -0.8134697506637629,
        0.12407948853859274
      ]
    },
    "layer_1": {
      "w": [
        [
          -0.8209614894670693,
          -0.9364638908091591,
          -0.9145592932423726,
          -0.3363903776265381,
          0.06108493960389172,
          0.8303120213698056,
          -0.7610730956761574,
          0.09553908109342313,
          -0.8249399024462589,
          0.6964660489685581,
          -0.6895853138549028,
          0.7136512994299358,
          0.7739228881601152,
          -0.8648746634899233,
          -0.6237418621430395,
          -0.5964141182855431,
          -0.6791826169670845,
          -0.7358188755966482
        ],
        [
          0.5244897179136718,
          -0.5195798209885429,
          0.5538852406145174,
          -0.6758832455138064,
          0.4304007342889118,
          0.10472635378216033,
          0.44063532864987165,
          -0.4370020658363558,
          -0.3049016071984567,
          -0.07998725312071453,
          -0.28864191136612005,
          -0.8134334722006645,
          -0.13263814190650658,
          -0.9099210178505113,
          0.46451721713083427,
          0.9126417047560045,
          -0.8867275014852845,
          -0.9389886782619133
        ],
        [
          0.6569714053934497,
          -0.3241012232787669,
          0.40901483817864315,
          0.7911054780373616,
          -0.3724469465455367,
          -0.4877002856628869,
          0.5290697687940475,
          -0.23718207552716242,
          0.30833238551976927,
          0.1428767730631506,
          0.8200987939416036,
          0.7110242287858379,
          -0.9249397194773239,
          0.9150000929541071,
          -0.30574849654556424,
          0.3643572471471572,
          -0.6090598027414793,
          -0.8238260901202593
        ],
        [
          0.25764782964157384,
          -0.8818324996128982,
          -0.31770532338779955,
          0.1369157261445373,
          0.5297909539158465,
          -0.8848105505291992,
          -0.4457130669108837,
          0.7850040253885375,
          0.9106738232517171,
          0.8721411078473764,
          -0.8979431650659394,
          0.3704279780094235,
          -0.6842581892841721,
          0.15902674102180603,
          0.6085556747691956,
          -0.6115857571564197,
          0.33206420654352686,
          0.09508879572407158
        ],
        [
          -0.5375354532442562,
          -0.7866412986729101,
          0.25034881563434497,
          -0.862960085984675,
          0.48980236705027846,
          0.9396755134158536,
          0.9214055701990775,
          0.5204704541198544,
          0.8835676992272765,
          -0.42513392485665114,
          0.7072847456377378,
          0.4367004877884184,
          -0.9102777442853822,
          0.21258701626586407,
          -0.8292318468927765,
          0.8447728114900523,
          -0.5187525403121247,
          -0.3143052232201926
        ],
        [
          -0.36968203934666877,
          0.9375015480194142,
          0.6025718581388391,
          0.2024330258261411,
          -0.38964744855893696,
          0.0966613238942029,
          0.47703365533218944,
          -0.802689802924951,
          -0.6834586618009628,
          -0.6822285191035073,
          -0.7760567188402149,
          0.8357275093245642,
          0.7573837850367968,
          -0.8243190171790973,
          0.6654139880481789,
          -0.8074950528088622,
          -0.2845980658145436,
          0.49369146501526817
        ],
        [
          0.619169293130232,
          -0.8985764289150242,
          -0.3766249234943918,
          0.08454321357924144,
          0.38939897136503765,
          0.43086780216943943,
          -0.14861444116550293,
          -0.4387781007549182,
          -0.026021644255188048,
          -0.9054932993240943,
          -0.9034542778287806,
          0.6729721299790099,
          0.01672570600195622,
          -0.5796970822724932,
          -0.2787402673902213,
          -0.8656547824327842,
          -0.49357145153349424,
          0.8667238708231302
        ],
        [
          0.36547918682436964,
          -0.030877665475484317,
          -0.923930576300143,
          -0.9209848658992238,
          -0.08037690659406438,
          0.16406989789731097,
          0.630909663969403,
          -0.8098985660096004,
          0.7492462476724964,
          -0.7113954759422599,
          0.7497144931799355,
          0.1097331388774947,
          0.8651172487794823,
          -0.2588972542660536,
          0.8977368865296584,
          0.1004592575478005,
          0.8659223252822368,
          0.6411941626657631
        ],
        [
          0.7298328457029961,
          0.3979988844799076,
          -0.7241227538137874,
          0.8364525205119586,
          -0.6059253206070344,
          0.8652177696906049,
          -0.03971769360624233,
          0.17691645243544785,
          -0.6856962997460179,
          -0.3011701337400494,
          -0.6881096924008372,
          -0.9184345440420835,
          0.062371239116318256,
          -0.7739402784833762,
          -0.3193890018826687,
          -0.07485604381127153,
          -0.29917529982501967,
          0.21639735072205601
        ]
      ],
      "b": [
        -0.0024461754579907513,
        0.3461312524958353,
        -0.7239982633670359,
        0.30870643614993254,
        -0.706529496544018,
        -0.004716708517463641,
        -0.40921096138719215,
        -0.2908703730910286,
        0.5641195161340087
      ]
    },
    "layer_2": {
      "w": [
        [
          -0.9007729093484208,
          0.280374944752831,
          0.48014614662173205,
          -1.0803203529240524,
          -0.0771220437029625,
          1.4044567295125021,
          -1.0586232477070214,
          -1.386793065060362,
          -0.7759102130878516
        ],
        [
          -0.9790815530976884,
          -0.9332386677174946,
          1.4342197147157902,
          0.6816696505715107,
          1.3492602077268168,
          -1.403547105579006,
          -0.13142639885415064,
          0.060506480775603944,
          -0.7812190326799294
        ]
      ],
      "b": [
        1.1051932092363814,
        -0.23348593136148366
      ]
    }
  },
  "input_mask": [
    0,
    2,
    3,
    5,
    6,
    7,
    11,
    12,
    18,
    19,
    27,
    28,
    29,
    30,
    32,
    33,
    34
  ],
  "ablated_input": null,
  "ablated_value": 0.0,
  "output_param": "atan2_signed",
  "scaled_pi_n": 1.0,
  "delta_max": 0.35,
  "normalization": [
    {
      "transform": "none",
      "scale": 0.8655390346546353,
      "center": 0.9204641308303162
    },
    {
      "transform": "asinh",
      "scale": 0.8175600848274288,
      "center": 0.8867681772014051
    },
    {
      "transform": "asinh",
      "scale": 462.6300273768903,
      "center": -333.1697854608212
    },
    {
      "transform": "none",
      "scale": 5413222.0902614985,
      "center": -508770.60939412704
    },
    {
      "transform": "none",
      "scale": 1157.3507227945558,
      "center": 4549.679429911598
    },
    {
      "transform": "asinh",
      "scale": 10.358129862795693,
      "center": 12.17320223341297
    },
    {
      "transform": "asinh",
      "scale": 0.33924629426269115,
      "center": 0.40005844701414567
    },
    {
      "transform": "none",
      "scale": 0.42411593596120784,
      "center": 0.42858041580763234
    },
    {
      "transform": "asinh",
      "scale": 33.09832239288295,
      "center": 82.65759631477488
    },
    {
      "transform": "asinh",
      "scale": 0.0911362193061205,
      "center": -0.04718278665783951
    },
    {
      "transform": "asinh",
      "scale": 0.2151370816795333,
      "center": 0.29274513397808116
    },
    {
      "transform": "asinh",
      "scale": 9.832939972853932,
      "center": 11.55598244317186
    },
    {
      "transform": "asinh",
      "scale": 3.256400734674897,
      "center": 3.827025266270693
    },
    {
      "transform": "asinh",
      "scale": 5107742.117847206,
      "center": -3590633.2113008387
    },
    {
      "transform": "asinh",
      "scale": 10217099.16686349,
      "center": -6706141.091617538
    },
    {
      "transform": "none",
      "scale": 0.5,
      "center": 0.5
    },
    {
      "transform": "none",
      "scale": 1e-6,
      "center": 0.4262529995153208
    },
    {
      "transform": "asinh",
      "scale": 594.4827404994671,
      "center": 716.3429422450554
    },
    {
      "transform": "asinh",
      "scale": 412.89140647256187,
      "center": -302.7939124482325
    },
    {
      "transform": "asinh",
      "scale": 154.12675819494976,
      "center": -169.7611160606572
    },
    {
      "transform": "none",
      "scale": 1.5707963267948966,
      "center": 1.5707963267948966
    },
    {
      "transform": "none",
      "scale": 0.1,
      "center": 0.0
    },
    {
      "transform": "none",
      "scale": 3.141592653589793,
      "center": 0.0
    },
    {
      "transform": "tanh",
      "scale": 30.0,
      "center": 0.0
    },
    {
      "transform": "tanh",
      "scale": 100.0,
      "center": 0.0
    },
    {
      "transform": "none",
      "scale": 1.0,
      "center": 0.0
    },
    {
      "transform": "none",
      "scale": 1.0,
      "center": 0.0
    },
    {
      "transform": "none",
      "scale": 1.0,
      "center": 0.0
    },
    {
      "transform": "none",
      "scale": 1.0,
      "center": 0.0
    },
    {
      "transform": "none",
      "scale": 1.0,
      "center": 0.0
    },
    {
      "transform": "none",
      "scale": 1.0,
      "center": 0.0
    },
    {
      "transform": "asinh",
      "scale": 17774.23743300369,
      "center": 20521.130577512882
    },
    {
      "transform": "asinh",
      "scale": 500.0,
      "center": 500.0
    },
    {
      "transform": "none",
      "scale": 60.0,
      "center": 60.0
    },
    {
      "transform": "none",
      "scale": 100.0,
      "center": 0.0
    }
  ]
}