{
  "format_version": 2,
  "architecture": [
    {
      "type": "dense",
      "input_size": 18,
      "output_size": 32,
      "activation": "swish"
    },
    {
      "type": "dense",
      "input_size": 32,
      "output_size": 16,
      "activation": "swish"
    },
    {
      "type": "dense",
      "input_size": 16,
      "output_size": 1,
      "activation": "tanh"
    }
  ],
  "weights": {
    "layer_0": {
      "w": [
        [
          0.5389449024847754,
          0.17831080796234178,
          -0.11874622540138657,
          0.12613680994977217,
          -0.5239382831079703,
          -0.6733754807935384,
          0.6882179240487076,
          -0.6296451620404581,
          -0.09330364292396376,
          0.3083472378289329,
          -0.6919386770618128,
          -0.01076300045740819,
          0.27286551774276513,
          0.648108887482957,
          0.681680588778913,
          -0.5566015078600182,
          0.6723014692085278,
          -0.18906386545995024
        ],
        [
          0.005265216576954668,
          -0.6870748301358881,
          -0.48160772147377906,
          0.691539913944472,
          -0.1701325375689735,
          0.27555628604183835,
          0.6812895924970965,
          0.37426624114999485,
          0.6135983279953288,
          0.12898183221335202,
          -0.3732249400827201,
          -0.5891056269401654,
          0.6000857947815352,
          0.31410892657534273,
          -0.6436365599670526,
          -0.490082869144444,
          0.02964622130156902,
          0.4106186766364075
        ],
        [
          0.5866479472323303,
          0.20722350524461608,
          -0.6118428491307575,
          0.6451962070692829,
          0.5866332673044732,
          -0.5835516973103406,
          -0.6920739804854559,
          -0.2147760511955863,
          -0.6728780940416829,
          -0.47717292971660863,
          -0.5767264748864789,
          -0.5940808765207278,
          -0.07783308791121435,
          -0.3713367243945481,
          -0.3122608701332246,
          -0.6928198517727141,
          -0.3101141067195118,
          -0.6581011702573195
        ],
        [
          0.48652584259055387,
          0.2693060398941738,
          -0.6433385693959467,
          -0.1805617717193786,
          -0.5265254998497516,
          0.37979286184444416,
          0.3739833027687187,
          -0.16804245767073722,
          0.6926707425045342,
          -0.031688296286387696,
          0.27084002131773033,
          0.6813095065883168,
          0.49018309061478416,
          0.6252242268554904,
          -0.12153596417049262,
          -0.4487818680828697,
          -0.1345831461097884,
          0.5339778589935922
        ],
        [
          -0.21267893129844967,
          0.03984532854577749,
          -0.4151662819199972,
          0.586674393600016,
          0.6836983685222096,
          -0.5788840933189866,
          0.17639375577043426,
          0.6584220143225052,
          0.5597567910083263,
          -0.6470679530652064,
          -0.6394130017253344,
          0.3715019245828699,
          -0.26438309962682444,
          0.13862619763492168,
          0.6639167009387914,
          0.36327572311913037,
          -0.07086245272506575,
          -0.42725834661466394
        ],
        [
          0.6825333325951393,
          -0.24868096518368155,
          -0.1078229367228749,
          -0.05554992138974679,
          -0.49521585304021914,
          -0.2522186229444143,
          -0.600595759137149,
          -0.5906427711249556,
          0.22335206809121377,
          0.42953195654081333,
          -0.04872119225728122,
          -0.6886714448820157,
          0.16543913626416729,
          -0.3066433827776872,
          0.4114921160723526,
          -0.24876593723002682,
          0.4247980571456498,
          -0.5642470206470478
        ],
        [
          -0.21463461703180053,
          -0.6928139035516879,
          0.4662400594173022,
          0.1344492577391121,
          0.6923292648374373,
          0.19097424038486,
          -0.1554924782984437,
          -0.6179014337230289,
          0.6591100035276434,
          -0.5901051835561999,
          -0.6666138134038586,
          -0.5930641721302291,
          0.5106853623010388,
          0.023725871732949044,
          0.5267157997708738,
          -0.04508164950293636,
          0.6573709590569443,
          0.49277046797869706
        ],
        [
          0.4070925671869938,
          -0.6909342410414813,
          -0.5672688409883704,
          -0.6063965155524038,
          -0.16536761004858536,
          0.6421839805696155,
          0.42035744064998326,
          -0.6920859812526206,
          0.36054735885877376,
          0.6920494542616977,
          0.6756553460801533,
          0.2527511352209525,
          -0.04842127453255296,
          -0.6927442518673458,
          0.5541906334862701,
          -0.6919061988230669,
          -0.6200298073686081,
          -0.15574659712305539
        ],
        [
          0.33339311135076155,
          -0.5333072249105111,
          -0.6484293461900442,
          0.3518674083601345,
          -0.572965652953207,
          0.4599465953573876,
          0.02059127606842015,
          -0.07199245015115185,
          0.42709017648290426,
          -0.21490540709766315,
          -0.27841799895503905,
          0.04543981991914525,
          -0.6013836599553164,
          0.645647266810409,
          -0.6772826518104678,
          0.6466528238758893,
          -0.44203550812655207,
          -0.6896619101688842
        ],
        [
          0.6382935078570366,
          0.455065492843423,
          -0.30087713643866265,
          0.4203254871095181,
          0.001140456209649754,
          -0.6767626988974156,
          -0.47752909550999856,
          -0.17719244349474772,
          0.5862207578549969,
          0.20746206005530277,
          -0.5789034577082933,
          -0.33457576049004717,
          0.1805246336242191,
          -0.6896926618590016,
          0.32866710409173816,
          0.10550823181935864,
          0.26903823865376064,
          0.39965115476231383
        ],
        [
          -0.2127694313607923,
          0.5789747754214409,
          0.1283879368572709,
          -0.6928163187864552,
          -0.13831432363267104,
          0.6418233340484627,
          0.517176871160931,
          0.20544510995248466,
          0.6780486122245095,
          -0.5984916086062864,
          -0.16742770339309587,
          0.04814994900006542,
          -0.2856677373580306,
          -0.6805451766983794,
          -0.1264320037865495,
          -0.45649729829192387,
          0.6880856178787587,
          0.4927080220736644
        ],
        [
          -0.13265550621202193,
          0.5239225339597595,
          -0.6397133048525909,
          0.6584028302452634,
          -0.39059999631956116,
          -0.5718257454782685,
          0.4449880160306554,
          -0.6921956678558852,
          0.23879626495404416,
          -0.20069625616851006,
          0.33532995692893675,
          -0.692538975907463,
          0.11286324573730622,
          0.6009587790791862,
          -0.5970334923940294,
          -0.09370754438529272,
          -0.5196635848552726,
          0.5382083709874697
        ],
        [
          -0.687884409134251,
          -0.5102927924769058,
          -0.5442014117800006,
          -0.4852569002785193,
          -0.6065609039739145,
          0.3305798401505793,
          -0.6521518310635772,
          0.662358067244607,
          0.29061124106588143,
          0.3612294512066805,
          0.5412528128045175,
          -0.68299882501077,
          0.42901347562990955,
          -0.40608204538335785,
          -0.5178891190588151,
          -0.6583891444623887,
          -0.15429358057253595,
          0.03253170637281977
        ],
        [
          0.4155589419424941,
          0.6110216397039607,
          -0.6919677160731017,
          0.6425445844098392,
          0.5489743791189443,
          0.017589373316812207,
          0.5094125803924052,
          0.6650566443005017,
          -0.6925233183386973,
          0.3892752401059363,
          -0.6778332829133284,
          0.6928201984261846,
          0.1851139214689732,
          -0.07985154333027655,
          -0.30293168493881784,
          -0.01761625548478052,
          -0.6906968838082195,
          0.5523709324739339
        ],
        [
          -0.5892171094958648,
          0.6120960069063646,
          -0.6886195804481289,
          -0.46907163200544155,
          -0.3156668198911963,
          0.65681021995048,
          -0.5982167176811671,
          -0.41969127911141796,
          0.04395255493865302,
          0.04699890206077251,
          -0.20362299941707562,
          0.04354597368022395,
          0.651703795497486,
          0.5149648506234445,
          0.6248645406743281,
          -0.45101073126922264,
          -0.39416269771548523,
          0.10296596045729556
        ],
        [
          -0.32239342693521145,
          -0.04985348568438186,
          -0.10400819094196423,
          0.6917778947130275,
          0.07499571905202884,
          -0.24252539112639887,
          0.22183957716446423,
          -0.4988176553066914,
          -0.08860387113842838,
          0.6424131863756284,
          0.20855622788113204,
          -0.6769311349197477,
          -0.6907158745261762,
          -0.5033341459517863,
          -0.26572231968280957,
          -0.27382289950990185,
          -0.3429182384845048,
          0.6094502281974166
        ],
        [
          -0.6041497323426701,
          -0.4786125567390831,
          0.4389520810311336,
          0.6795234071523508,
          -0.627469715393395,
          -0.16371299552077412,
          -0.47052076485832917,
          -0.26626931243445007,
          0.030108305593050222,
          0.17150296814174304,
          0.6922509325355104,
          -0.3154453854758448,
          0.6903100775138207,
          0.6622480476898971,
          0.3003576415380218,
          0.6794751037383462,
          -0.6839862308579745,
          0.408731765583074
        ],
        [
          -0.4528799972368208,
          0.060531075788097244,
          -0.1108542805820486,
          0.2576308490837079,
          0.565076856161778,
          -0.6565605237788407,
          0.5588508468490012,
          0.01158032949512866,
          -0.6928028622815787,
          0.6915896312997181,
          -0.651207975382891,
          -0.29212627207652775,
          -0.19196899322534133,
          0.017321826727589196,
          0.06867889416175532,
          -0.20481067613672138,
          -0.6260230127171287,
          0.02886486118706344
        ],
        [
          0.6708040575839285,
          -0.6686344548186085,
          0.46169683843403586,
          -0.6923590245502846,
          0.515213869548061,
          0.08961923996215393,
          -0.5916020536701889,
          0.373277507450684,
          0.4467933480751196,
          -0.5149287627926403,
          -0.455074276016437,
          0.524882406793032,
          0.24692486999362662,
          0.4515018971445681,
          -0.6025597169958632,
          0.6918119399874776,
          -0.32062734910742735,
          0.40343756216957916
        ],
        [
          -0.5220110172119221,
          0.009123999816060824,
          0.6521596961212306,
          -0.6823305038638386,
          -0.6526169416425124,
          0.18788524928466876,
          0.2895744989996305,
          0.5403384036180141,
          0.6656125246339517,
          -0.6366379991323956,
          -0.4406723644720295,
          -0.13185676722828732,
          -0.05830877841437543,
          -0.6618495692802246,
          0.5842033686489969,
          0.6792783017739557,
          -0.19513798413314426,
          0.3387389908660119
        ],
        [
          -0.08383419305451034,
          0.25574018507374596,
          -0.2592455884621348,
          0.6611749330233387,
          0.37604498819807053,
          -0.4457232937991653,
          0.6128466181708443,
          0.18707609136070824,
          0.08348236981260726,
          -0.6911371317515075,
          -0.5376716285174649,
          -0.5452401229040553,
          -0.1058368347354175,
          -0.2928836458994746,
          0.6185352466575416,
          0.009190854821968575,
          -0.6806898525065127,
          -0.6439243396215789
        ],
        [
          0.19762123083915262,
          0.4387692411863593,
          -0.3488578812793496,
          -0.6710875643710447,
          -0.2700319274396807,
          -0.5268041313252474,
          -0.5499583936981374,
          0.6474819101412244,
          0.6725752971029011,
          -0.659552669528358,
          -0.17931603954906983,
          -0.30713545352252547,
          -0.6710241154767007,
          0.20031329752285898,
          -0.6017660617499274,
          -0.09285611069211219,
          -0.6073851237293746,
          0.03939042706265383
        ],
        [
          0.41786611259980133,
          -0.6761760042596194,
          -0.35810028634399743,
          -0.5020546449062948,
          0.27396851626690577,
          0.692805493192322,
          0.627126213327688,
          0.6863176516328262,
          0.23039027207062335,
          0.6853773434739316,
          0.29834599724402444,
          0.19113240762534134,
          -0.6737546554681085,
          -0.5902499681245498,
          0.16380996095840172,
          0.39892134427096293,
          -0.44460017014396097,
          0.67170599440957
        ],
        [
          -0.29400104113242603,
          -0.0034311090487645357,
          0.028241233199454818,
          -0.04544253852512414,
          -0.15348567156324866,
          0.07857647329178108,
          0.20216105065690027,
          -0.6427531999665429,
          -0.6492897419400315,
          0.350264559085222,
          -0.4172050434610037,
          -0.679446171611079,
          -0.08458109550437276,
          0.58267492293184,
          0.1459685692117778,
          0.16775279892565942,
          0.2813507279172677,
          0.6921232703214291
        ],
        [
          0.04887718520154949,
          -0.6562456399930778,
          -0.46168581633196465,
          -0.6838961113053993,
          0.6853007127129374,
          -0.5483784636714041,
          -0.6426846689670546,
          0.6750058454300407,
          0.27378507192332324,
          -0.6754674717014832,
          -0.28925908729667466,
          -0.6317761174004586,
          -0.2244665553670584,
          0.40577707273772723,
          0.04268170952035244,
          0.44885456751269004,
          -0.34018831917743747,
          0.6888637148066998
        ],
        [
          0.12107461032405686,
          0.009150483675900434,
          -0.2663411968136288,
          0.3392902034548213,
          -0.0489192336669283,
          -0.3118163385540295,
          0.17166469483054903,
          -0.6850702855696535,
          0.02513193262034419,
          0.6274043626427306,
          -0.18381168579652074,
          0.6128001410117698,
          -0.25948195738085006,
          -0.6813368988188839,
          0.29690253815295164,
          0.5727029277470133,
          0.5919813243711585,
          -0.378100079037853
        ],
        [
          -0.6923548233653397,
          0.30406372673221294,
          0.14011376770934536,
          0.5578813963610341,
          0.4076178959820578,
          -0.6356552515365075,
          -0.2864213085919594,
          0.5717518999043414,
          -0.4488924701071822,
          -0.4063712170202276,
          0.6732651996982129,
          -0.6786956651081864,
          0.66362384043174,
          -0.08074905534897447,
          -0.32079798740668647,
          0.14347867582226392,
          -0.14218412912781386,
          -0.6204934728345607
        ],
        [
          0.19568250203089255,
          0.1306344379521438,
          -0.2450055891209988,
          0.6644981544671762,
          -0.4467769937914663,
          0.2171509153840412,
          0.2020991778291812,
          -0.38290492612607535,
          0.2593244671514986,
          -0.28806465905853723,
          -0.6906198357100538,
          -0.1529746745880548,
          -0.6145320511847684,
          -0.19258692075906536,
          0.18246627599283194,
          0.5247822159743032,
          -0.6382397103956732,
          0.062284804120083526
        ],
        [
          0.6915573655879246,
          0.226035805692392,
          -0.5665402796567218,
          -0.5938624704467987,
          -0.01295689069668593,
          0.5722770437223079,
          0.6235084986194148,
          -0.5951694358245617,
          0.5447266514592901,
          0.27626871995548696,
          0.4603961461482502,
          0.659401025687737,
          0.24142646355369712,
          0.24147020965454302,
          -0.26195816848428205,
          0.5959692402888808,
          -0.27647216807467706,
          -0.6514216458257229
        ],
        [
          -0.32584462429372896,
          -0.0713277124866879,
          -0.6848544255616484,
          0.4507095545242419,
          -0.21103881175774253,
          0.1407002460627198,
          0.6777037994146979,
          0.6741649885551266,
          -0.6445887669097988,
          0.24232518535289282,
          0.07512770808215563,
          -0.6902349952884483,
          0.6408068026342979,
          -0.3322948742115539,
          0.6745589771930742,
          0.1764235360142985,
          -0.5086454377120304,
          0.3684253843234506
        ],
        [
          -0.3490768853219718,
          0.660312210747183,
          0.2559983609173704,
          -0.12664404427625775,
          0.4988392398323336,
          -0.6804083009177829,
          0.05170462117217023,
          0.6879531779632369,
          -0.5739477763170738,
          -0.08818894776877328,
          -0.5226516860443874,
          -0.3823530937604306,
          -0.6884111075656355,
          -0.6927924678522208,
          0.173126072951157,
          -0.023916930887393884,
          0.0015392041696895564,
          -0.15728718206680403
        ],
        [
          0.27588754981274677,
          -0.5705936364882129,
          0.5057370814816151,
          0.2878826630091239,
          0.6880910111720691,
          0.6606857336803034,
          -0.661826525520093,
          0.12298820627705154,
          -0.5828876189297527,
          -0.3247453970745009,
          0.06589548306851689,
          -0.3345343986441788,
          -0.41682488022632225,
          0.057233402158959557,
          0.5857657223028483,
          0.5525718323272133,
          0.29437563324775373,
          -0.20300969311771283
        ]
      ],
      "b": [
        -0.03408587973610755,
        -0.5060882561794653,
        -0.34065633359757935,
        0.27088077597136406,
        0.10903991521638201,
        -0.6925632890388728,
        0.4353462832658319,
        0.15562939866625503,
        -0.1694090875663964,
        -0.39390425620411595,
        0.2629491950362063,
        0.5870308378855071,
        0.322121122718082,
        0.5087310746106435,
        -0.007961967235864065,
        -0.6485572089774015,
        0.12065436855003564,
        -0.3952199305084422,
        -0.10656964073154618,
        -0.49404196514387544,
        0.535334527741071,
        0.1730588699633705,
        0.23213347065358436,
        0.4136297272369347,
        0.6927920078492997,
        0.11418550841700137,
        -0.006452849742055733,
        0.6925799949439218,
        0.4198200449114762,
        -0.45587754312243234,
        0.6785390831581504,
        0.02128080924727216
      ]
    },
    "layer_1": {
      "w": [
        [
          -0.7052161912820034,
          -0.4374804661245429,
          0.11680949243807293,
          0.12018134588644869,
          0.5553466942687587,
          0.5476876489195556,
          -0.33575138919812203,
          -0.2551832357880752,
          0.2798565671659309,
          0.6945088842250168,
          0.12552521690050755,
          0.6815109505345159,
          -0.3547302505488909,
          -0.042590078924598984,
          -0.0015298762096799257,
          0.11837354416876056,
          0.10246537627172336,
          -0.06481903052208526,
          0.6969013346496983,
          0.01486313780331805,
          0.2930367232606611,
          0.41182199391701435,
          -0.4077989809245384,
          0.6937006237620954,
          0.6962934714386192,
          0.4219037711545227,
          -0.3544827990480618,
          0.39993668474077715,
          0.1856518584338125,
          -0.4833949086875132,
          0.2744082192250513,
          0.7071005460358663
        ],
        [
          -0.638162408085383,
          -0.01769970564736001,
          -0.36828620744972035,
          -0.3234204371027924,
          -0.10971856659264778,
          -0.0661805722137383,
          -0.005060468185924094,
          0.6862165075500973,
          0.4269305434578502,
          -0.6299665045103632,
          -0.0039598454717435505,
          -0.6343249518114544,
          -0.2946304473229279,
          -0.3069210432694561,
          -0.35158611470168905,
          -0.09883107971725913,
          -0.20683880388670473,
          -0.07433906243141275,
          0.46963755610694913,
          0.29422266753873394,
          0.5670446550365239,
          0.5382191704983391,
          0.19740606844289588,
          -0.5130662199771358,
          0.4684402904403867,
          -0.30399366183715687,
          0.12332591093607437,
          0.5505081540739892,
          0.048288484030059475,
          0.2920212484082966,
          0.4057467099514026,
          0.46709712521309166
        ],
        [
          -0.3896908329806954,
          -0.024650073359851588,
          0.6614796443780321,
          -0.49920269044806154,
          0.4131532767180831,
          0.161096735591984,
          -0.35320631954666065,
          0.3765600764288505,
          -0.5665838497894884,
          0.5423110854210881,
          -0.6828818197898366,
          0.7037567800472818,
          -0.525380040810376,
          -0.143821468509858,
          0.2754073061185993,
          -0.5355269914840828,
          0.16271713904962848,
          0.7047841039320847,
          -0.18342480557698648,
          0.15712210452005693,
          -0.5099695674743272,
          0.5993856318171208,
          0.547184779262348,
          0.40339159528796686,
          -0.09054833190063527,
          0.12305348945931238,
          -0.1424547151357053,
          -0.06699168830298274,
          0.02349972803093725,
          0.585865642699248,
          0.6813043537268794,
          0.13730541433125132
        ],
        [
          -0.25408304668853066,
          0.2060887495474768,
          -0.5657192278537744,
          -0.062364553460937944,
          0.6238928341603122,
          -0.5140534793560887,
          0.5042253676261391,
          -0.2797535725263908,
          0.6446785241609488,
          0.5940548047551105,
          0.677118192793139,
          0.6847196243372414,
          0.6338147878761705,
          0.6777722890740482,
          -0.06597358425039279,
          -0.47022449282830525,
          -0.18791323127135617,
          0.39704490407878323,
          -0.6975952378399934,
          0.6965679966708646,
          0.1448584595866671,
          0.45000411273174656,
          -0.2562343665669937,
          -0.08154192420737794,
          -0.6829361467571633,
          -0.3726394667903065,
          -0.5547162768348282,
          0.3307515261767823,
          -0.2571450129030601,
          -0.7040218352701815,
          0.017386873326853958,
          -0.16664214139328315
        ],
        [
          -0.2359034660654477,
          0.4886530960465155,
          -0.15060169508271948,
          0.5816107660142255,
          -0.15923303720901638,
          -0.6619206351258308,
          0.7068656365636347,
          0.19788594164299222,
          0.5600809155102063,
          -0.5615516188801992,
          0.30380379465728125,
          -0.14067339844834004,
          0.40693264775753735,
          -0.3643068816365486,
          0.053077143455920406,
          0.04649964434102538,
          -0.3988772755854866,
          -0.0804782611468493,
          -0.49903727137348347,
          -0.6925529600813995,
          -0.704188958868203,
          -0.4547451446106719,
          -0.7022430140507226,
          -0.6376282692935129,
          -0.509566678063383,
          -0.521414544448935,
          -0.48526341381730664,
          0.514363037384871,
          0.1673147450371536,
          -0.0004998847478091539,
          -0.44635456261796386,
          -0.6299310523792646
        ],
        [
          -0.12417867646172975,
          -0.07013241981941631,
          -0.428742340484404,
          0.5901982879078381,
          0.3683619857354262,
          0.6465308430574132,
          0.15745149738208708,
          0.2790583710473238,
          -0.06882779477456946,
          -0.587854888138942,
          -0.6599960839196943,
          0.0826149821782709,
          0.6471489155921574,
          -0.13215920342185472,
          0.706357584855099,
          -0.6555541663857264,
          -0.5498380330818589,
          0.19383458000463893,
          0.2893510866800795,
          -0.12502918256706008,
          -0.4804638847159371,
          -0.2778284837480223,
          -0.3686024795932985,
          -0.44125388351415923,
          0.39072837248750714,
          0.46120550528799076,
          0.6009810290869747,
          0.6014156889318741,
          -0.14313547857229791,
          0.13056533619707733,
          -0.18538136260221338,
          -0.6917307329434598
        ],
        [
          0.13471986682714754,
          0.5301691142454624,
          0.6399212422514039,
          -0.33493650951266907,
          -0.23896527777640741,
          0.6826058066351287,
          -0.6838861676456068,
          -0.04022679941900864,
          -0.5475169956139668,
          0.5629837346606014,
          -0.10527635748746822,
          0.3030426339616338,
          0.6483286453471823,
          -0.22334473483643524,
          -0.6820116549063822,
          0.6689816218088623,
          0.17510030351100003,
          -0.7003341110808079,
          -0.6062432309450729,
          -0.49179717508062126,
          0.38878415414607226,
          -0.30981696688975713,
          0.7030415002452578,
          -0.28094896788960005,
          -0.027126184068450354,
          -0.6458872105503389,
          0.4888771406800142,
          -0.7046510178097468,
          -0.2679293880168626,
          0.7059866950170696,
          -0.6433772979983977,
          0.20240446558224345
        ],
        [
          0.3318171060499472,
          0.4625893370479567,
          0.47850075679205195,
          0.685971304536304,
          0.5433922742959535,
          -0.5484926388186369,
          -0.7063106111732844,
          0.06512269637024704,
          0.10030465317365334,
          0.6387680793528675,
          0.2132121124979386,
          -0.6744098800718742,
          0.031657868145220314,
          0.05563419728455721,
          -0.2005769146661227,
          0.5620339623722667,
          -0.6186640799444942,
          -0.06537260946169399,
          -0.34852654809321265,
          0.7057753535713082,
          -0.4566883011303331,
          0.025357534498263945,
          0.6864010761510441,
          -0.44468480838840835,
          -0.6037008627635961,
          -0.7007020751352074,
          -0.5869523327698045,
          0.5910454527195351,
          0.6983491721964078,
          0.693012271953417,
          0.26564138389112635,
          0.44328694644336475
        ],
        [
          0.038931585669045754,
          -0.6779336942092964,
          -0.47239845530949,
          0.5176398424159506,
          0.34041287315680846,
          0.16158981491507052,
          -0.028070597439484146,
          -0.7007015201028673,
          -0.6031307898023753,
          -0.224627615688216,
          -0.162434004012307,
          0.46858436456348584,
          0.1203998440478592,
          -0.37878910743871114,
          -0.5724015398363365,
          -0.6466795259347357,
          -0.6677978242982088,
          0.44111459871093495,
          -0.47705314328067155,
          0.47152965463213425,
          -0.051538805380581976,
          -0.577759272523299,
          -0.46466578645792667,
          -0.17988684810631084,
          0.23071242898241395,
          0.18723751750324014,
          0.0737435644988772,
          0.703872204032863,
          0.22845823428238554,
          -0.1920856926076222,
          0.6039829591169564,
          -0.31048432328234005
        ],
        [
          -0.06525780158182704,
          0.5615570594382252,
          -0.4439645556797482,
          -0.09846438182403183,
          0.36393177937229304,
          0.40273518344307735,
          0.3018364050898209,
          -0.2716312608296247,
          -0.1534908694047875,
          0.6432923399836831,
          -0.5695496234784592,
          0.4313173615986009,
          0.626721852686618,
          0.12062470051937868,
          0.6241158829932877,
          -0.6605972528886911,
          0.7022763276240486,
          -0.16506341870087815,
          -0.7070772614358417,
          -0.6749251354499171,
          0.7060269169053283,
          -0.2866289577483368,
          0.6366303546498041,
          -0.5343801605644506,
          0.6270529745240278,
          -0.3940321294623191,
          -0.6541414152569728,
          0.2577720467805903,
          0.6586808533487319,
          0.6443526557567408,
          0.49510452037661457,
          0.42241284652990874
        ],
        [
          0.6606980364827858,
          -0.2461470039376799,
          0.0923611335431942,
          -0.2332288265306139,
          0.5190002962511585,
          -0.061192561832429715,
          -0.6438504124366348,
          0.26291015156282627,
          0.019628126087238962,
          0.2427298564221234,
          -0.5193387038865579,
          -0.395104170376968,
          0.6948921472271087,
          -0.5152150312399268,
          0.6935806020218503,
          0.1504562388543188,
          0.6521679386005316,
          0.7023468339138265,
          -0.3649443382661578,
          0.7065916609336681,
          -0.32501831432181055,
          0.3649978908872248,
          -0.3088717859576827,
          -0.09113761887138849,
          0.06985339355347153,
          -0.23641494648756095,
          -0.06154101514009713,
          -0.4390978881503487,
          -0.21014102412473373,
          -0.49427890361422516,
          -0.3789760969412511,
          0.6324173944541499
        ],
        [
          -0.6375695756014379,
          0.5658595847370785,
          0.6205877683439799,
          -0.19973759022197568,
          0.18952439512604957,
          0.1485356766924537,
          0.6977694108971227,
          0.685367555588441,
          -0.6944310980728176,
          -0.6533282941212518,
          -0.6553279803637487,
          0.29574385990655905,
          -0.43910143944873614,
          -0.5531201758773224,
          -0.08122034333608918,
          -0.662128024334683,
          0.6481672311909338,
          0.39136968919980963,
          -0.1674066923544062,
          -0.39684761307687805,
          -0.20289057309150083,
          -0.7010002533373993,
          -0.6368077695527279,
          -0.63026599988255,
          0.7070894793558594,
          0.6372317987592461,
          0.30479287619470263,
          0.46363263762414386,
          -0.5734787890241946,
          0.6776230206608195,
          -0.6708136526672074,
          0.40372967808965565
        ],
        [
          0.08907830917242532,
          -0.5255160565386325,
          0.3744426050791808,
          0.3062985701331068,
          -0.3436944365334165,
          0.14403865102114866,
          -0.026105589042680788,
          0.1979912272389921,
          0.13667376141191756,
          -0.7062462560061484,
          0.5249403715910602,
          -0.705241408809342,
          -0.42251320715491975,
          -0.575777616477591,
          -0.638821480146408,
          -0.685556022703466,
          0.46928104283367567,
          -0.635090677958293,
          0.07860813638290198,
          -0.6612368703035051,
          0.5214279013812079,
          0.28469404618444105,
          0.5835416709499682,
          -0.637018134121124,
          0.21558459972026534,
          -0.7011067891228551,
          0.7020215722796234,
          -0.36326634355148163,
          0.303094625365799,
          0.17462875474143713,
          -0.08281569930679933,
          0.36694663931195237
        ],
        [
          0.18341128259869022,
          -0.2986860974623609,
          -0.05988242537710353,
          -0.32237693567708325,
          -0.683806077111634,
          0.2240697409007718,
          -0.6797231232981019,
          0.4148169997833543,
          0.2925712849113792,
          -0.6169623863199263,
          0.39288544215110266,
          0.7062254032166823,
          -0.6748718013584125,
          -0.30998224413937375,
          0.5933842436706672,
          -0.5247604317370778,
          -0.1566764293011529,
          0.5716238341030976,
          -0.4574469243283209,
          -0.7069004467590869,
          -0.38038328561437457,
          -0.2993460363767368,
          -0.7066424715198996,
          -0.6494477200846258,
          0.17633251751597911,
          0.6855539621992309,
          -0.693751875484056,
          -0.4951325710577576,
          0.6577563957771008,
          0.3457987627373599,
          -0.12631979324024267,
          0.18286187003668386
        ],
        [
          0.6958893442448536,
          -0.21909765800041253,
          0.2399597884777671,
          0.009205331973920594,
          0.5064356484164415,
          0.4036069475506382,
          -0.6397866404953765,
          -0.36159111125340043,
          -0.05798245398770874,
          -0.6534609456047756,
          0.14788330739141597,
          -0.0087736318358832,
          -0.352495781882208,
          0.6536209709529573,
          -0.113883800715467,
          0.33777429026894235,
          -0.6275850214261485,
          0.3735560932306198,
          -0.637381152980195,
          -0.0635070240059128,
          0.047120625047637255,
          0.6599139211459951,
          -0.6691824184492262,
          -0.6802151806617268,
          0.12488483451098609,
          -0.05099395551545316,
          0.6994164715114332,
          0.7070568876038145,
          0.07293510366698475,
          -0.07732977151405207,
          0.6594173553188342,
          -0.49462448484148885
        ],
        [
          0.029239998941839374,
          -0.09456426345346747,
          -0.7068395399418945,
          0.6510196030113645,
          0.41835290776712053,
          -0.699331990761795,
          0.0782371052752251,
          0.5460738673319484,
          -0.6941781673941131,
          0.39618269982042376,
          0.02024723499897818,
          -0.35832506639655715,
          0.21303715529425216,
          -0.6987091930152732,
          0.029432804407348967,
          0.6783646760911936,
          -0.6692882241719376,
          -0.28778322165964254,
          0.3489550217172096,
          0.6423714812739812,
          -0.6422807906406897,
          0.5401453533766057,
          0.5726827514600635,
          0.6832424561229199,
          0.48425305820338316,
          0.29535083273377427,
          -0.6486920125290955,
          0.6961297143193318,
          0.6784726920157421,
          0.6284340126956923,
          -0.007933154910312545,
          -0.5720315166425679
        ]
      ],
      "b": [
        0.4053917468695033,
        -0.07356490789628034,
        -0.4610874105944019,
        -0.050987153082846515,
        -0.36467982131425564,
        -0.5350412307747515,
        0.11861301243325373,
        0.45239555474568516,
        0.3917633027387529,
        0.6196747143923248,
        0.688416974377079,
        -0.4335777625367726,
        0.028417655410015952,
        0.1799537809278614,
        -0.34060439652104807,
        0.15235242384321712
      ]
    },
    "layer_2": {
      "w": [
        [
          0.7229981755601436,
          -1.1880214510731972,
          0.42018683049974936,
          -0.27178092123219566,
          -1.1086159093808767,
          0.3953104757307333,
          1.1314050589944384,
          0.07838729468226346,
          -1.032827881046211,
          0.9586708904028425,
          0.42721577815236356,
          0.14044199415408176,
          -0.7257411297148273,
          -0.48233230672491556,
          -0.7821671683277738,
          -0.9809695663857303
        ]
      ],
      "b": [
        -1.0703907998821995
      ]
    }
  },
  "input_mask": [
    0,
    1,
    2,
    3,
    4,
    5,
    6,
    7,
    9,
    11,
    12,
    17,
    18,
    19,
    27,
    28,
    29,
    30
  ],
  "ablated_input": null,
  "ablated_value": 0.0,
  "output_param": "delta",
  "scaled_pi_n": 1.0,
  "delta_max": 0.35
}