{
  "format_version": 2,
  "architecture": [
    {
      "type": "window",
      "input_size": 17,
      "n_steps": 4
    },
    {
      "type": "dense",
      "input_size": 68,
      "output_size": 24,
      "activation": "swish"
    },
    {
      "type": "dense",
      "input_size": 24,
      "output_size": 14,
      "activation": "swish"
    },
    {
      "type": "dense",
      "input_size": 14,
      "output_size": 2,
      "activation": "asinh"
    }
  ],
  "weights": {
    "layer_1": {
      "w": [
        [
          -0.2925394431080356,
          0.47830666578617653,
          0.4309776864480772,
          -0.3207827948131069,
          0.5032136986579181,
          -0.387222593811375,
          -0.05606223129465787,
          0.32455987147246923,
          -0.43989398700368476,
          0.36228569936776556,
          0.5100036255624263,
          -0.3278778683305607,
          0.08298223314794528,
          0.43861926953059005,
          -0.37953303751920575,
          -0.32547154892874186,
          0.04080018798235385,
          -0.16282652431481393,
          -0.13064904612123618,
          0.43182832083712064,
          -0.24612595890866568,
          0.01722716034368399,
          -0.3726467803756254,
          0.506921703439801,
          0.32855494896392967,
          0.07772580355744763,
          -0.08772467674983359,
          0.30597107721467465,
          0.45484211692811416,
          -0.4543715148164715,
          0.44007323417668065,
          0.2570085409868561,
          0.41854790064924663,
          0.3419253785662153,
          0.32253994990004,
          0.08012225700829734,
          0.378472275856482,
          0.19648027289412584,
          0.37069065823768754,
          -0.12163516498169841,
          0.4503464899474897,
          0.4867488194919146,
          -0.0018755458998345187,
          -0.38683893461630897,
          0.1245586625870071,
          0.47223889197989277,
          0.1953848403517332,
          -0.16657352592658015,
          0.06943440623313213,
          -0.43109999080194755,
          -0.027283385243716485,
          -0.1386074445254748,
          -0.49516087675682763,
          -0.47732105599204316,
          -0.45303609705185943,
          -0.5018279537222324,
          -0.09153312516617973,
          -0.37965473188621857,
          0.051091433149870746,
          -0.5077674404265631,
          -0.4765694326317912,
          -0.2731182911464676,
          -0.24325145215521027,
          0.3800878401613744,
          -0.39498299607694953,
          -0.3651979322794684,
          0.331008597622688,
          -0.1281518819372971
        ],
        [
          0.48182643705361106,
          0.013680711643639265,
          0.2955959529836718,
          -0.16516531303204585,
          0.25863804273339785,
          0.35335749536457184,
          -0.01073820591863961,
          -0.09750473965525053,
          0.018124487325770655,
          -0.38653512992300226,
          -0.2203984929977919,
          -0.5048880989292756,
          -0.08138536680280939,
          0.44941496048416596,
          -0.4830009339803542,
          -0.4944619145274767,
          0.2623288615149133,
          -0.43881968654643283,
          -0.3248627602775779,
          -0.3921370013537384,
          0.05877133075330143,
          -0.18761429991885759,
          0.18731958644809654,
          -0.0770136551272122,
          -0.4155916936290503,
          0.1722244469810208,
          0.3821909971100018,
          -0.3165023736362419,
          0.46991276354093725,
          -0.34011585778093106,
          -0.2803110113678295,
          -0.09306507016960336,
          0.26273507007547503,
          0.4181251005555189,
          -0.43280323642848567,
          -0.26090022203132807,
          -0.3186487312569819,
          0.31901405908807245,
          0.07294653251131211,
          0.057439153468814674,
          0.4525658885045284,
          0.37581242982464647,
          0.46507220819667683,
          0.2959913375296721,
          0.45201490688501844,
          0.20669803714961288,
          -0.24550295049403553,
          -0.31183687943977634,
          0.1419893973837686,
          0.5003564511300442,
          0.3362778984438317,
          0.2719669292321867,
          -0.1448396741457717,
          -0.48728468916453316,
          0.3785907416865696,
          -0.4016248073293098,
          0.24134556910423777,
          0.189754795128672,
          -0.04740168436914366,
          0.3442497983005054,
          0.191272651021689,
          0.1987586689969858,
          -0.3069448253481205,
          -0.07213700922421218,
          -0.46696717983584524,
          -0.4481479379538028,
          0.08914641062637496,
          0.3844746930580185
        ],
        [
          0.31703627847569094,
          0.2280596956482871,
          -0.3250133271913873,
          -0.4853816003434863,
          0.25343945603979345,
          -0.4212732690512206,
          -0.283996642480986,
          0.0934370891739974,
          0.0405987776361143,
          -0.4325869672877289,
          -0.1339698094067054,
          0.42835527577430843,
          0.04632351491625364,
          0.4033438873613403,
          -0.4628711086715564,
          0.12274553855037018,
          0.04017346078115147,
          0.06115592646582313,
          0.37361939397971533,
          0.12629501264307796,
          0.47676039166886575,
          -0.18309087131698648,
          0.3708577926400748,
          -0.18648091530023003,
          -0.49257957092789656,
          -0.4886337506300044,
          -0.47880898767429003,
          0.49995024250432185,
          -0.5028043279167902,
          0.3627226701359274,
          0.4140960698870173,
          -0.4991463841602694,
          -0.47077471123904296,
          0.418982667245674,
          0.09962510840791972,
          -0.45379270765462254,
          0.05865398824638279,
          -0.3654383360079916,
          0.2229862127790957,
          -0.13920428912628263,
          0.4448812210053339,
          0.3420577702062316,
          -0.09210115050862194,
          0.05979567036152489,
          -0.08769907557776635,
          0.3354162581471474,
          0.049198670087974294,
          0.21172035799066424,
          0.4285567910398663,
          -0.0648877210834129,
          0.33065394309462237,
          0.06600362568477536,
          -0.49993376509924314,
          0.479721193163816,
          0.4952079342542597,
          0.1194075697718242,
          -0.21696129716016355,
          0.3421699591143883,
          0.36780173794078985,
          0.2423751907230529,
          0.42494615023471316,
          0.4997864089830537,
          0.32440769873970976,
          -0.09297861536418495,
          0.21893871943546328,
          0.06709105744340882,
          -0.16747953181540065,
          -0.014534289580300341
        ],
        [
          0.06917747903933791,
          -0.4739092376261248,
          -0.02390920483902642,
          -0.48939240020750824,
          -0.40754750526814093,
          0.2503492086467821,
          -0.09965755490778488,
          -0.40274717173854063,
          -0.3652841114829495,
          0.20776334946417152,
          -0.37808507188280105,
          0.248485158733884,
          -0.4459414258477627,
          -0.24323735435473026,
          -0.015873830767572206,
          -0.4082488532172064,
          0.4813662371801545,
          0.0550218635730626,
          -0.23416001111578105,
          0.3759970271084505,
          -0.4855283224408032,
          -0.429333925141818,
          -0.3877376637015459,
          -0.1010828378017431,
          -0.08882626048537029,
          0.09409097515483078,
          0.45655114298267774,
          0.11098522657120102,
          0.24166690540029956,
          0.28099979699013966,
          -0.46021209250052725,
          -0.13173556783793894,
          0.36370316258102864,
          -0.20294576349373517,
          0.4607771143980677,
          -0.18696178819745513,
          0.5102806735502841,
          0.36285607302600476,
          0.30171351066769203,
          0.48125477887516066,
          0.16657941641819374,
          0.24426222709969403,
          0.30373352121168906,
          0.15088285944704638,
          0.2813512895343221,
          0.414890602062155,
          0.15353765979495748,
          -0.3382305427973331,
          -0.38274634239769145,
          -0.010974795853922692,
          -0.42962919323932924,
          0.0020247819538037337,
          0.263622072791003,
          -0.17191081808266778,
          -0.2883425364116129,
          0.3554729767618553,
          -0.5047919049233339,
          0.16539406402868773,
          0.187475036788169,
          0.46675363625296395,
          0.42745938927930505,
          0.4873258553949019,
          -0.15507575094403064,
          -0.44610334618380915,
          0.2440340891167092,
          0.48700473021345525,
          -0.11405767213785173,
          0.2430823238242863
        ],
        [
          -0.23678729147984406,
          0.1745412447603416,
          -0.36554205596333056,
          0.432945896677993,
          0.3397358346653382,
          -0.303026380875902,
          0.10468088236794415,
          -0.41582815620901,
          0.2313045112777008,
          -0.20798064233659913,
          -0.43271588801633076,
          0.30674535407223447,
          0.2283410181678126,
          -0.05697542689928575,
          0.43478349691902907,
          -0.0877601490391311,
          -0.5044027352932805,
          -0.07114061544463374,
          0.13476621664401434,
          -0.3184723818074332,
          0.08970665672923439,
          0.4334094817844525,
          -0.1430200109460601,
          0.08195054478445907,
          0.43083574351966525,
          -0.10157208124698885,
          -0.2217085225120149,
          0.00997059316805815,
          -0.31223635583125287,
          0.09795792362024958,
          0.21533854919891093,
          0.3652699444248386,
          -0.4287097007366715,
          -0.4730133555834864,
          0.21262701796007433,
          0.11638308864636104,
          0.07986575376512528,
          0.11570377960772216,
          0.30380618052910324,
          0.06511596291761301,
          -0.3920491596823587,
          0.48592630512840773,
          0.1125662805397647,
          -0.04541140551068934,
          0.3836517261140089,
          0.1480576249196942,
          -0.25689108689384643,
          0.29078065781111206,
          0.20071135875834412,
          0.1479357075782891,
          -0.022090426550829212,
          0.41760407747452877,
          0.07037036647542139,
          0.2652328577363896,
          -0.3154842346216042,
          -0.423879227256147,
          0.3040730851985848,
          -0.290328259038225,
          0.06652901678397449,
          0.3697217542249238,
          -0.1692864869790655,
          -0.03155204606393236,
          0.0831693109279511,
          0.38412293965389344,
          0.21235011191973618,
          -0.10668401164144575,
          0.18345995541597304,
          0.3378082266665621
        ],
        [
          -0.10859996929163557,
          -0.4985399770397605,
          -0.19627222388972065,
          -0.28710304580365437,
          -0.10869446061051302,
          0.36557080155502675,
          0.08230014152270282,
          0.1531106025965624,
          0.11409716269701353,
          -0.10946108809197508,
          0.005662490807957776,
          0.020497712428015236,
          0.09021740756911256,
          -0.4986227705261816,
          0.40839336527184944,
          0.07269049283022233,
          -0.42277183145480574,
          0.2039747690359076,
          0.14638601631432868,
          -0.48005474209643834,
          -0.008971999958550025,
          0.13501495910661288,
          0.34970879507704367,
          0.455098107656437,
          0.47056250700857927,
          -0.4611602129820722,
          0.47488864009898446,
          -0.3838208063922711,
          -0.3418155818108745,
          -0.4099039119156777,
          0.19947426452323702,
          0.15139053568365268,
          0.26039130584588277,
          0.2987773051845448,
          0.3352097784316682,
          0.4790661789291818,
          -0.24690914614883663,
          0.22434773898011529,
          -0.01916809325750729,
          0.27394574270723726,
          0.37157517562837006,
          -0.19323735722573637,
          0.08644372462558447,
          0.22492209271714558,
          0.30925851172886476,
          0.048541156678342134,
          -0.46845774043697985,
          -0.11077553108890087,
          -0.4949371047506891,
          -0.10222233659802127,
          0.36197975487599243,
          0.3340192337685337,
          -0.23699580306993423,
          -0.008644117548641694,
          -0.19680870442031323,
          0.23460146590530817,
          -0.02253284786566251,
          -0.19254764059891305,
          -0.38177306503737746,
          0.12377347247977133,
          0.21450549038908462,
          -0.4488083123513293,
          -0.3450415451259879,
          0.20824353960550968,
          0.2147478935223065,
          0.3659226525410355,
          -0.5061890683711531,
          -0.3249002646584864
        ],
        [
          0.43219186427166323,
          -0.47523954235453714,
          -0.4511095697677918,
          0.1610985536907582,
          0.29107684805165723,
          -0.3295867242104833,
          0.32378144266001674,
          0.5070927285539191,
          0.11716379637868679,
          0.49860306223936046,
          -0.18639551037069868,
          -0.3453520929899536,
          -0.4150889339379997,
          -0.500393274711459,
          -0.018172017914262928,
          -0.420596385257282,
          -0.5011190636785483,
          -0.28360207513690466,
          0.3938338233633295,
          0.45433041970607946,
          -0.22584815897848237,
          0.41005962304403065,
          0.13978233967511466,
          -0.27284880068037326,
          0.5025693730003304,
          -0.08857718829327066,
          0.4476267653037721,
          -0.30328337593525784,
          0.11132441277189475,
          -0.47522031641917606,
          -0.16075631130201196,
          0.36419739359969194,
          0.28068745686144325,
          0.2204353375200253,
          0.23409952411726853,
          -0.1648494678975212,
          0.13609445981221868,
          -0.1520685517625071,
          -0.2375675468476181,
          -0.25298471519266874,
          0.33067987599479376,
          -0.3515841602410164,
          0.004057973998765063,
          0.27387177809528596,
          0.3015420428004639,
          0.08679149642667228,
          0.06284657471004385,
          -0.12004700371303267,
          0.19385994553810482,
          -0.480961508710629,
          0.36962763731518666,
          0.45199156476209057,
          0.27222467970591535,
          -0.054662800089338326,
          0.14085111266436257,
          0.024328482694411235,
          0.3630055166941538,
          0.5100272260497152,
          -0.3237989495951823,
          0.367613451010659,
          -0.06964759995011544,
          -0.4737408483856381,
          0.13041174591383198,
          0.06954600916004972,
          -0.3295524693916729,
          -0.16022985202349538,
          -0.36484911786289054,
          0.2260353364209231
        ],
        [
          -0.13299658807735482,
          0.38626145264606904,
          -0.3499576556034567,
          0.15987633815969493,
          0.1369626250392426,
          0.02843361644061604,
          0.12492222576522682,
          -0.49791807179379,
          0.10323062900642221,
          -0.15941884899108977,
          0.38336869342446933,
          -0.4998001266484801,
          -0.21876426791702414,
          -0.2962835357919834,
          -0.31006882164413574,
          0.20825739642198426,
          -0.2831049492600972,
          0.0578973269477262,
          0.467510599897098,
          -0.4732169939328018,
          0.40023222901928224,
          0.22083607676221195,
          -0.04837929685380066,
          0.06882406375210193,
          0.2521306487371632,
          -0.4986446760716743,
          -0.39357030804557214,
          0.1364759594927607,
          -0.11926542725206862,
          0.2924834549234875,
          -0.2727471447400372,
          -0.3360027630697373,
          0.43937004469823615,
          -0.0230089421035809,
          -0.3973624815706513,
          -0.30797832558546767,
          0.31882339944573546,
          0.46905760533298224,
          -0.08300871463981596,
          -0.036804919678285974,
          -0.06629028236450574,
          -0.18111654218326767,
          -0.49389613783451636,
          0.3694006499311382,
          -0.24608081329393605,
          -0.3148552252451745,
          -0.3418578892727615,
          0.16528944328516537,
          -0.3646450440494785,
          -0.18648623715102303,
          0.012496602228633025,
          0.39697283021176544,
          0.49914211864348834,
          -0.3887544891409768,
          -0.0338141780029908,
          -0.14721992324122135,
          -0.25611597658898827,
          0.0028034070035702907,
          -0.11134557172319132,
          -0.42201836871478915,
          -0.3966533647382409,
          0.060495791757061546,
          -0.4488047780470968,
          -0.38577809933692875,
          0.15821398292209532,
          -0.25988667797135223,
          0.4826865854802097,
          -0.4869853181436037
        ],
        [
          -0.4523044859392129,
          0.4355264929650956,
          -0.3235606102992932,
          0.3024237830882279,
          0.37356008686635866,
          0.35493668425014213,
          -0.07826504859025346,
          0.497601094244158,
          0.18956969743510832,
          0.46909835837980485,
          -0.38534930464865313,
          0.16669551917913927,
          0.24270606633239367,
          0.03225684285330854,
          0.1485804607111717,
          0.13581098465060848,
          0.2815158316612808,
          0.1480249191678248,
          -0.11398536907742635,
          -0.0637519061527303,
          0.4810033902268924,
          -0.12808836706101234,
          -0.3925732011974715,
          -0.03782475013305653,
          -0.18439848942923964,
          0.0937139878201173,
          0.3619363485690824,
          0.043356711494467515,
          -0.03161118217585057,
          0.5004987717364664,
          -0.39015245923988673,
          -0.41121132389307075,
          -0.5029610746800408,
          -0.22630912012187465,
          -0.5069001774390042,
          -0.37565950334462916,
          -0.06986311229242359,
          -0.20261792806997658,
          0.2820043500604994,
          -0.03990919716904262,
          -0.452312523785502,
          -0.29358957808277875,
          0.25311102114139095,
          0.4221383175656449,
          0.016833245154425414,
          0.12878908326766458,
          0.27383941306949033,
          0.5080123748707683,
          -0.1607587893475631,
          -0.2902854784186642,
          0.08154545714056138,
          -0.303340621881123,
          -0.4265842140695304,
          0.2373985794044161,
          0.22606071948300044,
          -0.3754396593787798,
          0.24213624611114037,
          -0.20204458181538348,
          -0.24466573451079304,
          0.03302416438668909,
          0.12176588226345608,
          0.3399485124263194,
          0.10321896678333276,
          0.3031551213627378,
          -0.29541261064623836,
          0.07407126622540583,
          0.13173889639997005,
          -0.39988515975645816
        ],
        [
          -0.46515703144283455,
          -0.430819853793323,
          -0.4123405156947688,
          0.28782457241133674,
          -0.30131772379084387,
          0.3691002374608643,
          -0.049097978362979244,
          0.07524396962796231,
          -0.15560328006869217,
          0.2399786597987853,
          -0.3558010112687884,
          0.35204854541783315,
          0.20340296896751842,
          0.13167730463138272,
          0.2876195142526641,
          -0.5074816491871893,
          -0.20154077244975133,
          0.46823047865743816,
          -0.1476127786024506,
          0.4470582296975574,
          -0.37489391188466453,
          -0.27441858710802725,
          0.5063203859116292,
          0.353138531384228,
          0.2380189114201432,
          -0.013480289990519534,
          -0.38565057828511456,
          -0.42772320260120705,
          -0.07165199496247465,
          -0.2873649670882868,
          -0.2804836696349097,
          -0.05895898160887042,
          -0.15341607897972598,
          -0.05346039336141817,
          0.21113133662433303,
          0.12645419307863914,
          0.2967999306468493,
          0.5024025674409667,
          -0.41804606201735556,
          0.3689706468312304,
          -0.22134287660765317,
          0.12373966299946348,
          0.13696833102758965,
          0.30276972834710913,
          -0.07307972380437716,
          -0.3721473857704588,
          0.46665214076728323,
          0.22915080495771922,
          0.42336519252505656,
          -0.45410890558998146,
          -0.462228967055422,
          0.3890988336230933,
          -0.019035406997786775,
          -0.10504482480665572,
          -0.005043598309475761,
          -0.27465573947653765,
          0.016545458517074563,
          -0.10780208997216517,
          0.13159579064813232,
          -0.323169880906645,
          0.5053631035666635,
          0.05761124098974302,
          0.32071720435859774,
          -0.19979109819864094,
          0.15248821831040316,
          0.31325396266178285,
          0.26133121693478956,
          0.4381529042497567
        ],
        [
          0.21388279684881006,
          0.4373574983877043,
          0.12509429263010985,
          0.39831789264413153,
          -0.13048440510085463,
          -0.1523794828994075,
          0.27144503570590317,
          0.34147904258583817,
          0.5080238685893816,
          0.2999360884317367,
          0.09525582006764044,
          -0.46632992127957423,
          -0.39693476847956854,
          -0.2774422667608624,
          0.02067402044150779,
          0.06468997425341205,
          -0.13984246100462389,
          -0.48839369690982976,
          0.4001761766014167,
          0.49646405404215765,
          0.4654097156484026,
          0.29988547522501174,
          0.08868932608281066,
          -0.3117015258375997,
          -0.16989806875460928,
          0.15559999619618814,
          -0.33078034738212886,
          -0.023730801407464308,
          -0.2977101039760248,
          0.4787250276923326,
          -0.06562930892050095,
          -0.2408069805113588,
          0.21302276346533544,
          -0.41070607208311,
          0.21192925319492772,
          -0.12117443459303884,
          0.368625191160342,
          0.20703459927561652,
          -0.43211070953718433,
          0.4891820645457968,
          -0.3553373355183271,
          0.47747655547977963,
          0.5029788565688091,
          0.44767691069649984,
          -0.026967847038390225,
          0.42305374590008804,
          0.41713824850537096,
          -0.3297383520057276,
          0.30788857911661316,
          -0.09543285053414857,
          0.06548579739496851,
          -0.4619422163272636,
          0.30103178180989876,
          0.2353992161416688,
          -0.4723577568352516,
          0.3568966496086472,
          0.02548356165147181,
          0.15460408332521514,
          -0.5092323623585069,
          -0.023145478355527715,
          -0.2273124688482447,
          0.439207213803092,
          -0.4764447619699157,
          -0.29222927589354725,
          0.0865544996422637,
          0.3495475694967546,
          -0.1100602492875829,
          0.34046551498473887
        ],
        [
          -0.3396823343499372,
          -0.47328419882158274,
          0.27394277423612545,
          -0.48139727140833116,
          -0.2990752557132961,
          -0.33663172883847714,
          -0.4004670585103953,
          -0.22949611331711467,
          0.33080032538397364,
          -0.17329048506495226,
          0.008323912916367915,
          0.36685102687496673,
          -0.032164891141118535,
          -0.42876149860470825,
          0.35598974409591455,
          0.13532711025883382,
          0.15618657446326023,
          0.5031092477279282,
          0.029906243203346894,
          -0.4671201022833889,
          -0.42979693828613863,
          -0.2650162128125595,
          0.4641946879667398,
          0.434246064157097,
          -0.25450484475331,
          0.2955544370833926,
          -0.4206348385141413,
          -0.39904813090974245,
          -0.47208182061368875,
          -0.20055006874050718,
          0.34110603961428043,
          0.5060786683681116,
          -0.4588668904481872,
          0.4699794201858749,
          0.3699249812793445,
          0.18616317249472292,
          0.1563949908656267,
          -0.39133243101244136,
          -0.44533053690301183,
          0.30814955304628366,
          -0.2622252555675816,
          -0.12502679494550428,
          -0.38610812817104107,
          0.019686630260040472,
          0.08352202948540133,
          -0.5062465400191833,
          0.37857665453131006,
          0.38059555727517036,
          -0.384692782109605,
          -0.13866127029375036,
          -0.16284350295904565,
          0.5083516916372595,
          0.21274162573368027,
          -0.1922682507491011,
          0.23296637125896447,
          -0.30307497128407757,
          -0.09538067439237774,
          0.48441270358234145,
          -0.27866626216899976,
          -0.34102799512224213,
          -0.5071798909553741,
          -0.38339085101003545,
          0.0410451473981861,
          -0.3239454998236039,
          -0.33047898563623646,
          -0.011677034108009798,
          0.38227383429458806,
          0.019097138131282443
        ],
        [
          -0.4248799391860284,
          -0.3588199840075945,
          0.14923856134767266,
          -0.2135677929151253,
          -0.04892311452156728,
          -0.46663491745085983,
          -0.44792201045587443,
          -0.48974472743270514,
          -0.4500005986548205,
          0.4993973151208131,
          0.35912397495751014,
          0.35320286381793986,
          -0.04416724191325044,
          0.3991958434278826,
          -0.4050798281276817,
          -0.27365628425943606,
          -0.29970452613785953,
          -0.4867949914930295,
          -0.34232307700233255,
          -0.3158751470996779,
          -0.04570920840904796,
          0.4577736958652231,
          0.04107541962202799,
          0.16993199949151805,
          0.33971567702659455,
          0.43404354700983305,
          0.5079987305881641,
          0.07382424501617468,
          -0.1788416448124775,
          0.21694699059856548,
          -0.46568841793938315,
          0.3470288480766448,
          -0.4904576366644563,
          0.4631798929618308,
          0.4927178710824558,
          -0.13401804229626668,
          0.18920591526254904,
          -0.45520512682584613,
          -0.2727462284254423,
          -0.23979802553163737,
          -0.3562396588730595,
          -0.35755223621930154,
          0.314159078539347,
          0.42001140963803274,
          -0.4168439327569378,
          -0.41479652389792315,
          -0.09612345782750653,
          0.48677862188315446,
          -0.3036717094791733,
          -0.031915371801615244,
          -0.4599523035510519,
          0.35792219123342317,
          -0.29535617157749516,
          -0.39491227786592537,
          0.4900844832771678,
          0.01156598588832325,
          -0.24410864013609246,
          -0.1991374215854737,
          -0.0909084408719949,
          -0.38633584276505406,
          0.29319450245189715,
          0.2674520493359319,
          0.4638834887220519,
          -0.07869991298912848,
          0.42091210589534345,
          -0.32869813502010614,
          0.3639180496214378,
          -0.492882582791291
        ],
        [
          -0.40795272020591467,
          -0.3626709292213024,
          0.49760785245746075,
          -0.16423792324504527,
          0.28956545165763603,
          -0.3070785654799263,
          0.31373542187019243,
          -0.05739782136759225,
          -0.42102460277187054,
          0.03995733918186506,
          0.4224669012071073,
          0.25633767724016276,
          0.2960561747093664,
          0.09052133275995522,
          -0.007809438397500923,
          -0.18904428759723496,
          -0.2857034382176413,
          -0.3900341055742496,
          -0.4948454589304645,
          0.4393348130245305,
          0.48350276045687746,
          -0.3030624616969808,
          -0.24347617462660753,
          -0.2721906147317391,
          -0.4921296512847971,
          -0.5005429683941849,
          -0.5097080946451424,
          -0.11364298457064853,
          -0.19705900260405085,
          -0.49671656914901396,
          -0.06732797062884749,
          -0.31766005045721435,
          0.19703479316185257,
          -0.3895802398589488,
          -0.058164595197536584,
          0.404265156075751,
          -0.4054099212128006,
          0.48859739926181156,
          -0.1892853583731482,
          0.19000652388080652,
          0.46682835832998926,
          0.3236652052629927,
          -0.4597795271279548,
          -0.47819231411147567,
          -0.3369356034615,
          -0.5076275560007111,
          0.2874245656879848,
          -0.48221419025427736,
          0.18311430965678077,
          -0.16606400229711665,
          -0.5098625946597716,
          0.26050101429631545,
          0.46195173770809195,
          0.47983102269971944,
          0.023637877496418325,
          -0.1010483991871971,
          0.06015139571474959,
          0.10460419122587572,
          0.153647430187573,
          -0.3526857272741889,
          0.40156773552232505,
          0.3031076317729604,
          0.5042485881148431,
          0.2629975326139913,
          -0.39407597687122986,
          -0.42215282305198787,
          -0.3819642548614597,
          0.30811124826584624
        ],
        [
          -0.48825391410430774,
          -0.46200359273387226,
          0.38237653503431157,
          -0.34592662310756617,
          -0.3853669750985734,
          -0.17048329979794236,
          0.19362349773298493,
          0.09982590227750487,
          -0.3273457214585066,
          0.40671697535567464,
          -0.34291211274527295,
          0.16380844175359122,
          0.5057130733272861,
          -0.36609155523004183,
          0.41398250911694046,
          0.09047137085308732,
          -0.3932571613091392,
          0.45896327023644723,
          -0.3095433239132912,
          0.38990208643098667,
          0.08947900993272684,
          -0.32515545701955817,
          0.4669565894007758,
          -0.4079906452223442,
          -0.0053519619759241355,
          0.2940589637948293,
          -0.33922300800421457,
          0.4910337245933014,
          -0.5057867021033366,
          -0.5025001856375925,
          0.4959680608204926,
          0.31320365477988066,
          0.4405220500492406,
          0.27514233139990263,
          -0.19313451294710138,
          0.4037696869784222,
          0.4183794291026014,
          0.4640359326485588,
          -0.1316187294082264,
          -0.3090428259884246,
          -0.08114660470630397,
          -0.2883028248301045,
          -0.11825241077090137,
          -0.12024197985749285,
          -0.0721338690009567,
          -0.07764480664002155,
          -0.17392617799361726,
          -0.12916211536427913,
          -0.4744457482682425,
          -0.27095732833786135,
          0.35889739470667403,
          -0.2690506317673549,
          0.4682249094650758,
          0.30127598579150794,
          -0.18559551599403462,
          -0.15038997569185603,
          -0.3844388501439978,
          0.02563007022427355,
          0.16248764891919532,
          -0.3404949096322553,
          0.4411863077867062,
          -0.20977705215193299,
          -0.45259867997466857,
          0.405606322309069,
          -0.058936648702535954,
          0.11940194752188671,
          -0.07180331702755682,
          0.29769544339085596
        ],
        [
          0.012537267073209235,
          -0.12759202225703958,
          -0.35203897360939274,
          -0.2754433528104795,
          -0.15572745098830926,
          -0.3174441626607329,
          0.4990003156098528,
          0.3158450801053996,
          -0.35106493018532003,
          0.047519053613498174,
          0.45226069011825953,
          -0.06984675842993271,
          -0.45477957538020386,
          -0.14198165452551448,
          0.3016048294251772,
          -0.1458403336088056,
          0.13992047831403676,
          0.5007321515088092,
          0.22100617210150364,
          0.23023824668961546,
          0.446558139911317,
          0.4003967236052486,
          -0.37524396830228146,
          0.4779458928681819,
          0.22490883257600924,
          -0.16838925975637203,
          -0.2995052640487091,
          -0.4551198476755437,
          -0.5020023317612518,
          0.1274426713855934,
          -0.02949289326076948,
          -0.2632442596913823,
          0.14184835056416045,
          -0.3988786456807384,
          0.4291606814922978,
          0.40564351103610485,
          0.033711570011438874,
          -0.508052356376095,
          0.2601885814153716,
          -0.48974283051972545,
          0.19388884534439665,
          -0.399289618761993,
          0.04030394415110283,
          -0.4779319981768582,
          0.09131421722040711,
          0.5031030835259038,
          0.16521176817564198,
          -0.3585426900491716,
          -0.14730685399879562,
          0.3315338634020971,
          -0.2082980373212755,
          -0.12131391521384854,
          0.45664739598996495,
          -0.202517076006081,
          0.2031027259952909,
          0.39875205913708567,
          -0.41963819751451675,
          -0.38135977889962464,
          -0.34254026432522355,
          0.47591748546937174,
          0.4523228731633895,
          -0.3907840802650383,
          0.4888509581115108,
          -0.4253167546878205,
          0.36374491303526235,
          -0.19618205971525587,
          -0.4307125638687789,
          -0.24990274924448524
        ],
        [
          -0.38751920730363415,
          0.39576009258593114,
          -0.18378432859336263,
          0.2514603588184483,
          -0.26694898054602545,
          -0.461185704721733,
          -0.5104266233278406,
          -0.4910636475938934,
          0.49280814987435706,
          -0.33350151529110483,
          -0.323458683218094,
          0.1323922567352348,
          -0.12125990881402471,
          -0.026777058978516566,
          -0.1339838354598139,
          -0.3871001881067834,
          0.3752662485188418,
          0.4146379224712201,
          -0.30062036451779334,
          -0.11454506559226535,
          -0.03281050969168264,
          0.22738438974496678,
          0.4465471446526891,
          0.2806472842167095,
          0.3023040010992454,
          0.17472024394808727,
          0.43699877767000195,
          0.3286952095881781,
          0.23489194929758273,
          0.5010404756473443,
          0.08260415946777644,
          -0.37601704307983175,
          -0.0561384823117293,
          -0.3211381862412532,
          0.26155862995408297,
          0.35178498423239624,
          -0.4124809480694476,
          -0.22902389552001018,
          0.21830852679634405,
          0.5088117563134367,
          -0.4016871428734875,
          -0.29066130955539143,
          -0.1730771677637501,
          -0.03645761465916608,
          -0.01698213565442197,
          0.39401264853126705,
          -0.2571238027971565,
          -0.09767333262226902,
          -0.4404927272013075,
          0.2259524652059447,
          -0.43825659390952404,
          -0.43512744704852085,
          -0.334396035885426,
          -0.48977007150899987,
          0.25549441615502866,
          0.4159349470818253,
          -0.017162619704777282,
          0.22758717476766543,
          0.18583401908951103,
          -0.4366302531074575,
          0.20874751173422312,
          -0.09479778773570013,
          -0.4078451097650787,
          -0.003902201371150271,
          -0.11352643793889283,
          0.05283066696439864,
          0.07165690730053687,
          -0.4875058339430535
        ],
        [
          0.0518286216008681,
          -0.49692367405467075,
          0.4665053013139757,
          -0.16414703180244378,
          0.4083655112843496,
          0.36778638067942737,
          0.3945526389581695,
          0.16877488505909266,
          0.4288565939368034,
          0.3031412733353518,
          0.4319904680428296,
          0.32935714630115387,
          -0.3142408203260728,
          -0.04328764456248163,
          -0.49757595719505926,
          0.3981216835649315,
          -0.35400115284835637,
          0.029001505490561574,
          0.4914459018978332,
          -0.021010127732214112,
          0.15541081431727655,
          -0.25511539315512616,
          -0.3344869456801554,
          -0.2519010783364412,
          0.44405703847614797,
          0.39149950988203375,
          0.4875505999494202,
          0.20906279048827792,
          -0.4420080345232692,
          -0.21535552803384095,
          0.40426225470011434,
          -0.19402199325288544,
          0.2913727339891852,
          0.11813693555728866,
          0.15004805623653128,
          0.10612845983062424,
          -0.37420197675007016,
          0.2120252620507055,
          0.144822066338807,
          -0.46440010080839145,
          -0.18812647301156254,
          -0.3920451003642307,
          -0.247283224818716,
          0.18027184442243138,
          0.28219370910160924,
          -0.18025117999728862,
          0.47838503034053925,
          -0.0930209936064868,
          -0.4985891513588468,
          -0.15165703015773746,
          -0.4264454473125074,
          -0.3595559962236167,
          0.46575741589959796,
          -0.5071337994763188,
          0.364907596491307,
          0.502114787165874,
          -0.10924780219930907,
          0.1848387879091179,
          0.3075392668072019,
          0.28839151757894865,
          0.2745803150901005,
          -0.30556394881507853,
          -0.23100045390317037,
          -0.39869695728076104,
          0.039336726114632126,
          -0.40467794426942294,
          -0.40102266088255134,
          -0.49749094121465526
        ],
        [
          0.15590080644522974,
          0.3854313177370382,
          0.06268788854186902,
          0.22988754190131833,
          0.18656785664406894,
          0.385085405718964,
          -0.29566191464871716,
          -0.01780790636897628,
          0.48943440465273413,
          0.057614379697295104,
          -0.4762926792256766,
          0.4946691695952783,
          0.4319640803111292,
          -0.4489649402569952,
          0.10276140577684345,
          -0.399491995916493,
          -0.5051984116929319,
          0.5102310925770344,
          0.4591672471902466,
          0.23802941337451622,
          -0.47965111672368693,
          0.43621488055068347,
          0.34996395864068464,
          0.08502392008591919,
          -0.3063717449139305,
          -0.02199380790857025,
          -0.36607417438574835,
          -0.40647800211520196,
          -0.04090589465749228,
          -0.3327698897014916,
          0.4359122037679748,
          0.06419438399362287,
          -0.1771688593406328,
          0.013003576372206838,
          0.3965565817122051,
          0.4487718734698779,
          0.06461986722870672,
          0.32726846324488623,
          0.06092677088200815,
          -0.038079600462086305,
          0.25625458922536004,
          -0.2153934453766413,
          0.18085034339608763,
          -0.3727183093405998,
          0.13267465538158996,
          -0.17253737062868318,
          -0.06625644641917017,
          -0.00860165241481814,
          0.1635840027358174,
          0.012435156713107798,
          -0.3249596456088598,
          0.4286920395933329,
          0.4255420131770472,
          0.31718792780493743,
          0.12954432389285342,
          -0.42470645240486615,
          -0.3488763053410455,
          0.4624287186974335,
          -0.20435947086628792,
          -0.3191237130371698,
          -0.36388285588202174,
          0.18558771928053786,
          0.2814646650398934,
          0.3390448136104395,
          0.03128721829187531,
          0.4968958115632327,
          0.3721353765629204,
          0.08002312038267845
        ],
        [
          -0.28302317739017485,
          0.32935673463206816,
          -0.2857654965928004,
          -0.03444771644188588,
          -0.4649717162105412,
          -0.4652928642072957,
          -0.07781719772601842,
          0.23747559991474243,
          -0.48653333102198215,
          -0.32163029497705886,
          -0.06489842363500092,
          -0.36533468823249504,
          -0.2959024159444064,
          -0.2925866744079376,
          0.13528539224188418,
          -0.22108359443506953,
          0.27262698139596864,
          0.35435571067171023,
          0.47631626459249965,
          -0.2138534207894059,
          -0.06774559799092145,
          0.39866907875221547,
          -0.39671173045199964,
          0.40955939741236114,
          -0.18777150857443692,
          0.4242166601665738,
          -0.08536748407084227,
          -0.4089803045817827,
          -0.39037323391875467,
          -0.5022842401926038,
          0.46525670900495353,
          -0.015077309062724364,
          -0.10862759615458595,
          0.06674741805335205,
          0.060125581935153494,
          -0.13171033710158425,
          -0.46403995326532804,
          -0.33503178635859,
          -0.5001915029033074,
          -0.4675163135114643,
          0.3572903155489029,
          0.09509655929286431,
          -0.45194798414696274,
          0.4150214480516321,
          0.3610344093788531,
          -0.0876607745850927,
          -0.4104878319581185,
          0.09962446775679279,
          0.18601074178508592,
          0.29242136286194986,
          0.37480925954706357,
          0.34376960454666483,
          -0.3096297625346879,
          -0.4067155124381639,
          -0.1829494406250945,
          0.21289415016331004,
          -0.4480283317242779,
          0.2899490668763798,
          0.3898023216191251,
          0.40068054949161114,
          -0.2807261615965325,
          -0.06793736794157551,
          -0.31025721631621506,
          -0.3086332860326626,
          -0.4634056618344522,
          -0.018021341677875335,
          -0.38231521648591865,
          0.02162635026000037
        ],
        [
          -0.49790087176688175,
          0.18438390416971895,
          -0.4444689119192056,
          -0.16980144426342797,
          0.3920793926522289,
          0.18407135677154984,
          0.20684938489097437,
          0.5074176044327583,
          0.4585972543193041,
          -0.08675928096278579,
          -0.007605493083643666,
          0.502778766101234,
          0.3357914109487564,
          -0.3156291834357178,
          0.29749784687486713,
          -0.34316602830472015,
          0.2180776609813596,
          0.4699263719716762,
          0.30827464472485455,
          -0.08249234241999837,
          0.49002690609823185,
          -0.16127285822876647,
          0.3442064732691509,
          0.44688209863566697,
          -0.011496035944564387,
          -0.1560925780692312,
          0.38243996534727,
          -0.07945427367438301,
          0.173211711384617,
          -0.04341870068254938,
          0.004478373582409323,
          0.3474505138972157,
          0.45369850326297023,
          0.39166097244326403,
          0.1469597213997671,
          0.12111499632975975,
          0.3337406397196827,
          -0.4536204236137799,
          0.020165821925633876,
          -0.15524830590542754,
          0.4545216384790537,
          -0.3415902585079826,
          0.053591340257218234,
          -0.1951657716600575,
          0.20575748398105276,
          0.08698827290933797,
          0.41490037674242,
          -0.36235097706378405,
          -0.14408743718197287,
          -0.11253091456564607,
          -0.09930144086975862,
          -0.06768429520445801,
          0.0673787131865583,
          0.31149767923408667,
          0.5028083916259383,
          0.4681361619115001,
          0.09461652417218913,
          0.06522723055353297,
          -0.20625373216388093,
          -0.15911281033941643,
          -0.1684521093116425,
          0.5006147817010631,
          0.16318216439600142,
          -0.21607636424378796,
          -0.47969693845733824,
          -0.11950250980377675,
          -0.3488654955529335,
          -0.46137661735091345
        ],
        [
          -0.4207112938690971,
          -0.15093861412313198,
          0.07842553800252627,
          0.4140141665267254,
          0.30795735922637735,
          0.339503685927251,
          0.4777483841782749,
          0.015913492959843345,
          -0.229726907070204,
          -0.20968101726669103,
          0.3187642700226919,
          -0.04724164385366858,
          -0.03999270757668316,
          0.3429394031948658,
          -0.09911153228236391,
          0.21675579219682717,
          -0.205451307119076,
          -0.34082406416556865,
          0.2993392743753748,
          0.5033303125851509,
          -0.08190428264264987,
          0.26558901234412824,
          -0.02233869501794128,
          -0.43087560024982186,
          -0.1765190120317418,
          0.3025775339041561,
          0.33271379935872003,
          -0.3905899662464034,
          0.3634969171556126,
          0.3311662208114964,
          -0.4476436291412493,
          0.007257496081308434,
          -0.17980036038532404,
          0.45054577536603213,
          0.44478504566546606,
          0.3563008731377486,
          -0.16257670948606218,
          0.4801074219761782,
          0.058185895132163545,
          -0.336533257653014,
          0.3678925138497532,
          -0.16416487661846946,
          0.2563453687475328,
          -0.08965367674513985,
          0.40490032060358505,
          0.5072999199232069,
          0.34593681756736505,
          -0.15894208349715983,
          -0.5050656515105164,
          0.03688455061247309,
          0.48734908820226264,
          0.14691687529859943,
          -0.07571769451046179,
          0.08596124792158255,
          0.40044137209352026,
          -0.4850002040726106,
          -0.3893207358869968,
          -0.45102957127664683,
          -0.10464725982921624,
          0.15794142568263825,
          0.040123807590810245,
          0.3557228120013496,
          -0.3743090349969429,
          0.4291810701776019,
          -0.48056910406688325,
          0.08646161998117152,
          -0.3649213303202692,
          -0.46614543087279214
        ],
        [
          -0.1578644438860517,
          -0.13465424265639736,
          -0.4032704851287258,
          0.21220151171213897,
          -0.1292880447748987,
          -0.25311051096641113,
          -0.49205866847834695,
          0.2249041159166436,
          0.504499908737803,
          0.33520431553696706,
          -0.02418284982190344,
          0.05442223613683006,
          0.23790591169764008,
          -0.4650146070417501,
          -0.13957969787431562,
          -0.21268269901690906,
          -0.36575628039114433,
          -0.4894783119030757,
          0.3875556551307878,
          0.43255972161639955,
          -0.37427005917342,
          0.06843375808510854,
          -0.031609392789460566,
          -0.22516046378403115,
          -0.013167166065041369,
          -0.13911362926537957,
          0.27201499713638844,
          -0.3002009141836573,
          0.3250941342267807,
          -0.4986862097335749,
          0.4549300289921019,
          -0.3246707069277301,
          -0.4260302478625728,
          -0.19322722233518475,
          -0.2840696205747108,
          -0.5021651882052407,
          0.18359622613369952,
          -0.017288675702340273,
          -0.005570225341660184,
          0.10519676626791274,
          0.05391350525801608,
          -0.23226564503307917,
          -0.33914405974441275,
          0.02849963968965108,
          0.4776612855728366,
          -0.10515796431702318,
          -0.024958651711039892,
          0.3727237471718059,
          -0.2564033261619679,
          -0.22631470765210504,
          -0.15107082597816912,
          0.3063585455468215,
          -0.49614717623495436,
          -0.4794640753310686,
          0.38061521382515573,
          -0.46313626683776843,
          -0.4812711859063732,
          0.36511863239274445,
          -0.4188808726419133,
          -0.4990115903499422,
          0.4805493049052787,
          0.05440559919660859,
          -0.4968892780775611,
          -0.23996931932865107,
          -0.015544333503375918,
          -0.4943729401905637,
          -0.2782852086753783,
          0.23877718680843452
        ],
        [
          0.13656417474421256,
          0.354482443631325,
          -0.4784248952326606,
          0.26045648250436026,
          -0.4679217490694723,
          0.4649179205848981,
          -0.19073077830773438,
          -0.3612625180101895,
          0.017078501494292908,
          -0.12060538211980165,
          -0.4626449098672327,
          -0.2553503431667712,
          0.47667925529689414,
          -0.27417658049269333,
          -0.44565477995393915,
          0.3585797475126443,
          0.34478915686857703,
          -0.4654649426526922,
          -0.27538931330329125,
          0.4081306857063772,
          0.11396507820153945,
          0.4427683325233942,
          0.08620504631281511,
          -0.1761555044572068,
          0.36865754186079247,
          -0.47231212706677145,
          -0.5077312835191499,
          0.02014852733488648,
          0.41328195542882895,
          0.4974873338352348,
          0.09508166363614656,
          0.43234011275642903,
          0.3787127246664581,
          0.2374743451813207,
          0.19354998510094557,
          -0.2429990474052831,
          0.19594158926751404,
          0.47069787759588,
          -0.31553777465984717,
          -0.49003364520361925,
          0.3789446005725653,
          -0.087392861153057,
          0.4970305489625759,
          -0.32330591070159553,
          -0.3250099106452851,
          0.04031613537328149,
          -0.1439469564170665,
          0.4126771636783162,
          -0.4600019540726149,
          0.37864182324969553,
          0.062014793924430656,
          -0.3668424050674746,
          -0.31187260463627625,
          0.2338463654055153,
          -0.15161912579809816,
          -0.1354196307856646,
          0.27332436132238536,
          -0.16661042664052256,
          -0.06057690973994112,
          -0.48239307283779853,
          -0.4997732418410854,
          0.29269871251967183,
          0.4331705430793653,
          0.06767434278800921,
          -0.37680530836546894,
          -0.1113644593410642,
          0.48297311219070005,
          0.17524942085636264
        ]
      ],
      "b": [
        -0.38906982644641197,
        0.40707458266165497,
        -0.3725300450994683,
        -0.4763616887176627,
        0.04100930738813158,
        -0.036453392302429166,
        -0.016906943670643104,
        -0.3010642353701421,
        0.3903110447747866,
        -0.2910730847637181,
        -0.3428668800837411,
        0.09303425211101968,
        -0.026473484909715517,
        -0.43608406272480393,
        0.2006323524164796,
        0.36036993800950956,
        0.03600556184659531,
        0.18070251243890856,
        -0.2747438112244924,
        0.4095585967891878,
        0.1327964536347186,
        -0.12695126553307162,
        -0.017558920028052316,
        0.26105848223907246
      ]
    },
    "layer_2": {
      "w": [
        [
          0.5095721121891034,
          -0.18985564513215447,
          0.11378783986704089,
          -0.3909157623436686,
          0.3695970584425786,
          -0.021808750426364876,
          0.013322630549369663,
          -0.22770204672589234,
          -0.48282923616385637,
          -0.22937301382802888,
          0.5664729353674219,
          0.15874925503661785,
          -0.44128390773184123,
          0.5054408630013051,
          0.0880426827013393,
          0.2048229017486135,
          -0.015266213991569466,
          -0.7943856302925919,
          0.774334434629317,
          0.3432269234852471,
          0.11050548341031374,
          -0.6608076853610354,
          0.19869417376310405,
          -0.32996307420360116
        ],
        [
          -0.14842290432067207,
          -0.6464588496876855,
          -0.0973369293800247,
          -0.6320108956438105,
          0.2761393825108648,
          0.4411490242078894,
          -0.5341236648611993,
          -0.7558763411033483,
          -0.09858963538432208,
          0.5696003467423542,
          -0.40876005921477254,
          -0.5623580597789933,
          -0.7689098042075525,
          0.509677087859907,
          0.24268729565687763,
          0.14647775953237496,
          0.16032436528977123,
          -0.6447189557478453,
          -0.6361570707453119,
          0.024152203327892918,
          -0.031654659255530126,
          -0.24936468494016784,
          0.034953711397253895,
          -0.49299774317204115
        ],
        [
          -0.5346277869947004,
          0.14835367385305254,
          0.13051479371101438,
          -0.6229382980550624,
          0.6991894110010343,
          -0.2668125306029496,
          -0.4525254229936848,
          -0.3535444146505368,
          0.14216059224746003,
          -0.4862148023142092,
          0.09271251467845742,
          0.0797659483795653,
          -0.1517132876745958,
          -0.6511383128309285,
          0.006481319646647554,
          -0.48002105898128183,
          0.44973512465269894,
          -0.6816834842898938,
          -0.6691917375284646,
          -0.30403743458607047,
          -0.38708025500874993,
          0.013390603151534841,
          -0.4827895033571425,
          0.3909166755177559
        ],
        [
          -0.11605176837541009,
          -0.6854739741825889,
          -0.09084579755889677,
          -0.5099719391533797,
          -0.1641460601433723,
          -0.656535981417463,
          -0.32091446887932557,
          -0.583562210525794,
          0.7006693345440401,
          -0.31360462694847846,
          0.7519766872895631,
          0.10177680871109063,
          0.5739939179364045,
          0.4487372709834946,
          0.3627546894937278,
          -0.7221528101528055,
          0.5802189982898199,
          0.6419346615198421,
          -0.5741055964638168,
          -0.13929432595945468,
          -0.04562611102647285,
          -0.3927741156294527,
          0.5695345170099583,
          0.11208360969652897
        ],
        [
          0.03468282035989212,
          0.1196644045004922,
          -0.7553952192880907,
          0.5924345490634341,
          0.7296204173586859,
          -0.6342895816678437,
          0.017265861897819645,
          -0.5897063718603944,
          0.306808367678845,
          0.6927926356411832,
          0.15762946339544304,
          -0.38442986415089136,
          -0.7783364985955411,
          0.4049638866863644,
          0.6363456339762447,
          -0.36203060967743744,
          0.3705792646456517,
          -0.23594856366779304,
          -0.6868158256258637,
          0.29986097266097966,
          -0.5654190630167152,
          0.0350289840988508,
          -0.408569714482967,
          -0.6655775045001999
        ],
        [
          -0.7813380561325829,
          0.5305942184345697,
          0.7282735533415327,
          0.7496752399218084,
          -0.5451975657655498,
          0.006946283689263644,
          0.14667433212466774,
          0.1460251359301672,
          0.6992395937161665,
          0.07196729088549325,
          -0.2580220936609159,
          -0.44599562206782795,
          0.21254601140555052,
          -0.0593109332091164,
          0.15265748845340965,
          -0.49182368590626796,
          0.7897647852656161,
          0.08560426703833912,
          0.48375351906194586,
          -0.7837721725320768,
          -0.15735940402861492,
          -0.48309222644311317,
          0.3222420482601086,
          -0.3808059847781249
        ],
        [
          0.269773279776956,
          -0.1922655352217737,
          -0.6187437690933476,
          -0.4058745966730621,
          0.48264459440672647,
          0.7522246567536061,
          -0.29807283898953785,
          -0.7936398826029003,
          0.5998615097151977,
          -0.7917833345299896,
          -0.6830007634490004,
          -0.49819678007550156,
          0.3565214136379812,
          0.046178924760862494,
          0.25142251899075074,
          0.5186695859362304,
          -0.45492277491763555,
          -0.6442507974523707,
          0.28707427659795914,
          0.19328962174038677,
          0.7744853569083227,
          0.39339346289651667,
          0.7830038437917878,
          -0.7730502028807521
        ],
        [
          0.08623566983815534,
          0.5256367669381138,
          0.28675939195310607,
          -0.2839039050304746,
          -0.19978582813154933,
          0.1554268896073171,
          -0.3182860383101097,
          -0.5361543883337951,
          -0.23408914026280803,
          0.11012210856273863,
          0.6623724781892063,
          -0.6737141151618032,
          -0.7551839739791375,
          -0.288762155737174,
          0.391641508832553,
          0.7518367977349295,
          -0.778394969255981,
          -0.2530243612937876,
          0.4438604120882964,
          0.30143720175270816,
          0.7723828894725572,
          -0.2342045424788095,
          -0.7624574013324454,
          0.5188591465904925
        ],
        [
          -0.7192340521691327,
          0.037758248701944774,
          0.41396668390554414,
          -0.675133004050717,
          0.2723044139508791,
          0.0906779586598575,
          0.008801909285053977,
          -0.7866185086167558,
          -0.7458705578812015,
          0.018454818981440524,
          0.6004454765061159,
          0.6733405574686199,
          -0.20159594421878313,
          -0.15221460074934623,
          0.6421102975334231,
          -0.2687606886577105,
          -0.609915530575234,
          -0.271966992577915,
          0.4510071483302823,
          -0.47372464173793366,
          0.35678463695897145,
          0.4598238324537701,
          -0.5859398440555199,
          -0.31974859419357554
        ],
        [
          -0.44435357698181055,
          0.7299259997774931,
          0.6921509353371921,
          0.001301120220479568,
          -0.6803336877398102,
          0.3530184380770546,
          -0.6035016853986402,
          -0.36720387151254713,
          0.07260948845549442,
          -0.461097344210566,
          -0.7315759716200225,
          -0.19096326097714644,
          -0.5304709174020776,
          -0.03195255918713025,
          -0.02027280266122633,
          0.6741567598898622,
          0.19571607425007198,
          -0.6616798865270128,
          -0.7321441606861786,
          -0.2910096197780817,
          0.495148069590834,
          0.3203433125094487,
          -0.6672664911405728,
          0.06562365499110245
        ],
        [
          0.7511686991660756,
          -0.46166549231552734,
          0.5858466910795613,
          0.39973056119244277,
          -0.24771433350978567,
          -0.5417189333050692,
          0.3953263737923315,
          0.08242021996776872,
          0.6706268161797863,
          0.6182478658163258,
          -0.46355683793441355,
          0.6946828030932141,
          0.30264110370836195,
          -0.36174363006225396,
          0.3135078292255079,
          0.5107372389246035,
          -0.48068097749340505,
          0.36966230858273275,
          -0.3057558472585353,
          0.5417698750705181,
          0.1706682557593049,
          -0.4543135382024431,
          -0.7176806882618236,
          -0.5342604816100283
        ],
        [
          -0.7254244943320881,
          -0.5191111564083453,
          -0.28630953448279917,
          0.18263027625947348,
          -0.5741650451047047,
          -0.7513897882411642,
          -0.7593197157759867,
          -0.3479998655810828,
          0.41184385288550207,
          -0.3163102781284764,
          0.16700667221776977,
          0.46398645936108285,
          -0.3792434384471933,
          -0.6462931591465968,
          -0.04083775713378679,
          -0.7012506081358096,
          -0.3049927598478231,
          0.6978489862534777,
          0.7530379086680657,
          -0.4832450723466291,
          -0.6191603292216943,
          0.3786264842054198,
          -0.07619517325464942,
          0.7478217800498407
        ],
        [
          0.7371507525438831,
          -0.12969617542015544,
          0.5852262007600112,
          0.20057721677024543,
          0.4900353145198214,
          -0.09821702205281468,
          0.45578045771602393,
          -0.14561988909034107,
          0.5705962747804606,
          0.3972381987905901,
          -0.6482979476958847,
          -0.22421996178624315,
          0.049679459309548535,
          -0.11326042133921166,
          0.7599245870193242,
          -0.20506864335548525,
          -0.6373387233916205,
          0.5570841535139762,
          -0.5087125771546288,
          0.5410631690484488,
          0.24394020348850776,
          0.33030651791288357,
          -0.7381984252306971,
          -0.7906843545527577
        ],
        [
          0.05856842176077892,
          0.5890231058412075,
          -0.6778865073521606,
          0.7260995867886243,
          -0.7482658866723683,
          0.7578102739393194,
          0.239153905647432,
          -0.1712199825671682,
          0.685971309487804,
          0.357520610325622,
          0.3569011422472864,
          -0.1499006817624995,
          0.5711593841570112,
          0.41644401577875445,
          0.4738961966840024,
          0.27947438460645413,
          -0.3834311838129896,
          0.5640517425479706,
          -0.7553549965457937,
          0.019107656478212776,
          0.7623254020892992,
          0.7647573233385486,
          -0.08407686126975578,
          -0.6234590033544557
        ]
      ],
      "b": [
        -0.3080734811030137,
        -0.6128291634863056,
        0.453606815711146,
        0.030618530167234703,
        0.7803799660941805,
        -0.2646088005943359,
        -0.3192919489436145,
        0.6229886108812192,
        -0.576596531234403,
        0.22246616126996666,
        -0.6019260667139152,
        0.21675629084839232,
        0.06218425494157798,
        -0.32599358808039147
      ]
    },
    "layer_3": {
      "w": [
        [
          -0.8194413568654587,
          0.7780251613978302,
          0.7252451811102536,
          -1.153614103367412,
          -0.8559833626887836,
          -0.4046500824785315,
          -0.9231644594439589,
          0.33430881966142567,
          -0.5857791182890444,
          1.1790366671830812,
          0.728158129493937,
          -0.3958638924252651,
          -0.9272430737691919,
          0.5140538709274285
        ],
        [
          -0.1432428824857248,
          -0.9759771605797588,
          -0.5506317549557804,
          0.9170789165910409,
          -0.26856502323419795,
          0.9220494619830935,
          -0.24740579665324813,
          0.23390319850567698,
          -0.3953194076316996,
          0.8220124588123698,
          -0.8928089109885633,
          -0.23430904646629047,
          0.7471769111479263,
          1.1131374685565376
        ]
      ],
      "b": [
        -0.6994911587933395,
        -0.29767251903477077
      ]
    }
  },
  "input_mask": [
    0,
    2,
    3,
    5,
    6,
    7,
    11,
    12,
    18,
    19,
    27,
    28,
    29,
    30,
    32,
    33,
    34
  ],
  "ablated_input": null,
  "ablated_value": 0.0,
  "output_param": "atan2_signed",
  "scaled_pi_n": 1.0,
  "delta_max": 0.35,
  "normalization": [
    {
      "transform": "none",
      "scale": 0.8655390346546353,
      "center": 0.9204641308303162
    },
    {
      "transform": "asinh",
      "scale": 0.8175600848274288,
      "center": 0.8867681772014051
    },
    {
      "transform": "asinh",
      "scale": 462.6300273768903,
      "center": -333.1697854608212
    },
    {
      "transform": "none",
      "scale": 5413222.0902614985,
      "center": -508770.60939412704
    },
    {
      "transform": "none",
      "scale": 1157.3507227945558,
      "center": 4549.679429911598
    },
    {
      "transform": "asinh",
      "scale": 10.358129862795693,
      "center": 12.17320223341297
    },
    {
      "transform": "asinh",
      "scale": 0.33924629426269115,
      "center": 0.40005844701414567
    },
    {
      "transform": "none",
      "scale": 0.42411593596120784,
      "center": 0.42858041580763234
    },
    {
      "transform": "asinh",
      "scale": 33.09832239288295,
      "center": 82.65759631477488
    },
    {
      "transform": "asinh",
      "scale": 0.0911362193061205,
      "center": -0.04718278665783951
    },
    {
      "transform": "asinh",
      "scale": 0.2151370816795333,
      "center": 0.29274513397808116
    },
    {
      "transform": "asinh",
      "scale": 9.832939972853932,
      "center": 11.55598244317186
    },
    {
      "transform": "asinh",
      "scale": 3.256400734674897,
      "center": 3.827025266270693
    },
    {
      "transform": "asinh",
      "scale": 5107742.117847206,
      "center": -3590633.2113008387
    },
    {
      "transform": "asinh",
      "scale": 10217099.16686349,
      "center": -6706141.091617538
    },
    {
      "transform": "none",
      "scale": 0.5,
      "center": 0.5
    },
    {
      "transform": "none",
      "scale": 1e-6,
      "center": 0.4262529995153208
    },
    {
      "transform": "asinh",
      "scale": 594.4827404994671,
      "center": 716.3429422450554
    },
    {
      "transform": "asinh",
      "scale": 412.89140647256187,
      "center": -302.7939124482325
    },
    {
      "transform": "asinh",
      "scale": 154.12675819494976,
      "center": -169.7611160606572
    },
    {
      "transform": "none",
      "scale": 1.5707963267948966,
      "center": 1.5707963267948966
    },
    {
      "transform": "none",
      "scale": 0.1,
      "center": 0.0
    },
    {
      "transform": "none",
      "scale": 3.141592653589793,
      "center": 0.0
    },
    {
      "transform": "tanh",
      "scale": 30.0,
      "center": 0.0
    },
    {
      "transform": "tanh",
      "scale": 100.0,
      "center": 0.0
    },
    {
      "transform": "none",
      "scale": 1.0,
      "center": 0.0
    },
    {
      "transform": "none",
      "scale": 1.0,
      "center": 0.0
    },
    {
      "transform": "none",
      "scale": 1.0,
      "center": 0.0
    },
    {
      "transform": "none",
      "scale": 1.0,
      "center": 0.0
    },
    {
      "transform": "none",
      "scale": 1.0,
      "center": 0.0
    },
    {
      "transform": "none",
      "scale": 1.0,
      "center": 0.0
    },
    {
      "transform": "asinh",
      "scale": 17774.23743300369,
      "center": 20521.130577512882
    },
    {
      "transform": "asinh",
      "scale": 500.0,
      "center": 500.0
    },
    {
      "transform": "none",
      "scale": 60.0,
      "center": 60.0
    },
    {
      "transform": "none",
      "scale": 100.0,
      "center": 0.0
    }
  ]
}