{
  "format_version": 2,
  "architecture": [
    {
      "type": "dense",
      "input_size": 17,
      "output_size": 72,
      "activation": "swish"
    },
    {
      "type": "dense",
      "input_size": 72,
      "output_size": 36,
      "activation": "swish"
    },
    {
      "type": "dense",
      "input_size": 36,
      "output_size": 2,
      "activation": "asinh"
    }
  ],
  "weights": {
    "layer_0": {
      "w": [
        [
          0.21570642624602576,
          0.5080821710243751,
          -0.33996558015839334,
          -0.4655552364338133,
          0.45395027583939085,
          -0.1938507165657356,
          0.31768814918437305,
          0.2943943732917237,
          -0.07235301567669516,
          0.2324010912727006,
          0.4499326051357576,
          0.18022962147645039,
          0.028036601233174863,
          0.3724043532007628,
          0.030777213125604108,
          0.05586088741541895,
          -0.3898886536758367
        ],
        [
          0.14405473524637424,
          -0.07252110861052963,
          0.0029429774670236553,
          -0.1496364317112554,
          0.38836545828683744,
          -0.26599179831480607,
          0.042714208031149004,
          0.09261533440705816,
          0.40272874014341986,
          -0.2583004052681943,
          -0.31852002936704205,
          -0.4568079089542074,
          -0.4467216710410529,
          0.2027033207069331,
          -0.37728488085561096,
          -0.2016811641245162,
          -0.3511583209214948
        ],
        [
          0.3469344645558744,
          0.19631353177118682,
          -0.34487609760194854,
          0.34520898219055585,
          -0.34338424333007056,
          0.47248518906743053,
          0.18991076702636567,
          0.45356473685163445,
          0.10310615740729223,
          -0.3712161435920607,
          0.34338640515367536,
          0.5149222086653028,
          0.14933528175155486,
          -0.001550141212340872,
          -0.16712426095058225,
          0.25447987068447986,
          -0.3328496854198443
        ],
        [
          0.19051597332874082,
          0.3806536004063862,
          0.3253445082484543,
          0.0772907393919714,
          -0.4547180327241266,
          -0.10603091917631202,
          0.3055184671239871,
          0.4984550644746534,
          0.27112996583562776,
          0.5136207706120556,
          -0.30484605851482804,
          -0.11973190890867486,
          -0.4480361526515943,
          -0.4548933871253339,
          0.1884003646183241,
          0.4431754898986705,
          -0.15519319254410563
        ],
        [
          -0.04344402122250074,
          -0.059829808923334615,
          -0.05587855640164202,
          -0.1077501665819185,
          0.02023116489909882,
          -0.3238004836824339,
          -0.37920711146456176,
          -0.3931009361240635,
          -0.45054300549090326,
          -0.3454087893374803,
          0.3328888276426154,
          0.10024500573563078,
          -0.3306837851241963,
          -0.43620892210874523,
          -0.5036427273904142,
          0.4965444649395133,
          0.3576802872184194
        ],
        [
          0.21767060176468167,
          0.35813484058125333,
          -0.4344123190578182,
          -0.35035382548926786,
          -0.44376263889534284,
          -0.17699036268975998,
          0.35832850092618385,
          -0.1887617913695968,
          0.3752653731289911,
          -0.013542415624015147,
          -0.1267595175241259,
          0.22737183490834134,
          -0.43691805498832903,
          0.27178702008804545,
          -0.11262797645920902,
          -0.44655509842206165,
          -0.10734468580664669
        ],
        [
          -0.0920493915893335,
          -0.029244340971241845,
          0.5071194558959241,
          -0.4420829133264531,
          -0.0828630421229235,
          0.5131721161574433,
          0.13172192974198071,
          -0.3079729618253175,
          0.4239466466992625,
          0.08939222426137383,
          -0.4137981924668486,
          0.257662767483651,
          0.23184836653896146,
          0.0632932568857203,
          0.20779548294982508,
          -0.2804561842507163,
          0.2788116936972258
        ],
        [
          0.2168304192030237,
          0.30948136253157266,
          0.2970174791265633,
          -0.2464110390996248,
          -0.3978803558509079,
          0.2521974578032826,
          0.0036072058284096764,
          0.008165839323388657,
          0.5002693016535501,
          0.45092967947454476,
          0.14152851825442492,
          0.42556895257662863,
          0.013589568855903345,
          0.347198446946794,
          0.26434319139375806,
          0.13093502867680917,
          0.43359647037560656
        ],
        [
          0.23241761833004715,
          0.2925329042546767,
          -0.012851619643348577,
          0.06487904513734877,
          -0.13054689442581136,
          -0.029106743346131392,
          0.19727400836035458,
          -0.027768112472327744,
          -0.016303144185120688,
          -0.246138307203555,
          0.4382133106712519,
          -0.07642672014405849,
          -0.5095455672226762,
          -0.11395894729645628,
          -0.22736084371677595,
          -0.4813890904100982,
          -0.4615913810549465
        ],
        [
          -0.22955572751277187,
          -0.22667805939548402,
          0.13613590854717184,
          -0.3190523170297031,
          -0.030014286655226985,
          0.44880271666900884,
          -0.1402151873064979,
          -0.44522059052080687,
          0.018285037396707615,
          0.0033850375109705233,
          0.2765955173940394,
          0.04945889405884851,
          0.19336836593612317,
          0.2714457166380132,
          -0.14874306230033113,
          0.4134968811746693,
          -0.07005355401194202
        ],
        [
          0.16391133792094492,
          -0.45039241493449833,
          0.29421083504877676,
          0.4876757648317954,
          -0.14338136758779507,
          -0.21946187881256551,
          -0.32176663716247395,
          0.47089767849046826,
          0.27682993259564337,
          -0.08577959510983058,
          -0.04899187147531431,
          -0.4026186070997928,
          -0.29522194390370826,
          -0.43565028849017606,
          0.3340558245914169,
          0.1797489078115182,
          -0.37723253556530995
        ],
        [
          0.38908155160559144,
          -0.2574913761362411,
          -0.16436205089813705,
          0.2690436454037455,
          0.008523659733701838,
          -0.11103090513806113,
          -0.14231805840794287,
          0.2977196721541421,
          -0.37693876578615293,
          0.48233039549401424,
          -0.2193403652240255,
          0.14069690685614322,
          -0.03469870924411933,
          0.2683339908486727,
          -0.0366304405703024,
          -0.347108696485526,
          -0.12860503123663442
        ],
        [
          0.28551356972699293,
          0.4375509947528641,
          0.4993353221636102,
          0.04600197365832592,
          -0.48248620567759104,
          0.1365991521037906,
          0.30555231645695036,
          0.04288563021441816,
          0.34019623589663406,
          -0.13630662348898936,
          -0.0779976168567309,
          -0.23028760904505596,
          -0.17255889602119623,
          -0.09571325906578232,
          -0.3350667212733669,
          0.3892882595552758,
          -0.20121455912894448
        ],
        [
          0.20793386165401107,
          0.508951109525222,
          0.01131993956420263,
          -0.21574402040079577,
          -0.3931787130826647,
          0.08605296629565795,
          -0.4451415558402909,
          0.025764829792331745,
          -0.46176429294404137,
          -0.48298153278819145,
          0.21454442236700821,
          -0.42088208223549817,
          0.49641555337489496,
          -0.06183774067225467,
          0.41871958362152273,
          0.05085227463814235,
          -0.09960222905622168
        ],
        [
          0.517605587306727,
          0.027214724881006847,
          0.2735801915695474,
          -0.24529015383567382,
          0.3328100429526215,
          0.07266313587446427,
          -0.20974454443653884,
          -0.2810906810525271,
          -0.2847944718029161,
          0.48579140663924025,
          -0.4076950826363259,
          0.2373785466550541,
          0.45532489837986856,
          0.19267690709552987,
          -0.49660165053748495,
          0.258758692466289,
          0.030511548129053212
        ],
        [
          -0.28177617604176763,
          0.3552528803225111,
          0.17981810135241094,
          -0.2310978010831472,
          -0.3274013459815046,
          0.431575583611848,
          -0.43608461399451615,
          -0.4400752597691795,
          -0.3414205441071777,
          0.37239950103326414,
          -0.3540424021674506,
          0.005761731565113171,
          0.491920803204584,
          0.4760521141207458,
          -0.27816667446416166,
          0.10183994216202608,
          -0.26774242443658636
        ],
        [
          0.13014673247506758,
          -0.13299150116491437,
          -0.3337639927653409,
          -0.2898725779651995,
          0.30427338898084577,
          -0.17108852723584106,
          -0.32861455099175846,
          -0.3262528925439553,
          0.1375802270485913,
          0.33661808572092955,
          0.4760245111735718,
          0.2202853243641486,
          0.02090836477293956,
          0.44883680202482445,
          -0.21063969255132686,
          -0.15240355288886387,
          -0.3269209994555877
        ],
        [
          0.48775896111650596,
          0.2620680248131084,
          -0.5060881093262671,
          0.385251871435597,
          0.029418490308569245,
          -0.48034511972962435,
          0.5045808504046755,
          -0.043324409731201496,
          -0.15808717842430936,
          -0.49978295899577607,
          0.4344641607497173,
          -0.00029869059221510064,
          -0.02105917899835913,
          0.49579895879363167,
          0.11716803522259589,
          -0.1271346453076702,
          0.021210094234568655
        ],
        [
          -0.24668838281324318,
          -0.05364716736249814,
          -0.06709636400670527,
          -0.008058469379335076,
          -0.4151705622213761,
          -0.09565252162245469,
          0.25843461495007103,
          0.46909877951466805,
          -0.15591761806986604,
          -0.1873891439719258,
          0.47834640251629745,
          -0.06862351931920346,
          0.10139948441997582,
          0.39820319904268553,
          -0.08305849389365116,
          0.31084815078810346,
          0.4278215671443526
        ],
        [
          0.16583694013365124,
          0.019788897673997496,
          0.5082673560687087,
          -0.40395497971145394,
          0.08396028638915376,
          -0.46845187570934016,
          -0.43839567108381994,
          0.05659825476123603,
          0.12794399194207362,
          0.4568741383980981,
          0.12011751358194311,
          0.3423957670382247,
          -0.1873523609394004,
          -0.4285234935901847,
          -0.4124111303963319,
          0.044508245157768855,
          0.45876857215098954
        ],
        [
          0.2989462318207097,
          -0.22243998149187943,
          0.36929411174829263,
          -0.17769812001744578,
          0.06243985868553725,
          -0.11490474364458608,
          -0.4650429611524854,
          -0.2730220663826318,
          -0.4624271282334262,
          0.2140187120618351,
          0.10575599376233236,
          -0.29148860760049133,
          0.04145710171013495,
          -0.22745662995856908,
          -0.015665326620576625,
          0.11949182266883418,
          -0.02206926001323606
        ],
        [
          -0.10940837369375017,
          0.0443613465554753,
          0.06265827180416828,
          -0.07162238674363802,
          0.3116186746140852,
          -0.21838745107941504,
          -0.4728878347857874,
          -0.49573280385548546,
          0.5144212288093931,
          -0.043230628094025225,
          0.0639961899163991,
          0.07341570921332319,
          0.4227315640992235,
          0.18816445663479509,
          -0.015211682999235254,
          -0.4076347711145326,
          0.2547771121876662
        ],
        [
          0.08741703538565748,
          -0.07866495518928873,
          -0.1468737042166342,
          -0.4598794408117544,
          0.22783281981469494,
          -0.12811710888192612,
          0.15781954062218606,
          0.030432437451338945,
          -0.15848697627378455,
          0.4672562351406453,
          0.35250633603080705,
          0.3484722090546615,
          0.43692917872152925,
          -0.4274285332520265,
          -0.18261007065387336,
          0.47475667739489125,
          0.49305504109358267
        ],
        [
          -0.2975634404381319,
          -0.1180465474739884,
          -0.07264689724101264,
          -0.35055119931537837,
          -0.35947448721588704,
          0.02276914332871638,
          -0.19326310242594352,
          -0.30541066848498977,
          -0.05930959111396977,
          -0.017572708273180138,
          0.1741148648384403,
          0.3702032859661548,
          -0.38114988022602625,
          0.25327944271771496,
          0.41261120374258553,
          -0.5071297542165134,
          -0.1503095599828908
        ],
        [
          -0.22461921518916356,
          0.44189643265055956,
          0.1003165307617454,
          -0.4521815778656315,
          -0.12963979383262664,
          0.20667843964620425,
          0.33857439364788955,
          0.1552465401213251,
          -0.3369347221286365,
          0.2064125633517483,
          -0.011644432793705639,
          0.25357375182667485,
          -0.2775638378805669,
          -0.2839271657154613,
          -0.058514275131260673,
          -0.3656940418334379,
          -0.06344985416093041
        ],
        [
          0.24566485413938155,
          -0.40708998691955034,
          0.3543345923194816,
          -0.3615270561344166,
          -0.1728503658320486,
          -0.3415032257662465,
          0.3584370141010632,
          0.16213402109750907,
          0.3378701423940911,
          -0.39733759677858493,
          0.20801958271048038,
          -0.08590382482085679,
          -0.2036945094172286,
          -0.034568375198384405,
          0.2736158928283734,
          0.21008159581307106,
          -0.3596506710556163
        ],
        [
          0.23979527090415864,
          0.06857957726332886,
          0.13083137780580167,
          0.1846460675247561,
          -0.3066052157414866,
          -0.28865658818812423,
          -0.437544029089705,
          -0.2603700074271728,
          -0.061587479914261056,
          0.24315122954206858,
          0.4060461913223643,
          0.05599059202144774,
          -0.2780786605996575,
          0.2902586897707373,
          -0.053876897015642744,
          0.26959870001627595,
          0.3459250881603688
        ],
        [
          -0.25988776312571,
          0.16853456086292073,
          -0.27979523757130076,
          -0.15446123215959712,
          -0.06441854043219103,
          0.1660913920244832,
          -0.5123433343439668,
          0.27492211904785857,
          0.010395863038478947,
          -0.1889711971791626,
          0.46235837596868234,
          0.18289972428832635,
          -0.4839890203981026,
          0.38023962320042504,
          -0.27102544780273763,
          0.10887964491243651,
          0.4633968979072155
        ],
        [
          -0.024817796885059473,
          -0.45908125327215393,
          0.007569636862059137,
          0.29568369146769524,
          -0.2729874602219685,
          0.3036856221745484,
          0.23508221014089314,
          -0.26815068815754334,
          -0.296703500501783,
          -0.10911870644761734,
          0.2525659205076951,
          -0.39904008414614534,
          -0.1792023024159079,
          0.1992911843196865,
          0.1646570764025711,
          0.4452107878549372,
          -0.5071833874746836
        ],
        [
          -0.29711867394445807,
          -0.24828103753527586,
          -0.03175059911204875,
          -0.3220950941699747,
          -0.08363225514085831,
          0.38023392550637347,
          0.430603602026458,
          -0.48116964702088877,
          -0.25620460564154396,
          0.211486441695664,
          -0.009788794831624315,
          0.50348794319808,
          0.3298218292674765,
          0.3133381830279479,
          0.09739929430716299,
          -0.3367677789871953,
          -0.1821716868354809
        ],
        [
          0.22088482405931065,
          0.10840258065691155,
          -0.3517632591014477,
          -0.0004697248553806599,
          -0.4967432463403924,
          0.5082541516711013,
          -0.4522300502265448,
          -0.20043881604184077,
          0.018727513063133583,
          -0.06476889332585645,
          -0.4561238492352363,
          0.10135037349727927,
          -0.058795016555288904,
          -0.47504072163170225,
          0.09586547721919703,
          -0.37034140343064803,
          -0.11161676774380419
        ],
        [
          -0.317623155588011,
          -0.26270525341215134,
          -0.4928906940793242,
          -0.42848428613684875,
          0.3096706107477937,
          -0.4004277054582049,
          -0.5052678701953731,
          0.3400139179527457,
          -0.1459033214511874,
          -0.22674492441469057,
          0.05828088972514933,
          0.4933203096338402,
          0.1240255912241216,
          0.47661063717185403,
          -0.3589854043686058,
          -0.2818049318524374,
          0.46491511313025147
        ],
        [
          -0.4522372407196588,
          0.05997526879609605,
          0.38254236737047387,
          0.411542626857172,
          -0.3264784358614549,
          0.4018487794224165,
          -0.05934137942146056,
          0.3026276491618298,
          -0.2825877722112603,
          0.42693154003885103,
          -0.28362858870127367,
          -0.04899974339702645,
          0.4977798428236625,
          0.3699568005554178,
          -0.07630747980724162,
          0.2051793046740813,
          -0.012146975983516994
        ],
        [
          0.3192936725230462,
          0.34557426110412315,
          0.42834143562067184,
          -0.3072758158350123,
          -0.005805406603196395,
          0.13988920503799596,
          0.385147936745448,
          -0.020959360381324565,
          0.3028274904434509,
          0.34244585948171813,
          0.13043357784760612,
          -0.37222666137899585,
          -0.37610976283405484,
          0.2153208877535382,
          -0.39923833318916885,
          -0.40843816612427114,
          0.2518244469941897
        ],
        [
          -0.2908587876419202,
          -0.46426360578666637,
          -0.3066451892549886,
          0.1312213395583729,
          -0.22726732021110896,
          -0.4136364371294642,
          0.06076324301980596,
          0.22306925412942935,
          -0.16047144209223552,
          -0.2195377854355477,
          0.5016793776235241,
          0.14033101959434002,
          0.4872304043238823,
          -0.2769723346123343,
          -0.3897398123698674,
          -0.12176180191073743,
          0.045169008421371726
        ],
        [
          0.2132170318611587,
          0.13579277325799155,
          -0.07708939807331866,
          0.4201582242683859,
          -0.4229112346081196,
          -0.09432308434113895,
          -0.13098365784378252,
          0.0938750157290118,
          0.005573695876116003,
          -0.43192931065427576,
          -0.5128723079267146,
          0.2557198918160102,
          0.21617019113680824,
          -0.29957884275008206,
          0.11120289091466729,
          0.46149137413346475,
          0.17924319961962354
        ],
        [
          -0.05285805754446499,
          0.4938781624304419,
          -0.16935068607241216,
          -0.33838086829229824,
          -0.05643170322677643,
          -0.16932840792629433,
          0.49867356811104535,
          -0.10510095093506655,
          -0.05254416195524514,
          -0.36681973497108905,
          -0.157560575522663,
          -0.1869664872212322,
          -0.28384392037214223,
          0.34408509959689837,
          -0.13108117627639848,
          0.3150459514104553,
          -0.17653528509855654
        ],
        [
          0.2570778563679621,
          0.25773482238301715,
          0.3200862057956819,
          0.15896724343897284,
          0.0003939782973304551,
          -0.3905080304233028,
          0.17348131004318557,
          0.16600848984856165,
          0.04051876189885495,
          -0.06552919662877726,
          0.04983581370921175,
          0.27603231429274655,
          0.09498919601357769,
          0.4465907128147917,
          -0.45809806518290425,
          0.2940182890959748,
          0.5132128095341778
        ],
        [
          0.34876733838308205,
          0.02445967690788453,
          0.11475361216283542,
          0.1995475062030625,
          -0.09960205480034828,
          0.21099368444371758,
          0.2696146238527154,
          -0.42481885144903037,
          -0.3668039018381945,
          -0.17045811522670362,
          0.3824443429648131,
          -0.4439176228206226,
          -0.49154218060501265,
          0.08501876256053809,
          0.09448249354046301,
          -0.07074329067769664,
          0.2168981375260337
        ],
        [
          0.17982686298849881,
          0.051888376414864656,
          0.05511385254946777,
          -0.38416577211944763,
          0.108170251009294,
          -0.41277744527668325,
          -0.23967893863138123,
          0.32511398416613824,
          -0.3412904985587889,
          -0.06022602562380219,
          -0.5077286074245194,
          0.4218318987056616,
          0.13020061020846652,
          0.30576276693320525,
          0.03185214329297792,
          0.24375169733004032,
          -0.41889351384518053
        ],
        [
          -0.19427830249699335,
          -0.1023682187643371,
          -0.34889169364588035,
          0.2920733698638225,
          0.23560806910931031,
          0.14424679620397862,
          -0.2118722101038047,
          -0.11850798448960942,
          -0.19114813826473426,
          -0.42485667648340575,
          -0.33314754354066567,
          -0.48625143238805957,
          -0.4655516951693215,
          -0.27577431472501956,
          0.3279815543322897,
          0.41833264141666693,
          -0.4895988467864758
        ],
        [
          -0.2058487927495305,
          0.4274105426253094,
          0.18894234481392924,
          0.3937325195635064,
          0.29010708948440334,
          0.48993250826764323,
          -0.4456072234258,
          0.04046177316124189,
          0.4065469305808901,
          0.12278744772737238,
          -0.4890132651273454,
          -0.15638142699836244,
          -0.3846337658377336,
          0.18620688711555067,
          0.0871171122581168,
          0.013199363013757681,
          -0.18125601085956955
        ],
        [
          0.3271064325516839,
          -0.1951435551299448,
          -0.028083042981845385,
          0.2666976486727405,
          0.26788548364938236,
          0.03597850825169302,
          0.01595746984261215,
          0.14159701470907038,
          0.2839712810901125,
          0.31002342413818196,
          -0.054863971310381454,
          -0.13136450068965216,
          -0.09519174055558455,
          -0.13841537936151938,
          -0.3980850930129496,
          -0.21069746327482058,
          0.001761645617965324
        ],
        [
          -0.37489155066576596,
          -0.1830831473592862,
          -0.4460058146612636,
          0.4882928115704658,
          -0.20979801128453024,
          0.3485330196490827,
          0.024647278827566232,
          0.3625038422086516,
          0.1660801269722525,
          0.14518316169591827,
          -0.3067001920634411,
          -0.08074741597789392,
          0.16694502247975773,
          -0.2835373223625432,
          0.29332464354550136,
          -0.4179004586651066,
          0.38813732519807664
        ],
        [
          0.3973648233595004,
          -0.08971732750762645,
          -0.3446188510825683,
          -0.20589533647337116,
          -0.014777835685012675,
          -0.14213768246743547,
          -0.1394998044032521,
          0.12648135975092611,
          -0.15156213119502848,
          -0.06761018126730356,
          0.009919971854051135,
          -0.47766916821713284,
          -0.3847249429950905,
          -0.35308935209201453,
          0.14799285625057945,
          0.3059807264686756,
          0.1392890250843165
        ],
        [
          -0.33005742116771386,
          -0.13714963814134828,
          0.28625686439279596,
          0.3509681606354682,
          0.11760230067577027,
          -0.10531937751294368,
          -0.4781880286626414,
          -0.010827868534783347,
          0.4127629328073972,
          -0.12021023550194276,
          0.016789018418119306,
          0.22116599041412743,
          0.2831844655007023,
          0.351224949285728,
          0.44351677120322575,
          -0.21377375482853334,
          -0.4880346087570526
        ],
        [
          -0.05715023994056462,
          0.12264293058549336,
          0.051667799586609275,
          0.27257942822623416,
          -0.01624584861289191,
          0.4224190601770581,
          0.39758309130160907,
          0.004277152793800587,
          -0.24552522042711022,
          -0.28339469531929584,
          -0.48498480657204807,
          0.45418274356538335,
          0.3689349858415094,
          -0.43768558500646615,
          -0.39639799893312594,
          -0.051372220006939584,
          0.2813117108514914
        ],
        [
          0.43745431104659016,
          -0.1684963016930659,
          0.2985608525173662,
          0.25507658068799866,
          0.054434303792670335,
          -0.09309538652485494,
          0.12104228248882642,
          -0.4271117134948686,
          -0.3689611806837192,
          -0.2527471756554711,
          -0.08186342830326565,
          0.20998910265298132,
          -0.4251394461296809,
          -0.05897069398206112,
          0.216709591496262,
          0.5070542070588274,
          0.195928597341389
        ],
        [
          -0.4514053013162531,
          0.5068188421171737,
          -0.367614822629161,
          0.22057494812454415,
          -0.36880151270337524,
          0.37702793268459167,
          -0.07824424465716989,
          0.3799978453644436,
          0.13750965754547018,
          0.03948385304100488,
          0.3046675025049713,
          -0.3385237256726333,
          -0.2293315485317366,
          -0.1206588767705205,
          0.014059648600647567,
          -0.03456078150474706,
          -0.2119883334773402
        ],
        [
          -0.40236671339077473,
          0.40768777416588897,
          0.11159045247713628,
          -0.37240161124693283,
          -0.22084674791568187,
          0.11572022858744968,
          -0.22880841664419727,
          -0.32907559318037516,
          -0.33238377006508923,
          -0.4896295906377542,
          -0.40999265901912196,
          -0.3992073314972167,
          -0.4369153301424227,
          0.4799589179639766,
          0.06083492528594858,
          0.3086548263445893,
          0.03722109414316932
        ],
        [
          -0.17993380316374386,
          0.29866209009055567,
          0.11519662123366237,
          0.3501469670047621,
          -0.09667592656613938,
          -0.4035769889136663,
          -0.5071277977482788,
          -0.33561181185153066,
          0.05445851940254698,
          0.28598500747732025,
          -0.25673474754054043,
          -0.20322281227940742,
          0.3282956139949408,
          -0.17118712138015962,
          -0.39316343271899873,
          -0.48479812318157317,
          -0.5097980817289977
        ],
        [
          0.2927689166154873,
          0.46090310008370494,
          -0.1884028569994397,
          -0.39077128959365237,
          0.5176757875044434,
          0.28697011781117354,
          0.3027755381575695,
          -0.04915914932278587,
          0.32066288215658056,
          -0.45517987182930864,
          0.3621070870244343,
          0.12817670043134655,
          -0.1649397992550587,
          -0.372060745081106,
          -0.348941078898637,
          -0.019148016591515327,
          0.28409832057756257
        ],
        [
          -0.2570081849252865,
          -0.3065250212546622,
          -0.004768692348395054,
          0.4345664216940154,
          0.14294220729915652,
          0.4105172288723197,
          0.20159353960531978,
          0.06685460015586075,
          0.33900728008041603,
          0.050982803776651986,
          0.20553226577455075,
          -0.2522311977686423,
          -0.34594683104584745,
          -0.15852127748419836,
          0.26510414819984096,
          -0.20042116953933065,
          0.24039886161481372
        ],
        [
          -0.40671223772801324,
          0.2044355502530535,
          -0.5054074612811442,
          -0.10904923512279169,
          -0.01707032224956928,
          -0.07344082064931373,
          0.17055360671674624,
          0.003006903184657128,
          0.17539806955385195,
          0.18363604438850212,
          0.23527956754459345,
          0.2792681309073738,
          0.17537998528000676,
          -0.39566417064958426,
          0.122452796906385,
          0.5101262389089888,
          0.37307582628574243
        ],
        [
          -0.11136821653797258,
          0.031051941184632947,
          0.19333893527754575,
          0.44558251266065774,
          0.482370163808424,
          0.27505942954353024,
          -0.05519842938891106,
          -0.48468974578821444,
          0.06210167537758038,
          -0.2181264522641676,
          0.2332656652197157,
          0.37513388386590085,
          -0.26234782286238173,
          0.24273391093602958,
          -0.13577624984951048,
          0.03679753455519741,
          -0.49141572410990664
        ],
        [
          0.40255262825995974,
          0.09592143406780695,
          -0.1315682151827151,
          0.12181742292890851,
          -0.33081247019889326,
          -0.24208476552466135,
          0.28129795170496896,
          -0.03870309909216113,
          0.42233852738917865,
          -0.28135058717324013,
          -0.15161175375025737,
          -0.06726099793290091,
          0.28870669882228295,
          0.18055722180573475,
          0.23125921012455908,
          0.19374951131643448,
          -0.033379465672081776
        ],
        [
          0.3948238610231386,
          -0.3666280014407782,
          -0.23576991100063893,
          0.1706322237959652,
          -0.3540200818426208,
          -0.0537064092324282,
          -0.2309613711761972,
          0.3268716584096957,
          0.3711514499350258,
          0.38261751185518067,
          0.35395009340994066,
          -0.012041638524289189,
          -0.21327193881312967,
          -0.3583406509716236,
          0.021845255255662055,
          -0.30759295641190176,
          0.4874445681508711
        ],
        [
          -0.04670532602499139,
          0.33689290266422334,
          -0.155820017766378,
          0.5164579650110305,
          -0.2114452166726098,
          -0.010308655684132084,
          -0.2713878252165077,
          0.4183780615448436,
          0.02163853107666114,
          -0.43000460079501945,
          0.44164513846637743,
          -0.2871828972060778,
          0.005641948056465118,
          0.04273685096651714,
          -0.33590254467161684,
          0.37130458365383834,
          0.29984262758116564
        ],
        [
          0.12895691084883565,
          0.08348108660964926,
          -0.2722175516256542,
          -0.5004312227964375,
          -0.4628604658797913,
          -0.07641612860858771,
          -0.03477121359341884,
          0.33312856346608166,
          0.4659292584717386,
          -0.17661147953934614,
          -0.2866137369417704,
          0.3900664882650653,
          -0.21413470218581115,
          0.1919800125499318,
          -0.009048578696180365,
          0.34875478071133315,
          0.3247373919564126
        ],
        [
          -0.04059140633665803,
          0.29430367708223737,
          -0.23233945544309492,
          0.10474509511236596,
          0.3853122759322809,
          -0.1455088348462119,
          0.39171310686490013,
          -0.18362303074837816,
          0.4714944753183732,
          0.4092496921964277,
          -0.39738159887307895,
          0.2820694980534688,
          0.21544458773473119,
          0.4146587381884924,
          -0.27511487343863233,
          0.49307736256119095,
          -0.21968189334978233
        ],
        [
          0.06408451019885109,
          0.1268672211106452,
          0.3159318002087018,
          -0.04936917109774697,
          0.08110777507890576,
          0.2733149146517877,
          -0.37756469127739956,
          -0.2827878651913708,
          0.38454713451331435,
          0.47768999723531425,
          0.0775416537043585,
          -0.12961397569729471,
          0.06934284278622993,
          -0.41137151530466803,
          0.06519381458335305,
          0.03771977101842505,
          0.31717277682568457
        ],
        [
          0.35207617813610725,
          -0.08202153954861102,
          0.23544776662068434,
          -0.3329371764922549,
          -0.14776274074898527,
          -0.23592507317544958,
          0.1792702183366014,
          0.3150736862978466,
          0.014338485484515662,
          -0.1654495819543485,
          -0.413229434538381,
          0.3063133269813725,
          0.4891134648242298,
          -0.438138902907963,
          0.4202271524484351,
          0.23723631736031936,
          -0.08905688060938582
        ],
        [
          -0.3771707763794292,
          -0.029615127429404087,
          0.0690238428292943,
          -0.31983371659455306,
          0.40326048078204935,
          -0.46696352335207103,
          0.4778249423803512,
          0.03202011546048644,
          -0.2658839802685407,
          -0.2961417259696032,
          -0.48594827450335143,
          0.03638978685830052,
          -0.3852710823177871,
          0.3078024175092219,
          0.06436264438561123,
          -0.28977813146631987,
          -0.2867525153255547
        ],
        [
          0.4303557426508394,
          0.19757249713174807,
          0.07951926003407961,
          0.3939199745665265,
          -0.10313684414358937,
          0.09445885148831445,
          0.30915126903583035,
          -0.04695348488697265,
          -0.3240998540352973,
          -0.2154440127638736,
          -0.011228532940556035,
          -0.35776488679818275,
          0.33684117688603366,
          0.22735842676669427,
          -0.3667627462404702,
          -0.28624588010267726,
          0.41273227798484136
        ],
        [
          0.2972655217406087,
          -0.416706736123015,
          -0.07163599125912812,
          -0.07637359717285452,
          -0.353015458626506,
          -0.36213065612442485,
          0.14440026256716243,
          -0.05904938083571515,
          -0.22899744617591067,
          0.4683950022411487,
          0.0019756564320103642,
          -0.3168455703160736,
          -0.38363179148492044,
          -0.4038383874589421,
          -0.18688721028619842,
          -0.25532576414925184,
          -0.42140318824597117
        ],
        [
          -0.18749539802793252,
          0.26825547425112295,
          -0.4598859743419914,
          -0.02121168347321689,
          -0.4557165501088499,
          -0.19198556279005197,
          -0.46196333381464993,
          -0.40522455566496335,
          0.30729933731714965,
          -0.19963355506417657,
          -0.2507457828108334,
          0.42615968650793334,
          0.45038932554985966,
          0.49680880881251654,
          -0.010838900507733729,
          0.5020983744434001,
          0.38411402028483554
        ],
        [
          0.5078403953329261,
          0.49951762963538526,
          0.3904704063238388,
          0.260221827001637,
          -0.13323097705188347,
          -0.347396111279784,
          0.1367895746417105,
          -0.14547194160748517,
          0.15700011431115324,
          -0.20161382499389363,
          -0.2506162972792211,
          0.2656687437860805,
          0.06066257235058692,
          -0.28032052886854186,
          -0.17270837688250545,
          -0.4730302182436039,
          -0.42866406399868984
        ],
        [
          -0.2995026121773253,
          -0.22959073739766866,
          0.15098076624420276,
          0.3427013025473319,
          0.18623991367506199,
          -0.14495264516204392,
          -0.14649587276194698,
          -0.08344389921067258,
          -0.2901113138410224,
          0.41584111393664647,
          -0.45733061034002914,
          -0.14004617743558084,
          0.1962932225909182,
          -0.31970093458995186,
          -0.046399673322188806,
          -0.19578901309314384,
          -0.4606533430581568
        ],
        [
          0.46396655295448097,
          0.1292441555762892,
          0.3003979276882869,
          0.04775930130932493,
          -0.11086848520153075,
          0.03250233565286487,
          0.3253820371489542,
          0.32113369276703274,
          0.050685675474470004,
          0.0638093557283711,
          -0.5046833746502083,
          0.27422449817190786,
          0.2904041665710929,
          -0.03336991120264848,
          0.16238368723297936,
          -0.000527186069345098,
          0.007063250919617237
        ],
        [
          -0.2956317407250994,
          -0.03796319939015008,
          -0.12530777129121096,
          -0.30687163973955905,
          -0.14164647392117535,
          0.3715574614169138,
          0.43954974605137676,
          -0.3155315134701361,
          0.425849973034636,
          -0.15452106674400234,
          -0.1199035998877312,
          -0.42296128453969306,
          -0.02692131639288342,
          -0.4838886400234246,
          -0.20781472852736305,
          -0.03423263634073703,
          -0.4441330894507974
        ],
        [
          -0.44883043129770367,
          -0.16229202644445834,
          -0.03725548817498903,
          -0.36681591607384567,
          0.417031678186343,
          0.3152427583812115,
          -0.05727679613406128,
          0.33957150959306626,
          -0.4473685410796336,
          0.303423701533292,
          -0.08817060350438621,
          -0.20859801958052882,
          0.057903970817615225,
          -0.21502610951704704,
          -0.21572427271517247,
          0.2642537963389928,
          -0.2535299371909237
        ],
        [
          0.3973878297241905,
          0.1879697888030868,
          0.3694277899223132,
          0.36361575137596214,
          0.2674468763608815,
          -0.2530635514938829,
          -0.008388571053209448,
          -0.3028778629830824,
          0.06160913331276563,
          0.0510969054006698,
          -0.3187165717792739,
          0.25350069217294446,
          -0.3267649783028721,
          0.2545747416232442,
          0.40659358726857553,
          0.33687692815706516,
          -0.46679301816175756
        ]
      ],
      "b": [
        -0.44117452204096813,
        0.3202632047982358,
        0.1238632179927247,
        -0.27181822105010983,
        -0.2236217665125651,
        0.2173784964763752,
        -0.026411302231876377,
        0.49134522569219186,
        -0.1960566589533972,
        0.2888974987347762,
        -0.4124344125204959,
        0.06658321804040002,
        0.48405191421052096,
        -0.1297799186006205,
        0.14767123690363892,
        -0.012174949987868167,
        -0.3932663854376618,
        -0.2211576266360577,
        0.4839899832648419,
        -0.4190281518222624,
        0.025016652324688637,
        -0.06701894733016611,
        -0.32439175640380985,
        -0.18568122484614918,
        0.516043224362288,
        -0.4267522409192554,
        0.40383147010824627,
        -0.4415922352337714,
        -0.19012837979997282,
        0.10640528579962005,
        -0.5075656594292131,
        -0.32842531816763876,
        -0.20877184149549483,
        -0.2487233353046946,
        -0.27772003918517413,
        -0.37545222418532753,
        -0.06725618242133347,
        -0.194395725725179,
        -0.29090540720565017,
        -0.509899579069231,
        0.4347698449908186,
        -0.1330929112162184,
        0.3692748446246351,
        0.4848979979935203,
        0.4548897941355794,
        0.29750810700026,
        -0.0657937232782988,
        0.3613916388126873,
        0.5066266724707985,
        0.29135270566726046,
        -0.491035034053583,
        0.27140368583512975,
        -0.4935091651080519,
        -0.4706432732608734,
        -0.38126657666565,
        0.19612313992510755,
        0.02367394992045946,
        -0.4044893856154414,
        -0.07525539091900907,
        0.25487755030609527,
        0.26090987706642077,
        -0.15934337370929463,
        0.2713597304290132,
        0.47031607126204,
        0.3841701415660882,
        -0.1252621263696692,
        0.13036138610392511,
        -0.32971525788247247,
        -0.2935692790500809,
        0.46565098120747817,
        0.059125599746944646,
        0.24744722836778377
      ]
    },
    "layer_1": {
      "w": [
        [
          -0.45675212569133394,
          -0.2741389512167732,
          0.35971262103064294,
          -0.1757588553458037,
          -0.1439210816403309,
          -0.10081308810755107,
          0.38768102039570906,
          -0.07592008226606178,
          0.20293885042789161,
          0.4398993969046906,
          -0.41015102946162635,
          -0.36716093247347203,
          -0.3025036233682873,
          -0.14303583005214965,
          -0.16495716772460467,
          0.3008356209014733,
          0.28341267548572524,
          -0.37717534463359953,
          0.3296788470684473,
          -0.4055150357869579,
          -0.14944285580846028,
          -0.2626055745046634,
          -0.021539964289386204,
          0.19064328242559558,
          0.171191563825279,
          0.4321627086808556,
          -0.10606890751889048,
          -0.19612621394692586,
          0.12407799483949555,
          0.06466792130891807,
          -0.32557002159365656,
          0.04120642038032585,
          0.24894938923707477,
          -0.11485505139444802,
          0.15123700568631293,
          0.43586420718964236,
          -0.12094104662878818,
          -0.1698461636863362,
          -0.22949698515611966,
          -0.1982042288481018,
          -0.35425520841377245,
          0.016934316127409532,
          -0.4120726056437281,
          0.26890664006999554,
          0.034655337676380404,
          -0.2469930064786623,
          -0.3533765629074208,
          -0.34894050156428297,
          0.279836270988165,
          0.07968504557393952,
          -0.1673347947982674,
          0.1254091631743247,
          0.0086111199373331,
          0.3983255307899426,
          -0.2567886317446177,
          -0.28683709408837255,
          0.11376196393191695,
          -0.16709311654031317,
          0.308293293283184,
          0.33167789125152747,
          0.2322382082248926,
          -0.3979015482731366,
          -0.001824047272931284,
          0.1332821107794151,
          -0.23924852319489712,
          -0.1071990360174423,
          0.02151162390606509,
          0.4524998996572459,
          -0.062442477197073076,
          -0.05848366862043747,
          0.19228155687660387,
          -0.06715632762406237
        ],
        [
          0.31045204397246184,
          -0.3190340343169295,
          0.012760085624243467,
          0.11838553071047664,
          0.431884778177812,
          0.05255184223137643,
          0.4487317904083594,
          0.10419601768368658,
          0.1567918277668081,
          0.4633223797060001,
          -0.40339559237556133,
          -0.12593379318272646,
          -0.12690172432288843,
          -0.04135121090642352,
          -0.39012264470871966,
          -0.4668332893554537,
          0.2188745550997172,
          0.22077926727100505,
          -0.3592842424534539,
          0.17264683199679598,
          0.4439694674035357,
          -0.18130590660371598,
          -0.38211936944639774,
          0.3208314760197045,
          -0.14382147490782898,
          0.3320196933401668,
          0.03912367013780638,
          -0.22267842574546842,
          -0.3679147170823201,
          -0.2881703015145396,
          0.16106705840986157,
          -0.1832310307358977,
          0.08470988627965192,
          -0.3216586157434569,
          -0.19057735363449552,
          -0.26699016914215656,
          0.382450948511016,
          0.4279251535422972,
          -0.22914238108881335,
          -0.1780850216092122,
          0.08585102548559242,
          0.11669111553054201,
          0.2052557252145355,
          0.07819188124524568,
          0.42496939985446225,
          0.2352718662547455,
          -0.12431170503244326,
          0.4181182287804944,
          -0.249184924311359,
          -0.3878203587892507,
          0.19829277944864931,
          -0.15927402837054738,
          -0.3148117005981065,
          -0.15119370301244817,
          -0.1174548211307615,
          0.3400013203958814,
          -0.2278904888346627,
          -0.2703898155701995,
          -0.14635466117866391,
          0.3814881509148209,
          0.1633338628048695,
          -0.09508232242124381,
          -0.0075476927440150665,
          0.4675363717357903,
          -0.36784021014566426,
          -0.07710271531503254,
          0.38557881003947136,
          -0.42067253228196505,
          0.18622870192008478,
          0.07130254309792206,
          -0.4410307227789414,
          0.2799801764851626
        ],
        [
          -0.2496784736242227,
          -0.1291805572014671,
          -0.23972592763858647,
          -0.06448982792535074,
          -0.4275995381356634,
          -0.049329170638513276,
          0.1032290066918895,
          0.23119212521604315,
          0.07578148113841521,
          0.20212444102526683,
          0.37455367029367015,
          0.3569145285709683,
          -0.2680901584806014,
          0.3044449328383946,
          0.19875339771661304,
          -0.13652337367172696,
          -0.39647406467100166,
          0.057755690928183,
          -0.23923964824090144,
          0.34075313811282526,
          -0.3624998298061587,
          0.2797768798649908,
          0.09910495425803578,
          -0.28969742399980714,
          -0.2781138820412263,
          0.31896481722849446,
          -0.3325269943812599,
          0.29366263571637063,
          -0.2492869794678536,
          0.33735843375229824,
          0.38790728905046423,
          -0.13433921015178618,
          -0.14137365464424306,
          -0.14776002147622747,
          -0.06429517308390298,
          -0.08201020435836798,
          0.05515289891137942,
          0.06386676969585847,
          0.04121558325308228,
          -0.12108239542545585,
          -0.2386485436180298,
          0.03155610157743083,
          -0.3968525852603462,
          -0.19388884094296288,
          -0.20314794372350314,
          -0.33013505750355365,
          -0.35235336190440647,
          -0.40255806946086875,
          -0.4490987340923943,
          0.015658346157326197,
          0.39072945041219653,
          -0.34736155122417867,
          -0.4132714716430969,
          -0.015019657133797215,
          -0.04524318362221774,
          -0.00013178584434758722,
          0.07666066548150052,
          0.1135910137937578,
          0.19881636302252625,
          0.04787813219349091,
          -0.42199832621220745,
          -0.09558854291345675,
          -0.3315102503338686,
          0.02750862172396895,
          -0.3553146847693759,
          0.2862568317259877,
          -0.18879511968828616,
          -0.35016456151313974,
          -0.17684068711995654,
          -0.19922046075625804,
          0.4020746343915207,
          0.39723070428836615
        ],
        [
          -0.20581167377983994,
          -0.03536955111316492,
          -0.07910874094912779,
          0.21804725827947147,
          0.3963110973393289,
          0.39044132435387346,
          0.44445056107576664,
          -0.10943816869937656,
          -0.03334816262665491,
          -0.319500340566907,
          -0.3344174644927451,
          0.39480080569850806,
          0.01338592855761539,
          0.3115949874882219,
          0.2722770327957318,
          -0.3252380152996972,
          -0.2658002434874136,
          -0.1347165949269044,
          -0.10683045281921588,
          -0.01110775371734124,
          0.12695618781471396,
          -0.007599352609204801,
          -0.38694114026951976,
          0.27978795500073084,
          0.1469100761905825,
          0.3026164864125699,
          0.14917619234589208,
          -0.34153754596441754,
          0.18642356205861732,
          -0.10976640549285938,
          0.03247108124866249,
          0.03988996112314347,
          0.3575479003950338,
          0.2501673435207534,
          -0.08195146562560973,
          0.2255972975457533,
          0.15430513897785347,
          -0.18363391833974385,
          -0.35809394793214866,
          0.058310422774511816,
          -0.08118542688035896,
          0.21180596606438595,
          0.2765200840186295,
          0.431534747302445,
          0.41066871564593743,
          0.3761540666205968,
          0.39279271875897326,
          -0.13626568522619525,
          -0.32709844933479026,
          -0.1776333977271064,
          0.4258258414123882,
          -0.45236946531716093,
          0.17224451763400062,
          0.4162590935285857,
          -0.4429376138402267,
          -0.22082892607926313,
          0.41015998430820044,
          0.13908269055591993,
          -0.11561806473634212,
          0.29324804613645994,
          0.27394158882203123,
          0.08044448867539966,
          0.19985775183520482,
          -0.07527698919100623,
          -0.1543254071168505,
          0.2557585212744089,
          0.21647533107085049,
          -0.13645003040589687,
          -0.24822313805241303,
          -0.3288304600745241,
          0.07252916354836936,
          -0.3323405064429368
        ],
        [
          0.3567079656830122,
          -0.35669307570414,
          -0.43251319675452965,
          -0.05803629073454025,
          -0.03451612585681607,
          0.35391618054740137,
          -0.1514692984666059,
          0.3218939017043586,
          -0.3496506197163529,
          0.3147301617500188,
          -0.09177178121010243,
          0.250531264613449,
          0.14238238313818474,
          -0.3930635166013883,
          -0.19691886671614856,
          -0.012868777295810374,
          -0.3403111162559713,
          -0.24393417003909987,
          0.30098308527206696,
          0.06763284340014775,
          0.32507394276379475,
          -0.09431767028273241,
          0.18051713989300833,
          0.362161541066767,
          -0.2296406040143512,
          0.35883548265401866,
          -0.34760768450600216,
          -0.014634505578114299,
          -0.20703109179742235,
          -0.35351590041473774,
          0.4073386129653669,
          -0.4068290428195608,
          -0.37901751097904524,
          0.35694807177142596,
          -0.26258760961139765,
          -0.28670384283038997,
          -0.3857733743107945,
          0.1904602546768418,
          0.24192342556766222,
          0.04640822199817585,
          -0.34327888431317544,
          0.227323665101697,
          -0.1762261938704895,
          -0.06634199739277502,
          0.3116137417135977,
          -0.3623172157455674,
          -0.20868018305217878,
          0.24069894032387074,
          0.3535046514763537,
          0.31847182570935495,
          0.22214030908621185,
          -0.05264171745569207,
          0.33452912063318074,
          -0.09783728278610604,
          0.305544580669621,
          -0.05526910374417676,
          0.22768539876520588,
          -0.05850811632236441,
          -0.32004415286414756,
          -0.2168764254304219,
          -0.33802953791776913,
          -0.24808277241662408,
          -0.1679064520862109,
          -0.1905243948054356,
          -0.43398228108679415,
          0.05510197106204573,
          -0.02902539323034964,
          -0.2056163893041899,
          0.2671651363909243,
          0.13546644740425773,
          -0.012502824239367771,
          0.3605624830009868
        ],
        [
          -0.10452463495716363,
          0.15118350041442552,
          0.4554617519123403,
          0.230466900243544,
          -0.1755442641097506,
          -0.18257494548404068,
          0.07441437281075558,
          0.02562363779631094,
          0.021790819670959582,
          0.19765072037749032,
          -0.3456583180092666,
          -0.3464010288603542,
          0.17283866555718974,
          0.27894943598097033,
          -0.4627003893427378,
          0.2450750221579151,
          0.12298709483034764,
          0.06012757629247101,
          0.42444501783771316,
          -0.29910114128576004,
          -0.4551932819815648,
          0.43827950195527743,
          -0.41324357942147616,
          0.35324052088171054,
          -0.10639548710715568,
          0.1271993563624383,
          -0.049888633118988,
          0.4581426123502592,
          0.0935510702309631,
          -0.3328382067504021,
          0.11234714787413003,
          -0.12615338770722334,
          0.3189220521839644,
          0.18728020187863814,
          -0.3511328308724987,
          0.0192053620457579,
          0.19939073621751702,
          0.4286450255118748,
          -0.2010083284583309,
          -0.24902080258915815,
          -0.10994338677650617,
          -0.11527452511191277,
          0.24240131579880242,
          -0.14179484541614706,
          -0.2794130209784722,
          0.43872240937619233,
          -0.021534483250439218,
          0.03490373789618095,
          -0.2571594523338822,
          -0.27828161966540826,
          -0.4230488079693986,
          -0.0826891181373855,
          -0.044405488960921335,
          -0.08503402467276683,
          -0.219165329003281,
          0.16834781994114256,
          -0.1496929325743997,
          0.3845966464339755,
          -0.18823242151790287,
          0.39495949209924597,
          0.19909133329030781,
          0.284504710066833,
          -0.18502704530979247,
          -0.2388307857890133,
          -0.3207492614080293,
          0.015732925689137367,
          0.39037667881509097,
          -0.024526945585961468,
          0.37430936181147445,
          0.01986587599866546,
          -0.20292733266240398,
          0.017841706223964526
        ],
        [
          -0.04105778724442416,
          -0.4281624490610278,
          0.32142210091431467,
          -0.1946176709741485,
          -0.15492012487960338,
          0.041834387793348804,
          0.12090559051479877,
          -0.06861899197126503,
          0.2903742863462281,
          -0.3761204916382067,
          -0.14839895895929928,
          -0.03287757864308355,
          -0.2110264995822005,
          -0.45547104935926114,
          0.36154342601093936,
          -0.04500868226472232,
          0.06701050965092548,
          -0.08434819442166441,
          0.1942408245130669,
          0.29530963042608116,
          -0.13473909072326196,
          0.12422081126512352,
          -0.07146420162711636,
          0.23333344386200738,
          -0.3086860372728284,
          -0.206815113795071,
          -0.23798530227066755,
          -0.35155085095125316,
          -0.12884057926962594,
          -0.1839536512417928,
          0.3221367637322644,
          -0.21712350082465914,
          0.35495051695886093,
          0.13887421266009892,
          0.23496953551859212,
          -0.42781353271784645,
          0.3502907085564163,
          0.229504535730645,
          0.31153143960627405,
          -0.03657065626178824,
          -0.35719081985721773,
          0.37223579310678634,
          -0.3874344265594848,
          -0.14857937098827634,
          0.2815148719474394,
          -0.2309320541498091,
          -0.016870250155393895,
          0.021222449369486862,
          0.4103791017827727,
          -0.3993407064814881,
          0.07340160020046482,
          0.4470261998656907,
          0.4600823066949098,
          -0.41256862308663433,
          0.12978243257939637,
          0.41240357801424343,
          -0.3038981360277158,
          0.3833889216068326,
          0.24753595730396705,
          0.02827406469114746,
          -0.1739535202551446,
          0.10633675627510919,
          -0.420043234788186,
          -0.07590949528382507,
          0.29188383936038753,
          -0.03729636085375754,
          -0.27900143516920994,
          -0.026180314687186956,
          0.12686916105833412,
          -0.12133757812256707,
          0.0681340038415661,
          -0.07284480048925451
        ],
        [
          -0.004745118261052672,
          -0.33352542786228423,
          -0.20909555339201935,
          0.020239761144405177,
          -0.4245686147571503,
          -0.07978273399202646,
          -0.3935648199123043,
          -0.4448952386493484,
          -0.17335961372156466,
          -0.23064897004378307,
          -0.15196628521139288,
          0.24380938964999754,
          -0.1734224708331858,
          -0.23022692482080692,
          -0.3120295750936116,
          0.16042874001807927,
          0.19598543763285758,
          0.10104424952205293,
          -0.020846078836397164,
          -0.10083847212321873,
          -0.013525797165583275,
          0.04610754431191855,
          0.3522333825661548,
          0.01288026611554871,
          0.4616226206030596,
          0.25166144255208533,
          -0.3104718986416671,
          0.13641051370377444,
          0.08826873527637125,
          0.12883128872320393,
          -0.042799574368383886,
          -0.17717778912936666,
          -0.33877512009732413,
          0.32748941357530825,
          0.11716321893486603,
          0.11271929518228152,
          0.2006671489743942,
          0.42833660075085134,
          -0.3827330287774121,
          0.4536931230139568,
          0.381804925462473,
          -0.26362052725625534,
          0.1434291359141655,
          -0.42151878608225507,
          -0.18023977890516885,
          -0.22782117877166375,
          -0.030790058210918347,
          -0.17207731087842643,
          0.2163235238025042,
          -0.4082239550471508,
          0.13258451558772,
          -0.1632046260155931,
          -0.2683548230210304,
          0.07534707194936963,
          -0.44885387866477433,
          0.3492429183172142,
          0.12240812470151174,
          -0.16699614586566358,
          -0.30522259539414986,
          -0.08996813337745091,
          -0.3791757484970165,
          0.39382375163808747,
          0.07645642764032012,
          -0.08697250661516787,
          0.4508659525691978,
          -0.09958674437282361,
          -0.29634047772447347,
          -0.15559182224703566,
          0.19655212940791833,
          0.2383933771023642,
          0.21868753425068832,
          -0.08146778150533851
        ],
        [
          -0.24979140273347783,
          -0.4369198541032192,
          -0.23698147318963017,
          -0.107205436683318,
          -0.022199172543948043,
          -0.051484018365737516,
          -0.014609808696384174,
          -0.39657397008138817,
          0.09690690336209329,
          -0.3212656698738925,
          -0.2184072391300907,
          0.12794586392277796,
          0.00512166051039431,
          -0.4586211817763003,
          -0.16006950309879686,
          -0.25781784459321616,
          0.37723622871476936,
          0.394285404012081,
          -0.4168485222424415,
          0.30776166176824715,
          0.2786586486800624,
          -0.2849090832802388,
          0.057464809162621644,
          0.39321740165578256,
          -0.34036230774848253,
          0.34794695159280153,
          -0.22332457030595879,
          0.39088077406191624,
          0.0768315848596528,
          -0.4110378146555002,
          -0.360974657130609,
          -0.3478408272691711,
          -0.17163576447787454,
          0.09249229309755913,
          -0.05420489258699834,
          0.47135826750545584,
          0.17713341368289892,
          0.1122328297835915,
          0.15689871039536307,
          0.3132677688665486,
          0.3195179817722311,
          0.344760166096732,
          -0.08735362492050541,
          -0.32592109212270615,
          -0.034488132704042385,
          0.04443532801990269,
          -0.20008534909747838,
          0.38017678939617017,
          -0.11844306257856485,
          -0.36353402965241377,
          -0.2115822159827876,
          0.1052919640722666,
          -0.15411563755967667,
          0.31051008164912175,
          0.05354533697066788,
          0.4648917223381078,
          0.4058667659159618,
          0.18219759914654576,
          0.2322518584038913,
          0.03712216524068257,
          0.05694055694425737,
          -0.2924714880536523,
          -0.18695330771140417,
          -0.0659215130290639,
          -0.0701189736237895,
          -0.16446916911161752,
          -0.0201480442630243,
          0.13455246349165662,
          -0.0568653915789466,
          -0.43386330944294077,
          0.4521042106975707,
          -0.09144746000801385
        ],
        [
          -0.11734559883310358,
          0.39841647156285276,
          0.09077012353396208,
          -0.4035560106095356,
          0.3569404778274462,
          0.39577445795185173,
          -0.006438015854174306,
          -0.17506567324181255,
          0.21161609254733238,
          -0.1497543651413098,
          -0.3036368409402953,
          -0.06388772833272405,
          0.3395570117428468,
          -0.17968728673179168,
          -0.032380063327330566,
          -0.11856821624144759,
          -0.09717623849444623,
          -0.3427512260782005,
          0.2808216056107449,
          -0.23477518240219938,
          -0.44648215886830817,
          -0.05147954255833831,
          0.11968902749402266,
          -0.025314830993285797,
          0.011313222849799687,
          -0.4284472459783624,
          -0.43298525815221817,
          -0.05886381872994456,
          -0.16449524167148522,
          -0.4493790382604862,
          0.2154578058200204,
          0.40135640682986384,
          0.0012409055806537617,
          -0.3396593977577058,
          0.22192429055146223,
          0.35024876075277867,
          -0.3442779673626561,
          0.26035888896029247,
          0.3971197211245221,
          -0.33398755417416554,
          -0.2497150780546189,
          -0.2764758850139587,
          0.08879658734837537,
          -0.3786587870513247,
          -0.4571911129232414,
          0.02215883322947737,
          -0.22286458867881945,
          0.4031467804486032,
          0.013566531912220958,
          0.11182424568297433,
          0.11799346485999906,
          0.04512827816355636,
          -0.3478965137641763,
          0.05677763121290946,
          -0.22241486274465838,
          0.026239618574946055,
          -0.08539605577652926,
          0.3949049498516587,
          0.0282807213373642,
          0.17007225436841866,
          -0.3055076152084637,
          0.35261810007140393,
          -0.24465966220450772,
          -0.4676753242103437,
          -0.14506885291918448,
          -0.37747702331786137,
          -0.39682749762670266,
          0.4317075964817386,
          -0.44091615092654896,
          -0.37607548391385015,
          0.4612878185280985,
          -0.19498821007762707
        ],
        [
          0.3117180365279343,
          -0.3675253738974969,
          -0.21532656824884433,
          0.4591774714172233,
          0.10890963665492492,
          0.17428182342739185,
          0.1061472745920089,
          -0.2512109813291464,
          0.23669551588683646,
          0.008773630062773097,
          0.28811154672809547,
          0.40032667822864043,
          0.10727762406357333,
          -0.13511321269588533,
          -0.0269239316644454,
          0.29129550573125274,
          -0.31203557666437914,
          -0.15244804915246757,
          -0.10719153897847711,
          -0.19703081222877755,
          -0.2682618505486435,
          0.14318687178284317,
          -0.3742118747653511,
          -0.21295723351174228,
          -0.1949951178334423,
          -0.18043140121877377,
          -0.3230335797802938,
          -0.07882966256319701,
          -0.23908741896189048,
          0.1562751182129858,
          -0.044170327109718965,
          -0.23632620771494284,
          0.147343220507003,
          -0.4171263325975322,
          0.3416433096926861,
          0.17201409726744954,
          0.41872984138911873,
          -0.25528203393024984,
          0.2129420846323321,
          -0.36610741660639406,
          -0.33433755121430025,
          -0.07422481326495017,
          0.4226061208977421,
          -0.1129429198174417,
          -0.29523756501864984,
          0.11117418051230488,
          -0.21396283190406323,
          -0.39176056353618866,
          -0.4629248353331905,
          0.041114735690321536,
          -0.22824568627750316,
          -0.3452389521981093,
          0.10917117474453486,
          0.3491634404932136,
          -0.2104566519767917,
          0.3416297393736414,
          0.4468315960623158,
          -0.33558985956052,
          0.1642337498546962,
          0.3548092973262438,
          -0.21743663664042578,
          -0.3727556390981192,
          0.3106276427438037,
          -0.29067939257851944,
          0.172494700234316,
          -0.4142185713470647,
          -0.3396819185198306,
          -0.23366965712041946,
          -0.3174993386064237,
          -0.09758027152211929,
          -0.17010043259616175,
          -0.02091031756497902
        ],
        [
          -0.2637711735236527,
          -0.034751239691151625,
          -0.13538532871991232,
          -0.16597045283290873,
          0.21354719616487072,
          0.4636431704689037,
          -0.2272830649208962,
          0.11721597970775244,
          -0.014249358103428478,
          0.06302557973530232,
          -0.04925315947538611,
          -0.029235920277386862,
          0.240068846132778,
          0.41455566837961866,
          0.3541510931245343,
          -0.1162192693269854,
          -0.05826208961066026,
          0.4691009702396849,
          -0.07085241502358175,
          0.07975785248409373,
          -0.10542403436833336,
          0.30038437874289403,
          0.22113583533323777,
          0.27801473288337175,
          -0.03275324354523307,
          0.4288786643819298,
          0.43896656086091435,
          0.18598517273121984,
          -0.10383786699432068,
          0.05883454181359504,
          -0.13448670025429627,
          -0.17555563594712248,
          -0.13966801802767592,
          -0.3180400159916437,
          -0.288538119083075,
          -0.2754587861017197,
          -0.06406700030213225,
          -0.4145860030600371,
          0.18068428539441472,
          -0.09070718883371581,
          -0.3352377491245768,
          0.4489615148941041,
          -0.4269552442667297,
          -0.23710886550495164,
          -0.3201824296597939,
          0.4489534541813365,
          -0.2502755104408678,
          -0.12170705180385061,
          0.021385451338467143,
          -0.3884389256533144,
          -0.2840964537414412,
          -0.41133779592749564,
          -0.45892760043029185,
          0.31847890107720156,
          0.32495339642141075,
          -0.13621528075265926,
          0.42828182197552145,
          0.3693100167233552,
          0.2363842665429019,
          -0.12783269106824857,
          0.14632155818839154,
          0.10884811966574903,
          0.15300384619506158,
          0.09184779189188952,
          -0.05540967551969683,
          -0.2093582166958603,
          -0.3560111049541046,
          -0.060842528738823065,
          0.35603679329549565,
          -0.1885470699229133,
          0.1808214133440652,
          -0.4030922538927622
        ],
        [
          0.3257154965009781,
          0.42430303055155494,
          0.09716600626419547,
          -0.24949893310787793,
          0.45212296669882723,
          0.003051364076055052,
          -0.08398205846607809,
          -0.07081613616694626,
          -0.28167454813585874,
          -0.1790193784567886,
          -0.09305212046129424,
          0.16024025906797623,
          -0.3663742755170747,
          -0.1391693256651148,
          0.2001559280128017,
          -0.29640159858159676,
          0.4639416999436984,
          0.33202766013624463,
          -0.1181720198055986,
          -0.4495132076573418,
          0.26623686936256363,
          0.22480746976366317,
          -0.1697406904620558,
          0.11779479405006588,
          -0.4340181227281431,
          -0.18213789140498743,
          -0.4278158260788786,
          -0.11677408129240463,
          0.25691911661513434,
          -0.4585236512484817,
          -0.37453914854979103,
          0.21056995492733366,
          0.3969880296465851,
          0.20044774682341338,
          0.3292257317875702,
          0.010017038872519923,
          -0.34648408491600263,
          0.43796716439852834,
          0.253437111861023,
          0.1392942799314486,
          0.33386480485376535,
          -0.24044563846302328,
          0.4607320889682003,
          -0.17962401605333805,
          0.007354004843290407,
          0.11759400234817063,
          0.19041225101742754,
          0.11454348225929867,
          -0.3957250824731081,
          0.23719728185680877,
          -0.10875023746274087,
          0.04244124688639972,
          0.027305995698981234,
          0.1932601528825436,
          -0.0071698576240001866,
          0.18250091110466848,
          -0.3802266265676568,
          -0.25283898405713434,
          -0.16157575182756378,
          -0.45572807513509284,
          -0.3234351753833647,
          0.37056435301600443,
          -0.0953309390476465,
          -0.428542062703112,
          -0.27607725042377185,
          -0.4512797361025183,
          -0.3047339842193918,
          0.004501702949909925,
          0.41221070284682026,
          0.388490618528057,
          -0.42033656636082417,
          -0.28763517530855354
        ],
        [
          0.24660325945517703,
          -0.30074781171657994,
          0.4408432459633572,
          -0.22787863572993763,
          0.2172198683838077,
          -0.47104324089822713,
          0.4081070636069636,
          -0.40439564465571426,
          -0.27693144530675207,
          -0.15255058619451944,
          0.01760316309515758,
          -0.0842918766282858,
          -0.25086540531864293,
          -0.017051334008965857,
          0.06761649410338821,
          -0.0785773856191132,
          -0.16954841654439928,
          0.10285135072627183,
          0.015100076547132246,
          0.3570169478997457,
          -0.33710410200236185,
          0.3875740390281712,
          0.28274381649994007,
          0.25067411993510735,
          -0.028997779559920556,
          -0.13636499290862886,
          -0.06693772687543637,
          -0.26050686945977125,
          0.008234674864745217,
          0.38157503878264576,
          0.36204600427240174,
          -0.31031639371166264,
          0.11540062058807665,
          -0.3801974008042579,
          0.12829666004574247,
          -0.45285025569378556,
          0.027785106237197876,
          -0.33768695932266346,
          -0.17689421569607716,
          -0.02158607675137525,
          0.3488024482714125,
          -0.22687193186111992,
          -0.24432170314276197,
          -0.39554132281382914,
          -0.27115691081923243,
          0.4368655041411521,
          0.2518488886685193,
          -0.03558962808322069,
          -0.13060293838225506,
          0.41992867037464665,
          0.07506692044112961,
          -0.33639823664551527,
          0.1854460346732567,
          -0.024078657658194447,
          0.07593822378567205,
          0.39910334962603045,
          0.1549756067080772,
          -0.19237372314305978,
          0.3586310561846987,
          -0.4183914610468477,
          -0.2194322602387584,
          -0.16532762078100754,
          -0.20083146135953672,
          0.11999048957443459,
          0.06711830786980066,
          0.40450058403480993,
          -0.2310369308884347,
          -0.12578938044531607,
          -0.12491622951611514,
          0.26112170964603554,
          -0.29122734446982823,
          0.1734780122440187
        ],
        [
          0.045782430420047815,
          -0.27979473765335594,
          -0.30381213318862155,
          -0.2367305059075675,
          0.19794274071661488,
          -0.35662275443303515,
          0.33763294679812017,
          -0.3665177945703116,
          -0.2654454941714403,
          -0.13552824700590377,
          -0.10769556135591896,
          -0.06481995755865494,
          -0.28859457123725857,
          0.22963070430460764,
          0.11852925725907881,
          -0.23754684130687784,
          0.24632045780683443,
          -0.19536762358200993,
          0.43964015857362193,
          -0.08123586188281312,
          -0.25854017314984645,
          -0.46601599700819646,
          -0.2900492383833043,
          0.3454521046319764,
          -0.11495144181609462,
          0.20317480695836765,
          -0.04861817587511541,
          0.32287568951076717,
          0.027178046380327392,
          -0.3779888310249917,
          0.4410329049300622,
          -0.0888521257743124,
          -0.05974177408834608,
          -0.15011986749457823,
          0.03295186028099162,
          -0.12531317701741934,
          0.23913686715800297,
          0.19040071077664578,
          0.09172143677494637,
          -0.440921328462433,
          0.01860197713386952,
          -0.275353864429281,
          0.11900060753985509,
          0.15551488018038184,
          0.1339618736597049,
          0.17090045593813397,
          -0.26461170953774893,
          -0.02368825552386833,
          0.06730326703052347,
          0.40532962191226507,
          -0.0723731979745979,
          0.3760463584940942,
          -0.32256306984748945,
          -0.1712427898652778,
          0.3589260549387139,
          -0.3484821241927319,
          0.3722359631037092,
          -0.26974266986796946,
          0.4417616274619246,
          0.01062645904989995,
          0.36318081881175157,
          -0.2840793395224351,
          -0.08915478795449339,
          -0.33152691754119795,
          0.09399412928682738,
          -0.2217616388738357,
          0.24822694915508858,
          0.2841287574047011,
          0.06359056221700299,
          0.08979256793322954,
          -0.11320390974813788,
          0.21052236024683568
        ],
        [
          0.22986704780294887,
          0.13829250777916757,
          -0.1749411799318401,
          0.13752244158859128,
          -0.02562117116693241,
          -0.31398162934803064,
          -0.12592261319038056,
          0.17220563341937412,
          0.09055383405721751,
          0.2523203437892516,
          -0.259406499966062,
          0.12277224154601785,
          0.12095358548739144,
          0.24035166978432387,
          0.3337649618714632,
          -0.3031912544094451,
          -0.2888664618873512,
          0.1434740356834444,
          -0.1094034532464469,
          0.11020806240505099,
          -0.3767762361205082,
          0.07646712493956531,
          -0.21616988559157535,
          -0.17430775795609804,
          -0.028333987987501308,
          -0.09777122583088527,
          -0.010363567102586124,
          0.14713685652934183,
          -0.06353523664763289,
          0.33461769199924785,
          0.11971642229046298,
          0.019854437399904168,
          0.18050981883366712,
          -0.021151986051497262,
          0.2751162877720087,
          0.15351695475479932,
          -0.07658872849288961,
          -0.27604768151285297,
          -0.32815703993243817,
          0.006293106442866125,
          -0.08539301416131045,
          -0.26908055251179247,
          0.41705813624055577,
          0.05358675223802756,
          -0.355109807165237,
          0.3408931755581506,
          -0.23152950849485426,
          0.3801950470685098,
          0.40112659372280746,
          0.1383521685228728,
          0.15985507130030696,
          -0.4680511593433794,
          -0.005000038405270857,
          0.09010950077151325,
          0.45147716929773385,
          0.10308665180171905,
          -0.25464231050875913,
          -0.05899736027709729,
          0.003097375095374111,
          0.1238666707168703,
          -0.4040488372381553,
          0.0933303642202633,
          -0.3205222531242923,
          0.4119253695716083,
          0.34907720318550295,
          -0.1152808118541902,
          -0.22920956908183132,
          0.11486009370521066,
          -0.2557217494139103,
          -0.22183892076883188,
          -0.14597977675557317,
          -0.44201257807104216
        ],
        [
          0.07583860101324924,
          0.38257148068234736,
          -0.18585109421858548,
          -0.3705402999530695,
          -0.3239935005247717,
          -0.24419488250604018,
          -0.3429241577009805,
          -0.39665646045469666,
          0.031544485146661416,
          0.3158968269003751,
          0.07616434200394995,
          0.055755353172089794,
          -0.1678960526310051,
          -0.034287780770715925,
          -0.03607058237428662,
          -0.3502543346149534,
          0.24244131134824098,
          0.45697647951989306,
          -0.03607810597274319,
          0.3601035458707069,
          0.3765179548703723,
          -0.06818493012178478,
          -0.12243493027143204,
          0.09170627860159741,
          0.14228698351316915,
          -0.373615974179619,
          0.36280123611707404,
          -0.17913792305068854,
          0.3481075525010837,
          0.27959232383652066,
          -0.36020576696406625,
          -0.00617108344621381,
          -0.14716937685777337,
          -0.2720434905800436,
          0.2597777364234066,
          0.35714015682330624,
          -0.3198006133931161,
          0.12953563031824133,
          -0.08230451858905241,
          0.3080546605346669,
          -0.12592101195795125,
          -0.40230320169813494,
          0.146247306212119,
          -0.183741192009565,
          0.3851841287447013,
          0.35575131951517236,
          -0.40769720663922715,
          0.4036471100825335,
          -0.16125669148250893,
          0.3549073665071476,
          0.2854191807029982,
          0.45144663820148634,
          0.1995875158856435,
          0.12787644808022025,
          -0.3906491839022763,
          0.19867383414520012,
          0.020974253207204474,
          0.4346366287443888,
          -0.17096338991284632,
          0.3813970062906782,
          0.35352728481812234,
          -0.32948479949551346,
          0.043453101419255735,
          -0.2738222104747544,
          0.2834585846580244,
          0.4008118677092206,
          0.17070859829169982,
          -0.1759855219151958,
          -0.46814131023974076,
          -0.2828760242624041,
          -0.1990968181127727,
          0.3135238046929678
        ],
        [
          -0.171413383449956,
          -0.18741289594499305,
          0.4193528312321445,
          0.0659580662854905,
          0.33417609105547497,
          0.21747074125100796,
          -0.30581396750509593,
          0.048564607664465465,
          0.04992382690120911,
          -0.42805745644193127,
          -0.013826781068056515,
          -0.3464251324273044,
          -0.099790606054112,
          0.1932552239585078,
          0.1865627049884827,
          -0.13263601254814555,
          0.43567876654439763,
          -0.0797267172304828,
          0.4417596012827053,
          0.1783119911353559,
          -0.05397768700057687,
          -0.3880149838254225,
          -0.24430975188309864,
          -0.4147162764131358,
          0.1592965284684591,
          0.06267834999375266,
          -0.3345443948273515,
          0.01618057406288509,
          0.13230947462899711,
          0.11382094435242185,
          0.34570753539245547,
          -0.42123182804400777,
          0.12817576546816545,
          -0.20177309775399815,
          0.47067777872738426,
          0.3444228952423263,
          -0.32567447824529827,
          -0.379896301617148,
          -0.2887534199551159,
          -0.1799893282449994,
          -0.4584272061158798,
          -0.393460450937648,
          -0.40063494891480816,
          0.21949270009084798,
          -0.12059720197444929,
          0.17117966713949162,
          0.1050056391144949,
          -0.17443023250413991,
          -0.31105034601111115,
          0.07352842946478533,
          -0.444388272099988,
          -0.2646669825883383,
          -0.3262732489439619,
          0.23877294396105453,
          -0.11978965488989857,
          0.4251339209618049,
          0.0029873343921745787,
          -0.2177638830127207,
          0.2050408043791515,
          -0.29552105966093606,
          0.41853428329452214,
          0.4062897774297729,
          -0.30991527958114407,
          -0.2986260412007147,
          -0.04013490423483551,
          -0.25000375518946066,
          -0.030399878961665572,
          0.403206432055358,
          -0.40861448102929354,
          0.3016982665800121,
          0.4008511465669511,
          -0.1765925284125609
        ],
        [
          -0.05180761749036905,
          -0.22069432167048952,
          -0.10324625019680483,
          0.11416922836616894,
          0.20125884999897004,
          0.2868554316593378,
          -0.16512745047111227,
          -0.4086864722401583,
          0.2533472223876836,
          0.4108018678811177,
          0.08627171617168317,
          -0.18517144850940714,
          0.45136422016584,
          0.4004701016633897,
          -0.11243636342014851,
          0.39339794642700743,
          -0.46997374512430357,
          0.3156771292719891,
          -0.4020830590390334,
          -0.17508393291735302,
          0.008613470518353705,
          0.13238163909496892,
          -0.33412491587123483,
          -0.009042816967009037,
          0.4235557918847668,
          0.10880348353858282,
          0.370012438513995,
          0.47051858338495856,
          0.37372272605009327,
          -0.20240433458391932,
          0.012677916499086561,
          -0.08540500700532566,
          0.08222409643446726,
          -0.3358556477801194,
          0.12972351488027833,
          0.21106780974461126,
          -0.23478070955351818,
          0.3282007701387645,
          0.4143518947521053,
          0.03159120109383973,
          0.11517005233778488,
          0.34624451013250424,
          -0.2335948452895912,
          -0.3195150945081917,
          -0.24801412622354294,
          0.054293093541574855,
          -0.3132288128940628,
          -0.42383258537757906,
          0.0796642612879378,
          0.3865051293544366,
          -0.3156731394399878,
          0.06155790735469058,
          -0.1335040245099301,
          -0.16291440892403597,
          -0.3035575525395886,
          -0.2955875618815591,
          0.07764641407261363,
          -0.18508739366934146,
          0.41869586563751315,
          -0.21234121124440264,
          -0.010572652022879547,
          -0.3825066172502577,
          0.07343938027438968,
          0.29641132632804523,
          -0.36726442766749534,
          0.44704324788206995,
          0.15845743934854206,
          0.0331836655562332,
          -0.04106258124790907,
          0.3637377671285895,
          0.08203098579894574,
          0.033860411314435845
        ],
        [
          0.214717006199739,
          -0.03972353918890703,
          0.10334619608261009,
          0.26828468139434325,
          0.14656850030760293,
          -0.06550111535248032,
          0.24260058805264817,
          0.38009734238986725,
          -0.26830145767050406,
          -0.2482910662316357,
          0.36521252176282604,
          0.3677932508221511,
          -0.05980599369739942,
          -0.42133082821372336,
          -0.1253902838307146,
          -0.4635032969709871,
          -0.28177111142329914,
          0.2196374713018443,
          0.4642802764161582,
          -0.29580639798906333,
          0.2037486247788357,
          0.1052092619125431,
          -0.009149144464977721,
          0.4088543433769818,
          -0.3481833738961209,
          -0.3049993068425298,
          -0.15425980012729235,
          -0.29658421052606876,
          -0.033306236316407334,
          0.42139930206184795,
          -0.1546033712656404,
          -0.11708956701154566,
          -0.34502281659499,
          0.4023460868257779,
          0.4161296044820868,
          -0.015513199233743613,
          -0.05356593066755094,
          0.21034262450941543,
          -0.04159021560308673,
          -0.22438585240101702,
          0.17831319841578153,
          -0.2423071566948096,
          0.015285847375906159,
          -0.24884669642039042,
          0.01670175963229259,
          0.24371453292752254,
          0.2473671394147533,
          -0.059039246123940514,
          -0.12976583495696986,
          0.029429611757495144,
          -0.06071090498961351,
          -0.1379001428562333,
          0.30930859661719967,
          0.03998615443606257,
          -0.06173893053637847,
          -0.15169455590832004,
          -0.27188088220486933,
          0.11329723720108742,
          -0.22643017681024935,
          0.03815087577888587,
          -0.1590382351648038,
          0.1964495335287395,
          -0.1737233142799624,
          -0.016262765354592923,
          -0.23548357346172144,
          0.2251577090099932,
          0.3411639773578916,
          0.3758763163317582,
          0.4446006698386147,
          -0.25408059396929683,
          -0.03297603620608319,
          -0.31461305105303367
        ],
        [
          0.27184330120559175,
          -0.0745049416112093,
          0.3944302456970934,
          0.3825214018406048,
          0.13211666847805503,
          -0.1592461499709642,
          -0.04797925210963633,
          -0.21914920295767482,
          0.13979564865320626,
          0.03726394709211667,
          -0.26663297515639484,
          0.3781189365162604,
          -0.13187608251114274,
          0.06591782291300963,
          -0.17016134119597082,
          -0.06464072741530624,
          -0.40523813294575334,
          -0.3706801803606363,
          0.18440027404547588,
          0.20021843854728938,
          -0.3173994514730104,
          -0.46559726100377635,
          0.4476557741959517,
          0.4519446401723587,
          0.44294606014322746,
          -0.4306389746880118,
          0.018525300305802572,
          -0.3529063559587608,
          -0.10573955163455162,
          -0.056575628022007274,
          0.44639051247815,
          -0.3895143234390309,
          0.39197822345421984,
          0.025674852785319502,
          0.3427395870741319,
          0.2272201910432008,
          0.2548293043950257,
          0.2973163696947979,
          -0.10487591685569286,
          0.18187638208197054,
          0.1612538696543856,
          -0.0030333697214497968,
          -0.10729361588165626,
          -0.31647963302274107,
          0.12250773189648934,
          0.23890565746143944,
          -0.07201646972162423,
          -0.1066375996378075,
          -0.009551982378186052,
          -0.43069497512739296,
          0.31241790040625217,
          0.2246393039866369,
          -0.17403058647396374,
          0.4462091927384798,
          0.05554554548658852,
          -0.2636449936728754,
          -0.30334664745573314,
          -0.015567926571082968,
          -0.24385101225177874,
          -0.3285721842008482,
          -0.026052492984715014,
          0.14589920361279485,
          0.30350382820282007,
          0.012318316649470473,
          0.40163105718644354,
          0.0035410450827358386,
          0.3564877779432519,
          -0.024425852608675858,
          0.0762927691264863,
          0.05991089449975562,
          0.22497699835406404,
          -0.18041863796513152
        ],
        [
          0.17843149890265164,
          0.27226756030579813,
          -0.21894145888748084,
          0.46848669720683855,
          -0.4635859241732052,
          -0.21668666920990437,
          0.1333675983417506,
          0.21723411390077219,
          -0.26970317339116584,
          -0.2279626391228597,
          -0.28883295195128855,
          -0.07536621630697737,
          -0.040728130045293354,
          -0.4515735235776059,
          -0.34410179104073896,
          0.06539977599726121,
          -0.2881270085165667,
          0.1208567357768684,
          0.4460803507385489,
          -0.2750533944509164,
          -0.1928021904605604,
          0.2228249316784221,
          -0.182732111080313,
          -0.4279584359704214,
          0.13575369251041114,
          -0.05989322012056808,
          0.13227260652444173,
          -0.2831723069968909,
          0.3301307872269674,
          0.047047455640778946,
          0.4269459349265363,
          0.3721155031846469,
          0.11400671133534035,
          -0.4106634322035611,
          -0.13956818047064223,
          0.20257568551327665,
          -0.2465031724595419,
          -0.0072671885333112085,
          -0.2282744432397187,
          -0.04349093952102112,
          -0.1289296099157482,
          0.05877660336821933,
          0.43084954743705595,
          0.2698395795735762,
          0.004985917889818892,
          -0.12946494903368821,
          0.0986974365940464,
          -0.32609107768779033,
          -0.23967477176695703,
          -0.45814870252948614,
          -0.07126882335401885,
          -0.2829920127352782,
          -0.2698799892873379,
          0.1774253278781277,
          -0.2340843553639951,
          0.4309999010196619,
          -0.06406434323870408,
          -0.4193333098228865,
          0.17036624217685536,
          -0.13640393269818013,
          -0.3088398736561899,
          -0.24242666535324997,
          0.138588105368882,
          -0.3373302525368139,
          -0.21165626893640993,
          0.22574016750633763,
          0.3282643619764055,
          -0.20355528906127346,
          0.1493228511519421,
          -0.3384766322591313,
          -0.3642938873513637,
          -0.4394617455232962
        ],
        [
          0.237777130284601,
          -0.2882908521207112,
          0.03562379567663776,
          0.08857099433107296,
          0.21159146608417778,
          0.0997935321948028,
          0.06002162041529091,
          -0.08832503473276648,
          0.3831768069694764,
          -0.17286115695546905,
          0.3576410724772856,
          -0.088258877532436,
          -0.01804358221713326,
          0.0013487098197469405,
          0.25477095557337814,
          -0.014307914403779876,
          -0.2590662637569097,
          0.17432766778268383,
          0.37611169484157037,
          -0.2896553579879575,
          0.12196842423007026,
          -0.41504257596673133,
          -0.13162388611908687,
          -0.3169416516479041,
          -0.004516538476854071,
          -0.4424441972878219,
          0.2918732819680966,
          0.0770966983625695,
          0.18813374219929402,
          -0.05222844083523198,
          -0.24607306559682982,
          -0.34171970634869675,
          0.11386808470346166,
          0.41931002812598595,
          -0.43934651584195783,
          -0.02242287799685877,
          0.18464755567587188,
          -0.45695429351877226,
          0.46758147408313633,
          0.45095585113368886,
          0.1644391300161402,
          0.321256250216132,
          -0.38173658157070645,
          -0.17941590465587853,
          -0.06736829334168831,
          -0.3195596095463477,
          -0.1344868622693331,
          -0.09151957018563595,
          -0.09485458779529143,
          -0.16904508734624107,
          -0.33581665170686403,
          0.40847452369345716,
          0.11721569549966326,
          0.16463423417250478,
          0.13544654685161883,
          -0.32016620222506215,
          -0.3648420106422742,
          0.06825007631114266,
          -0.2553113727989936,
          0.36408103746953946,
          -0.1864268349193534,
          0.23143432543890619,
          -0.3535327222186413,
          -0.18198754842938092,
          -0.06410542270379344,
          -0.24021738340395044,
          -0.31446586517867087,
          0.2652050918111336,
          0.06485672624185967,
          0.012930546786317054,
          -0.4221413982568104,
          0.27536054792025844
        ],
        [
          0.21044021938370994,
          0.0910576221907966,
          0.3081227252482638,
          -0.17748526050831837,
          0.4327760528559713,
          -0.43520533559127605,
          -0.011511131202078584,
          -0.19589134742388292,
          -0.13738281331131297,
          -0.36848307817885345,
          -0.03405208681595073,
          0.40114437055190644,
          -0.4213588448754956,
          0.37995979550403025,
          -0.24150780599540678,
          -0.36222720504875827,
          -0.12208752310998694,
          -0.11470431720487007,
          0.17730185907123708,
          0.4200721378194948,
          0.07586642064178317,
          0.17897018990628777,
          -0.34225611776385784,
          -0.02482007255884605,
          -0.45766294022948745,
          -0.1321525386758054,
          0.21268149365125089,
          0.4442737523750072,
          0.17090711534172442,
          0.4499848162379271,
          -0.2944296339232655,
          -0.3918789786007805,
          -0.13691353864790357,
          0.3807223720127908,
          0.3886968640411913,
          -0.004921240599240928,
          -0.462657336032132,
          0.0702849162996454,
          0.17952937769319377,
          -0.24527708612828114,
          0.30200219724790134,
          0.07503565514105126,
          -0.2860657823739019,
          0.18021846842012001,
          -0.06324178096965388,
          -0.4249729403277122,
          0.2462387518292528,
          -0.11903962014764591,
          -0.43049556311375065,
          0.09533030391084019,
          0.40157872120038607,
          0.4043122783305312,
          -0.4518469342628328,
          -0.4483685683041765,
          0.41434270244243965,
          0.14969798998350525,
          0.1384876282169436,
          0.3500800259687713,
          -0.2112432253201943,
          0.42960878789518475,
          -0.1594283010981688,
          -0.18975092284267092,
          0.2423829528539293,
          0.3324511851680333,
          -0.3820356310360183,
          -0.17539376535455198,
          0.06136918211621922,
          -0.4305905705967726,
          0.4033713245346533,
          -0.1572777290937069,
          -0.2924293133063581,
          -0.27157848283337493
        ],
        [
          0.36410034390427803,
          -0.35862005940778546,
          -0.37273431176505284,
          -0.03754457064943584,
          0.030649471522910976,
          -0.01615783513710145,
          -0.2716331540991044,
          0.19868331210357182,
          0.40745909404128255,
          0.15434275438065037,
          -0.11978077901595546,
          0.049253244761117476,
          -0.4133421775016298,
          0.3580524265028262,
          -0.3366831934864505,
          -0.26615692734316765,
          -0.12088223636056927,
          -0.10120262146714765,
          -0.3738484269873781,
          0.27020073068517403,
          0.04672798657970201,
          -0.446821056515869,
          -0.38618612847020206,
          0.1051502960655043,
          -0.4333929523589745,
          -0.16782314100827933,
          -0.46192956915329125,
          0.44598089520397777,
          -0.20329361539964486,
          0.06004543926227279,
          0.41772216948408725,
          -0.07024871982905917,
          -0.300342355806821,
          -0.16347332723942137,
          0.08328405626406676,
          0.3500086776492598,
          0.36862979934768747,
          0.4529581729992438,
          -0.4169894139953561,
          -0.41949564094452696,
          -0.2983251537032099,
          0.4513704029131188,
          0.1059609593559303,
          0.41474277684310557,
          -0.20702655738667564,
          0.3316188555015922,
          -0.2138503144630562,
          0.2657829902835873,
          -0.12998491239438015,
          0.3425991422635194,
          -0.42766704442490233,
          -0.16842191538588236,
          -0.3208547375183346,
          0.3779632840781293,
          -0.2551810680814427,
          0.42528708378141855,
          0.19983648027617018,
          0.44637534331152084,
          0.017915695907591178,
          -0.14147440295629166,
          0.2566893520878274,
          0.41172999637392216,
          0.33953681805133773,
          -0.047033991299738676,
          0.38339721125788595,
          -0.11614193430366432,
          -0.10682146598425502,
          -0.012334554180420176,
          -0.4057527333410481,
          0.18197072565820815,
          -0.20840576446250553,
          -0.3577751559347643
        ],
        [
          0.4704903552113744,
          -0.36404142314934845,
          -0.45508175342012364,
          0.13593823041599884,
          -0.365139718054335,
          0.3342628607101884,
          -0.06022321118835572,
          0.34647759779800047,
          -0.2122111037495844,
          0.01434271240438073,
          0.3138995417056991,
          -0.15897923488779592,
          -0.08511944269693567,
          -0.02786258022464022,
          0.43474763347536427,
          0.33521781631797554,
          0.37021303810715855,
          0.05292725906301854,
          -0.007707002606053559,
          -0.26372287808509814,
          -0.08995152751687835,
          0.38839559713558136,
          -0.11006792471009663,
          -0.27136563475643816,
          -0.33829152661382966,
          -0.45107694200697657,
          0.06603447317346989,
          -0.33827660213896216,
          -0.13500651052724216,
          0.4258776433436442,
          0.2965651235061191,
          0.05462029189665585,
          -0.20545657460172861,
          0.3367441966967245,
          -0.19889983273332856,
          0.4596424969134695,
          0.11707923071507886,
