{
  "format_version": 2,
  "architecture": [
    {
      "type": "dense",
      "input_size": 17,
      "output_size": 20,
      "activation": "swish"
    },
    {
      "type": "transformer",
      "d_model": 20,
      "n_heads": 4,
      "d_ffn": 40,
      "n_seq": 32
    },
    {
      "type": "dense",
      "input_size": 20,
      "output_size": 2,
      "activation": "asinh"
    }
  ],
  "weights": {
    "layer_0": {
      "w": [
        [
          -0.4752362134561544,
          0.17108258775599594,
          -0.38617068309889807,
          -0.48757389285443736,
          -0.2634446755567894,
          0.37016184717591527,
          -0.6223929209140361,
          -0.653841600642133,
          0.737979189158335,
          0.1948115717348725,
          -0.37928316956509583,
          0.22555882966197804,
          -0.30213637076705024,
          0.016118225069021053,
          -0.15736373776723855,
          0.34479673777559905,
          0.24984214101424962
        ],
        [
          -0.52441833570525,
          -0.7600786208761713,
          -0.5316603422589763,
          0.1914307185783506,
          -0.6269551091439264,
          0.47826094305181754,
          -0.16429467840171919,
          0.4305558084695341,
          0.5162291527943285,
          0.24543081273811362,
          0.48754770775062306,
          -0.6847239732421045,
          0.7114852617293751,
          0.034974895309506704,
          -0.6140114736300257,
          -0.6083687530434059,
          -0.7609676961236947
        ],
        [
          0.7072015259868895,
          0.3994394938750857,
          0.7822373574245179,
          -0.2134032584718598,
          0.0239641519892575,
          0.08178827495296948,
          -0.48497676612081686,
          -0.49679391255018523,
          0.7352144125990253,
          0.19491674923108937,
          -0.20842562913500784,
          -0.6614599810272463,
          -0.019423674492937137,
          -0.3729916024503693,
          0.7363170148554313,
          0.690284385238268,
          0.34800100369696974
        ],
        [
          -0.5452073586502266,
          0.7250041130478423,
          -0.5110428540283196,
          -0.4328335389439921,
          0.7992596609823815,
          -0.4145055054469879,
          -0.6102050255717404,
          0.434961762466633,
          0.2234483442899814,
          0.7328516114199667,
          -0.7869974932216506,
          0.28196759422951334,
          -0.3748164483574611,
          0.6502838765647164,
          0.34821362766959607,
          0.11091718743488421,
          -0.06680740189643519
        ],
        [
          -0.6947762582542915,
          -0.7162064162507857,
          -0.5056248671930755,
          -0.20835549476298665,
          -0.7744904892004039,
          0.779838206189431,
          0.40056459273649814,
          0.7065999743474568,
          -0.21449900147619383,
          -0.780036410404353,
          0.28212336862422827,
          0.45407325136728793,
          -0.2457708140049043,
          0.5543771064551114,
          -0.43150519395004144,
          0.796123435877539,
          0.14527518340651124
        ],
        [
          0.0568761924465877,
          -0.047828060610588086,
          -0.7275468890541437,
          0.4334764817087956,
          0.5934614464852476,
          0.5552583066634479,
          0.6175191750345689,
          -0.4550102761199256,
          0.7902699087766466,
          0.656528409894897,
          0.4190857749783822,
          -0.7792545596805155,
          -0.2721063971499338,
          0.12297374254327298,
          0.22819782286338863,
          -0.2954730361295832,
          0.41885471334815916
        ],
        [
          0.18838860723984752,
          -0.7607536068605592,
          -0.5120558809319573,
          0.08016242032979615,
          0.46020345667224205,
          -0.052871552647901,
          -0.5210707295779948,
          0.3339574752497584,
          0.5811827617538189,
          0.5626216622620329,
          -0.5927908369670485,
          -0.5627263132025635,
          0.5313192197593574,
          -0.3798635776481154,
          0.35716266087927473,
          -0.15072619480218064,
          0.3338599742867515
        ],
        [
          0.0005704188099123764,
          0.20469317987696656,
          -0.656546092839152,
          0.08490427858788197,
          0.17257872610752156,
          -0.7771881320894116,
          -0.5025422321246558,
          -0.3441872507874654,
          -0.1390217914385894,
          0.2352884866090178,
          -0.007660881559343302,
          -0.272874752216145,
          0.13665381815269195,
          -0.6930320793336165,
          0.356129063310589,
          -0.29149281333098453,
          0.10604548317809759
        ],
        [
          -0.2691389359858405,
          -0.5716117575033215,
          -0.5440103397319387,
          -0.6404623401220859,
          0.4116661912466629,
          0.3245222790287289,
          0.5726090567152621,
          -0.6270288094370272,
          -0.6983657968268108,
          -0.26993232046746307,
          -0.4180846713712947,
          0.33769363738036573,
          -0.6708835170610283,
          0.7810590636921736,
          0.5304630660851536,
          0.35623248190500634,
          0.6532708443422147
        ],
        [
          -0.7816913984489338,
          0.1128257769725467,
          -0.5578063022482902,
          0.38448688073548454,
          -0.3014319412765808,
          -0.6894731081517578,
          0.6591973998481072,
          -0.23562642778490528,
          0.25217275035755715,
          -0.2702258674128306,
          -0.03574215404356007,
          0.5326042632457392,
          0.24989825361076623,
          -0.042172144469570516,
          0.47733396175682274,
          0.31867177314271145,
          -0.5259977192984466
        ],
        [
          0.3171087945906771,
          0.016566605475002105,
          -0.20420194265358826,
          -0.48976112456666876,
          -0.1437842593191121,
          -0.6915997321162586,
          -0.383608913503844,
          0.275104629028991,
          -0.628363024853926,
          -0.10452249460294383,
          0.36395888192712256,
          -0.48958978388633595,
          -0.15825798228811994,
          0.10265977755069589,
          0.41022708870803093,
          0.0857760344003331,
          -0.46907175738821294
        ],
        [
          -0.7821735833317921,
          -0.45174432439575457,
          0.415673739927347,
          -0.5943009595869904,
          0.1962925363299236,
          -0.4673516535994324,
          -0.6519839954763715,
          0.6031627430267904,
          -0.38463134621285444,
          0.40148648774140694,
          -0.6530167288875051,
          0.7521587607776753,
          0.45824586494227193,
          -0.24407936562059818,
          0.37947167291974215,
          0.7583036594999867,
          0.5411079703438079
        ],
        [
          -0.07110738112971127,
          -0.06747714631476687,
          0.6556253448030148,
          -0.33149188335382745,
          0.7058910458026936,
          0.1290626210597261,
          0.5051808180165339,
          -0.5043270408470226,
          0.7463902332187214,
          0.7846188725145326,
          0.27235068887606106,
          0.2652622043746692,
          0.5013634473407219,
          0.05675433618463299,
          0.30175246092411345,
          -0.7137152477928946,
          -0.7783312445125531
        ],
        [
          0.7555235545014701,
          -0.11443782365629362,
          0.4102896791731868,
          -0.7570058211558042,
          -0.49431653732973146,
          0.5144386713136776,
          0.5379806968893993,
          -0.6784247200510892,
          0.5146469701490454,
          -0.0012054253624960154,
          -0.6349308917208104,
          -0.1995998427296829,
          0.4171874251082387,
          0.027510354208692855,
          -0.3719198569334955,
          -0.5286979860318048,
          0.018244814393149178
        ],
        [
          -0.38486844375213103,
          0.0843419263252142,
          -0.4393338364463005,
          0.6295759222743856,
          -0.6157438183778808,
          -0.4339764885290335,
          -0.23436394972341157,
          -0.7037180682470529,
          -0.3729176530141057,
          0.497656220504752,
          0.06967532694925149,
          0.5470381223526951,
          -0.7569368909589538,
          0.5244164811743607,
          -0.30240816911560464,
          0.401555821677687,
          -0.6443998340560427
        ],
        [
          -0.38027567430821513,
          -0.7083495362731445,
          0.7564073475406724,
          -0.26884043233106125,
          -0.20703969713585435,
          -0.23336300847598968,
          -0.44266275216033735,
          0.12142140662990664,
          -0.29090364103371336,
          -0.6349362136903846,
          0.7171053340732451,
          -0.518533799878331,
          0.38997642619380446,
          0.42998640318598624,
          -0.5425408121410961,
          -0.705330757945448,
          0.3197569237169525
        ],
        [
          -0.7954716905649388,
          0.010854583249531147,
          -0.45562887490181764,
          -0.35771167323356345,
          -0.7806492804276399,
          0.1956879583824499,
          -0.5361623548595216,
          -0.46225945078222896,
          -0.4676159300310719,
          -0.6911603373060876,
          -0.4720183366491986,
          0.7625548226694586,
          -0.2828469109390621,
          -0.2658189792182366,
          -0.1604425540750778,
          0.5965676875773541,
          0.447157965256029
        ],
        [
          0.4050069650037734,
          -0.2521942978307117,
          0.6470372520155444,
          -0.4227654860955002,
          0.7709939779710943,
          0.5193745727211422,
          0.30704889169518756,
          -0.033746412990537156,
          -0.04428345373067211,
          -0.6232916610682705,
          -0.03603003138731098,
          -0.12554213526185576,
          0.6115406944605727,
          0.4446648492123543,
          0.2698936600793761,
          -0.3058608761754819,
          0.43833969787133553
        ],
        [
          0.5001532266438679,
          0.02983559217802123,
          -0.33746108831430066,
          0.07981027391430595,
          0.7625219227856072,
          -0.19466186689485865,
          -0.3864067386506541,
          0.345672268923121,
          0.4365500502083576,
          0.6805942583868244,
          0.10240535472684953,
          -0.06461144720844192,
          0.1761043210718768,
          -0.12202414573047038,
          -0.11494740964822558,
          0.7548008286188649,
          0.21093532496151546
        ],
        [
          -0.34603707412613927,
          0.7988357116577093,
          0.09400251392006953,
          0.799411590663499,
          0.18812462955695597,
          0.0696343917030624,
          -0.5833140796629259,
          0.15394623049133294,
          0.5096049052138995,
          0.44120026744892915,
          -0.44672177192092755,
          -0.17005653714248892,
          0.35681861802510795,
          -0.4792656827759564,
          -0.21947565263546476,
          0.5569264248460272,
          0.7558537649928873
        ]
      ],
      "b": [
        0.6900670849674969,
        -0.26707648998951183,
        0.21391148652986247,
        0.06272749752677409,
        -0.30836768415367455,
        -0.5522856649562145,
        -0.06501862339125153,
        -0.7015358153110092,
        0.3987524848807079,
        0.35909112323688197,
        0.40436197528380047,
        -0.3191169642823827,
        -0.46104203279129125,
        -0.6270716970051446,
        -0.376309635006369,
        -0.7343120852842846,
        0.8009908377182676,
        0.5378103283629282,
        0.6163722767219565,
        -0.2599278171804842
      ]
    },
    "layer_1": {
      "w_q": [
        [
          -0.5240288200764918,
          0.1396918819698013,
          -0.019555771067176875,
          -0.4497682302886765,
          0.29508134888949744,
          -0.25800408246389406,
          -0.5291307062553416,
          0.31371018575681875,
          -0.2508351726530498,
          0.6378961301459121,
          0.7606058792036721,
          -0.6900846533662265,
          0.23335107245313003,
          -0.20940531221249659,
          0.4348119968380546,
          -0.22566488962678843,
          0.2809633886229719,
          0.6627477694852895,
          -0.6007311042144092,
          0.43176898407884856
        ],
        [
          0.7416561689864947,
          -0.0629341831406941,
          0.14767554398207317,
          0.7613469315850636,
          0.5036313018304333,
          0.7085093815966559,
          0.6868100375193178,
          -0.2382236299181778,
          -0.5954456408085544,
          -0.42719018579360174,
          -0.36697026272044303,
          -0.589244532875346,
          0.7472056577996349,
          0.1143229466285034,
          0.37000149753785583,
          -0.761984830259775,
          -0.5470836899848919,
          0.01573161204845308,
          0.7518717312370884,
          -0.1567676248534733
        ],
        [
          0.537913050744864,
          -0.5063189990299224,
          -0.45438542347588734,
          0.17820113671947835,
          0.4212060208660442,
          0.032706855719261796,
          0.5112596902512305,
          0.6582368161456145,
          0.2579582284886339,
          0.2564714950124938,
          -0.5571433449820911,
          -0.6087530123656923,
          -0.43876278254458645,
          -0.424787329797256,
          0.7069600845151922,
          0.16441716482572488,
          -0.44095897873867246,
          -0.6084942699557472,
          0.45386871746948465,
          0.161980591957962
        ],
        [
          -0.4260094316718056,
          0.6206491361453179,
          -0.39524339204701087,
          0.2196334038331592,
          -0.4542021638404685,
          -0.743696649813674,
          -0.5514273586007749,
          0.00955201360146074,
          0.6397967750875007,
          0.03871455112646904,
          0.2041615461888907,
          0.6928661102456091,
          0.03751983517364699,
          0.1736744881685992,
          -0.1856537250086122,
          0.7033755504514991,
          -0.72103206628924,
          0.4951317365154395,
          0.6462935142201451,
          0.543758953499802
        ],
        [
          -0.07651878253917055,
          0.28097001970893687,
          0.7190899909995834,
          0.07203075149812521,
          -0.249558998218545,
          0.3938369321934345,
          0.72643587483355,
          -0.10311066118912249,
          -0.5321888445396076,
          -0.7261743518186422,
          0.20354109459641978,
          0.27959720087801987,
          -0.36196586596629937,
          -0.7120123381266737,
          0.43242131987457055,
          -0.4510508532950175,
          -0.5867751296929967,
          -0.3572177674547,
          0.14011390404367363,
          -0.6627001482646221
        ],
        [
          0.43032008110590847,
          0.7003360744429468,
          0.004371701599012567,
          -0.11606282436927695,
          0.10607159731914151,
          0.590139117346459,
          -0.6769378646350576,
          0.7379398105574297,
          -0.003877051724186953,
          0.29157386358359094,
          -0.25751067419127416,
          0.5585078381267594,
          0.6490626271547595,
          -0.7626338943312865,
          -0.35107993605364773,
          -0.44422625333826343,
          -0.6043203249729232,
          -0.41667857424384247,
          0.6712654029713327,
          0.31125620877036453
        ],
        [
          -0.7050932035507025,
          -0.25584668718318937,
          0.41665187228588496,
          -0.5542905117641422,
          0.11472067268488062,
          0.14587166788093575,
          0.14882721731188842,
          -0.7009017367489642,
          -0.6361425052105948,
          0.7704204935303975,
          -0.7080739140364272,
          -0.17101321541531256,
          0.2165522992784974,
          0.0401633869178738,
          -0.4853254078429022,
          0.5299004489539285,
          0.42143672946627864,
          -0.12651218294030886,
          0.7067659518958576,
          0.5593241373728381
        ],
        [
          -0.6649011209427742,
          0.17064760493942077,
          0.223501129356935,
          -0.5115054284772038,
          -0.6683404136358159,
          0.5116962150226803,
          -0.42208182785732284,
          -0.4470563803276479,
          -0.016069486612971584,
          0.24391015313931264,
          0.13661944981063912,
          0.7246601001827604,
          0.4485386846919821,
          -0.21702154451023548,
          0.1743939517317421,
          -0.18794532516724316,
          0.06347050546009825,
          -0.06215102002158568,
          -0.11782039428649427,
          -0.2011658886365547
        ],
        [
          0.6732383978083725,
          0.7323260225977173,
          0.592954987940528,
          0.519911456288795,
          -0.10060523567475632,
          0.6281044176777608,
          -0.1366803154515699,
          -0.28338273514449824,
          -0.5986015853294417,
          -0.14532392269269745,
          0.35801617082523607,
          0.688520297197396,
          0.14492084260246696,
          0.49330926397248653,
          -0.4680334558539206,
          0.18528753009617882,
          -0.047193850698164175,
          -0.7007687608753522,
          0.21826021736439805,
          0.5846155409415623
        ],
        [
          -0.08366077929300686,
          0.7326177076868401,
          0.06031040746463312,
          0.04367639426308789,
          0.48831862143316407,
          0.545665658078667,
          0.4327804505353616,
          -0.6622659327165534,
          -0.675104600028677,
          -0.548621342385758,
          0.15327474062202018,
          0.6594779524292742,
          0.34923758531769056,
          0.4257382677203425,
          0.16253622753344554,
          -0.15666335240212614,
          0.2025707118768203,
          0.44035762255063227,
          -0.616626267310445,
          -0.6475603138419136
        ],
        [
          -0.28868345844713933,
          -0.08757665696943762,
          -0.01827456640694236,
          -0.6916780425529754,
          0.42481402498528853,
          -0.691132659248179,
          0.21843816223375012,
          -0.3463707390992369,
          0.6938218456634888,
          -0.3573899308343391,
          -0.057454548006191875,
          0.1610777448643027,
          -0.15317477099902432,
          0.44754406468015384,
          -0.31453118289500437,
          0.7730697914632938,
          0.2479235403113238,
          0.12155125274888479,
          0.47993236048781274,
          -0.6623644726264342
        ],
        [
          0.3217238965548337,
          -0.6480547794227446,
          -0.750221815092822,
          -0.5977787357421436,
          -0.17127370069223957,
          -0.12737067304307925,
          0.437199252524487,
          0.2216691936986871,
          -0.27324285342527876,
          0.19315413497982659,
          -0.5244477085237123,
          -0.6651747770135841,
          0.5937948116901184,
          -0.20962583752698072,
          0.14480759546284738,
          -0.5030880543037426,
          0.3517206870207188,
          0.26509970890020473,
          0.38910933494934374,
          0.01702066501429378
        ],
        [
          -0.35161733728054756,
          0.14837122716303497,
          -0.27303788745300483,
          -0.511562209602357,
          0.5081099152498105,
          0.28712739650846,
          -0.5471796323271512,
          0.5507417042477569,
          -0.6328617761811033,
          0.20353295414414496,
          -0.6245052689392117,
          0.7180800766710027,
          -0.023888774378188815,
          0.7612254022158054,
          0.6851555785324366,
          -0.7021547062534361,
          0.7424063959949421,
          0.7185438956534562,
          -0.12746425985435594,
          0.14457532670750584
        ],
        [
          -0.6927469633265907,
          -0.373080381296007,
          -0.46223461543177846,
          0.33460832250411143,
          -0.0011998099672995144,
          0.7318954614436335,
          -0.5659919273849832,
          0.37847059819772455,
          0.3953728672717056,
          -0.1990307064845579,
          -0.7480650599864662,
          0.6393414018540831,
          0.4680840520500136,
          -0.46667734070558264,
          0.7476629120511264,
          0.17116515788101094,
          0.4110929918498396,
          -0.10878541867598257,
          0.2673567559615344,
          -0.33744211079410136
        ],
        [
          -0.19067700659142273,
          0.7011340484419881,
          -0.7182802088483115,
          -0.27877492745659493,
          0.1275089424890824,
          0.05401267446930402,
          0.0946118556638299,
          -0.3525678861420313,
          -0.7404508925665145,
          -0.2946103501438076,
          0.12460338079018851,
          0.4897085983220577,
          -0.256778026445474,
          -0.49712108764093255,
          -0.11884875335924716,
          0.7532628313774314,
          0.49069816469362904,
          -0.7742997050245671,
          0.7016688257472061,
          0.2375092841227584
        ],
        [
          0.6849549697578372,
          -0.091401573907817,
          0.4932470363976138,
          -0.008989562171531684,
          0.6157858358591857,
          0.7345420079346756,
          0.35390014476464104,
          0.6121722797628688,
          -0.6692773415548133,
          -0.027345717037028927,
          -0.3583326752254606,
          -0.2020880913226839,
          0.6455825447907528,
          -0.16568823340318195,
          -0.36436992530862566,
          0.6973129136455933,
          0.25136563623595354,
          0.15879534392548023,
          0.7433304451253617,
          0.07669164184035948
        ],
        [
          -0.4693951830382504,
          0.10555484172719276,
          -0.49599065107554396,
          0.23628384981252104,
          0.7680767179366383,
          0.4200387564719541,
          0.02156106155303339,
          0.6676519369655338,
          -0.6118633573854588,
          -0.693069743733451,
          0.13920851157190817,
          -0.1317982765281588,
          0.7340638433340911,
          -0.5557762424606159,
          0.19667871846021945,
          0.7221624587026478,
          0.2916150844467469,
          -0.6339355432711388,
          -0.7585573137223781,
          0.5723616051728346
        ],
        [
          0.13492736727304866,
          0.7362651061512218,
          0.3387811248875183,
          0.4993182933184992,
          0.3814961153439713,
          0.5895868139830591,
          -0.7707197646757838,
          -0.06597607588517718,
          -0.32724662887803657,
          -0.06557568495230592,
          0.5046559823923316,
          0.7387076385412095,
          -0.6390466130109074,
          -0.42810537756023626,
          0.7514661855526177,
          0.7142641228533173,
          0.3707352631003338,
          -0.08916469857720921,
          0.16315321522160697,
          -0.7370401945384188
        ],
        [
          -0.2663017526726865,
          -0.3357500049936323,
          0.6321214960683408,
          0.2657210644795178,
          -0.4374322798162931,
          -0.7721362307987623,
          -0.7308023601793537,
          -0.5271064510628494,
          -0.5213336384180769,
          -0.2568004938636774,
          0.710076056023893,
          -0.3246390228352745,
          0.46833806800134314,
          0.6267895001100996,
          -0.5395287253434795,
          -0.739471261439513,
          -0.7595285869065889,
          0.055246656186973775,
          -0.5854972966385277,
          0.006502171124836975
        ],
        [
          -0.7189978196584965,
          0.175700192306266,
          0.6469726469869077,
          -0.2684894727030829,
          -0.41186066721010417,
          0.5540726656157793,
          -0.5232718166758901,
          -0.3934682166284462,
          -0.6045161437316071,
          0.594772629836795,
          -0.26060859976506856,
          -0.7709145803269929,
          -0.5328903728428236,
          -0.5738252778400129,
          0.4421855271810802,
          0.019597529822513504,
          -0.23189025799474738,
          -0.3369863283568007,
          -0.3200764665905683,
          0.4093185164634303
        ]
      ],
      "b_q": [
        -0.08671971896160016,
        -0.12305483689477494,
        -0.14796978302196195,
        -0.10073230316174014,
        0.0849606265391461,
        0.0924780109699389,
        -0.19704611964714244,
        0.1327536790545984,
        -0.10459958529984618,
        -0.12896840050658714,
        -0.04706621671003991,
        -0.1990507041210953,
        0.1560731999797288,
        -0.17510757945211064,
        0.15767141015906633,
        0.09303331836438228,
        0.12245793406576072,
        0.18003365975600677,
        -0.16622825314128317,
        -0.17302746396779414
      ],
      "w_k": [
        [
          -0.07089651602830116,
          0.17609607175480624,
          0.365079272428535,
          0.35192499249504516,
          0.7541314846915652,
          0.006258180343375108,
          -0.02610921022060364,
          0.6617708843332006,
          -0.5956232925233419,
          0.6754511971884496,
          -0.2701217661139781,
          -0.5724522817695192,
          -0.1612404295459161,
          -0.2327243744046109,
          -0.32008942976890065,
          -0.4049307619300539,
          -0.41252938263979977,
          0.4066373053168526,
          -0.6380362870099706,
          -0.5472810397519817
        ],
        [
          -0.4865859783045131,
          -0.21067884099475376,
          -0.33763519011717896,
          -0.6670815023956685,
          -0.19851098419659552,
          0.6654748335900931,
          0.5375150872770171,
          -0.7381839394775485,
          -0.339586824854888,
          -0.3866937757648209,
          -0.26146311393570787,
          0.6406086140892229,
          0.7143121601795399,
          0.2762820462819646,
          0.18834251601665175,
          -0.4733140744455819,
          0.4650489440381367,
          -0.7018745328261662,
          -0.1215833783722462,
          -0.462568384131038
        ],
        [
          0.5200460005981329,
          -0.34431575997146546,
          -0.5342052794434834,
          -0.15727001782740757,
          -0.6533623025727103,
          -0.45552203559489907,
          0.5970907752377694,
          -0.41702761646401326,
          -0.5695711416221174,
          -0.6270919198359136,
          0.6149812415710294,
          0.26164634760987937,
          0.1147020041729836,
          0.7018073144898336,
          -0.744235412425581,
          -0.2640574162232575,
          -0.0006671249803232859,
          -0.47668533689332365,
          0.12551492126515051,
          -0.6041799207839693
        ],
        [
          -0.48902923839270734,
          0.5580223194197489,
          -0.33751980456447445,
          0.49697729379412947,
          0.7696251296527983,
          -0.22678242957621186,
          0.7383421667282959,
          0.48531374882458533,
          0.019768055761540504,
          -0.07942754447901446,
          -0.6685947709976591,
          -0.7285710792705254,
          0.7176144485085552,
          -0.6456978926306403,
          0.05477317082018496,
          -0.6626299405827374,
          -0.44585514349679944,
          0.7094085067130191,
          -0.36819814597078204,
          0.41523117008139443
        ],
        [
          0.47934734461176687,
          -0.5023877999334108,
          -0.631433377783744,
          0.35148665298551807,
          -0.4409083612769349,
          -0.03797120333753701,
          0.6718391079286883,
          0.03158076291943723,
          0.514185119776462,
          0.07269484080752964,
          -0.41361404245863365,
          0.22116239254759884,
          0.6836350677937952,
          0.5235100459268256,
          0.508187270824118,
          0.29547264597405354,
          -0.5548449796197971,
          0.456281984750293,
          -0.6365654744186158,
          0.7178216624370566
        ],
        [
          -0.3443090642687288,
          0.1798237766347196,
          -0.6083407274338093,
          -0.49937816840102967,
          -0.03541848439384554,
          -0.38952718950462206,
          -0.7152648172985145,
          -0.4360558772535222,
          -0.5148106137503865,
          -0.3416434270041063,
          0.24490556409848518,
          0.5768633689697396,
          0.7537469484457457,
          -0.2710156194458273,
          -0.607472488329279,
          0.41109082359076465,
          0.18761131702612266,
          0.3468088978815431,
          -0.7723486173712368,
          0.5120888575855018
        ],
        [
          -0.3028991082055051,
          0.501860565129397,
          0.47341426790639907,
          -0.4753209305278879,
          -0.5931087120783263,
          0.3332887159539868,
          0.3506090319384114,
          -0.686184091006922,
          0.7396048344144512,
          0.3552143084832571,
          -0.7094561647408987,
          0.08017444635483995,
          0.6531558288600015,
          0.01376976091363491,
          -0.13669253711109797,
          0.3203938609660264,
          0.7609115309679693,
          0.37037288571027505,
          0.6722828673235601,
          -0.5620446855508381
        ],
        [
          -0.5803656795484655,
          0.3103515468408,
          0.5672772113549895,
          0.6279461064162204,
          0.297670469724447,
          -0.46544372128367933,
          0.5949470981326626,
          0.5729322319785579,
          -0.7299374343344948,
          -0.005625487522868178,
          0.4858043563628096,
          -0.4718551247763147,
          -0.5385766313766044,
          -0.14303733551985987,
          0.7684095637578823,
          0.17729312903539396,
          -0.24366833611615546,
          0.5199914790951947,
          0.5186923683447817,
          -0.5590637435147114
        ],
        [
          -0.16618920493268352,
          0.6390500204165617,
          -0.15346543261580503,
          0.4101765406128357,
          -0.28006725945929684,
          -0.5618377342101137,
          0.7370832524934916,
          -0.4518030534862254,
          -0.23727914570583342,
          -0.5792658640120589,
          0.01287132710225325,
          -0.2977297166019268,
          -0.04302365798826879,
          -0.47893238993138215,
          -0.7403974679001548,
          -0.7162253515447752,
          -0.6225841872490873,
          0.29306660584177036,
          -0.6148355556034958,
          -0.08543673094281123
        ],
        [
          0.31316737030467423,
          -0.4186723400951972,
          0.06638116717767528,
          -0.291708843483622,
          -0.5181682159083962,
          0.14842287648099595,
          0.3344840306496324,
          0.6256880139891849,
          0.7300248122717321,
          -0.22626236030329117,
          0.6913198136310552,
          -0.6130636548973556,
          -0.7522803924290791,
          -0.5531869415954032,
          0.5768122314284843,
          -0.45205340183021026,
          -0.6380558799146365,
          -0.049976890992613154,
          -0.5186354634593233,
          -0.7319005414881777
        ],
        [
          -0.4982960772656569,
          -0.1239954190550081,
          0.7587952417590413,
          -0.1936834429334615,
          0.5024361516758342,
          0.48071847396129974,
          -0.31223423009903384,
          -0.520917533588079,
          0.7456445997314753,
          -0.5017917467648068,
          -0.6063305913668641,
          -0.7713666730559599,
          -0.6460014769285046,
          0.7650009409445637,
          0.41127424143537716,
          0.41365743861268256,
          -0.5805925317117875,
          0.5635410258525064,
          -0.6449424492219512,
          0.6961139453116238
        ],
        [
          -0.04994820137224476,
          -0.6627181582462096,
          -0.5063591237637501,
          -0.5609620937032995,
          -0.3173432124115717,
          0.34326826408588773,
          0.6242478319191496,
          0.024310120007479785,
          -0.6453998939606245,
          -0.597459830975568,
          -0.018783121452344398,
          -0.7283656309046971,
          0.5922147666517272,
          -0.026595717692386667,
          0.1699801770381283,
          -0.5291841374104678,
          0.6662373769660086,
          -0.5857873432636151,
          0.16598197947880333,
          -0.16446700727972674
        ],
        [
          -0.14020532140660757,
          0.6579909359601193,
          0.34153508054236337,
          -0.4484773429475755,
          -0.6960639002419488,
          0.5338459458469014,
          -0.5888709048024755,
          -0.6770591432190138,
          -0.3445231127351654,
          0.6347894210955971,
          0.7298851830437405,
          -0.6113104589059224,
          -0.7436394412483351,
          -0.5058955701818235,
          0.49775447649347204,
          -0.5564894807841032,
          -0.5261570850467305,
          -0.6985823782549829,
          -0.4103625586889044,
          -0.416840971640992
        ],
        [
          0.45054242381892706,
          -0.3306155268927177,
          0.7277392544546839,
          0.10632847138422619,
          -0.5888340701984458,
          0.011980364384777786,
          0.7404517396669099,
          -0.70054414709529,
          0.05826470977705889,
          0.4668961294271159,
          0.6309257471662539,
          0.19792016284435732,
          -0.5018331790191264,
          -0.09616688940240681,
          -0.3489629224302889,
          -0.08050768228650751,
          0.5010916319483947,
          -0.058399107957239904,
          0.4101951756663007,
          -0.7590088606586343
        ],
        [
          0.2145009415050625,
          0.6518320961380202,
          0.4030703917490721,
          0.12317493829057313,
          -0.740399579389227,
          0.1057705486825623,
          -0.027523445562687154,
          -0.4458884795719881,
          0.594331297292495,
          -0.6414905058654423,
          -0.10723648315241208,
          -0.15855838645906895,
          -0.2565220414772261,
          0.3884846581845771,
          0.4691115394133385,
          -0.225037693147084,
          0.7514379133195945,
          -0.0002460332192715242,
          0.6076382871485242,
          0.3135144131679426
        ],
        [
          -0.7638851158232944,
          -0.2903961505969894,
          0.667926822069713,
          0.6115579658019876,
          0.7070437698523628,
          -0.36762454972613673,
          0.6107752790581533,
          0.274006309813668,
          0.34166683949756926,
          0.737943718695766,
          0.762208086972648,
          0.0870105793159166,
          0.05399543268988283,
          0.5407922754498804,
          0.6251078613619203,
          -0.05348166848685254,
          0.5255500145056629,
          -0.010324556351762992,
          -0.5526178128311858,
          0.47199437837572855
        ],
        [
          0.2933430450518011,
          -0.0984131185265773,
          0.0145253835992466,
          -0.3110824989636098,
          0.46741925169227305,
          0.10601824993221498,
          -0.4918757610023763,
          -0.38987385048082845,
          -0.5558600886409292,
          0.676086056374539,
          0.6774667086648778,
          -0.06422775696966243,
          0.7739865738014939,
          0.402966485692267,
          -0.3061952164378908,
          0.4735649344165882,
          -0.6358127981809141,
          -0.15820515923021117,
          0.38132676954712497,
          0.1589803501917716
        ],
        [
          -0.5496835749785575,
          -0.36519011268155377,
          -0.3336024683685595,
          0.12320831798124454,
          0.012830452657489166,
          0.6991863172249484,
          0.46274070224040287,
          -0.17244675264587372,
          0.2015274876010441,
          0.14599488692764473,
          -0.06836496448391716,
          0.48708066691018836,
          0.7429569454222289,
          -0.592131179692412,
          0.4732886503137521,
          -0.2464450016264268,
          0.6764053915947907,
          -0.08568841607330546,
          -0.5322835332535738,
          -0.37188021171504115
        ],
        [
          0.4790841231146934,
          0.32947383116078743,
          0.5182391991177742,
          0.6799150479615894,
          0.10940097243090596,
          0.31719642400884185,
          0.7711070717936939,
          -0.6358758841772654,
          0.42215996893723595,
          -0.7407111736600882,
          -0.4002113480724923,
          -0.6026919729902975,
          0.6217108824196118,
          -0.5250465165252653,
          -0.031220342216885744,
          -0.30850619740980445,
          -0.5481235233430909,
          0.7675349499852437,
          -0.19790602613851382,
          -0.3696878739300599
        ],
        [
          -0.4545338560108931,
          -0.4032067218311633,
          -0.59253648937975,
          0.3909698166152846,
          -0.6979125691039301,
          -0.07661945635695355,
          0.4870327804116694,
          0.29816484547421696,
          -0.4441355117081995,
          0.09770246127606119,
          0.4090788106297578,
          -0.553552114979993,
          0.15938309209275703,
          -0.4634736221380927,
          0.5009797315666036,
          -0.5858079349959942,
          0.136728471787107,
          0.6914015029979685,
          -0.6377097508414575,
          -0.7026425427949617
        ]
      ],
      "b_k": [
        -0.19542585598541015,
        0.19219540752105396,
        -0.194702958852484,
        -0.055369548044482214,
        -0.18228747198408773,
        0.013674417136549544,
        -0.17707084840257162,
        0.1834783131854656,
        0.12520805888876657,
        -0.17791299379006845,
        -0.08730267882177359,
        -0.1157281870584905,
        0.005070374818081147,
        -0.03305617205587075,
        0.04931219569979023,
        0.19440725524707625,
        -0.1384164495456975,
        -0.08439781270162582,
        0.13399207103469912,
        -0.08206976467999444
      ],
      "w_v": [
        [
          -0.6068421354763158,
          -0.6313605806072276,
          0.19558685910886564,
          -0.09561792144108117,
          0.38618852578276486,
          0.654477838461412,
          -0.03224686471528426,
          -0.5700566364153606,
          -0.7402369223080674,
          -0.1550308888986488,
          0.546091175447925,
          -0.011066849856593453,
          0.2736687896420391,
          0.33581822865210276,
          -0.14123079148007345,
          0.6625705601449556,
          -0.30578812350334206,
          -0.027224169562238276,
          -0.15262188458243897,
          0.41724118262586307
        ],
        [
          0.7684781295486698,
          0.12593951334082487,
          -0.27075348610630723,
          0.4509090108714906,
          -0.6756860932403442,
          0.592466998358617,
          0.29851488166699314,
          0.3748442229351916,
          -0.2246038109601315,
          -0.5781555222302659,
          -0.2788962407703907,
          0.7458213432896099,
          -0.12273160857151433,
          0.6004350737302941,
          0.02810751985169979,
          -0.5203150128693498,
          -0.6431841207877748,
          0.11133138656553199,
          0.7426479578825134,
          0.05917074036836023
        ],
        [
          0.4583157426064479,
          0.06030058965718765,
          -0.12136538036020583,
          0.038927398507035305,
          -0.5253190485234763,
          -0.2712487575930137,
          0.5026932832130855,
          0.01317585930401699,
          0.22190144658753852,
          0.030135966700920003,
          -0.47587499782771864,
          0.14506921419705854,
          0.7422061287234911,
          0.12572401959397217,
          0.5627408421832254,
          -0.0281482821397947,
          -0.4232504903718393,
          -0.774341487377902,
          -0.49935338779552263,
          -0.18006368909858106
        ],
        [
          0.24285382386735077,
          0.400990339394216,
          -0.33882962697951685,
          0.3905059360958023,
          -0.41766447604600127,
          -0.7148763926053524,
          0.5806355645852044,
          -0.5733671525523536,
          0.612170319401927,
          -0.003520637960094941,
          0.019499006466224156,
          -0.17033562103770428,
          0.22941147779663074,
          -0.08054768644104393,
          0.11147115468082036,
          0.22892975213219424,
          -0.690734685820566,
          -0.6104741996333349,
          0.49888812362105917,
          -0.045202847791842804
        ],
        [
          -0.7027428703212818,
          -0.3849058978813435,
          -0.19207292672344367,
          0.6370892356320803,
          0.2640100116757056,
          -0.7097249165300709,
          0.2053665011804494,
          0.17451527268851863,
          0.023837090977647746,
          0.5053317929114884,
          -0.3598118176011828,
          -0.0632720022794786,
          0.6917843790685438,
          -0.5345089581028221,
          -0.14419805433834154,
          0.6643735082238271,
          -0.6648320693068571,
          -0.6327219912029207,
          0.3062808276452804,
          -0.03401716801947319
        ],
        [
          0.5506143630992737,
          0.306102682005992,
          0.5058723955693745,
          0.33506854674591646,
          0.7332287778951985,
          0.26078931670755456,
          0.5258533683414981,
          -0.5013331003617998,
          -0.3085569074296022,
          -0.6659977345808912,
          0.18938394641317446,
          -0.713449334730903,
          -0.36422658510006006,
          0.11899480115796324,
          -0.7025451430332518,
          -0.5857817218766277,
          -0.24982348428719892,
          0.6061003126355768,
          -0.28261989746425503,
          -0.7518877930034121
        ],
        [
          0.5082733901262542,
          -0.3778408619587636,
          0.03156698204011543,
          -0.17746417669812753,
          0.7491951362682217,
          -0.42244177286002504,
          0.06443697206350163,
          -0.3294215341951677,
          0.6550461126444789,
          0.30596066957235957,
          -0.4551574075575203,
          -0.3595435118302575,
          -0.3229741357552938,
          0.41754228362010726,
          -0.46702172504104955,
          -0.6868282752114686,
          0.6471258935310109,
          -0.21208556635458498,
          -0.5080282349316929,
          0.47747087922726217
        ],
        [
          -0.29410557171461776,
          0.37635550236369086,
          0.08346836149676251,
          0.19421616833846012,
          -0.01963739735318082,
          0.7581862659543219,
          0.6080382690830244,
          -0.2981206192532498,
          -0.5808569203138098,
          -0.6615655713178072,
          0.6542523880101312,
          0.5726119811865418,
          0.39893623245665966,
          -0.7211163617073868,
          -0.6802570423257372,
          -0.25032632397835763,
          0.386094268137928,
          0.0423805400882552,
          -0.6853485124976012,
          0.09002160391625291
        ],
        [
          -0.4328889120120499,
          0.2753520341613396,
          0.20834198777782942,
          -0.59847025370712,
          -0.6786404659820474,
          -0.36537424898501175,
          0.5131258418445148,
          0.08074092571493163,
          -0.4105423995278794,
          0.11844041736323319,
          -0.3341136692636636,
          -0.2929399570047821,
          -0.2604183524485755,
          -0.2899640418320858,
          -0.41684135472345624,
          -0.022322006680936757,
          0.6392147311947354,
          -0.030640453830692915,
          -0.3206865582395974,
          0.773141835675305
        ],
        [
          -0.43291572409922563,
          0.4103428715649846,
          0.02278736393125813,
          -0.5013868070190859,
          -0.7361123816094841,
          -0.1287230697227788,
          -0.1444821858156633,
          -0.24702503719709268,
          -0.2795149696514835,
          -0.013180251168989687,
          -0.32206778757478616,
          0.21511868945740908,
          -0.3529649428024026,
          -0.15814922566523448,
          -0.26413023430813676,
          -0.3259193869816472,
          -0.4636393375802223,
          -0.6314249471570461,
          0.17988306240766105,
          0.6312401773341483
        ],
        [
          0.5939774382687097,
          -0.7327489423002199,
          -0.10040273210975237,
          0.5822301773114322,
          0.11279292526557683,
          0.14303447689341942,
          0.33728106469585417,
          -0.6807153494067661,
          0.4242763602155104,
          0.12244887187316544,
          -0.19426556221920122,
          -0.5433127062922649,
          -0.22483746583747233,
          0.3983404518393183,
          0.1828804268057681,
          0.4846734435918325,
          -0.48885990763110787,
          -0.6575355168856772,
          0.5893936737072436,
          -0.7337526754323054
        ],
        [
          0.6494343188700415,
          -0.3485655022777234,
          -0.48678000285848694,
          -0.02940109224419063,
          0.7159839902170801,
          -0.37833866023042206,
          -0.26723877488209336,
          0.3859648593148848,
          0.15988645812927604,
          0.4209312657191431,
          -0.6469095080299239,
          -0.37006979965932907,
          -0.3187429777415848,
          -0.23489853246236514,
          -0.5980380827714628,
          0.6552251590447213,
          0.2047067987244101,
          -0.7245232365886087,
          -0.48770390653610163,
          0.25074245193841116
        ],
        [
          -0.6950810124848344,
          -0.41823521695458177,
          0.15879567104580627,
          -0.5174625715088431,
          0.6945425007350425,
          0.12093200115978153,
          -0.03570999096089977,
          0.5674545450625965,
          -0.46920616817300703,
          0.1974791299630939,
          -0.6440455909117091,
          -0.5871708874936518,
          -0.0673525525748373,
          0.7586624603554777,
          -0.07344166454745349,
          0.20104141529722863,
          0.07269704350715656,
          0.49417821417626295,
          -0.7398906654199475,
          -0.7509402921587314
        ],
        [
          0.32528581499661535,
          0.2119395748374444,
          0.15408957393064127,
          -0.7396406343048655,
          -0.5769217410946855,
          0.353723830891564,
          -0.023921362957595615,
          0.2050402967978081,
          0.3242430801772178,
          -0.42919057115185705,
          -0.2175233368961409,
          0.7661330116711558,
          -0.7367340150833899,
          0.045969853894781476,
          0.7324438832059257,
          0.5089008566492266,
          0.31782570151692324,
          -0.3177159681282041,
          0.2801971424866696,
          -0.05892319694512982
        ],
        [
          0.2925306068154283,
          0.50208224712577,
          0.7230552460391904,
          0.49731851012350337,
          0.7616947508496461,
          -0.5037866923033993,
          -0.16068335562372849,
          -0.5042202832203846,
          -0.19285906246740536,
          -0.6710164692456695,
          -0.3957336487473355,
          0.015430930504392038,
          0.6753322577308094,
          0.26815048472528247,
          -0.20219683222223073,
          0.6697268011353827,
          0.35459314203782655,
          -0.00006413619514189506,
          -0.3303282969444813,
          0.699142048564517
        ],
        [
          0.5120426029216885,
          -0.6682218602471053,
          0.2637799137861032,
          -0.11633606479182623,
          0.306107536808109,
          -0.02977533508173169,
          -0.4028009803686633,
          -0.6391437486831301,
          -0.027029802290678195,
          -0.3956283677074618,
          0.38491378248298824,
          0.6390195004216488,
          0.6203848739785995,
          0.6801033926524507,
          -0.3131013756412595,
          -0.650356909480309,
          0.04553374280884781,
          -0.10758564553358108,
          -0.5432704447412524,
          -0.7444590748730169
        ],
        [
          -0.09687891903872714,
          -0.3696035290942751,
          0.22610748180263185,
          -0.7683973198378575,
          -0.5993953714415545,
          -0.746038909447363,
          -0.7565742990691924,
          0.32919430094622415,
          0.2954835596552363,
          -0.15738064236151528,
          -0.49759938618647853,
          0.20915409897788362,
          0.7235875972630863,
          0.1784863859202498,
          -0.31626917443190095,
          -0.7376437586166387,
          0.4433776994714522,
          0.15218021645794688,
          -0.020405427017880617,
          0.734558302084177
        ],
        [
          -0.7668067889066211,
          -0.14704934201092335,
          0.09381378569791687,
          -0.20047364508880317,
          0.6740343085375982,
          0.23610206174065063,
          0.7055422224295929,
          -0.09565254139613244,
          -0.24758735331695103,
          -0.030200596457318873,
          0.623041185979476,
          -0.12162157083155434,
          0.7220360732978566,
          -0.4508649742731321,
          0.7317035412105772,
          -0.01073563825231183,
          -0.6730300378197076,
          -0.6506714409066485,
          -0.024182390825025712,
          0.307035777068692
        ],
        [
          0.00415739552044303,
          0.3187953835549753,
          0.22916060478074085,
          0.06926303821660718,
          -0.6181392646158048,
          -0.07471770905082198,
          -0.7552735388779569,
          -0.37667902081485916,
          -0.6046419374457436,
          0.07899986151927685,
          0.10209053084837194,
          0.2313164063433495,
          0.3361980733477772,
          0.006529871462463088,
          0.22863530132480947,
          -0.09790604854304374,
          0.6755135332354227,
          -0.5119411684894606,
          -0.5463092006201143,
          -0.2146224575300233
        ],
        [
          0.3784261260973507,
          -0.4628538867148784,
          -0.15776101027987322,
          -0.595521503884757,
          -0.46365815043032066,
          0.709716885321058,
          0.002238000276582608,
          -0.7665116861027416,
          -0.1936141706317801,
          0.4851302253487444,
          -0.7559092421187548,
          -0.666929132433553,
          -0.3291527767726847,
          0.6137880298382041,
          0.7642764596122906,
          0.07782605058553271,
          0.7452971596522076,
          -0.7020521752379469,
          -0.4581919550516517,
          0.6441225082972333
        ]
      ],
      "b_v": [
        0.12155143023564524,
        -0.00969755694577093,
        0.08801667017155179,
        0.07220016787849365,
        0.14598659748821036,
        -0.18562637882886707,
        0.07530854224408107,
        -0.13979297966617785,
        0.04020248901007545,
        -0.16335898642239777,
        -0.0759882551024687,
        -0.010153260058364061,
        -0.04210891223060556,
        0.11144931921413664,
        0.17098852662332414,
        0.0919452385634828,
        -0.09591067353461771,
        0.11445795967602768,
        0.0893205154755648,
        -0.129466048550002
      ],
      "w_o": [
        [
          0.7365244614509268,
          0.21775920977791452,
          0.182293214011353,
          -0.40202300772040755,
          0.4804619002881112,
          0.11678926015422009,
          0.7645869574145936,
          0.11926107307788758,
          0.7579598884934953,
          0.6804013985056336,
          -0.2602676907969642,
          0.6619299244379622,
          -0.7015478775249372,
          -0.4149404867289153,
          -0.44802088369860843,
          -0.5742725725411806,
          -0.5370308627017345,
          -0.13266621402952516,
          0.11527465749191113,
          -0.7571670331440777
        ],
        [
          0.26500798615389076,
          -0.7163187167836813,
          -0.6939110302844471,
          -0.3963013604415739,
          -0.2613614922648475,
          0.32809985684810217,
          0.19942883922048804,
          -0.08255784905920571,
          0.3810408837131727,
          -0.7612480302061142,
          0.5920621073600716,
          0.49388008071493483,
          0.03192412066812056,
          0.43330303236331624,
          0.018080782350057167,
          0.1251565591976619,
          0.4783975393081463,
          0.3627979641865613,
          0.6633348711836482,
          0.6726000265846057
        ],
        [
          -0.5927984668064727,
          -0.23606028250394073,
          0.31018804960405055,
          -0.7112212068861543,
          0.7504772531125732,
          0.015493276855872762,
          -0.7323808035299495,
          -0.18178100307846257,
          -0.6835712543943565,
          -0.35980274406372703,
          -0.2912150692556873,
          -0.06973302842454143,
          0.18688002855973973,
          0.6980756154722114,
          0.28291236049476165,
          -0.3157857874950111,
          -0.3339078174750444,
          -0.19751699767448017,
          0.696986927052275,
          -0.622501452354468
        ],
        [
          -0.5307336427043806,
          0.6999503921767278,
          0.7358581211536779,
          0.12488963162037625,
          0.6568245540821074,
          0.43205120600239333,
          0.6788788782804587,
          0.7197248351412502,
          0.7434743323834765,
          0.6068613102721063,
          0.5920697904066909,
          0.42723392020920214,
          0.10788157500869944,
          0.3987879987737568,
          -0.4342791369827489,
          -0.43556955251231694,
          -0.2686306118904297,
          -0.501027337419371,
          0.06428297081170053,
          0.07785401536736059
        ],
        [
          0.6679214383816057,
          0.3165732084818842,
          -0.02372566004462795,
          0.07815357006619161,
          -0.5665952811308259,
          -0.05397184233928731,
          -0.28875884023372833,
          0.7590441567313992,
          0.16043024117374272,
          -0.32626089038831513,
          -0.532068029770775,
          -0.4049854037462739,
          -0.6130242793336874,
          0.07317378523672513,
          0.13130510770520065,
          0.24268289456412973,
          -0.15214954137277092,
          -0.7193032944511759,
          -0.29699569667932335,
          -0.12464321862085925
        ],
        [
          0.21920063221556008,
          0.08307588371292252,
          -0.4861207084836343,
          0.177307783565691,
          -0.642633061886932,
          -0.03140877806438058,
          -0.40316895905696915,
          -0.6254108127956368,
          -0.47935770377042997,
          0.7585335657696481,
          -0.6890351744034308,
          0.11211302767106901,
          -0.6937052700409627,
          0.652921183486779,
          -0.7518276352399507,
          0.13640394086600416,
          -0.7150126895467107,
          0.38971061645676364,
          0.16818379893233648,
          -0.7602910245178994
        ],
        [
          -0.4079792517719797,
          0.20490600175434182,
          -0.7504906913020136,
          -0.10163283522706512,
          -0.18333898184224584,
          0.7673095181479062,
          -0.020112505510659795,
          0.6046512137463436,
          0.539413221019911,
          -0.47160782429785725,
          0.20333796557006778,
          0.5093494630423128,
          -0.7603115669640238,
          0.35694401371681983,
          -0.6578762502401934,
          -0.3520101582327308,
          0.5384861081653174,
          -0.7082589222422414,
          -0.5111528078577721,
          0.39886847513272494
        ],
        [
          -0.7650576065900091,
          0.0221879980160945,
          0.25006217542102793,
          -0.3700543063972707,
          -0.42087225099044273,
          -0.19169373375735232,
          0.11576067626826303,
          0.37155291002371116,
          -0.2493747246218473,
          -0.22542078779450436,
          -0.0021082256239106645,
          0.4515307961266102,
          -0.6542685101751875,
          -0.12098276332615965,
          0.3696073670148661,
          -0.1939161300266019,
          0.6536584748668604,
          0.03309463991630257,
          0.029412158387725817,
          -0.17383536851382597
        ],
        [
          -0.1291231534829962,
          -0.3553003631514934,
          -0.4929350746084431,
          0.7236407633706468,
          -0.27925368021171054,
          -0.6975651135656938,
          -0.19352999079133648,
          0.20785574908715387,
          -0.7630015449990867,
          0.37424002121198985,
          0.4217461161951448,
          -0.28645718613941257,
          0.7482734521113772,
          0.6724542439416621,
          0.15406385612172147,
          -0.6173100274050545,
          -0.2872876594307434,
          -0.11483247004105845,
          -0.3126956660599667,
          -0.32554700053763025
        ],
        [
          -0.6256102504214818,
          0.2392503735932554,
          0.42630490673078447,
          0.24764513492010454,
          -0.7144359252739161,
          -0.6475940493987978,
          0.014568654185967644,
          -0.4753926581500111,
          0.5448997888688312,
          -0.682861395658437,
          -0.6070112233255222,
          0.7735113663473998,
          0.43722984295023615,
          0.6525081570785298,
          0.23456996249434559,
          -0.5239870691539958,
          0.38368209408417475,
          -0.6037512927068149,
          0.13798306396283277,
          0.7221474842172966
        ],
        [
          0.5871797075511862,
          -0.6338898492866198,
          0.03993439833192769,
          0.3851831701550237,
          -0.19611887695349306,
          -0.7345649259440776,
          0.12514596603014516,
          -0.08797551723589225,
          0.584614516770412,
          0.03850522930017919,
          -0.38762505752213433,
          0.4829660063218175,
          -0.4969068783956819,
          0.07030769417148952,
          -0.6354148550434566,
          -0.5529021002193703,
          0.06064227566021141,
          -0.42230982675623807,
          0.7343878457703594,
          0.3852984126629677
        ],
        [
          -0.017013445631994473,
          -0.4831872911505691,
          0.04085136803336786,
          0.5136865609658883,
          0.593262106136659,
          0.22374751627500855,
          -0.2953206632067902,
          0.6724881724916687,
          0.7326525826862602,
          -0.03730310471069087,
          0.48444998092809444,
          -0.27952522513765743,
          -0.18154002767624988,
          0.47213419452161487,
          -0.29775026033027563,
          -0.6491948716488665,
          0.5062546993532822,
          0.3981144399590508,
          -0.027629064938575754,
          -0.11042865996942008
        ],
        [
          0.7454461026104133,
          0.6717477250022843,
          -0.022465243157979375,
          0.5375092464963547,
          -0.2188049004535535,
          0.011599050613197548,
          0.5124824434182058,
          -0.3161529710349469,
          0.4661133922954983,
          0.5192157448633552,
          0.276405390860176,
          -0.698914042832318,
          -0.7363771357209401,
          0.34698323607426373,
          0.7307396643805883,
          -0.5666087910888881,
          0.4358544744613273,
          0.018490924163059197,
          -0.22029965413030683,
          0.23122548624647332
        ],
        [
          -0.6300014512965169,
          -0.2129800249930106,
          -0.714698421709233,
          0.0023202381281979267,
          0.5554640523081109,
          -0.3622627135758998,
          -0.6881919999882633,
          -0.07021245298559808,
          -0.047195477662004603,
          -0.1500285587920358,
          -0.35998698875252416,
          -0.45322865670186524,
          -0.746106675101022,
          -0.4444445898508448,
          0.10613192455641951,
          -0.7201823696562493,
          -0.7601809120232881,
          -0.7392407927541078,
          -0.2773897896755492,
          0.6175913996845264
        ],
        [
          0.3530262634630603,
          0.28819449484341675,
          0.4990323990194332,
          0.43801566952832993,
          -0.4233014525784174,
          0.7234100381693558,
          -0.35353115235651106,
          -0.4493744456906696,
          0.3251917282588741,
          -0.6870247828162377,
          -0.5626389204744576,
          -0.2560715039389445,
          -0.18498923911955267,
          0.0750107217882311,
          -0.03202604634309203,
          -0.43342861975128605,
          -0.5521863674600729,
          0.15877133358866025,
          -0.2595250507398814,
          -0.6942738486051077
        ],
        [
          -0.7265699410866248,
          0.5600187956300309,
          0.2532195623861433,
          -0.07860797695308608,
          0.2790187377455562,
          -0.7508263597899637,
          0.56952949634165,
          -0.28046357363914887,
          0.4962818461803262,
          -0.4867294784097309,
          -0.7077234842812755,
          0.27822033236443033,
          0.24172612319005116,
          0.26847495920391684,
          0.35817428946966756,
          -0.16785978322561046,
          0.5304633405669352,
          0.11675217148831496,
          0.5970196241587478,
          -0.5425844031111008
        ],
        [
          -0.3934636966041995,
          -0.004756860602197266,
          0.17085523664790203,
          -0.22961600645588676,
          -0.49298428934337224,
          -0.33740535614285944,
          -0.4020542383755928,
          -0.11774167762187648,
          -0.4639686045609824,
          0.5649156905823316,
          0.13465906583220055,
          -0.7296731129103512,
          0.5015119086465671,
          -0.267971904357061,
          -0.3679971243730812,
          -0.03511275666560898,
          0.7109888675465459,
          0.22588492834568608,
          0.3785359472634424,
          -0.5231260872499801
        ],
        [
          -0.21863448661109242,
          0.5432732328284524,
          -0.49437216575773973,
          0.7732394868436252,
          0.14077196119339397,
          -0.5288099328504218,
          -0.6336714979763454,
          0.3091028067248418,
          0.7102787697685202,
          -0.6149795156656862,
          0.08723216930581912,
          0.3312374137214191,
          -0.13572215786802588,
          -0.22553814407089134,
          0.42411241498637087,
          0.08239934990435549,
          -0.6409087191600642,
          0.7539301142278885,
          -0.6429173705207056,
          -0.6108032031797738
        ],
        [
          -0.3665515022665673,
          -0.3091980511461781,
          -0.3998474911111446,
          0.11092271716978985,
          -0.3370712966033282,
          -0.675645683686883,
          0.7358674758171906,
          -0.27898975678561744,
          -0.09726292989847252,
          0.07281906876329236,
          0.18793016195569034,
          0.11305162528887303,
          0.5278109420578847,
          -0.41369421712016496,
          0.01985350170675093,
          0.18445670191418329,
          0.36716957308548226,
          -0.29361966859628363,
          -0.12464474581700857,
          -0.5716408529206367
        ],
        [
          -0.5859473672171779,
          -0.37990886413318414,
          -0.5588685404459619,
          0.5532101076149181,
          0.21594470604795268,
          -0.10855371288632076,
          -0.1366825650509098,
          0.6490918052771912,
          -0.4668146648056779,
          0.5656480720780364,
          0.6713475937651192,
          -0.1915744792180516,
          -0.2322360358998733,
          0.0536155012701367,
          0.24957340412170614,
          -0.07792525390873295,
          -0.5218686207469385,
          0.4760215398896528,
          -0.0035511641105876457,
          -0.33238016537757203
        ]
      ],
      "b_o": [
        0.1848597649882061,
        -0.13732330912973556,
        0.18117124267051204,
        0.19501498899300307,
        0.12914224172483446,
        0.1685699005720917,
        0.17234615444340057,
        -0.1648496343845811,
        -0.19732667553488764,
        -0.1968518345898738,
        -0.19195822339835855,
        -0.16780080858400345,
        -0.1683046471004677,
        0.002179721190823658,
        -0.028698258388091424,
        -0.09398270619383925,
        -0.170498549973872,
        0.19242945774463122,
        -0.19831664938253685,
        -0.0010470563699654656
      ],
      "w_ffn1": [
        [
          -0.23192599045303625,
          0.5764214422925472,
          0.31554315259770005,
          0.0372666117662781,
          0.18623828039585877,
          0.6124352354714268,
          0.10611361074176717,
          -0.00859549923544467,
          -0.4969731033506264,
          0.12586361029045068,
          0.3694449391815965,
          -0.19459523372739418,
          -0.22181034852270926,
          0.3091326968065371,
          -0.3648300835963884,
          0.16517661914240145,
          0.5152449398717215,
          -0.16233918818468168,
          -0.015419483369259579,
          0.34745073977980967
        ],
        [
          0.04619331289208639,
          0.3786247094077476,
          -0.19497552707553079,
          -0.07742803727821479,
          0.5373936116945092,
          -0.4152173569917823,
          0.5731214505929624,
          0.13250821988243222,
          0.10071312341210603,
          -0.07793539157810125,
          -0.4097182879502961,
          -0.5853549046520231,
          -0.29876464955251986,
          0.5129895805176264,
          0.40828508701079913,
          -0.4727399147444381,
          -0.31023070826144233,
          0.07241301270883616,
          -0.6260198561622872,
          0.1362238453688709
        ],
        [
          0.18572638672713415,
          -0.14261758510739125,
          0.6123463561806787,
          0.391325598477558,
          -0.5586348472295734,
          -0.594557701841533,
          0.43170361553549264,
          0.5967999794551421,
          -0.32636402056981684,
          -0.4454769250872913,
          -0.563756004334227,
          -0.6275967114020782,
          -0.5044084094272047,
          -0.6182236510751975,
          -0.19816443058074884,
          -0.15268936517462367,
          -0.025763206090479662,
          0.24423234240847225,
          -0.581500284705833,
          -0.6210765684478445
        ],
        [
          -0.5974711341270985,
          -0.5282689656155911,
          -0.125939407018544,
          -0.09156910400512752,
          0.1342857786587569,
          0.47470166300570227,
          -0.11025805508351827,
          0.14738855037791465,
          0.38300010272138574,
          0.48693115574781454,
          -0.3681494520259867,
          -0.6166342492619324,
          0.6245232073056223,
          -0.3585371277975392,
          -0.2778432219852111,
          -0.17562853757698105,
          0.49898296592203184,
          -0.5899937056216105,
          -0.20070955525548145,
          0.478900000314573
        ],
        [
          0.32126469732355656,
          0.3008526878026325,
          0.42920327903207733,
          -0.47986484518337236,
          0.35223435628928934,
          -0.5602113246357618,
          -0.5433762460545951,
          0.06501058168600615,
          -0.5615603859360312,
          0.22261598431810614,
          -0.2755564774462756,
          -0.34449870174627156,
          0.11195621165071767,
          0.04670026072278777,
          0.5638222563455376,
          0.48648364776623565,
          -0.43790352126728416,
          -0.6184279554513801,
          0.4413532350073289,
          0.1787430794319299
        ],
        [
          0.20794875272609137,
          0.5223980493979815,
          0.5057349031927244,
          0.5948326148978721,
          -0.6061648755832632,
          -0.4138290130363479,
          0.06974702445794279,
          0.17670675409534564,
          0.5786683588090215,
          -0.45220492297458553,
          -0.25154038148892766,
          0.3798712248729851,
          0.2950598425994183,
          -0.3289078877455385,
          0.11014771437618198,
          0.5563272933205085,
          -0.4005997941941295,
          -0.539806535569805,
          -0.46945312825715757,
          0.4212514721673445
        ],
        [
          0.5047199890741508,
          0.6221891885240206,
          -0.30927708449601427,
          -0.32520023919558183,
          -0.43309949610989934,
          0.4471077579427528,
          0.34327921216476665,
          0.4548580461395956,
          -0.09038787278526628,
          -0.11585773187157966,
          0.277824749505182,
          0.1429195193704248,
          0.4357102473024891,
          -0.07163826691530395,
          0.39960791088069547,
          -0.312224141777316,
          0.2270126097393259,
          0.0194836760740682,
          -0.45531795603516845,
          0.41578275205269966
        ],
        [
          -0.11435713112578227,
          0.32811900526503324,
          0.10639732054115647,
          -0.533637789505971,
          0.040076054317150334,
          -0.5430798731454458,
          -0.28642452501909615,
          0.4743811731299902,
          -0.5977792525948459,
          -0.07369274859945929,
          -0.5730251738297775,
          0.008031549752507638,
          -0.3598177183875097,
          0.3690334538616856,
          0.40363482778458903,
          0.18837904037876096,
          -0.034134424657975004,
          -0.1933787753437407,
          -0.355747380885964,
          0.5661871132358792
        ],
        [
          0.12697311108710596,
          0.1124989408889091,
          0.18852373009325163,
          -0.09130048328122842,
          -0.20896805498362936,
          0.17163716290735542,
          -0.4323760331170481,
          0.24079729119590398,
          0.2593644799254178,
          0.2459488106038037,
          0.3661409757829853,
          0.48105633746334886,
          0.36658390964819676,
          -0.5544616253394266,
          0.09649133019199707,
          0.5532217829420113,
          0.3135015624729022,
          -0.13044793340273997,
          0.30370041332031916,
          -0.32581757827159535
        ],
        [
          0.03088130808950329,
          0.029566079169341286,
          0.08373435623470471,
          -0.6116098943083598,
          0.282888793195733,
          -0.3959982169440669,
          0.17930048982362734,
          0.2976592281950089,
          0.3502986932035662,
          -0.3250617304923419,
          0.1859657212390824,
          0.28200872463338156,
          -0.4613257465837278,
          -0.11839173211422227,
          0.20493482533112395,
          -0.22065339157206648,
          0.5050822071216409,
          0.3166654076759856,
          0.38142099796094875,
          -0.39322591699100673
        ],
        [
          -0.2695637562748329,
          -0.4419990156295945,
          -0.3065928545153841,
          -0.09413196286121805,
          -0.16304092804413212,
          -0.10985522347677534,
          0.26805654807999113,
          -0.5104820182287879,
          -0.3607072269187373,
          0.3056121094639712,
          -0.44085332798805266,
          -0.13710504153874092,
          0.5434545218004013,
          -0.3635296345319756,
          -0.5329672245502941,
          -0.3516579914658158,
          -0.1803356930416572,
          -0.437119581946518,
          0.15108730938512172,
          -0.3615254370648887
        ],
        [
          0.5399815865544578,
          0.4905020337696523,
          -0.08942720636719592,
          -0.3407327613571189,
          -0.10220957918965345,
          0.1673023935241842,
          -0.2867717251420189,
          0.07915095929309779,
          0.06616133318898754,
          -0.15420724956695797,
          -0.5142978897101279,
          -0.5729105762454594,
          -0.49547950531331225,
          -0.5217748163106745,
          -0.6301129129253732,
          0.04562135218963481,
          0.20998199175829058,
          0.40353934729422447,
          -0.4895702436870732,
          -0.042476743162215835
        ],
        [
          -0.4326877045474121,
          0.12113550495342917,
          -0.6037921882851288,
          -0.020147821955262324,
          0.5718420644507795,
          0.2870557340230364,
          0.47674333994542406,
          -0.43777891857956586,
          0.5211921587678815,
          0.5365061487629502,
          0.06444132552195658,
          -0.5858339606499837,
          0.418189169908875,
          0.34556399103361357,
          0.11197075468480422,
          -0.4373365763435503,
          0.3451687181133044,
          0.40181571214718514,
          0.004604148002994024,
          -0.2358000563269962
        ],
        [
          0.4149311607822376,
          0.5903518973600587,
          0.45123891366456037,
          0.08443902221114408,
          0.5438454507413445,
          0.6140379358453568,
          -0.5536635959099762,
          -0.45206358035620364,
          0.5566061843586824,
          -0.4576351777934401,
          0.13980070038811832,
          -0.19408689244755756,
          0.2418930511102685,
          0.06894514959458065,
          0.15554702476334537,
          -0.22234358882582145,
          0.24281540491742937,
          0.5518446314749902,
          -0.40655861086567713,
          0.3034165399923503
        ],
        [
          -0.5672711673823728,
          -0.20307703675574318,
          -0.21334631506534285,
          0.04294126424169897,
          0.4274609037847593,
          -0.24215463764949863,
          -0.023343499129684364,
          0.4068583256719097,
          -0.5624521090802888,
          0.12237378958154166,
          0.46792629204749436,
          0.4775278356401681,
          -0.12166289055096458,
          0.5576753346959386,
          -0.37590599020249044,
          0.4900219704705516,
          -0.6283220097334534,
          -0.5738855784624113,
          -0.5843780244471455,
          0.5777140802929833
        ],
        [
          0.20412927478059728,
          -0.3532947925593413,
          -0.2603642365551871,
          0.6084575031934646,
          0.24483279841806938,
          0.3647418350727858,
          0.6010591954868741,
          0.5171953067725171,
          0.21164505351228935,
          0.2230196821029755,
          0.42513085755596947,
          -0.016765308200471507,
          -0.3387262567244963,
          0.2952732776104725,
          0.49888452725584675,
          0.35302309424084943,
          -0.5993605861045594,
          0.4881801238972606,
          0.5696755117668945,
          -0.49944742330453384
        ],
        [
          0.12046300260899079,
          0.6025611760163164,
          -0.46607216850851624,
          0.623256777589622,
          -0.45206725543299314,
          0.012567087636509267,
          -0.45414373972505684,
          0.3171620516801966,
          0.43480209004876313,
          -0.6179256018715199,
          0.47043363096720225,
          0.24836616927831312,
          0.4803759156645565,
          -0.412794473697442,
          -0.022159105081140384,
          -0.48561459934847906,
          0.6042412067737118,
          0.3811436387092363,
          -0.44344608272916436,
          0.4734652356998613
        ],
        [
          -0.43743337619915496,
          0.16261028681198475,
          -0.45595635197324785,
          -0.5166440606264331,
          0.4028096517222427,
          0.16569854331287592,
          0.18015174467240147,
          -0.1183547980602101,
          0.22414264657624738,
          0.5996684694231592,
          0.030050089940331315,
          0.3587637832910362,
          0.16377807198259364,
          -0.4275530483859298,
          0.5465630506425584,
          -0.1527465190892922,
          0.015172436729959826,
          0.6131171078051906,
          0.11312815867334547,
          -0.5727241873057842
        ],
        [
          -0.40042508462394666,
          -0.22227082895215605,
          0.28471039985649715,
          0.3730676191537642,
          0.27225029982561544,
          -0.32534264921018463,
          0.01714966604644874,
          0.5687566907558915,
          0.12103080176901304,
          0.5678670116488514,
          0.12478395350779203,
          0.254103647275556,
          -0.5324421139257901,
          0.4529654092220762,
          -0.5040019889711796,
          -0.27990291114637156,
          -0.08115834345247352,
          -0.6038069497947354,
          -0.3495900538673237,
          0.22618068208509912
        ],
        [
          -0.32557401631059646,
          -0.04542739689478148,
          -0.21183332959044338,
          0.5044246609145727,
          0.24788080694428893,
          0.6185444320504089,
          -0.19125324609031202,
          0.17229403841205915,
          0.3096135182047052,
          0.5384328670925965,
          -0.05922597969846788,
          0.28428493475380723,
          -0.6144469626307011,
          -0.1357998423908917,
          0.6047540034927154,
          -0.43292361803796287,
          0.23523651760520226,
          -0.48137910220243674,
          -0.3799869693116568,
          0.5643143243781245
        ],
        [
          0.3837238793623724,
          0.3191833034126472,
          0.05538300937604068,
          -0.6079307748525271,
          -0.16941141818276484,
          0.23543512715981063,
          -0.6054400297385748,
          -0.012868961970006532,
          0.0367019504010887,
          0.3887597260720951,
          -0.3730323675244717,
          0.3446742265489934,
          -0.16635880437512912,
          0.5142933760979521,
          -0.11096820299118348,
          0.5828831917245701,
          0.20031142190710438,
          0.30954987353780894,
          0.11022887533655545,
          0.41684611575684716
        ],
        [
          0.471465939674539,
          -0.5568568816448295,
          0.6210768274581154,
          -0.4498204332925028,
          -0.6044824973235174,
          0.4201872586636276,
          -0.29497347496612863,
          -0.6281042907839838,
          0.6218104476132281,
          0.23370469511388525,
          -0.33860719654816845,
          -0.6236488497593476,
          0.5252716547884567,
          0.3303123413111838,
          -0.006049202098243445,
          0.19022383810059318,
          -0.0680852963139682,
          -0.03226868646987269,
          0.5463811226400542,
          -0.3660921056428171
        ],
        [
          -0.6265289106250671,
          0.4865681050045484,
          -0.046250901198013894,
          0.5064205372697709,
          -0.5745357352205244,
          0.08974881464046336,
          -0.6026687336618909,
          -0.3610289238469311,
          -0.3918152225111077,
          0.3388480709509155,
          -0.31089774093665123,
          -0.5958936634212763,
          0.6306843693032921,
          -0.15743467258533267,
          -0.22339875987520424,
          0.5344187956056355,
          0.4955519424187592,
          0.16089350471274189,
          0.01786297854441432,
          -0.39817182551413755
        ],
        [
          0.6238400100852436,
          -0.26726926876429247,
          0.1045204577715142,
          0.251956139179886,
          0.03948060410637699,
          -0.37563606667500105,
          -0.49624586090180517,
          -0.12886937703584678,
          -0.20946243055313635,
          -0.12578373448526814,
          -0.20085182692411246,
          0.259646164391247,
          -0.39807731247542666,
          0.5823633572934838,
          0.2541316386349044,
          -0.5994458449136019,
          -0.2827917706260364,
          -0.42107983890821565,
          -0.11593931366265042,
          -0.1668309507167568
        ],
        [
          -0.3916311398618671,
          0.6250786634081221,
          0.39399629063751285,
          -0.4130211933451129,
          0.6167420754225589,
          -0.45353490144565034,
          -0.10170539304893567,
          0.5254450983385891,
          -0.3027918827875933,
          -0.06743873888639274,
          0.3554161820377767,
          0.5893886316763987,
          0.19121130760131844,
          0.5952797135195177,
          0.07214287036766931,
          -0.15275183684361948,
          0.26180326930224807,
          0.13561724179440038,
          0.27654385562471007,
          0.11380547199768931
        ],
        [
          -0.3876497098565349,
          0.447515563857633,
          -0.5668069275283637,
          0.5999766469141344,
          0.22664427696482303,
          0.5821139682932174,
          -0.5978409673999943,
          0.07951266949270985,
          0.17869535020754124,
          0.32855299236958124,
          0.18446632945633146,
          0.40427599987442087,
          0.6122090752552182,
          0.6096558842370855,
          -0.157427882126414,
          -0.4879333572270165,
          -0.28680243366268665,
          0.17416641864222315,
          0.4234084291520531,
          -0.5763324722595585
        ],
        [
          -0.3533945895004894,
          -0.39619980832653934,
          -0.3823965155901783,
          0.5531280147034229,
          0.47611666907275774,
          -0.4886960549420863,
          -0.11419887164214226,
          0.30118613663571536,
          0.06708619968377227,
          -0.27548298897145396,
          0.5945849669831961,
          0.028809630554983756,
          0.23977770304113621,
          -0.019716776615707032,
          0.05170064367623528,
          0.4297329320985498,
          0.4146413193610473,
          -0.5882684798977207,
          0.051779404381881444,
          0.16557337807011618
        ],
        [
          -0.3646623753055577,
          -0.10664199151404152,
          0.6217636464483588,
          0.20927534257230296,
          0.5258840175652416,
          0.15874867020862882,
          -0.6138611478658599,
          -0.6302904226003765,
          -0.5401063948988418,
          0.4569144193858178,
          -0.3792743540289283,
          -0.22702420001745222,
          0.45466035090824464,
          -0.4128103670485078,
          0.4500246181800297,
          0.5353840806304985,
          0.26141869937505424,
          0.09679682464747996,
          0.308127709269274,
          0.19237657473633318
        ],
        [
          -0.5297058574850088,
          0.09947186544768916,
          -0.3418225483313453,
          -0.5802160098597577,
          -0.2236452009629658,
          0.40960212814658703,
          -0.3231111267435182,
          0.4038427627504778,
          0.159520010365911,
          -0.5743177975087916,
          0.22957955402065844,
          0.47361117305697686,
          0.06304427301537396,
          -0.3721691735222111,
          0.277240752131913,
          -0.6241918738093105,
          0.39336121071064534,
          -0.024334290149981008,
          0.5193974479740228,
          -0.18527460387533945
        ],
        [
          0.4608243284514232,
          -0.3471774973145084,
          0.3089881454986657,
          0.6039528860279383,
          0.23148703432621132,
          0.46179866152857485,
          0.32123527469320945,
          0.3691672361057984,
          -0.5313279313052914,
          0.4737298088784264,
          -0.3543022796483692,
          0.07270981027714407,
          -0.27542158282786455,
          0.33762289555883385,
          -0.3635043373882647,
          0.4471761351424016,
          -0.19026571675695425,
          -0.36467410771413833,
          -0.5696815897142509,
          0.6149132034426682
        ],
        [
          0.06431567127632498,
          -0.5046671664269923,
          -0.27649976089071615,
          -0.19192337006867277,
          0.21696331807858737,
          -0.1418335583669016,
          0.28831242988557204,
          -0.6150828832148413,
          -0.03666933160356056,
          0.3440943907231273,
          0.430156774636666,
          -0.1331818014052329,
          -0.028016379346452513,
          -0.08054217965048405,
          -0.354829974157984,
          0.624717531901453,
          0.013792720835304695,
          0.6086997716127548,
          -0.43092320069237644,
          0.22311361446543776
        ],
        [
          0.26872862628507277,
          -0.09772163912050968,
          0.06864064096608657,
          0.45262874313106793,
          0.5177425435246047,
          -0.12543217781919824,
          -0.09227148360182091,
          0.5464721873266339,
          0.5118654487693864,
          0.5444826299638496,
          0.19704961455296333,
          -0.08606288239070536,
          0.42396823880006174,
          -0.1597976302623101,
          0.43666337560162305,
          0.1985730838757711,
          0.15072987092794565,
          -0.12191533248946007,
          -0.07762577819255967,
          0.37579804502867054
        ],
        [
          -0.4686010996945069,
          -0.007951822366857209,
          -0.30542812462164104,
          0.5162903865561016,
          0.052853604540243015,
          0.2967778464974844,
          -0.22181571554837975,
          -0.17470994122819355,
          0.5501839775476648,
          0.25119165510135144,
          0.11586971904991417,
          0.622031112696717,
          0.3897573669269506,
          -0.2844598995151038,
          0.5032442083959535,
          0.2977988673051899,
          0.5436481121961262,
          0.19425216929969136,
          -0.21404204909471114,
          -0.2478432010095835
        ],
        [
          -0.4242629999021056,
          0.5679657022184564,
          -0.24885841623151433,
          -0.0841980072966475,
          -0.2132742834428185,
          0.45757756776017444,
          -0.6229123420441792,
          -0.5236190473959875,
          -0.5343863802020178,
          0.07621034508072078,
          0.21998567148750847,
          -0.21346450349721308,
          -0.2686957534095186,
          -0.5152376445453795,
          0.619063524462509,
          0.09504784121652288,
          0.3353005154293176,
          0.5114322360508318,
          -0.37753717549364024,
          0.18778667251367587
        ],
        [
          -0.5343782961088611,
          0.1553510870885647,
          -0.37296328495270975,
          -0.6208332756913698,
          -0.17257699809289356,
          -0.5996021356440774,
          -0.1120079011911006,
          -0.016914775749065525,
          -0.018430128624078446,
          0.46939449084972196,
          0.6084450551292216,
          0.16516299851539795,
          -0.5806472069997384,
          -0.257698199181304,
          0.49881887130122304,
          0.3885257276404043,
          -0.3502797989788924,
          -0.5243027972257808,
          -0.4972742598604865,
          0.5616771690081198
        ],
        [
          0.5257038197356899,
          0.21954175282908917,
          -0.40567350244865974,
          0.5807592576593529,
          -0.3555951822246823,
          0.6262742217305352,
          0.043706512862954794,
          0.3532799240517799,
          -0.43685209626534205,
          0.023111247460461226,
          0.37010006157148256,
          0.3870006746331561,
          0.34313971081540673,
          0.48030114889502606,
          0.4675104732945058,
          0.6184052280366071,
          0.20950832757169136,
          0.40035917807467947,
          -0.2450598270761094,
          0.5144792059404998
        ],
        [
          -0.13863832340443083,
          -0.6138606757994424,
          0.038228783159114155,
          0.0551659352821694,
          0.2365331969855704,
          0.3481075085571178,
          0.45874161292850635,
          0.48988761999033203,
          -0.05510057034032334,
          0.3683946269056736,
          -0.5454602548622504,
          -0.35045670247497046,
          -0.4652985941592638,
          -0.3800091959647964,
          0.2545328438048453,
          0.6274033031310652,
          0.1946744992843339,
          0.1529810058204124,
          -0.23349248484125623,
          -0.0407841809139462
        ],
        [
          0.3517848800092075,
          -0.13356795747633465,
          0.047603560538302614,
          0.4838258136444774,
          -0.6237862603918319,
          -0.10753336125176072,
          0.21700030635562928,
          -0.4191632176286406,
          -0.20273763318214705,
          0.10074598169018478,
          0.09357290882668934,
          -0.4397933961058603,
          0.5558918679132786,
          -0.5807589211814356,
          -0.18093553645405674,
          0.47702551402923643,
          -0.4021135304923965,
          -0.6226018068299194,
          0.03467909305810013,
          0.10168892069528357
        ],
        [
          0.048691714668257835,
          0.36758964175351905,
          0.20453111489803044,
          -0.07956865340379626,
          -0.3094831303741034,
          -0.17630474504978944,
          -0.567496558692872,
          0.3468617109581241,
          -0.5043810944151972,
          -0.5339321368600944,
          -0.11620144491590789,
          -0.23680768026362647,
          -0.28327357499111744,
          0.5766535487038998,
          0.05375748989722817,
          0.20277063359188685,
          -0.00950771572665754,
          0.405293692652832,
          -0.3921134361844928,
          -0.27143426128524917
        ],
        [
          0.004735863477223656,
          0.421223993323382,
          0.4041003529241919,
          0.027180585437375893,
          0.4274979936233615,
          0.28553117885816504,
          -0.20098061152210062,
          0.22379000035944696,
          -0.5728738846325808,
          -0.2525545986229573,
          -0.15776675599618417,
          -0.40763800537059214,
          0.35053230785859446,
          -0.6267598465349152,
          -0.1351212562600777,
          -0.02273462518169289,
          -0.5829416990750828,
          0.46943308587728694,
          0.3733870693510647,
          0.3913344584364963
        ]
      ],
      "b_ffn1": [
        -0.058601309010278296,
        0.0371355342811277,
        0.051308045840440686,
        -0.1431964557221084,
        -0.03525039043988659,
        0.12165965761698533,
        0.01094420024285872,
        -0.1054527452483768,
        0.19574513285665124,
        -0.03521181899220763,
        -0.04903941071271278,
        -0.026709970772127417,
        0.1550047038817437,
        -0.15760572061871328,
        -0.08521731176975661,
        0.014886885591667204,
        0.10542226601973415,
        0.02449395799427695,
        -0.11105482138992187,
        0.16259931938749939,
        -0.19853789509082492,
        -0.18576062671194415,
        -0.1762493057447451,
        -0.09349750538109843,
        -0.015473114853390785,
        0.17425590168295318,
        0.044853161931292906,
        0.0857677595519723,
        0.18765863762047008,
        -0.1243902667975178,
        0.16623261332307765,
        -0.12860747064029338,
        0.09590700547231445,
        0.00514394527169304,
        -0.18239250510760774,
        -0.1051082623181463,
        0.05584765695801097,
        0.05038807324545724,
        0.07208364435332532,
        0.013281185226979408
      ],
      "w_ffn2": [
        [
          -0.2737379999953622,
          -0.17561550788469404,
          -0.6128357653214163,
          0.10710133323892057,
          -0.2842382570771852,
          0.6235300683808521,
          -0.5698369075197653,
          0.5063284530629718,
          -0.3719778446499351,
          -0.3524544374469631,
          0.08680509332474384,
          -0.6002050383948809,
          -0.25652118984575123,
          0.4616749922362985,
          0.08813467437811584,
          0.11358485912694571,
          0.25024058036101815,
          0.03672276033766109,
          -0.6132291782267467,
          -0.16854146417923582,
          -0.5099579673966197,
          -0.2534420304575517,
          -0.33873560596431446,
          -0.43250802420755263,
          -0.37054460733490524,
          0.24683886874381622,
          -0.39943623900247066,
          -0.41824990172639454,
          -0.5119961442727778,
          -0.31516276595358905,
          -0.37818343818986544,
          0.4874126186422284,
          0.2613709467382884,
          -0.39992527185147186,
          0.37723293964343074,
          0.3259468248240852,
          -0.3060712023951664,
          -0.03600344820972701,
          -0.2708681103200199,
          0.37927422487523466
        ],
        [
          -0.21632265256301825,
          0.4914900121316522,
          -0.27513436955660686,
          0.6244568881761426,
          -0.5247070561864942,
          -0.6156388725437941,
          -0.048517033326079706,
          -0.14798491829539107,
          0.23247119219708445,
          -0.4007882197342499,
          0.42628714597440276,
          -0.6003573944318026,
          -0.06489324026716459,
          -0.3354023984212085,
          -0.5771040861353401,
          -0.07463362956937403,
          -0.34849398816638355,
          -0.39510298846824327,
          -0.223928519248842,
          -0.1824314129709132,
          -0.24939120618265181,
          -0.5557198228669098,
          0.014246134362068896,
          -0.08058703493297215,
          -0.526987105920415,
          0.3678242512315725,
          0.45490241408479604,
          -0.33079594721763217,
          0.0741259965678922,
          0.5782284877905136,
          -0.6128347135105672,
          -0.027111802832425758,
          0.6027717106690852,
          -0.4102334855937687,
          0.5250433648059284,
          -0.6314921774744134,
          -0.571949298509606,
          -0.2182815824440823,
          -0.6253907128396822,
          -0.34601978363697317
        ],
        [
          0.5424076758587152,
          0.4041182389000787,
          -0.0700033540223437,
          0.3451153546407959,
          -0.14411063177718875,
          0.4340309247837365,
          0.019092974067805635,
          0.409245302089137,
          0.31534035826531803,
          0.5547207539056594,
          -0.600553765767752,
          0.5507108201420597,
          0.22280891403238,
          0.6175728397193218,
          -0.12450908499136726,
          -0.43356620710846405,
          -0.6170862710561114,
          0.13439936142641906,
          0.4570299639035028,
          -0.49364065895047393,
          0.1609533807077851,
          0.28891225325203307,
          0.39414947738602113,
          0.2914497204273605,
          -0.14749670388472347,
          -0.607246081239571,
          -0.5523228604073112,
          0.33343102388854284,
          0.28576205988588244,
          0.11214696813615888,
          -0.5819577687867606,
          0.29064666221952584,
          -0.47311549260519553,
          -0.5675033608093666,
          0.5655544956215844,
          -0.07075608903407693,
          0.193377583533054,
          0.5342883639254555,
          -0.36324831259449725,
          -0.5442485042370768
        ],
        [
          -0.5850936573127565,
          0.04414333230466849,
          0.13860488213434086,
          -0.6178118375586109,
          -0.036080975568214324,
          0.6123982494722596,
          -0.20337887765542667,
          0.019476227218061526,
          -0.5528550940370918,
          0.4496717111802163,
          -0.4590599457468032,
          -0.43588736587689714,
          0.05529378225002057,
          -0.5560344315943783,
          0.0658525512799295,
          0.4196924013139901,
          -0.2785051520437175,
          0.5969024356613121,
          0.4704264881471417,
          -0.5080120836007359,
          0.6107933410383807,
          0.15172062602244962,
          0.4262821025169393,
          0.06860665947032374,
          0.3747570672296724,
          0.07726230398694633,
          -0.2686727271111702,
          -0.13168066964874003,
          0.4024360499355425,
          0.25336864056709874,
          -0.020108787749906876,
          0.14083491052745312,
          -0.379263951198417,
          -0.07190814538161905,
          0.45243813603087324,
          0.5103481358923084,
          -0.16516062287715105,
          -0.483807097440957,
          0.26159249810532836,
          0.2573112315783401
        ],
        [
          0.257943374333406,
          -0.5841658675351336,
          -0.3069249396486069,
          -0.44592177883789397,
          -0.14009090379170974,
          -0.3354170935180672,
          -0.34521359497653836,
          0.34133971003380514,
          -0.487272731265486,
          0.009909006813902055,
          0.6079624074920073,
          -0.6173962906910141,
          0.1917958789660088,
          0.04295158924796638,
          0.5093272595123571,
          0.16017042413551408,
          -0.5291038141963536,
          -0.36457112288412313,
          0.41579647852588464,
          0.44189404377224906,
          -0.37626947990801235,
          -0.06124819379333868,
          -0.017658719857471028,
          -0.07963847420513448,
          -0.35510610038745755,
          -0.621885149770016,
          0.5978110002374301,
          -0.13501691839449764,
          0.1991039642218546,
          -0.5491263325906866,
          0.273493487254008,
          0.5415697778487257,
          0.42022138165520706,
          0.09705164825647639,
          -0.4797443909140391,
          0.6147248222114353,
          -0.6172662797844479,
          -0.0358167060501442,
          0.6020877198729716,
          -0.10594799233034313
        ],
        [
          0.27951897222979294,
          0.44102284453206886,
          0.6176129771173778,
          -0.6278888013149266,
          -0.5763854874328223,
          0.2791615642949977,
          -0.5198651569193066,
          -0.00558067893989278,
          0.5617700818115127,
          -0.20821928631835224,
          0.04394693039052322,
          0.579131563697186,
          0.16126089611285255,
          -0.1886465443200211,
          -0.2896025097057777,
          0.5062861691509385,
          -0.06532156706902048,
          -0.1299250605550648,
          -0.25187696726952674,
          -0.2745308295090744,
          -0.36711834666274973,
          0.3727287162193459,
          0.5011995772995209,
          0.6088105188942815,
          -0.4653582394383451,
          0.06796306672413277,
          0.49669623467780355,
          0.2388129557179467,
          -0.5155628877542832,
          -0.6211913646573516,
          0.6146199221407468,
          0.6303847503500531,
          0.28076748413320163,
          -0.24732321593466972,
          0.5446390725235514,
          0.2914631160898282,
          -0.14596061403153854,
          -0.2251706630945549,
          0.2877060066724837,
          0.28522076525102613
        ],
        [
          -0.09730000633843072,
          0.2051120521394989,
          0.38941446824241976,
          -0.14901268125345724,
          -0.19764088593286583,
