{
  "format_version": 2,
  "architecture": [
    {
      "type": "dense",
      "input_size": 17,
      "output_size": 18,
      "activation": "swish"
    },
    {
      "type": "dense",
      "input_size": 18,
      "output_size": 9,
      "activation": "swish"
    },
    {
      "type": "dense",
      "input_size": 9,
      "output_size": 2,
      "activation": "asinh"
    }
  ],
  "weights": {
    "layer_0": {
      "w": [
        [
          1.0302039930464928,
          -0.31776050373253817,
          0.6389624864675105,
          1.1413007909750976,
          0.5084222982780591,
          0.8428833548089458,
          -1.1214356726093961,
          -1.5092221263197692,
          -1.2057432389013192,
          0.8870497851912638,
          1.5791909717091275,
          1.7304265749805512,
          -1.0478023792951991,
          -0.5884939041595816,
          -0.25438169904643226,
          -0.4526444331038424,
          -0.5636131090780689
        ],
        [
          0.06929121680544492,
          0.16034352644892325,
          0.2679957705372331,
          0.6249837599102235,
          -0.8751678576650548,
          0.9492540642495615,
          1.5749633902359848,
          2.2911393665411697,
          -1.780900602831433,
          0.07065814484961397,
          0.38011243166224107,
          1.4993539474919353,
          1.1774931873685088,
          0.8956809583215564,
          -0.2047352794191286,
          0.4736141405764145,
          -0.1103509074414144
        ],
        [
          1.1372310868215236,
          0.8889801320869597,
          -0.9069832042669606,
          1.031207337809962,
          1.5498292959939408,
          -0.04606631062826683,
          -1.8659097456319063,
          -0.8527751668901979,
          0.6589405357880493,
          0.9730169704866953,
          -0.056235729452949634,
          -0.33734866178585854,
          -0.2783138151109208,
          -0.25743705907501013,
          0.929960889486233,
          -0.38569685793994335,
          -0.5440797739876713
        ],
        [
          -0.20156114047582818,
          -0.54134130218134,
          -0.4249509336126849,
          -0.058756987037992925,
          1.2308562456006507,
          -0.10986223510351145,
          0.4232221566610801,
          -0.9373527538550692,
          -0.8292703153784777,
          -1.8546417384830403,
          -0.437232345054968,
          -0.05647640639867335,
          -0.26602487728520385,
          -1.6653682297148917,
          -1.544894083035238,
          3.0633304718978773,
          -0.8244040188358839
        ],
        [
          -1.4105057674299046,
          -1.1100057144822926,
          0.9896265015085954,
          -0.21088138090861008,
          1.5553276748018177,
          0.7719457503040164,
          0.5021690936707954,
          0.15033060516040475,
          -0.2898864170807789,
          -1.3746956345632948,
          -1.2908606190666947,
          -0.22709387186089902,
          1.561167274575062,
          -0.13966326273037577,
          1.2455620319115632,
          1.7840611153596853,
          -1.5415873191726814
        ],
        [
          1.2762496266321803,
          0.19457118167154208,
          0.566134942135744,
          0.47041025981841367,
          1.7696429390856214,
          0.26126577869017265,
          0.5903112874610108,
          -1.3473592070325155,
          -0.38020080721492544,
          -0.15345725634124685,
          0.49578984977114127,
          1.3486559986007474,
          1.4815324547129962,
          0.22690715884138157,
          -0.8037834350738198,
          -1.4143997893806057,
          1.3180720986665535
        ],
        [
          0.1950437804737044,
          1.4935873706506642,
          -1.331824355008771,
          0.6133163707238505,
          -0.9692933529202938,
          0.9728956300479639,
          0.34888439099156576,
          0.49416016190723644,
          1.1363303432234315,
          0.7993078352221574,
          -0.2586394764656834,
          0.7926429333089726,
          -0.8679672625870927,
          -0.8937074065772186,
          -1.0736180299864677,
          0.034990142903368326,
          -1.7227173611374182
        ],
        [
          2.013938029671039,
          -1.6270118768764905,
          -1.3412448031886557,
          -0.2303267188683802,
          1.260761259815426,
          0.9551166200288121,
          0.7162321729138328,
          0.360595691423617,
          0.48706125499238206,
          -1.2929980353894477,
          -0.3486721088533211,
          0.772660355229617,
          -1.2571905274225963,
          -1.296920835154502,
          0.7376874520682537,
          -1.0369508561863308,
          0.7578204380158318
        ],
        [
          -0.5110447151716855,
          0.7746757538394804,
          0.2777632885597656,
          0.43651207127992864,
          1.1148221228724355,
          1.7582226404881722,
          0.03218581492792749,
          -1.1761661573366502,
          -0.4939070128634553,
          -0.5746920351183431,
          -2.0801778707200276,
          0.42044184680624275,
          0.9391609472031166,
          1.441201967993043,
          -0.227556852925753,
          -0.8764811747462855,
          -0.8539927103005338
        ],
        [
          -0.8791665628372236,
          -0.9564682895797367,
          -1.2425366220403413,
          -0.6270820910708732,
          0.3340542153303119,
          -0.5085158488788486,
          -1.1767772534674799,
          1.3600464947772184,
          -1.2331420208075259,
          -0.8924279056964566,
          0.04914215480830553,
          -0.8781538413925123,
          -1.5382257048692374,
          0.33934143693731045,
          1.2794425924250237,
          -0.27803413088833384,
          -0.1942359766407562
        ],
        [
          0.28557262274253503,
          0.27447331278174447,
          -0.17559875177211648,
          0.7163998188129388,
          -1.622949094607724,
          -0.5174982996738127,
          -0.2887814468962935,
          -0.6440303129316209,
          -1.0952249297813497,
          -0.4227274824488889,
          -0.664081720999242,
          0.23690202812822347,
          0.26729425220459113,
          0.03307909175476187,
          -1.258398728328427,
          1.1646253576423207,
          1.2949752819881275
        ],
        [
          -0.8942243283730753,
          -0.599545765290352,
          -0.28414049421357523,
          -1.8947249145107259,
          -1.7782100404260333,
          0.2757200319866202,
          1.66480546140401,
          1.3790252716360842,
          -1.3161836745852922,
          -0.9468224078732503,
          -0.14680041462444704,
          0.39654262532185625,
          1.108275686464952,
          1.1384771156271598,
          1.530100684527231,
          -0.7068367183656847,
          -0.13264403410551084
        ],
        [
          1.193970136520322,
          0.12692485248819807,
          -0.4564353490591211,
          1.825206291078247,
          -1.1654148077559907,
          -1.649301859038072,
          1.0535144623064991,
          -1.5128196333086543,
          -2.021882033913071,
          1.3166744638186745,
          -0.01718953218121566,
          0.23530718288669394,
          -0.8111111721052038,
          0.6980305117837307,
          -0.9118205566686242,
          -0.6059054557170698,
          -2.27847062868375
        ],
        [
          0.4144678395853547,
          -1.4191496504794392,
          1.1043618831104065,
          -0.3262161185672836,
          0.08306913615805422,
          1.3871895954888624,
          -0.919008494318279,
          -1.0030415403470174,
          0.8251448200816651,
          0.442170691655869,
          -1.6230807820960922,
          0.7193537372942607,
          0.4714467167525922,
          -1.9500357040400376,
          0.6169270206897841,
          -1.6080620112050057,
          1.360510718182439
        ],
        [
          -0.9263183937417101,
          0.7495926806474631,
          -3.5580764421430313,
          0.6175575774644124,
          0.42024884281207564,
          1.451995612067408,
          1.6436162154316851,
          -1.4714192551079974,
          -1.090921630644699,
          -0.34225617249813656,
          -1.9422061692890717,
          0.7848750961380859,
          0.9356436289252614,
          0.9556755344971202,
          -0.2723777285565805,
          -0.6157134079220334,
          0.10819640506989359
        ],
        [
          -0.9098427740515547,
          -0.7221617118717751,
          0.23983726909424208,
          -0.7919005741099241,
          -0.9825547187898738,
          1.52933729918712,
          0.27302397739027917,
          -0.8714480116940995,
          0.343394575163241,
          -0.9490667608754468,
          0.181891495052807,
          1.308370993502328,
          1.200415216201042,
          1.2420863085640907,
          -1.127837545009887,
          0.5818718986713516,
          -0.34248569268462203
        ],
        [
          -0.47011907195565517,
          1.4870013011235508,
          0.4438414122389749,
          0.7400732562570611,
          0.08621844304364101,
          1.4220553643866425,
          -1.0467680984128074,
          -0.7054605673735566,
          -0.08489469408272354,
          0.8876710978138918,
          0.16037314508541778,
          -0.6407735447540368,
          -0.04437113677286009,
          -1.078813713570686,
          -0.5064890589755247,
          1.279832981533501,
          3.543383530827809
        ],
        [
          1.528374382040481,
          -0.5187250247180182,
          -1.2107860180363743,
          -1.1390056091582368,
          0.9350687413890975,
          0.4073431629164417,
          -0.41575555636497974,
          -0.15411246868497264,
          0.21545933513466142,
          -0.3701852394006746,
          0.331676892032553,
          -0.16758103049931528,
          0.6943736137539855,
          0.46545726330539194,
          -1.0804180292404273,
          -1.1865248797736463,
          2.17773887786054
        ]
      ],
      "b": [
        -0.13859384016701481,
        -0.04505962681243858,
        -0.39751814846597444,
        -0.8562387640007643,
        0.02598906719138272,
        2.7187516730059014,
        -2.2075240834886687,
        0.18346442642984329,
        -0.012313825746706808,
        -0.10030263327514755,
        -1.2508926764286898,
        -0.300697019520924,
        -0.705142480179632,
        -1.3350451353009825,
        -1.4999562969369618,
        -0.417697485702885,
        -0.12467314620811898,
        -0.3806979914276982
      ]
    },
    "layer_1": {
      "w": [
        [
          0.968501579538966,
          -0.4143171010185611,
          0.18467622314830479,
          1.6105633424332204,
          1.044282265884008,
          0.16649518159177124,
          -1.7252704296882726,
          -0.6744290408514657,
          0.07600576796078062,
          1.1775685516134633,
          1.4627145469336016,
          1.4951963988562804,
          1.152203528506571,
          -1.6124973859717433,
          0.8338684750378844,
          3.538403530153044,
          -0.40128081039100927,
          0.03252353003491404
        ],
        [
          -0.5093641606663173,
          -0.06799094869190814,
          2.5402230046434804,
          -0.7956450111813287,
          0.30843192020392696,
          -4.1505039415930725,
          0.9431662204182576,
          -1.3823239304013244,
          -1.3620906420108745,
          0.17920455174908323,
          -1.2620597228689983,
          -0.2008663290607995,
          1.7080053905960533,
          -0.5768297465452785,
          0.6912725023728319,
          1.5446434139791325,
          -0.5345476476913826,
          -0.6722062182018171
        ],
        [
          0.5292932923124054,
          0.45471274256240957,
          0.2607601436350171,
          -0.10522505453384579,
          0.48069124061222634,
          -0.8924595726236215,
          -1.4948737267952805,
          0.4779344979604261,
          0.16720303696944683,
          1.418614314208967,
          -2.2065057208770757,
          0.7648351169813647,
          -1.1952916092895043,
          0.7423128549993283,
          -0.1492689673545753,
          0.4771594489650779,
          0.0773441589893551,
          -1.6827437036849995
        ],
        [
          1.2757472673515622,
          0.616416600969842,
          1.2284433846921887,
          -0.8504910129562204,
          -1.7049158354000333,
          -0.4689321202793555,
          1.9782349847322083,
          -1.5602282650145707,
          -1.1365561217112647,
          -1.5058427787900355,
          1.072904402574565,
          0.4772630199032637,
          0.4424973170346984,
          -0.5367678079886695,
          0.25057756237945306,
          -1.4626152054328827,
          0.035926549209825076,
          -0.3854521264735471
        ],
        [
          0.6267531330843727,
          -0.08932311728797071,
          1.6584551258688798,
          0.23376430961015604,
          -1.8627935158698081,
          0.03355523927704329,
          0.293831522965756,
          -0.770042266510977,
          0.49739777075908,
          0.806158326825952,
          -2.0847076037639516,
          0.5505472944307197,
          0.20227417148946625,
          0.0024657377903007927,
          -0.36387214136039514,
          1.1826834628164065,
          1.4954762417456715,
          0.10199331151691116
        ],
        [
          -1.2095235563157072,
          -0.5393877887308611,
          -1.7624483568824467,
          0.858667116166064,
          1.8859502627843927,
          0.4999867701658003,
          0.5680310205433665,
          -0.6616749385197793,
          -0.41030727253653776,
          0.18764815549546565,
          -2.690554237442499,
          2.6166131262602947,
          -3.7120987528273095,
          0.33219200861684417,
          1.029991192359451,
          -0.6704475160342591,
          -1.476396922995836,
          -2.466466471183603
        ],
        [
          -2.797436604906684,
          -1.7333037339665922,
          0.6349477783880895,
          2.964043093735407,
          -1.0676046913107675,
          0.08535073167858531,
          -0.2068798282491242,
          0.6595575769243762,
          -0.07335939946173031,
          0.902098769541432,
          0.8042341259345163,
          1.0452168093512322,
          1.1186225324756256,
          -0.12378552246930319,
          -2.0918034523165696,
          -1.690165209925631,
          -0.061668265181841875,
          0.4022206768720382
        ],
        [
          -1.4072443429689252,
          -0.9336107366226485,
          1.7300219750743935,
          -0.2570694263271065,
          -1.9538225788198922,
          -1.8707520980815828,
          0.5606837184902762,
          1.2895779681766948,
          -1.2696583429664883,
          -0.6603846760299832,
          1.064847942709254,
          1.7342723804677362,
          -0.24641883171193468,
          1.0176521392636388,
          -1.775530528109745,
          1.1429464439556858,
          -2.5645846082175616,
          1.0491370803015236
        ],
        [
          -0.9424406109093839,
          -1.3147052030803095,
          -1.1610661100804207,
          0.21195610181035995,
          0.846976045858093,
          -0.9929747555365385,
          1.4991940476738854,
          -2.2766617702109517,
          0.07378021075418317,
          0.4209171466094812,
          -1.0221114998575382,
          0.8868737792501333,
          -2.5539695343513587,
          -3.9143926962674436,
          -0.49673306440570775,
          -1.2540439837188457,
          -0.32032913846566036,
          -2.4163946181631992
        ]
      ],
      "b": [
        -1.0446400597984051,
        -0.8017941379874385,
        1.0939877993236582,
        -2.808572330502302,
        -0.35797202631214375,
        -1.6025594696639702,
        -0.9757889111377525,
        0.8941341267698943,
        1.2847137644667033
      ]
    },
    "layer_2": {
      "w": [
        [
          0.4165598288570944,
          0.9565898881612132,
          0.07877479807970644,
          2.4661476908620514,
          -2.1485442061689235,
          3.472381834087723,
          1.4717825409673022,
          1.8084143305514235,
          5.000157371282383
        ],
        [
          -1.9553872928612916,
          0.9968875476234542,
          -0.8371806973969926,
          -2.3837232090326115,
          2.0702045851568167,
          -0.03714597104858797,
          -0.9631208789606083,
          0.7248757665759538,
          0.835010756378348
        ]
      ],
      "b": [
        1.6606639762684603,
        1.3821779181636469
      ]
    }
  },
  "input_mask": [
    0,
    2,
    3,
    5,
    6,
    7,
    11,
    12,
    18,
    19,
    27,
    28,
    29,
    30,
    32,
    33,
    34
  ],
  "ablated_input": null,
  "ablated_value": 0.0,
  "output_param": "atan2_signed",
  "scaled_pi_n": 1.0,
  "delta_max": 0.35,
  "normalization": [
    {
      "transform": "none",
      "scale": 0.8655390346546353,
      "center": 0.9204641308303162
    },
    {
      "transform": "asinh",
      "scale": 0.8175600848274288,
      "center": 0.8867681772014051
    },
    {
      "transform": "asinh",
      "scale": 462.6300273768903,
      "center": -333.1697854608212
    },
    {
      "transform": "none",
      "scale": 5413222.0902614985,
      "center": -508770.60939412704
    },
    {
      "transform": "none",
      "scale": 1157.3507227945558,
      "center": 4549.679429911598
    },
    {
      "transform": "asinh",
      "scale": 10.358129862795693,
      "center": 12.17320223341297
    },
    {
      "transform": "asinh",
      "scale": 0.33924629426269115,
      "center": 0.40005844701414567
    },
    {
      "transform": "none",
      "scale": 0.42411593596120784,
      "center": 0.42858041580763234
    },
    {
      "transform": "asinh",
      "scale": 33.09832239288295,
      "center": 82.65759631477488
    },
    {
      "transform": "asinh",
      "scale": 0.0911362193061205,
      "center": -0.04718278665783951
    },
    {
      "transform": "asinh",
      "scale": 0.2151370816795333,
      "center": 0.29274513397808116
    },
    {
      "transform": "asinh",
      "scale": 9.832939972853932,
      "center": 11.55598244317186
    },
    {
      "transform": "asinh",
      "scale": 3.256400734674897,
      "center": 3.827025266270693
    },
    {
      "transform": "asinh",
      "scale": 5107742.117847206,
      "center": -3590633.2113008387
    },
    {
      "transform": "asinh",
      "scale": 10217099.16686349,
      "center": -6706141.091617538
    },
    {
      "transform": "none",
      "scale": 0.5,
      "center": 0.5
    },
    {
      "transform": "none",
      "scale": 1e-6,
      "center": 0.4262529995153208
    },
    {
      "transform": "asinh",
      "scale": 594.4827404994671,
      "center": 716.3429422450554
    },
    {
      "transform": "asinh",
      "scale": 412.89140647256187,
      "center": -302.7939124482325
    },
    {
      "transform": "asinh",
      "scale": 154.12675819494976,
      "center": -169.7611160606572
    },
    {
      "transform": "none",
      "scale": 1.5707963267948966,
      "center": 1.5707963267948966
    },
    {
      "transform": "none",
      "scale": 0.1,
      "center": 0.0
    },
    {
      "transform": "none",
      "scale": 3.141592653589793,
      "center": 0.0
    },
    {
      "transform": "tanh",
      "scale": 30.0,
      "center": 0.0
    },
    {
      "transform": "tanh",
      "scale": 100.0,
      "center": 0.0
    },
    {
      "transform": "none",
      "scale": 1.0,
      "center": 0.0
    },
    {
      "transform": "none",
      "scale": 1.0,
      "center": 0.0
    },
    {
      "transform": "none",
      "scale": 1.0,
      "center": 0.0
    },
    {
      "transform": "none",
      "scale": 1.0,
      "center": 0.0
    },
    {
      "transform": "none",
      "scale": 1.0,
      "center": 0.0
    },
    {
      "transform": "none",
      "scale": 1.0,
      "center": 0.0
    },
    {
      "transform": "asinh",
      "scale": 17774.23743300369,
      "center": 20521.130577512882
    },
    {
      "transform": "asinh",
      "scale": 500.0,
      "center": 500.0
    },
    {
      "transform": "none",
      "scale": 60.0,
      "center": 60.0
    },
    {
      "transform": "none",
      "scale": 100.0,
      "center": 0.0
    }
  ]
}