{
  "format_version": 2,
  "architecture": [
    {
      "type": "dense",
      "input_size": 17,
      "output_size": 7,
      "activation": "swish"
    },
    {
      "type": "gru",
      "input_size": 7,
      "hidden_size": 7
    },
    {
      "type": "dense",
      "input_size": 7,
      "output_size": 2,
      "activation": "asinh"
    }
  ],
  "weights": {
    "layer_0": {
      "w": [
        [
          -0.20285800129559484,
          -0.5554694190921896,
          -0.3699895748122175,
          0.4512822502868836,
          0.5388287242055068,
          0.9132019162884397,
          -0.9794867832685611,
          -0.23961689773132866,
          0.043170770794645374,
          0.8500390264325719,
          -0.1607617030975329,
          0.5747105718829897,
          0.5533037310640845,
          -0.3860822090778011,
          -0.9961201228856759,
          0.7754642153053355,
          0.9595511210384735
        ],
        [
          0.4228478827223954,
          -0.2103256114451223,
          -0.37230516749309317,
          -0.10070412323622002,
          -0.3731044628536182,
          -0.40705264143318187,
          0.10837349160965926,
          -0.9417751478978966,
          0.5606693236207163,
          -0.8922146323517621,
          -0.49565705833948437,
          0.2915148086951893,
          0.7902686858688952,
          0.5219403884884959,
          0.6649038876458704,
          -0.5051679277239634,
          -0.24836027629778057
        ],
        [
          -0.9800773771496348,
          0.8996547361638629,
          0.8860710140634558,
          -0.4345063117491691,
          0.39857344337846934,
          -0.9940189743809967,
          0.492906270732113,
          -0.044331387452698934,
          0.4497125205513779,
          0.608794702083794,
          -0.36269995417441236,
          -0.7307877600681946,
          0.3193272608070574,
          -0.19892577139219592,
          0.3709009128813776,
          0.10412657560586447,
          -0.46959090947334214
        ],
        [
          0.6366305249006676,
          -0.9193294118763568,
          0.8557435349550868,
          -0.9632228163285411,
          0.12375545864681636,
          0.3325580489940676,
          -0.42585438990186586,
          0.3764630538798144,
          -0.7503879920885859,
          -0.8824429021750129,
          -0.9015912213372462,
          -0.3248056666489667,
          -0.8522586469292056,
          0.8899651774271522,
          -0.46835074158332723,
          -0.6658073773054993,
          -0.8867003993038919
        ],
        [
          0.8075688848863309,
          0.9556477695553178,
          -0.5431202382478879,
          0.7980293263618545,
          -0.695761508892067,
          -0.8547738847563738,
          0.04521722815378393,
          -0.7789730113373537,
          -0.5449005392430639,
          -0.5736764345273853,
          0.20598847632552375,
          -0.20453565114643302,
          0.7834903850033368,
          0.5876693854794246,
          -0.21554326148839464,
          0.5055087677409877,
          0.9960798017610626
        ],
        [
          0.11504868366645238,
          -0.8852813078379451,
          0.8211839146742868,
          -0.9449710497558573,
          -0.5113096442452651,
          -0.31255247354150695,
          -0.13592480997857426,
          -0.10431977060949205,
          -0.388938375378858,
          -0.194738750093708,
          0.28431485622892816,
          0.7000642659651057,
          0.49666015172384115,
          0.6446554122368937,
          -0.7695177840000318,
          0.39833433776644966,
          0.4286315743001856
        ],
        [
          -0.47177275371024774,
          0.03356765252682803,
          0.11001031656414573,
          0.7942500743504732,
          0.3268356868233899,
          0.6429750080846528,
          0.4980726988736339,
          0.5457970539023242,
          0.23517176192540945,
          0.4947685481220212,
          -0.3523638398866281,
          0.17949859022576087,
          -0.6667543319434215,
          -0.989656513925075,
          -0.6636932599515996,
          -0.6735518003146278,
          0.7539365842071442
        ]
      ],
      "b": [
        -0.9973965448514562,
        -0.3685053505023953,
        0.025561159184868343,
        0.3998846412385866,
        0.40589378220586236,
        0.3714153827397997,
        -0.4261552935719124
      ]
    },
    "layer_1": {
      "weight_ih": [
        [
          0.34899467712822996,
          -0.34726943834224233,
          0.857826971120504,
          -0.8495280378052738,
          0.2559713981370959,
          -0.6880673909149233,
          0.40118529469629927
        ],
        [
          -0.6807280651699921,
          -0.21479822957835992,
          -0.26511338364020287,
          -0.8518515329406299,
          -0.5491798795275624,
          0.8632065622892064,
          0.048598899145097185
        ],
        [
          0.14977898675061008,
          0.5967051094027431,
          0.7670903286260986,
          0.4941158546529887,
          -0.5910961570372213,
          -0.7566835190400685,
          0.4863368481957595
        ],
        [
          -0.6405446794393904,
          -0.7318705309735143,
          -0.8123312981348773,
          0.4155481133432506,
          -0.5947491246478439,
          -0.5876109720698871,
          0.9180899480122451
        ],
        [
          0.5089545763332695,
          -0.5762987609569039,
          0.03682670414106903,
          -0.16263702196952168,
          -0.40671623572901006,
          0.8553507461163268,
          -0.6211890000740667
        ],
        [
          -0.8215841116858902,
          0.07492162082442233,
          0.38410474814748485,
          0.623998845458434,
          -0.7446051355415153,
          0.3954297893645824,
          -0.30964992092637234
        ],
        [
          -0.5903221688279977,
          -0.7110817177857843,
          0.7288218254729186,
          0.6501915758287597,
          0.6747000591638497,
          0.4789692116650808,
          0.6751583382968538
        ],
        [
          0.452187074087961,
          0.1759050297543261,
          0.4490155664215796,
          0.338735863296842,
          -0.5028026772388943,
          -0.9086940937486956,
          -0.16118386260935458
        ],
        [
          -0.19584751222477015,
          0.6450851308365664,
          -0.6773641138119048,
          -0.4954727622463589,
          -0.0713900677767717,
          0.19802665379409468,
          0.8428631083128761
        ],
        [
          0.5042142305872219,
          -0.7867309540050643,
          -0.5246247112600374,
          -0.8950241343900154,
          0.8088928466613836,
          -0.913364081669338,
          -0.8088276482219456
        ],
        [
          -0.639617564784738,
          -0.40429430618284734,
          -0.5991348567543746,
          0.42518087877157273,
          -0.40148621940474216,
          0.47309617236599943,
          0.8579837249816553
        ],
        [
          0.8355624218631699,
          -0.8361282126857847,
          0.8406152876093638,
          0.2192213083943937,
          -0.3022298708160661,
          -0.39842601578919445,
          0.6208618808624868
        ],
        [
          0.674151696798112,
          0.7688911941896293,
          0.4236261700254895,
          -0.4985299301438056,
          0.8445048474463308,
          0.28191039184894207,
          0.45528003919585047
        ],
        [
          0.551283853991829,
          0.5631582249823395,
          0.8647131375571413,
          0.8309538781255785,
          -0.8395043623963777,
          -0.8140443786828461,
          -0.199301010006398
        ],
        [
          -0.4169803179639443,
          -0.7050483543783028,
          -0.2560138550704325,
          -0.21255199903821065,
          0.22841164025876548,
          0.4684580686404225,
          0.8101512950693444
        ],
        [
          -0.7400578321738971,
          0.9084495563471053,
          -0.8087195151665221,
          0.4414200003257682,
          0.8975916171327223,
          -0.9012839362746398,
          0.7520633679180473
        ],
        [
          0.003677513322358439,
          -0.11420031515752826,
          -0.7310491124728187,
          -0.16744674516720603,
          0.8289161695146763,
          0.15549200941527386,
          -0.02304534034301886
        ],
        [
          0.8228343741678628,
          -0.04527497202595798,
          -0.23409303069255738,
          0.37357106703685283,
          0.46287762015689826,
          -0.4165693493215892,
          -0.11184071855841515
        ],
        [
          0.817076086225069,
          -0.8378394814938126,
          -0.12949697210615063,
          0.5698193852876905,
          -0.037383455653767994,
          0.5590226183929186,
          0.529587142766343
        ],
        [
          0.6901452729553033,
          0.8911983669603574,
          0.6723286960246915,
          -0.8021959893252416,
          -0.4819499143028581,
          0.862793232644421,
          0.6968151157490134
        ],
        [
          -0.7778548362970603,
          -0.7128903494020399,
          -0.06350299832993711,
          0.605111764117148,
          -0.7196644404170535,
          -0.8980799330671518,
          -0.9092696190181254
        ]
      ],
      "weight_hh": [
        [
          -0.40461250327912757,
          0.779064565749827,
          -0.046503583062170506,
          -0.712844092126379,
          -0.7265546092211699,
          -0.36879964190596237,
          0.34377064990084993
        ],
        [
          -0.8780922549818957,
          -0.34916573979345233,
          0.5572355016159591,
          0.14373110960422575,
          -0.097638056694205,
          -0.9112157590142684,
          -0.18906002821345635
        ],
        [
          0.4633830247548829,
          0.09434235921179313,
          -0.7854476897184641,
          -0.893274532881214,
          -0.39006450243850177,
          0.9159764681629388,
          0.29630283548002945
        ],
        [
          -0.2667035193792371,
          -0.6010000795255142,
          -0.5043676798379775,
          -0.3520735627139755,
          0.8248069851326703,
          -0.9252077594377667,
          0.18646047365161533
        ],
        [
          -0.6353148289989563,
          -0.8469581986095095,
          -0.5453348556457798,
          -0.36629869328801434,
          0.6295767431755042,
          -0.8134849931332296,
          0.11016782888720345
        ],
        [
          0.005978547549654545,
          0.14358629194960804,
          0.3879093579147852,
          0.2554368360975878,
          0.7370794792179007,
          -0.457502239446614,
          -0.21386268696826538
        ],
        [
          0.16450894656838666,
          0.13649639283113557,
          0.7810285514678175,
          -0.43671642847344,
          -0.2277901303215596,
          0.8498567116481126,
          0.14141262363630758
        ],
        [
          0.9230727302020538,
          0.030319846239358017,
          -0.7613808174094363,
          -0.8493422428188367,
          -0.38072642548561275,
          -0.8794288009077823,
          -0.5422127131085441
        ],
        [
          -0.8291786630342142,
          -0.6881847402481285,
          0.8138622586849158,
          0.408171617090864,
          -0.8438237261186078,
          0.12162895641018157,
          0.4543571458001101
        ],
        [
          -0.9182629355699529,
          0.5027469496895218,
          0.9138030251250686,
          -0.7562229246098224,
          -0.22073918104519286,
          0.15616494273128634,
          0.5343518099660078
        ],
        [
          -0.7506656892416306,
          -0.0627784593729982,
          0.07543519324766601,
          0.5602329921210996,
          0.11654991014107807,
          0.5026277928014837,
          0.13045466820154972
        ],
        [
          0.7382704513347398,
          -0.6390543582744175,
          -0.8571232400512515,
          0.19076409022302854,
          -0.576913757813128,
          -0.4223265180734411,
          -0.9217354919563293
        ],
        [
          -0.731930566141143,
          0.5915179602236176,
          0.055735480907267876,
          0.47153331860424075,
          0.7890074263849265,
          -0.36975832458437374,
          -0.8232404449487455
        ],
        [
          0.3469912564369484,
          0.6519137393627472,
          0.644231906280587,
          -0.5283281822675874,
          -0.8676159769455137,
          0.06209618461000077,
          0.06749329883140942
        ],
        [
          0.9182927296289585,
          -0.8558614118079101,
          0.720666223627719,
          0.3689953667052004,
          0.4712484172394178,
          -0.7440934567030701,
          -0.8114751505392954
        ],
        [
          -0.3327281698939025,
          0.5639074816336986,
          0.8145605807108165,
          0.3584174824391302,
          -0.24902839303424062,
          0.4145335629353739,
          0.9016359152423197
        ],
        [
          -0.881673370384568,
          0.5050807571488141,
          0.13969208689594548,
          0.2885161016101283,
          0.02032031607023188,
          0.28292564109863716,
          -0.7040615904201208
        ],
        [
          0.7679298635894394,
          0.49071682966890884,
          0.05392734582290126,
          -0.7435351916696378,
          0.791660300801909,
          -0.09999419302957158,
          -0.3882252978037595
        ],
        [
          0.13287303808100726,
          0.5032556902100476,
          -0.41473324433836467,
          -0.7785055122045124,
          0.6185100016123364,
          0.6869735166778552,
          0.03273539803711467
        ],
        [
          -0.8828559744396941,
          -0.6376327715360035,
          -0.5786236382885154,
          -0.5983268437670819,
          0.8995374926093747,
          -0.7955413180013586,
          0.8342793509721291
        ],
        [
          -0.9006580614063847,
          -0.7355953906971535,
          -0.5938954185062258,
          -0.7830807492406479,
          -0.8390173162632062,
          0.12960338072120425,
          -0.6808246448828923
        ]
      ],
      "bias_ih": [
        0.14551357462518394,
        0.19082285222072431,
        -0.06453636301377852,
        0.18884187234324962,
        -0.04083547586455852,
        -0.06815050168971587,
        0.1813772613464244,
        0.19350497907184383,
        -0.1287550687488486,
        0.18519174878907968,
        -0.12994615477377175,
        -0.1274885371197445,
        0.061347225811328954,
        0.17969476740711182,
        0.07653366169014553,
        -0.16194137505336356,
        -0.03663188057447542,
        -0.12148644935456009,
        -0.019910104261043587,
        0.1136323839525683,
        0.10987925877775034
      ],
      "bias_hh": [
        0.050034246077119815,
        -0.16302527297702524,
        0.03796133247933611,
        -0.03303009366977597,
        -0.19496540184261005,
        0.049606589488773334,
        0.16519500603258847,
        0.05731957456057868,
        -0.1503440130053058,
        0.05512261816820008,
        -0.16717875227800905,
        0.050105557738836126,
        -0.03635980631619967,
        0.16143909075321766,
        -0.10443155265392486,
        0.12480637417569862,
        -0.054712696987992665,
        -0.16408899422089837,
        -0.040684981851831475,
        0.1150889519524309,
        -0.1979642444307979
      ]
    },
    "layer_2": {
      "w": [
        [
          -1.6159781960214057,
          0.7603753422257178,
          -1.3427161557036418,
          -0.24661861302206756,
          0.3347727381367307,
          -0.1733282436163881,
          -0.9188805547471374
        ],
        [
          1.2494829458837535,
          -0.7171490806285257,
          -1.4463763874150817,
          -0.3871247845337007,
          1.4459065160474918,
          1.631763527661532,
          -0.5765755286476602
        ]
      ],
      "b": [
        -0.19472329068069638,
        0.3202119021218073
      ]
    }
  },
  "input_mask": [
    0,
    2,
    3,
    5,
    6,
    7,
    11,
    12,
    18,
    19,
    27,
    28,
    29,
    30,
    32,
    33,
    34
  ],
  "ablated_input": null,
  "ablated_value": 0.0,
  "output_param": "atan2_signed",
  "scaled_pi_n": 1.0,
  "delta_max": 0.35,
  "normalization": [
    {
      "transform": "none",
      "scale": 0.8655390346546353,
      "center": 0.9204641308303162
    },
    {
      "transform": "asinh",
      "scale": 0.8175600848274288,
      "center": 0.8867681772014051
    },
    {
      "transform": "asinh",
      "scale": 462.6300273768903,
      "center": -333.1697854608212
    },
    {
      "transform": "none",
      "scale": 5413222.0902614985,
      "center": -508770.60939412704
    },
    {
      "transform": "none",
      "scale": 1157.3507227945558,
      "center": 4549.679429911598
    },
    {
      "transform": "asinh",
      "scale": 10.358129862795693,
      "center": 12.17320223341297
    },
    {
      "transform": "asinh",
      "scale": 0.33924629426269115,
      "center": 0.40005844701414567
    },
    {
      "transform": "none",
      "scale": 0.42411593596120784,
      "center": 0.42858041580763234
    },
    {
      "transform": "asinh",
      "scale": 33.09832239288295,
      "center": 82.65759631477488
    },
    {
      "transform": "asinh",
      "scale": 0.0911362193061205,
      "center": -0.04718278665783951
    },
    {
      "transform": "asinh",
      "scale": 0.2151370816795333,
      "center": 0.29274513397808116
    },
    {
      "transform": "asinh",
      "scale": 9.832939972853932,
      "center": 11.55598244317186
    },
    {
      "transform": "asinh",
      "scale": 3.256400734674897,
      "center": 3.827025266270693
    },
    {
      "transform": "asinh",
      "scale": 5107742.117847206,
      "center": -3590633.2113008387
    },
    {
      "transform": "asinh",
      "scale": 10217099.16686349,
      "center": -6706141.091617538
    },
    {
      "transform": "none",
      "scale": 0.5,
      "center": 0.5
    },
    {
      "transform": "none",
      "scale": 1e-6,
      "center": 0.4262529995153208
    },
    {
      "transform": "asinh",
      "scale": 594.4827404994671,
      "center": 716.3429422450554
    },
    {
      "transform": "asinh",
      "scale": 412.89140647256187,
      "center": -302.7939124482325
    },
    {
      "transform": "asinh",
      "scale": 154.12675819494976,
      "center": -169.7611160606572
    },
    {
      "transform": "none",
      "scale": 1.5707963267948966,
      "center": 1.5707963267948966
    },
    {
      "transform": "none",
      "scale": 0.1,
      "center": 0.0
    },
    {
      "transform": "none",
      "scale": 3.141592653589793,
      "center": 0.0
    },
    {
      "transform": "tanh",
      "scale": 30.0,
      "center": 0.0
    },
    {
      "transform": "tanh",
      "scale": 100.0,
      "center": 0.0
    },
    {
      "transform": "none",
      "scale": 1.0,
      "center": 0.0
    },
    {
      "transform": "none",
      "scale": 1.0,
      "center": 0.0
    },
    {
      "transform": "none",
      "scale": 1.0,
      "center": 0.0
    },
    {
      "transform": "none",
      "scale": 1.0,
      "center": 0.0
    },
    {
      "transform": "none",
      "scale": 1.0,
      "center": 0.0
    },
    {
      "transform": "none",
      "scale": 1.0,
      "center": 0.0
    },
    {
      "transform": "asinh",
      "scale": 17774.23743300369,
      "center": 20521.130577512882
    },
    {
      "transform": "asinh",
      "scale": 500.0,
      "center": 500.0
    },
    {
      "transform": "none",
      "scale": 60.0,
      "center": 60.0
    },
    {
      "transform": "none",
      "scale": 100.0,
      "center": 0.0
    }
  ]
}