{
  "format_version": 2,
  "architecture": [
    {
      "type": "dense",
      "input_size": 21,
      "output_size": 32,
      "activation": "swish"
    },
    {
      "type": "dense",
      "input_size": 32,
      "output_size": 16,
      "activation": "swish"
    },
    {
      "type": "dense",
      "input_size": 16,
      "output_size": 1,
      "activation": "tanh"
    }
  ],
  "weights": {
    "layer_0": {
      "w": [
        [
          0.5657880200663954,
          0.2508495909108407,
          -0.5108589824126455,
          0.35255334501680125,
          -0.3414903308803359,
          -0.14195987221413997,
          0.3888065358288777,
          -0.2665174545765692,
          -0.6657246585590392,
          0.4572565693664816,
          0.06426400619043926,
          -0.4670042354969896,
          0.14273643418284465,
          -0.4725150634025458,
          -0.5598048118242365,
          0.2410015623835391,
          0.17866647679534797,
          0.10622242747452515,
          0.0500383074918872,
          -0.6681356406321138,
          0.6704953749133296
        ],
        [
          0.6477818990789879,
          0.20464257798323016,
          -0.628532923559025,
          -0.1405248770873051,
          0.6004379971483573,
          -0.5582217867242059,
          -0.665999586889744,
          0.4201219576611268,
          0.1280078750265975,
          -0.287343373676548,
          0.5954215475477012,
          -0.5668480720977552,
          -0.6176229668157129,
          0.5910778516046375,
          0.18146748711284977,
          -0.07274106164926641,
          0.3778665631706861,
          -0.19264413257652585,
          0.39009276863747666,
          0.2529345076186805,
          0.24575905062088432
        ],
        [
          0.4791121231491595,
          -0.44643209502573317,
          0.3259322860677729,
          0.5873265352636601,
          0.2357563833091123,
          -0.001230587237366354,
          0.02850773363347281,
          0.29165705735459313,
          0.30108191036312304,
          -0.19785060911303176,
          -0.21053556425628867,
          -0.05412194315316954,
          0.03234059120739596,
          0.22007211474479238,
          0.4954949862160105,
          -0.46364923446142536,
          0.6003887680283082,
          -0.48694067697412635,
          -0.664874551697962,
          0.2635159001753168,
          0.14745738320023116
        ],
        [
          -0.34748579863882556,
          0.49892588730453835,
          0.058956373787989014,
          0.004478272891694113,
          -0.6380508572241163,
          0.4717493451730346,
          -0.6476573401195875,
          0.36088789077409134,
          0.5598377358439026,
          -0.6609248489090793,
          0.3243648990058501,
          -0.18714301665046934,
          0.43917005944644405,
          -0.14380854972082158,
          -0.0234614285468161,
          0.13965318226860046,
          -0.343669707125426,
          -0.06708707730476282,
          0.1701002020547564,
          -0.551134324227905,
          0.5973547957301621
        ],
        [
          -0.07559759198402916,
          0.4870565004407126,
          -0.4577489440361676,
          -0.25840826902986086,
          -0.12390155646725343,
          -0.4664190703374095,
          0.5788431301952426,
          -0.3438323603942419,
          -0.03337509352073986,
          -0.3435986633981124,
          0.32943420375470334,
          0.628505919760558,
          0.47785467567094564,
          0.27424712969404796,
          -0.14195900333810274,
          0.6723489538492138,
          -0.36882320892788295,
          0.30253044381173855,
          0.2424592342294335,
          -0.1446599408949879,
          -0.6556709908756065
        ],
        [
          0.5045772235513863,
          0.48337753746469514,
          0.5013314974889909,
          0.2377913243349895,
          0.22953811956836356,
          0.3796093486826564,
          -0.1519421308223784,
          0.5681421219303575,
          -0.01972521926444759,
          -0.3721103106944963,
          0.2794912833191484,
          0.2515651570289261,
          0.24155050329732342,
          -0.23384239561379,
          -0.23818547705128656,
          -0.6012627308310773,
          0.18719656766979886,
          0.39577178309630834,
          -0.16806274863647253,
          -0.6301460315207424,
          0.1011958897591233
        ],
        [
          0.33662047757770064,
          -0.14390363493564928,
          0.11717249683031561,
          -0.5219508482374072,
          -0.4196137805220469,
          0.5408070512924896,
          -0.03734989596271743,
          -0.38826319723747915,
          -0.2527801677943852,
          -0.15698801088164438,
          -0.3547785115295047,
          0.04045928865318027,
          -0.2743150251208963,
          -0.3147331979711623,
          0.28313337368634095,
          0.3140706409843145,
          -0.4323872507604184,
          0.10910334308986902,
          -0.270183857891819,
          -0.3948177969353177,
          0.01820478048602825
        ],
        [
          -0.5004267480641009,
          0.08855411834115845,
          0.3790554918510378,
          -0.3660866695178679,
          -0.5264115688159805,
          -0.31880371302501787,
          -0.667373786619925,
          -0.6494383202379329,
          0.24780705423530214,
          0.6268409807739197,
          0.6293096136807228,
          -0.1551955179152994,
          -0.09113050220484653,
          0.2662272161944613,
          0.35157405723816737,
          -0.20097197206782952,
          0.48893992819195176,
          0.16049036800719774,
          -0.17749837020164744,
          -0.13584052550308667,
          0.5703857339305649
        ],
        [
          0.036461134801561323,
          -0.5633145715491095,
          0.381813326752928,
          -0.38956095148251946,
          0.4163916518094015,
          0.5226609596896643,
          0.30108176896998673,
          0.29486405694203544,
          0.21372644130720841,
          -0.36860662936006117,
          -0.17025638641948448,
          0.11638573012019726,
          -0.44813058337478673,
          0.3357937890052072,
          -0.36798057451863886,
          0.007478786550784711,
          0.18324680350116762,
          0.6525413690772508,
          0.6695352616533856,
          0.1075599969862785,
          -0.07530722024900571
        ],
        [
          0.5348026235418828,
          0.6460546751892355,
          -0.6458905583578917,
          -0.5544749787718667,
          -0.19470152819036296,
          0.6711111593822445,
          0.614856155518668,
          0.27699644149463043,
          0.4848756381579291,
          -0.671564240223803,
          -0.5431432733075956,
          -0.05247124568846406,
          0.47341071746748975,
          -0.5292219128372192,
          -0.41066869249338567,
          0.06464939477883447,
          -0.13872273540144076,
          -0.07760814968104113,
          -0.20275134703237835,
          0.670879799571853,
          0.5306523642970224
        ],
        [
          -0.46442306827213975,
          0.010888995678468572,
          0.22442774509940333,
          0.033726738375070786,
          0.5107862902861342,
          0.1193365695207248,
          -0.07176702939928359,
          0.6724964087107865,
          0.44974871242921455,
          0.5044460023360116,
          -0.32540173380001314,
          -0.6075718086973066,
          0.0101134506568884,
          0.013207218909922491,
          -0.2594060470498177,
          -0.1601196638406034,
          0.3161872369718607,
          -0.6244506042811877,
          0.2598597685678259,
          -0.6696669569989283,
          -0.32328157751439834
        ],
        [
          0.39948847627744444,
          0.557458765946546,
          0.668868178028261,
          0.28499276010186536,
          -0.06318018088820399,
          0.2896066095088289,
          -0.6278991694719624,
          -0.6717232495601386,
          -0.3393576377268428,
          0.5695612093214737,
          0.19308116911010076,
          -0.2593236973145472,
          0.47645208314036935,
          -0.26990880460844524,
          0.20420586584992761,
          0.14150648011815448,
          -0.30696672408466613,
          -0.3995941043414538,
          -0.39771228598420894,
          -0.6582377722555149,
          0.5406037819393219
        ],
        [
          0.38252666629035303,
          0.09111549974243749,
          -0.36743445679920117,
          -0.44343724038733556,
          -0.4467899193824212,
          -0.12200226453191065,
          -0.23523959605897465,
          -0.11589372341687221,
          0.3876778898812694,
          0.5675798623811104,
          0.4639605881323181,
          0.022017145611023192,
          0.5500904186182738,
          0.4672746309518896,
          0.11587438773157355,
          -0.5185275288595852,
          0.4788886066533655,
          -0.20954629077264492,
          -0.5174932810281441,
          0.3507108052118886,
          0.34667066106560895
        ],
        [
          -0.09452817601623753,
          0.431491024553986,
          -0.4135136229035681,
          0.4492198930722835,
          0.5406059193554138,
          0.5052387289049161,
          0.663976410900118,
          0.024555743825056098,
          -0.5811211330397322,
          0.24300112589981782,
          0.4783326956571734,
          0.6595507273191783,
          0.4051148330200267,
          0.24519780414532544,
          0.6627769566380393,
          0.03931701491955231,
          0.2548413956635728,
          0.2680435565820595,
          0.14930042230693008,
          0.5758655563717667,
          0.005055093027131252
        ],
        [
          0.17392973594770123,
          -0.6190984030008211,
          0.6525225372262102,
          -0.124364360855731,
          -0.6719460347432408,
          -0.011011773568839867,
          0.5725628673898684,
          0.5002286179803292,
          -0.31549408491135117,
          0.6620623686675093,
          0.6436537389038393,
          0.03389099414237973,
          0.6702948230495485,
          -0.3782862579141801,
          -0.40775759662907196,
          -0.511034220146636,
          -0.5635008623582074,
          -0.019081915642886416,
          -0.2044327731908097,
          -0.5683350895257302,
          -0.6332788587690023
        ],
        [
          -0.3848291703238341,
          -0.6108195119224229,
          -0.2154032848921522,
          0.636936700043611,
          0.01758896489701889,
          0.5153181468388282,
          0.6706710587761013,
          0.36463850739328496,
          0.6560115263156676,
          0.1383311527521972,
          -0.27524442915905944,
          -0.4556816359170942,
          -0.09749749628156912,
          0.5012342032512842,
          -0.4376489014242597,
          0.3566933550937792,
          -0.6607153434226967,
          0.4106032197456846,
          -0.030324335151324155,
          0.04161515380005276,
          -0.2974396028734676
        ],
        [
          -0.6710670279923374,
          -0.6218741175448335,
          -0.2905156431846441,
          -0.12658667127437273,
          -0.3912877223130239,
          -0.21826227953314487,
          0.040013478358988164,
          -0.051263343444625575,
          -0.02964989360902448,
          0.6078344586258324,
          -0.5716842177132246,
          0.4306682747255508,
          -0.01915173115079072,
          -0.10361192031910504,
          -0.45760696199716544,
          0.6469661060729106,
          -0.6294485062058045,
          -0.33852543364562787,
          -0.045464413731848174,
          -0.47157889199762304,
          -0.21139950026339566
        ],
        [
          -0.24370482636757163,
          0.252594665898601,
          -0.28999626365889275,
          0.149811468118348,
          -0.6462067112443678,
          -0.5309890132814601,
          -0.1387437997058084,
          -0.02268808558096891,
          0.15799154193106257,
          -0.20058398388756743,
          0.27334429669849214,
          0.23310480875474915,
          0.09690035152686682,
          0.3168483314333418,
          0.3822279163411473,
          -0.5996556956226775,
          -0.30083303245612086,
          0.5411322639740679,
          -0.6077259157158661,
          0.666373070412366,
          0.6321349042324866
        ],
        [
          -0.0066506187208013046,
          -0.5726482733329956,
          0.472065671346267,
          -0.31841099951090707,
          0.30169887365108816,
          0.5969107607943058,
          0.6684884595054943,
          -0.4535643355609117,
          0.15161123591679004,
          -0.32434962802269957,
          -0.15067331235699533,
          0.3719361977507334,
          0.4936314738713812,
          0.11234032764117197,
          -0.12015178896128298,
          0.32113531971931797,
          0.025343813386136893,
          -0.35176660826176953,
          -0.672466680075923,
          0.5326753181601165,
          0.033590231207102916
        ],
        [
          0.38411781743196816,
          0.6185196363686885,
          0.5294677420402034,
          0.4938607004058191,
          -0.4810784485659082,
          0.6165122654316535,
          0.40000837791236976,
          0.20471154184048923,
          -0.37565614332142594,
          -0.2245505851236586,
          -0.6446648661340447,
          -0.3674777597570743,
          -0.4685828437418984,
          0.18449496090241413,
          0.0654888878365476,
          -0.10115698502369197,
          0.28873132195607143,
          0.09759135936891294,
          0.3365264451656711,
          0.6147882665934135,
          -0.20050740672407052
        ],
        [
          -0.4010119608201534,
          0.18118356126237978,
          0.17134108059378683,
          0.21854712383871067,
          0.5607318047493135,
          0.5254894475400513,
          0.5361111373282335,
          0.10786608551484977,
          0.5231535738349071,
          -0.6451444688447997,
          0.0024866105863219357,
          0.5295977755020238,
          0.018351023334426286,
          0.4144201847912976,
          0.5214105419985255,
          0.13280236840156823,
          0.5659799457928492,
          -0.2917540839822398,
          -0.3914333490098644,
          0.6144956147666374,
          -0.6516233226147035
        ],
        [
          0.22255738738196362,
          0.1895693029733807,
          0.027449959254083445,
          -0.32174360244514427,
          0.59893397083126,
          -0.3898340810061038,
          0.17677780884758487,
          -0.5214318108807179,
          -0.12270192669599611,
          0.45412139828258646,
          0.3056136837118294,
          -0.21762441973844915,
          0.2654894451308617,
          0.2561909829667296,
          0.629373518991428,
          0.26343536193894135,
          -0.4408487286440383,
          -0.3867645466494316,
          -0.3411691325277577,
          0.42803649436252567,
          0.1460195407885897
        ],
        [
          0.33406377203689086,
          -0.32902150027075683,
          0.3873533953411026,
          0.2682501444033939,
          -0.3516424827483022,
          0.057550909923354654,
          0.5010599988175368,
          0.21197436677242987,
          0.4439180849961937,
          0.1557286069090953,
          0.6040736525713255,
          -0.6728145714354734,
          -0.6652970065041711,
          0.46506409402060656,
          0.5116100889770894,
          -0.5562741595997966,
          0.42730424179627513,
          0.5390581939302437,
          -0.6436988701301214,
          0.4147650142283541,
          0.41404005338054817
        ],
        [
          -0.017560544222932295,
          0.47383637938868883,
          0.6711278124408191,
          -0.6674624574833049,
          -0.023340722262523816,
          -0.039749568698923654,
          0.2703807366065898,
          0.10116846208681818,
          0.2180833249369306,
          -0.16216668564085956,
          0.24010033292531363,
          0.4663402446562066,
          -0.5902010219796529,
          -0.15176377412996533,
          -0.26184595791678106,
          -0.346441440577915,
          -0.16093834376687277,
          0.010249521691080954,
          -0.04516892704145237,
          -0.672312400568957,
          0.391095685310606
        ],
        [
          0.025769235635435095,
          0.5323755801596963,
          -0.5054124948083749,
          0.3979597692718009,
          0.19847481340730144,
          0.1038186647075987,
          -0.6101867965157406,
          -0.4517350196232238,
          0.4645552364499568,
          -0.4261796301977696,
          0.3315662678128102,
          0.08719404271118669,
          -0.36847652666957487,
          0.6601040798764468,
          0.5067615071538272,
          -0.5622043386452938,
          0.2389717429252931,
          -0.20108664216556077,
          -0.5103336932170974,
          0.6364163720044296,
          -0.19171523399772694
        ],
        [
          0.5032521620798092,
          -0.46952191880429983,
          -0.6187173998267678,
          -0.5469149554695334,
          -0.5735878634693752,
          -0.6728955614937354,
          -0.4750715375663537,
          0.26316090278298265,
          0.6082849508842625,
          -0.5638337345181861,
          -0.19938384969081052,
          -0.660707722374516,
          -0.11207102469670394,
          0.41666469835224595,
          0.3083101071384048,
          -0.4899441713004299,
          -0.24931122717673398,
          -0.4288033439623765,
          -0.36956151526037323,
          -0.6611636067659337,
          0.2262780225081783
        ],
        [
          0.3835528073083705,
          -0.44951262267276076,
          0.6703243743469056,
          0.21649811159656152,
          0.16299954227707514,
          0.39277982588723215,
          -0.38233597147536375,
          0.6584892229469472,
          -0.41766897423543803,
          -0.05832706242628716,
          0.6657977678449765,
          0.45328668481673295,
          0.3718635160654926,
          -0.6531523051247081,
          -0.15629899194151764,
          0.4178379922857145,
          -0.47658273701328324,
          0.6531666445934874,
          0.14748488028228313,
          0.14377781503652165,
          0.08582623928398192
        ],
        [
          0.47994105639281126,
          -0.13814430454631732,
          0.3659193931253433,
          -0.43177144202782836,
          -0.1346861965404943,
          -0.5108412553371295,
          -0.12174050630522093,
          -0.2825750219828464,
          0.2761927217240331,
          -0.6677429857752566,
          0.14501585495100477,
          -0.05723844044586823,
          -0.31415470190877764,
          -0.34489230181215463,
          0.5398997208114806,
          0.47343476743084034,
          0.14166368453111167,
          -0.2802356048975446,
          0.561632938520817,
          0.46738843947325437,
          -0.0639185455375878
        ],
        [
          0.0749681103676012,
          -0.22972522145570196,
          -0.585812888326969,
          -0.6654239492998391,
          0.6038684831174115,
          0.4184325169552079,
          0.5022994318547265,
          -0.07634640610494292,
          0.26463507582599155,
          -0.18657974959489076,
          -0.6137864350593598,
          0.5112198161297972,
          0.5159813191558267,
          0.0468590616617961,
          -0.4422189353373718,
          0.5652028543446197,
          0.5242034739845542,
          -0.6707873225705178,
          -0.571745668376409,
          0.6649532731004073,
          -0.27422272975109346
        ],
        [
          -0.10280513802663649,
          -0.07795250486000138,
          0.24598208191302973,
          0.10730213612404693,
          0.18415144849535292,
          0.0870429159336048,
          -0.4588933025537433,
          -0.11334563588298574,
          0.5468180091573667,
          -0.6504358113620545,
          -0.596705205232508,
          0.3899985394072545,
          -0.6164204644774787,
          -0.06825921169095084,
          0.19710882102928184,
          0.5765955550108928,
          0.41331899632645364,
          0.275359164016454,
          -0.6729091326744916,
          0.30070234516687067,
          -0.34450398441395985
        ],
        [
          -0.6355570690385038,
          -0.2857412439039803,
          0.42778388982553506,
          -0.04722897223546563,
          0.3126109224794499,
          0.233173624824759,
          -0.41366804673922514,
          -0.012504122153672248,
          0.6724158655719152,
          -0.5268054756377542,
          -0.5382280043911413,
          -0.11525242180500639,
          0.35345597969215947,
          -0.6635797366731073,
          -0.06867191001881734,
          0.2609043059243846,
          -0.1909635951248132,
          0.6521110274097646,
          0.020759362871564546,
          0.671779664576355,
          -0.2923202729443104
        ],
        [
          -0.29491348695908626,
          0.5936266587851495,
          0.0921640900200632,
          0.4471491649920001,
          0.4455680693295516,
          -0.2381316624038401,
          0.21299072758096615,
          -0.061859540750664466,
          0.42860713317290067,
          0.6361263380875823,
          -0.4846286940654821,
          0.206117064301522,
          0.24709585348903407,
          0.32576908777930846,
          0.17877715435399344,
          -0.16904607220185763,
          -0.6447427893480918,
          -0.5225349827058269,
          -0.17022277558773513,
          0.671592358406438,
          -0.650753166511745
        ]
      ],
      "b": [
        -0.6262241025479834,
        0.41542390107037663,
        0.507377804377297,
        -0.48442833001113095,
        -0.050156916977767585,
        -0.5269812915510195,
        0.20334884620633564,
        -0.562890380409571,
        0.21645956167984248,
        -0.5909295190067636,
        0.06815619814758667,
        0.44019926234305506,
        -0.013355379722331362,
        -0.29123124544351486,
        -0.29421918117492796,
        0.22002806932379648,
        0.1447189641644432,
        -0.13784849598788596,
        0.34388353546894135,
        -0.45925205370484823,
        -0.30932703497699254,
        -0.538758871515449,
        -0.037738773824074645,
        -0.6092326564557117,
        -0.648705204721174,
        0.6721713940675702,
        0.460468293229058,
        0.27725031862116023,
        -0.07865580085390655,
        0.6660902307192951,
        -0.07936554152577013,
        0.24322903351241132
      ]
    },
    "layer_1": {
      "w": [
        [
          0.4899487849771703,
          -0.6390772299096534,
          -0.40781076513943965,
          -0.5647910246699812,
          -0.2258860983724454,
          0.39289722903642266,
          -0.06282513288379399,
          -0.3804513013648651,
          -0.056249225551746385,
          -0.07305360938787708,
          0.02090052639932627,
          0.39098119981492474,
          0.20932438125323616,
          -0.20835778292874174,
          -0.10928834471916504,
          0.5586697325212581,
          0.6855876180236403,
          0.41264653151341657,
          -0.277312979553328,
          0.2817737819697378,
          -0.1101409066592296,
          0.1935111945713398,
          0.6293165032170164,
          0.5418723378634115,
          -0.6805996584596211,
          0.5783566056375135,
          0.4668831261490506,
          -0.17584483489015734,
          -0.39125560422026207,
          -0.2836089673355997,
          -0.3723153826409402,
          0.39786093264214106
        ],
        [
          -0.41670621330948665,
          -0.7069045691738532,
          0.4116020898028666,
          -0.1880504676856053,
          0.18206114726951272,
          0.3451415510406378,
          -0.13618921195661227,
          -0.4127240486158494,
          0.3996499434130819,
          -0.4274594288381587,
          0.15912763689296694,
          0.5202062097720125,
          -0.19151742809237415,
          0.5847346724927499,
          0.3818343580178293,
          0.48477199016716044,
          -0.47278095333943926,
          -0.6550567625544792,
          0.2677004102827024,
          0.08270821535323247,
          0.3657613205709279,
          -0.04753257950384682,
          0.599275201063597,
          0.28989004908506777,
          0.03664906843324456,
          -0.5040698711009066,
          0.20890649533091588,
          0.6144843320207148,
          -0.35046427735076463,
          0.44125129596814616,
          -0.46390012012740894,
          -0.3171421784725614
        ],
        [
          0.06518235360492408,
          0.13002465201168767,
          0.04724512823592564,
          -0.2558325271080265,
          -0.5006685357276616,
          -0.04445739720746267,
          -0.05237845763167337,
          0.3431956497851093,
          -0.0659215756734739,
          -0.44959528763373025,
          -0.5392468667950665,
          0.5807650541634394,
          0.14345336155191257,
          -0.027542403539998705,
          -0.4129249846936383,
          -0.1370547181026417,
          -0.048734198300180886,
          0.6810985121726089,
          0.10144035600439627,
          -0.06589042724839866,
          0.6109037944877397,
          -0.7067951889116657,
          -0.5573951378323518,
          -0.5928306370354645,
          0.5846872823262571,
          -0.08674497160576089,
          -0.0955706637020779,
          -0.42767316527404403,
          0.5966345930082414,
          0.1835187207568978,
          -0.3565795934918492,
          -0.15593262940021235
        ],
        [
          -0.5433080313177174,
          0.3724841761673242,
          0.5880237064778656,
          0.05136960121476186,
          0.2669744347944254,
          0.15440030203318578,
          0.368745000168308,
          -0.13202939416548232,
          0.4057993410693804,
          0.017587830847585084,
          -0.25577390333171,
          -0.05559456095701454,
          -0.39804355416433995,
          0.3496122975060031,
          -0.6919978084521471,
          -0.41909086052957606,
          0.7053889833568919,
          -0.30064006144878835,
          -0.5605999101482888,
          -0.031863652567075795,
          -0.03550343338719597,
          -0.25326185440567467,
          -0.27169701401726487,
          -0.16735032450735765,
          0.5660234265436818,
          -0.6404875507884352,
          -0.19619560236304934,
          0.6932399202957232,
          -0.4229088687864739,
          0.44093950627473866,
          -0.6093318589528897,
          0.347816875696494
        ],
        [
          0.4110933750329048,
          -0.3322467583218506,
          -0.1799296819350461,
          -0.3513954447637357,
          -0.3804210326874214,
          0.510060938044579,
          0.6144873048667384,
          0.5880371033224204,
          -0.24461006114296946,
          0.1512436506849688,
          -0.5407478922179572,
          -0.17369816375799363,
          0.5554951244820491,
          0.12422573843806983,
          -0.4529949563232624,
          -0.5109806508483445,
          -0.5402647644562665,
          0.5562830838951313,
          -0.2855535565891174,
          0.025569448508528603,
          -0.563150551207623,
          0.5940958366271257,
          -0.08756793013730502,
          0.41732790083735705,
          -0.01964944156142734,
          -0.11983779309395626,
          0.07298209052940696,
          0.18137406029103587,
          -0.3302589998469997,
          -0.0976310752417281,
          -0.2910230110977374,
          -0.10433334043774756
        ],
        [
          -0.07156379694051618,
          0.601739937859802,
          -0.07937401502155383,
          0.027003983018159317,
          -0.14242289714065282,
          0.12982398265504103,
          -0.6576869168373607,
          0.5595902177507964,
          -0.0733623047094627,
          -0.05511955035178484,
          0.09402727003047862,
          0.6210378982579147,
          0.49534499108382446,
          -0.3842235460373357,
          0.42464126718217166,
          -0.4682622309416677,
          -0.19047647848398097,
          -0.16439741118732853,
          -0.017791248757710765,
          -0.6949696034411379,
          -0.6478104053853451,
          0.038599708579761804,
          0.6077269893415852,
          -0.5641403617572756,
          -0.4264054686247512,
          0.08054649861696384,
          0.1423856848816908,
          -0.18925029167629892,
          -0.41977387407577543,
          -0.21704133603904385,
          -0.17989406590421597,
          0.058930817716425166
        ],
        [
          0.49408263515492423,
          0.31241351642691917,
          0.046867824429450367,
          0.4246775487313198,
          0.23121983385476197,
          0.13583687249061982,
          -0.5802942679672767,
          -0.36436235534741535,
          -0.5838938533421004,
          -0.5402524318665518,
          -0.5473838245421963,
          0.568647348718965,
          0.4953518680446555,
          0.2766141591793658,
          0.6775293368175331,
          0.2635802773994853,
          0.4926356801647912,
          -0.6390260921537587,
          -0.40017449038214986,
          0.6642067142617111,
          0.17728138036247143,
          0.06900535832443355,
          0.4347368052415391,
          -0.25828835103459846,
          -0.36452828135622206,
          -0.09285706627539714,
          0.011415351734178625,
          -0.6064597743844998,
          -0.6181683683186839,
          0.6633538084688605,
          -0.6632105883640224,
          -0.6085799201049982
        ],
        [
          -0.2962461554186973,
          -0.49861697132431804,
          -0.40564874486613045,
          -0.6511221422171175,
          -0.09091201535560656,
          -0.545595052254707,
          -0.6786114640202802,
          0.32243153315217177,
          0.5594584117249771,
          -0.19754510765482858,
          0.6715995352442466,
          -0.6228378201517217,
          0.0999402716366874,
          0.22926900380227666,
          0.3996698166868814,
          -0.12301553382928954,
          -0.5273113338805953,
          -0.23991450277823678,
          -0.5961722647702057,
          0.35987845855015965,
          0.42272673825651086,
          0.6908505046456069,
          -0.022392387683432324,
          -0.5888024761693971,
          0.432587787158231,
          0.5625356299741405,
          -0.4051020252238081,
          -0.19633678721938308,
          0.48076873880687854,
          -0.2497505260502127,
          -0.23975325610309534,
          -0.5516761670141228
        ],
        [
          -0.703534598934894,
          0.0015929195142959651,
          -0.40292498669295546,
          0.5383205009765274,
          0.12443846623120125,
          0.28194557888854666,
          -0.2765445861131332,
          0.4275012676666031,
          0.19450499416465883,
          0.6913248399942561,
          0.5905696366706611,
          0.02637399650011152,
          0.08183985406604499,
          -0.18853698291091714,
          -0.4701738436377587,
          -0.6919633833873952,
          -0.6816964122078865,
          0.2686286838618257,
          -0.5392854243953706,
          0.6376391750385585,
          -0.4362189237950166,
          0.08349161725661591,
          0.4623633224264997,
          0.16529635289086952,
          0.4275957208665794,
          0.5832712129497063,
          -0.30460293883222783,
          -0.42016904446872316,
          -0.31039076603728727,
          -0.008176062557391117,
          -0.39673774565918557,
          0.39084993605182394
        ],
        [
          -0.4988953453854535,
          0.3472000063063435,
          0.6905323791100452,
          -0.6694679286705852,
          -0.11750365102746674,
          0.17289550283208166,
          0.582146032095712,
          0.12752890103347903,
          -0.6116664261939003,
          0.1930164451682499,
          0.22433562891167835,
          -0.35424795929520225,
          -0.480367791037561,
          0.6725928615028344,
          0.3036777114444199,
          0.6377192743060377,
          0.7028661521834086,
          0.5344075561603409,
          -0.3459869774994647,
          -0.3354506773627507,
          0.22018163170458915,
          -0.10684446076418841,
          -0.13920431489206497,
          -0.3619442544123285,
          -0.49942668233673326,
          0.47636687315906656,
          -0.4497150637747333,
          -0.5195532433215546,
          -0.6090099932445661,
          0.5607071316636955,
          -0.3644506760361694,
          -0.6501067743670043
        ],
        [
          0.2371035315076171,
          0.6449184830018863,
          0.4892376863214828,
          0.6839519125099304,
          -0.6482347288421485,
          -0.44668375933202087,
          0.22106513507495784,
          0.049347348547711944,
          -0.6221840126066305,
          -0.7060468955680073,
          0.2893302687525495,
          -0.25248463527444664,
          0.38145588080943915,
          -0.041638822707112166,
          -0.6087357397070353,
          0.4840848036630693,
          0.00407997775413127,
          -0.01178641345793674,
          0.07432053789534199,
          0.6749508144284692,
          -0.5207694818054486,
          0.28939595281619745,
          0.3157263991679765,
          -0.37270502390535626,
          -0.5175069384754822,
          -0.17076937982204454,
          -0.6925696807163075,
          0.06952757015299516,
          0.5465646862492831,
          0.5449438626975026,
          -0.01671313492692794,
          0.5217404373876028
        ],
        [
          -0.41246380541240574,
          0.4217336364137093,
          0.32694701150365735,
          -0.6600592544109889,
          0.6487929407935201,
          -0.4279090367427528,
          -0.659134770783542,
          -0.5973363147915552,
          0.37167754420747345,
          -0.2837272963828016,
          0.5302729841986579,
          -0.00969748074266974,
          -0.41950991795247444,
          0.31054807601762435,
          0.44617518943449685,
          -0.33916250223143624,
          -0.49503532439197984,
          0.6551591483649032,
          -0.2391542679459901,
          -0.6105826017456731,
          0.5399920168159836,
          -0.55641395029958,
          0.12681116147928218,
          -0.6980185483515147,
          0.3384726121701812,
          -0.09547089490967808,
          -0.2605657288578142,
          -0.18921222773065471,
          0.10931204952265183,
          -0.26368249253748277,
          -0.5059577622047019,
          0.09027479333109545
        ],
        [
          0.24103213734322504,
          0.5418333037711051,
          0.536029254289183,
          0.67321575019264,
          0.40122615935724426,
          0.09450077632994636,
          -0.3192843676302714,
          0.4943654162103267,
          0.19281590125607329,
          -0.39212631967649614,
          -0.6995493799722646,
          -0.21313926550041817,
          0.6373856206113998,
          0.08432344152868476,
          0.22642855428204978,
          -0.08588611443952254,
          -0.7011332677920137,
          0.3140102209816654,
          0.24847028138656657,
          0.3924884044989706,
          0.2784737389279801,
          0.12429501438070778,
          0.432739095305413,
          0.03159612765811659,
          0.3811323288091729,
          0.1648904814158928,
          -0.6496377889610458,
          0.3500027026721212,
          0.5818288369011665,
          -0.5337049361228711,
          0.4837616396811103,
          -0.015748896110584498
        ],
        [
          0.5112398964408612,
          -0.5771661740028283,
          0.35254552930479155,
          -0.2273355540251608,
          -0.009597721120003344,
          0.5124546763703502,
          -0.17520822186483342,
          0.06812766283377258,
          -0.698449083563213,
          0.2911181384482454,
          -0.5957514684331076,
          -0.21144088923934778,
          -0.6993261943566185,
          0.5565105302520356,
          -0.49551641710567484,
          -0.5226079575671488,
          -0.07553833823048028,
          -0.49930137853207424,
          0.7070855704459239,
          0.11980245875446383,
          0.2859445299801249,
          -0.37501395561352974,
          -0.5822958069839815,
          0.041002095376065806,
          0.33288212790700855,
          0.04133950715626267,
          -0.3196696327416876,
          0.5439308374302313,
          0.5380819930906816,
          -0.590016421484252,
          0.6784353086771336,
          -0.03206032922284241
        ],
        [
          0.2222636087083093,
          0.45784158774094286,
          0.6181189935734576,
          -0.14942058181618745,
          0.5951279538971043,
          -0.5526285075605972,
          -0.33053744491714504,
          -0.5654729631706686,
          0.3013434150799109,
          -0.2487070821593495,
          -0.5218661348974905,
          -0.4574485640634375,
          0.2564768331844457,
          0.25761605717778446,
          0.2676470227398836,
          0.38116049219556325,
          -0.6869603169130435,
          -0.5825696363281456,
          0.6371757636474905,
          0.5415094548830964,
          0.24591124915111662,
          -0.22265596407256627,
          0.1682290512526149,
          0.6355407788302935,
          0.32256325575106193,
          -0.2096493025821909,
          -0.5286586176339486,
          0.5390465992046992,
          -0.008761816469793682,
          0.5206085750490831,
          0.5392911823012635,
          -0.004497088369349145
        ],
        [
          -0.3921386643633187,
          -0.5397229498241585,
          0.6925797948079394,
          -0.07831531112185475,
          0.6729072390926757,
          -0.38288241187120403,
          -0.16397505452917915,
          0.24835711914513992,
          0.05532521153844483,
          -0.2443841396945382,
          0.60393800103476,
          0.1393079293990479,
          0.40051883950407585,
          -0.24918190515350508,
          -0.298489617047172,
          -0.2193401070678555,
          -0.2206674163960919,
          -0.11188716696359235,
          0.23166967350414547,
          0.19919405392771927,
          -0.1942725867812808,
          0.6956601815199411,
          -0.6343111923770492,
          -0.607922647010661,
          -0.5002054154412234,
          0.6838022146898671,
          0.6064751086005408,
          -0.5316406137432701,
          0.12938748843893566,
          0.22631081492614136,
          -0.7047011465669284,
          -0.4607841927353364
        ]
      ],
      "b": [
        -0.0450808471240598,
        0.1821374747860105,
        0.12112742322527725,
        0.21457467021335885,
        0.10240010222689788,
        0.6311197068106419,
        0.44035953007710404,
        -0.24454950713396745,
        -0.21370914349762227,
        0.1335239734086836,
        0.535922820985996,
        0.1544324145102941,
        -0.3245330047150459,
        -0.3696948905467203,
        -0.5714664089809995,
        0.5279263345664075
      ]
    },
    "layer_2": {
      "w": [
        [
          -0.9468311672678202,
          0.8274279836123968,
          1.1238774745345583,
          0.13919833445759267,
          -0.40700217265544236,
          -0.8652969256271825,
          -0.7977958194087946,
          0.18184346172864152,
          -0.2573857341749949,
          0.04299541465836154,
          -0.373340847870559,
          0.15015747839469595,
          -0.06599847852558383,
          1.0435275183427903,
          -0.06939377346392583,
          0.6898023480520039
        ]
      ],
      "b": [
        0.7828328425754116
      ]
    }
  },
  "input_mask": [
    0,
    1,
    2,
    3,
    4,
    5,
    6,
    7,
    8,
    9,
    10,
    11,
    12,
    13,
    14,
    15,
    16,
    17,
    18,
    19,
    20
  ],
  "ablated_input": null,
  "output_param": "acos_tanh"
}