{
  "format_version": 2,
  "architecture": [
    {
      "type": "dense",
      "input_size": 17,
      "output_size": 10,
      "activation": "swish"
    },
    {
      "type": "transformer",
      "d_model": 10,
      "n_heads": 2,
      "d_ffn": 20,
      "n_seq": 32
    },
    {
      "type": "dense",
      "input_size": 10,
      "output_size": 2,
      "activation": "asinh"
    }
  ],
  "weights": {
    "layer_0": {
      "w": [
        [
          0.2263131463356387,
          0.41767630639829156,
          -0.7754170540028216,
          0.1366744639073596,
          0.06387681443152382,
          0.03964619969299488,
          0.6806053290499532,
          0.5843159331634225,
          -0.6052840890476356,
          0.5414303751744214,
          0.5741737856582421,
          0.17830868595626836,
          -0.07594044430530755,
          -0.08884189953876664,
          0.2805231268993096,
          0.03988930613569297,
          0.9269524459317755
        ],
        [
          0.22100868906014104,
          0.6104578750005183,
          0.706104534777449,
          0.8604219465145113,
          0.17201548671856837,
          0.01710699937324678,
          -0.815414649686846,
          -0.8248183121493989,
          0.15784585220833947,
          -0.4764759624661607,
          -0.4059999791214859,
          0.7346384321870365,
          0.31027457450634954,
          0.6862697483848019,
          0.6748172700134016,
          0.5527876661872562,
          0.5910624653694201
        ],
        [
          0.7349405228509345,
          -0.8279139666905317,
          0.5836272153805522,
          0.6324906914192046,
          0.9194234500157019,
          -0.939056167115695,
          -0.15267282252863557,
          -0.5945528540600199,
          0.19784818597103127,
          0.892348131547746,
          -0.8359600533366736,
          -0.8313811673207261,
          0.4482915156503111,
          0.6372020979860953,
          0.5237890370761307,
          -0.4949292101518176,
          -0.3796810703956863
        ],
        [
          0.16404460843301805,
          0.130182665740447,
          0.49676783304852257,
          -0.8043423793269038,
          0.908415211505355,
          0.7211926636924033,
          -0.11208567334143738,
          0.23367949700884738,
          0.3613783590204649,
          0.9157825756573936,
          -0.7368689076120805,
          0.06348514706757191,
          0.6348774687298468,
          0.540196593570921,
          -0.6521649774079095,
          0.28843012764783293,
          -0.47162014506975564
        ],
        [
          0.23748581886235476,
          -0.8663341200053644,
          -0.0058139452825302085,
          -0.5070109432905288,
          -0.27238580126467826,
          0.6955348958282335,
          0.657716562194907,
          -0.07075457405983676,
          0.10628089548149355,
          0.8963076164132224,
          -0.8537911392998474,
          0.37453233397241137,
          0.20892797498024485,
          -0.4315308740662548,
          0.6893882765343202,
          -0.8993915642584185,
          -0.8651745774952655
        ],
        [
          -0.31183712571676336,
          0.543087896952904,
          -0.4945745426248809,
          -0.7403558939018227,
          0.9178238124534135,
          0.7834796610162291,
          0.2020664499906073,
          0.5574337658603041,
          -0.8550303322605123,
          0.7553124403971223,
          -0.16186477872608418,
          0.842693491780133,
          -0.852985226189209,
          -0.7044935343533536,
          -0.3029317893197939,
          0.3970470815785059,
          0.9324946311752589
        ],
        [
          0.005586375403521804,
          0.36456526388592425,
          0.02515965307282575,
          -0.16537578792028063,
          0.3668973411583676,
          -0.8873878552139879,
          0.29540374607691944,
          0.9058466435451726,
          -0.5198944471508902,
          -0.3079408234051769,
          0.7583437737540124,
          -0.807381594627186,
          -0.774806280789804,
          0.3475300293178105,
          0.9167153442992102,
          0.934687294876515,
          0.4474435728112851
        ],
        [
          -0.21473298899781101,
          0.35229977815954827,
          -0.3632266422298308,
          -0.5284612662640389,
          -0.736867662695285,
          -0.3534396346346329,
          -0.03694353442859932,
          0.5997525181569243,
          -0.811046611041221,
          -0.3036403411348163,
          0.8821111817498166,
          -0.3260210562118272,
          -0.8317138625656392,
          0.5205333175237861,
          0.3597926166969214,
          -0.49606227368623496,
          -0.9039270896209181
        ],
        [
          0.634077240880458,
          0.9364528760523319,
          0.18395162254469333,
          0.6637753642854152,
          0.27578636158989167,
          -0.8216352024131756,
          -0.5632776908823189,
          0.3805274484889323,
          0.8502902539909578,
          0.0693513965319843,
          0.9091694969266813,
          -0.13760070753918485,
          -0.8559545390826904,
          0.6097393016871862,
          0.6588912522772072,
          -0.6023382909000128,
          -0.6372427744410438
        ],
        [
          -0.35807900100995116,
          -0.5603223313788906,
          0.43424546146710674,
          -0.5647741491126133,
          -0.2992604580472975,
          0.07307668585217408,
          0.030644205430400806,
          -0.6640170332867986,
          -0.2763538256363063,
          0.6513868331934058,
          -0.4954948371431259,
          0.0797046959133334,
          -0.31057191775176196,
          0.013063539719452177,
          0.5240396665226934,
          0.8839427218739113,
          0.9193917261677822
        ]
      ],
      "b": [
        0.8518483069791185,
        -0.0629770926629355,
        0.31344284822616864,
        0.7722039198501254,
        -0.7537391157582194,
        0.686779337617933,
        -0.3034897977350728,
        0.8040417305761216,
        -0.29625036956868533,
        0.1257631676412574
      ]
    },
    "layer_1": {
      "w_q": [
        [
          0.8857320886216069,
          -0.32354527326012683,
          0.46611182554851194,
          1.0693444810686792,
          0.11047847647560305,
          0.27335959848959845,
          -0.7456076049787206,
          0.20748117876687244,
          0.9204391956851414,
          -0.976497806110566
        ],
        [
          0.4413677616182188,
          -0.5037897686627225,
          -0.68096337253101,
          0.6345666047464411,
          0.06641740070737856,
          -0.32731442975466396,
          -0.26901062657719366,
          -0.8628975130668,
          -0.58304119037941,
          -0.2771487021000266
        ],
        [
          0.4828025161937073,
          -0.5650795808853388,
          0.10497485758707392,
          -0.1576360226943243,
          -0.9358416578884327,
          -0.3306071853105832,
          0.9005093285863488,
          0.6548074087201681,
          -0.3817717997380877,
          -0.5088261265385611
        ],
        [
          -0.010381247922837789,
          -0.006396757566061728,
          0.8089640561668243,
          1.067642581060007,
          -0.48794545180507465,
          1.0894005185270585,
          0.09574033620022382,
          -0.4594698412807513,
          0.44906724116694763,
          -0.3291075739907703
        ],
        [
          -0.5283136566046456,
          0.5872808832522292,
          -0.9512312188310371,
          -0.4700132675996349,
          0.1375964615808003,
          -0.16347687568857305,
          0.3658247779099595,
          0.4511256705890838,
          0.4446221296666395,
          -0.7015074260713471
        ],
        [
          -0.8589336060586683,
          -0.9714096322388646,
          0.7790769934826733,
          -0.9517734299958458,
          0.2761003796449395,
          1.032280086654287,
          -0.5712274838520867,
          1.0806884121662428,
          0.6405258905783824,
          0.9735279780907469
        ],
        [
          0.6681009522517556,
          0.8204555538593696,
          0.6763367578185402,
          -0.7323522908450669,
          -0.6635660138630818,
          0.9793896816539713,
          -0.3195271825692825,
          -0.16584822963221624,
          0.7841024931453546,
          0.5234634949210613
        ],
        [
          -0.7089053845359206,
          -0.5274346572218712,
          -0.24345285615197942,
          -0.3012616995773846,
          0.24494682616994234,
          -0.26014270428984154,
          0.8449713167976785,
          0.5528212127805139,
          -0.876624639365166,
          -1.0389306626699237
        ],
        [
          0.15106838034664483,
          -0.6341240670299564,
          -0.29834014939496334,
          -1.0712009065453474,
          0.24512356814251968,
          0.7662604646784605,
          -0.31708993743854674,
          -0.7397239958360847,
          0.7333333979143939,
          0.8807181934135118
        ],
        [
          -0.8074820203023434,
          -0.8115460379031212,
          0.6147670546856672,
          -0.5040675511498701,
          0.7688054032863196,
          0.48726855400137326,
          0.24995777135986041,
          -0.6573645751951191,
          -0.5118275689953367,
          0.4320492987134983
        ]
      ],
      "b_q": [
        -0.11760039316028448,
        0.14972141441489945,
        0.06461114549797559,
        -0.0737552206643427,
        0.19305510738658238,
        -0.12721607922513534,
        -0.0035356436581701067,
        0.00040570800567443777,
        -0.16043370384001576,
        -0.08372159968008425
      ],
      "w_k": [
        [
          0.5147430493479384,
          -1.0168203102193525,
          0.056526680452300804,
          0.9400989278798959,
          0.5975281894499906,
          0.11541179338787932,
          0.874321979235954,
          1.0632590409541631,
          0.9276948765516537,
          -0.47429622283535555
        ],
        [
          -0.14656646511237037,
          -0.3572628428085127,
          0.641313071234229,
          -0.5070843366531795,
          1.0066317659658592,
          -0.9049720693614312,
          0.3374692369868737,
          0.6320335596485895,
          0.37013777551307725,
          0.26068909784164407
        ],
        [
          0.5321610783336033,
          0.1978289778098632,
          1.0844277366083772,
          -0.594843063896418,
          -0.9344570158806813,
          -0.447888729686833,
          0.7544026374953896,
          0.4668420992387248,
          0.14164559189279213,
          -0.9862836307655136
        ],
        [
          0.9542503700329372,
          -0.9031875352670843,
          0.632575226082329,
          -0.28388856484874214,
          0.7780976348130828,
          0.8506890446647211,
          1.0169343142716745,
          -0.94892417642047,
          0.1734272492355189,
          -1.0747287931157674
        ],
        [
          -0.6259283646717353,
          0.8239189382394112,
          0.7235876196620221,
          1.076794285305676,
          -0.8168427367092095,
          -0.7100960487169936,
          -0.47160057890146,
          -0.7772894695576966,
          -0.14642894533595385,
          0.1373462466758133
        ],
        [
          -0.2804203194064867,
          -0.3383074248500637,
          -0.036672690666821994,
          1.0275063246856706,
          -0.21959548305844878,
          -0.9298906357778267,
          -0.7504663771742403,
          -0.1666524632122316,
          -0.6152281095098041,
          -0.10218226973755817
        ],
        [
          0.9799102962927493,
          -0.15486822130739752,
          -0.7398559084337066,
          -0.5503229957868275,
          0.8994086432205091,
          1.09530358345706,
          1.067402931608882,
          0.407814917779006,
          -0.45929770702469197,
          -1.0671014868083335
        ],
        [
          0.9491030311274478,
          0.43036120029152936,
          0.5932886895870315,
          -0.7363858732220558,
          -0.9995908882779276,
          -0.406236843053723,
          1.082481589657502,
          1.0426774246985606,
          -0.8289506436787799,
          0.722316132682254
        ],
        [
          -0.808601722046451,
          -0.6506817982605745,
          0.7158435002092358,
          -0.6828956930133562,
          -1.0188064967039383,
          0.5703611167102327,
          0.145054025608359,
          0.8942441575769313,
          -0.8756407361385339,
          1.0838001462786933
        ],
        [
          0.515789555538418,
          0.09869796410981313,
          -0.07441345238572161,
          -1.0553381246491924,
          -0.16621709068741242,
          0.9545959808062934,
          -1.0554186327100399,
          -0.2851050344116831,
          -0.9488263195871638,
          -0.11236633468989976
        ]
      ],
      "b_k": [
        -0.1716007366282768,
        0.15302201096177825,
        -0.17941439025996528,
        -0.19357495014375278,
        0.10699586176694659,
        0.07081183474579439,
        0.1626230558674847,
        -0.19252832960280458,
        -0.1551242011930193,
        -0.14316611981494037
      ],
      "w_v": [
        [
          0.5214398076987463,
          0.1856121264068198,
          -0.5578735273512659,
          -1.0683279264132406,
          0.6567177493232343,
          -0.27721650543233023,
          -1.0691561213618115,
          -0.87995571562577,
          -0.8697968036460411,
          0.3034919202049968
        ],
        [
          -0.0016541895828185993,
          0.7476040768082213,
          -0.7149886186711645,
          0.1951462180152601,
          0.9153628195118846,
          -0.15374013093557592,
          -1.0514097273387806,
          -0.9364009209522047,
          -0.5805692322173519,
          0.32113957523392545
        ],
        [
          0.898005248497032,
          -1.0386787072586516,
          0.9744056598219308,
          0.6469897890295206,
          -0.00003054837290528134,
          -0.2438043814440931,
          1.0797056020074751,
          0.7751553653209933,
          0.31950421981688315,
          -0.9365382965362514
        ],
        [
          0.8839931516522694,
          -1.0272438771164285,
          -1.0453346595560857,
          -0.7477880585497725,
          0.19844380854834887,
          0.6846909844584466,
          0.813454085941512,
          0.33310336614796565,
          -0.28696057933159813,
          0.459205458424329
        ],
        [
          0.2783458442379789,
          0.3309879760723946,
          0.3444758695876198,
          -0.7469162047727347,
          0.583589489333189,
          0.5155734543214856,
          -0.30950152037113465,
          -1.0924922689157817,
          0.549223859438752,
          0.60403895294818
        ],
        [
          0.0184804930802851,
          -0.2811121139986301,
          -0.012669898053653261,
          -1.0584711283788932,
          0.3558034743844367,
          -0.41596011415981116,
          -0.7543676052063604,
          0.717169032849744,
          0.15781124411747904,
          0.9643179637845387
        ],
        [
          0.26105265558313495,
          0.05684802631097807,
          0.4878029761225544,
          0.6417415485896445,
          0.7954432498731376,
          -0.06910116612120554,
          0.5596021615819919,
          -0.3905760670216948,
          0.30433326706489483,
          0.7490073965249122
        ],
        [
          0.5136700556111709,
          0.5856621287394177,
          0.373242520473714,
          -0.7182406918514064,
          -0.7609392036979139,
          -0.6138599237142368,
          0.2944392274191434,
          -0.16870862470013448,
          -0.10877939465678965,
          0.4180348067336792
        ],
        [
          0.1480814817325271,
          0.5372186165820771,
          -1.0813782282454656,
          -0.8304790385981866,
          -0.9537322469378207,
          -0.9061010742177067,
          -0.5137322180876118,
          0.8220044111378988,
          0.7447467635323513,
          -0.858529042774006
        ],
        [
          0.6777784468840169,
          -0.49695310117520697,
          0.24831984103648175,
          -0.8016516608188993,
          0.14946881099128584,
          -0.5703859942900347,
          0.9831177332924832,
          0.5047081291165008,
          -0.6187128272529033,
          0.9730505748621163
        ]
      ],
      "b_v": [
        0.1533349176719438,
        0.11668354691926602,
        -0.06837130619268847,
        -0.15975693215742687,
        -0.11353805629864036,
        -0.14887909684740364,
        -0.0008767973512942839,
        0.1560279754148713,
        -0.12777944641188965,
        -0.06953301834278233
      ],
      "w_o": [
        [
          0.953236192329928,
          -1.0278749579909117,
          0.37625254445169976,
          0.052745425848355953,
          0.5447529745657118,
          0.3706241722952024,
          1.0837553198003333,
          -0.9325014815831498,
          -0.9259999662898221,
          0.5521598751878463
        ],
        [
          0.5784915802421644,
          0.9805739328748113,
          0.9323869317104898,
          0.10261951015010973,
          0.29475680593356524,
          -1.0177734322906202,
          -0.6978584789317641,
          0.5533367651815719,
          -0.7223881615617376,
          -0.8557820619934857
        ],
        [
          -0.8848096342386491,
          0.9669437658655857,
          -0.9689650840602512,
          1.090661175807202,
          0.1263535980893189,
          0.9532954237994073,
          0.63418693349203,
          -0.05397907686873826,
          -0.5802828687339838,
          1.0320726854231412
        ],
        [
          -0.009885516422006413,
          0.445650359993476,
          1.0156570594886536,
          -0.8170965228093969,
          -1.0835049362590394,
          0.966725244670962,
          -0.33781223097096846,
          0.3059539890112737,
          -0.27466763841845043,
          -0.43220812492070604
        ],
        [
          0.6143249129162744,
          -0.34528114772566476,
          0.6922559682979557,
          1.0634660761589454,
          0.8813167441726475,
          -0.8233261443491335,
          0.34686034247192743,
          -0.5956623197353585,
          -0.6833585418184257,
          -0.15635400403678468
        ],
        [
          0.1661587823429156,
          0.8701155251382728,
          -1.0216017111723406,
          -0.30754181201064235,
          -0.07621871405497749,
          0.879860471435618,
          -0.011975957064929377,
          -1.0625803439624821,
          0.23428316796283388,
          -0.25253907823065336
        ],
        [
          -1.0086670537146647,
          -0.10009716020773163,
          0.6365010964369089,
          -1.0187130130707545,
          -0.4467396504213984,
          -0.5823061323152504,
          0.782265284109642,
          -0.8151857070026483,
          0.9135976334504012,
          -1.017808897947172
        ],
        [
          -0.9958241994662412,
          0.23687044204984686,
          1.0937350242020347,
          0.6762523174773729,
          -0.8230318515617558,
          -0.8086933750805874,
          0.8633944094494694,
          0.2943952101079854,
          0.7262289160011468,
          0.25562915649440865
        ],
        [
          -0.5564304644428009,
          -0.5235318513143538,
          0.8765927165286094,
          -0.8382106013337371,
          0.5223578859887168,
          0.8096477651409455,
          0.9010478044848935,
          0.4185839546635819,
          0.8907147583945398,
          0.32415322018786563
        ],
        [
          0.5262769200933359,
          -1.0337223648380098,
          0.9893306820532994,
          0.7018909099288884,
          0.25702641684993455,
          0.9425062658462005,
          -1.0656586533837256,
          0.19806233673143292,
          0.47553149618909196,
          -0.4817092295963612
        ]
      ],
      "b_o": [
        0.13127105792173516,
        0.0791833088944246,
        0.1725243863694576,
        0.15039137333397312,
        -0.08853778728316364,
        -0.19448902087383488,
        -0.07948146927574605,
        -0.14798636892768935,
        0.19487316757294332,
        0.19175860466857725
      ],
      "w_ffn1": [
        [
          -0.35724004897576345,
          0.7620207870931756,
          -0.5654757673403575,
          0.09018549601799919,
          -0.07073083329975893,
          -0.19045660081612426,
          0.49882237814160446,
          0.45324086654310636,
          0.4034928250393769,
          0.6594454969004472
        ],
        [
          -0.7402213138724314,
          -0.3790887095356392,
          0.8727321148291037,
          0.5296182804551092,
          0.39904700472095167,
          -0.7004300157788556,
          -0.503152618018154,
          -0.19202292794725828,
          -0.02437197666333979,
          0.214625582094499
        ],
        [
          -0.16483925083647155,
          0.10722299056137874,
          0.610970672492643,
          -0.01862462440856183,
          -0.18716890006554965,
          0.1908469032050094,
          0.7341037457731922,
          0.08366847911771602,
          0.2828024607885248,
          0.8396648863497668
        ],
        [
          -0.876069100552828,
          -0.6177807255389003,
          0.2805261221471861,
          0.8150515527306713,
          0.8265894023226504,
          0.16938018439633307,
          0.5678806861087417,
          0.49822065424735495,
          -0.6654753493258009,
          -0.03458504636518056
        ],
        [
          -0.7374162179034591,
          0.5511711295498597,
          0.12043821030633828,
          -0.03646854357327933,
          0.7302937298356066,
          -0.7118862858264139,
          0.5634058548557442,
          0.2801728086485321,
          0.038703571862411024,
          -0.7986326766105079
        ],
        [
          0.19701313569517087,
          -0.3450402145498779,
          0.7447861439604816,
          -0.27250428013896333,
          0.8683309133250358,
          -0.6657421765455175,
          0.7233810332598035,
          -0.625648758209336,
          -0.7269973918511847,
          0.4110420931872748
        ],
        [
          -0.7385447223104562,
          0.6367453672590427,
          0.11430246117993692,
          0.28634718706923057,
          0.7772753079678129,
          0.8833765368578711,
          0.0026662355072220034,
          0.18617972263488636,
          0.4657903311422763,
          -0.8832809962849358
        ],
        [
          0.6931683166368664,
          -0.48502779313391114,
          0.48676602326400553,
          -0.24765077673894742,
          -0.7642968463051285,
          0.7071379781664081,
          -0.8183355147134176,
          0.6908091383863476,
          0.009661023507514965,
          -0.13491384214653612
        ],
        [
          0.20148811562055402,
          0.6089106916126251,
          -0.7036470605709804,
          -0.5489251517217951,
          0.6083341219775832,
          -0.004325943485204098,
          -0.49462242319726446,
          0.3405736206696305,
          -0.8002445141381094,
          -0.8295493911644697
        ],
        [
          -0.11532526275381272,
          0.8610326734916885,
          -0.22516359990601686,
          -0.07125394727891321,
          0.5425183522196638,
          0.19305415248955027,
          -0.0956824654934515,
          -0.2893105941445977,
          -0.7415856417036101,
          0.04171220231621808
        ],
        [
          0.48074623284672835,
          0.1260102744765922,
          -0.5523866901965773,
          -0.019897487112027212,
          -0.8612343782644004,
          -0.7458812663212755,
          -0.7049599575900992,
          -0.09533487878151625,
          -0.852646995308177,
          -0.18646344628429978
        ],
        [
          -0.5324355933235736,
          -0.1057373016653611,
          -0.7689677693456942,
          0.49477448761987575,
          0.7693045634290668,
          -0.04649137430362893,
          0.618863208695212,
          -0.7359375210222194,
          -0.5930897827937164,
          -0.47960626256757344
        ],
        [
          -0.1870868266256136,
          0.5017425655654696,
          -0.8426572413264629,
          -0.5439282133443533,
          -0.05071745243214354,
          0.7588189241853968,
          0.5732256339211524,
          -0.8469266521320677,
          -0.8107856991199438,
          0.6364261480134984
        ],
        [
          0.5807036994565843,
          -0.8577078883510736,
          -0.2597812201995594,
          -0.75909631609095,
          0.3576738085354815,
          -0.6019048177829118,
          -0.38495263624603937,
          -0.560165030914983,
          0.5609895212705821,
          -0.48994209764475477
        ],
        [
          -0.85732032775548,
          -0.27588458492071255,
          -0.8769023440502561,
          -0.33480314335500083,
          -0.7086597364208492,
          0.5019148992155514,
          0.6207752531898064,
          -0.07948547443327114,
          0.8899571994018377,
          0.07607424375787852
        ],
        [
          -0.24359253000407244,
          0.6343372292251571,
          0.4137521530226157,
          -0.7040297504936909,
          0.2983888968702263,
          -0.7868063759046424,
          0.8247688737296669,
          0.7677204203540992,
          0.8244326220483803,
          -0.5747272722124221
        ],
        [
          0.2528005806443062,
          -0.004755424909177686,
          -0.8340712267413852,
          0.7898511555155489,
          0.002092619559267428,
          0.2937491262836881,
          -0.3723979553953439,
          -0.1116499149049811,
          0.38978116730562606,
          0.7711604566026103
        ],
        [
          -0.525426410432751,
          -0.6532738782655445,
          0.8504102649027617,
          -0.3371799078609726,
          -0.8599277100848978,
          0.8198194880582116,
          -0.5538072327496001,
          -0.059426300277719335,
          -0.11128216821439962,
          -0.5311651738692806
        ],
        [
          -0.24961996770689165,
          -0.7308160596807611,
          -0.28796882293804105,
          0.4536810424758918,
          -0.8461390532356268,
          0.6882143502426173,
          -0.5766009859971977,
          0.22221085284417785,
          -0.3655896377733686,
          -0.4165097973240299
        ],
        [
          0.6380289509825504,
          -0.26606861022938344,
          -0.20183154126154512,
          0.5304233700145066,
          0.8528408117578782,
          0.030104446770003457,
          0.842068724658979,
          0.683500113133212,
          -0.6558037241274337,
          -0.7834379161718673
        ]
      ],
      "b_ffn1": [
        0.05077582561501093,
        -0.040822015670363865,
        -0.14507195760064567,
        0.0865219478918326,
        -0.07257522278952519,
        -0.1229731426983844,
        0.04663775189647906,
        -0.1556798800869984,
        0.16204498538905676,
        -0.0332620878044424,
        0.013655782398703492,
        -0.181654801641263,
        -0.0809560534567495,
        0.07096887683689157,
        0.15702019246699567,
        0.0862006666554836,
        -0.12056285486144235,
        0.142566732019626,
        -0.18943103450648907,
        0.023855030875964467
      ],
      "w_ffn2": [
        [
          -0.39488185635936796,
          0.20062465965338683,
          -0.05784837802626308,
          0.6324741692021799,
          0.22394334315004205,
          0.7592298546407333,
          0.3563663106292213,
          -0.7775066508675652,
          0.17786201105747523,
          0.3855007290066509,
          -0.06068556158778493,
          0.3124939384890405,
          -0.061304708982885425,
          -0.8596729538348457,
          -0.759415766534804,
          0.8084521085401492,
          -0.04650662039526188,
          0.8383752698114576,
          -0.37855910163753537,
          -0.6178633763784933
        ],
        [
          0.678353929408941,
          -0.8494584797105026,
          0.7579888004908949,
          0.2592126202172461,
          0.4592465454963869,
          -0.4529632271626995,
          -0.7804770732393874,
          0.382189603673868,
          0.3614386566962634,
          0.6239847799995338,
          0.19159264669151466,
          0.3661210975795016,
          -0.7593039948678015,
          -0.06970505576120922,
          -0.7459108112470789,
          -0.848658622909014,
          -0.7715942967656235,
          -0.8036731049249649,
          -0.38478951432580244,
          -0.7830677400959664
        ],
        [
          0.887928596908811,
          0.8424893305387632,
          0.8791363939700633,
          -0.06036195045389381,
          -0.6125926900212038,
          0.38980202101124417,
          0.28989079639838755,
          0.1644164687736226,
          0.43961548378163984,
          -0.6472278062772905,
          0.7802218577993091,
          0.3168577274144838,
          0.7534507580720166,
          0.10342931393762433,
          -0.5337603937716409,
          -0.6788281213379816,
          -0.8515841945084872,
          -0.41715030838505374,
          -0.48814322156412976,
          0.7056863656891693
        ],
        [
          0.6993475603679321,
          -0.8786000034894265,
          -0.8307952018941289,
          0.15335962874387488,
          -0.7312992507614468,
          0.8871952405815874,
          -0.4988697350253043,
          -0.0612397349753846,
          0.6037652645784665,
          -0.4327360045263806,
          0.38286811759278916,
          0.4494539047499321,
          -0.5128462386296062,
          0.8358534975873374,
          0.6160217001274347,
          0.8835717462434362,
          0.31649847918608487,
          0.5037532528904366,
          -0.23553879997147653,
          0.43585950959652353
        ],
        [
          0.2567565747507238,
          -0.8005772503897705,
          0.7420331384765008,
          -0.7339468878568458,
          -0.2999077766601749,
          -0.05718327931211764,
          0.8380643562208959,
          0.7000640564966304,
          -0.5898570805182499,
          0.7710652033826321,
          -0.7990592667913463,
          -0.05076421783161056,
          -0.8780279521920819,
          0.43846306323414164,
          -0.1932720489066273,
          -0.39396561805479813,
          0.01642819402756157,
          -0.47858598382920525,
          0.7224311134257794,
          0.7689622225199558
        ],
        [
          -0.6860537052348099,
          0.24709403057429757,
          0.63251241347988,
          -0.15514098526360787,
          -0.3080723235810231,
          0.6815657860440157,
          0.549051512717908,
          0.6399964697592168,
          -0.008351484549426802,
          0.2878217559164137,
          0.22940763643625883,
          0.5140566743251417,
          0.3325957653902186,
          -0.49523768419413594,
          -0.4342772036167781,
          0.4747410434692051,
          -0.7507448803505127,
          0.5072600321129107,
          -0.0661491514753394,
          -0.6980366444230428
        ],
        [
          0.5762914040482673,
          0.38878596321608117,
          0.29829576269265023,
          0.40019543220070053,
          -0.6961499781186177,
          -0.6973529186952627,
          0.8472747915304489,
          -0.5437927170862689,
          -0.7252807404022126,
          -0.6280054802032099,
          -0.8102618139062189,
          0.13016867790475406,
          0.4343196017144101,
          -0.4811563068448057,
          0.16328463638187707,
          -0.35888016370286147,
          -0.33360431107829525,
          -0.5887026788230576,
          0.16611724252320947,
          -0.09194354945123784
        ],
        [
          -0.839496490853333,
          -0.07611937595888196,
          -0.72425107690411,
          -0.8769309603485609,
          -0.5072357662486913,
          -0.38090344216022565,
          0.22238642886474846,
          -0.14865200399681344,
          -0.42892474614462084,
          -0.7969749414191147,
          0.19968305804702224,
          -0.02201640527715132,
          -0.6594969679019652,
          0.34895497233675454,
          -0.49889637342071735,
          -0.7072689850464872,
          0.653342365618936,
          -0.8864540835294968,
          -0.5658463633918552,
          -0.20446244366479283
        ],
        [
          0.5042918041691927,
          -0.8487084918354716,
          0.34693031304396393,
          0.10909143711259761,
          0.29572055097237715,
          0.7923012124227423,
          0.4820703103333187,
          -0.7598028334821011,
          0.11747609090652722,
          0.7795863225540393,
          -0.8378399219330417,
          0.8514392456834304,
          -0.054329342720625284,
          0.1042073081107261,
          0.5810374012262652,
          0.0829691914711248,
          0.3271164707262978,
          0.6241105215477226,
          -0.597610155442394,
          -0.058107961638195316
        ],
        [
          -0.6986727783781366,
          0.2612434064669563,
          0.11367649291721083,
          0.12318101527639558,
          -0.21474159141531524,
          -0.6048708318206144,
          0.7261499304589386,
          -0.6247895868160684,
          0.15476529706625197,
          -0.6792687861312017,
          -0.6847969275157326,
          0.6935923404538381,
          -0.3972085424731495,
          0.6090034156496315,
          0.4809727008354846,
          0.8010031623218102,
          -0.8396974486516132,
          0.4145287226060065,
          -0.8379259733416026,
          0.07587050110748839
        ]
      ],
      "b_ffn2": [
        -0.02125801312562134,
        -0.10903193814867493,
        -0.049614573727806144,
        -0.1444091797366475,
        0.07622209105360434,
        -0.1965998009262541,
        0.08922672991298602,
        -0.0784089961494709,
        0.15334068719854588,
        0.02325417279760561
      ],
      "ln1_gamma": [
        0.9912600008111998,
        0.9970069727551358,
        0.9933666448271069,
        1.0162019596482224,
        0.9881128447120155,
        1.0070764012996105,
        1.0083319674336721,
        0.9953623418120046,
        0.9843547784982994,
        0.9980004393352203
      ],
      "ln1_beta": [
        0.01709965632505325,
        -0.010649611783684218,
        -0.011037925313131377,
        -0.013409210705985511,
        0.01934262901655621,
        0.014426407488738805,
        -0.014386144104017557,
        0.010074162716375134,
        -0.0019535141191022766,
        0.017897220045275695
      ],
      "ln2_gamma": [
        1.0117198777140815,
        1.0186751512052017,
        1.011544769937967,
        1.0125261570419637,
        1.0180996529775874,
        1.0131765470000582,
        0.9870389814022237,
        0.9858419851421656,
        0.9978839053742765,
        0.9887932457217273
      ],
      "ln2_beta": [
        -0.005001179877474622,
        0.019403375364036187,
        -0.01505038101840795,
        0.015987632105912624,
        0.012849647260061891,
        -0.014710561669826323,
        -0.01971429971509801,
        -0.0033075189206985614,
        0.015318084107633603,
        -0.0005754892885884086
      ]
    },
    "layer_2": {
      "w": [
        [
          1.412921008993137,
          0.36091048439745377,
          0.03140521079337799,
          -1.0469525646633469,
          1.1286178995733083,
          1.3603285181614149,
          -0.9592873597942355,
          0.5286767145800586,
          -0.34845255912664364,
          -0.6922508739437163
        ],
        [
          1.2741113224407774,
          0.30376794023480636,
          0.670554552821818,
          0.6499484263962676,
          0.599841435857076,
          -0.4407964710181205,
          -0.486682974926003,
          0.9769747653586116,
          -0.24976648492815,
          0.5867089195170314
        ]
      ],
      "b": [
        -1.399670282365484,
        -1.2753759536209182
      ]
    }
  },
  "input_mask": [
    0,
    2,
    3,
    5,
    6,
    7,
    11,
    12,
    18,
    19,
    27,
    28,
    29,
    30,
    32,
    33,
    34
  ],
  "ablated_input": null,
  "ablated_value": 0.0,
  "output_param": "atan2_signed",
  "scaled_pi_n": 1.0,
  "delta_max": 0.35,
  "normalization": [
    {
      "transform": "none",
      "scale": 0.8655390346546353,
      "center": 0.9204641308303162
    },
    {
      "transform": "asinh",
      "scale": 0.8175600848274288,
      "center": 0.8867681772014051
    },
    {
      "transform": "asinh",
      "scale": 462.6300273768903,
      "center": -333.1697854608212
    },
    {
      "transform": "none",
      "scale": 5413222.0902614985,
      "center": -508770.60939412704
    },
    {
      "transform": "none",
      "scale": 1157.3507227945558,
      "center": 4549.679429911598
    },
    {
      "transform": "asinh",
      "scale": 10.358129862795693,
      "center": 12.17320223341297
    },
    {
      "transform": "asinh",
      "scale": 0.33924629426269115,
      "center": 0.40005844701414567
    },
    {
      "transform": "none",
      "scale": 0.42411593596120784,
      "center": 0.42858041580763234
    },
    {
      "transform": "asinh",
      "scale": 33.09832239288295,
      "center": 82.65759631477488
    },
    {
      "transform": "asinh",
      "scale": 0.0911362193061205,
      "center": -0.04718278665783951
    },
    {
      "transform": "asinh",
      "scale": 0.2151370816795333,
      "center": 0.29274513397808116
    },
    {
      "transform": "asinh",
      "scale": 9.832939972853932,
      "center": 11.55598244317186
    },
    {
      "transform": "asinh",
      "scale": 3.256400734674897,
      "center": 3.827025266270693
    },
    {
      "transform": "asinh",
      "scale": 5107742.117847206,
      "center": -3590633.2113008387
    },
    {
      "transform": "asinh",
      "scale": 10217099.16686349,
      "center": -6706141.091617538
    },
    {
      "transform": "none",
      "scale": 0.5,
      "center": 0.5
    },
    {
      "transform": "none",
      "scale": 1e-6,
      "center": 0.4262529995153208
    },
    {
      "transform": "asinh",
      "scale": 594.4827404994671,
      "center": 716.3429422450554
    },
    {
      "transform": "asinh",
      "scale": 412.89140647256187,
      "center": -302.7939124482325
    },
    {
      "transform": "asinh",
      "scale": 154.12675819494976,
      "center": -169.7611160606572
    },
    {
      "transform": "none",
      "scale": 1.5707963267948966,
      "center": 1.5707963267948966
    },
    {
      "transform": "none",
      "scale": 0.1,
      "center": 0.0
    },
    {
      "transform": "none",
      "scale": 3.141592653589793,
      "center": 0.0
    },
    {
      "transform": "tanh",
      "scale": 30.0,
      "center": 0.0
    },
    {
      "transform": "tanh",
      "scale": 100.0,
      "center": 0.0
    },
    {
      "transform": "none",
      "scale": 1.0,
      "center": 0.0
    },
    {
      "transform": "none",
      "scale": 1.0,
      "center": 0.0
    },
    {
      "transform": "none",
      "scale": 1.0,
      "center": 0.0
    },
    {
      "transform": "none",
      "scale": 1.0,
      "center": 0.0
    },
    {
      "transform": "none",
      "scale": 1.0,
      "center": 0.0
    },
    {
      "transform": "none",
      "scale": 1.0,
      "center": 0.0
    },
    {
      "transform": "asinh",
      "scale": 17774.23743300369,
      "center": 20521.130577512882
    },
    {
      "transform": "asinh",
      "scale": 500.0,
      "center": 500.0
    },
    {
      "transform": "none",
      "scale": 60.0,
      "center": 60.0
    },
    {
      "transform": "none",
      "scale": 100.0,
      "center": 0.0
    }
  ]
}