{
  "format_version": 2,
  "architecture": [
    {
      "type": "dense",
      "input_size": 21,
      "output_size": 32,
      "activation": "swish"
    },
    {
      "type": "gru",
      "input_size": 32,
      "hidden_size": 16
    },
    {
      "type": "dense",
      "input_size": 16,
      "output_size": 1,
      "activation": "tanh"
    }
  ],
  "weights": {
    "layer_0": {
      "w": [
        [
          0.036287660767902685,
          0.545673424949966,
          0.1937915272897529,
          0.32309723860563855,
          0.31087125458493814,
          -0.35410341010476953,
          0.44900123770188083,
          -0.04646309235587465,
          0.6679116701705341,
          -0.5989164154223661,
          0.30086851285119776,
          0.32571620774495635,
          0.5383560819177742,
          -0.5386301126068177,
          -0.2184025432729375,
          -0.1270946517283552,
          -0.5631654963971078,
          -0.5296035522155866,
          0.47680286362622537,
          0.6593390533627941,
          -0.2751052474691389
        ],
        [
          -0.072340151506471,
          -0.3482832096775094,
          0.5488730571219687,
          -0.15244535408860704,
          0.5311575752027233,
          0.6699171827224277,
          0.07307451119287978,
          0.050139661809449954,
          -0.4475274910653705,
          0.4559300853211441,
          0.017459395235639552,
          -0.43218042288343306,
          -0.2758546573827644,
          0.19675960755231292,
          0.003912333115283384,
          0.2581681994672187,
          -0.20957306111466306,
          -0.04064396771603451,
          -0.26688695701946974,
          -0.49183101234044696,
          0.10610745991133286
        ],
        [
          -0.3113418640295599,
          -0.12156507903107994,
          0.3068831211408033,
          0.6436124978127409,
          -0.08739984965096625,
          0.25880876925692775,
          0.18771454373979457,
          -0.401352772698744,
          -0.3441769642092611,
          0.3178402417868714,
          0.539638742492268,
          -0.242801715917434,
          0.046739166915317654,
          -0.3389282418032322,
          -0.114901727276984,
          -0.21361285076661485,
          -0.579782773450124,
          -0.4500487169434809,
          0.1829366027404714,
          0.2473333026719703,
          -0.2833556086438919
        ],
        [
          0.45936859489234294,
          0.07135712576908637,
          0.022425127064441663,
          0.32866073541054797,
          0.2804400740880594,
          0.05837409884665068,
          -0.13259438805650425,
          -0.5094711555715454,
          0.2677366367712827,
          0.10002755307645039,
          -0.3968541104738733,
          -0.07375486067005332,
          -0.17578395477784603,
          0.6183506067404321,
          -0.22739897597613756,
          -0.5281310356986102,
          0.4307026007463206,
          0.19649170301195218,
          -0.6310013829994551,
          0.19616056239639323,
          -0.45893650054376844
        ],
        [
          -0.4271335817253151,
          -0.5570350185193989,
          0.212906242853115,
          0.2820552988780154,
          -0.015046271022849611,
          -0.5932067537087693,
          -0.13316727428091923,
          0.565073206514497,
          -0.2364977345029849,
          0.03073559900305911,
          0.6695160911937792,
          -0.3661767218720753,
          0.0640002549617763,
          -0.629053223422025,
          0.49504915007227845,
          -0.5896743790030448,
          -0.005372453288385315,
          0.6114041369407943,
          0.036967592098888336,
          -0.6266341913334953,
          0.4940111297694998
        ],
        [
          -0.34344421662388097,
          0.11000936928800797,
          0.1289445401841629,
          0.45371541011654637,
          -0.08540041624430306,
          -0.53943561397424,
          -0.024292796132271866,
          0.5837439319665261,
          -0.6304378355034771,
          0.03750752262275836,
          -0.4002633684589588,
          -0.5609871320370382,
          -0.41558589894289755,
          -0.2506056459662175,
          0.44239499325566767,
          -0.055047805324029864,
          -0.11527524410716317,
          0.21919469206490105,
          0.408242718956908,
          -0.4914942705558497,
          -0.35003075881790724
        ],
        [
          0.2745483449116607,
          -0.25614368686402184,
          -0.5313460837914779,
          -0.4800988524184538,
          -0.4796478968574276,
          -0.6488726051961888,
          0.092347498736011,
          -0.22543406630540408,
          0.04706030416747353,
          -0.04404208322222092,
          -0.6395008157143387,
          0.6094722715162131,
          0.32613337842896917,
          -0.18256377312526822,
          0.27869146342246254,
          0.26946113678840045,
          -0.5956543012836232,
          0.17764363127192373,
          0.6606775465750525,
          -0.6054962685926579,
          0.3292968730409571
        ],
        [
          -0.45299979483923836,
          -0.07103406857187744,
          0.5070874994780328,
          -0.08736209045487031,
          0.42011925215824464,
          -0.5303834264405811,
          0.19617078022642798,
          -0.19908818367220743,
          -0.07057507105507166,
          0.38752720009868025,
          -0.21552040713430476,
          0.5823201077138824,
          -0.29065514769211853,
          0.6249412284903848,
          -0.3724340713646692,
          0.49920245953857223,
          -0.1601015876828138,
          0.029671644599690628,
          -0.5964214342135017,
          -0.5990601042416883,
          -0.27881167129554757
        ],
        [
          -0.41045196595976713,
          -0.39062832305640555,
          0.11026485896720539,
          0.029512978474738105,
          0.2045439314393006,
          -0.27671980380435357,
          -0.23460866373283906,
          -0.024879642368957455,
          -0.11097070260716846,
          -0.5586988354757834,
          0.5809306692143643,
          0.48984993479452577,
          -0.17253291395123893,
          -0.0640745255561106,
          0.02112431235369261,
          -0.08822914267059756,
          0.30164561771410514,
          0.04561433648743374,
          -0.16301342183393286,
          0.17021886586266566,
          0.2942276570090592
        ],
        [
          0.3643357724821781,
          0.046952730194725345,
          -0.43832436064759683,
          0.49769952401635753,
          0.6332822573394443,
          -0.3120669835039477,
          0.1602571433735196,
          -0.36517782836851675,
          0.19384058920844138,
          -0.043419523916740754,
          0.11638491930769668,
          0.35733100329520506,
          -0.3385358006206765,
          0.4164102289118039,
          0.23961552226819693,
          -0.643511552631323,
          0.19777596937682984,
          0.6472678060460009,
          -0.04551568564931241,
          -0.6338679636916505,
          -0.01979236609888957
        ],
        [
          -0.43794530189156233,
          -0.2807777173871192,
          -0.24379460992325358,
          0.2885845778600733,
          -0.2729795806984582,
          -0.24642675569064187,
          0.2260248079154049,
          0.5147736152856592,
          0.21503670209615056,
          0.5954334769529666,
          -0.16976326224750493,
          -0.4255929035490319,
          -0.37515546867306426,
          0.36296604965698953,
          -0.3758825707151776,
          -0.621699222568175,
          -0.6629530064367868,
          -0.5986679050961589,
          -0.06918383141942219,
          -0.15315467168533947,
          0.16354798564922268
        ],
        [
          0.3159052349077769,
          0.37900630650313705,
          -0.012754517123262032,
          0.21262231269708098,
          0.1745967619779808,
          -0.660289874856402,
          -0.009201258274197377,
          -0.13944415339693972,
          0.05479915408689595,
          0.5557651436836477,
          0.012064218139960614,
          -0.5933591671912959,
          -0.47000017264792276,
          -0.38315274563067603,
          -0.20678005973066393,
          -0.5854781495582635,
          -0.17608141533359545,
          -0.11315918359354227,
          -0.1708095477404522,
          -0.6561289028175712,
          -0.34837197712238427
        ],
        [
          -0.1015223109433454,
          -0.011876893925071741,
          0.18364970978406492,
          -0.3495543180875591,
          -0.3784114299885823,
          -0.2767953438976287,
          0.19916503561028387,
          0.39030979020172385,
          -0.3748950146887544,
          0.11398158973142747,
          -0.27797059771551436,
          -0.5444314403864154,
          0.12422227140170261,
          -0.5909887820172055,
          0.06683069216953264,
          0.5016996823015518,
          0.444004583053929,
          -0.5317022848406691,
          0.4435745946400713,
          -0.4572103327273201,
          0.15546464219146472
        ],
        [
          -0.4170524099869807,
          -0.34377186645536745,
          0.5257621159038928,
          -0.013823018615676363,
          0.4772108523135832,
          -0.14752131791203404,
          0.5728084652824292,
          -0.6031398911894505,
          0.567521031593383,
          -0.6630420644042843,
          0.1392521113926437,
          -0.43273517677527695,
          0.31030268523563764,
          0.24226732442379084,
          -0.05552943058858262,
          0.6386185158572533,
          0.14278835248780886,
          -0.545638037119133,
          -0.24310932589414924,
          -0.6074868235365625,
          -0.1473816850658024
        ],
        [
          0.07923714434106954,
          -0.26134090527912585,
          -0.3296219290107572,
          0.28898999743436804,
          -0.0905215337422618,
          0.6672673912642115,
          0.3787010340300023,
          -0.3372270569531913,
          -0.049264831390502195,
          -0.19222766606939234,
          -0.5728357236154308,
          0.6525857738068404,
          -0.2009781535304338,
          -0.24099547695396362,
          -0.2969520648412373,
          0.6265199027113948,
          0.44348151149717707,
          0.4875230506407111,
          0.49921945478761254,
          0.6653181904337968,
          -0.3103138421214548
        ],
        [
          0.45098245114646085,
          0.6408722989180269,
          0.5301863926637738,
          -0.36494349302769696,
          0.5749258235263881,
          0.38786978188198606,
          -0.08465889542326477,
          -0.24295059752640308,
          0.1733593689715116,
          -0.6674287955013114,
          0.012362085075817486,
          0.12387950288663874,
          0.46910196310152563,
          0.5869643078339224,
          -0.3353446480798895,
          0.01337355681584218,
          0.07379118082761726,
          -0.3587035428467648,
          0.6479979642240616,
          0.4884830511984526,
          0.5830569788614848
        ],
        [
          0.4958804418655667,
          -0.5526767342396997,
          0.2969821683681716,
          0.12871807903253296,
          -0.6096400235604653,
          0.11901435103480995,
          -0.45922941597480316,
          0.16695562570062117,
          0.634547581317447,
          -0.2689771222512623,
          -0.3869071918567916,
          0.10785388483126301,
          -0.4239029717060684,
          -0.2694206370911512,
          -0.20524943051072592,
          -0.13822700040316904,
          -0.5032670495041625,
          0.43395223881808787,
          0.16352736165968695,
          -0.5526293256012671,
          0.6473877776083048
        ],
        [
          0.5379326276313239,
          0.06656164397409048,
          0.20890197392906018,
          0.2661084253754098,
          0.5884674190036141,
          -0.45349407632168626,
          0.5105956378077694,
          -0.30054948163771983,
          0.6422830372393258,
          0.2395749092776327,
          -0.1536223566588244,
          0.5314786278125327,
          -0.44330185142526635,
          0.24765501794590217,
          0.30268787995506075,
          0.460773160381752,
          0.4023578893883466,
          -0.30126929080053927,
          0.17389585731466894,
          -0.44373378780627915,
          -0.29734382060402376
        ],
        [
          -0.5354012908770878,
          -0.5855096366315796,
          0.41478475383813573,
          -0.5513215413885273,
          -0.13643535825452935,
          0.4764031145354901,
          -0.045976649882520815,
          0.016298850101247098,
          -0.4482932561660595,
          -0.10308066528927207,
          -0.24824713423801104,
          -0.2578705736798743,
          0.3608517578745143,
          0.6051130420920252,
          -0.6233783106400815,
          -0.30860155893727503,
          -0.32867264200461976,
          -0.5649978783889398,
          -0.24390806459831327,
          -0.2981255972151324,
          0.23234481063994172
        ],
        [
          -0.6685002828161164,
          -0.5706609379369929,
          0.09628150951160952,
          0.6320498395313046,
          -0.012482512790452094,
          -0.16664973269424255,
          0.46453957593984874,
          0.5197125820555928,
          0.051637064841730695,
          0.2815139220325249,
          -0.26636830375811255,
          -0.4179353814224473,
          0.6281909081191164,
          0.30448139169723654,
          -0.534216997998275,
          0.412660189967629,
          -0.4985191181049847,
          -0.2778558528508235,
          -0.6651924170195176,
          0.6132281882448571,
          -0.4656597076094714
        ],
        [
          0.27075048311456096,
          -0.25392637206578206,
          0.13281843408995886,
          0.3792738155944506,
          0.6520544653589271,
          0.3801538343028612,
          0.26324615371163895,
          0.20823686534794594,
          -0.46908805051039837,
          -0.14381445807215676,
          0.5991330413236893,
          0.431448660508986,
          -0.33134051250066193,
          -0.5055599333595452,
          0.26814359200826277,
          -0.216488626179697,
          -0.34673587551997687,
          0.023625287734527434,
          0.49141508690893576,
          0.5766638639771982,
          -0.12318011798276263
        ],
        [
          -0.6131859434608379,
          0.636481649631063,
          -0.33022903267303183,
          0.07852278073135677,
          0.5354142805991904,
          -0.5921275809421457,
          -0.008778382487168557,
          0.2794070497398162,
          -0.5241114062758564,
          0.672843124741537,
          -0.6396995123833377,
          -0.4224313156187288,
          -0.3369482897640621,
          -0.08700333890284073,
          -0.35361783635491595,
          -0.2186727306816209,
          -0.11683433748717453,
          -0.4057867709133767,
          0.6725314975541976,
          -0.48331734974831675,
          0.32440206760786017
        ],
        [
          0.33354184373366347,
          -0.12998727959153877,
          0.42399704646066727,
          -0.2124928859326891,
          -0.5649878926780891,
          0.010153646910688874,
          -0.3797150437027601,
          -0.027451360796007185,
          -0.027852430168383346,
          -0.5624453797804245,
          0.5955859487663988,
          -0.1111975853440671,
          0.19078919811582162,
          -0.2618059236851361,
          0.06163162579466164,
          0.616647373860854,
          -0.38304231189281246,
          0.1067443153941805,
          -0.020677981513630872,
          -0.11450280206561803,
          0.06890647013978013
        ],
        [
          0.5105335233622001,
          0.3109484992913881,
          0.20805710000190636,
          -0.6160751318223724,
          -0.4344564578976652,
          0.2992769664038236,
          0.2952872704007553,
          -0.051028582601995165,
          -0.645712801351469,
          -0.6600335247372991,
          0.2528809860567496,
          0.32631712915031375,
          -0.25262988598789515,
          0.30948309869249313,
          -0.4479783323755624,
          0.22448654910298715,
          0.6399753563743729,
          0.31849228779850813,
          -0.5192756426445833,
          -0.4320231411029505,
          0.5844578498480442
        ],
        [
          0.15217122860581112,
          -0.666859922857281,
          0.22725652655206485,
          -0.03188649545440947,
          -0.03152031145955103,
          0.4924946469383704,
          0.3354283926871964,
          -0.037667604527534926,
          -0.5801491544746139,
          0.46518816159387755,
          -0.5643867030880209,
          0.2725317055939013,
          0.02593952109539399,
          0.2328926293124971,
          0.07529278782002469,
          0.003058550396801918,
          0.035078389581639,
          0.2672527083658849,
          -0.6257921225271401,
          0.4086338846466824,
          -0.16454623654788803
        ],
        [
          0.0008955401313012201,
          0.34597939683982193,
          0.4174860176084765,
          0.1160189450131568,
          0.3887144394357229,
          0.3070202563506471,
          -0.026230463839203355,
          0.4344836845615472,
          0.5670642695833448,
          0.4833055531019044,
          -0.5633544167843222,
          0.13697919654894053,
          -0.29346564436747863,
          0.6177824870368411,
          -0.6229665948932727,
          -0.3994268414583881,
          0.5525957891905613,
          -0.4268941457690062,
          -0.19363265564714793,
          -0.4722714113368405,
          0.5829514374700495
        ],
        [
          0.24530919397283224,
          -0.1621842464614941,
          0.5790806965248971,
          -0.37289352259649555,
          0.13310247905383843,
          0.48814116049316003,
          0.650930497585434,
          0.2086294309057578,
          0.14380045598130853,
          -0.3510158840401821,
          -0.40676172555530965,
          0.14879674177270996,
          -0.20998988147537329,
          0.04942591404406771,
          0.23453445122479377,
          0.5206570855968335,
          0.4686371987258138,
          0.4863186926710863,
          0.5655430658751335,
          0.4038287339855682,
          0.4403334260921796
        ],
        [
          0.6367109694224473,
          0.04468215324580016,
          -0.14553673971179326,
          0.31252008643954743,
          -0.5057366820694351,
          0.4653523925259391,
          0.04903589747973569,
          0.3532497790350466,
          -0.27460332629664413,
          -0.06001303695281557,
          -0.0311908412266223,
          0.11024442439496152,
          0.50079589140911,
          0.4774891350966317,
          -0.5712415049773785,
          0.38669829151683777,
          -0.5209782430664426,
          -0.594479063843248,
          -0.27605000521919254,
          0.2175572297730224,
          0.034647585845203666
        ],
        [
          0.40787502239141005,
          -0.2902563146476067,
          -0.13936282714076997,
          0.34113671279118263,
          -0.3448415378517543,
          0.09482950297053716,
          -0.050753968785976045,
          -0.24061327210261874,
          0.3911573068019274,
          -0.4587711823107298,
          -0.03132421086563386,
          0.588069008187277,
          0.40845440703413716,
          0.5311298420521404,
          -0.17218457456999103,
          0.3746728009320961,
          0.2678221244072152,
          -0.39298545038347205,
          0.4731274117273918,
          -0.3754077412559715,
          0.1653937534218317
        ],
        [
          -0.5379186818765098,
          -0.06170995562800452,
          0.18183588138768325,
          -0.19341811171889411,
          -0.4703655244775429,
          -0.4375295791052652,
          -0.11910769207912342,
          -0.4595361157444567,
          0.05123421089347169,
          -0.40293448933183823,
          -0.5708937609399288,
          0.6421212896504223,
          0.36520879492410985,
          -0.05926222596010999,
          -0.042221255119118006,
          -0.43873993079586576,
          -0.40396092549526724,
          0.5214364639561511,
          0.07166396296728761,
          0.5159308145047916,
          0.1037125998826981
        ],
        [
          0.5488782531340921,
          -0.521241870476446,
          0.43149712766301396,
          -0.17323586398351415,
          -0.421999761995666,
          -0.1540940458180181,
          -0.443051796759931,
          -0.6636204280670034,
          -0.6566774170759524,
          -0.39491213098186984,
          0.4278173157938483,
          0.24104103273041766,
          -0.42000509946881964,
          -0.34461012835918264,
          0.4408723479049965,
          -0.5675368895183021,
          -0.609075009848476,
          -0.3177369914978056,
          -0.41534613629769745,
          -0.6393753729006896,
          -0.6096138210209177
        ],
        [
          0.4895434870324049,
          0.2079698912085267,
          -0.608346660403814,
          0.4331174014335164,
          0.4679471423582653,
          0.6117418962132912,
          0.44857895731524056,
          -0.2565133258215347,
          0.10764692362994366,
          -0.6245352724654726,
          -0.021098556013430025,
          -0.6141764295479379,
          0.5775516352950569,
          0.41763691338604225,
          0.26231191220491434,
          -0.5271221585330146,
          0.2730630382034266,
          -0.02101973357693132,
          -0.07874861388388821,
          0.35010443164200167,
          0.012437883903651081
        ]
      ],
      "b": [
        0.1404475040314196,
        -0.5065328271256822,
        -0.036092010552298825,
        -0.3338609933574383,
        -0.5879763926798115,
        -0.48484240336066237,
        0.07476066055639319,
        0.20831094096843317,
        0.14646782305202632,
        -0.2678355195643856,
        0.1225339952568738,
        0.6199004580124237,
        0.05570845358222554,
        -0.3883851615785472,
        0.3595208577144351,
        0.1485820553001298,
        -0.2315140642264622,
        0.07123456075112244,
        -0.061682913997923916,
        -0.3944447969999477,
        -0.35228596097062964,
        -0.06273216525437009,
        -0.3223396140181532,
        -0.04715883569075274,
        -0.6395934342765719,
        0.4139333639048275,
        -0.4700160852769897,
        0.6645892314409412,
        -0.09395996231310266,
        0.061343986434003295,
        -0.619319693575556,
        0.6178601348375667
      ]
    },
    "layer_1": {
      "weight_ih": [
        [
          -0.4662026156126865,
          0.07194397497971083,
          -0.31186933422055757,
          0.5158868287899341,
          -0.1879844322177882,
          0.1871390840967707,
          0.04663961467708111,
          0.3057708852981009,
          0.19130466305050786,
          -0.48159066310929394,
          -0.039273388462817804,
          -0.07104752863497327,
          0.5237374819998655,
          -0.2759269467993393,
          0.19777769421236535,
          -0.44096750742856716,
          -0.3668788899273748,
          0.43114244550159,
          0.4531985374464278,
          0.545673395214396,
          -0.049123712579865364,
          0.352305362234574,
          0.1650452422312113,
          -0.42640866235000296,
          0.5419093291536232,
          0.38689545037480266,
          0.3920455963272155,
          0.24483534411932972,
          -0.5092713320101002,
          0.44592370330260733,
          0.4884696506445032,
          0.04110731821818514
        ],
        [
          -0.11934269727359331,
          -0.4942937141934361,
          0.4890470779061358,
          0.09108935782058791,
          0.41232259363505963,
          0.5216430796551359,
          0.3829737109092628,
          -0.2520118680351804,
          0.21926646439684605,
          0.48025252193312484,
          0.35970591299591603,
          0.35432363518669074,
          -0.05695433884460005,
          0.27791871972524484,
          0.5264203925076085,
          -0.5131937895443957,
          0.12718563504699,
          -0.21071772100844033,
          0.3099622800630736,
          -0.4183168488089355,
          -0.09610471176561453,
          0.45135876190459934,
          -0.20998580205596556,
          0.4695030011479895,
          -0.3583510324328305,
          0.36065498557711195,
          0.3710019986519073,
          0.1513282041923918,
          0.3233914622911511,
          0.04962084772045228,
          0.4267336782076775,
          0.4066641691756451
        ],
        [
          -0.32932378501743687,
          -0.006265658210503733,
          -0.534139317843929,
          -0.07829732506085058,
          0.020513980358517703,
          -0.30667033454126313,
          -0.06759260371745363,
          0.34275014890957123,
          0.46744066464068434,
          -0.46835791530270493,
          -0.17840365580743184,
          -0.46636145909766735,
          0.06039142283103971,
          0.14035981306844592,
          -0.13965753391547775,
          -0.25846283279665383,
          -0.20502872925300591,
          0.13670372510918594,
          -0.09128183906123205,
          0.3968460763308702,
          -0.5029399751878866,
          -0.5138107201109771,
          -0.48709004343260637,
          0.44816293253701445,
          -0.5341800393052012,
          -0.2837857811264233,
          -0.3560988208340821,
          -0.027097227414278446,
          -0.0007304155022010983,
          0.21189398716154384,
          -0.3574898397938395,
          0.16099099853331766
        ],
        [
          0.34309002725384197,
          0.1869068538500822,
          0.2768663478446264,
          0.21824659165319826,
          0.14457938359135403,
          -0.10948883044465946,
          -0.45694762549863466,
          0.3761729802202256,
          -0.3549395395466536,
          -0.3966620209933066,
          -0.31813324828733386,
          0.4271788673692628,
          0.2004616470094549,
          -0.4647418847578985,
          -0.2361355568994688,
          0.32761270757120653,
          -0.23909097397785722,
          0.12627445775940715,
          -0.14416760825063218,
          -0.32612424581558364,
          -0.1036452292188299,
          0.4932712453404573,
          -0.15482556222193655,
          -0.47836061479494174,
          -0.4993829583240903,
          -0.19850297446007342,
          -0.375677807420422,
          -0.09212519829251808,
          0.44141301561473056,
          -0.1676170413982755,
          -0.21073559971144035,
          -0.4256246998789636
        ],
        [
          -0.3652292569377107,
          -0.010872518823010213,
          0.47768672988905614,
          0.07144654211883705,
          0.19116851768203047,
          0.5201463774278581,
          0.06780942001342294,
          0.18698874974558655,
          0.5306542244312913,
          -0.34233194105725334,
          -0.1834997706166086,
          -0.3806197712579663,
          0.0016459894467348857,
          -0.1883076072687705,
          -0.09119518797739223,
          -0.22477418386104703,
          -0.5085838246801944,
          -0.4739914964509989,
          -0.29030347512155774,
          -0.539860939957425,
          0.3636900491239383,
          0.4361688267971455,
          -0.024522801427393492,
          -0.09794363538571055,
          -0.5447515031325019,
          0.1626133476662256,
          -0.05078773327810715,
          0.34873211418354777,
          0.3802307391733897,
          0.4908887453819688,
          0.42722241821246976,
          0.4280590882680726
        ],
        [
          -0.1468558031209456,
          0.060869660787757685,
          0.17308792293459363,
          0.49657887526334354,
          -0.541952017760754,
          -0.2548617269909176,
          0.1728893959394049,
          0.4968744454146945,
          -0.37186109675944257,
          -0.3478462844444853,
          0.46458141488218274,
          0.055984976701467515,
          -0.09473752671759456,
          0.07587743532825286,
          0.5110463837081021,
          -0.33599805221275436,
          -0.30435650425455363,
          0.2922995642273004,
          -0.4598641545794129,
          0.17534097091763523,
          -0.27656626811401225,
          0.38272779244808375,
          0.20328580781137806,
          0.11557334825245213,
          -0.3638393194784514,
          0.40654710749910483,
          0.41932292677399474,
          -0.5008137155232756,
          0.36751319099949475,
          -0.11295245136165644,
          -0.22067826123189271,
          -0.37314600192980596
        ],
        [
          -0.3476740315896296,
          0.540967135498601,
          0.10725932964009521,
          0.1280945408828552,
          0.03155182781631771,
          -0.26984746356466005,
          -0.4839778325833583,
          0.15959049823043348,
          0.08549857178164433,
          -0.05164808868751675,
          -0.3857699158749742,
          0.03851179756850254,
          0.02286805897919053,
          -0.34269691078385234,
          0.23526286179658484,
          0.22792453428758952,
          -0.10151206147489017,
          0.4880674642416274,
          0.045381413205999865,
          -0.22588858254860822,
          -0.45955377999771996,
          0.5211049545161828,
          -0.10404613740237861,
          -0.5035179990419927,
          0.0044194870630878125,
          0.3896269421272879,
          0.31517680307662177,
          -0.08972132670066318,
          -0.5387845439072809,
          0.3695010557516083,
          -0.4911635352378161,
          -0.2231760584476915
        ],
        [
          -0.41219678942044247,
          -0.029964896457894907,
          0.0193808508187584,
          0.14896090750110724,
          -0.28826527527612883,
          0.436521196327028,
          -0.23216735187490462,
          0.4832837279359592,
          -0.4901685602464208,
          0.4234413646021322,
          0.5027410092705349,
          -0.06624407973975605,
          -0.5008936832190652,
          0.29467272761219465,
          -0.4672823616973836,
          0.04482703204748506,
          -0.35755610091695483,
          -0.39399648235728324,
          -0.3139521614270806,
          0.4632514331626565,
          0.1556496773957018,
          0.2058785952425617,
          0.12638461012367708,
          -0.39203020458906035,
          0.16276327587368167,
          0.4198075124328702,
          0.4471537401301571,
          -0.14206394897846553,
          0.34259886966040254,
          0.09371985995856258,
          -0.18092440965941664,
          -0.538847159885356
        ],
        [
          0.2603880346918709,
          -0.17457727066387196,
          -0.1170750388009818,
          -0.22004253372879373,
          0.09041159742324678,
          -0.3479351791449051,
          -0.35568914357380177,
          0.1885746930891905,
          0.2656916276199266,
          -0.27569411828855034,
          0.4264357728987277,
          -0.43827965358491927,
          0.4963175321710387,
          0.14043921417632366,
          -0.49044165131104844,
          -0.1254251963786978,
          -0.227063499474563,
          0.010465199085577637,
          0.02488648172838559,
          -0.06500584417562766,
          -0.38940229689955697,
          0.5406501769832754,
          0.2613834567767499,
          -0.1850508622971142,
          -0.535824110544269,
          -0.022432218485787025,
          -0.3546127933909886,
          0.2601719235839042,
          0.4981698070407148,
          0.42728091551811354,
          -0.3429649986061541,
          -0.22582311852255255
        ],
        [
          -0.5211083298075289,
          0.20116748826214537,
          -0.5327565988898906,
          -0.3806254107514356,
          0.37204648158610565,
          0.031382360381522534,
          0.07715837381806057,
          -0.1352849901838385,
          0.09059544197126745,
          -0.033765413877953954,
          0.3874239571753809,
          0.14653563323885532,
          -0.1764467928011894,
          0.44943142943881376,
          -0.2228863475856237,
          0.10069088272929905,
          -0.46916864684264603,
          -0.3512322901271208,
          0.17532472129774024,
          0.5343298456124286,
          -0.4424665714100017,
          0.524504536647852,
          0.4961191801953704,
          0.3314222783071118,
          0.22205457062053258,
          -0.036300656839125645,
          -0.09948847098929114,
          -0.08748715626699671,
          -0.29849117395508207,
          0.11923399456450856,
          -0.33952060430092,
          0.07874201645803336
        ],
        [
          0.06520326908563612,
          0.2866665314496438,
          -0.2640983454631541,
          0.05253936884764654,
          0.4683876675141654,
          -0.006908831433841911,
          -0.3724668100245988,
          -0.045050994620769225,
          -0.3452693364741013,
          -0.17571494371065977,
          -0.41208937974069343,
          0.4053598785992051,
          -0.08880610288179769,
          0.38315194620466886,
          -0.5011544995225937,
          0.4158155372193192,
          -0.19702596117159865,
          0.2986950999134207,
          0.4880390716345666,
          -0.3454734542762153,
          -0.4004912235696054,
          0.1217374128590466,
          -0.5059408277306892,
          -0.37163677290627084,
          -0.16338130523804173,
          -0.28186676362564517,
          -0.06686785835469355,
          -0.11793805380348188,
          0.032142779093350504,
          -0.5041559747886303,
          -0.01630492648735382,
          0.22243570069319618
        ],
        [
          0.4785993253071368,
          0.48054423886293574,
          -0.1683533348829358,
          0.14785325598557442,
          0.16491236240715423,
          -0.21941082539588053,
          0.081668994213139,
          -0.1765262667061735,
          0.47913132640134193,
          -0.4198886173083288,
          -0.2882456777077688,
          0.47906249076536755,
          -0.25627649690031934,
          -0.31619795062602807,
          0.3704600049836251,
          0.3798748130762545,
          0.17398211187247747,
          -0.3938873086045911,
          0.536301534380422,
          0.3908501673149296,
          0.2791016007862567,
          -0.35510367293376155,
          -0.01147948775106511,
          -0.14999708528440697,
          -0.4809538528494021,
          -0.1951490798470542,
          0.35142916521388845,
          -0.4379718219790048,
          -0.36611036950237225,
          -0.5244038242712561,
          -0.3399810955880714,
          0.33413613200051273
        ],
        [
          0.008918297791151608,
          0.45992876748493794,
          0.10224885570291742,
          -0.26970954323471036,
          0.51334733154703,
          -0.18955623757490908,
          0.007845476697381226,
          0.5461371157307606,
          -0.48111748269065413,
          -0.23398565037591268,
          -0.3376876213995108,
          0.542889802503121,
          -0.44355842876812845,
          0.040544682287913525,
          -0.08349299503192242,
          -0.24132751058776986,
          -0.062071624923800583,
          -0.5350562109977495,
          0.5452168745224459,
          -0.3641080810763274,
          0.06082119872222902,
          0.4355052398209476,
          -0.1189576437165153,
          -0.22431380448282667,
          0.24470681364951818,
          -0.06283284238238429,
          -0.2844948350018454,
          -0.16944767922330783,
          -0.5410692323511834,
          0.4156799072009967,
          -0.023360515452872543,
          -0.32496843342464665
        ],
        [
          -0.467543918357631,
          -0.09320791038746717,
          0.361700999351368,
          0.5076911275817582,
          -0.4219467450811814,
          0.45066266982891334,
          -0.17401174659321783,
          -0.13500377830957655,
          -0.2842394158797549,
          0.4935778306833176,
          -0.10647127508542736,
          0.3273599296042058,
          0.2172770234221496,
          0.19877164154086213,
          -0.3480821741479525,
          -0.42873281317158374,
          0.10559433108755156,
          -0.47817297139909065,
          0.4602527789474611,
          0.3304187106409948,
          0.13811582390842725,
          -0.40072170959943876,
          0.2751542864121176,
          0.4249888617482165,
          -0.2539219570434613,
          -0.43276707671581344,
          0.5284440340735495,
          0.3171981315924445,
          0.01173492255255204,
          0.15451196524931354,
          0.1204006673244925,
          0.4559462381449526
        ],
        [
          -0.476611180178399,
          0.03969175755710819,
          -0.48991673460978213,
          -0.35359680468915233,
          -0.4120568066999928,
          -0.09820049152709748,
          0.3541677453947051,
          0.4514058853358256,
          -0.542423343090656,
          -0.5416067276279597,
          0.22424145208735702,
          -0.5451426458436832,
          0.23228719847454238,
          -0.3408701592249059,
          -0.394807090048671,
          -0.3796575414168236,
          0.17148549862255114,
          -0.5062863872535782,
          0.50820135880446,
          0.3830482169799293,
          0.1082380174506673,
          0.20437858759939298,
          0.17848047936012967,
          -0.46305776070013055,
          -0.33901481739042894,
          -0.48675675040593647,
          0.20243414038659746,
          -0.18151824395256977,
          0.22536184353788602,
          0.18519913185945958,
          0.44424012725328144,
          0.5423949092292224
        ],
        [
          0.23566055215371862,
          -0.25220154537218104,
          -0.027850966065984806,
          -0.42685684793038514,
          -0.1649071165159332,
          -0.5465039465102025,
          -0.1751657517465911,
          0.3271052536262967,
          0.04981448465820004,
          -0.0838431780792338,
          0.4855060089549812,
          0.27295734060078114,
          -0.29732729959865384,
          0.15296534172971277,
          -0.15324307930677955,
          -0.4056805313745532,
          -0.035366120454821126,
          0.03650169231815725,
          0.004672302281363172,
          0.45019366828703367,
          0.14566836181135578,
          0.24030889020957014,
          0.5308327210085675,
          -0.346876101521956,
          0.5025003369203738,
          0.3694709488340595,
          -0.4696404839690967,
          0.010042920344502826,
          -0.08317114177792378,
          0.35828803184142033,
          0.04776352774335313,
          0.1981200235219156
        ],
        [
          0.3280388106074301,
          0.17244015879119934,
          0.4702809248814779,
          -0.02938221911637673,
          0.3568682468694432,
          -0.11125962379458249,
          0.2481362942663744,
          -0.5154849846131452,
          -0.4744723681667589,
          0.5111547801339438,
          0.3495504394201615,
          -0.05967790797911671,
          0.24153090162975732,
          0.34966181091392134,
          0.43141675437668725,
          -0.2614838615479225,
          0.029390052309578252,
          0.5390513569319442,
          -0.324025436512443,
          -0.11888326376039571,
          0.2681862893552721,
          -0.41430590678637447,
          0.3122410728884438,
          -0.1307300869011297,
          0.21203642627459407,
          0.22624233379533865,
          -0.34560539590902833,
          -0.19549488436103496,
          -0.2095329959620239,
          -0.40449418945741783,
          0.059791010589923976,
          0.11604288596052137
        ],
        [
          0.3043120912551571,
          -0.281110952658102,
          -0.5355821407005775,
          -0.42202603734317445,
          -0.15814431876818158,
          0.4280702925081523,
          -0.5449968297960367,
          -0.3645597568485474,
          0.1250565406929156,
          -0.4462693064416844,
          0.4385042911235545,
          0.36200322406224417,
          -0.2090778947439676,
          -0.02229691659643096,
          0.2831793652125729,
          0.024309467465509438,
          -0.21235042104644025,
          -0.002128309003861406,
          0.04273840118549754,
          0.40308879888447025,
          0.16411220448281494,
          0.2905151546273702,
          0.3987825235639971,
          0.44989672549381,
          0.44808906798884196,
          -0.19214699701384835,
          0.05608975191271681,
          -0.10669592793501981,
          0.4063650349885103,
          0.5307136734557547,
          -0.4468842344677513,
          -0.44050228031064215
        ],
        [
          -0.3197521968528526,
          0.16503151183599218,
          0.40873777159811486,
          -0.48570271646973734,
          0.5263067423809009,
          0.1012673278643722,
          0.4015854215874205,
          -0.021752271683768032,
          -0.20954425143363403,
          -0.33126596167806804,
          0.20404816046295127,
          0.02095151305194798,
          -0.07867033686258973,
          0.13804438251838047,
          0.3220094601074971,
          0.18640220472400315,
          0.32791029255260484,
          -0.4940340424000598,
          -0.3108073422929189,
          0.45245770325148094,
          0.4543057686391896,
          -0.5381738792476158,
          0.009614249023244259,
          -0.4670524152762822,
          0.3457068429981307,
          -0.28706741781802875,
          0.23877084857538788,
          0.2955779967712322,
          0.2590147252708268,
          0.31012372707720615,
          0.430105902597681,
          0.25694425253339814
        ],
        [
          -0.14848370722038035,
          -0.5375490394946295,
          0.32224490045108123,
          -0.07581042593028625,
          -0.15202662202068334,
          0.5380860595813042,
          0.38924298033206395,
          0.5327849200967074,
          -0.2726556881950947,
          -0.48189313865020134,
          -0.36214105089778437,
          -0.06917425248209047,
          -0.5434873128081421,
          -0.5153173852663882,
          -0.4875910245065099,
          -0.24685462109117107,
          -0.43823360485073787,
          0.10143291175644364,
          -0.34660941838742626,
          0.44798536205361283,
          0.17093806902151665,
          0.0989002051713187,
          0.15165993938282007,
          0.29266913044116405,
          0.5404537977466999,
          -0.3282088848060013,
          0.50050565404607,
          0.07268094043442397,
          -0.24878269230441552,
          0.378685981445948,
          -0.35244486759365434,
          0.3944780647268791
        ],
        [
          0.09188416820650591,
          0.0429436711054062,
          -0.14342292990008365,
          0.30693959716909647,
          -0.384442918109141,
          0.12183790170212705,
          0.5386814174951791,
          0.5350803801647128,
          0.22893272111320917,
          0.3755841803862181,
          -0.49769978139152693,
          0.22599174810207945,
          -0.11986375666301524,
          -0.1006235084437162,
          -0.003389958300674234,
          0.17546517316964771,
          -0.3219310943661966,
          0.3424577221434508,
          0.14125160020008198,
          -0.25047946120073017,
          -0.4199117762017989,
          0.3120154005845167,
          -0.21077285186470596,
          0.31446900264536326,
          -0.35506540477583426,
          -0.30690637258389397,
          0.44539557805485996,
          0.5430020188547611,
          -0.41213970145071976,
          -0.5385875140204734,
          -0.10922344770163084,
          0.4789746306241838
        ],
        [
          0.0820972155487355,
          -0.19503719252048096,
          -0.4421012534508999,
          0.16920751814334167,
          0.031098450271014655,
          0.04383841172339631,
          0.5470100064258527,
          0.04966410132326582,
          -0.03303164635525291,
          0.0921276385400761,
          0.17601035525116104,
          -0.3370196475650298,
          0.06038045022514671,
          0.5476167915451255,
          0.5387454027764571,
          0.06934929753589791,
          0.4441331052748665,
          0.2545782742170345,
          -0.5396219948499463,
          0.10949649074693502,
          -0.35572780898872247,
          -0.5049691763619482,
          0.3929520944870162,
          0.409999505276617,
          -0.5129596012549622,
          -0.058220613104543184,
          -0.047523785614906,
          0.5122050133183951,
          -0.2226708201014012,
          0.07721760248597509,
          0.09681781953933477,
          -0.260840118248646
        ],
        [
          -0.1809856185563104,
          0.532824787890239,
          0.20960135754705966,
          -0.11894536858032967,
          0.35299879323835615,
          0.3992085417059531,
          0.4830411139439077,
          -0.337163293196594,
          0.17744477965297545,
          -0.31724680792617244,
          -0.365248656939424,
          0.4809685789007412,
          0.22958996501898676,
          0.0020301524521001424,
          -0.25185748192695767,
          -0.07995127189898743,
          0.21880688734274567,
          0.008167582477672242,
          -0.5385247805174769,
          0.5420804020441263,
          0.1220249593482291,
          -0.5033559098470708,
          0.34460216519136533,
          -0.08606810167206996,
          0.48925870621260636,
          0.1445841782155377,
          0.1654827238624741,
          0.04169456193529075,
          -0.26476312639850846,
          -0.047879525083400265,
          0.15172134599975928,
          -0.3956960818794204
        ],
        [
          0.5053049503434885,
          -0.24441247514001901,
          -0.01106989826087601,
          -0.09450759240789841,
          -0.4556650794841376,
          -0.0631103357621417,
          -0.36836262724461144,
          0.2567307234209736,
          -0.46705187408312115,
          0.3981181893830652,
          -0.32103882269549044,
          0.08655364217602723,
          0.09228212278299175,
          0.4497451096687973,
          -0.07875718697713402,
          -0.38021047734113067,
          0.2784196007696389,
          -0.27450385405588307,
          0.22529002067265202,
          0.5019856631548287,
          -0.46506527156348676,
          0.06923501118438957,
          -0.3663270197243832,
          -0.03960457601947176,
          0.5321962756774117,
          -0.17382242538982368,
          -0.08660972896943236,
          0.133711436740522,
          0.1628441032746436,
          0.5417827293763171,
          -0.43517930016015505,
          -0.38879495968709915
        ],
        [
          0.23900833994443915,
          0.06575855312258339,
          -0.41896104755033725,
          -0.5265040172312605,
          -0.1411041343483752,
          0.2586673540322446,
          -0.17555915569124292,
          0.04700512004315016,
          0.48215617777068265,
          -0.4252688619251199,
          -0.14694871660560416,
          0.17329389243617865,
          0.20997059342079605,
          -0.49470813177940387,
          -0.10225440578872902,
          0.2812184951800406,
          0.4196069732966514,
          0.5287731431011089,
          -0.3857429095002508,
          -0.21720359633237368,
          0.24404413890518017,
          -0.37620975337707513,
          0.37630067236215037,
          -0.42896653557791903,
          -0.5354013995302371,
          -0.21406212054786689,
          0.5349627104062298,
          -0.3342323041784542,
          -0.49739958970134035,
          0.042025614838451464,
          0.09830437914463985,
          -0.5384289683629022
        ],
        [
          0.39789115927233243,
          0.14788365749294663,
          -0.45548861484427,
          -0.21091541439394046,
          -0.3258155609290979,
          -0.13336351425843873,
          0.22018096031630674,
          -0.033832164799738385,
          -0.06182094466729782,
          -0.30936674312241036,
          -0.29095244179263713,
          0.003555627100352843,
          0.2568044276159114,
          0.2608445238375763,
          0.20089290377162305,
          0.34668421661887006,
          -0.14668289576984372,
          0.0020007359643887668,
          -0.26385102899312046,
          -0.10491548813588947,
          0.19466739544667533,
          0.23459355604379328,
          0.37551939888060504,
          0.47439901960649267,
          0.11790993520232629,
          0.46537967499564914,
          0.5445384518827536,
          -0.2419367834729223,
          0.08994791441889649,
          0.5135854494286558,
          -0.04097886039904919,
          0.23271856867196195
        ],
        [
          -0.36764784852216953,
          0.398040280389098,
          -0.4160349635012361,
          0.2760816868930782,
          0.2086522902804201,
          -0.0630549411613951,
          -0.27099827949650923,
          0.02814664789039456,
          0.27349490166666335,
          0.29836065668797784,
          -0.5430089496374202,
          -0.46446476870239806,
          -0.004400566701064479,
          0.41040367483035745,
          -0.3687656188802556,
          0.015013074110567959,
          -0.34175259212439635,
          -0.4294895553036462,
          0.2871342659888684,
          -0.5429039054232117,
          0.4016092841383623,
          0.09593286850979543,
          0.465850470349922,
          -0.3145634615874251,
          -0.4136850308871217,
          0.046480331144006626,
          -0.40964906022665304,
          0.10449008728780407,
          -0.48466131207707464,
          0.4915644750736643,
          -0.0005514948120702856,
          0.4347852825483671
        ],
        [
          0.26029079352176343,
          0.00860224870025783,
          -0.10427538030683398,
          -0.35092654086526587,
          0.0015925368554693398,
          0.4852342235325282,
          -0.46098756406915886,
          -0.347346965585392,
          -0.2775360338710075,
          -0.1334543380308863,
          0.19377355529813867,
          0.28157021874885524,
          0.5127547308138043,
          0.05458315893167032,
          -0.4450507471613824,
          0.17379434326287158,
          0.538871698530345,
          0.1168639724027315,
          -0.36179094997902683,
          0.5283183879039464,
          -0.20243811635739606,
          0.49121868807440583,
          0.5466847143419147,
          0.5319685023312712,
          0.1946083117852806,
          0.4497871513468795,
          0.2235248020086924,
          0.24087289318983685,
          -0.06982936556897246,
          -0.3081595222407014,
          0.534320648563327,
          0.2870687921594207
        ],
        [
          0.3358725255363787,
          0.39216303006631814,
          0.10549726035531959,
          -0.49927049580984956,
          0.31418135902295863,
          0.0157251849364467,
          -0.4214066525013721,
          0.08614748388232119,
          -0.12843189106543468,
          0.11058817051259828,
          0.48482480664235594,
          0.08644184476599903,
          -0.16121526880985443,
          -0.5008824164990459,
          -0.008130435303178474,
          -0.14311265163949688,
          0.4633751813246896,
          -0.10806556030716297,
          0.21086574821069815,
          0.012853356530067583,
          -0.13961648720980702,
          -0.31271332468731206,
          -0.19232230945896683,
          -0.2358157246052502,
          -0.451295557422394,
          0.09252493126605055,
          -0.24183370376281527,
          0.029059584428393403,
          -0.23894836505767725,
          -0.0972975038363294,
          -0.49170969052935637,
          0.17282405824072256
        ],
        [
          0.019551780015290676,
          -0.30151739193154603,
          -0.541018012245124,
          -0.4201115014211136,
          0.39032429660891976,
          -0.3484072518192992,
          0.12019483666869013,
          -0.41105060717976794,
          -0.2737129996486886,
          0.3047431445909756,
          -0.42323112988918915,
          -0.38063427683721446,
          0.5238543049131545,
          -0.4187440135255854,
          -0.4154523251745217,
          -0.0695030755770667,
          -0.5350797080109527,
          0.360327711826828,
          -0.3975330963470272,
          -0.3516120212372796,
          -0.23538158289887723,
          0.3038084174959731,
          -0.25373515191418033,
          0.3826171582111342,
          0.009436154784918771,
          -0.1200556844718283,
          -0.14715400636799547,
          0.5055809783283418,
          -0.4140988262981529,
          0.3333656567642883,
          -0.02870541885980049,
          -0.2211435892103215
        ],
        [
          -0.4841487291592039,
          -0.09344817940728595,
          -0.36440005952482224,
          0.2877538395543019,
          -0.32018789365345324,
          -0.07132699222587291,
          -0.48342397843161017,
          -0.23705552034351213,
          -0.11663638354091166,
          -0.15874580546194617,
          -0.03295984125294793,
          -0.3229716513722708,
          0.28958345194370927,
          -0.45528302785909996,
          0.20963628391451694,
          -0.4245632438320637,
          -0.13319319678255676,
          0.10328004777238198,
          -0.08169743226702336,
          -0.5100811637385024,
          0.3674508642442307,
          0.280458838723768,
          -0.2199926809256239,
          -0.4818721038758243,
          -0.526343972906625,
          0.1767708094683561,
          -0.12707370035503474,
          0.346019178854412,
          -0.05362533065585179,
          -0.3644296855292656,
          -0.4110305741222937,
          -0.15354738591101513
        ],
        [
          0.4704136636039864,
          -0.5453792098101408,
          -0.5009865226749914,
          -0.3427249174935032,
          -0.1293937462832616,
          -0.5374236313665068,
          0.4926575876638071,
          0.09890041177082698,
          -0.4638226746423921,
          -0.05444148926838438,
          -0.36254653519720204,
          -0.15672406114567144,
          -0.4974233307175735,
          0.13179233851562921,
          0.04888294542354088,
          0.03234033365257927,
          -0.05889784861406222,
          0.2255266151545996,
          -0.38657332974452374,
          -0.06049681899099385,
          -0.4290252988302994,
          0.4380357416793089,
          0.48373469672006486,
          0.4408639407679962,
          -0.03034145140146205,
          -0.5420846655336603,
          -0.3954982426342748,
          0.060356344228423064,
          -0.5261447054010836,
          -0.07460704705462085,
          0.02791629994568412,
          -0.20482292505186023
        ],
        [
          -0.527570843965147,
          0.10180751407493205,
          0.471301624981439,
          -0.16681830168006084,
          -0.31382187600716044,
          0.21784597842046716,
          0.16075329741625222,
          -0.4683070171446511,
          0.0341594597819338,
          0.18119745375843843,
          0.5137212173179773,
          0.3199053371952679,
          0.40241129918907637,
          0.361338082599167,
          0.41097515859406286,
          -0.4870629803593164,
          0.21720177899399062,
          0.2947425153108876,
          -0.05750594868875314,
          -0.27707741292523314,
          -0.04057737705932374,
          0.538062073751725,
          0.4810210618723567,
          0.3382275099184979,
          0.13784213342296103,
          0.5473485594417891,
          0.4855475952474251,
          -0.3462164521823357,
          0.3047605508131931,
          -0.18478853319060828,
          0.4508572796086504,
          -0.39608447276630787
        ],
        [
          -0.41858553067357307,
          -0.055838200704001084,
          0.39760853289955655,
          -0.14529132985815352,
          -0.35875770396306506,
          0.4418948140318445,
          -0.3293549418281715,
          -0.07827880907225382,
          -0.0667126185947492,
          0.5129319042466953,
          -0.45560056918798253,
          -0.35784442099890146,
          -0.4654257056583241,
          0.14608868384948048,
          0.31328566942805824,
          0.14306285940675678,
          -0.5465190871134757,
          -0.3718749640637902,
          -0.4313346334453528,
          0.5115022503654454,
          0.39511659248998443,
          -0.12396292385289015,
          0.26489270472124826,
          -0.3953171477339358,
          0.08774913829019082,
          0.2830599874326496,
          -0.3653594866571465,
          0.4873263415156741,
          0.050874237448679804,
          -0.11633981240710944,
          0.3949002610259804,
          -0.27037835785754616
        ],
        [
          -0.16926222830361898,
          -0.5299611267544587,
          -0.49668005864841175,
          0.4485591972300942,
          0.4425204192451655,
          -0.5254234735211017,
          -0.35432498302020976,
          -0.451173055800614,
          0.18865817569191867,
          -0.2455352320842072,
          -0.31680368299129635,
          0.4470033293178245,
          -0.5332233261873219,
          -0.4673766834991716,
          -0.0656862822836683,
          -0.4870150193786158,
          0.29956419776510257,
          -0.4621513223395526,
          -0.3821699977648337,
          -0.1942425413256882,
          0.4974618384183427,
          0.5319084663370375,
          0.4217979519171601,
          0.3409202462001021,
          0.11000057430271692,
          -0.0556020866746017,
          0.23430006464616404,
          0.16495946644041837,
          0.48486668204851213,
          0.057540780053389584,
          0.520416834369019,
          -0.10107553299700461
        ],
        [
          -0.5256318641132071,
          0.15347453562217495,
          0.2296567873499863,
          0.5047606029989287,
          0.32019700782117655,
          0.0283733522600621,
          -0.19528642938626262,
          0.34839748020909056,
          0.32841146897488127,
          0.18100025962195654,
          -0.22157155996609817,
          0.06664118931343799,
          0.042424595315333935,
          0.15649107851150168,
          -0.3233403142161535,
          -0.023715193215496755,
          -0.10017267870886926,
          0.35962180035054847,
          -0.19635050740537352,
          -0.4586536167271043,
          -0.42046962695289747,
          -0.022854041274574355,
          -0.3567007037497679,
          0.10679283602039813,
          -0.42437600574359924,
          -0.44006449262938935,
          -0.4161413184352081,
          -0.254527104563705,
          0.05740097728825089,
          0.26440779412193915,
          -0.283437823728626,
          -0.005964598448933045
        ],
        [
          -0.20471450904087907,
          -0.2860790120834428,
          0.33131884131714673,
          0.2577954135372542,
          -0.08545204477464824,
          -0.16615095780935257,
          0.06685606518742515,
          -0.33030268463547213,
          -0.17309533342224892,
          0.39244527783301897,
          0.4849126535079449,
          -0.10068566786320371,
          -0.12913885838846434,
          0.001747128721910185,
          0.5214256628180274,
          0.04645274015229661,
          -0.18033950979996882,
          0.4877838671867636,
          -0.18880288099611792,
          0.2811337504125673,
          0.12120589379041147,
          0.5369936513905103,
          0.08028007308168783,
          0.5469489353135992,
          0.1593632424438981,
          0.5094259969062949,
          -0.28253028564373484,
          0.04322613413861931,
          0.4050145075786209,
          -0.44266072579320836,
          -0.36171403546379993,
          -0.28188760626568204
        ],
        [
          0.11567872572693094,
          0.01958330486518378,
          0.4165043912005413,
          0.17771786449519522,
          -0.1233782785668176,
          -0.18259648049162575,
          -0.24925798888835604,
          0.44075618481327694,
          -0.40017170415054826,
          0.2884953109768472,
          0.26868850069795913,
          -0.2113433305405064,
          0.33053152979954237,
          0.22546724322574252,
          0.12420939336445003,
          -0.4686887283974854,
          -0.5277199455037177,
          -0.10620222202740148,
          -0.125855716390663,
          0.3489103217411381,
          0.04981614847578619,
          -0.5318330206963655,
          0.2090430477916596,
          0.08739964266639644,
          -0.1439991224419473,
          0.37551086161447444,
          -0.5447733353914866,
          -0.5461920114688296,
          -0.22255225879835344,
          -0.2963052051923371,
          -0.057463916837834916,
          0.34769785552958643
        ],
        [
          -0.32658034626179466,
          -0.2903565364525891,
          -0.5403175152775931,
          0.0017730311596388937,
          0.16750401281533878,
          -0.08543826801795407,
          -0.42976581792983093,
          0.028779113374804877,
          0.16888497734451835,
          0.35596341367301565,
          -0.06909554496299009,
          -0.47750406138984625,
          0.09843144559119299,
          0.242812857742433,
          0.0054361071309102504,
          0.041315799948802745,
          -0.5293026254719077,
          0.29463697999705196,
          -0.529282747049188,
          0.2185044122323455,
          -0.17089661859771743,
          -0.22281165688969445,
          -0.03853097593505317,
          0.006137184065123535,
          0.024885345004729387,
          -0.09337393274745148,
          0.5068867649901159,
          0.2691297247207506,
          -0.17787382642121918,
          0.31733414304362595,
          0.28380265190383813,
          0.3439332350583332
        ],
        [
          -0.1753169685841579,
          0.002676022407372858,
          0.143480458030108,
          0.27255566574648493,
          0.060929367826671466,
          -0.37048611139717624,
          -0.43172732201135344,
          -0.07680306937304215,
          0.5097856152068365,
          -0.2902824557384248,
          0.13680748700329726,
          0.2817907846427441,
          0.08325515673939232,
          -0.003871256033606052,
          0.1850256810939146,
          -0.21277808964770978,
          0.1433967288852982,
          0.5355780662402994,
          0.32036167528482984,
          -0.23118046948712678,
          -0.2854661359782483,
          -0.05973254410858375,
          0.07605078726446401,
          -0.2500312970727158,
          -0.22357556662576794,
          -0.3723322004864232,
          0.5133057980516254,
          -0.31879199219087456,
          0.5116422782964789,
          -0.2777166866064645,
          -0.038568494363376504,
          -0.33764419633901654
        ],
        [
          0.18029860223622352,
          0.4271899417612529,
          -0.382215130444175,
          -0.4311376852570872,
          -0.3126586040977951,
          0.4326879152712759,
          0.4171856331863377,
          0.31107364780016555,
          0.009431043353744228,
          -0.05197395579713571,
          -0.20179430547112132,
          0.08521671635678096,
          -0.1115279696323857,
          -0.2872163822208466,
          0.16586394565138185,
          -0.20627325886085324,
          0.17764300574168213,
          0.3047605871954737,
          0.512417688676388,
          -0.043424508048410915,
          0.3363574152128954,
          0.2348424435925116,
          -0.06239582285093459,
          -0.333533366127604,
          0.31133774307544604,
          0.4477953027288152,
          -0.2511613667586693,
          -0.07312625007205387,
          -0.1761662347957909,
          0.5025274427566986,
          0.26981293064196255,
          -0.5180660072643553
        ],
        [
          -0.14786230630986769,
          -0.12702187034328283,
          0.5032362882455765,
          0.5446212918769371,
          -0.31455014822563676,
          0.053612505803683264,
          0.09446950436846491,
          -0.09837188466999053,
          -0.4714888891495277,
          -0.09402859349964082,
          0.10271897637351013,
          0.21273891363389796,
          0.24364809251057518,
          -0.3056991764820552,
          -0.27006306084730275,
          0.1672779863894639,
          0.30148229802783943,
          -0.0018119947143926396,
          0.2920435396574491,
          -0.157959555701989,
          -0.25419825657760053,
          0.4552066373611734,
          -0.28419195747650505,
          0.2809854270396466,
          -0.36892517114254564,
          0.30400864239583747,
          0.11807685767671094,
          -0.38030396763029617,
          -0.3094013876623982,
          -0.2622933942821663,
          -0.31851250294122724,
          -0.36998042704109285
        ],
        [
          0.27757527940342863,
          -0.32245206929036707,
          -0.14647870480498915,
          -0.09985071200650786,
          -0.4340008321621885,
          -0.0880642239171957,
          0.3800695145354801,
          -0.17183314033856373,
          0.12761508230699992,
          0.08195702119482462,
          -0.17913929715247162,
          -0.33311739160556575,
          0.09026354196348252,
          -0.5434888514791819,
          0.3201608893217217,
          -0.37038789269001976,
          -0.09511197614132899,
          0.062099657864241764,
          0.46316371771716236,
          -0.28512446676930403,
          0.43353681323199666,
          -0.039944868109392795,
          -0.1995509385571948,
          -0.2486908739246198,
          -0.19290823312724342,
          -0.5280819626657283,
          -0.014903908812734179,
          -0.16332841979347074,
          -0.1084785258774214,
          0.3107631873576219,
          -0.12806557668835716,
          0.34570622775545456
        ],
        [
          0.19055881602036062,
          -0.2360127568668844,
          0.49612473417013647,
          -0.3300624004111416,
          0.25009647233692944,
          -0.505717322102607,
          -0.5270114662047387,
          0.29793699476629,
          0.17412404349391264,
          -0.29917970773342367,
          0.37033959569754704,
          0.26087972054563147,
          0.3185796028913219,
          -0.4664067261634115,
          0.04634935103339943,
          0.2955705612071047,
          -0.2818868147600495,
          0.5441320693666085,
          -0.5072485899649357,
          0.25658688897588666,
          0.17232009813718374,
          -0.2862195152404346,
          -0.3411634144206196,
          -0.37618085021228764,
          0.1553887351667046,
          0.0539494012948698,
          0.37331310061154543,
          -0.4255939999462459,
          0.25858250212053036,
          -0.03892541589046972,
          -0.47788790949461935,
          -0.18062977228684196
        ],
        [
          0.2123002364115052,
          -0.21272837439297887,
          0.2806530530546085,
          0.10977885153284972,
          -0.2539612423116254,
          -0.04827533931276734,
          0.4920228236178439,
          -0.4836508511681546,
          -0.391874247898193,
          -0.15772728942141256,
          0.16399757276507476,
          0.1033801695207941,
          -0.25367055406674016,
          -0.1881545716270604,
          -0.05656809286545994,
          0.5301024815573001,
          -0.2121740600072971,
          0.4496390472763737,
          -0.4298591729137965,
          -0.22489485217499755,
          0.4908450634154715,
          0.47740155384988947,
          -0.19614975460412398,
          -0.13786927092827717,
          -0.07768757918663871,
          -0.5276294672642232,
          -0.4611133973296972,
          0.5273000054689954,
          0.0941853919938671,
          -0.5371381264561592,
          -0.5077135874410065,
          -0.508551612348562
        ],
        [
          -0.5230576868439011,
          -0.4359273799782705,
          0.059086128986444275,
          -0.01756996405025879,
          -0.4223160419620726,
          -0.38282915272281254,
          0.5382232012368413,
          -0.09254564850818658,
          0.30000741807231446,
          -0.010551071220017083,
          -0.28671220018161997,
          -0.023425852577966366,
          -0.3441880528937138,
          0.04794840419908375,
          0.09436052381459314,
          -0.12998896802904764,
          -0.07338751275586475,
          0.11565179591332098,
          -0.14319015859695178,
          0.5020222993198287,
          -0.46576210880532587,
          0.1447273244898919,
          -0.27062216426050395,
          -0.36176861595513754,
          -0.12117612821708273,
          -0.4927602472808924,
          0.42565086290714327,
          -0.517735684419869,
          0.08198239215170156,
          0.052697266706271284,
          -0.16362621915001352,
          0.1603025076402247
        ],
        [
          -0.07783990987603767,
          0.1927281734284284,
          0.4327767942029177,
          -0.38268497728671536,
          -0.2972915548611641,
          0.3179442637633523,
          0.2593502104366372,
          0.14798744777796213,
          -0.44870707403399357,
          0.4998154813303335,
          -0.14264745731627793,
          -0.17993508613407772,
          -0.4531738165542233,
          -0.1711171957628016,
          -0.30581258579439685,
          -0.023510778487688455,
          -0.47102556349968694,
          0.48555190271918547,
          -0.21798392360412394,
          -0.016255119306362142,
          -0.5417966609010318,
          -0.2267090416202146,
          -0.4003156067515272,
          -0.2606650828653127,
          -0.1580852436792471,
          -0.11166226342647978,
          -0.07743314528021622,
          -0.15709208706284905,
          0.3934693136111074,
          -0.42504578930060055,
          -0.521367437080306,
          -0.3151739752469783
        ],
        [
          0.5284893719139172,
          -0.1641354012252793,
          0.250814701702037,
          -0.07192878919866419,
          -0.5370772523309498,
          0.532657475879261,
          0.27966848962558544,
          0.28128725431130597,
          -0.025627995365721024,
          0.15141928439666685,
          0.42339573462974467,
          0.386671207452305,
          -0.34786443406789647,
          0.08152373062786256,
          -0.06691073754304011,
          -0.4999807871042571,
          -0.4875427604587193,
          0.37397349155848936,
          0.33836557569293924,
          0.21816953561247132,
          0.23909535490210998,
          0.4854375163359723,
          0.4437624798896971,
          0.09373967602699551,
          0.3390248476661152,
          0.016350164894723185,
          -0.46272345481303584,
          0.48937462208422655,
          -0.4455758747031159,
          0.32528580925583006,
          0.03373993778556739,
          -0.36791416498107765
        ]
      ],
      "weight_hh": [
        [
          0.23693644640853695,
          -0.49028624493766454,
          0.18133644325040243,
          0.12733200556961455,
          0.5224967424513944,
          0.30536612309434363,
          0.5168662088074392,
          -0.6031195860004621,
          -0.26938132974571105,
          -0.6110456049982659,
          -0.3112288200047052,
          0.33373742190511846,
          0.5835803393071539,
          -0.2489117673127781,
          -0.42893343293181496,
          -0.4156404818466328
        ],
        [
          -0.3741572158909453,
          -0.2698066571354764,
          0.532995504626504,
          0.28490573099571315,
          0.015816639615963024,
          -0.5680196706100519,
          -0.42243259218449314,
          -0.1232272762458223,
          -0.42563688306341363,
          -0.4426399506727573,
          0.06411630321748829,
          0.012065338341936904,
          -0.46283266446761895,
          -0.5724046346521123,
          -0.45836263113957937,
          0.04579934872553604
        ],
        [
          -0.5403502625393918,
          0.5978333069223729,
          -0.5325360661758883,
          0.577927425889311,
          0.2228192297496676,
          0.38317530978891057,
          0.6122874725816807,
          0.25627970516826204,
          0.07384676454328443,
          0.0972080031577599,
          -0.2633949205506845,
          0.3592542014809569,
          -0.0002241058036243082,
          0.358707349177921,
          0.21192843532642325,
          0.579731815021657
        ],
        [
          0.17678130528766267,
          0.14964885048204846,
          0.3571813203345918,
          -0.46746851546577556,
          0.5241387377151412,
          -0.2220817252485185,
          -0.5460799346403055,
          -0.25256189562076725,
          0.5643112579596614,
          0.3625355485026276,
          0.19035757971634015,
          0.004924357493397924,
          -0.4584791844018043,
          -0.24912958087526055,
          -0.2999134937365795,
          -0.3219544122475119
        ],
        [
          0.3542390427033477,
          -0.4128484668647192,
          -0.03987696061626955,
          0.4950973661678255,
          0.007896533688121155,
          -0.27072103678658427,
          0.0915741396375026,
          0.5798680505201086,
          -0.34112766136045847,
          0.4704819318985416,
          -0.49421341354224047,
          -0.47652659155869315,
          0.24462577372025507,
          0.5936192525715516,
          0.6015549086853977,
          -0.19730455755106546
        ],
        [
          0.18670333258017524,
          0.4820818265109674,
          0.02543880718142988,
          -0.5416252460264331,
          0.5101885264264003,
          -0.16824171971476276,
          -0.5227285615864801,
          0.11254708668357993,
          0.3089701774076744,
          -0.28220742462461884,
          -0.3923405074887166,
          0.47670894053715895,
          -0.08672512192435278,
          -0.568291103999756,
          0.3430261016654844,
          -0.1277914558106361
        ],
        [
          0.09714727754939323,
          0.2316803733779853,
          -0.5452579966656429,
          0.550640668559367,
          -0.5857835365336447,
          0.20664575193141088,
          0.15674786603221436,
          -0.5236666131717281,
          -0.40777484283555876,
          0.5704864915247849,
          -0.22304991331364976,
          -0.16351693057323302,
          0.14456122781386715,
          -0.12983134151397135,
          0.022327301470356442,
          -0.2644437899269542
        ],
        [
          -0.38002566194862,
          -0.30738817174986616,
          -0.4107137548891694,
          -0.5855105587590358,
          0.4463402547796058,
          -0.04616955775711129,
          -0.49416806077779984,
          0.5275714766669262,
          0.5654895873509656,
          -0.01600413806642831,
          0.38618262785989244,
          -0.1873030663738438,
          -0.26261758911529975,
          0.3677039641521075,
          -0.06482367821435375,
          -0.592543320683071
        ],
        [
          0.24287296410477688,
          -0.2014207154244247,
          0.16167199732995452,
          0.15139639649755166,
          -0.47791409554495734,
          0.44233606422245075,
          0.4830558541736969,
          0.42300041069057537,
          -0.531307558478286,
          0.02408295886639633,
          -0.159563301002412,
          -0.2246421584140697,
          0.4614362976322346,
          -0.12416359941931732,
          -0.059966283320130875,
          0.18992651767539126
        ],
        [
          0.08103447611848968,
          -0.563749310324691,
          -0.3598538498172125,
          -0.026234264048563882,
          0.5568702645969295,
          0.11091881864595576,
          0.27392992417675355,
          0.608707611370362,
          0.4107095684843378,
          -0.18775961409208375,
          -0.12253675618787757,
          -0.12773008169538802,
          -0.18023109365763967,
          -0.4903069558673069,
          -0.28115488749579187,
          0.3910538947247544
        ],
        [
          0.4924719263307342,
          0.23105445541186254,
          -0.01671884864816009,
          0.5775118440599822,
          -0.2986323862863836,
          0.27610369013670244,
          0.5342820153569401,
          -0.1582926491898231,
          -0.3556732820304282,
          -0.18755610314187854,
          0.42596166056747875,
          -0.5786423702393931,
          0.5657848450526517,
          0.337208642358379,
          -0.3016587286803924,
          0.10284751798940273
        ],
        [
          -0.15735525819536156,
          -0.2950847774365918,
          -0.4860596788475958,
          -0.45267251579189094,
          -0.5752465314989277,
          -0.08630073729656196,
          0.2538898727961274,
          0.01715947857090283,
          -0.5508679757376794,
          -0.5420632737672878,
          0.24720095988002821,
          0.15366250890495037,
          0.565374015637669,
          0.480010946989877,
          -0.5017000280882041,
          -0.22092237056224456
        ],
        [
          0.2621020190957405,
          0.2541806298248399,
          -0.41323646913153733,
          -0.08219103322172494,
          0.2214932428516413,
          0.42402186895435956,
          -0.13441682413690403,
          0.07391819212762751,
          0.5963277576486246,
          0.6036793975994794,
          0.19162666261296257,
          0.3318960125991801,
          0.585157903746883,
          -0.09917105047597252,
          0.35915966051319725,
          0.01419778340706046
        ],
        [
          0.14210960473488876,
          -0.059667059821545076,
          -0.35296082582635135,
          -0.006552712031602348,
          0.40353231671691714,
          0.01719503286451407,
          -0.4423130185516063,
          -0.12693833520450865,
          -0.5816006926847166,
          0.17905379260427579,
          -0.6111824581355101,
          -0.3150992353456456,
          0.3986036595732452,
          -0.5019185626424975,
          -0.14878389996839742,
          0.01561745483471677
        ],
        [
          0.5039172237316398,
          -0.13553373772608518,
          0.5998203049750621,
          -0.11132173015441937,
          -0.21112039803763916,
          0.20412037124671745,
          -0.34550634280473386,
          -0.38915371945593524,
          0.3023029346950489,
          -0.36765367916309627,
          -0.45213128382445356,
          0.3497730391873941,
          -0.4479582034169559,
          0.026345031460901613,
          -0.30383603294302675,
          -0.2592751355696889
        ],
        [
          -0.10605087715365757,
          0.5956468393456924,
          0.2871945683212055,
          -0.5530932592915457,
          0.39108087440232864,
          -0.0829158224738491,
          0.43447299139677975,
          0.14969685087229712,
          0.6035007988687875,
          0.47126916976074096,
          -0.18999209094090574,
          0.3182234812846608,
          -0.03004354256373354,
          -0.5635927579382541,
          -0.004953094098275823,
          0.5228129177185279
        ],
        [
          0.5404270514501948,
          0.22914610589453188,
          0.05712072109503863,
          -0.13534984305787973,
          0.5584290894678432,
          -0.480120768326713,
          -0.2897336326183723,
          -0.5298856940705653,
          -0.6035144136566486,
          -0.6062865506265407,
          0.003170425138748323,
          -0.13202325326853814,
          0.6072210535698619,
          -0.2319904976968376,
          -0.032634941126809536,
          -0.021918760332972576
        ],
        [
          0.23507410399538187,
          0.20167706179557454,
          -0.470020568917396,
          -0.4834160392754323,
          0.4473104679665678,
          0.47428399581153036,
          -0.347397850664765,
          -0.2546534738698087,
          0.23948266194606438,
          -0.02116613681218027,
          0.5068731825436703,
          0.5309498747024319,
          0.5695077989574038,
          0.1638554462658759,
          0.06868686603513396,
          0.11917277044310037
        ],
        [
          -0.08416702288241751,
          -0.2317154757601959,
          -0.03787742770929492,
          0.27336923097095966,
          -0.3994081275461271,
          -0.18196683027308075,
          -0.12590914460003755,
          -0.4039829748548678,
          -0.5429188526552269,
          0.3709976750866495,
          0.5154765069292109,
          0.29928366437642095,
          -0.26068404549761875,
          0.3327293488382377,
          0.3777186907160245,
          0.48668929775883396
        ],
        [
          -0.46411100496913615,
          -0.37642734035365144,
          0.22779785952052733,
          -0.14965913844891532,
          0.3628260830931088,
          -0.16592564834777868,
          0.16929648443843404,
          0.40658309859186725,
          0.5279613575529409,
          0.344218510324097,
          0.5447397828591092,
          -0.5894255094327502,
          0.11726190554680727,
          0.019647563313627825,
          -0.020248191959190365,
          -0.5386547729600829
        ],
        [
          0.1567758356251836,
          0.30627606288182474,
          -0.12121736091303281,
          -0.0983281529106127,
          -0.5829319778507532,
          0.5860313005343263,
          0.15306419085950695,
          0.00028748547541523894,
          0.3568418105968655,
          -0.12887440969525416,
          -0.41574154135767694,
          0.16508871405089898,
          0.01462470383871406,
          0.08225381307020918,
          0.12883862143325164,
          0.6068183718479727
        ],
        [
          -0.4971878755539549,
          -0.32160455422957607,
          -0.2058645877285129,
          0.2038965930922645,
          0.013039416994154895,
          0.5570601239125796,
          0.44141215858166083,
          -0.30437514314583264,
          -0.02652331838156874,
          0.08934849359897545,
          -0.4970036057935303,
          0.25757748991580276,
          0.08588228887835858,
          -0.40381753026272926,
          -0.27951104607299515,
          0.15007367920378134
        ],
        [
          -0.38855950251366456,
          0.0015946315021564406,
          0.13789276913304183,
          -0.04477939450706381,
          -0.3723757606602315,
          0.3046562240391887,
          -0.6002337867877627,
          -0.27510738022067394,
          0.3600086735788367,
          0.3713459715717221,
          0.29934110336950537,
          0.23664398295375366,
          0.27876346160611976,
          0.3058544646500264,
          0.3455865584914142,
          0.5056540796907507
        ],
        [
          -0.42260812423529576,
          -0.5645395809214533,
          0.05971079961722803,
          -0.444980233178521,
          -0.19385456461046574,
          -0.49752853587565166,
          0.5149367669804337,
          -0.5691383776887045,
          0.42704117473090286,
          -0.1245071510468237,
          -0.0153119650513589,
          0.40176019902252014,
          -0.3392343158711345,
          0.41609336988563417,
          -0.11503374558602314,
          0.3854765810991201
        ],
        [
          -0.25317854027545633,
          -0.3073505709839753,
          -0.552585337788366,
          -0.5814333260199281,
          -0.32707860110514675,
          -0.40332930642932296,
          -0.17040491378329015,
          0.19469474403762022,
          -0.31121636442737055,
          -0.08430639264612327,
          0.27286533255472567,
          0.42197617901812734,
          0.5977061937328334,
          0.4678006512141113,
          0.26786467910084777,
          0.1387143250868339
        ],
        [
          -0.5673517711807373,
          -0.345059942097844,
          0.4721672771675869,
          -0.2544437731983213,
          -0.042250367183102044,
          -0.6033851434246671,
          0.18786776624680634,
          0.38354240305784726,
          0.5750865763015036,
          0.12456440975530936,
          -0.44997737390013604,
          0.09494509983923072,
          -0.5407739046980106,
          -0.06098557850963804,
          0.2922923991770995,
          0.5755245758131549
        ],
        [
          -0.5581341723713731,
          -0.5543265794355166,
          -0.33837988678496006,
          -0.5154479870302862,
          0.6049934892448101,
          -0.07887353067972824,
          0.24041325283654458,
          0.4426192478675999,
          0.4240580376109053,
          -0.543507941461381,
          -0.06103241426783579,
          0.4649635129185363,
          0.4512100463967643,
          0.16422275056791924,
          -0.2127167133662224,
          0.3162943535189472
        ],
        [
          0.35891977317202794,
          0.2598457458879232,
          0.25041413713269833,
          0.26711118352891994,
          0.35983418551973334,
          0.49335888321500887,
          -0.5473843865836713,
          0.3939444211408345,
          -0.4659144875565574,
          0.21551863633890322,
          -0.6047933834702791,
          -0.405168155429668,
          0.38118284254484847,
          0.5312974467621143,
          0.4826061750568156,
          0.2989008243851755
        ],
        [
          0.31616853531354183,
          0.5340809766854608,
          -0.5066134053108411,
          -0.2645547227921157,
          0.2780422953049603,
          -0.480790761116861,
          0.14782116286669722,
          -0.6055175286711392,
          -0.1878419421696051,
          -0.42412523829680193,
          -0.5512043968761797,
          0.3656992217574785,
          -0.03681569278624164,
          0.013649757725829548,
          -0.4450044850952545,
          -0.2775114384724115
        ],
        [
          -0.4308104341734248,
          0.3743821195663911,
          -0.5979692845521714,
          -0.49684309846484687,
          0.361775561390947,
          -0.13858128618313853,
          -0.5626618132387299,
          0.5112091437942077,
          0.22041196574592326,
          0.0847850313271129,
          -0.090454995949803,
          -0.2290129823983328,
          0.3340467987481177,
          0.4375817375422857,
          -0.609063464989503,
          -0.15312788635269176
        ],
        [
          -0.08845962813324126,
          -0.2716607031361012,
          -0.2290750035754513,
          -0.4418745173544456,
          -0.4996818244720539,
          -0.52588456711366,
          0.26855578934928326,
          -0.4570059445182196,
          0.43262283984704375,
          0.3677214744806042,
          0.2175874313242293,
          -0.08200359336971574,
          0.5786539307780219,
          0.33806389893638633,
          -0.28814191247627563,
          -0.11477364298649662
        ],
        [
          0.43987542680172176,
          -0.23203298919869575,
          0.24892672957678985,
          -0.31224329920271116,
          -0.23713774022667533,
          0.5201425292252884,
          -0.015390781578474844,
          0.02072384324379517,
          -0.5544253983636083,
          0.5551756039208522,
          0.3264303493677273,
          0.5815358378064899,
          -0.012517246783042668,
          -0.14293990396420914,
          0.44120082940877303,
          0.004377103325062359
        ],
        [
          -0.3370519486886386,
          -0.4816592193389274,
          0.1887909768004573,
          -0.12600521928322828,
          0.5518497836725793,
          0.19601580351927594,
          0.1562447630612186,
          -0.6058811736026611,
          0.2951926400533793,
          0.11389098014741872,
          -0.008622505132441116,
          0.28403199622099895,
          0.3346245831057283,
          -0.6105446718525671,
          -0.12063862497254696,
          -0.24559490235936426
        ],
        [
          -0.33327503340454817,
          0.062031078320942346,
          0.16395711791128986,
          -0.485761232211264,
          0.15264111835482597,
          0.6006126286814075,
          0.4394868844627928,
          -0.013760004740813736,
          0.3930131353137216,
          -0.13485794570491466,
          0.3455706742271877,
          0.06572616263159126,
          0.08463588953693779,
          -0.004308751654769405,
          -0.21496697698642042,
          0.4657775965388411
        ],
        [
          -0.4169429291048444,
          -0.33152143007167517,
          -0.2217536151519533,
          0.3865208138015378,
          -0.3997041562340409,
          -0.4182280995735191,
          -0.2436496956789591,
          0.47654285108709593,
          -0.3521423988877275,
          0.28765004214333534,
          0.4367769989537156,
          0.3061356334826988,
          0.5538404576153686,
          -0.46713067306295897,
          0.33908622803900845,
          0.5591965205025946
        ],
        [
          -0.4008576057166628,
          0.06975229057584065,
          0.5588831849322573,
          -0.4567793667151462,
          0.2118179794154832,
          0.6103211622079354,
          0.6074900612021397,
          -0.39599786516709434,
          -0.2361379491980084,
          -0.334821178360672,
          0.15813230222027508,
          -0.13546111815881762,
          -0.11025317220873854,
          -0.12262924079727733,
          -0.08003130639293321,
          -0.5074152977024079
        ],
        [
          -0.3955474228895758,
          0.061506943026700345,
          -0.3139304801121802,
          0.45324530237909655,
          0.016537848565946756,
          -0.3628645118191871,
          0.29093266256453987,
          0.4448530457985407,
          0.2920273677027845,
          0.6032015021009418,
          0.1301304865544891,
          -0.2691292837858932,
          0.6115128488447448,
          -0.35643995820689905,
          -0.42588807407610596,
          0.49130760735980017
        ],
        [
          -0.015347603813776423,
          -0.49615550468833636,
          -0.08589399989715596,
          0.6044947005093853,
          -0.34556621571667984,
          -0.41248838899122886,
          -0.2958360636868141,
          0.19586255362140292,
          0.10986047034260793,
          0.06729404052639787,
          -0.5724011546717369,
          0.2473126469106791,
          0.43095746801236423,
          -0.38291528855969104,
          0.22510138929113088,
          0.5614605248773492
        ],
        [
          -0.16604851907134793,
          -0.3866809978066526,
          0.0005926827085991349,
          -0.3087927936062534,
          0.5878714062258152,
          -0.24934239051398588,
          0.38985239301154695,
          0.3033531089369851,
          0.4450536555207527,
          0.19727402137485084,
          0.09636939238022557,
          0.4212772018723312,
          -0.45293736609744717,
          -0.272272574294615,
          0.2037475394425653,
          0.5606484417043192
        ],
        [
          0.21129011035034795,
          -0.35326981686982545,
          -0.5490219891113557,
          0.5334632068359526,
          0.4415591238098009,
          0.5276164119175628,
          0.44493779469050154,
          -0.19196528989919576,
          0.3316518779008433,
          0.019877335125871975,
          -0.24029468393049824,
          0.34843353093114915,
          -0.18130087517457089,
          0.5206416820394026,
          0.6026649211589679,
          0.10716729248288137
        ],
        [
          0.5050345024310792,
          0.2818367544609631,
          -0.2806040630922993,
          0.18133683655613908,
          0.5534912547960278,
          -0.36150405431867566,
          0.40981131781713653,
          -0.3772508591812064,
          -0.142809748400134,
          0.6051401879990475,
          0.41824160755325623,
          0.019914857728678403,
          -0.3579295146650196,
          -0.49818486067178763,
          0.016341157647994486,
          0.12276348021363281
        ],
        [
          -0.04451859134261926,
          0.45143952120621034,
          0.4506022429799712,
          -0.010629273941302753,
          -0.07587570284621747,
          0.5228224439867646,
          0.3310758375937862,
          0.6086588139367113,
          0.43333800991967086,
          -0.2260234003837156,
          -0.267676546539954,
          0.09981944333692105,
          0.27489726530445413,
          0.166958441023352,
          0.32752350906288474,
          -0.2924216827278446
        ],
        [
          -0.541638484507885,
          0.04149500320550015,
          0.5792159997987472,
          0.5778975862994535,
          0.5668484587150893,
          -0.5602571955779192,
          -0.1059869764271153,
          -0.14022502523830466,
          0.15856833088918298,
          0.32179378812380577,
          0.5849548837379162,
          -0.17664046851339782,
          -0.39350669401045935,
          -0.4022519893343878,
          0.578654001380208,
          0.4469791112151267
        ],
        [
          0.5642673382521204,
          0.5250233514773168,
          -0.303460148207582,
          0.5128832205792744,
          -0.14284679442037662,
          -0.09541059077039749,
          -0.3235980395095728,
          0.32755395275284993,
          -0.40716293323847297,
          0.36655109669083075,
          0.49246585890430583,
          0.1625078558717099,
          0.5933494094557776,
          0.34923852023080215,
          -0.2031801116333244,
          -0.5989455131089014
        ],
        [
          -0.06485316192386692,
          0.31658552782990124,
          -0.5832754593239898,
          -0.440105692574302,
          -0.19431113786238935,
          -0.1608449730743191,
          -0.4647997688181075,
          0.6076211553919342,
          -0.5217005836487324,
          0.20348079549280962,
          0.42435697512931503,
          -0.48507126525639227,
          0.5953308842105283,
          0.2431412596975897,
          -0.1544627358527333,
          0.6021056736318304
        ],
        [
          -0.1912114184860536,
          0.6083398321557032,
          -0.539924708876316,
          -0.3010149245228297,
          0.22242257834866241,
          0.48638893128238325,
          0.2530797752557815,
          0.08653460175271355,
          0.19886061679233868,
          0.002066817884084693,
          -0.15705360535238683,
          -0.3589898357443225,
          0.13537616745707037,
          -0.44048174349650504,
          -0.4461552811591728,
          0.2917338174712606
        ],
        [
          -0.19091580637838435,
          -0.004768620067723939,
          0.09259068789217972,
          -0.27171004375832697,
          0.0675118289733515,
          0.4514307849934669,
          -0.11358947139123077,
          -0.49858372419204067,
          0.48142723317930525,
          -0.07528450772408946,
          0.443459373568752,
          0.05574124445134676,
          0.02372999494671746,
          0.546199320523771,
          -0.6014712463983882,
          -0.4589791365781309
        ],
        [
          0.21408695780594744,
          -0.5313723285670532,
          -0.07291719816363895,
          -0.37434832426466136,
          0.3206730668923329,
          0.5264775305822711,
          -0.27531367497263487,
          -0.2722019343369139,
          -0.380809261845782,
          0.5501127940045518,
          -0.02504715274770597,
          -0.06657838544832662,
          -0.4725032068987172,
          -0.018296307763386643,
          -0.31744713130425667,
          -0.3597301736493837
        ]
      ],
      "bias_ih": [
        0.009902448106469508,
        -0.13312106248161948,
        -0.0882444259726508,
        -0.018758637407501777,
        -0.08429496501556905,
        -0.06140386897964717,
        0.07317458467324134,
        0.16694499965267218,
        -0.03459334558802224,
        0.15655044044360344,
        0.08628073555813837,
        -0.1978689005357851,
        0.016780953298683787,
        -0.056362379995968576,
        -0.021088963392979915,
        0.17298401165275207,
        -0.09190752209468994,
        -0.14156666337393262,
        0.08344192809525552,
        -0.12831385935338413,
        -0.1974253183319189,
        -0.17263769081971858,
        -0.05553013406187865,
        0.13386024531755814,
        -0.06168733717416083,
        0.18744355566590815,
        0.1254325426279263,
        -0.14406017588184422,
        -0.10002905344731207,
        -0.03311802100150521,
        -0.003944747298376405,
        -0.16994357945290461,
        -0.10196881594968055,
        0.16262331540509478,
        0.1880845271219832,
        -0.10259369308008642,
        0.06376513526661531,
        0.10653896328160378,
        0.09805073384342072,
        0.18583663327963312,
        0.09860999254998881,
        -0.19190154241063245,
        -0.1607544687232373,
        -0.1953629748498088,
        -0.09838735466995036,
        0.08502826200316982,
        0.03209223528523006,
        -0.12343849156684711
      ],
      "bias_hh": [
        0.1880269738827341,
        -0.0007946686888891108,
        0.04693086237168992,
        -0.06603747208145344,
        -0.1758549665667522,
        -0.16791032649826682,
        -0.06228450741111782,
        0.12166108382470464,
        -0.1640057727506048,
        0.06475213887384279,
        0.1534022037073543,
        -0.10045517010760315,
        0.10046030416013774,
        -0.1441735051975781,
        -0.1734602924354892,
        0.004845578164060976,
        -0.05730751920802446,
        0.02589538133016353,
        0.0221462864224852,
        -0.1914899495702427,
        0.15879230150544105,
        -0.14272701394577564,
        0.10424555216192649,
        0.15338956831397427,
        0.06521935681193419,
        -0.020409489117746926,
        -0.02188881828368011,
        0.16536499501411261,
        -0.12303289221562962,
        -0.14743702368385153,
        -0.11873551767810225,
        0.1387286779902916,
        0.1469534448862191,
        0.02503620238806753,
        -0.1612866630902509,
        0.09468040892487062,
        -0.05531778164033452,
        0.13210390836724678,
        0.14724692192989086,
        -0.07668044402906993,
        -0.18637928145174892,
        -0.02086784288123608,
        0.18611509038974977,
        -0.1778349679221955,
        0.16784038853536282,
        0.12095154845917594,
        0.1802790275473083,
        0.05358318121210087
      ]
    },
    "layer_2": {
      "w": [
        [
          -0.5785242359055245,
          0.4550353503800666,
          0.24067668509635354,
          -0.5082152067306022,
          0.30491496635114923,
          0.4138171604670904,
          0.16316702323034527,
          -1.0985924700969956,
          -1.1479584455996878,
          -0.5858005884618694,
          0.8281485955204222,
          -0.17679975593021124,
          -0.9974814275512043,
          -0.1826339053725463,
          -0.599283264324027,
          -1.1558288633693223
        ]
      ],
      "b": [
        0.7969105733367985
      ]
    }
  },
  "input_mask": [
    0,
    1,
    2,
    3,
    4,
    5,
    6,
    7,
    8,
    9,
    10,
    11,
    12,
    13,
    14,
    15,
    16,
    17,
    18,
    19,
