{
  "format_version": 2,
  "architecture": [
    {
      "type": "dense",
      "input_size": 17,
      "output_size": 32,
      "activation": "swish"
    },
    {
      "type": "dense",
      "input_size": 32,
      "output_size": 16,
      "activation": "swish"
    },
    {
      "type": "dense",
      "input_size": 16,
      "output_size": 2,
      "activation": "asinh"
    }
  ],
  "weights": {
    "layer_0": {
      "w": [
        [
          0.5600740916565237,
          0.02494746655982838,
          -0.25785713030804763,
          -0.20341042972664986,
          -0.5632086531462367,
          -0.3458333177258753,
          -0.3440101077144591,
          -0.6090330269614395,
          0.12838880724424806,
          -0.549934025122611,
          0.19107186975666957,
          -0.09978705632149698,
          -0.5196603594974176,
          -0.5476529656611868,
          0.5911102034001083,
          0.553184428666784,
          -0.38503410478662625
        ],
        [
          0.27940870074604895,
          -0.5988069832592889,
          0.31760180682666483,
          0.41028582809334835,
          -0.5981728172169982,
          -0.0694837109297134,
          0.4650557361871237,
          0.5060554023551589,
          0.2210141145259058,
          0.5332374820088239,
          -0.4381213785614956,
          0.5156273279090295,
          -0.6854371800913194,
          0.20199049691711413,
          -0.19470626170779148,
          -0.5906107712005814,
          0.0645430069122016
        ],
        [
          0.1900974179188143,
          -0.5149331048473103,
          -0.21538187924579089,
          -0.2045302452816286,
          -0.3624766023086951,
          0.6769830107876542,
          -0.30871196698003,
          0.3146084095329371,
          -0.3403619186523567,
          0.575907121715491,
          -0.4135426032588131,
          0.30228339459595444,
          0.6131205564543489,
          0.17912118734703453,
          0.13499951938230537,
          -0.23329641522109557,
          0.012410139898968775
        ],
        [
          -0.25717700470777505,
          -0.2828919768067593,
          0.257732715728373,
          -0.48831709670880546,
          -0.13399747206360824,
          -0.12875167799795484,
          0.5880402983326276,
          0.291844330574658,
          -0.10789891146355468,
          0.5536943225185014,
          -0.007239274856245426,
          -0.07434866233215165,
          0.5967989839759049,
          0.5383446519893953,
          0.13194460830190913,
          0.42502345356704185,
          -0.39969206226574655
        ],
        [
          0.13092122099815595,
          -0.4448505687181397,
          -0.5576122644246337,
          0.46932419001382364,
          0.30033179659956155,
          -0.25096711496049073,
          -0.115244417760897,
          0.49963231406635855,
          -0.2686979648042132,
          0.5729980642923569,
          -0.6250358416075608,
          -0.1796482506270659,
          0.34606663578673014,
          -0.4608163264442204,
          -0.2727655351265385,
          0.4372931014708077,
          0.023163396723927643
        ],
        [
          -0.08130335008535239,
          0.23455651251091192,
          0.587835566712477,
          -0.43131247956042773,
          -0.04643124033435664,
          -0.14998226296598893,
          -0.32161405040007995,
          0.5564833910164364,
          0.15361659022942353,
          -0.11440952826417328,
          0.6168187539144836,
          -0.1406342252779681,
          -0.20458806917858469,
          -0.540593195337381,
          -0.34423731057044443,
          -0.6756264739429454,
          -0.35789937864545196
        ],
        [
          0.5638018089684689,
          -0.28838872441828234,
          0.24900279321996643,
          -0.13461652426116288,
          0.4655405159689028,
          -0.5979756985879467,
          -0.6272676855542237,
          0.21311859431487157,
          -0.1051519551626704,
          -0.487537653926834,
          -0.10305783867602802,
          0.28892257228445706,
          -0.30719194983050657,
          0.07650944201377641,
          0.07756307554530406,
          0.19163810368680445,
          0.357625591909565
        ],
        [
          0.28966996058112227,
          -0.035966647085001635,
          0.16683639568018016,
          0.14619977381878546,
          -0.3400759732553145,
          0.5729535772865757,
          0.44084259818972527,
          -0.5996157179902577,
          0.37356044859788096,
          -0.2824549512554081,
          0.05077050493153101,
          0.028069439127430207,
          0.12803603471513159,
          -0.12373097090443841,
          0.24289027991784962,
          0.5599340828976935,
          -0.6897989154319027
        ],
        [
          0.4807051636669575,
          0.5546010947102507,
          0.5868754546376864,
          -0.3047468758477013,
          0.5010477358818735,
          -0.09470090963427513,
          -0.341517134795401,
          0.6987333575864305,
          0.2969583899176098,
          0.1766510307986875,
          0.07552857805975588,
          -0.6747219632936643,
          0.5669962370124249,
          0.009210574456318454,
          -0.35116738898609356,
          -0.03504485590536732,
          -0.3930005234810021
        ],
        [
          0.19485330128681377,
          0.41197796697451694,
          -0.06772667784582864,
          -0.26666990152995473,
          -0.5057236090080587,
          0.6647378630876732,
          0.47203785781198837,
          0.45765248121000934,
          -0.1012403504477627,
          -0.022306116753379346,
          0.2965550866643256,
          -0.39100017819000205,
          0.3103122829047855,
          -0.10580083947682606,
          0.4039300414276117,
          0.32272452182661704,
          0.35157778808480056
        ],
        [
          -0.4586367710932266,
          -0.015107868736794372,
          -0.17658366562808647,
          -0.5506023662319826,
          -0.3790144085664849,
          0.5795950950253188,
          -0.11164633603157459,
          -0.4053506565166461,
          0.3308516481182311,
          0.4258270369701336,
          0.5094371030167608,
          0.6936960733610336,
          -0.252119144788306,
          -0.005384872037254573,
          0.3218507890343245,
          -0.5082624812054886,
          0.4609912933475173
        ],
        [
          -0.05632668286225895,
          -0.10219981538935041,
          0.6997340657886228,
          0.27498021010024765,
          0.5138855392192205,
          0.27071046315631,
          0.1405592131344413,
          0.44476748957018275,
          -0.1725591293512938,
          -0.6146559339442884,
          0.14115142247510348,
          0.5260227468457435,
          -0.564756689852189,
          0.2689282000542116,
          -0.4591171585229381,
          0.5733013151461455,
          0.12091856188143879
        ],
        [
          -0.47107396140392077,
          -0.2821898727666234,
          -0.5889540760121648,
          -0.19385982329538098,
          -0.5271302369637615,
          0.68857863099515,
          0.23926331664294942,
          0.2933634374377678,
          -0.06234621141965835,
          0.15916351341442958,
          -0.2522823968204895,
          0.3325545436059256,
          -0.05293340159604365,
          -0.32523875165889987,
          0.5131959164780076,
          -0.07393234099252999,
          0.10500406350069147
        ],
        [
          -0.0026598355236108207,
          -0.6098696334514184,
          0.15224942658445062,
          0.48586432772172294,
          0.09725112925032575,
          0.4896307904263675,
          -0.020431400102911668,
          -0.47830702201621705,
          0.6148928473096076,
          -0.6649198345861941,
          0.5921005940140152,
          0.016249467898454717,
          -0.28671199188735813,
          -0.06398037852616345,
          -0.0510427295770014,
          0.21632471269523068,
          -0.620744370796379
        ],
        [
          -0.1687936098741859,
          -0.028350237194964434,
          -0.33789050411142,
          0.49836121616886775,
          -0.24314642127012182,
          -0.19515026152658432,
          0.28160469333893334,
          -0.22416332829134156,
          -0.37259810847981556,
          -0.357267358891082,
          -0.5043726712852805,
          0.1078308765380922,
          0.2355556469945561,
          -0.4052805572175523,
          0.19476033693614336,
          -0.06128741687412653,
          -0.3856660193480928
        ],
        [
          -0.14156041707137768,
          -0.3980281884247611,
          0.41950819854670063,
          -0.6116404070562775,
          -0.26445125640187633,
          -0.6144322402818493,
          0.4422449440818561,
          0.5875968672435521,
          0.4527242106523892,
          0.45726004753347405,
          0.22309491940874604,
          -0.2525267677102932,
          0.3774604683539611,
          0.05730778077051224,
          0.006866224646588925,
          -0.3054389030693457,
          0.403302154587734
        ],
        [
          -0.3667134512477581,
          -0.39815331541123256,
          0.09820055347556833,
          -0.6929004657012879,
          0.14898834643998204,
          0.12742501839228393,
          -0.5429425504490047,
          0.23302298348525619,
          0.4279831377683587,
          -0.48236746906458283,
          0.5410912724774859,
          -0.14011224016697277,
          -0.21571117527147515,
          0.6281745322092034,
          0.302135150587274,
          0.6427519890420728,
          0.3870853103600098
        ],
        [
          0.3567889558573867,
          0.1930373981202349,
          -0.4303711910109073,
          -0.6685103875980236,
          0.0825698807955575,
          -0.39739993850267114,
          -0.36807253626531977,
          0.590287258017619,
          -0.434027965162783,
          0.32189216229766626,
          0.6453617689042552,
          -0.33961327516183104,
          -0.4020701844044932,
          0.42575625743697065,
          0.07284895397321034,
          0.25024622717632905,
          0.5742132660061618
        ],
        [
          -0.1525213820607516,
          -0.13939757558784427,
          -0.3197013616345365,
          -0.21736696815561835,
          0.1363516230061793,
          -0.5330985634332,
          0.029649462822036843,
          -0.21063212235012657,
          0.21470126266134104,
          -0.4988946555110624,
          0.14633328666985246,
          -0.5977186712393908,
          -0.3932927219375417,
          0.2700503552292126,
          0.0632725331136621,
          0.6721467089580839,
          0.2712433136172189
        ],
        [
          0.3053028215584217,
          -0.42020037152506584,
          -0.14494345763470207,
          0.2249782814079898,
          0.17183812449913505,
          0.29968912267270353,
          0.22876749259308782,
          0.6094599516542567,
          0.4385650370226839,
          -0.07961497764961745,
          -0.6390681847213122,
          0.03973681406536911,
          -0.06705918547155021,
          -0.37607793859422994,
          -0.46576416187057745,
          -0.16628679556853565,
          0.48421984915985994
        ],
        [
          0.2644251524737672,
          -0.5389291437638888,
          -0.35841781950962526,
          0.6189594972395043,
          -0.5919732765615149,
          0.3750380854130646,
          0.4830228848779996,
          -0.13341069559442376,
          -0.05966218034388382,
          -0.48548648576928255,
          0.11149861209942824,
          0.08418571021305898,
          -0.02029447230585979,
          0.5138607704285061,
          0.1047992537338146,
          0.59850878046189,
          0.5483491309379014
        ],
        [
          0.2386293589365165,
          -0.5237149766312665,
          0.6162596401101987,
          -0.5918625502410457,
          -0.4515109033695853,
          -0.43436645509962146,
          -0.003505952174656879,
          0.11217811775487041,
          0.2815242992295611,
          -0.1537074548855043,
          0.12057542604942151,
          -0.24157101564180977,
          0.34304755567298706,
          -0.15521230425805288,
          0.3549821274298486,
          0.15375806679443738,
          0.28016930488866143
        ],
        [
          0.10317472018367413,
          -0.54059281875994,
          -0.2623670982759673,
          0.5464359628221414,
          -0.2076989374673533,
          -0.4389016861469696,
          0.1664091854402775,
          0.07757427058144428,
          -0.4249744432686269,
          -0.5019999346651838,
          0.12267887921954235,
          0.3143330148316601,
          0.46280586320760286,
          -0.20626445075520727,
          0.3272779793831815,
          0.06588543222916377,
          -0.6228693361643501
        ],
        [
          -0.5950385123038441,
          -0.5595813054297478,
          0.661444179832329,
          -0.557729032287232,
          -0.17725523985026514,
          0.6910167277116983,
          -0.15202095068566934,
          -0.4650133861891193,
          0.5979272832449112,
          -0.05738532211462466,
          0.4837513892008014,
          -0.20430611123921333,
          0.59250797530358,
          -0.6676604850128897,
          -0.3700636854124988,
          -0.5593786740326057,
          0.09905382319876244
        ],
        [
          -0.19467123406196674,
          -0.2805698467804992,
          -0.5932424272555128,
          0.4399203133017384,
          -0.6447149398406171,
          0.46870869933311465,
          -0.09059016350725946,
          -0.2789702157280377,
          -0.6598891789522432,
          -0.023954874460641262,
          0.26464293454691223,
          0.6291340648850896,
          -0.19356732720707848,
          -0.21976956436386907,
          -0.4404450107120623,
          -0.4134373147494915,
          -0.08088582945463907
        ],
        [
          0.13198478134269853,
          0.20522878149182744,
          0.2773247469579645,
          0.5433919025233298,
          -0.2455515615138677,
          0.5715801736014079,
          -0.64482658243379,
          0.494800381661052,
          -0.6418855518133006,
          -0.39465261019892156,
          0.2344163539701185,
          0.39551808895641294,
          -0.45982303255955326,
          0.6398433333302669,
          0.051025635618063836,
          -0.04961395899706189,
          -0.3075580619609289
        ],
        [
          0.608897331629888,
          -0.12804930670926917,
          -0.17906175347191988,
          0.5514793592128777,
          -0.6565974863064697,
          0.11875240404026866,
          0.15440257796982737,
          0.0217214942428956,
          -0.6662533283500358,
          0.3781962449907279,
          0.01611213565277636,
          -0.5133650943588159,
          0.47719639894502586,
          0.5905263178995206,
          -0.4584503452578327,
          0.17189405142493075,
          -0.5122672422064215
        ],
        [
          -0.5192381532693469,
          -0.4090914341981452,
          -0.38964378871982097,
          0.4458796440605577,
          0.65844642571727,
          0.036621288185891276,
          -0.5193091318203424,
          0.05686986263367766,
          -0.1770333852545266,
          -0.4003867068436609,
          0.5486342660349781,
          -0.18838963058053593,
          -0.19528449741758724,
          -0.009169552198709296,
          0.5070759011520423,
          -0.5162661892267664,
          -0.44268029223547317
        ],
        [
          0.6296019957858954,
          -0.38994139985281157,
          -0.27681276777356795,
          0.026306439621099575,
          0.31254575015549646,
          -0.02764253480507428,
          -0.05120549449608969,
          -0.19276376847299448,
          -0.31511739264334493,
          0.286285244549461,
          -0.41381003240680486,
          -0.3729745154000205,
          -0.10459250891032201,
          0.11374041740357355,
          0.234368314910949,
          0.32723233171275035,
          -0.1375241873241425
        ],
        [
          0.11265165223081874,
          -0.26168270825232337,
          -0.007569785725265343,
          -0.22518137535621996,
          -0.4530568745672807,
          -0.5678169928320925,
          -0.45030848901558307,
          -0.43212022867798855,
          0.32659736854579235,
          0.31508683304498875,
          0.5480464001402967,
          -0.3674677839555263,
          -0.04912623102276226,
          -0.13551080183946762,
          -0.42846031800790024,
          -0.46570404101992446,
          -0.4726496333917115
        ],
        [
          0.25674346521710556,
          0.07787276262556087,
          0.11264437559892126,
          -0.5496193686797602,
          -0.18043048863472344,
          0.1068865704264409,
          -0.5875310754507876,
          -0.5386178401034989,
          -0.4608412284001313,
          -0.6782454619840858,
          -0.6971122455179469,
          -0.48577234631211375,
          -0.4543799046772903,
          0.19199434612601207,
          -0.4877896009417954,
          0.5849277398712782,
          -0.0073491624050537885
        ],
        [
          0.22791287526168857,
          0.2388766675944216,
          -0.21564729285021816,
          -0.6785020174923418,
          0.13020791412055033,
          -0.5573151744133471,
          0.2265100344504115,
          0.0989161660407718,
          -0.3460220474856564,
          -0.3552411938591427,
          0.24925648357536412,
          0.45947846038343876,
          0.21286629881660268,
          -0.20479946177765185,
          -0.46923013685080234,
          -0.05995353382701318,
          -0.4386874232753166
        ]
      ],
      "b": [
        0.024101424207880973,
        -0.6372143817160457,
        -0.3985063744105605,
        0.641884512339127,
        -0.5624783009719888,
        0.470422345555372,
        0.3809681510676426,
        0.485501447672547,
        -0.24400760815122557,
        0.5071871821157685,
        0.15896203247600005,
        -0.28519146036852927,
        0.08511293898149142,
        0.3296841309216674,
        -0.6316839432423459,
        0.36898697871046027,
        -0.035660618661166654,
        -0.6451698848687383,
        -0.015378768410815535,
        -0.6660538575427404,
        -0.40848036105177826,
        -0.5904089094805387,
        -0.39022774827209006,
        -0.38582721248156665,
        0.16896635097726243,
        -0.1437327371727043,
        -0.0007916815933584065,
        0.445251527329916,
        0.5703887255708997,
        -0.5361683424287151,
        0.5148969351164332,
        -0.18868201674454033
      ]
    },
    "layer_1": {
      "w": [
        [
          -0.3813863247791328,
          -0.1759540332414964,
          -0.5584677062211583,
          0.13442063059094234,
          -0.5444149963795805,
          -0.546974525020117,
          0.028330619854179062,
          -0.330682369545975,
          -0.22097421139982543,
          0.4911469142920223,
          0.5484521605623348,
          0.15428346660791414,
          0.3874640953050209,
          -0.05443485689316796,
          -0.35227258613088763,
          -0.07535600418633581,
          0.671439694673336,
          -0.2563786536860733,
          0.11966310893373777,
          -0.19729472646361612,
          -0.5480987013315325,
          -0.059934608574310544,
          -0.18293238151908686,
          -0.11483117730048276,
          -0.017217706078633155,
          -0.11005471701386393,
          -0.06037391266879766,
          0.13970528867963328,
          0.2247291229108277,
          0.07088014679896482,
          -0.6173781074359996,
          0.5542426586600727
        ],
        [
          -0.1893224926529138,
          0.20311496278033314,
          -0.17188501555012925,
          -0.05528707311570702,
          0.329089480188021,
          0.6967835452679808,
          0.017500621236180236,
          0.6141604243802133,
          -0.2184074206623432,
          0.4449508772858478,
          -0.2170414098877318,
          -0.31648552324856194,
          0.2760970660107893,
          0.38134862334489117,
          0.4660588975660197,
          0.226400101458612,
          0.45746319112270684,
          0.4246302254562405,
          -0.23730311530768794,
          -0.16743075893350778,
          -0.32660060060676344,
          -0.2412398270275798,
          -0.21464576181939593,
          -0.44497305843672047,
          0.1837520349123839,
          0.421948217656161,
          0.1684293714544085,
          -0.05383004637869926,
          0.22292043123988958,
          0.6218746143072135,
          0.6286976051396326,
          0.07440406465007288
        ],
        [
          0.467946801356001,
          -0.3286727147880004,
          -0.6201449207648951,
          0.5108367922719487,
          -0.3680570122825049,
          0.16964381554257124,
          -0.48873049098887544,
          -0.6724006001860913,
          -0.29946051268576956,
          0.6246295223390231,
          -0.29345074263079096,
          0.45894221878783015,
          0.23442329667796358,
          0.22974377683291847,
          0.07536338384907915,
          0.37118077181697007,
          0.10940648429669497,
          0.0989031147831354,
          0.18265889897709464,
          -0.2950772122373258,
          0.13116704678822055,
          -0.09600443702609374,
          -0.16500876513998808,
          0.5945465688143713,
          0.38458645613819986,
          0.4066609720439548,
          -0.3505231351731344,
          -0.4074144773451043,
          -0.4546458732043319,
          0.6904840075493032,
          -0.44479111798120813,
          -0.07085286259093893
        ],
        [
          -0.04743227643286474,
          0.26950216012799777,
          -0.6195834468471212,
          0.6975845164988196,
          0.5402340870960866,
          -0.7004509269861466,
          -0.32747887154023536,
          0.5490289093419362,
          0.6010818094062153,
          0.3036715883671285,
          -0.25631482360687924,
          0.3841379888462245,
          -0.6112993099429901,
          -0.13410761892210055,
          -0.1863868601424803,
          -0.3639886539385489,
          0.12812843567773047,
          -0.06766486309096675,
          0.5599525775674249,
          -0.02497815041996021,
          -0.04516968397798948,
          -0.09851281425504022,
          -0.4676527114239266,
          0.0838482770841188,
          -0.472992440010934,
          -0.42228363164840615,
          0.5633005561604162,
          0.07722593924520882,
          -0.4596253570432415,
          -0.5171436874445842,
          -0.18805967464601248,
          0.41176360045773797
        ],
        [
          0.14479931262054102,
          0.15632429975451312,
          -0.628034987813293,
          -0.47508753052021224,
          -0.39550165836191736,
          0.37867732603222237,
          0.12384898766000896,
          0.3071420952607079,
          0.21160815253316445,
          -0.35559292044265967,
          0.10670229098742345,
          -0.498259645064179,
          0.1783905467681658,
          -0.4460422494903811,
          -0.07056922109347974,
          -0.12099514868164496,
          -0.05452425221677892,
          0.11449162299842519,
          0.5159805057093058,
          -0.264958713210702,
          -0.3893522884378326,
          0.6009499728870739,
          0.6833138962015363,
          0.0123714362715871,
          0.6618643760527024,
          0.5562025714349946,
          0.675272720203668,
          0.35854481834692675,
          0.24397647465108974,
          -0.11603378649205343,
          -0.18125947948780374,
          -0.12963866282579672
        ],
        [
          0.7039154242684497,
          0.01285826959593761,
          -0.2818947127312524,
          0.09409556779919581,
          0.35483374469830264,
          -0.38869480015308194,
          0.07716647312751335,
          0.506364392200994,
          -0.5727122628316033,
          0.3612775313565669,
          0.6143259927961059,
          -0.5385402174960452,
          -0.4082419233620619,
          0.5677080345168283,
          0.6865467496803842,
          0.31404672801470046,
          0.5916448354577658,
          0.0022704677007578944,
          0.5828633260468393,
          0.13910732328479758,
          0.486529773743131,
          -0.13799326461054584,
          0.6650867454344035,
          0.6106820796681217,
          0.2704525866422317,
          -0.5387851326074867,
          -0.2951467785608461,
          -0.1622471851682742,
          -0.1709083923982121,
          -0.20369895635004853,
          -0.3291939828248535,
          -0.11335181665752336
        ],
        [
          0.5095978133520428,
          0.6553594023135835,
          -0.5219607716909249,
          -0.5605082358110218,
          0.5479611648266213,
          0.14557536131912863,
          0.2869521050243352,
          0.4089113577084774,
          0.32992794379489776,
          0.4589189082133026,
          0.37048075589350027,
          -0.6458151792303108,
          0.1737354020074795,
          0.16644159382214774,
          -0.37076266246926265,
          0.5572989923640516,
          0.04333944202065332,
          -0.2908916465540559,
          -0.5401955590966148,
          0.061159482211725624,
          0.05108323937821713,
          -0.30394590747499106,
          0.666337757666723,
          0.4990918719245162,
          0.38202779576810453,
          0.321572212485045,
          -0.07031962440043604,
          -0.5598410034856135,
          0.11692212896696319,
          0.11138337757686723,
          0.4728980965126627,
          -0.651789948949908
        ],
        [
          -0.19217616902341372,
          0.11759390631752897,
          -0.30089767221230984,
          -0.31262429105107303,
          -0.235103912958328,
          0.5490959649664139,
          0.5917489748465786,
          0.0016531238885021393,
          -0.1779003571326252,
          0.28097788875837626,
          0.3451918822774308,
          0.0993206547784583,
          -0.21622066755685465,
          0.3303312619891098,
          0.40977887125057466,
          0.08263252541225385,
          0.268092157225702,
          -0.05611524667799905,
          -0.529011296212083,
          0.5263060964078482,
          -0.5297941369211949,
          0.6624636122864264,
          -0.6264043379543186,
          0.458413769963086,
          0.4362041556620385,
          -0.6215304896224547,
          -0.703642806715821,
          0.6881163711507993,
          -0.010067946255954419,
          0.09917023604929576,
          0.6406060746840988,
          0.2605630529497024
        ],
        [
          -0.00200466303056801,
          -0.3332223330267358,
          -0.6927463274366115,
          -0.05429463240463206,
          0.027329988364074298,
          0.42296889735459653,
          0.4266462692480416,
          0.5359689960745079,
          -0.11111780248002179,
          -0.13248247427052184,
          0.3890773043329868,
          0.3080121251802995,
          -0.38199717642776254,
          0.352346487320064,
          0.453953563217096,
          0.3561317784425787,
          -0.07687594596051384,
          0.08217746547754701,
          -0.5734633229542885,
          0.014906279111714493,
          0.27111454390057166,
          -0.18790396527317232,
          0.6463534108532373,
          -0.0248392892605942,
          -0.5036632933322376,
          0.4719134942492581,
          0.24004369454601682,
          0.49144000877794525,
          -0.4507104689269391,
          0.17615466223942233,
          -0.0015071870676175436,
          -0.33166178444274536
        ],
        [
          0.21728517663223967,
          -0.3058028171552852,
          0.512991707605892,
          -0.4518643694634118,
          -0.5474079721466605,
          -0.6378108695097607,
          -0.6118583389385873,
          -0.20489851585785057,
          0.5267676046247779,
          0.16737927514094408,
          -0.30429034008546424,
          -0.23482096472986358,
          -0.024629339417709728,
          -0.13269281881460415,
          0.04453972010554186,
          -0.6570833173335534,
          -0.3775028722220236,
          0.6439371727396338,
          -0.19567192456931903,
          -0.2417714031745251,
          -0.5581882746012993,
          -0.4445354247130884,
          -0.5515489599802932,
          0.24819866861813222,
          0.3002465822237751,
          -0.6291258518183033,
          -0.14732216070833337,
          -0.4485443474017584,
          -0.30687343320195715,
          0.6894039346425166,
          0.5355456782530291,
          -0.4082691467064707
        ],
        [
          0.028777027873525096,
          -0.46539307823559223,
          -0.5009840964371315,
          0.1371914789936448,
          0.413336349669292,
          0.4796587783507721,
          0.2711015278532437,
          -0.32806344936580367,
          -0.706038297684293,
          0.5034584095747344,
          0.6614992205105371,
          0.6277194469010775,
          -0.6602739327442485,
          0.28760299391389765,
          -0.6123290793561248,
          0.15492862058482948,
          -0.3452963912572545,
          0.4918036924730603,
          0.3229459322368392,
          -0.6132746725393399,
          0.18533454717513653,
          -0.43997207850818204,
          -0.13078523558664423,
          0.00960252773224246,
          -0.05011049814995849,
          0.5486906867217382,
          0.25869414110726074,
          -0.00410791840715119,
          -0.0875181596858906,
          0.4777835454821805,
          0.30316209016914886,
          0.25887225934028024
        ],
        [
          -0.290212725983871,
          -0.5104623108638732,
          -0.3414623026297474,
          -0.06851477722269772,
          0.10282829272397709,
          0.537560407356484,
          0.21993902622172445,
          0.000364861775417058,
          0.12786625348996927,
          -0.40410838780112257,
          0.5021396134943209,
          -0.40738377543077436,
          -0.5415531330655555,
          -0.5685174990521729,
          0.12835937118147633,
          -0.4779486042861034,
          0.3226152044753269,
          -0.30337950295357663,
          -0.32554970200326994,
          -0.014241060870864741,
          0.5431646252095584,
          0.42794280656624106,
          -0.4818157348499774,
          -0.4746695425671569,
          0.25235968915905915,
          0.5249957914865321,
          -0.6251931109858972,
          -0.4328369949071471,
          0.1628297704038093,
          -0.34998642518695755,
          0.4127308506384394,
          0.17059030943236608
        ],
        [
          -0.3270974209524639,
          0.577703482339523,
          0.6513993801399026,
          0.053809485282020675,
          0.06818336993098617,
          -0.30844853650357396,
          -0.1034274903461847,
          0.004055175155012414,
          0.17131677399248624,
          0.1848672015544658,
          0.152374600695104,
          -0.16407299989171564,
          -0.12406022536533501,
          -0.22079821780118758,
          -0.5182318934529824,
          0.22642689559634366,
          0.2660125954826684,
          0.14755565702619544,
          0.16362292498186193,
          0.02488919168452497,
          -0.5268523924178733,
          0.41914329558813546,
          -0.3332832130857251,
          -0.6265058219243085,
          0.665509088245093,
          0.5504101957137831,
          -0.38044966453146745,
          -0.289588784799432,
          -0.5438687124542859,
          0.020734997899325536,
          -0.702937657442523,
          0.03609267033463248
        ],
        [
          0.6314757105550551,
          0.003176409220135623,
          0.5377176962485152,
          -0.4590233645393579,
          0.09303879914920965,
          -0.12015755328140987,
          -0.2762002608554595,
          -0.6524896402996547,
          -0.5569579107547675,
          0.28817378817080763,
          0.6525308514575111,
          0.017986339042448618,
          0.3580469324417316,
          -0.29003537695078396,
          -0.14926761114597187,
          0.3719209325432292,
          0.3536866279170875,
          -0.1439385614556956,
          0.4538288600303454,
          0.19357762216896224,
          -0.6687539125783978,
          0.060372199425764106,
          0.2102320346547486,
          -0.5736236431770737,
          -0.10358701714030072,
          0.20162401019926623,
          0.20730859077539598,
          -0.20940246152954933,
          -0.16980196852221985,
          -0.07904996144624443,
          -0.6521813770046716,
          -0.6061348987112967
        ],
        [
          -0.06736461239037295,
          -0.09124081355216385,
          -0.07325899179094542,
          0.4831948202972224,
          -0.5101312295500714,
          -0.4972517418497654,
          0.33186189290149815,
          0.3448544266640515,
          -0.1413297265889386,
          -0.4186614249420729,
          -0.6833421611835967,
          0.1778834494937519,
          -0.3467693370640058,
          -0.6036865269628453,
          0.03107155885488766,
          -0.11798434348695475,
          -0.3261830621606723,
          -0.7062021034704091,
          0.16527475419342197,
          0.6887787711565391,
          0.07187603923984587,
          0.25732867756125744,
          0.12226533190578148,
          0.6487043260903015,
          -0.2349952590622164,
          0.18306039135526564,
          0.6793565885889957,
          -0.3599587961597779,
          0.6148545076322708,
          0.4447682029972996,
          0.09870528082486618,
          -0.1852780617830586
        ],
        [
          -0.5983751590575751,
          0.5927177785729184,
          0.3030721339529211,
          0.24657374332815762,
          0.539875269553124,
          -0.47097576462371277,
          -0.1557716494156708,
          -0.2703627668733564,
          0.5424942154895108,
          0.5196585723421622,
          0.2510966938284418,
          -0.6781021963690417,
          0.19053220040684204,
          -0.45226061508724,
          -0.3189558553117631,
          -0.16709968267738373,
          -0.16919101238322987,
          0.18482224891647303,
          -0.6605574561280265,
          0.1403663165199749,
          0.20129476458948092,
          -0.6026313630839497,
          -0.12746583167691783,
          -0.4387541325731464,
          0.16865855481063585,
          0.4883481372112727,
          0.33096915617318234,
          -0.5881119816615086,
          0.12767699576135694,
          -0.09353050102881133,
          -0.18673497761559898,
          0.023741133474374898
        ]
      ],
      "b": [
        -0.5565811708557552,
        -0.6354041348793985,
        0.5386962061004122,
        0.001905692560479566,
        0.20700428611374988,
        -0.33448902217440746,
        -0.45024781803321967,
        -0.4281224253370366,
        0.3707972290143836,
        0.5256240618767253,
        -0.3638493882462622,
        0.20036946031915104,
        -0.26893157519473354,
        0.7006403681161982,
        0.48147722067728027,
        0.48247589657406664
      ]
    },
    "layer_2": {
      "w": [
        [
          0.3439642090970876,
          0.2812021111817089,
          0.35163201717912007,
          -0.23198813900454063,
          0.01784203277396257,
          0.22406831256374526,
          -0.42087609010905513,
          -0.11327327270115317,
          -0.6899850562098766,
          -0.38659210288541324,
          0.6040788016528387,
          0.11643531149312958,
          0.7580252305818054,
          -0.40930316085013607,
          0.08286678460034991,
          -0.254141394800003
        ],
        [
          -0.5853755491072246,
          -0.2697839718985773,
          0.6111471436058207,
          0.9839664692480081,
          -0.35646692609513153,
          -0.8757645793731326,
          0.7000610565344418,
          -0.07209581146905109,
          -0.16512960306331648,
          0.92712162064822,
          -1.1238710684056912,
          -0.27753498295982615,
          -0.003637964048187392,
          0.4395833816782231,
          -0.17580669764624413,
          0.6440870942689949
        ]
      ],
      "b": [
        -0.21230483900223962,
        0.6091037260407295
      ]
    }
  },
  "input_mask": [
    0,
    2,
    3,
    5,
    6,
    7,
    11,
    12,
    18,
    19,
    27,
    28,
    29,
    30,
    32,
    33,
    34
  ],
  "ablated_input": null,
  "ablated_value": 0.0,
  "output_param": "atan2_signed",
  "scaled_pi_n": 1.0,
  "delta_max": 0.35,
  "normalization": [
    {
      "transform": "none",
      "scale": 0.8754754,
      "center": 0.9125593
    },
    {
      "transform": "none",
      "scale": 1.443277,
      "center": -1.167222
    },
    {
      "transform": "asinh",
      "scale": 879.4982,
      "center": 0.0
    },
    {
      "transform": "asinh",
      "scale": 5180226.0,
      "center": 0.0
    },
    {
      "transform": "none",
      "scale": 1178.859,
      "center": 4534.045
    },
    {
      "transform": "asinh",
      "scale": 24.94108,
      "center": 0.0
    },
    {
      "transform": "none",
      "scale": 0.4524197,
      "center": 0.4533209
    },
    {
      "transform": "none",
      "scale": 0.4363704,
      "center": 0.4366122
    },
    {
      "transform": "none",
      "scale": 43.2429,
      "center": 82.93086
    },
    {
      "transform": "none",
      "scale": 0.1246266,
      "center": -0.0580109
    },
    {
      "transform": "none",
      "scale": 0.2803614,
      "center": 0.2875094
    },
    {
      "transform": "asinh",
      "scale": 23.67649,
      "center": 0.0
    },
    {
      "transform": "asinh",
      "scale": 7.841004,
      "center": 0.0
    },
    {
      "transform": "asinh",
      "scale": 23961200.0,
      "center": 0.0
    },
    {
      "transform": "asinh",
      "scale": 47521850.0,
      "center": 0.0
    },
    {
      "transform": "none",
      "scale": 0.5,
      "center": 0.5
    },
    {
      "transform": "none",
      "scale": 1.0,
      "center": 0.0
    },
    {
      "transform": "none",
      "scale": 808.8315,
      "center": 812.3864
    },
    {
      "transform": "asinh",
      "scale": 741.6992,
      "center": 0.0
    },
    {
      "transform": "asinh",
      "scale": 337.3053,
      "center": 0.0
    },
    {
      "transform": "none",
      "scale": 1.5707963267948966,
      "center": 1.5707963267948966
    },
    {
      "transform": "none",
      "scale": 0.1,
      "center": 0.0
    },
    {
      "transform": "none",
      "scale": 3.141592653589793,
      "center": 0.0
    },
    {
      "transform": "tanh",
      "scale": 30.0,
      "center": 0.0
    },
    {
      "transform": "tanh",
      "scale": 100.0,
      "center": 0.0
    },
    {
      "transform": "none",
      "scale": 1.0,
      "center": 0.0
    },
    {
      "transform": "none",
      "scale": 1.0,
      "center": 0.0
    },
    {
      "transform": "none",
      "scale": 1.0,
      "center": 0.0
    },
    {
      "transform": "none",
      "scale": 1.0,
      "center": 0.0
    },
    {
      "transform": "none",
      "scale": 1.0,
      "center": 0.0
    },
    {
      "transform": "none",
      "scale": 1.0,
      "center": 0.0
    },
    {
      "transform": "asinh",
      "scale": 37507.82,
      "center": 0.0
    },
    {
      "transform": "asinh",
      "scale": 1919.853,
      "center": 0.0
    },
    {
      "transform": "asinh",
      "scale": 384.6528,
      "center": 0.0
    },
    {
      "transform": "asinh",
      "scale": 348.6664,
      "center": 0.0
    }
  ]
}