{
  "format_version": 2,
  "architecture": [
    {
      "type": "dense",
      "input_size": 17,
      "output_size": 18,
      "activation": "swish"
    },
    {
      "type": "dense",
      "input_size": 18,
      "output_size": 9,
      "activation": "swish"
    },
    {
      "type": "dense",
      "input_size": 9,
      "output_size": 1,
      "activation": "tanh"
    }
  ],
  "weights": {
    "layer_0": {
      "w": [
        [
          0.28308073907117914,
          -0.6450516736240334,
          -0.8147425679666696,
          0.19553566534149347,
          0.46204397980564815,
          0.08749222051378114,
          0.6071687868632276,
          -0.40253160980088787,
          0.453276685487485,
          -0.407329573706207,
          -0.305597144341362,
          -0.3304194082587905,
          -0.29019388689632253,
          -0.4704891019005926,
          -0.42223484616847146,
          -0.48333671538291206,
          -0.8062068518951966
        ],
        [
          0.4934795791298916,
          -0.4155317439751909,
          0.463307315937902,
          0.08109312666006263,
          -0.3330147966176392,
          0.6033789150269555,
          0.7988476559850508,
          -0.36204324012175093,
          0.45340344518972686,
          0.4498255004964198,
          0.5254958707190109,
          -0.18739942213042105,
          0.7676239972401402,
          -0.7700888809660921,
          -0.38961547865958845,
          0.034692634271673795,
          -0.00326059941132828
        ],
        [
          0.3939552169183922,
          0.20705036134807986,
          -0.6668133587975293,
          -0.6495867273899268,
          -0.06277477255783703,
          0.3980293112792983,
          0.6793416900430025,
          -0.3088497043432997,
          0.23499795829030146,
          -0.6066215691626213,
          0.818282415304241,
          -0.17398966245732705,
          0.08822775166527819,
          -0.7016829330674147,
          0.39950408701951723,
          0.2965427173388564,
          -0.7942562667515078
        ],
        [
          0.12240222715300653,
          0.6820367475624347,
          -0.2739228400903685,
          -0.14467314618920168,
          0.1070600391988471,
          -0.750496426896099,
          -0.26249144212857534,
          0.22171575384621245,
          0.7912633802581814,
          0.8237794017748596,
          -0.7868470984402846,
          0.3992869244459003,
          0.6911057509825564,
          -0.4848619374724314,
          -0.2887837923500506,
          -0.7725425999628039,
          -0.8228196078559148
        ],
        [
          -0.8273552118118289,
          0.6687967838211355,
          0.5468126312628494,
          0.17377973541384706,
          -0.6812851001017693,
          -0.17191009250911715,
          -0.7024900647178977,
          0.27278531495354263,
          -0.7505743166596747,
          -0.6694680534263422,
          0.3932465804240113,
          -0.6895879078131678,
          0.4881766146109632,
          -0.5751843167836526,
          -0.11635199339463531,
          0.007666028919857348,
          -0.6255807125230934
        ],
        [
          -0.43068456418548406,
          0.4390845257331961,
          0.26933317906926657,
          0.42560233270788084,
          0.3184046135293903,
          0.8213935670490022,
          -0.6210021955206277,
          0.7506047441384764,
          -0.7815688676761723,
          0.46929667587266355,
          0.6537347764279857,
          0.29045216643454674,
          -0.16304508107899518,
          0.03140813174912094,
          -0.25161684129431006,
          -0.7022647395676742,
          0.15968302270222068
        ],
        [
          0.5155997824927554,
          -0.13192043269501175,
          -0.012611859639375833,
          -0.5372700082276056,
          0.635990441660903,
          -0.47436783837086605,
          -0.3966944570001928,
          -0.13915735514025784,
          -0.6676995396777409,
          0.8128140732717499,
          -0.28727681259232607,
          -0.19609197749861185,
          -0.21807638062086876,
          0.6421797090432517,
          -0.5115442359576223,
          0.20069169251576224,
          -0.6022761135691883
        ],
        [
          -0.5316338991063805,
          -0.8254137886429048,
          -0.3500184725154704,
          -0.4416196734957324,
          0.581496079088458,
          -0.34921025066398365,
          -0.3154499304212378,
          0.701814273548292,
          0.4877882961591422,
          -0.4564965531010143,
          -0.5792598607384297,
          -0.26448822767912306,
          0.1587444294271657,
          -0.07603841295593594,
          -0.27618327485287464,
          -0.02211529774111587,
          0.007371474364034847
        ],
        [
          0.03606768665996629,
          -0.7204252413604019,
          -0.5208346146162903,
          0.497380882272894,
          -0.7417264040182726,
          0.02887714497976268,
          -0.15976177897764587,
          -0.7954237437472703,
          -0.46479296593488884,
          0.4612335590891692,
          0.21907485951606653,
          -0.4175094730093162,
          -0.013352887956930015,
          0.4112327244767495,
          0.3035448403963248,
          -0.19882322526690344,
          0.2502426019797499
        ],
        [
          -0.46639836024901576,
          0.12375475650779388,
          0.35555982915976236,
          -0.7102888078519534,
          0.8279365483237255,
          -0.6066233601324769,
          -0.8265302566363958,
          0.4272371602784286,
          0.5894268471161477,
          -0.543722827900861,
          -0.06044077688808158,
          -0.7133593506000194,
          0.007832949988894056,
          0.5663273287173811,
          0.005674704984611645,
          -0.32232363861833,
          0.7250497849284787
        ],
        [
          0.6581824932838798,
          -0.3428484746009363,
          0.4527364449519533,
          -0.30613678118373666,
          0.36298011507379235,
          -0.16475912135196968,
          0.47855640187477566,
          0.7662647026162961,
          0.8204215681192588,
          0.6070880297218213,
          -0.43640214422695905,
          -0.5962965063725978,
          -0.41502716462535866,
          0.36918925944819003,
          -0.6875866413276548,
          -0.5464031456785724,
          0.8139999245043033
        ],
        [
          -0.2812546833845283,
          0.22018030794542764,
          -0.326517507594852,
          -0.7595042968180206,
          0.5013639530830458,
          0.26595720383074495,
          0.10006137740341503,
          -0.8172737193592754,
          -0.23884986266036579,
          -0.8184445683137971,
          0.4973876980814529,
          0.2853444747446694,
          -0.4153405076597108,
          -0.2796830782228944,
          -0.27297536146724644,
          -0.5787882325984002,
          -0.25231973400175767
        ],
        [
          -0.4733193742896549,
          -0.28326571645777154,
          0.17803043668046015,
          0.16805010956833455,
          -0.025781902553265845,
          0.7767162170896726,
          -0.46441779698237234,
          0.2349896541295733,
          0.0211490268161445,
          0.19392154989393884,
          -0.24344527535890503,
          -0.5444191821459868,
          -0.6403927220410128,
          0.11910784283938214,
          0.48097936928011253,
          0.7964558900811356,
          0.8223820991748292
        ],
        [
          0.6202201517214438,
          -0.04355530083188497,
          -0.39662155804906635,
          -0.49134367740192847,
          -0.5936308480924567,
          -0.13851157942230896,
          -0.18295946338891045,
          -0.5578384964217817,
          -0.5653100794099165,
          0.14841010534953714,
          -0.16574123829347176,
          0.27458207656583333,
          0.30226844182219836,
          0.37235486788577177,
          -0.33010837915664215,
          -0.4060493343726755,
          -0.21986230462537482
        ],
        [
          0.6944668151087359,
          0.5664103229698425,
          0.7005591000198452,
          -0.3388137924791982,
          0.33519258525748374,
          -0.6275589821115759,
          -0.6447209337040264,
          0.6652089361840685,
          0.16485891537967468,
          -0.819500133068203,
          0.39114110493242915,
          -0.6626609911725834,
          -0.8085082488560696,
          -0.5870669461648493,
          -0.5699629939719819,
          -0.4760255606555757,
          0.6100670007492821
        ],
        [
          -0.49909401722864133,
          -0.39132508238084934,
          -0.7033449122952814,
          0.06606867215574352,
          0.5563488098640028,
          -0.14351657363951298,
          -0.34801845703025824,
          -0.20856526830289657,
          0.33819803410626426,
          0.22227822266643993,
          -0.8113003318151353,
          -0.40897200619295115,
          -0.6494064359664498,
          0.6715442685648483,
          0.8230967611407911,
          0.5797445920851303,
          0.660243154057111
        ],
        [
          -0.025135255435112636,
          0.6778329982964946,
          0.7873802457811738,
          -0.7529003796511822,
          0.402528972941677,
          0.4709253073001851,
          -0.20794302742161874,
          0.14378150270400225,
          0.6918738524786763,
          0.1890551208899507,
          -0.3965379083536765,
          -0.7278358914980776,
          0.6828475841104933,
          0.08735385916222171,
          -0.13680224045211797,
          0.825007422058817,
          -0.3998042841273502
        ],
        [
          0.13141522928389282,
          0.21707248872043694,
          -0.3514811606687978,
          -0.11575927023718502,
          0.12438488946227,
          0.7359986227664088,
          -0.6115837082942965,
          -0.5503949055456532,
          -0.5366393445847195,
          -0.0029684252351391827,
          -0.5928311603045592,
          -0.28601425382184487,
          0.2766809254271714,
          0.3070598752297613,
          -0.661551447807404,
          0.12434704944291564,
          0.8173628666957513
        ]
      ],
      "b": [
        0.501212517221223,
        -0.026450919020312824,
        0.7888716840654963,
        0.01729485732883329,
        -0.5973761046241972,
        -0.42663386377529494,
        0.4649993270707633,
        -0.4617600006416904,
        -0.8018252526302054,
        0.2516815256660836,
        -0.42298452454929136,
        0.12454716801193533,
        -0.7983367792278548,
        0.04387371360239867,
        0.4771105457864564,
        0.5867294793978264,
        0.05588390155232592,
        0.26970260290215076
      ]
    },
    "layer_1": {
      "w": [
        [
          -0.05990731315764686,
          0.8648553174820159,
          0.5220457718103697,
          0.44141396341629613,
          -0.744553284374486,
          -0.6122971588692687,
          0.9138870858599155,
          -0.3687240939448626,
          0.18938976593150758,
          -0.9145155143471853,
          -0.3556585193594952,
          -0.3421670676840666,
          0.12996136878215503,
          0.9312305647480994,
          0.307881429140739,
          -0.049592856096057125,
          -0.512372535665377,
          0.19517957021450427
        ],
        [
          0.01746883788374065,
          0.5371919291296368,
          0.5383568083020491,
          0.9284928351213348,
          -0.3676683919044049,
          0.8925198499065954,
          -0.6242349944835841,
          -0.3200810108935541,
          -0.5281121862168696,
          -0.9392578495585934,
          -0.16045005169647608,
          -0.9301977033946196,
          0.1430175845434678,
          0.4593531354755791,
          -0.40305297473416435,
          -0.6701478705112978,
          0.08886679217939841,
          0.2424076506128967
        ],
        [
          -0.7095671940417072,
          0.853977987768006,
          -0.34705958993084685,
          -0.7273701033218969,
          0.7237326636482244,
          -0.9078841971633183,
          -0.6926327960222329,
          0.8937416909826053,
          0.7403909371426554,
          -0.33548658633551953,
          -0.4568515754606378,
          -0.4768470321655322,
          0.8355482960727725,
          0.7971476164120899,
          -0.09721843175813194,
          0.37904059131356105,
          -0.6464195145887233,
          -0.06455200087968527
        ],
        [
          0.3215379428109293,
          0.8940440339507973,
          0.937874052657365,
          0.26933149091992736,
          -0.5985739326298887,
          -0.005275732991827153,
          -0.4824550701339816,
          -0.27667778491394,
          -0.26822164836278817,
          -0.25518752402830847,
          -0.49128620767981285,
          -0.8411265548901585,
          -0.23466484333558058,
          -0.13590848215338414,
          0.06846162430210367,
          0.23481884530393993,
          -0.6497480138220348,
          -0.251912938414397
        ],
        [
          -0.39124547896246753,
          0.6171801061605375,
          -0.09108234182786679,
          -0.7469814621613781,
          -0.5266586295584081,
          0.6941086355056669,
          -0.6885128353806493,
          0.3940041058607604,
          0.8883966967112424,
          0.5622471288848352,
          -0.004470724786351243,
          -0.7363310215993897,
          0.08853530200223925,
          -0.3256398313751485,
          -0.5076586519547166,
          0.5578554330429568,
          -0.6266266041206006,
          -0.720301025959754
        ],
        [
          0.08579731631710863,
          -0.4338028943584151,
          0.39278783627566694,
          -0.3450608013326196,
          -0.9344177521450415,
          -0.12001643511291737,
          -0.20429006779374226,
          0.6581383684213207,
          0.03581148703764003,
          0.23179681544069508,
          -0.48102302891537363,
          0.4322651778333102,
          0.42376658454327343,
          0.7323268195812265,
          -0.6501365711625361,
          0.8089553748867022,
          -0.26503400734882154,
          -0.5944403587026531
        ],
        [
          -0.2612061869989879,
          -0.38314423569082245,
          0.5845793052342882,
          -0.1687402027506587,
          -0.5173014797502539,
          0.4997834596288828,
          0.19978264612031404,
          0.5800380198342006,
          -0.08369534894356201,
          -0.8411157371362151,
          0.46492231640199155,
          -0.2877119161688424,
          -0.19591618516197662,
          0.2892488856845685,
          0.6840263732365932,
          -0.02007984309283728,
          -0.9314012584173764,
          -0.3676265443394737
        ],
        [
          0.8049996704113407,
          -0.6298146995605219,
          -0.4308705993511399,
          0.889139331728042,
          0.017549690742955648,
          -0.676705363301634,
          0.9113160208623476,
          -0.3602115555105422,
          -0.37545523303047934,
          -0.8807898312807082,
          0.047962872628516506,
          -0.7590018319459648,
          0.7788933067954253,
          0.850775694277617,
          -0.9412737278546519,
          0.2752810682936866,
          -0.8919158192812977,
          -0.9332672450100223
        ],
        [
          -0.48035292489665204,
          -0.013071533627293519,
          0.8335681762548313,
          0.8494268108382006,
          0.1893766238833101,
          -0.3548572549008555,
          -0.6536669659013522,
          -0.3691908575774454,
          -0.19868243305639133,
          0.45912966074272643,
          -0.875502237268224,
          -0.30145819685980646,
          0.3088578417533556,
          0.5813846034810137,
          -0.13201946473780002,
          -0.45355326903462634,
          -0.3140154850791558,
          -0.9247250195327336
        ]
      ],
      "b": [
        0.7243459597618722,
        0.06216107213791244,
        0.4713439200446341,
        -0.19564964108206395,
        0.22070410032905263,
        -0.06117427109312179,
        -0.4918555903349498,
        0.15685621431822327,
        -0.4803393756779443
      ]
    },
    "layer_2": {
      "w": [
        [
          -0.16993577559554685,
          -0.25631855134891723,
          1.173178106548423,
          -0.603994796860006,
          -0.6211833429486074,
          0.7733762658185337,
          0.48067436215597326,
          0.02775935302822674,
          1.1054851099456773
        ]
      ],
      "b": [
        0.42616995705910865
      ]
    }
  },
  "input_mask": [
    0,
    2,
    3,
    5,
    6,
    7,
    11,
    12,
    18,
    19,
    27,
    28,
    29,
    30,
    32,
    33,
    34
  ],
  "ablated_input": null,
  "ablated_value": 0.0,
  "output_param": "delta",
  "scaled_pi_n": 1.0,
  "delta_max": 0.35,
  "normalization": [
    {
      "transform": "none",
      "scale": 0.8655390346546353,
      "center": 0.9204641308303162
    },
    {
      "transform": "asinh",
      "scale": 0.8175600848274288,
      "center": 0.8867681772014051
    },
    {
      "transform": "asinh",
      "scale": 462.6300273768903,
      "center": -333.1697854608212
    },
    {
      "transform": "none",
      "scale": 5413222.0902614985,
      "center": -508770.60939412704
    },
    {
      "transform": "none",
      "scale": 1157.3507227945558,
      "center": 4549.679429911598
    },
    {
      "transform": "asinh",
      "scale": 10.358129862795693,
      "center": 12.17320223341297
    },
    {
      "transform": "asinh",
      "scale": 0.33924629426269115,
      "center": 0.40005844701414567
    },
    {
      "transform": "none",
      "scale": 0.42411593596120784,
      "center": 0.42858041580763234
    },
    {
      "transform": "asinh",
      "scale": 33.09832239288295,
      "center": 82.65759631477488
    },
    {
      "transform": "asinh",
      "scale": 0.0911362193061205,
      "center": -0.04718278665783951
    },
    {
      "transform": "asinh",
      "scale": 0.2151370816795333,
      "center": 0.29274513397808116
    },
    {
      "transform": "asinh",
      "scale": 9.832939972853932,
      "center": 11.55598244317186
    },
    {
      "transform": "asinh",
      "scale": 3.256400734674897,
      "center": 3.827025266270693
    },
    {
      "transform": "asinh",
      "scale": 5107742.117847206,
      "center": -3590633.2113008387
    },
    {
      "transform": "asinh",
      "scale": 10217099.16686349,
      "center": -6706141.091617538
    },
    {
      "transform": "none",
      "scale": 0.5,
      "center": 0.5
    },
    {
      "transform": "none",
      "scale": 1e-6,
      "center": 0.4262529995153208
    },
    {
      "transform": "asinh",
      "scale": 594.4827404994671,
      "center": 716.3429422450554
    },
    {
      "transform": "asinh",
      "scale": 412.89140647256187,
      "center": -302.7939124482325
    },
    {
      "transform": "asinh",
      "scale": 154.12675819494976,
      "center": -169.7611160606572
    },
    {
      "transform": "none",
      "scale": 1.5707963267948966,
      "center": 1.5707963267948966
    },
    {
      "transform": "none",
      "scale": 0.1,
      "center": 0.0
    },
    {
      "transform": "none",
      "scale": 3.141592653589793,
      "center": 0.0
    },
    {
      "transform": "tanh",
      "scale": 30.0,
      "center": 0.0
    },
    {
      "transform": "tanh",
      "scale": 100.0,
      "center": 0.0
    },
    {
      "transform": "none",
      "scale": 1.0,
      "center": 0.0
    },
    {
      "transform": "none",
      "scale": 1.0,
      "center": 0.0
    },
    {
      "transform": "none",
      "scale": 1.0,
      "center": 0.0
    },
    {
      "transform": "none",
      "scale": 1.0,
      "center": 0.0
    },
    {
      "transform": "none",
      "scale": 1.0,
      "center": 0.0
    },
    {
      "transform": "none",
      "scale": 1.0,
      "center": 0.0
    },
    {
      "transform": "asinh",
      "scale": 17774.23743300369,
      "center": 20521.130577512882
    },
    {
      "transform": "asinh",
      "scale": 500.0,
      "center": 500.0
    },
    {
      "transform": "none",
      "scale": 60.0,
      "center": 60.0
    },
    {
      "transform": "none",
      "scale": 100.0,
      "center": 0.0
    }
  ]
}