{
  "format_version": 2,
  "architecture": [
    {
      "type": "dense",
      "input_size": 17,
      "output_size": 32,
      "activation": "swish"
    },
    {
      "type": "dense",
      "input_size": 32,
      "output_size": 16,
      "activation": "swish"
    },
    {
      "type": "dense",
      "input_size": 16,
      "output_size": 2,
      "activation": "asinh"
    }
  ],
  "weights": {
    "layer_0": {
      "w": [
        [
          -0.5013844118007516,
          0.0942653347631226,
          0.3669041420292041,
          0.43016486291016864,
          0.28227702215655215,
          0.4072847242006379,
          -0.006747493456006115,
          -0.1730176009217974,
          0.37066253790288495,
          -0.18421959141682787,
          -0.020314564250542566,
          -0.669266433267953,
          0.1658665333558973,
          0.08124361776368016,
          0.4123512359100896,
          0.30332543639170884,
          -0.6556762695280604
        ],
        [
          0.1140837100453399,
          0.13031775107802235,
          -0.048930811354382486,
          -0.5928680554334976,
          0.692845866925478,
          0.4486112311556407,
          -0.5129867675460015,
          0.4367839191584788,
          -0.3677718911912966,
          0.31317707322957444,
          0.12745381814902357,
          -0.06884074969102016,
          0.4168589075371334,
          -0.09794655360898907,
          0.08674346793973708,
          0.508242611667731,
          -0.6023364530943847
        ],
        [
          -0.40313689646792245,
          0.46862907680055765,
          -0.5638038055771721,
          0.5980116760818452,
          -0.39799176493713967,
          -0.03308141454295621,
          -0.5801786714943947,
          -0.43474967623360417,
          -0.5672315359617961,
          0.5212647508027917,
          0.08583200846702399,
          0.5852825790817451,
          0.685219123289317,
          -0.4427400692774187,
          -0.564816247299609,
          0.16851709881411958,
          0.5540672645240639
        ],
        [
          -0.1280177787638942,
          -0.45335931991804096,
          -0.4355829259587023,
          0.5502015237924871,
          0.2633633500474174,
          0.45451176625138556,
          0.044886463813217814,
          0.4348911481319804,
          0.31997519248380457,
          -0.3925233224465017,
          -0.05263757977555705,
          0.678893863420382,
          0.2715200642807065,
          -0.30018316488499946,
          -0.6850162893156742,
          0.32024415671538775,
          -0.48061109329976626
        ],
        [
          0.07865701907796963,
          0.3639015856492447,
          -0.14835443894045064,
          0.48900451916465215,
          0.14740581813193931,
          0.2890356735446672,
          -0.47118242813103484,
          -0.5876039772147896,
          -0.6477784873984946,
          -0.05355654578624802,
          0.33288954864929243,
          -0.6339691903860035,
          -0.16069686315298448,
          0.5228546920043053,
          -0.5632448169658893,
          0.5420774684174297,
          0.04581856439434884
        ],
        [
          -0.3675595278262564,
          -0.3896045157999727,
          0.1267037732306039,
          -0.44065446640236006,
          -0.561300120365869,
          0.5028239965699914,
          -0.5354439352660402,
          -0.2683000998892389,
          -0.6429900773481642,
          -0.22227023942991858,
          0.36165439461320514,
          0.2924453611739225,
          -0.31306887171107056,
          -0.5060991897330047,
          -0.4597104023580799,
          -0.29787597329791154,
          -0.026442357221991508
        ],
        [
          0.41719384483150224,
          -0.6461863890456252,
          -0.2746545657794647,
          0.04196852637747339,
          -0.4935023904118776,
          0.5413845470151346,
          0.5303201655164305,
          -0.5921424481139813,
          0.5603384400960123,
          -0.22288761784464017,
          0.4726653468120725,
          -0.3918123581677009,
          0.1582744873698284,
          0.3222620588025462,
          -0.6575618535017627,
          0.3564374799021106,
          -0.1771567212777727
        ],
        [
          -0.6130881478847443,
          0.47939290844727034,
          -0.49768326347351766,
          -0.014017559889945463,
          -0.25468966018400324,
          -0.4872356619816601,
          -0.043629628163720624,
          0.6679964557029039,
          -0.14688946716761964,
          -0.0428729390927961,
          0.19525573370609017,
          -0.29006187626801216,
          0.137054867589267,
          0.007988224357287299,
          -0.1979385143279424,
          -0.37307710222816903,
          -0.06039533684111131
        ],
        [
          0.2445552946977262,
          0.6931021073665893,
          -0.6727697376968876,
          -0.08449718295061637,
          -0.03510021051712675,
          -0.1278727288213809,
          0.28243135514066586,
          -0.12912400254428646,
          -0.4575984278168267,
          0.6322308780938009,
          -0.18221429855591664,
          0.21804251201783598,
          -0.5168572377855618,
          -0.003143225539653849,
          -0.46386108808399007,
          0.38248129556920385,
          -0.24692748903131162
        ],
        [
          -0.11000681170627724,
          -0.43918804704621817,
          0.1449196933633511,
          -0.11852091635561435,
          -0.333630065335189,
          -0.34536437872678044,
          0.5991301211234545,
          0.5061714954702479,
          0.14347739211640598,
          0.11014964441370423,
          0.21495180340592457,
          0.3796364775288521,
          -0.20025803770018152,
          -0.32201230894927113,
          -0.6268612616983397,
          -0.6320214413076259,
          0.6109576339654617
        ],
        [
          -0.5766583257635494,
          0.2341665943439728,
          0.2721390283767028,
          0.3152065481161124,
          0.6477244356253118,
          -0.40546532564747007,
          -0.4072031745865518,
          0.5766630034972837,
          0.20784683603709952,
          -0.16420246078272893,
          -0.2952620141408489,
          -0.6347529360727576,
          -0.00651084469487917,
          0.14029199587811614,
          -0.5102774647239227,
          0.07661423702176973,
          -0.08895928570876988
        ],
        [
          -0.6709040998233978,
          0.640285311968013,
          0.24194850170281834,
          -0.03794448184251753,
          -0.07701543432321034,
          0.17607773337361543,
          0.30372099284318566,
          0.27634800923013203,
          0.412531624651727,
          -0.13947111770298803,
          -0.4558081554720814,
          0.027001135229381634,
          -0.6494169187858047,
          -0.016648629064325293,
          -0.1722103830316255,
          -0.3422311530029166,
          0.24774489416734435
        ],
        [
          -0.05977977307204596,
          0.23401219483169888,
          0.14461866975151272,
          0.13824511443034815,
          -0.5740479114167465,
          0.30330990172161587,
          -0.6118994368031183,
          -0.5654487873821479,
          -0.13857261093887163,
          -0.162404585914096,
          -0.0643392846933386,
          -0.18362002058924964,
          -0.6362518783843196,
          -0.17447161563526647,
          -0.006944537622851854,
          -0.6951398739401076,
          -0.18372888779637353
        ],
        [
          0.32284439850790925,
          0.07825056820584764,
          -0.602930878434632,
          -0.32228450767702777,
          -0.0016511212611258763,
          -0.27200290433759694,
          0.38940171143440017,
          -0.09299904053194308,
          -0.19850931414646455,
          0.6478808055475138,
          -0.13393671114557593,
          0.2811528450487857,
          -0.6757151545712309,
          0.3586793135333526,
          0.4109980370966264,
          -0.4822361333930963,
          -0.20394914627983846
        ],
        [
          0.38382969356209085,
          -0.24784189521038213,
          -0.37963755355245543,
          0.24494584037273004,
          -0.35385655929361015,
          0.5268952973727712,
          -0.12641375153522438,
          0.3367322667527497,
          0.04745755338768043,
          0.31880479363875236,
          0.41306543231801207,
          -0.2883093102577001,
          0.25930787917475573,
          0.14102766895340402,
          0.24496026984323926,
          0.6837937173963828,
          0.07703957686500018
        ],
        [
          -0.025756133804363257,
          -0.1883449138779244,
          0.49829448398652176,
          0.5377793523931953,
          0.18675772302267768,
          0.12176683270930377,
          -0.07876173804285591,
          0.2528235521241389,
          -0.6522561008193851,
          0.41585473843800824,
          0.41581154699475786,
          0.06136636092051895,
          -0.09783525989060315,
          0.0421828981712572,
          0.38120907266527015,
          0.3440474126979247,
          -0.5289707005579216
        ],
        [
          0.39113200554791483,
          -0.23149282522738918,
          0.16885107325791793,
          0.09399204329709865,
          -0.14248770221852725,
          -0.426831132337618,
          -0.03402795407199677,
          0.016224839975967464,
          0.4217818496382393,
          -0.38522529447954224,
          -0.14122092301422484,
          0.5907935464208531,
          -0.5541129158367275,
          0.24507685624433806,
          -0.37070306183451895,
          0.011092205701306868,
          0.5246570029247688
        ],
        [
          0.35054104690232313,
          -0.3283643766100792,
          0.056440986752721356,
          -0.4816233485031353,
          0.2779820301166469,
          0.3970635995969576,
          -0.5125105461187824,
          0.355841501119333,
          -0.3607013475278871,
          -0.4388591666003612,
          -0.3491034401805874,
          0.6259861061074203,
          0.5479744100461048,
          -0.5317793298758665,
          0.19926029876490403,
          -0.3351426768946349,
          -0.5353688638964444
        ],
        [
          0.4034541589857139,
          0.5406037308507983,
          0.33687711007429333,
          -0.03333161999004186,
          0.183714600151894,
          -0.384030216156185,
          -0.35603882043269286,
          0.11985890364232421,
          -0.5887434435815947,
          -0.49395257520508706,
          0.3350425522132694,
          0.005692011641922123,
          -0.38187222289299455,
          0.014735941593631341,
          0.32707457124970074,
          -0.32446881742408973,
          -0.22126988485459165
        ],
        [
          -0.3660571018697528,
          -0.0423705169313211,
          0.11897880972444597,
          0.09029529851213347,
          0.3539698233177979,
          -0.49461682584416716,
          -0.3748663916098526,
          0.3659176104353872,
          0.38082701280903875,
          0.28004484521822937,
          -0.15885967221383646,
          -0.4668367185062081,
          0.02309344518736578,
          -0.1057716864031476,
          -0.4219245946131264,
          0.19473509157221447,
          0.42611980326514276
        ],
        [
          0.6531020780370551,
          0.30877609429053265,
          -0.4624223728300578,
          -0.2404048106734039,
          -0.1499071451524029,
          -0.2835403967374763,
          -0.6598352443165718,
          0.1931913840963363,
          0.4711083890417096,
          0.6571013213990291,
          -0.4525203416514967,
          0.1429516235758791,
          -0.4984246778978777,
          -0.6585888115829918,
          0.37194052289227675,
          -0.1885606386521056,
          0.6560570986273886
        ],
        [
          0.5090397405637583,
          -0.4653560324147239,
          -0.16302950191832644,
          -0.05690807180034174,
          0.045466554878989984,
          -0.12992806678656432,
          -0.02791284978164077,
          0.10211809265432514,
          0.5956106268834698,
          0.3955657737773033,
          -0.4867312032943094,
          0.393927828763319,
          -0.21556429699437085,
          -0.05973872269167135,
          0.4465565018558091,
          -0.050210821381760584,
          -0.09821885790175333
        ],
        [
          -0.6752769705484156,
          0.5348334531744827,
          0.42059663331614683,
          0.392439516144341,
          -0.2407860504437488,
          -0.25964504397030863,
          -0.5858202110340178,
          0.5794681464439531,
          0.07378964131862054,
          -0.6455002898793307,
          0.41828556445628684,
          -0.6086115549006119,
          -0.23590008719586547,
          0.2114530454167759,
          0.636705936662818,
          -0.6308991811062674,
          0.15213928781373565
        ],
        [
          0.6024255000373646,
          -0.6591251821391209,
          0.12183486722099734,
          -0.022960848975162373,
          -0.029484681672485413,
          -0.0183186510248603,
          0.11846780664568923,
          0.3494981447661645,
          -0.5796071913462403,
          0.4421359060008847,
          -0.08707023137715075,
          0.020611336157528415,
          -0.11248579105360479,
          -0.44032627318818457,
          0.6033112235825877,
          0.48363512319455393,
          0.0693148485663414
        ],
        [
          -0.6947160583532322,
          -0.250182830964034,
          -0.35709814055790107,
          0.24888210345996553,
          -0.2727277481626904,
          0.1281528961123658,
          -0.07206365528034675,
          -0.48872554317566175,
          -0.1981042960122833,
          -0.3054145041137222,
          -0.05654289781982247,
          -0.41374871449778994,
          0.21853123398535845,
          0.35011648843782206,
          0.5877689176522745,
          0.5472896670113847,
          0.11697604412817408
        ],
        [
          -0.05282547360326251,
          -0.0009358663999033956,
          0.25693492011680763,
          0.41796398870013984,
          0.19153002083791337,
          0.32376538509106423,
          -0.42133878949387377,
          0.1149625805206822,
          -0.03185724282440905,
          -0.4668714900832388,
          0.14508776289520042,
          0.4062905046357821,
          -0.23257015669247538,
          0.5487736039334765,
          0.0572801813439916,
          -0.3205221708025843,
          -0.04831242095869026
        ],
        [
          -0.04681313474742377,
          0.06121828100604099,
          -0.6033389058083202,
          0.19300170183041998,
          0.5652136627079305,
          0.2515519527559331,
          0.4304631957479885,
          0.3757995259672562,
          -0.00810907217713508,
          -0.3795599784848454,
          -0.1498643009810584,
          0.2664406553848967,
          -0.28212574149742564,
          -0.4946541414249396,
          -0.14251936859251657,
          -0.29232397378717245,
          -0.583133890774914
        ],
        [
          -0.4428595757516114,
          -0.2418427383573979,
          0.3401984013521371,
          0.3272110926731777,
          0.0358553511901738,
          0.2446840662292401,
          -0.6184850163331117,
          0.23543977310196662,
          0.6551054516389847,
          -0.3632895239791707,
          0.19683396390640273,
          -0.1272707549560319,
          -0.0883323705932817,
          0.2162978448171986,
          -0.32461364012642036,
          -0.5833493140734974,
          -0.5853516112501084
        ],
        [
          0.3193605801089918,
          0.32422775785947033,
          -0.025791321782113963,
          0.40708211630563507,
          0.6157096070248265,
          0.48819825698864605,
          -0.1499784782566197,
          -0.48047769187262845,
          0.5819627058258279,
          -0.17831879802422557,
          0.12026455903949851,
          -0.4679381194754114,
          0.6043648599655722,
          -0.5973290770012196,
          -0.2982231296153504,
          -0.2194264922183719,
          -0.09515008546707926
        ],
        [
          -0.584448296624337,
          0.3180095943139609,
          0.5622887116499078,
          -0.4688451792539507,
          0.6823818238321677,
          -0.37815890819739745,
          -0.1442918195350772,
          -0.4683121752131959,
          -0.5367473931534512,
          0.2666297022362679,
          0.33081172065826947,
          0.6877174225844092,
          0.35544547726042985,
          -0.5959822441273602,
          0.6212783150695307,
          0.20960551185540344,
          -0.019664597399987604
        ],
        [
          0.15783877392318402,
          -0.2767896645545134,
          -0.02302695535039534,
          -0.568040949861047,
          0.614890868579123,
          0.6067382489699304,
          -0.4639861751065552,
          -0.17800795981191375,
          0.3556621352982783,
          -0.11647654398801299,
          -0.0024838222247023367,
          0.40183178710087497,
          -0.6140751375713878,
          -0.6845895553788708,
          0.2763237017873469,
          -0.05599809183643001,
          -0.06537519993910668
        ],
        [
          0.5920210837921354,
          0.1965940544953082,
          0.4625309324764213,
          -0.5411005245507752,
          0.18006339047414777,
          0.37682743216124526,
          0.32502800312935376,
          0.621469332041134,
          0.01404091240825589,
          0.06069246016282637,
          -0.14187583197573295,
          0.17609183620273472,
          0.644363101110637,
          -0.5475678558466145,
          -0.3362480137892348,
          -0.3702689953334344,
          -0.553561409670666
        ]
      ],
      "b": [
        0.18910964010946685,
        0.3570561285745051,
        0.476419422133459,
        0.14507331795538914,
        0.3290232040601706,
        0.6147508039791469,
        -0.608819264932076,
        0.03962673462734445,
        -0.5155122595032644,
        0.4516222065438966,
        -0.07483905132869373,
        0.5763079252608325,
        0.6820529324690778,
        -0.6152154218282612,
        -0.3039582590663688,
        -0.2729258393119655,
        0.5610706342111738,
        0.0994983104593481,
        0.693276136621515,
        0.06548198784760617,
        -0.15981458440939933,
        0.059303950831173124,
        0.4761231640212249,
        -0.14759282773839288,
        0.4012182493746115,
        -0.32289096121605004,
        -0.27207561176497286,
        0.6514795644773788,
        -0.4805848742559069,
        -0.36996744832420847,
        -0.5226323483547096,
        0.5031240411758591
      ]
    },
    "layer_1": {
      "w": [
        [
          0.31068952609230827,
          -0.2055318512260127,
          0.5779610153296214,
          -0.0629220274376151,
          0.08613316042507901,
          -0.5305543605154008,
          0.5170817737480248,
          0.13823458203157146,
          -0.34266432153281595,
          0.023403754401046917,
          -0.3185061376265334,
          0.30799457947132314,
          0.4060011520319272,
          0.16565815702030118,
          0.4776898077032993,
          -0.02856166360551493,
          -0.5309896989151557,
          -0.6631643889606048,
          -0.353154592854073,
          -0.5858296852950844,
          0.04572418277576762,
          0.23996082595804324,
          -0.20671074093675534,
          0.3974836517216961,
          -0.6585513539257934,
          -0.46176026243098744,
          0.08971904682330656,
          0.0010227782199686564,
          -0.11970185611061424,
          0.5867453390154694,
          -0.6766605522442202,
          0.3091540373813727
        ],
        [
          -0.0821492243888976,
          0.4434014782560728,
          -0.030562496826681662,
          -0.16588778218393885,
          -0.0004887422735322389,
          -0.46258694253330535,
          0.20921553048799257,
          0.4247948121908679,
          0.5167318856781308,
          0.5304587259085475,
          -0.35930546018648507,
          0.4553543486132644,
          0.032953177528588506,
          -0.5023597873066323,
          -0.29545340470953624,
          -0.034439125079300026,
          -0.5139253666799237,
          -0.6712635238024072,
          0.12736361724602907,
          0.33520110295695316,
          0.1544445433131021,
          -0.12591367734248804,
          0.040133105787440115,
          -0.5015742674027038,
          -0.21183917290173626,
          -0.361940633966357,
          0.41613515190363326,
          -0.08726886673542278,
          0.21077297100952075,
          -0.45655341254809223,
          0.43463667883318136,
          0.5276781156877092
        ],
        [
          -0.4589264366033688,
          0.5405287569755187,
          0.095605390217544,
          -0.6666531617369394,
          0.19088071041091736,
          -0.4756245017126891,
          -0.16054367141531423,
          0.5596686448114591,
          -0.2857234153930559,
          -0.3267820607762781,
          0.5632605794309581,
          -0.6817196880518218,
          -0.14075100761329973,
          0.5916861883739525,
          -0.04925799138125109,
          0.5130591688694953,
          0.2874892250568999,
          -0.6512567058158213,
          -0.2490836362303206,
          0.2859471868672514,
          -0.20169940654074747,
          -0.19974488911165467,
          0.3290004030038537,
          0.07117145954638171,
          0.6593997844528056,
          -0.5400197957744708,
          0.07806481989885161,
          -0.29370769983721284,
          0.06565539296680256,
          -0.6192570366452442,
          0.5929000152757286,
          0.4162552335129127
        ],
        [
          -0.5900727744201386,
          -0.0667354030680386,
          0.6069788134461701,
          0.0580506742971586,
          0.4529251585529833,
          0.5683800593493374,
          -0.42454832264738984,
          0.5189900971782079,
          0.5096616441606957,
          0.0024676574116079264,
          -0.48151072101406595,
          0.11681257989674942,
          0.29713326400860984,
          -0.1573093564131155,
          0.12407165134137177,
          -0.00825596857768629,
          0.5538140911930692,
          0.08467345353670419,
          -0.595481232388726,
          0.1724393391725454,
          0.21774933140668706,
          -0.35659105378013034,
          0.2583568567427945,
          -0.19861619550916598,
          0.5284430402335122,
          0.059554820268536424,
          -0.12945357041980066,
          -0.3313329914112824,
          -0.6885216094641292,
          -0.07562786242870334,
          -0.4123791460594539,
          -0.5713310494739147
        ],
        [
          0.4331209859491668,
          0.18020511822101937,
          -0.5628274951525984,
          -0.31619603916630595,
          -0.18427846594157926,
          0.5407511603533911,
          0.47227974919731086,
          0.2961616895753053,
          0.13902413741910868,
          -0.6015070871675526,
          -0.058661914015288974,
          0.036615044252346074,
          0.07087784397702912,
          0.034181799422983716,
          -0.24621814072770964,
          -0.46604265005807677,
          0.5718776255167145,
          -0.343101786140002,
          0.4338568248863791,
          -0.39782080620137994,
          0.17874562949470263,
          0.28288277469157574,
          0.21834252830861967,
          -0.3133384552988445,
          -0.18377364601867918,
          -0.18390820768986038,
          0.3731135535715143,
          0.47010385004085486,
          0.18920791215501453,
          -0.13552538151737448,
          0.5871571800390095,
          0.6235373678546331
        ],
        [
          -0.261511545582495,
          -0.3698961730964799,
          -0.6786399903509996,
          -0.3102315875922234,
          0.6153587699873527,
          0.5367435091041125,
          -0.40150974493181113,
          -0.20706183473134476,
          0.13441102391630377,
          -0.14904828763589983,
          -0.31373283394445445,
          0.27431658065225994,
          -0.4699786258259835,
          0.08506367017975469,
          0.19407252957370558,
          -0.22049079855180942,
          0.30531459277472905,
          0.21996662867150918,
          -0.06515817211761632,
          0.07264544873579026,
          -0.3170396696030303,
          -0.32807294561639627,
          0.2205380084594728,
          0.146620258439903,
          -0.1929663842619298,
          0.34665608820401295,
          0.23450004161314386,
          -0.034028479446684634,
          -0.5691896629157253,
          0.27756003628235404,
          0.597597761404817,
          -0.4181558251379557
        ],
        [
          -0.13963549437497125,
          -0.16217984653296402,
          0.0317944508757374,
          -0.5659922901728934,
          0.6610131125681896,
          -0.21076186676014624,
          -0.35084840446285104,
          -0.2924326100827147,
          0.6393332210465598,
          0.6493655978674421,
          -0.557802630995051,
          0.07739116901178733,
          -0.519846483776034,
          0.13925780113049113,
          0.10139507613973342,
          0.2802427301264545,
          0.11304522007692352,
          0.3788171312124776,
          -0.15341587256527756,
          0.19946831943300447,
          -0.025031392993798307,
          -0.33989338813604847,
          0.06036810087096767,
          0.49764883259582116,
          -0.4379083285201597,
          -0.31417148912258597,
          -0.025222134772792892,
          -0.3922628972331019,
          -0.6534230940078507,
          -0.18383054772503915,
          0.22919459149433985,
          -0.05048584666629419
        ],
        [
          -0.6357438812756889,
          -0.5943372728206322,
          -0.3650327923672544,
          -0.2155206767146121,
          0.4659659255504568,
          0.30748310007430024,
          0.4309785299196497,
          0.28967549368178824,
          0.4239005036957001,
          -0.29490774403083847,
          0.013762324668295522,
          -0.1305135806135378,
          0.4094944064441616,
          -0.5601054738001301,
          0.649953413250309,
          0.03758149858229565,
          0.49901162450639236,
          0.2282416902789518,
          0.32422034580931236,
          0.3396515254463238,
          0.4858893070160194,
          0.46119636335145253,
          0.4749535755017663,
          0.5926943336618679,
          -0.6931766212559286,
          -0.22663774466936765,
          0.1971943306977152,
          0.6099422514354368,
          -0.4445732129951606,
          -0.6151386444499072,
          -0.17808173665376403,
          -0.4442827795463937
        ],
        [
          -0.062401132483611566,
          0.1683698584417609,
          -0.48816027458889616,
          -0.14039134123182118,
          -0.15397339153151257,
          -0.21605035398121664,
          -0.05607643119306849,
          -0.06271613855217173,
          0.3096607337587908,
          0.2702101647585212,
          0.086294543417328,
          0.20093191113668663,
          -0.6273740473714534,
          -0.44133783320235387,
          -0.4825630708426576,
          -0.0032720531858623225,
          -0.16711620231279334,
          -0.3115129223588612,
          0.21855662077800087,
          -0.29063689787484964,
          -0.08891368717000747,
          0.03881101843337709,
          0.5307686176293839,
          0.17805918846649504,
          -0.6839208323845308,
          0.138247808465516,
          0.5804775235282221,
          0.5568169014418375,
          -0.50527511278409,
          -0.21361918594131413,
          0.6666131208969867,
          -0.2784022629024513
        ],
        [
          0.1962643931917123,
          -0.39392611829671653,
          -0.01097710819773623,
          -0.310423717733627,
          0.15071009071047115,
          -0.3195042689949875,
          -0.631221263081316,
          0.06890961528029937,
          -0.4020150549016516,
          0.37312386480925086,
          0.03704672514718199,
          -0.041241513656577466,
          -0.11595227133257835,
          0.3750646225174342,
          -0.5812926190646789,
          -0.5422124311580303,
          0.5438630675436976,
          -0.6538606004210287,
          -0.5178164927702589,
          -0.4701860470124892,
          0.6285597348026569,
          0.489984446716912,
          0.47660500138344186,
          0.20061683384989648,
          -0.052943969033838245,
          -0.2399084062292422,
          0.5750077162635759,
          -0.30597608516675434,
          0.572474725759721,
          0.20206192379366417,
          0.5958454099006422,
          0.29636310479256356
        ],
        [
          -0.34440062908895597,
          0.6642298026625949,
          -0.6417776660279323,
          0.3692600706754786,
          0.11586845482627917,
          0.03676863077178094,
          0.3597530523690181,
          0.45187271455626765,
          0.6743388857652101,
          0.6667781727276386,
          0.38183248177044093,
          0.14015050065518664,
          -0.5126817812024111,
          -0.662470687240137,
          -0.2074170881826558,
          0.16954104691106553,
          0.20430402419903926,
          -0.029499609434399998,
          -0.14051648050979382,
          0.2540474434465866,
          0.5160411785809177,
          0.32775089446433714,
          -0.40913383104065,
          0.23270623784637767,
          0.4375067933777731,
          -0.5231876726308298,
          -0.4171796763996376,
          -0.22887226286564893,
          0.0953927589067689,
          0.3200306792120974,
          0.1469542960245218,
          -0.32638473013184016
        ],
        [
          0.25202586756070766,
          0.3314768031322034,
          -0.3756598926859079,
          -0.5726572246174437,
          0.5876548132061193,
          0.4833229602384942,
          -0.01348600448111914,
          -0.35882049737084315,
          0.5453878500627906,
          -0.3531836728287647,
          -0.3882043674376049,
          0.602140052430263,
          -0.446353487069991,
          0.6857369421265783,
          0.42338639619568663,
          -0.645341742508984,
          0.30877238397961004,
          0.3409767362742483,
          0.20474830724446713,
          0.29672481288006514,
          -0.33261240794037317,
          -0.603042904056843,
          -0.42189699558287763,
          0.5951691601934547,
          -0.04600257955029641,
          0.6596078348994084,
          -0.38355074826591906,
          -0.3591196575906778,
          -0.07854968290185138,
          0.5137550505937404,
          -0.5921996879548759,
          0.2333339186437129
        ],
        [
          0.3822603390706262,
          0.195443179699189,
          -0.16016355433590046,
          0.15681942735511356,
          0.5936276800496759,
          0.025649299021951788,
          0.08642835414648564,
          -0.41664242494162923,
          -0.08345373168044312,
          -0.36269565997550346,
          -0.6816940232776758,
          -0.638119173441532,
          0.6761642975603418,
          0.5656726213847808,
          -0.3068346010264074,
          -0.2925338057987557,
          0.6580564029759991,
          0.6030608105030876,
          0.44107406131966254,
          0.1559911018722393,
          0.030155803796559022,
          -0.2874075116781214,
          -0.24323414983236286,
          0.4768489934951926,
          -0.38568488141141877,
          0.0361244821339739,
          0.12202059952542932,
          0.36832876917351254,
          0.1041404846390489,
          0.13362773607216372,
          0.20478070558386996,
          0.5112470182094923
        ],
        [
          -0.26340952592353273,
          -0.3057975032745613,
          -0.05805514779956422,
          -0.09332723419821976,
          -0.19447642797725406,
          -0.3215813261127779,
          -0.4040091253944307,
          -0.3077495036438916,
          0.16485052881801499,
          0.19579325760095867,
          -0.04836062705618516,
          -0.06357569014830666,
          -0.2976843193630829,
          0.06195784789590786,
          -0.3271413421062428,
          -0.2901132293612891,
          0.19389282049763334,
          -0.20803993791449654,
          0.5204915910779767,
          0.473728448955952,
          0.22926252374549394,
          -0.36589580060675825,
          -0.6205580899014833,
          -0.534555779433686,
          -0.14157622965139305,
          -0.21992101262654978,
          0.028958141880594646,
          0.20504664747403945,
          -0.5992750039205625,
          0.6742521795974586,
          0.29992752033910397,
          -0.47097077186127956
        ],
        [
          0.6566564049742237,
          -0.2807807169584055,
          -0.46662772291017196,
          -0.19905739320416793,
          0.6423908328133457,
          -0.05254325501072188,
          0.5931908012528772,
          0.24866695491350255,
          0.5146076849621565,
          0.19330913630416946,
          0.6257295229706844,
          0.07970368300290598,
          0.08018920678390762,
          -0.5486244621467731,
          0.41694937841289537,
          0.5583836064563875,
          0.5432258953655665,
          0.12418101023101424,
          0.49529483276534136,
          -0.5804279483230668,
          0.3961212367266781,
          0.38031698584297857,
          0.1707524036403577,
          -0.5621862733466096,
          0.19492918556443273,
          0.29299361816602965,
          -0.6313330754396035,
          -0.6804089355137166,
          -0.1618470006758378,
          -0.6199531837587394,
          0.007965995844743001,
          0.6532396518072542
        ],
        [
          -0.6717524579241734,
          0.3161398138564865,
          0.14127267500118124,
          0.14371825916044723,
          0.05965806765947612,
          -0.4028222610675397,
          -0.15632768373101713,
          0.5384698359685377,
          -0.45987041291583597,
          0.21497174186364054,
          0.3855420082119899,
          -0.1352578849583218,
          0.13631535301673403,
          0.43968071373068873,
          0.2643274480271989,
          -0.03836165987344564,
          -0.523252520090745,
          -0.09052109391317331,
          -0.4910085921405074,
          -0.02615084127939382,
          0.1904143816913334,
          -0.32447692092054253,
          -0.2653636479663761,
          -0.13249955817937198,
          0.4145907068652629,
          0.08954258363530465,
          0.10638233376581718,
          0.24149014108247902,
          -0.48065710842443715,
          -0.48522320957428755,
          0.6677886420944071,
          0.029718168047575655
        ]
      ],
      "b": [
        0.6367863807404329,
        0.4339749376888914,
        -0.38036738826454736,
        0.33917948561915934,
        0.35982048349605067,
        -0.08189800910419864,
        0.5788006380541212,
        -0.31371310392858065,
        -0.111553610227355,
        0.5853648722258572,
        0.6229314123986672,
        0.09370272597496865,
        -0.6511226313756538,
        -0.4549183762366658,
        -0.1733723769710338,
        -0.11963128332143458
      ]
    },
    "layer_2": {
      "w": [
        [
          -0.18591620389120234,
          0.35877550802008185,
          0.4065910036052387,
          0.8119994782388353,
          -0.25065608429230224,
          0.08360899818424139,
          -0.38804538406974287,
          -0.029344000886992072,
          -0.5725093649410236,
          -0.014856713132014088,
          -0.06652727552496529,
          0.22662559352494283,
          0.3573262583889809,
          0.03361082837894558,
          -0.40442291015620213,
          -0.6587903472453015
        ],
        [
          0.4237017255356914,
          0.7116654759210288,
          -0.5196171460774202,
          -0.3567565707400623,
          -0.9503096783012821,
          0.17766417614156538,
          0.2767806826443746,
          0.466263956321761,
          -0.6309430560342644,
          0.6202322625655468,
          0.9164143050601345,
          0.16683499091545406,
          -0.009628470733429761,
          -0.514515000726272,
          -0.5028802203199767,
          0.8692432534068164
        ]
      ],
      "b": [
        -1.0814712454900501,
        0.43681850988255677
      ]
    }
  },
  "input_mask": [
    0,
    2,
    3,
    5,
    6,
    7,
    11,
    12,
    18,
    19,
    27,
    28,
    29,
    30,
    32,
    33,
    34
  ],
  "ablated_input": null,
  "ablated_value": 0.0,
  "output_param": "atan2_signed",
  "scaled_pi_n": 1.0,
  "delta_max": 0.35,
  "normalization": [
    {
      "transform": "none",
      "scale": 0.8655390346546353,
      "center": 0.9204641308303162
    },
    {
      "transform": "asinh",
      "scale": 0.8175600848274288,
      "center": 0.8867681772014051
    },
    {
      "transform": "asinh",
      "scale": 462.6300273768903,
      "center": -333.1697854608212
    },
    {
      "transform": "none",
      "scale": 5413222.0902614985,
      "center": -508770.60939412704
    },
    {
      "transform": "none",
      "scale": 1157.3507227945558,
      "center": 4549.679429911598
    },
    {
      "transform": "asinh",
      "scale": 10.358129862795693,
      "center": 12.17320223341297
    },
    {
      "transform": "asinh",
      "scale": 0.33924629426269115,
      "center": 0.40005844701414567
    },
    {
      "transform": "none",
      "scale": 0.42411593596120784,
      "center": 0.42858041580763234
    },
    {
      "transform": "asinh",
      "scale": 33.09832239288295,
      "center": 82.65759631477488
    },
    {
      "transform": "asinh",
      "scale": 0.0911362193061205,
      "center": -0.04718278665783951
    },
    {
      "transform": "asinh",
      "scale": 0.2151370816795333,
      "center": 0.29274513397808116
    },
    {
      "transform": "asinh",
      "scale": 9.832939972853932,
      "center": 11.55598244317186
    },
    {
      "transform": "asinh",
      "scale": 3.256400734674897,
      "center": 3.827025266270693
    },
    {
      "transform": "asinh",
      "scale": 5107742.117847206,
      "center": -3590633.2113008387
    },
    {
      "transform": "asinh",
      "scale": 10217099.16686349,
      "center": -6706141.091617538
    },
    {
      "transform": "none",
      "scale": 0.5,
      "center": 0.5
    },
    {
      "transform": "none",
      "scale": 1e-6,
      "center": 0.4262529995153208
    },
    {
      "transform": "asinh",
      "scale": 594.4827404994671,
      "center": 716.3429422450554
    },
    {
      "transform": "asinh",
      "scale": 412.8914064725618,
      "center": -302.7939124482325
    },
    {
      "transform": "asinh",
      "scale": 154.12675819494976,
      "center": -169.7611160606572
    },
    {
      "transform": "none",
      "scale": 1.5707963267948966,
      "center": 1.5707963267948966
    },
    {
      "transform": "none",
      "scale": 0.1,
      "center": 0.0
    },
    {
      "transform": "none",
      "scale": 3.141592653589793,
      "center": 0.0
    },
    {
      "transform": "tanh",
      "scale": 30.0,
      "center": 0.0
    },
    {
      "transform": "tanh",
      "scale": 100.0,
      "center": 0.0
    },
    {
      "transform": "none",
      "scale": 1.0,
      "center": 0.0
    },
    {
      "transform": "none",
      "scale": 1.0,
      "center": 0.0
    },
    {
      "transform": "none",
      "scale": 1.0,
      "center": 0.0
    },
    {
      "transform": "none",
      "scale": 1.0,
      "center": 0.0
    },
    {
      "transform": "none",
      "scale": 1.0,
      "center": 0.0
    },
    {
      "transform": "none",
      "scale": 1.0,
      "center": 0.0
    },
    {
      "transform": "asinh",
      "scale": 17774.23743300369,
      "center": 20521.13057751288
    },
    {
      "transform": "asinh",
      "scale": 500.0,
      "center": 500.0
    },
    {
      "transform": "none",
      "scale": 60.0,
      "center": 60.0
    },
    {
      "transform": "none",
      "scale": 100.0,
      "center": 0.0
    }
  ]
}