{
  "format_version": 2,
  "architecture": [
    {
      "type": "dense",
      "input_size": 17,
      "output_size": 18,
      "activation": "swish"
    },
    {
      "type": "dense",
      "input_size": 18,
      "output_size": 9,
      "activation": "swish"
    },
    {
      "type": "dense",
      "input_size": 9,
      "output_size": 2,
      "activation": "asinh"
    }
  ],
  "weights": {
    "layer_0": {
      "w": [
        [
          0.7225893851695411,
          0.809833716471354,
          -0.45886726361000146,
          -0.7134807026585094,
          0.827761102364462,
          0.7968648084603973,
          -0.5657433342506166,
          -0.5507315793449374,
          -0.6516785524034503,
          -0.793541028963938,
          -0.6544713848940462,
          0.37867900836903345,
          0.10662788820409397,
          0.5283368356127363,
          -0.6468522947401261,
          -0.1675035284212476,
          0.4930341189053018
        ],
        [
          0.6893576751590005,
          -0.8176077191156265,
          0.43940663715284156,
          -0.3396905449932478,
          -0.6318539836898678,
          -0.4200543551551272,
          0.2700436394534014,
          -0.4246683367636427,
          0.18512384147445582,
          0.6888745743867661,
          0.462315056138457,
          0.3576286689415129,
          -0.07571647099699774,
          0.3046497229250831,
          0.6835403126810671,
          0.27675144602280755,
          -0.5339010164208422
        ],
        [
          0.37434273012173813,
          -0.5176657003717808,
          0.11947863399712044,
          -0.7615979742351127,
          -0.1521099509889665,
          -0.04158750479000051,
          -0.09862263300132657,
          -0.8221589638281258,
          -0.4257985975572088,
          -0.6370570653182298,
          -0.06839824331843103,
          0.8208659702702181,
          0.016703159058373718,
          0.5337738658226114,
          -0.3835464610411226,
          -0.058993217664312314,
          0.703118989709512
        ],
        [
          0.08616190360831022,
          0.8138727667234891,
          0.15718613451891517,
          -0.7441754155983404,
          -0.4728277480369419,
          -0.35577790088957495,
          -0.4700963664436613,
          -0.7961905742741014,
          -0.7921797731877515,
          -0.7402259886440514,
          0.8117117369968945,
          -0.7781244569144734,
          0.40265281143983556,
          -0.10487318878650775,
          0.7900136910221058,
          -0.5506640643130756,
          -0.7557341197940488
        ],
        [
          -0.23564454862631046,
          0.7961484158197971,
          0.8172728935682865,
          -0.6985500164747102,
          0.5644153086851587,
          -0.2347426026788484,
          -0.44600679104737556,
          -0.6982477747891856,
          -0.07476593116268926,
          -0.6213259187910785,
          0.19024099542813033,
          -0.23820785466588001,
          -0.6781634393498563,
          0.054274670999900465,
          -0.16022497430875193,
          -0.2529832370487407,
          -0.8109370106807965
        ],
        [
          0.31419106254668083,
          0.49740834234768405,
          -0.8039466560881937,
          0.30780769167394006,
          -0.2932167384742913,
          -0.3827319760845901,
          -0.42537613478959685,
          0.4946322199938775,
          0.013377438077925574,
          -0.8100894137478807,
          0.8187895923070927,
          -0.7832787627501203,
          -0.1256605033544056,
          0.8265721342038215,
          0.7119516637812624,
          -0.24054606587607408,
          -0.8280711007654394
        ],
        [
          0.1317766524079016,
          0.7634358481296168,
          -0.31158158812090075,
          0.22262822815439032,
          0.38871220031146536,
          -0.5136638125146663,
          -0.4018972678412493,
          -0.17437518528995488,
          -0.1437607741439214,
          -0.7496795709951833,
          -0.3136923900763099,
          0.403970396163037,
          0.8275054684283931,
          0.6270211409619764,
          0.2910307551467446,
          -0.787637663590477,
          -0.7073930917449532
        ],
        [
          0.5567740380366029,
          -0.21834361920416845,
          0.8212371067858586,
          0.8273249010645491,
          0.7344562472474154,
          -0.7535768870115946,
          0.6392342899454533,
          0.791201774540067,
          -0.6985142686167306,
          -0.8215790224651977,
          0.6685898835265984,
          0.44155569370773495,
          0.432571901761567,
          0.46590975119115696,
          0.4940796370969873,
          -0.5531438886259313,
          -0.731314968566848
        ],
        [
          0.6442883498341199,
          0.5092479638827716,
          0.18350193555713612,
          0.005205069101926085,
          0.7315365461051289,
          -0.8264560087549887,
          -0.5765840235390549,
          0.8256795436887445,
          0.4769957777865339,
          -0.5220662029392055,
          -0.47472884596622766,
          0.8277984944020771,
          0.3719715808220234,
          0.7640457238132916,
          0.5189660978016224,
          -0.5282313086161945,
          -0.7634237893360007
        ],
        [
          -0.04176567238074913,
          -0.826702864091596,
          0.6806180701134696,
          0.20333409316583184,
          0.16653477644944625,
          -0.7093743662687518,
          0.15053298956661298,
          0.2675097731659035,
          -0.695466626330795,
          0.23255589794322717,
          0.8143694951772096,
          -0.5258133858192584,
          -0.7761267870915923,
          0.3095726833752306,
          0.3727816551823522,
          -0.5810543571407838,
          -0.5658821597374516
        ],
        [
          0.3918091137289008,
          -0.6857311574029346,
          -0.2502918485675044,
          0.23756115925307197,
          0.5439813415654591,
          0.5913406404992374,
          0.4201289186076198,
          0.6904287863725624,
          0.6972221592679673,
          0.6460111624950082,
          0.8007615177539316,
          -0.7961948581409671,
          0.7713160446935212,
          -0.7047754297460995,
          0.7384556459964182,
          0.567169940845581,
          -0.809863214006734
        ],
        [
          -0.7938131925911621,
          -0.8213248670033935,
          0.49881866335291414,
          0.1198960196572576,
          0.7090200107724627,
          0.64034709625335,
          0.6745736862398062,
          -0.03668099002653402,
          0.7642147238704269,
          0.8137110141701951,
          0.6696423377639589,
          -0.26010743729541463,
          0.7801362784801567,
          -0.35146465264978544,
          0.028381319774579916,
          -0.8262858598268434,
          -0.7990047962057464
        ],
        [
          0.8145389096520226,
          -0.7885758046972696,
          -0.45511311296331614,
          0.6593080751852372,
          -0.049882519525534796,
          -0.5912917634699313,
          -0.6563088432727544,
          0.738632211309733,
          0.4868987549251196,
          0.6574376338378101,
          0.8224773145725992,
          -0.6038951685933913,
          0.8258430683502365,
          -0.0018700603967287677,
          0.432653563247676,
          0.22020316777906657,
          -0.7762030508745376
        ],
        [
          -0.22900261047890424,
          -0.6551087101001888,
          -0.5361691862657064,
          0.7685900465098872,
          -0.6966054473519484,
          0.8124720909781011,
          -0.22114747049353467,
          0.8257276007092329,
          0.2558313865934452,
          0.6347195858608459,
          -0.11905754742329155,
          0.1949414410482726,
          -0.44449848641265244,
          -0.4335129867075664,
          -0.6561996506573131,
          0.43277541415355647,
          0.8019477838155695
        ],
        [
          0.29742350881332835,
          -0.6638024036263807,
          -0.5950550710799332,
          -0.1762865631187881,
          0.7640666452867584,
          -0.7237488122154754,
          0.2948482018540908,
          0.8214369389555187,
          0.8280533918882638,
          0.815921619723657,
          0.8106028384779735,
          -0.7805538954466237,
          0.293347832711099,
          -0.7455638348642077,
          0.5290762187563631,
          -0.1964858095897012,
          -0.6542943299410875
        ],
        [
          0.49314033706794147,
          0.17864155120206937,
          0.18169870831355706,
          -0.7997358496106379,
          -0.609485696051177,
          0.3242365835818797,
          -0.6830079416019844,
          0.751110619006591,
          0.12889746235590838,
          0.5349464780848876,
          0.8057156874923783,
          -0.8138655625658565,
          -0.8080772165973106,
          -0.008153409712519322,
          -0.3197725688841272,
          -0.4113925764241541,
          0.8158829181510108
        ],
        [
          0.0076701075583379685,
          0.26739853643920886,
          -0.15308707412738387,
          0.4709214974446687,
          0.3752697514505394,
          -0.08576069649217655,
          0.2194084988931373,
          -0.12147103142413262,
          -0.0348875036181977,
          -0.12468583920221776,
          0.6450206695390164,
          -0.7767598551948697,
          0.824737365334383,
          0.2530261997060437,
          0.4367018321102172,
          0.8230908147881215,
          -0.8039832175811042
        ],
        [
          -0.5764974480901132,
          0.371895144954018,
          0.8275023077455086,
          0.37193191001293235,
          -0.8222941917128929,
          -0.7834804873002342,
          -0.8101289888105152,
          -0.5525728316153692,
          0.1408703634277182,
          0.7394138579413698,
          0.39919245600793296,
          0.5608046219902347,
          0.42099166236877283,
          0.7382782764218565,
          -0.7032411844835035,
          -0.2561477016537179,
          -0.818430136312973
        ]
      ],
      "b": [
        -0.42824016395161857,
        -0.5554095222827942,
        -0.12073155548170222,
        -0.35930856237576236,
        -0.5685811908105433,
        -0.13532391581634928,
        -0.7099228584906446,
        -0.35560759183079893,
        -0.8226712298693041,
        -0.5728061550159826,
        0.8247481059102846,
        0.545350781210092,
        0.7623906880580249,
        -0.2260319232655401,
        0.8278924819160058,
        -0.19700974503895108,
        -0.6249531389208264,
        0.2156335992979257
      ]
    },
    "layer_1": {
      "w": [
        [
          -0.03525781761361135,
          -0.7761607145947894,
          -0.20862815111151012,
          0.3831634397798558,
          -0.4678620997883787,
          -0.9279426667146826,
          0.14942682429102705,
          -0.21845196261095878,
          -0.06719962762318998,
          -0.9265227873551578,
          0.051420883900287984,
          0.8534030206391394,
          0.45451132950759443,
          0.15859891753258148,
          0.11784457796678893,
          -0.8749270373907969,
          0.342171462111011,
          0.03768559041603614
        ],
        [
          0.12213517928669115,
          0.3071717813362025,
          0.10425033844637976,
          -0.9181241167354623,
          -0.212542857779923,
          0.8421896195531369,
          -0.8263853806006087,
          0.7138623087677238,
          0.4588780035474085,
          -0.7422155771878697,
          0.942403002751697,
          0.5727585988059125,
          0.9289951853207175,
          -0.9393446984096382,
          0.7960312174399253,
          -0.07411095225795195,
          -0.9130038770518523,
          0.7519573744608099
        ],
        [
          0.9105583119813632,
          -0.8357836351194561,
          -0.6425342760639905,
          0.8895677295858655,
          0.8137219683206218,
          0.6343012380450148,
          0.6953960911599348,
          0.43986086007290504,
          0.7543324134950542,
          -0.1861002767339378,
          0.21895828625649116,
          -0.5100522258496074,
          -0.08949493487372151,
          -0.6729154266365982,
          -0.30337843241197604,
          -0.9406604049972983,
          -0.34961899223718595,
          -0.9388567382119463
        ],
        [
          0.9131826135996657,
          0.5340126401708498,
          0.6475117264026966,
          0.8970546049083543,
          -0.8457485538803785,
          0.28543575902367135,
          -0.36697209119688334,
          -0.31273637376900754,
          -0.7678831602285072,
          -0.08242450320029071,
          -0.7617362545870623,
          0.05226671850922082,
          -0.20709562595361009,
          -0.3695010164176986,
          -0.4874248014989081,
          0.2213832499468864,
          -0.8456977318098279,
          -0.8757361948617512
        ],
        [
          0.3285489977497258,
          -0.3922009804410478,
          0.12949069458886497,
          0.3840229291016346,
          0.1734592912960129,
          0.21776014335629545,
          0.7637413543962999,
          0.922855472899526,
          0.7626286416541781,
          -0.41203479963768663,
          -0.4041425055456471,
          0.9338730305630059,
          -0.16771464891472587,
          -0.061713948394197415,
          -0.43922202092407203,
          -0.28736120057394443,
          0.6462132209923432,
          -0.9218205515018529
        ],
        [
          -0.4296047527909469,
          -0.570529399481578,
          0.5612215256172166,
          -0.4644074200669821,
          0.1780490041908369,
          -0.937360342975839,
          -0.786942669827557,
          -0.6156782475311986,
          -0.5656225161521968,
          -0.08849403504822839,
          0.13069714173184432,
          -0.4306018009935496,
          -0.5000918709911495,
          0.8930841541053425,
          0.7630429407139492,
          -0.016028315132241566,
          0.3927835808781288,
          -0.40304709024450935
        ],
        [
          -0.9169665857711133,
          0.7458895705851034,
          -0.5056260147364657,
          -0.6706725754791321,
          0.4852880082284039,
          -0.835774020932674,
          -0.8681765608223435,
          0.1673939847523762,
          -0.778277490067398,
          0.4803360264126557,
          0.7395415189093597,
          0.9427579687567609,
          0.9119738932508994,
          0.8897831401572998,
          0.6859096207678912,
          0.6736971887719925,
          0.10845526405983574,
          0.8111528018775667
        ],
        [
          0.0697431678976077,
          -0.9420926382664663,
          -0.11773001611181622,
          -0.8539496258891992,
          0.7752213427789181,
          -0.0945295149016182,
          -0.7157626805476465,
          -0.682873129019725,
          -0.9425322736920787,
          0.06428582678058392,
          0.9286729745305538,
          -0.42542140814139473,
          0.8625108942436832,
          0.7942952962979117,
          0.5226679723485697,
          0.5598510934762417,
          0.11245263923710946,
          -0.9215874824299823
        ],
        [
          -0.31236855161485555,
          0.9268875617707126,
          -0.8196235102324161,
          -0.4468393583370777,
          -0.9332390923394291,
          0.2294349736238075,
          0.13520951952270965,
          0.06207113165661693,
          -0.9355114905092734,
          0.9012677838404188,
          0.7265741604872669,
          0.18663140120637922,
          0.9259350567251763,
          -0.32849514009047354,
          -0.1046507082273137,
          -0.5627969672762985,
          -0.45831029559358527,
          0.23968865853204213
        ]
      ],
      "b": [
        -0.23157941422112582,
        0.5189482786619457,
        -0.4685906950554505,
        0.24268506971377501,
        -0.18880103063489673,
        0.5350879245498137,
        0.4067225563096153,
        0.7180984911549562,
        0.668122780598629
      ]
    },
    "layer_2": {
      "w": [
        [
          0.6593749203815396,
          -1.2109756851707238,
          -1.2858720665275254,
          0.6832268183244095,
          -0.5487618637254984,
          1.4351153149708455,
          -1.0253580918130365,
          1.3243073355711301,
          0.64633684794534
        ],
        [
          1.310934966885275,
          1.41538587542508,
          -1.4581250912298889,
          -1.443970250570058,
          -1.2542163452214616,
          0.9674414612421285,
          1.4739014094616385,
          1.4556678147276982,
          1.3112424196600694
        ]
      ],
      "b": [
        1.4742385924409285,
        -1.4021170542715715
      ]
    }
  },
  "input_mask": [
    0,
    2,
    3,
    5,
    6,
    7,
    11,
    12,
    18,
    19,
    27,
    28,
    29,
    30,
    32,
    33,
    34
  ],
  "ablated_input": null,
  "ablated_value": 0.0,
  "output_param": "atan2_signed",
  "scaled_pi_n": 1.0,
  "delta_max": 0.35,
  "normalization": [
    {
      "transform": "none",
      "scale": 0.8655390346546353,
      "center": 0.9204641308303162
    },
    {
      "transform": "asinh",
      "scale": 0.8175600848274288,
      "center": 0.8867681772014051
    },
    {
      "transform": "asinh",
      "scale": 462.6300273768903,
      "center": -333.1697854608212
    },
    {
      "transform": "none",
      "scale": 5413222.0902614985,
      "center": -508770.60939412704
    },
    {
      "transform": "none",
      "scale": 1157.3507227945558,
      "center": 4549.679429911598
    },
    {
      "transform": "asinh",
      "scale": 10.358129862795693,
      "center": 12.17320223341297
    },
    {
      "transform": "asinh",
      "scale": 0.33924629426269115,
      "center": 0.40005844701414567
    },
    {
      "transform": "none",
      "scale": 0.42411593596120784,
      "center": 0.42858041580763234
    },
    {
      "transform": "asinh",
      "scale": 33.09832239288295,
      "center": 82.65759631477488
    },
    {
      "transform": "asinh",
      "scale": 0.0911362193061205,
      "center": -0.04718278665783951
    },
    {
      "transform": "asinh",
      "scale": 0.2151370816795333,
      "center": 0.29274513397808116
    },
    {
      "transform": "asinh",
      "scale": 9.832939972853932,
      "center": 11.55598244317186
    },
    {
      "transform": "asinh",
      "scale": 3.256400734674897,
      "center": 3.827025266270693
    },
    {
      "transform": "asinh",
      "scale": 5107742.117847206,
      "center": -3590633.2113008387
    },
    {
      "transform": "asinh",
      "scale": 10217099.16686349,
      "center": -6706141.091617538
    },
    {
      "transform": "none",
      "scale": 0.5,
      "center": 0.5
    },
    {
      "transform": "none",
      "scale": 1e-6,
      "center": 0.4262529995153208
    },
    {
      "transform": "asinh",
      "scale": 594.4827404994671,
      "center": 716.3429422450554
    },
    {
      "transform": "asinh",
      "scale": 412.89140647256187,
      "center": -302.7939124482325
    },
    {
      "transform": "asinh",
      "scale": 154.12675819494976,
      "center": -169.7611160606572
    },
    {
      "transform": "none",
      "scale": 1.5707963267948966,
      "center": 1.5707963267948966
    },
    {
      "transform": "none",
      "scale": 0.1,
      "center": 0.0
    },
    {
      "transform": "none",
      "scale": 3.141592653589793,
      "center": 0.0
    },
    {
      "transform": "tanh",
      "scale": 30.0,
      "center": 0.0
    },
    {
      "transform": "tanh",
      "scale": 100.0,
      "center": 0.0
    },
    {
      "transform": "none",
      "scale": 1.0,
      "center": 0.0
    },
    {
      "transform": "none",
      "scale": 1.0,
      "center": 0.0
    },
    {
      "transform": "none",
      "scale": 1.0,
      "center": 0.0
    },
    {
      "transform": "none",
      "scale": 1.0,
      "center": 0.0
    },
    {
      "transform": "none",
      "scale": 1.0,
      "center": 0.0
    },
    {
      "transform": "none",
      "scale": 1.0,
      "center": 0.0
    },
    {
      "transform": "asinh",
      "scale": 17774.23743300369,
      "center": 20521.130577512882
    },
    {
      "transform": "asinh",
      "scale": 500.0,
      "center": 500.0
    },
    {
      "transform": "none",
      "scale": 60.0,
      "center": 60.0
    },
    {
      "transform": "none",
      "scale": 100.0,
      "center": 0.0
    }
  ]
}