{
  "format_version": 2,
  "architecture": [
    {
      "type": "window",
      "input_size": 17,
      "n_steps": 4
    },
    {
      "type": "dense",
      "input_size": 68,
      "output_size": 13,
      "activation": "swish"
    },
    {
      "type": "dense",
      "input_size": 13,
      "output_size": 8,
      "activation": "swish"
    },
    {
      "type": "dense",
      "input_size": 8,
      "output_size": 2,
      "activation": "asinh"
    }
  ],
  "weights": {
    "layer_1": {
      "w": [
        [
          -0.5425817055830883,
          0.3597704586996291,
          0.4342236240023356,
          0.025993347930651667,
          -0.1712057013268789,
          0.4387897678309457,
          -0.536117107949412,
          0.4341487392478246,
          -0.0981007950110438,
          -0.21043107320387422,
          -0.17913929597730305,
          -0.036372241580734044,
          0.02141629982380211,
          -0.035868590889833185,
          -0.2119533323629464,
          -0.4068760946140292,
          -0.10057729358376666,
          -0.4209700152147384,
          -0.01866441399824792,
          0.5080709672668324,
          0.3589509388103417,
          -0.01962171068622187,
          -0.4546468014053481,
          0.5326855888984543,
          0.4405212869638506,
          0.23495904375677612,
          -0.11788459811763785,
          -0.35525488435946295,
          0.15836017702425742,
          0.007817897554545317,
          -0.08355101058266501,
          -0.5077784397286556,
          0.2957962106134119,
          0.04579513706209937,
          -0.40230046167462896,
          0.47273794153538184,
          -0.5356082921450352,
          -0.05252257021890766,
          -0.15975727001925588,
          -0.23412229951404323,
          0.5293906347742157,
          0.1196642256949485,
          0.5351328560764803,
          -0.05823070614434789,
          -0.4931416577854975,
          0.48835436364008045,
          -0.4420254835661255,
          0.43548376622200347,
          0.06175717850160323,
          -0.51577864516631,
          0.522343677815297,
          0.3525135381858726,
          -0.24315538071118398,
          -0.40618586752770225,
          0.2945398632895998,
          0.4893652029711708,
          0.34319845070936517,
          -0.5404002365112414,
          -0.2744560083579925,
          0.03215094140100805,
          0.16361895370388346,
          -0.3066235516370114,
          -0.2092916866533267,
          -0.5395888466074796,
          0.47051247290997167,
          -0.18851732913111058,
          -0.2370227086909542,
          0.18111253900663582
        ],
        [
          -0.4592898067523972,
          -0.5281816431805694,
          0.1514978290630643,
          -0.47374068630048904,
          -0.0333152963959511,
          0.3075492717140511,
          -0.40764932861508096,
          -0.3025083643620886,
          0.3662405240706321,
          -0.22084288291389859,
          0.5417475319768392,
          -0.26263514711340086,
          -0.1757986909169954,
          0.011125784414048434,
          -0.0053360215597789695,
          -0.1933531773968486,
          -0.43020309564705433,
          -0.3590314681697385,
          0.22353696529127454,
          0.50609415583146,
          0.498476649502263,
          -0.44049050777795984,
          -0.2569603657196424,
          0.4644146539656313,
          -0.5266662281934678,
          0.33031143871842283,
          -0.03216286607788077,
          -0.024602392747534063,
          -0.2581408416174715,
          0.507882375516465,
          0.16365074722638295,
          -0.5343437112380831,
          0.26244906729483874,
          0.4943335461707594,
          -0.37163361169046427,
          0.4291635469988302,
          0.45632554578940354,
          -0.09844050615353489,
          -0.36764638133432737,
          -0.22202880997492808,
          0.3553510332748283,
          0.16487472998455877,
          0.49730071869990455,
          0.1073382086634388,
          -0.16160517775867006,
          -0.06047837851115234,
          0.03215911797322901,
          -0.15503871820078052,
          0.4768298168923557,
          -0.00958496717365509,
          0.5167062805594314,
          -0.4461152168874261,
          -0.531618149102465,
          0.4285075196498843,
          0.46745968571604335,
          0.5058403357729027,
          -0.03955888491408266,
          -0.012069476206824525,
          -0.22260665130290025,
          -0.2559471024442575,
          -0.42652364583198343,
          -0.3889131435895081,
          -0.28020285060131567,
          -0.04769858127651433,
          0.023418721395676245,
          -0.14463407793625777,
          0.5159748345754263,
          0.33713486827196304
        ],
        [
          -0.41802511849523427,
          -0.12496166296694705,
          0.42222082357048274,
          -0.038363278779887766,
          -0.13441546411128164,
          -0.5343178130415823,
          -0.13246103934637182,
          0.0910058238917365,
          -0.3863744904535479,
          -0.4905085724028068,
          -0.048800216551427966,
          0.5156182239005287,
          -0.4853649522017246,
          0.11639669901437144,
          0.014825288079198584,
          0.11390269675758025,
          -0.34520357413545305,
          0.5122666142223677,
          -0.4042946697069997,
          0.26599961695527785,
          0.060101886543288296,
          0.3756456329776917,
          0.12180159021483228,
          -0.025718767457787672,
          0.07937261618348512,
          -0.1342433943964692,
          0.2953755266994975,
          0.5254243966380046,
          0.49205980755284573,
          -0.07970648380474016,
          -0.4107117403116305,
          0.5162297985234987,
          0.4601812744872529,
          -0.13342880478203922,
          0.31373482846054634,
          -0.4798597762537162,
          0.40129809493874236,
          -0.3623132582567209,
          -0.16516288586756306,
          0.4466581824831375,
          0.5373317706234331,
          -0.07085626981901161,
          -0.5257103767095354,
          -0.5436155228044073,
          0.4530265256140096,
          0.4898252603715283,
          -0.14604013090852364,
          -0.2751672609023561,
          0.49479838391970676,
          0.04699901871654433,
          -0.1740559717403823,
          -0.47083194705692544,
          -0.4497914231206528,
          0.3762579027082915,
          -0.3540323438442913,
          -0.2796299035710651,
          -0.4963617291407599,
          0.5355572697130724,
          0.3297293133681385,
          -0.3442695489697839,
          -0.17413605246966657,
          -0.44821412569890007,
          0.4951946738744104,
          0.5439932503665796,
          0.3263371347543531,
          0.5037992654123629,
          0.016111622444324958,
          -0.26451223367772847
        ],
        [
          0.24981328393679392,
          0.23836181270752188,
          0.4917109627503491,
          0.007079335503285766,
          0.5342117994242428,
          -0.05307184869443088,
          -0.37114100648081005,
          0.40612731547362013,
          0.3472687204719993,
          0.32862129760891023,
          0.06926300715665457,
          0.3548115687799238,
          0.18884287004884837,
          0.5212251436485162,
          -0.10046922842137312,
          0.07322270369311745,
          0.2390036583331987,
          0.2978534728749045,
          0.15682828711784413,
          0.21257653146239375,
          -0.3240275974706812,
          -0.3101022179083327,
          0.5108480500061898,
          0.5230519295166003,
          0.5357598779299018,
          -0.29723021958385787,
          -0.4543042801324642,
          -0.5175881926229972,
          0.45724954446237964,
          0.3378957144360488,
          0.4508541138201472,
          -0.3873178791375408,
          0.1641028966748055,
          -0.16547823403147344,
          0.18928879673965682,
          0.5391130373668276,
          -0.4126776429422193,
          0.5236010155867639,
          -0.4866359724489557,
          0.28553051655360295,
          0.22411864502664447,
          0.05006019461750133,
          0.05453235029337855,
          0.5328006078508878,
          0.4464632728039356,
          -0.35910534455033255,
          -0.47324335792190014,
          -0.07021125954523727,
          -0.1763727144464457,
          0.036307848189876424,
          -0.4349684947835588,
          -0.23935905691988485,
          -0.1398499276563842,
          -0.10258154182192841,
          0.3702259572267501,
          -0.30207203221037476,
          -0.010662106692235995,
          0.35732061959045214,
          0.048693433340629255,
          -0.38283332358863154,
          -0.24835831284459997,
          0.467212311217005,
          -0.37139415495087363,
          0.13763357631142825,
          0.1962102618924727,
          -0.3672324068217627,
          0.482774524352765,
          -0.09595085143735993
        ],
        [
          -0.37841589598874015,
          0.16441363808250864,
          0.09279595909335714,
          0.07729063648325907,
          -0.2736918896829235,
          -0.16429687076669158,
          0.3007780228890432,
          -0.05888588399881112,
          0.43173994308403285,
          -0.5218255211571402,
          0.4885104332738235,
          0.07529134567021833,
          0.19134303323940072,
          -0.5142072722031533,
          -0.062947735618816,
          -0.1556080746056988,
          0.5182674572685784,
          -0.27809193290176065,
          -0.07462371468389362,
          0.011369294495530702,
          -0.4957052726368965,
          -0.13899858178341357,
          0.29127483435152157,
          -0.42279909775885766,
          0.40261085876802927,
          0.15529220632003582,
          0.39303094796831284,
          -0.09612726126670251,
          -0.3233170598583879,
          -0.47558393911844743,
          0.2833752935555822,
          -0.3492786664729315,
          -0.4717813340679636,
          -0.0506598963278031,
          -0.20543955730338326,
          -0.0269508939361619,
          -0.5105347904087154,
          0.26665221364678615,
          0.4801051034489796,
          0.24896709826822827,
          -0.3789686979083849,
          -0.1713177349633584,
          -0.2093285645465085,
          0.46224616339878466,
          -0.15861613738521613,
          -0.23833073789460946,
          0.1989043927163695,
          -0.12501102408916043,
          -0.48923227822971965,
          0.1863405076953064,
          0.4825908261013132,
          0.20663559531993914,
          0.38438497122055815,
          0.2965113358462007,
          -0.22661780138045307,
          0.18995563957510453,
          0.5246129771853909,
          0.09439885516402213,
          0.542360999921667,
          0.3710838760773377,
          0.109869795078965,
          -0.5026865658431088,
          0.2897561557320165,
          0.06746480807959032,
          0.07774875188958608,
          0.296278858313759,
          0.4324380958797047,
          0.1718408269336702
        ],
        [
          0.24760922273263553,
          -0.26834157931402225,
          -0.3928056955798614,
          -0.24854090191095363,
          0.3407825215645631,
          -0.08839651099689977,
          0.4529998609521888,
          -0.5027318731652236,
          -0.468666994832748,
          0.5158558951322152,
          -0.4912947283031252,
          -0.47924939000760897,
          0.29100293091578533,
          -0.2389615267085442,
          -0.2750676112316792,
          0.09080726159794983,
          -0.43133853327335375,
          -0.0016098939789659372,
          0.06963958035932893,
          0.4130316334409796,
          -0.40387938872302587,
          0.05340704728231471,
          -0.37683027316058815,
          -0.3523980324533207,
          -0.03778317471734527,
          0.4729245001637026,
          0.28972739959039695,
          0.4671704221580104,
          0.5402092664274081,
          -0.30564553830910757,
          -0.14861613813963598,
          -0.49547138161878007,
          0.38038242883836215,
          -0.5102818630592818,
          0.13795986562836937,
          0.34254102973637157,
          -0.5210876285209718,
          -0.5251411688749275,
          -0.28339578467328397,
          -0.5271697609588101,
          0.08302197996973792,
          -0.16214549489847513,
          -0.48669525189689306,
          -0.4566050309153382,
          -0.22120000260809386,
          -0.4852005858469032,
          -0.48397161974273395,
          -0.0020162019152205612,
          -0.3393121672712125,
          -0.5159128864397691,
          -0.4897579032011958,
          0.5229703220953656,
          -0.23864975387734189,
          0.40427108154530855,
          -0.3324690876833064,
          -0.482404141513169,
          0.15121776648422303,
          0.3493310319823649,
          -0.07600138066145584,
          -0.49486488508473686,
          0.2247743948303207,
          0.49076416048901805,
          -0.5279108005694485,
          0.05962970853584648,
          -0.43368193677611494,
          -0.4829801027619347,
          0.5158279544006497,
          -0.49455205628117804
        ],
        [
          -0.291187067406481,
          -0.35778812391612913,
          -0.13560999683005898,
          -0.3927925384963472,
          -0.4932523254839945,
          -0.14965698632238245,
          -0.17581765079414557,
          0.06895387883453863,
          -0.43449501783849986,
          -0.25777652258827954,
          0.25288943676030284,
          0.41041666040282054,
          0.06541230720193059,
          -0.2545084494357446,
          -0.3771321713317428,
          0.005761441073648066,
          -0.2608553811475396,
          0.2615980730685097,
          0.38638658581710505,
          -0.053299133657166486,
          -0.42326645830995213,
          -0.4972106980800858,
          0.50480453462867,
          -0.3100558585593157,
          -0.18518047443184998,
          0.06429877659492156,
          -0.45297093189575305,
          0.421264982314583,
          -0.3239978194173119,
          -0.18539636655635727,
          -0.15077994931378258,
          0.0984423784145666,
          -0.3702013595504984,
          -0.20030173128409123,
          0.14905687701052828,
          0.34169138707840774,
          0.47435273696354563,
          0.3426312694556223,
          -0.534076110185514,
          -0.028930287305416247,
          -0.5425766121094363,
          -0.43629055981658993,
          0.2731022582983822,
          -0.47020435678596684,
          -0.2507631728464321,
          0.5167153992449836,
          0.2749847568737257,
          0.2556868196235005,
          0.4474543393288648,
          0.12857621065455782,
          0.28278441668951604,
          0.5075758529599856,
          0.5251579165456777,
          0.15660153791271159,
          -0.4679368167659142,
          -0.5377266005804554,
          -0.07987093697062414,
          -0.5222653251453859,
          -0.45845275667800467,
          0.03626209745578468,
          -0.4958115413397789,
          -0.39041100200876966,
          0.3941485505628538,
          0.2403802512482519,
          -0.39949870019501543,
          -0.40481113773639577,
          -0.20888696543541252,
          0.5233225615241295
        ],
        [
          0.22013786838090477,
          0.2297767972694542,
          -0.16650136482814093,
          -0.142660110729962,
          -0.18398769683403499,
          -0.5314764356230616,
          0.1946670506157242,
          0.05148554137618677,
          0.44113698429954495,
          0.5013907408854639,
          -0.30028700157051336,
          -0.3877816631790857,
          -0.1944470949282293,
          -0.32022497287594415,
          -0.1933348963276968,
          -0.4933374032496098,
          -0.15983176513455227,
          -0.3447278475684791,
          0.37081060090440876,
          -0.23346200233029857,
          0.05148510583399346,
          0.42635796136195714,
          0.26190298407947743,
          0.33488498394121025,
          -0.029426932810869944,
          -0.19667909957841379,
          0.3468760934283138,
          0.3576087273071903,
          -0.4708176945249609,
          0.16296970408893574,
          0.2861705350289515,
          -0.4595743815802116,
          0.16026724490749533,
          -0.18833086203989752,
          -0.42075681282031224,
          -0.4196129887643403,
          -0.19042440737226973,
          -0.4873705252929737,
          0.5123373967183269,
          -0.5350229616067024,
          0.4561106869848861,
          0.1393182450949083,
          0.1351362344577437,
          0.5324652390511648,
          0.09038301629427747,
          -0.07081520223388799,
          -0.06088757442097603,
          0.1062342364427925,
          0.029790368495864916,
          -0.40293804126376565,
          -0.18324733219659978,
          -0.32332920107140534,
          0.36999717568167334,
          -0.3396814774067538,
          0.48832479273370866,
          -0.2712978507805178,
          0.35560679085359836,
          -0.22307761167479745,
          0.5032312871510938,
          0.12272403941689713,
          0.3120888595295759,
          -0.34633637527957783,
          -0.3911077445815627,
          0.2321232555906514,
          -0.40404045677537415,
          -0.06372944392278257,
          0.4702243543828475,
          0.25467523827421445
        ],
        [
          -0.3421076868560824,
          0.19139634904080782,
          0.4370828979245972,
          0.5163807119699451,
          0.46285692012897917,
          0.15035745921041388,
          0.037901479400176186,
          0.535787198751688,
          -0.3180139166020411,
          0.1058917651851714,
          0.24246151190729326,
          0.35476981317541834,
          -0.11075336330167579,
          0.5391118097663019,
          0.19560326745026024,
          0.05486973474813983,
          -0.4486378974914025,
          -0.18043049809746303,
          0.37106360756793777,
          0.415936239250706,
          -0.11279806573249795,
          0.48308763289874457,
          0.2169365500501761,
          0.4573028489871027,
          -0.3261951976330656,
          -0.29764969834133714,
          -0.20615361066777965,
          -0.45457846799670576,
          -0.15542078325693626,
          -0.3085938990568218,
          0.5101825342834607,
          -0.11269210187213102,
          0.03415255878201229,
          0.3416096995237533,
          0.1479761076170909,
          0.14851223698805804,
          0.10233201736441588,
          -0.2782710458700091,
          -0.3050739302359582,
          -0.15132519612396794,
          0.46727982433467274,
          0.35876780122534824,
          -0.5230945264722915,
          0.2567099484869376,
          0.3700242939631787,
          -0.4298873709003221,
          0.5321898127749363,
          0.24307672162289085,
          -0.5169190276248232,
          0.2527653599773817,
          -0.40584712981844595,
          0.3889395475097992,
          -0.03709326348757058,
          -0.1993238803208744,
          0.3025606985660504,
          0.33416215588437315,
          -0.010745939887708555,
          -0.538445010118855,
          -0.3972355988280689,
          -0.2633943978422943,
          -0.4757186746794794,
          -0.5273029197768193,
          -0.3068612548675526,
          -0.43323190085686397,
          0.2038179663304691,
          0.13784597454646574,
          0.3706820939801746,
          -0.18813170822333614
        ],
        [
          0.17760350331976882,
          -0.3282582498524462,
          -0.48270640526595165,
          -0.5125906710922957,
          0.34687951403908657,
          -0.5290264719994703,
          -0.021001163706428683,
          -0.17798593339078783,
          0.11706628028813504,
          -0.3930102860000157,
          -0.22511118927844848,
          0.05916804417438393,
          0.5441235789063625,
          -0.5250910469155731,
          0.01619965549923541,
          0.3548648846643684,
          -0.5188744111923268,
          -0.5338398227574556,
          -0.0005617113489720937,
          0.20371301812824838,
          0.39706361063799134,
          0.21778731019904352,
          -0.5123653489045218,
          0.40511868863847866,
          0.2773925375920121,
          0.29292406149828853,
          0.5025239853910313,
          -0.17139127434311185,
          0.02192922257249752,
          -0.47347239829846194,
          -0.5005785945732247,
          0.24162600104286636,
          -0.17616271766089192,
          0.477752636116511,
          -0.12317588095658089,
          -0.22846044213679229,
          -0.46610356302596423,
          0.462097607829312,
          -0.23913606670172588,
          -0.11327806382795685,
          -0.010934262353086144,
          -0.5191965810214716,
          0.38322216278097276,
          -0.30716736407236,
          -0.40493368151580644,
          0.09344421110050594,
          0.46794340991117034,
          0.03055382325407252,
          -0.30164006045425534,
          -0.5306551941117884,
          0.024907766785038477,
          0.30385111689426336,
          0.3510698809677123,
          -0.44214124905658225,
          -0.10873604289998512,
          0.3742792333956838,
          0.14317014658321736,
          -0.09462815430049615,
          0.47191751850552044,
          0.16725413759396235,
          0.41724781239162934,
          -0.24024270710056278,
          0.17227665158355532,
          -0.04915753153075225,
          -0.3781340036445192,
          0.15653671493732824,
          -0.4063734907127964,
          -0.3792584825937167
        ],
        [
          -0.0406437833528106,
          0.20408422176861862,
          0.06127122488198733,
          0.14603976897664306,
          0.19541952477115687,
          0.3692001067505212,
          0.3918742480007954,
          -0.1000777397798418,
          0.4309298232726041,
          0.5164474566344164,
          -0.5239586635252035,
          -0.2215672896482072,
          -0.10880115480282726,
          -0.18518816561523294,
          0.2524311619101427,
          -0.41179489456578067,
          0.2113532660796923,
          0.525921286542687,
          -0.22380117456148885,
          -0.2817500728889053,
          0.4950505764597948,
          -0.217908227615152,
          -0.23667359436316393,
          -0.017736924277306443,
          -0.39987826228208573,
          0.01370351134311043,
          0.475151337489808,
          0.007157114979771451,
          -0.44215143771699905,
          -0.19011860666501446,
          0.07357414561486986,
          -0.2420070497377786,
          -0.15013077022116195,
          -0.04212955271009533,
          -0.06294631696545788,
          -0.35620759765871635,
          -0.2545658071802606,
          0.12333228406000496,
          -0.42142009573075295,
          0.2136303257438945,
          0.20388212985743237,
          0.16690801076773487,
          0.5296948256148328,
          0.460426194045658,
          0.3169374252801129,
          -0.18529750785974564,
          -0.41549928536576863,
          -0.03663698808728799,
          -0.39977352941061894,
          0.17745260987860778,
          -0.27218138252233487,
          -0.4927725386703266,
          -0.2844588059380821,
          0.346472667026109,
          -0.5363793419788369,
          -0.3584809964795168,
          0.47503436746659133,
          -0.20732466167220737,
          0.28976348381543304,
          -0.5137246802866713,
          0.526527901284557,
          0.006891688029334708,
          -0.33994316674942393,
          0.1631834033242917,
          0.5165106791698246,
          0.4592407090531163,
          0.12873695575327038,
          -0.2895129694139547
        ],
        [
          0.44504670924476775,
          0.1940016678898725,
          0.2828908388148882,
          -0.3982736717145611,
          -0.2288093317552909,
          0.5408150276807744,
          -0.4587831062109511,
          0.18393255775939832,
          0.33156190938564245,
          0.4979048823957555,
          0.054692141108701686,
          0.4814195456709567,
          0.4875068592766547,
          0.26679778965908807,
          -0.006317713934152369,
          0.46328400562201577,
          0.44286551838333366,
          -0.08478788779513824,
          -0.40027849050330017,
          -0.3568420475954157,
          -0.4968371927183365,
          -0.5023918371638085,
          -0.37538247472092245,
          -0.3253219073229826,
          -0.26696164713791526,
          -0.5031724186201163,
          0.23612468441692536,
          0.5121447578004958,
          -0.3534733330204581,
          0.19615025868182756,
          -0.49239347323117616,
          -0.5342605192723745,
          -0.5133799363659156,
          0.3465351452071156,
          0.5413775306761894,
          -0.24266548066058713,
          -0.21360092687101118,
          -0.4502950898896003,
          -0.5203237210511052,
          -0.024401665045271193,
          0.29101042005631916,
          -0.11440827048862656,
          0.3645838400296184,
          0.33436504048963234,
          -0.4829957498916624,
          -0.18938258339245867,
          0.48794125135658595,
          -0.4988323083923027,
          -0.4572985949258126,
          0.21557634722731067,
          -0.3044924702065708,
          -0.05935165844129353,
          -0.5387518545516929,
          0.4460410211622736,
          0.03619577969430421,
          0.29633058398628465,
          0.4543742831999048,
          -0.17292717914469447,
          -0.515055743861055,
          0.4267465290785407,
          0.4903826870273005,
          -0.45832921199313215,
          0.022056104237797358,
          0.1670552426274553,
          0.33135363744047575,
          0.23706596913365674,
          0.41466147070715265,
          0.3975472852557319
        ],
        [
          0.42679316607260676,
          0.41112273574229585,
          -0.4178583140883304,
          0.11558760245840183,
          0.15186175911732458,
          0.2777366200502953,
          0.28295961592239915,
          0.023298520240721987,
          -0.5209726919456075,
          -0.5057118541162638,
          0.2547005211201008,
          0.42805654605285637,
          -0.48755938725329495,
          -0.0051030727438353685,
          -0.5118325477089356,
          0.38078935530820557,
          -0.5400918938818254,
          -0.03656424906487077,
          0.048450778325015875,
          0.13813949716530605,
          -0.04585641156687881,
          0.41089180084743415,
          0.5083468572156176,
          0.4393269185669699,
          -0.30664628506426705,
          -0.5315317438713356,
          0.0996010801664885,
          -0.004375434364183972,
          0.2715190256528093,
          0.5232684151163205,
          0.085597316026233,
          0.17894809067761563,
          0.3537582701616453,
          -0.5329886010988534,
          0.2968648208809238,
          0.35821069145079343,
          0.2380735279627304,
          -0.07383098231160501,
          -0.5366050400309886,
          0.5221609947513015,
          0.49536644887806913,
          0.24106271628446463,
          0.19615948232509695,
          0.501857803724207,
          0.21640554233681397,
          -0.23658165545276533,
          -0.08303157009205969,
          -0.3429823767089793,
          -0.2742676607958149,
          0.07132415337603282,
          -0.3727201866208114,
          -0.4410826902769837,
          -0.4174816773320831,
          0.4005349171747289,
          -0.057929576922716886,
          -0.5421836210066955,
          0.2839056048552333,
          -0.056827031664298366,
          0.32539155808682774,
          0.47161244517275547,
          -0.2546637009782579,
          -0.21247221801988542,
          -0.4732833584343711,
          0.4682335183655315,
          -0.41088747503607054,
          0.42093442899443423,
          -0.45923296171622563,
          0.20977257314992914
        ]
      ],
      "b": [
        0.5439424167903497,
        -0.36000572356479343,
        -0.027666519838551062,
        0.3834216899573315,
        -0.03973227508020505,
        -0.29108835641350456,
        0.28273272159465745,
        0.5092623241638836,
        -0.5260025475832608,
        -0.20381567948428075,
        0.5398017984178285,
        0.3524321485250874,
        -0.3809251120967983
      ]
    },
    "layer_2": {
      "w": [
        [
          -0.6751554018323105,
          -0.2286686319996839,
          0.9235601550623547,
          0.14299520631213047,
          -0.5149712866602739,
          0.03157460998489303,
          0.7315528270084035,
          0.9564985747639501,
          0.41322247784648836,
          -0.10856577938719203,
          0.4319030268986579,
          0.7731721283867425,
          -0.02530193606812592
        ],
        [
          -0.30195167499117803,
          -0.9553782996235118,
          -0.3372638299614005,
          -0.8273421546449196,
          0.061537641660844855,
          0.5099237305174369,
          0.9665893370261198,
          0.6671843685796555,
          0.12454848648214978,
          -0.9806068656134654,
          -0.8412707839469691,
          0.8684932085111234,
          0.2508610954268984
        ],
        [
          0.0008827624419509572,
          0.4604185968304073,
          0.4654208548754679,
          0.2527779464555062,
          -0.2818550019791247,
          0.44376936290941593,
          -0.8140189770613904,
          0.24332530118403883,
          0.6712361313754618,
          -1.0326672479236,
          0.7772378765067349,
          0.2460000613212261,
          0.3211415374268989
        ],
        [
          0.5469772974469094,
          0.1274154243900476,
          0.5600642156696729,
          0.7016226262740868,
          -0.6581367355494061,
          1.036227563150801,
          0.8650536258266908,
          -0.4980751639786247,
          0.04469884536655688,
          -0.19885944251689258,
          -0.8678980410458677,
          -0.7947851706057111,
          -0.7693988491622314
        ],
        [
          0.6976027369432081,
          0.17581416256744498,
          -1.0629142203878392,
          1.0225901788434317,
          0.21237314398687057,
          0.5103818758766199,
          -0.8518966451460832,
          0.8750455390521445,
          0.9195508139918815,
          -0.011084739092819706,
          -1.0503804086886077,
          0.47180661253650236,
          0.0035477747647574276
        ],
        [
          0.6305111132551864,
          -0.9770957000186358,
          -0.9243412199114835,
          -0.7110019729362859,
          -0.6756074629979134,
          -0.5105759164032889,
          1.0673243095867324,
          0.9375724018872962,
          -1.0340644400954218,
          0.668639138222676,
          0.8957429019080454,
          0.5483342614705582,
          0.5416456882558194
        ],
        [
          -0.3649398668144056,
          0.2513776259753433,
          0.04634267233006151,
          0.4029299812424427,
          0.8480455813503522,
          -0.48556750453279196,
          -0.5794612828453501,
          1.008719919132142,
          0.9496566413746304,
          0.7453810430080012,
          0.6868528097072115,
          0.8473389114367573,
          0.35433756068498123
        ],
        [
          -0.35670572969718917,
          0.6376224411813769,
          0.7135238704630837,
          0.1067381470182267,
          0.1922324081510276,
          -1.0478969709330208,
          0.19133227499708183,
          0.4289166212770812,
          0.07899623925052746,
          -0.9535564746930892,
          1.0024883731206997,
          0.9760146495512845,
          -0.9157875309326082
        ]
      ],
      "b": [
        0.7961309225781101,
        0.1979271936473157,
        -0.6114656217276514,
        -0.36567833070814393,
        0.26204882148614517,
        0.6733790410460532,
        -0.27583600951488396,
        -1.0659116593712734
      ]
    },
    "layer_3": {
      "w": [
        [
          0.9388434481051684,
          -0.6436828545751242,
          -0.3848415337354425,
          0.05539167599119166,
          -0.7795648243160912,
          0.058040988204522526,
          0.4828190980493874,
          -1.0658211492729697
        ],
        [
          -0.21045644067752844,
          -1.4993843808559388,
          1.1391962142499756,
          -1.4127126756114368,
          0.8166605954383002,
          0.7978503351363915,
          1.1339970392802385,
          1.4316573832702835
        ]
      ],
      "b": [
        -0.24894751404542403,
        -0.30570179327660885
      ]
    }
  },
  "input_mask": [
    0,
    2,
    3,
    5,
    6,
    7,
    11,
    12,
    18,
    19,
    27,
    28,
    29,
    30,
    32,
    33,
    34
  ],
  "ablated_input": null,
  "ablated_value": 0.0,
  "output_param": "atan2_signed",
  "scaled_pi_n": 1.0,
  "delta_max": 0.35,
  "normalization": [
    {
      "transform": "none",
      "scale": 0.8655390346546353,
      "center": 0.9204641308303162
    },
    {
      "transform": "asinh",
      "scale": 0.8175600848274288,
      "center": 0.8867681772014051
    },
    {
      "transform": "asinh",
      "scale": 462.6300273768903,
      "center": -333.1697854608212
    },
    {
      "transform": "none",
      "scale": 5413222.0902614985,
      "center": -508770.60939412704
    },
    {
      "transform": "none",
      "scale": 1157.3507227945558,
      "center": 4549.679429911598
    },
    {
      "transform": "asinh",
      "scale": 10.358129862795693,
      "center": 12.17320223341297
    },
    {
      "transform": "asinh",
      "scale": 0.33924629426269115,
      "center": 0.40005844701414567
    },
    {
      "transform": "none",
      "scale": 0.42411593596120784,
      "center": 0.42858041580763234
    },
    {
      "transform": "asinh",
      "scale": 33.09832239288295,
      "center": 82.65759631477488
    },
    {
      "transform": "asinh",
      "scale": 0.0911362193061205,
      "center": -0.04718278665783951
    },
    {
      "transform": "asinh",
      "scale": 0.2151370816795333,
      "center": 0.29274513397808116
    },
    {
      "transform": "asinh",
      "scale": 9.832939972853932,
      "center": 11.55598244317186
    },
    {
      "transform": "asinh",
      "scale": 3.256400734674897,
      "center": 3.827025266270693
    },
    {
      "transform": "asinh",
      "scale": 5107742.117847206,
      "center": -3590633.2113008387
    },
    {
      "transform": "asinh",
      "scale": 10217099.16686349,
      "center": -6706141.091617538
    },
    {
      "transform": "none",
      "scale": 0.5,
      "center": 0.5
    },
    {
      "transform": "none",
      "scale": 1e-6,
      "center": 0.4262529995153208
    },
    {
      "transform": "asinh",
      "scale": 594.4827404994671,
      "center": 716.3429422450554
    },
    {
      "transform": "asinh",
      "scale": 412.89140647256187,
      "center": -302.7939124482325
    },
    {
      "transform": "asinh",
      "scale": 154.12675819494976,
      "center": -169.7611160606572
    },
    {
      "transform": "none",
      "scale": 1.5707963267948966,
      "center": 1.5707963267948966
    },
    {
      "transform": "none",
      "scale": 0.1,
      "center": 0.0
    },
    {
      "transform": "none",
      "scale": 3.141592653589793,
      "center": 0.0
    },
    {
      "transform": "tanh",
      "scale": 30.0,
      "center": 0.0
    },
    {
      "transform": "tanh",
      "scale": 100.0,
      "center": 0.0
    },
    {
      "transform": "none",
      "scale": 1.0,
      "center": 0.0
    },
    {
      "transform": "none",
      "scale": 1.0,
      "center": 0.0
    },
    {
      "transform": "none",
      "scale": 1.0,
      "center": 0.0
    },
    {
      "transform": "none",
      "scale": 1.0,
      "center": 0.0
    },
    {
      "transform": "none",
      "scale": 1.0,
      "center": 0.0
    },
    {
      "transform": "none",
      "scale": 1.0,
      "center": 0.0
    },
    {
      "transform": "asinh",
      "scale": 17774.23743300369,
      "center": 20521.130577512882
    },
    {
      "transform": "asinh",
      "scale": 500.0,
      "center": 500.0
    },
    {
      "transform": "none",
      "scale": 60.0,
      "center": 60.0
    },
    {
      "transform": "none",
      "scale": 100.0,
      "center": 0.0
    }
  ]
}