{
  "format_version": 2,
  "architecture": [
    {
      "type": "dense",
      "input_size": 17,
      "output_size": 18,
      "activation": "swish"
    },
    {
      "type": "dense",
      "input_size": 18,
      "output_size": 9,
      "activation": "swish"
    },
    {
      "type": "dense",
      "input_size": 9,
      "output_size": 2,
      "activation": "asinh"
    }
  ],
  "weights": {
    "layer_0": {
      "w": [
        [
          0.2040351060698089,
          -0.5538011717006447,
          0.37733480971552025,
          0.34576377375292555,
          -0.0006983233695069258,
          0.4239411804806623,
          0.1949826146494813,
          -0.08441583402886965,
          0.5892813926198737,
          0.7576029673241642,
          -0.07623920644737248,
          0.23018840678047492,
          0.4944755782027457,
          -0.6195307759600566,
          0.6422341044568076,
          -0.3392441462454817,
          -0.005077776794664368
        ],
        [
          0.02144116610346747,
          0.4275904748229369,
          -0.2725192100866338,
          -0.20838685086978848,
          -0.08029741640218724,
          -0.605188082088393,
          -0.6794487509439386,
          -0.6713293126862402,
          -0.2766742291588813,
          -0.6927581397163622,
          0.5019197915482818,
          0.1883816278491044,
          -0.18753610425645095,
          -0.21210958049449347,
          0.7577090794773715,
          0.04139515446062503,
          -0.8255042423868837
        ],
        [
          -0.6425608345849119,
          -0.822448540866932,
          -0.010550461375448461,
          -0.8232355331407767,
          -0.8020091207267295,
          -0.2790481199207172,
          0.6432038806766924,
          0.4614768133640963,
          -0.3838493362916695,
          0.8124077794427178,
          -0.616849943753992,
          -0.7329689061662622,
          0.36029852592360334,
          0.6971508620670943,
          0.38261489446576946,
          0.03837004747500061,
          -0.7717050206485541
        ],
        [
          -0.8074274499676373,
          0.798442021699427,
          -0.5739690415708525,
          -0.5367256917479097,
          0.15616472861717612,
          -0.550890376729131,
          0.4742597554189505,
          0.6755978341529909,
          -0.8174402612734981,
          -0.6909616157053777,
          0.25703981483165905,
          -0.8108411635604492,
          -0.5412700873252256,
          -0.1021153151607691,
          -0.13979257180804627,
          -0.7978723768920645,
          -0.817172869571725
        ],
        [
          0.4300765314322532,
          -0.6091435714597668,
          0.787053493609799,
          0.14360832949501212,
          0.6272340684133313,
          0.16243425604034778,
          0.8054932299463842,
          -0.5322397802978978,
          -0.6239268095370224,
          0.8273989086517757,
          -0.6032973296950743,
          0.08611763428168917,
          -0.7195490911792558,
          0.46509793020254,
          0.6218059292773388,
          0.7521238411519431,
          -0.6035508576278409
        ],
        [
          -0.29433986834034476,
          0.23607436719932928,
          -0.8166652589377561,
          0.772910522116105,
          -0.29925103193236013,
          -0.617788117661968,
          -0.8045762727993863,
          0.431455046772397,
          0.434526076570938,
          0.6396689782399907,
          -0.10162468909665656,
          0.006314962323689999,
          0.2323682687850006,
          -0.5797931125043726,
          -0.795930301512069,
          -0.7815892818209824,
          -0.43046443196743067
        ],
        [
          0.7919918663602774,
          0.17152405582109953,
          -0.08651780971001899,
          0.04817523971402726,
          -0.8134393284544261,
          0.7249672674603984,
          -0.4805244537900874,
          0.0660467367532177,
          -0.2220555278570452,
          -0.09350440163018514,
          0.04143605261757932,
          -0.5856955526179926,
          0.19801239122962722,
          -0.7059858986785559,
          0.535997761690812,
          0.13847991083135824,
          -0.821601920185723
        ],
        [
          0.10146872297812226,
          0.8237636873501628,
          0.45870226130766745,
          0.637342422811656,
          -0.5030414288782816,
          -0.28863426070985154,
          -0.825541938052311,
          0.7892319563398014,
          -0.5173948920773996,
          -0.8137084428579437,
          0.25253786745530915,
          0.7071253583346699,
          0.6495623543378468,
          -0.3038756107969842,
          -0.3943932517135322,
          0.6762351343409276,
          0.6182188762332921
        ],
        [
          -0.4035911229076439,
          -0.8216287726869538,
          0.3927305392089824,
          -0.8233197182054155,
          0.4189446336125302,
          0.4800177469023532,
          0.08022899197929567,
          0.7202530093555701,
          0.1650196429853673,
          -0.29572986913447885,
          0.5473188225198493,
          0.105989639432297,
          -0.8095963157738835,
          0.8087296179766141,
          -0.7423509932319853,
          -0.6223661185337667,
          -0.6980184098336873
        ],
        [
          -0.733391876211529,
          -0.5807753330823526,
          0.7682993062044112,
          0.45146291149677187,
          0.7374035063729283,
          -0.681078321534484,
          0.6658677716143084,
          -0.04450161189418089,
          -0.39856148665578545,
          0.7690654008742324,
          0.8217322761660442,
          -0.3615575449431036,
          -0.516326723342416,
          0.4174024146642512,
          -0.7655963852743404,
          -0.6235014201980433,
          0.22534696114763264
        ],
        [
          0.8254167452355385,
          0.39145317269000524,
          -0.5468658550486286,
          -0.5578579259275894,
          -0.3542577884020453,
          0.5962085607192251,
          0.6742809291598963,
          0.7082493630768008,
          0.82009155444193,
          0.7314800559180386,
          -0.20096237222265645,
          -0.7581982474212967,
          -0.8203701026348331,
          0.2504833994262816,
          -0.1697460769261081,
          0.40196698028491507,
          0.8148639817175836
        ],
        [
          -0.5433987642478934,
          -0.5234118340984256,
          0.7690115874762151,
          0.08055220208673297,
          0.17716382740096304,
          -0.6943662629287769,
          -0.8019462422292687,
          0.5661402731683842,
          -0.3134089975964478,
          0.7985372839868579,
          0.6210879078801776,
          -0.02693789418843917,
          0.7896051613491881,
          -0.3072888606904539,
          0.634886687852434,
          -0.48974858690241163,
          -0.5640369909214705
        ],
        [
          0.5851653987750456,
          0.1539311220214914,
          0.5806845076764386,
          0.7543743529158542,
          -0.4171925338282946,
          -0.8193769034888004,
          -0.6096302329149693,
          -0.136524633690295,
          -0.5894053882296197,
          0.20144363893327633,
          0.16905872917064135,
          -0.7373459839985179,
          -0.8093267474922431,
          0.6223438437547162,
          0.7673276008802519,
          -0.8044626904436761,
          -0.7460557198271422
        ],
        [
          -0.29332085895193816,
          -0.2480717126261507,
          0.4519293197597538,
          0.5035426770797631,
          0.2108510564057231,
          -0.802376100896749,
          -0.47034009796988024,
          -0.8125347532609266,
          -0.4432064871817089,
          0.19034832158821535,
          0.6938510890907257,
          -0.04198476791174599,
          -0.26142865572719154,
          -0.15698237009013616,
          0.4320953660817204,
          -0.8055238818048033,
          -0.7875048700709241
        ],
        [
          -0.8224492932383984,
          0.7942412245814656,
          0.7868273097474661,
          0.2762675702674018,
          -0.8187537912407927,
          -0.18876035339760266,
          0.09424603436068779,
          -0.6336811153201154,
          0.636495630687151,
          0.80243141249427,
          -0.18181928607984976,
          -0.7537430863419319,
          -0.7509048650804195,
          0.3442460641605307,
          0.038853794509655426,
          -0.014630379011485672,
          0.6629090895180259
        ],
        [
          0.8194519312787083,
          0.374096946993542,
          0.3647673557790916,
          0.6952047825721652,
          0.25522039118223727,
          0.3817151931068621,
          -0.8201640034908837,
          0.7375826433580801,
          -0.3489494336255795,
          -0.5133296901501193,
          -0.30379949448746413,
          -0.06060795802303787,
          -0.7812161769778013,
          0.8029376788339895,
          0.06937549282888145,
          0.7265260233691662,
          -0.4457510963089214
        ],
        [
          0.02787065210045303,
          0.13210878133905068,
          0.3177812511878113,
          -0.45096592277739106,
          0.5331639980738203,
          -0.8062550888400913,
          -0.7715542088164578,
          -0.07832936930086631,
          0.8261205386898196,
          -0.6553783507878301,
          0.012278861907045524,
          0.05266346361469232,
          -0.19205833254973204,
          -0.008497518427451833,
          -0.564584820058676,
          -0.045371110804864556,
          0.6455533703836929
        ],
        [
          0.8064649718844838,
          0.04566401928773145,
          -0.19162601742710816,
          0.5642242401148976,
          0.34747371455060905,
          0.6557662750046827,
          0.8245870351933959,
          0.6555048272175683,
          -0.2949228742721475,
          -0.13089744415974058,
          -0.8107481658544191,
          -0.17365783361755271,
          -0.7881084689023179,
          -0.6723972605407976,
          -0.7953892326485148,
          0.3635807606992909,
          -0.6838449863427628
        ]
      ],
      "b": [
        -0.054848823707109085,
        0.8169616601651004,
        -0.30518536889373504,
        -0.5861544858643,
        -0.7970808482375317,
        -0.7785457912682052,
        -0.18311926448202698,
        0.0029999718747886206,
        -0.7477688957557654,
        -0.6251077943777049,
        -0.8231056570432014,
        -0.8239063536058264,
        0.8023676587775119,
        -0.6192369744659573,
        -0.7825158431164149,
        -0.788039021913756,
        0.4073959735141519,
        -0.44926157512399995
      ]
    },
    "layer_1": {
      "w": [
        [
          0.716689642419033,
          -0.4994058747771837,
          0.8754550785280608,
          -0.1510948603414478,
          -0.07103158665300935,
          -0.13005650774161415,
          -0.8875817164979382,
          0.07454852943286538,
          0.8063281161313582,
          0.7865643631060659,
          0.8923470924171308,
          0.7822258722943742,
          0.20471167800188028,
          -0.3766983531659691,
          0.8471797844564677,
          -0.09909560368935033,
          -0.9306861731675748,
          0.787780370571658
        ],
        [
          -0.9308426395623898,
          -0.9146274928361369,
          -0.5761248500340411,
          0.7473939580189484,
          0.8255699187955374,
          -0.8710105746063109,
          -0.20643564925344982,
          0.9007160217214996,
          0.7635803499156417,
          -0.07988255600248184,
          0.5661443988372996,
          -0.5981475383685538,
          -0.349316456630538,
          0.04277650560758017,
          0.9067434201426638,
          -0.9420723753068347,
          0.9386836460810473,
          -0.8450866298179947
        ],
        [
          -0.10262243021812656,
          -0.295913122127928,
          -0.8729542310938232,
          0.6527614286404844,
          -0.167024842532269,
          0.8827473757954352,
          -0.08160426250994846,
          -0.7730225790725517,
          -0.6793919897055745,
          -0.7834176450568304,
          0.9203659364553325,
          -0.8590184576957609,
          -0.34551191188699004,
          -0.560383681275908,
          -0.11440327764041458,
          0.07773748574774597,
          0.6264728028247277,
          0.9235697827400235
        ],
        [
          -0.5933295836180357,
          0.41981591724511014,
          -0.8725215593891854,
          -0.07611462152348358,
          -0.04892778873831072,
          -0.15455412700928817,
          0.8202348353321962,
          0.4280766485113088,
          -0.14623790499084854,
          0.13921300611845733,
          -0.9368103854737175,
          -0.6834677151533541,
          0.7793877679516992,
          -0.38779928510392114,
          -0.4239572374777901,
          0.8999063839043435,
          0.14089549711600813,
          -0.11967168417108576
        ],
        [
          0.7719369812195391,
          -0.7519860517690589,
          -0.3458464237353598,
          0.5594859199789364,
          -0.553928188744542,
          -0.3523283582211336,
          0.7447060322069907,
          0.3103442265121299,
          0.8133307707859183,
          -0.9399310144467238,
          0.715625211361548,
          -0.7757880651099485,
          0.006641112063693555,
          0.8869702567966526,
          0.5667821154987993,
          0.9069536503454558,
          0.8130119323398604,
          -0.132319523157571
        ],
        [
          -0.6873814424658193,
          0.775736534294375,
          -0.9211239679906997,
          0.5695823066967891,
          -0.7847637044359989,
          0.9183708808142856,
          0.8925784526450837,
          0.4384428231720472,
          -0.0038361104355504327,
          -0.4688459435025104,
          0.7449871456456987,
          -0.5545190068537398,
          0.3178149754279107,
          0.6115644249920442,
          0.46130305490554346,
          0.9016418220981528,
          -0.7326090066419536,
          0.8782374829036204
        ],
        [
          -0.9031632499767859,
          0.9274435472976403,
          0.04766008879670325,
          0.05930623703192173,
          -0.6495894874696684,
          -0.6291061480098163,
          0.31465434899902234,
          0.90829524850197,
          0.927500133986453,
          0.9390153063516489,
          0.01640579687738075,
          -0.9280987662406689,
          -0.665945093747023,
          0.8990226290071615,
          0.11050135654890592,
          0.7589000669785091,
          0.38989710549531065,
          0.0767230127169265
        ],
        [
          -0.5240565697579356,
          -0.9310366918176494,
          -0.887719656666976,
          -0.9421924406236909,
          -0.9284968732357329,
          -0.2926013138068616,
          -0.4060207409386838,
          -0.8441320090593852,
          0.7661426186829745,
          -0.4745797790553908,
          0.8934555876048753,
          -0.6807883342488263,
          0.520112620613751,
          -0.3603870157579071,
          -0.2941847269476059,
          0.7407802402527541,
          -0.15493839079645355,
          0.3633022868230025
        ],
        [
          -0.9042992435836105,
          -0.36861765932398216,
          -0.9119065481704316,
          0.40643470096893464,
          -0.7584832158831594,
          -0.787547285272279,
          -0.5269273932411462,
          -0.8281826687380648,
          -0.7213941403195356,
          -0.5807817630992185,
          -0.43530241003260695,
          0.746679531836006,
          -0.9305004294222939,
          -0.1447965345906087,
          0.5014931686683788,
          0.8576897675291115,
          -0.445044802625371,
          0.7295616583870717
        ]
      ],
      "b": [
        0.5190942419329228,
        0.2873219814871648,
        0.7717037503906501,
        -0.14255280745058718,
        -0.8625750056631165,
        -0.4005793174296284,
        -0.32541752624723996,
        -0.6181220071964996,
        0.7771526961365203
      ]
    },
    "layer_2": {
      "w": [
        [
          -0.17128888804247544,
          0.5317933694937254,
          -1.4722257404941743,
          -1.1344492977781269,
          1.1609804383671896,
          0.4845108452838316,
          0.6405359933483723,
          0.9728680473106182,
          -0.25636024719063566
        ],
        [
          1.1939781202668898,
          0.31570003145723335,
          1.322692306247618,
          -1.1632778449057644,
          0.6957876205321298,
          -1.4578883753609104,
          -0.19607128399133167,
          -1.3778571274663434,
          -1.473876466745093
        ]
      ],
      "b": [
        0.7388933719762432,
        1.4503544481728334
      ]
    }
  },
  "input_mask": [
    0,
    2,
    3,
    5,
    6,
    7,
    11,
    12,
    18,
    19,
    27,
    28,
    29,
    30,
    32,
    33,
    34
  ],
  "ablated_input": null,
  "ablated_value": 0.0,
  "output_param": "atan2_signed",
  "scaled_pi_n": 1.0,
  "delta_max": 0.35,
  "normalization": [
    {
      "transform": "none",
      "scale": 0.8655390346546353,
      "center": 0.9204641308303162
    },
    {
      "transform": "asinh",
      "scale": 0.8175600848274288,
      "center": 0.8867681772014051
    },
    {
      "transform": "asinh",
      "scale": 462.6300273768903,
      "center": -333.1697854608212
    },
    {
      "transform": "none",
      "scale": 5413222.0902614985,
      "center": -508770.60939412704
    },
    {
      "transform": "none",
      "scale": 1157.3507227945558,
      "center": 4549.679429911598
    },
    {
      "transform": "asinh",
      "scale": 10.358129862795693,
      "center": 12.17320223341297
    },
    {
      "transform": "asinh",
      "scale": 0.33924629426269115,
      "center": 0.40005844701414567
    },
    {
      "transform": "none",
      "scale": 0.42411593596120784,
      "center": 0.42858041580763234
    },
    {
      "transform": "asinh",
      "scale": 33.09832239288295,
      "center": 82.65759631477488
    },
    {
      "transform": "asinh",
      "scale": 0.0911362193061205,
      "center": -0.04718278665783951
    },
    {
      "transform": "asinh",
      "scale": 0.2151370816795333,
      "center": 0.29274513397808116
    },
    {
      "transform": "asinh",
      "scale": 9.832939972853932,
      "center": 11.55598244317186
    },
    {
      "transform": "asinh",
      "scale": 3.256400734674897,
      "center": 3.827025266270693
    },
    {
      "transform": "asinh",
      "scale": 5107742.117847206,
      "center": -3590633.2113008387
    },
    {
      "transform": "asinh",
      "scale": 10217099.16686349,
      "center": -6706141.091617538
    },
    {
      "transform": "none",
      "scale": 0.5,
      "center": 0.5
    },
    {
      "transform": "none",
      "scale": 1e-6,
      "center": 0.4262529995153208
    },
    {
      "transform": "asinh",
      "scale": 594.4827404994671,
      "center": 716.3429422450554
    },
    {
      "transform": "asinh",
      "scale": 412.89140647256187,
      "center": -302.7939124482325
    },
    {
      "transform": "asinh",
      "scale": 154.12675819494976,
      "center": -169.7611160606572
    },
    {
      "transform": "none",
      "scale": 1.5707963267948966,
      "center": 1.5707963267948966
    },
    {
      "transform": "none",
      "scale": 0.1,
      "center": 0.0
    },
    {
      "transform": "none",
      "scale": 3.141592653589793,
      "center": 0.0
    },
    {
      "transform": "tanh",
      "scale": 30.0,
      "center": 0.0
    },
    {
      "transform": "tanh",
      "scale": 100.0,
      "center": 0.0
    },
    {
      "transform": "none",
      "scale": 1.0,
      "center": 0.0
    },
    {
      "transform": "none",
      "scale": 1.0,
      "center": 0.0
    },
    {
      "transform": "none",
      "scale": 1.0,
      "center": 0.0
    },
    {
      "transform": "none",
      "scale": 1.0,
      "center": 0.0
    },
    {
      "transform": "none",
      "scale": 1.0,
      "center": 0.0
    },
    {
      "transform": "none",
      "scale": 1.0,
      "center": 0.0
    },
    {
      "transform": "asinh",
      "scale": 17774.23743300369,
      "center": 20521.130577512882
    },
    {
      "transform": "asinh",
      "scale": 500.0,
      "center": 500.0
    },
    {
      "transform": "none",
      "scale": 60.0,
      "center": 60.0
    },
    {
      "transform": "none",
      "scale": 100.0,
      "center": 0.0
    }
  ]
}