{
  "format_version": 2,
  "architecture": [
    {
      "type": "dense",
      "input_size": 17,
      "output_size": 46,
      "activation": "swish"
    },
    {
      "type": "dense",
      "input_size": 46,
      "output_size": 23,
      "activation": "swish"
    },
    {
      "type": "dense",
      "input_size": 23,
      "output_size": 2,
      "activation": "asinh"
    }
  ],
  "weights": {
    "layer_0": {
      "w": [
        [
          0.5389533399922749,
          0.2660391587873614,
          -0.5367265184459352,
          -0.33202239050982724,
          -0.3000985553697674,
          0.03927211036467959,
          -0.36599465569069267,
          -0.2899797472608265,
          -0.21758860139380565,
          -0.12946155405170834,
          -0.16121001851972933,
          -0.02112482589599407,
          0.3618630082298224,
          0.50990502066177,
          0.11079994619663536,
          -0.6021813894500624,
          0.46242950339734745
        ],
        [
          0.36223051541945106,
          -0.39544405269843885,
          0.21167306285881038,
          -0.09720597207829063,
          -0.4345333057645371,
          -0.25229311976737334,
          -0.24964956267321498,
          0.2478530308373621,
          -0.37583812490325164,
          0.6122950315446548,
          -0.3460723652784439,
          0.5006613199871414,
          0.32504736302570403,
          -0.26151017347726696,
          0.1419535484164388,
          0.2248618768888656,
          0.4713825816661482
        ],
        [
          0.10083707549111298,
          0.12073851260482893,
          -0.2483421780646538,
          0.4318158489168574,
          0.43049138161138367,
          -0.5573962290218272,
          0.6059904841426068,
          0.33166587166381245,
          0.004750559878770488,
          -0.4380861668554842,
          0.025071146530625033,
          0.41518666236829527,
          -0.27188783470346733,
          0.6080725689694823,
          -0.4334465716613126,
          0.2698172033139271,
          0.36300298404626785
        ],
        [
          -0.5912857474198867,
          -0.2296478380304548,
          0.3094792155963184,
          -0.15480513779881633,
          0.573383194129247,
          -0.5204501386446502,
          -0.3058000667643582,
          -0.5995975342014251,
          0.15121773394253823,
          -0.37270973253325473,
          -0.17651505215773095,
          -0.6030707052874017,
          -0.24496060509838846,
          -0.5839797667936287,
          0.03089871628113361,
          -0.2687029281689162,
          -0.28280047966387795
        ],
        [
          -0.5990109353943559,
          0.5344316899004281,
          -0.20857989090252455,
          0.46425939356524204,
          -0.3841658652430515,
          -0.3642186536536979,
          0.4347497155116721,
          -0.06532989222361307,
          -0.3860846333485906,
          0.09798543195088216,
          -0.5807354758876604,
          -0.352891660737498,
          0.5483688021770824,
          0.024267466276025274,
          -0.07173988902352679,
          0.3434126869512213,
          0.3147738018625491
        ],
        [
          -0.19593612497865753,
          -0.21801285500616485,
          0.3513304911221561,
          0.11257844797798766,
          0.5337871949010645,
          0.19745149068516576,
          -0.2756862238499074,
          0.18208541015694502,
          -0.1397572642191247,
          0.18542361244369654,
          0.06917410545725444,
          -0.2643708652195139,
          0.2254773306102793,
          0.13667064544705365,
          -0.6004679316716158,
          -0.3199078028899578,
          0.5009162036399329
        ],
        [
          -0.3866500397063789,
          -0.4553791646597898,
          -0.6042248427894104,
          -0.45862925927343956,
          0.38715110996547686,
          -0.3720055361408816,
          -0.578925807088695,
          -0.37153448478565887,
          0.3993462221893386,
          -0.48438345589101073,
          -0.21697930213314215,
          0.01721207376526701,
          0.19813001064209934,
          -0.1451474252315304,
          -0.20689085870986862,
          0.20093923815198977,
          0.3509802346912382
        ],
        [
          0.024537873028910195,
          0.43278398422608266,
          -0.03856640793305233,
          -0.1936737384829264,
          0.3752020311463212,
          0.09104085965744735,
          -0.46749968120052254,
          -0.25585750223371484,
          -0.3215311377510492,
          -0.31145044900648705,
          -0.6029887150803407,
          -0.5900535392306357,
          -0.11713158360976439,
          0.31323513104266865,
          0.08967260406629629,
          0.1355710164386449,
          -0.5210398821395215
        ],
        [
          0.46609691392801145,
          0.37845357716459516,
          0.40709541702468954,
          0.07552865327333858,
          0.342911691059716,
          0.20958831368406328,
          0.36330209921687173,
          -0.5796528347699396,
          0.4741076469057065,
          -0.0790533907166533,
          -0.4325145205002012,
          -0.5951737112928066,
          -0.043082061278563843,
          0.16407485772870822,
          -0.44538342668379927,
          -0.19386257218792935,
          -0.5915348530290484
        ],
        [
          -0.41193514568008244,
          -0.07763150323206147,
          0.07036708072824394,
          0.517705140610203,
          0.6157058994063113,
          0.30676755155140734,
          -0.4995617401629088,
          -0.21544366156239836,
          -0.2829805196226476,
          -0.17711932173852374,
          -0.4997532618567579,
          0.20148435284544608,
          -0.05493254364455591,
          -0.26367587144818416,
          -0.48206347337745437,
          0.02653778907161386,
          0.30957870888635064
        ],
        [
          0.46223113464794074,
          -0.09309592075162876,
          0.30121808447387,
          -0.23374928712701182,
          -0.19722610346032865,
          0.24341273742604086,
          -0.22108214109098856,
          -0.34648351294482843,
          0.5447445344927827,
          -0.4735653955674486,
          0.15625904958546588,
          -0.13681016396345408,
          -0.016872282112061265,
          0.2886343700033015,
          0.1752195284391902,
          0.341419852586599,
          0.5337054323529627
        ],
        [
          -0.5222493368114131,
          0.03374753162878774,
          -0.16371225479391205,
          -0.4765602140716252,
          0.4433533911027464,
          -0.2165830348455755,
          0.2300471883973927,
          0.5483807799840249,
          -0.08180775292575082,
          -0.24149078346168013,
          0.5489092362854361,
          0.6094149842792139,
          0.3596339309812959,
          -0.34913426703405903,
          -0.10327853331415582,
          -0.521835328333695,
          -0.16271642923721008
        ],
        [
          0.5288123374384258,
          0.6144953360001796,
          0.035608090277469695,
          0.05138624995290042,
          -0.5990357985342486,
          0.31016666903963575,
          -0.6096705616946989,
          -0.09693828828250095,
          0.2762145100857638,
          -0.3683139787468529,
          0.4204620051581237,
          0.41233933082889973,
          -0.42588389508341645,
          0.34203271977321237,
          0.2811606052097778,
          -0.4221718241451007,
          -0.6140316857947329
        ],
        [
          -0.0014808319687734661,
          0.3145866719815673,
          -0.6040207305589553,
          -0.11280895628994414,
          -0.5515091829966844,
          0.4618909268509023,
          0.2061611361449297,
          -0.23193028263641574,
          0.33909100623057686,
          -0.5246948676102032,
          0.39588056856693765,
          0.37452895546395937,
          0.5937491880806401,
          0.247459054923575,
          -0.3974088636722286,
          0.4448052197689695,
          -0.029575256569837505
        ],
        [
          -0.39169310602709234,
          0.47964477528596217,
          0.5786667137724516,
          0.0965239333852117,
          0.5636424534531642,
          0.5193245936828764,
          -0.4328258648155291,
          -0.3340422595383799,
          -0.4799638077062387,
          -0.4675089742892278,
          -0.2899467370482143,
          0.40949922338235256,
          0.09130696467167831,
          0.5761542960947356,
          -0.01263929880289294,
          0.1699808837704999,
          0.4084111838783372
        ],
        [
          -0.00917158244596361,
          0.16789919796686636,
          -0.004371324216511763,
          0.13651816219046742,
          0.1266701345753385,
          0.4433433044517042,
          0.43157624183308985,
          0.4695411652456397,
          0.6087701706525036,
          0.2442275181631468,
          0.02953434306735414,
          0.5684394575181858,
          0.14725709331811998,
          0.5105301647642654,
          -0.6036088974987609,
          0.2660333751299754,
          -0.49266434067375225
        ],
        [
          0.3706111764049026,
          -0.3874368950532273,
          -0.5604938302382109,
          -0.5304911374122732,
          -0.02082248140122933,
          -0.25534580130664425,
          -0.1666586406176967,
          0.47994453002315784,
          0.06863027615954542,
          0.5397542105731957,
          0.4095208599062544,
          -0.05716602156944828,
          0.16307522757460835,
          0.5279656822683091,
          0.4216829363637672,
          0.24079208592716872,
          -0.3673383812630025
        ],
        [
          -0.3680556828004895,
          -0.3246215263427701,
          -0.5911808440830728,
          0.03632733272123345,
          -0.46516702989540026,
          0.28345213056844343,
          0.32644655618358975,
          -0.2595864324854536,
          -0.1693408857055912,
          0.2466654005860578,
          0.5367943492220882,
          -0.307754417037746,
          0.5688488983912122,
          0.2856635697907821,
          -0.6020547292589948,
          0.15640533660920763,
          -0.5255518039746249
        ],
        [
          0.38318475745897695,
          -0.41479937460327376,
          -0.32775674078601985,
          0.04688382339336428,
          -0.37876895403624106,
          0.45003305093295964,
          0.05856348848041992,
          -0.604229954961668,
          0.3606240234350928,
          0.3679191021677939,
          0.5943962978067941,
          0.18656542717750357,
          -0.3159315846316134,
          -0.5719130397033731,
          -0.02067330715223281,
          0.09721669701921642,
          0.4783308776191232
        ],
        [
          0.3489593103506706,
          -0.3245910646968692,
          -0.5472447636404936,
          -0.23007444928059062,
          0.04846409036823385,
          -0.20847753832319454,
          -0.44178443960392116,
          0.3696601043015163,
          -0.2648722164075208,
          0.603681631064294,
          0.45933031807071456,
          0.24496772584765059,
          0.18119331314038434,
          -0.16677664045589635,
          0.06925533601730827,
          0.20594432818859376,
          0.5786029644224154
        ],
        [
          -0.41360755504905844,
          -0.09604404434541236,
          -0.1925190440644275,
          -0.41684428718685496,
          0.4152271825235768,
          -0.61272731442086,
          -0.6090094558901159,
          0.38054954870241264,
          -0.39517270836322327,
          -0.021423349365401023,
          -0.572919116310576,
          0.396121396189305,
          0.18975250883338368,
          0.6038113690219117,
          0.08241150636222061,
          -0.06094294096185893,
          -0.34406286426811034
        ],
        [
          0.10398545729063091,
          -0.287611075677115,
          0.11960075499022615,
          -0.22174549060759063,
          -0.006167486985403148,
          -0.3287583646586661,
          -0.5704945502650195,
          -0.6075708186807954,
          0.210923186281621,
          0.15065671443986428,
          0.544485536665363,
          -0.5458224554242143,
          -0.16332154990983822,
          0.29693013738099905,
          -0.5452263432908616,
          0.3100670153574596,
          -0.11366564150968839
        ],
        [
          0.17967415923554153,
          0.5878063071234289,
          0.2339748615082401,
          0.12241267415772739,
          -0.5615066910071417,
          0.587079173630562,
          0.4521303608580861,
          -0.25640639108170143,
          -0.4778757355636699,
          -0.5556891183972785,
          0.2638154117530279,
          -0.5230255595111837,
          0.560695207993012,
          -0.5385715329243076,
          -0.14915908742485567,
          0.023608674324174683,
          0.4395128759547061
        ],
        [
          0.14123910133000783,
          0.04649694177865149,
          0.44657609445977886,
          0.37237961712400014,
          0.10730329173857689,
          0.23932036909067955,
          0.5039359796963229,
          0.4422816441062437,
          -0.20567325312941692,
          -0.5525778130942156,
          0.36334584305167195,
          0.5959923390099325,
          -0.13203582612810666,
          -0.061229940887780776,
          -0.5195898103067177,
          -0.4985129271403528,
          0.02714286337837235
        ],
        [
          0.24656009515985977,
          0.5716565993713995,
          0.5995595056172068,
          -0.260718687342453,
          -0.48464743861375525,
          -0.18752232036822503,
          0.32399844539698786,
          -0.12531762724968104,
          0.5749793577092622,
          -0.4071974279903523,
          0.01967559941291419,
          -0.0502128841635503,
          -0.5975142510871959,
          0.23294149697793798,
          0.23996690184619007,
          -0.3128699850524837,
          0.20988184490860184
        ],
        [
          -0.15967932711354593,
          0.06958469587298521,
          0.5832553687298788,
          -0.4278465947373604,
          -0.4180369207700234,
          -0.2415063072872624,
          -0.11791849668167081,
          -0.42843829155669255,
          -0.40193474566685294,
          -0.3496124745420463,
          0.29719379156028936,
          0.5598593069535717,
          0.419771616950415,
          0.19656909254679333,
          0.3401917011634218,
          -0.08836107859266251,
          0.5170237498278408
        ],
        [
          -0.610020464771874,
          -0.41229206500253485,
          0.3154355162332081,
          -0.4993917572124365,
          -0.5505918365250313,
          -0.2544069407792994,
          0.13505708325760968,
          0.078193889652728,
          0.6069731927437211,
          -0.5054183828243154,
          0.2746218446435603,
          0.4225166773938823,
          -0.47578075838822687,
          0.3615929755087489,
          0.5335254949382572,
          0.07378612195509837,
          0.6083916710501988
        ],
        [
          -0.6130287983023102,
          -0.20857476815269038,
          -0.06527152832739413,
          0.38267689503997737,
          0.33025873708664166,
          -0.6112096557490767,
          -0.36582282472622185,
          0.24932174169389665,
          0.10882846316479511,
          -0.036960855331409026,
          0.04408755300201328,
          -0.20069903623735974,
          -0.6024207264145373,
          -0.5332794981249499,
          -0.024921071562200914,
          0.168240932577843,
          0.3292584744517212
        ],
        [
          0.5746632304920155,
          -0.28461451518768827,
          -0.047617626492172604,
          -0.12911208906411925,
          -0.06291613937120522,
          -0.5789690518237666,
          -0.5008836301763121,
          -0.4570199202990587,
          -0.46399444236851606,
          0.46097493325086847,
          -0.5972599983207527,
          0.2487072436063632,
          -0.5174886452879242,
          -0.4345493474311516,
          -0.15670078010339894,
          0.08718190306296891,
          -0.13755120572871066
        ],
        [
          0.37190383600182864,
          0.6065689699780578,
          0.3265833975947934,
          0.5749617029111914,
          0.3010916451425715,
          -0.47897141477499583,
          -0.4757122842019146,
          -0.18411637403473813,
          -0.34784679084720727,
          0.34070472841401156,
          0.5236347248392631,
          0.49496721295209667,
          -0.033027947621497855,
          -0.3898326252989251,
          0.4225666358968595,
          0.1394283714304576,
          0.23076171611402185
        ],
        [
          -0.4405259063793797,
          0.27511837422338736,
          -0.4093659594092028,
          -0.5114526042963651,
          0.06525879791850153,
          -0.5650005823182321,
          -0.05129161108078473,
          -0.4061694743796692,
          0.30657788883479875,
          -0.5065760681894327,
          -0.4812554601175496,
          0.5062783225962698,
          0.09439018646610264,
          -0.5224105386733264,
          0.2000119815935626,
          -0.3513782722935163,
          -0.11192418359276002
        ],
        [
          0.4430264229428936,
          -0.3429756299716623,
          0.16580429093065507,
          0.3755526584103924,
          0.15288033931425737,
          -0.3569170123706819,
          0.14079341791663713,
          -0.2388470164822441,
          -0.36947619379016927,
          -0.5062669144862455,
          0.5518574533636181,
          -0.2102852116738128,
          -0.08813644149071997,
          0.5683284336845987,
          0.3890039845013614,
          0.48421690277183205,
          0.24785788173709455
        ],
        [
          -0.482130507332305,
          -0.38361607469054276,
          0.42537190216112963,
          -0.4069381341637752,
          0.32864834084438477,
          0.600523680043621,
          0.41136920206252026,
          0.09439948247592722,
          -0.23185234754989642,
          0.06654659168859056,
          -0.5861468931356604,
          0.52298787054594,
          0.6072471983845696,
          0.3459897522371894,
          0.11708395994646403,
          0.0403986114673861,
          -0.43591935984998353
        ],
        [
          -0.41958304944429875,
          0.48278219968942715,
          0.57886546310077,
          0.3175088302124728,
          -0.28118326125098625,
          0.18192114279016525,
          0.16125836337550026,
          -0.5833534039061719,
          -0.3953866047168089,
          -0.5973095376491043,
          0.0338429288763078,
          0.6062593685887919,
          0.41787412481755404,
          -0.1670693966441601,
          -0.3573143605875647,
          0.6108207237183841,
          0.600292765953769
        ],
        [
          0.08574956658364807,
          0.5991764107993097,
          -0.08819206332495311,
          0.4094920469549822,
          -0.3467971671041942,
          -0.5702134745091599,
          0.03191993451389863,
          0.5038676548289679,
          -0.45317854412986824,
          0.3487906213626205,
          0.5342712602984897,
          0.18752978995465897,
          -0.3836061050750722,
          -0.39488745429244043,
          -0.38946765462439636,
          -0.6118486917476359,
          -0.48326095351935205
        ],
        [
          -0.46079032463468617,
          -0.524872260326025,
          0.0956760661387237,
          -0.4509676417052122,
          -0.5684783815125997,
          -0.5466101981028574,
          -0.19590281318254138,
          -0.3697294981451528,
          0.4181289945784433,
          0.45012338600425383,
          -0.07274129818482633,
          0.5950742638831806,
          0.2287263380229394,
          -0.5124229664039741,
          0.5380332235293238,
          0.06067314777300936,
          0.07732332769715422
        ],
        [
          0.173748968935298,
          -0.5226317295938233,
          -0.507216898005737,
          -0.26529363189683175,
          0.27022206107609015,
          0.27705130281420576,
          0.5603923140571584,
          -0.21761091633097246,
          -0.5739589650795657,
          -0.6064839189606359,
          0.18184590717463822,
          -0.2525079822493756,
          -0.48888078018207115,
          -0.5431876370297912,
          -0.40012297548672493,
          0.4449995125556111,
          0.1558084721626114
        ],
        [
          -0.491743833226052,
          0.28936947564531124,
          -0.27931775960239896,
          -0.4387753430217522,
          -0.5715744589604854,
          0.4788655990356562,
          -0.09663545305156529,
          -0.38115309681528775,
          0.14952527981458996,
          0.38196968161162637,
          -0.5353211268829353,
          -0.47616433838530675,
          0.35233523607229367,
          -0.05846182268296807,
          -0.40680288983032575,
          -0.38224568533700365,
          0.4851498916802869
        ],
        [
          0.09130814259700093,
          -0.5034386285723023,
          0.42873497410092243,
          0.6145730611892845,
          0.43281239853557085,
          -0.31870175092938235,
          0.19849101073717834,
          -0.13731584561601634,
          -0.07372172769661167,
          -0.23638252439316382,
          0.5615489590778836,
          0.02417866322915274,
          0.44325841257822207,
          -0.5598525928068732,
          -0.1353551906962311,
          -0.003822868538238322,
          0.4980723223560505
        ],
        [
          -0.15993945425897288,
          -0.5398199347427065,
          0.08369938512050723,
          0.32348229027945063,
          -0.2638401595303115,
          -0.566731312876859,
          -0.5138196917025409,
          0.3035040350139776,
          0.22388203905185178,
          -0.44300389855057415,
          0.038429482230757706,
          0.4532966093199232,
          -0.23476988474694216,
          0.6119492798890246,
          -0.18084888771707208,
          0.49351723351140875,
          0.08003244248971797
        ],
        [
          0.49221099724613826,
          -0.1259214814233291,
          0.43943725297628544,
          0.32929785793559896,
          0.18489573864753206,
          0.614042043957468,
          0.2255679939009656,
          0.049527326679540185,
          0.585761072026313,
          0.4050356751451284,
          0.46067648872088907,
          -0.44767640637452877,
          0.01375334258811367,
          0.020168369044738954,
          -0.17668619432152727,
          0.6035351813132918,
          -0.5449749141636155
        ],
        [
          0.4804370169430475,
          -0.24915853160957385,
          -0.34621068209460626,
          -0.3205635494237809,
          0.1390057956730386,
          0.2035909700443721,
          0.26550023555168034,
          0.4880108835690037,
          0.18491742176763426,
          0.09671499820425333,
          -0.22876075047220984,
          -0.4224687037549606,
          -0.3966854432214225,
          -0.17532666345668996,
          -0.6169292197867492,
          -0.011791336250782547,
          0.3909614491493746
        ],
        [
          -0.18736292569856167,
          -0.5407204566764899,
          -0.12715549922976277,
          0.5196219452624721,
          0.5342659796088768,
          0.3271791965344796,
          -0.13085879886546165,
          0.23112863632180825,
          -0.21468734154380964,
          -0.37165180974215994,
          -0.024447599335616133,
          0.4664717501336829,
          -0.5768178583080712,
          -0.41825350253624144,
          -0.42719861189295805,
          0.04173086079842814,
          0.24555741947266319
        ],
        [
          0.1649805174747221,
          -0.5341637070098815,
          -0.29488125364826057,
          -0.35174131162228667,
          0.35647918509318743,
          -0.2709467590653176,
          -0.15235743607570434,
          -0.09688836419620117,
          0.07493544621892634,
          -0.5647860514932534,
          -0.19371317094730223,
          -0.3366113157686128,
          0.4670334797917618,
          0.3327616128786077,
          0.5189920408752052,
          0.028700629384894816,
          0.28558306435383407
        ],
        [
          0.5444086637128857,
          -0.4640375337619048,
          -0.44555478493294487,
          0.056792841203070266,
          -0.5698502446285112,
          0.410868697390245,
          0.5340277090899767,
          0.5507622733428504,
          0.23390011394298305,
          0.5438317022983211,
          -0.2827486724162599,
          -0.5660182766139764,
          -0.036813662982275286,
          -0.5757483114339377,
          0.31741920059498174,
          -0.07215502768568582,
          -0.3526673857384312
        ],
        [
          -0.5554237381358671,
          -0.04882557617275607,
          -0.5463964885464616,
          0.06073309552197226,
          -0.5441118068187346,
          0.49037574399944994,
          0.06339380580366805,
          0.03553028402302838,
          0.33907814428084626,
          -0.26248709259993674,
          -0.22094896229253508,
          0.07697804705812916,
          0.4000820905308792,
          0.5558040641726473,
          0.5476098391788894,
          -0.15601049033087272,
          0.06962661937795622
        ]
      ],
      "b": [
        -0.41185342646313583,
        -0.48982839728305116,
        -0.33730718273503785,
        -0.3683843031230065,
        0.3180281280090589,
        -0.09818965661180168,
        -0.13387283825762458,
        0.17124347624786274,
        -0.6049610041573403,
        -0.2812377531013987,
        0.4403177497945455,
        -0.5004206715429589,
        0.06590173085623485,
        -0.21098557906208038,
        0.03956107420466115,
        -0.60053017893653,
        0.014900056608377565,
        -0.5598227499503549,
        -0.3045588754255709,
        0.22909592860192063,
        0.08015634404271643,
        -0.4196429069477562,
        -0.013058638712351245,
        -0.402384375498832,
        -0.520286938240798,
        0.06222864184310928,
        -0.6140708359067575,
        0.6171840777650731,
        -0.5936841276514601,
        0.13086083902158363,
        0.2192560564636198,
        -0.24340110879814436,
        -0.3451702835237873,
        0.010198685333361435,
        0.5948067188037972,
        -0.4024540888154642,
        -0.3678416285395264,
        0.31007017620137145,
        -0.2964166722168883,
        -0.3388824457541572,
        -0.5989961452504728,
        0.010098514156266725,
        -0.3942551759694767,
        0.5181463904527358,
        0.07877357783075767,
        -0.054581727177622885
      ]
    },
    "layer_1": {
      "w": [
        [
          -0.1456880883441336,
          0.1758602921701099,
          0.47237557913388195,
          0.07966567777664002,
          -0.17168803936409804,
          -0.12934211813218122,
          0.06498137892744038,
          0.24635682278816529,
          0.009948997672785231,
          0.39117465130530216,
          0.5347103497620129,
          0.38235834683325487,
          0.579937726345672,
          0.3193693201426556,
          -0.38850052549859515,
          -0.445461708818755,
          0.36469446628602575,
          0.5539151983273862,
          0.561133722692271,
          0.541311099085217,
          0.3018667261568143,
          -0.28693714700178,
          -0.018137026152296842,
          0.5640904047208182,
          -0.23297842885175135,
          0.16743851517628272,
          0.48887595814374607,
          -0.11753314408725207,
          -0.5084035964226825,
          0.4474226522539082,
          -0.38555504415506536,
          0.3045730760483787,
          0.17384660558196785,
          0.4032913337516725,
          -0.36017614241952245,
          -0.18733739055215248,
          -0.39544440519783974,
          -0.5400678743579337,
          -0.4571360123414306,
          0.3479217770086901,
          0.3788252398764027,
          -0.10887169265839325,
          -0.2967698722982841,
          -0.2190062531435084,
          0.03658001439616654,
          0.3064247887890392
        ],
        [
          0.173956794092459,
          -0.025447027255566468,
          0.4871918199073031,
          -0.25846993393015644,
          -0.2468328365800172,
          -0.3973913436763241,
          0.5286406226262736,
          0.2672009887785143,
          0.44457728024260623,
          -0.02913071490306851,
          -0.4062887182615039,
          -0.3316881962794127,
          -0.41679887045904407,
          -0.4385489077200695,
          0.21596947502955266,
          0.3676787837465436,
          -0.12386227352280293,
          -0.2781297820000454,
          -0.4689548914680392,
          -0.5569692600592187,
          0.37629344332972026,
          0.5658418995777872,
          0.41903559422457604,
          0.5400022609986965,
          -0.42566981148007677,
          0.5251867064053581,
          0.29157107337122845,
          -0.4074194102292159,
          -0.1320019680483559,
          -0.3345486440312014,
          -0.44748927433478425,
          -0.2780538676365551,
          0.28423286432311345,
          0.3180398827324489,
          -0.30138321836365595,
          -0.30910384573949773,
          -0.1129280033065419,
          0.23738436242356642,
          -0.5220816395634138,
          -0.24035986159903078,
          0.05739284159406599,
          -0.13870079363354976,
          -0.27368398370518526,
          0.4729976157277078,
          0.1790683047898569,
          0.4060374910587129
        ],
        [
          -0.4905744692146302,
          -0.07758020025060164,
          0.35531999295978245,
          0.45175022623567274,
          -0.2928101659875749,
          0.09599561518071542,
          -0.5692351507092804,
          0.4531952671617192,
          0.4286864033576534,
          0.5427874507061321,
          0.06435040822436999,
          0.22923273638538388,
          -0.18653390537960546,
          -0.5540302003578,
          0.1967977272897229,
          0.17821488850355038,
          0.02851969751578043,
          0.045409687760273654,
          -0.17363422125568034,
          0.09053546835484771,
          0.5166310883654759,
          0.5622078960303794,
          -0.5868108197613006,
          0.2602368657201274,
          0.4667130339484331,
          0.33983725349736216,
          0.14430383173444694,
          0.5582339212691376,
          -0.4308269859508006,
          0.016727394799274875,
          -0.024087306788765583,
          0.1582242443059575,
          -0.05671402116953739,
          -0.30046557048614525,
          0.0964416560789354,
          0.047063933154496085,
          0.35573901005831077,
          -0.4100650625310143,
          0.38223325311030387,
          0.5396996346427498,
          -0.25066385840230304,
          -0.4277188528127584,
          -0.3898381409548115,
          0.08052398320145604,
          -0.39035456685609426,
          -0.19861322361254324
        ],
        [
          -0.41793088934743305,
          -0.5450143764524064,
          0.07541704026100648,
          -0.5835315477147055,
          0.5697884309360557,
          -0.02227383436457231,
          -0.16146198548066648,
          -0.5006427386720327,
          -0.3698284633759888,
          -0.02968350834979927,
          -0.298912069849286,
          -0.24640602250965116,
          0.28651695438895297,
          0.34152340951162996,
          0.10656720965565025,
          0.43497851657111397,
          -0.5122307091238587,
          -0.382237200728438,
          -0.5757974845611067,
          0.5260818053079601,
          -0.46377228102198637,
          -0.5379917931013575,
          0.2823826706414473,
          -0.35965710442119847,
          0.5479043530519123,
          -0.5422928634631027,
          0.3189137014289861,
          0.5743281406733243,
          -0.46244597608473237,
          -0.15326251471919095,
          -0.1256678868356843,
          -0.39657980537644766,
          0.5743226980279792,
          0.44829526546681175,
          0.3363967750297897,
          -0.4634035515279615,
          -0.26397533776284277,
          0.11689224183449987,
          -0.07452482708555541,
          0.10851293777138282,
          -0.45905027255439246,
          0.45607199539340115,
          0.12817317205395218,
          -0.5609490470948563,
          0.5822845702359878,
          -0.3762426724324888
        ],
        [
          -0.5164525379497014,
          -0.15364618447315626,
          -0.25910591322574233,
          -0.40520132777202844,
          0.4809959255861713,
          -0.4709035996264816,
          -0.1002549087155497,
          -0.2292248493763152,
          -0.5808081476608659,
          -0.5801244184835972,
          0.05629787450332546,
          0.396011741124921,
          -0.1014792947640819,
          0.3173915810065754,
          -0.46895059972552333,
          -0.12964162482406888,
          -0.5647215025608389,
          -0.5020775883681172,
          -0.10961699504003619,
          -0.5399646253176017,
          -0.00676974729354507,
          0.31730693879355754,
          0.0453015710032727,
          -0.17897116925271317,
          -0.2554258755560581,
          -0.06755900092826861,
          -0.5593758540609016,
          0.035113940896579154,
          0.5756914573614624,
          -0.427267138518983,
          -0.530405864932762,
          -0.27505610987441914,
          -0.3607418456158659,
          0.04471260374696684,
          0.047720174470687216,
          0.3896924179614437,
          -0.34594732556028485,
          -0.2900641667853194,
          0.027466815252240373,
          -0.3197999990163626,
          0.17253739002281876,
          0.5384698455648276,
          -0.26088632772885006,
          -0.37938223319815206,
          -0.3678782387697269,
          -0.16893234701359394
        ],
        [
          -0.5681927135090854,
          -0.4769814957293402,
          0.27359376250459033,
          -0.5107274141101074,
          0.28610539088033693,
          0.5454740355474204,
          -0.373073859662868,
          -0.1793453262555656,
          -0.0393417671618328,
          -0.530027175653207,
          0.18351660344863685,
          0.37416248729843715,
          -0.16787178533954872,
          0.51586466003591,
          0.011556424512286112,
          0.5540809009444396,
          0.33983198591821084,
          -0.33627673541437547,
          0.4789394950870409,
          -0.2850311829879068,
          -0.47895973450975116,
          -0.5849892534117547,
          -0.26749097090612706,
          -0.30128386853095945,
          -0.27692051596474304,
          0.05044647981185235,
          0.0724645270859191,
          -0.2128655326705125,
          -0.20573295494549992,
          -0.5723045116411468,
          0.4705596938958352,
          0.49578702139418573,
          -0.43531208995787707,
          -0.0068866186257806605,
          -0.5190995942417953,
          -0.4243958256560051,
          -0.2896926531515168,
          0.29924729692295793,
          0.5839631038619304,
          -0.1271358383669003,
          0.5548131323783196,
          0.5250715721103378,
          -0.4413685110589415,
          -0.16455931655091482,
          -0.21271104979075273,
          -0.3894465497433698
        ],
        [
          0.07283773624821055,
          0.17854321437123988,
          0.035469797638473466,
          -0.5869624514855305,
          0.23767716944535333,
          -0.018260096476745535,
          0.4354811699446841,
          0.45842163057449814,
          -0.1351249609133794,
          -0.39705900920249104,
          -0.12375814896161302,
          -0.18935275048667644,
          0.3971868231204305,
          0.0604908294747164,
          -0.5677625527615733,
          -0.3423734926280658,
          0.22106093200534938,
          0.20019330267940283,
          -0.29156992079208854,
          0.5784499890086294,
          -0.5844479641293151,
          -0.2964798779932714,
          -0.17368824230573293,
          -0.5298205792067162,
          -0.40349720500635555,
          -0.5383090834369029,
          -0.15379988504331937,
          -0.3731330222942345,
          -0.1645704742415377,
          -0.5698225273280512,
          -0.5434322334228372,
          -0.4780187853929931,
          -0.17189222722019265,
          -0.48016535572170826,
          0.24753356978428864,
          0.09671884853940493,
          0.11365501162133185,
          -0.3789659513263036,
          -0.23649623020942118,
          -0.3575187083179841,
          -0.3132996257095745,
          -0.01665204328812031,
          0.48967915829414244,
          0.29340574276026876,
          -0.3565977636893604,
          0.5507469859787009
        ],
        [
          -0.3525252352596413,
          -0.0038742973786305424,
          0.5524743572463224,
          0.5828585778061643,
          0.3689220533326354,
          0.11937651084434697,
          0.49509797642684417,
          0.5145148119379508,
          -0.47791886664173605,
          -0.10284920499377015,
          -0.0551136864277173,
          0.5740235761960075,
          -0.4270715142805592,
          0.024591242324956242,
          0.22409521016458422,
          -0.2257295572760783,
          0.5340152584183038,
          0.5236734143900894,
          0.10092099977924074,
          0.035388325439159596,
          0.03977834090904797,
          0.5208948557359552,
          -0.4543916690330122,
          -0.2765539747180567,
          0.34753669478628735,
          0.02435419243565906,
          0.45066642586544114,
          0.18850187742089775,
          -0.09031287709955393,
          0.36959920368408583,
          0.5567916258453067,
          -0.4416344602148574,
          -0.14770829046626743,
          0.5356071204314015,
          0.09315696530764372,
          -0.04289691346771973,
          0.5638774154681163,
          -0.23072168744077226,
          -0.15427536638515932,
          -0.14458580913156582,
          0.2967508552942072,
          -0.45026056954257887,
          0.13130309875512702,
          0.575431162664146,
          -0.26005006612601184,
          0.25668704250828356
        ],
        [
          0.2648440251878168,
          0.13091626143409196,
          -0.49894753178743445,
          0.3457421361679853,
          -0.23000067139541275,
          0.48515567555994776,
          -0.004455071420653378,
          0.2349278973396507,
          0.4785920420833125,
          -0.07535682285042955,
          0.5548511027671801,
          0.2105702743502872,
          0.25086236695227915,
          0.526469352362001,
          -0.5775856154257462,
          0.4912086260808868,
          -0.5563730480402085,
          0.031053895829761702,
          -0.39570503208601526,
          -0.19795389000885266,
          0.2041420619187737,
          0.1593006495503505,
          0.08207057608529922,
          -0.5638959849114007,
          -0.2299392035505407,
          -0.18567541640940405,
          -0.40314965729133945,
          0.2419347719691468,
          0.05769689872488726,
          -0.5676617769693629,
          0.5152336902199868,
          -0.18555045404521103,
          0.18718760020752034,
          0.044525657003249175,
          0.19935652541281101,
          -0.5769318061091592,
          0.5133415895400097,
          -0.4975118230782898,
          0.5688647447076838,
          -0.11276439142759459,
          -0.4305459625149961,
          -0.5569561916620348,
          0.5814734477241639,
          -0.5869732595051328,
          0.15933039706625796,
          -0.5658230333713833
        ],
        [
          0.4181141863749085,
          -0.33762833238576595,
          -0.05574837614504513,
          -0.5166304701798156,
          0.2840728440809007,
          0.19800296964982078,
          -0.4684909085641903,
          -0.3468714081402984,
          -0.5199447032003955,
          -0.49107241685229586,
          0.4910227397816911,
          -0.36817948274405143,
          0.2773914684157148,
          -0.4552415669946961,
          -0.29314711941466326,
          0.5257936051885874,
          0.3752490674806136,
          0.20199452010655528,
          -0.5550552358225826,
          0.5313949765843371,
          0.1929244130730764,
          0.32483959222722625,
          0.43577545319222244,
          -0.31691719667085455,
          -0.22525492618341725,
          -0.5754153330754789,
          0.380869699410208,
          -0.07023878588529131,
          0.5878484038804745,
          -0.5766339614436942,
          -0.1711710358743841,
          0.5211889460664023,
          -0.3119676081967624,
          -0.06709524320060756,
          0.2093825072781792,
          -0.16161214994721468,
          0.04028778393352195,
          -0.584922719288195,
          0.5723074639019738,
          -0.3421557092098251,
          0.4237740389208935,
          -0.5274600679782723,
          -0.13813346551871203,
          -0.5844013066539829,
          0.16431607917238533,
          -0.49599742065509234
        ],
        [
          0.04650324868241884,
          -0.5525143654790994,
          -0.45451338046441203,
          -0.4255765758228556,
          -0.23368281227224436,
          0.16603063467133417,
          -0.12784979825582926,
          0.4545832900194058,
          0.4972859687132394,
          0.248703532833203,
          0.19981754568425025,
          -0.5208046959202511,
          0.17780942836859537,
          0.45528685621992926,
          0.3414938248125162,
          0.41471906348349186,
          0.48674240917746037,
          -0.4815824634723081,
          -0.5239692603011235,
          -0.15118954571791698,
          0.03355326868621333,
          -0.42415628192840005,
          -0.2990867507842421,
          0.3395762692321421,
          -0.21937124633638128,
          -0.123473989953856,
          0.4385639463369826,
          -0.1070493431791611,
          -0.35065772276224466,
          -0.22453410917518607,
          0.5217612881120373,
          0.5592930973381811,
          -0.4780404248403988,
          0.11372186585112332,
          0.5708747334068487,
          0.5551093300868077,
          0.5002853209271865,
          0.14847238593212653,
          -0.27376527812218543,
          0.5328753208815082,
          0.37686812263251546,
          -0.44077933359447097,
          -0.39864818655932854,
          0.4980980320740489,
          0.295655498914833,
          0.5339279559702739
        ],
        [
          0.10567181894486644,
          0.5790123531093194,
          -0.4320022756221774,
          -0.5680182804571169,
          -0.3719545472021851,
          -0.3140535575823733,
          -0.4942554468337162,
          -0.09790494701961322,
          0.19346015474104938,
          -0.47586597583445284,
          0.3572382041975083,
          0.4766133042961964,
          -0.32003154549579116,
          -0.4430497620372212,
          -0.5851673115237629,
          0.23267572455841934,
          0.4850174638377591,
          -0.5630637638212714,
          0.40691194577668643,
          -0.48953108896932795,
          0.32524980519955105,
          0.5538473948686236,
          -0.5192863060628816,
          -0.44890731648532683,
          0.17970601723949575,
          -0.5627471005524197,
          -0.4272213356833504,
          0.44250410184529865,
          -0.2616286013862908,
          0.26097232231554257,
          -0.02041212201769682,
          0.23422377761962432,
          0.15651188410193972,
          0.4241026454006147,
          0.1672234263184792,
          0.11880208998100017,
          -0.13039528457006494,
          -0.2548857843624668,
          -0.5314942333250303,
          -0.29638282566758617,
          0.2926616945670504,
          0.5544378704909858,
          -0.4816009281670735,
          -0.38240006276191274,
          0.2437003006337436,
          0.14844327597284335
        ],
        [
          0.3504575398910711,
          -0.3373509645956437,
          -0.04914016132834709,
          -0.1761186302602294,
          -0.18944609832313303,
          -0.515060580843928,
          -0.5264948920979035,
          -0.4816780008218088,
          -0.020836543844251487,
          -0.4133525213905125,
          0.5086963777379614,
          -0.10330788815831554,
          -0.1624293600091825,
          0.06327121746580788,
          -0.1535912790202245,
          0.10898370402558666,
          -0.30051322008495424,
          -0.5029486033732928,
          0.33620891806024633,
          0.1558265424736266,
          -0.45122202699237735,
          0.39284286854459705,
          0.5769037073387484,
          0.10422969580741526,
          0.5094671641231379,
          -0.07062681735035548,
          -0.49968340469151484,
          0.364096639430622,
          -0.21187917774135773,
          0.5542084642773804,
          0.12595491103666678,
          0.24342743522335875,
          -0.5352513624290627,
          -0.32652804939547264,
          -0.15678399812596017,
          -0.19844308947465772,
          -0.07900497273806728,
          0.08574889430581989,
          -0.27915764223094935,
          0.10309067524185911,
          0.3519589075919207,
          -0.467639060567539,
          -0.0695742205897214,
          -0.3431985922357883,
          0.43765644906643164,
          -0.4811568848649725
        ],
        [
          -0.12278130301905532,
          -0.5691931827506536,
          -0.023886487099939013,
          -0.3519683525888073,
          -0.0719548001700947,
          -0.554834514975275,
          -0.379441207532799,
          0.3643366646100933,
          -0.20962143283515156,
          -0.11738148849318958,
          -0.5290220418438832,
          -0.5182492151387852,
          -0.3612430530489098,
          0.2550210907838667,
          0.5081186565575724,
          0.21590094489059042,
          -0.37970775031514437,
          -0.4203519699018836,
          0.12038702333943085,
          -0.2659821455489778,
          0.3646157802951763,
          -0.28998700138363565,
          -0.17145558782916792,
          -0.5627424364700435,
          -0.5797465859398309,
          -0.1438351937730491,
          -0.5773438054859564,
          -0.2950895839299063,
          0.5892482319198267,
          0.016359583377263287,
          -0.10002680874624792,
          0.5182939417698724,
          0.5781655263883947,
          -0.00941926996189657,
          0.07061976970356032,
          -0.28986679328635206,
          0.034180473473682915,
          0.3141518373257336,
          -0.4021785280098186,
          0.4097833442594293,
          0.5681905828404568,
          0.3875533163150825,
          0.40374041109560566,
          -0.028610347095169297,
          -0.5849156691320458,
          0.06534297455999849
        ],
        [
          0.3084313591605222,
          0.29998493664410997,
          0.423914488889382,
          -0.3924602564939644,
          0.0021286490246363865,
          -0.1185150153814511,
          -0.36923302187049856,
          0.04273829879585278,
          0.555379530541221,
          -0.5067341573486885,
          -0.46650569403807385,
          0.17616443067403165,
          0.1765542142974038,
          0.056634097330246935,
          -0.04989026171595823,
          -0.34113851938492845,
          -0.21191368152535084,
          -0.13530332920125704,
          -0.5574742546165121,
          -0.47568671608070207,
          0.448161710194096,
          0.34371967811379567,
          -0.35748250917502256,
          -0.11949721579080025,
          0.5541495650757171,
          -0.025471261728792993,
          0.06207725636142103,
          0.4310264903990344,
          -0.031764249748691076,
          0.01843961807629635,
          -0.4172104124295832,
          0.3735782184937939,
          0.511653368431348,
          -0.5894383394105412,
          0.3352648216554842,
          -0.28726276147592533,
          0.464947631154204,
          -0.23208471444871415,
          0.4667207548422172,
          -0.06845097894511187,
          0.3952925007175203,
          0.30440781912812154,
          0.44809427733673335,
          0.3000811198040614,
          -0.5026924754243358,
          0.4079318287010848
        ],
        [
          -0.34495671635627867,
          0.18396950777993837,
          0.19194983921922526,
          0.23604504391929315,
          -0.2733579298664034,
          -0.5556060889056238,
          0.5872751932985805,
          0.1558988767551357,
          0.5879819509075899,
          -0.22917954784986733,
          0.49981263066170234,
          0.12438576412910474,
          0.5845292261145714,
          -0.15962172544602238,
          0.21144360829583664,
          0.3784783778890939,
          0.020768965472233614,
          -0.11623072649592092,
          -0.49286792870092516,
          -0.5829602415349581,
          0.23566794304348593,
          -0.4489348441687047,
          0.05731807818154433,
          0.48182391938488434,
          -0.02664358055290461,
          -0.011693902355203734,
          -0.18560106861157488,
          -0.3538409177678527,
          0.5330422719606642,
          0.023905783747414033,
          0.5661984456278872,
          -0.38583966105187895,
          -0.2557382189728331,
          0.5208556884721467,
          -0.4275879774627897,
          -0.41990268099777134,
          0.5839173302325928,
          -0.19016661038622623,
          -0.5485406510787305,
          -0.12970296368252254,
          0.3411072094119717,
          -0.5233965112858818,
          0.5522282131802492,
          0.35875034600935984,
          -0.1516699373787247,
          -0.5172449482458712
        ],
        [
          0.38718728540110425,
          -0.11989669494056332,
          0.17741607702855577,
          -0.47611635119783485,
          0.40598576953612586,
          0.5738840251011912,
          0.4182285175040623,
          -0.5010061346977079,
          -0.4281407423391885,
          0.22842107613000362,
          -0.11070960581648154,
          0.2743897114877485,
          0.1663445858133329,
          -0.33465720941383764,
          -0.3550350574761578,
          -0.5392465431826741,
          -0.27739675805107955,
          -0.5305833020090219,
          0.4657810384506822,
          0.2533476821525936,
          -0.5332500013464943,
          0.19601988831952732,
          -0.06115722592305395,
          0.4074247210236198,
          -0.23779527088865926,
          0.24049613521280666,
          -0.04679140069333487,
          -0.5187638217572396,
          0.24334669813664034,
          0.06802834058846963,
          -0.5727498415690128,
          -0.2578402787618357,
          0.4603614395226505,
          -0.02951832194813575,
          -0.47027941548193725,
          -0.5737578764746071,
          -0.42211013890783255,
          0.35037920648534215,
          0.025808061883728528,
          -0.0894283431834052,
          -0.3246763420319829,
          -0.012479457852397569,
          0.13113991773738198,
          0.44071711500278843,
          -0.5752970689962901,
          0.586972300261871
        ],
        [
          -0.4557375979780818,
          0.3070935002305354,
          -0.4924779309517007,
          -0.17701975094562172,
          0.5492891180573052,
          -0.25728727687155917,
          -0.06858236329734535,
          -0.2660056382859478,
          -0.2413989224469273,
          0.57607431803042,
          -0.5002901321315733,
          -0.2290157936295193,
          -0.5088219522492675,
          0.5482894613155349,
          0.22860160136946128,
          0.49185367624882903,
          -0.4253517722012665,
          0.2582400343604946,
          -0.31481603649536716,
          0.2768320844992098,
          0.3251856973409921,
          0.5619827424997508,
          -0.2999612898150486,
          -0.4755339328488718,
          0.27171979002228364,
          -0.371166489593005,
          0.13179697260049417,
          -0.5687930711067914,
          -0.41655615164907334,
          -0.22363178482756968,
          0.025111495284869778,
          -0.4945129833001963,
          0.5167871081313844,
          -0.18617084467211092,
          -0.5590952807007241,
          -0.24373786338309633,
          -0.560395969096163,
          0.14926588805107988,
          0.09803478874721583,
          -0.2561660259626461,
          -0.5512611092013522,
          0.31426188879519557,
          -0.16960787705349928,
          -0.28481802719804145,
          -0.08383330635086672,
          -0.33009969410136913
        ],
        [
          -0.5571646876828862,
          -0.26636395006282404,
          0.42824935723764823,
          0.3648023426867677,
          -0.4180135682454862,
          -0.5857325167710411,
          -0.48304400300640865,
          0.008009881840501443,
          -0.2919134019749941,
          -0.05548526096377382,
          -0.20773137100276856,
          -0.10135738708757636,
          -0.06188345008994267,
          0.22343660745195004,
          -0.5187839370504095,
          -0.2027187108910678,
          -0.3631302035680123,
          -0.22519362982261149,
          0.08511663682282422,
          0.4891996034283914,
          0.3648674517957945,
          0.23069833811249807,
          -0.3899896476503786,
          -0.5889095500081782,
          0.060695170199974946,
          -0.16420295374723065,
          0.48304787713025554,
          -0.44147615032597,
          0.48953250153782957,
          0.09519717247393078,
          -0.3691683721122814,
          -0.39385922536475837,
          0.5217261212936677,
          0.30436494199137165,
          0.5890258726199802,
          -0.2722442590527422,
          0.2924221712461379,
          -0.38448757648481025,
          0.2862230339275813,
          0.2955319764613703,
          0.0967231311149509,
          -0.4646771907885351,
          -0.4354123258639011,
          -0.369187967878323,
          -0.3288276022118807,
          -0.5189715025974845
        ],
        [
          -0.485176246921608,
          -0.3582809628022481,
          -0.32332151269947856,
          -0.295478485992745,
          -0.5729855435998037,
          -0.20215617934284796,
          -0.46347520555698823,
          -0.5509029235432588,
          0.45043303836783677,
          -0.35150144860946275,
          -0.4035483169281799,
          0.336475684003806,
          0.50485674616604,
          -0.13215725816318852,
          0.36911679748241233,
          -0.08421018465256558,
          -0.44605099994493647,
          0.4084040387413309,
          0.1984290634192063,
          0.3960354236664321,
          -0.5291086431781689,
          -0.3047963215474756,
          0.5478510076800562,
          -0.4972407130994351,
          0.07794075382911181,
          0.046777747339171505,
          0.5869831885206711,
          -0.12305205204377123,
          0.01537461988701605,
          -0.27107547532027937,
          -0.38856994483229745,
          0.5226287771578089,
          0.08177901397879794,
          0.30855164092569376,
          -0.2407657152898096,
          0.5242104589614083,
          -0.4190735341287968,
          0.0637750093480246,
          -0.2945691448268208,
          0.48925107570047177,
          0.22250860956504526,
          -0.48032120896053376,
          -0.19085887320268818,
          -0.45569019384296383,
          0.5820726267907239,
          -0.4040136612051316
        ],
        [
          0.11592179844455319,
          -0.03061546118333247,
          -0.2698961971498918,
          -0.5226206931121813,
          0.5163736207394418,
          -0.5688092077975111,
          -0.16129524190516953,
          0.41462552529120855,
          0.4309148640534397,
          0.5749862456133115,
          0.5042774106192109,
          0.27014726563244185,
          -0.40087785529796516,
          0.19775779091225765,
          0.5632370665378732,
          -0.1758488447316527,
          -0.30454921350888137,
          0.4066503429070951,
          0.03870051906640504,
          0.12464248867221461,
          -0.21531804423998063,
          -0.05036631797056679,
          -0.30941234878068136,
          -0.059517375903447745,
          -0.5551370419676711,
          -0.24743391201250442,
          0.4291974148617812,
          0.2719790037654515,
          0.302262351455618,
          0.4458830400716658,
          -0.39544070050214597,
          -0.014895389059776387,
          0.5885404134806469,
          0.2888279373137599,
          0.32146991240287015,
          0.49122800273637224,
          -0.01947223663173625,
          0.21976113865652125,
          0.4841242415012519,
          0.49397431914512535,
          0.2741080473026565,
          0.2751791839552947,
          0.04514986972586499,
          0.016325907728785394,
          -0.23234999040171023,
          0.5714068474752634
        ],
        [
          0.2435179788862747,
          0.004233810608231914,
          0.23221336137562787,
          -0.3574100880697112,
          0.3145120047691353,
          0.2977219589410244,
          0.2022358644486928,
          -0.19208815860557493,
          -0.42796143448032575,
          0.047335132134895486,
          0.5860800313839094,
          0.2007735776902555,
          0.49420348923194957,
          0.0605634443892793,
          -0.4845079906813811,
          -0.14367959201611608,
          0.5661710722799835,
          -0.1992525857917789,
          0.10595176380751203,
          -0.1777318328331704,
          -0.06345829573201933,
          -0.38298988286956814,
          -0.27700934170632635,
          -0.48964296481721764,
          -0.1502106449405719,
          -0.1173386737346277,
          -0.5757697086131504,
          0.5465726713335379,
          0.5437719984325737,
          0.38136534699826996,
          -0.5630207379217788,
          0.09698001793037492,
          -0.5443403703950154,
          0.11914415451578952,
          0.42066767373515845,
          0.5347323349656745,
          -0.5194107545990502,
          0.10770140528304906,
          0.06833463240054072,
          -0.4432300881947436,
          0.39076030963107644,
          0.25614024290688653,
          0.24631488327580786,
          0.44602950185982104,
          -0.24899586060260148,
          -0.07265088142039966
        ],
        [
          0.5711167237766965,
          -0.5760795072019256,
          0.09134975324153882,
          -0.5843747743840197,
          0.3419833587816198,
          -0.13481604862376373,
          -0.5353458358003119,
          -0.2540374828416527,
          0.10687885110884299,
          0.587722554353024,
          0.0019282123186148414,
          -0.1978506844169613,
          -0.1840016673559477,
          0.4832170104519853,
          -0.050751672506005985,
          -0.42014594807158245,
          0.5206296216593742,
          -0.12038516808862892,
          -0.587439109607859,
          0.07188625653803515,
          -0.24576027811797774,
          -0.5233601687257031,
          -0.22281800560259635,
          0.505612030574843,
          -0.06383577229141191,
          -0.4549737458913118,
          -0.1642233404163269,
          0.5725517944667777,
          0.5343683830063031,
          0.41675261624938864,
          0.4374430163153471,
          -0.4654412006092257,
          -0.44692593552274795,
          -0.5843637418944388,
          0.09603770142206247,
          -0.2506933984874975,
          -0.2432502436374051,
          -0.5499400686301684,
          0.2825378701994362,
          0.4343274680874487,
          -0.113057379438877,
          -0.5483503040904384,
          -0.5726730596568936,
          0.3637847975404208,
          0.44650160516687953,
          -0.19074465249237627
        ]
      ],
      "b": [
        -0.37804558068879585,
        -0.23456689947051518,
        0.23329844390008192,
        -0.018229702739649967,
        -0.5744771505985841,
        0.17975875686831555,
        -0.49534327409898415,
        -0.4543106470027075,
        0.4963795978138994,
        -0.35131724362338623,
        -0.4307237174438215,
        0.5177962418411877,
        -0.5710773617680557,
        -0.11126312663311683,
        -0.16943149450351658,
        -0.01792965203715835,
        0.15644560784878625,
        0.41254936770849926,
        -0.5508830807749227,
        -0.03738016867999405,
        -0.5055673785499639,
        -0.21796653002507416,
        -0.2812972217861963
      ]
    },
    "layer_2": {
      "w": [
        [
          0.039311626442165126,
          0.12246858238038327,
          -0.645265903920146,
          0.17674779085176362,
          0.7955050720709804,
          0.1775468597660781,
          -0.7882680089950643,
          0.08743306263445039,
          -0.8688769540791297,
          0.9768221655876301,
          0.04533726197969168,
          0.9399678537079563,
          0.3202936301024133,
          -0.9536852213865966,
          -0.9261213168039334,
          0.9019659915199385,
          0.7350223124618445,
          -0.04087106948070229,
          0.6064096484354042,
          -0.9637878024570752,
          0.9556028793179465,
          0.060277069581505804,
          -0.707224743871236
        ],
        [
          -0.175125219583679,
          0.14779646432975402,
          0.345373430316132,
          0.9450272162282398,
          0.49575540589221,
          0.8115826730122997,
          0.49383153239136535,
          -0.7825083172352789,
          -0.7198483746955622,
          0.5327896504666159,
          -0.8569267102240566,
          0.8372638695646437,
          0.42210475303037764,
          -0.46807269998604484,
          -0.8036301509421323,
          -0.9781245191253221,
          0.7071891753581121,
          0.946456880839152,
          -0.5276335661250868,
          -0.7621895574089681,
          0.07755947820758458,
          0.9422116553493474,
          -0.25332837610028747
        ]
      ],
      "b": [
        -0.38547347384433905,
        0.35142536792126133
      ]
    }
  },
  "input_mask": [
    0,
    2,
    3,
    5,
    6,
    7,
    11,
    12,
    18,
    19,
    27,
    28,
    29,
    30,
    32,
    33,
    34
  ],
  "ablated_input": null,
  "ablated_value": 0.0,
  "output_param": "atan2_signed",
  "scaled_pi_n": 1.0,
  "delta_max": 0.35,
  "normalization": [
    {
      "transform": "none",
      "scale": 0.8655390346546353,
      "center": 0.9204641308303162
    },
    {
      "transform": "asinh",
      "scale": 0.8175600848274288,
      "center": 0.8867681772014051
    },
    {
      "transform": "asinh",
      "scale": 462.6300273768903,
      "center": -333.1697854608212
    },
    {
      "transform": "none",
      "scale": 5413222.0902614985,
      "center": -508770.60939412704
    },
    {
      "transform": "none",
      "scale": 1157.3507227945558,
      "center": 4549.679429911598
    },
    {
      "transform": "asinh",
      "scale": 10.358129862795693,
      "center": 12.17320223341297
    },
    {
      "transform": "asinh",
      "scale": 0.33924629426269115,
      "center": 0.40005844701414567
    },
    {
      "transform": "none",
      "scale": 0.42411593596120784,
      "center": 0.42858041580763234
    },
    {
      "transform": "asinh",
      "scale": 33.09832239288295,
      "center": 82.65759631477488
    },
    {
      "transform": "asinh",
      "scale": 0.0911362193061205,
      "center": -0.04718278665783951
    },
    {
      "transform": "asinh",
      "scale": 0.2151370816795333,
      "center": 0.29274513397808116
    },
    {
      "transform": "asinh",
      "scale": 9.832939972853932,
      "center": 11.55598244317186
    },
    {
      "transform": "asinh",
      "scale": 3.256400734674897,
      "center": 3.827025266270693
    },
    {
      "transform": "asinh",
      "scale": 5107742.117847206,
      "center": -3590633.2113008387
    },
    {
      "transform": "asinh",
      "scale": 10217099.16686349,
      "center": -6706141.091617538
    },
    {
      "transform": "none",
      "scale": 0.5,
      "center": 0.5
    },
    {
      "transform": "none",
      "scale": 1e-6,
      "center": 0.4262529995153208
    },
    {
      "transform": "asinh",
      "scale": 594.4827404994671,
      "center": 716.3429422450554
    },
    {
      "transform": "asinh",
      "scale": 412.89140647256187,
      "center": -302.7939124482325
    },
    {
      "transform": "asinh",
      "scale": 154.12675819494976,
      "center": -169.7611160606572
    },
    {
      "transform": "none",
      "scale": 1.5707963267948966,
      "center": 1.5707963267948966
    },
    {
      "transform": "none",
      "scale": 0.1,
      "center": 0.0
    },
    {
      "transform": "none",
      "scale": 3.141592653589793,
      "center": 0.0
    },
    {
      "transform": "tanh",
      "scale": 30.0,
      "center": 0.0
    },
    {
      "transform": "tanh",
      "scale": 100.0,
      "center": 0.0
    },
    {
      "transform": "none",
      "scale": 1.0,
      "center": 0.0
    },
    {
      "transform": "none",
      "scale": 1.0,
      "center": 0.0
    },
    {
      "transform": "none",
      "scale": 1.0,
      "center": 0.0
    },
    {
      "transform": "none",
      "scale": 1.0,
      "center": 0.0
    },
    {
      "transform": "none",
      "scale": 1.0,
      "center": 0.0
    },
    {
      "transform": "none",
      "scale": 1.0,
      "center": 0.0
    },
    {
      "transform": "asinh",
      "scale": 17774.23743300369,
      "center": 20521.130577512882
    },
    {
      "transform": "asinh",
      "scale": 500.0,
      "center": 500.0
    },
    {
      "transform": "none",
      "scale": 60.0,
      "center": 60.0
    },
    {
      "transform": "none",
      "scale": 100.0,
      "center": 0.0
    }
  ]
}