{
  "format_version": 2,
  "architecture": [
    {
      "type": "dense",
      "input_size": 17,
      "output_size": 10,
      "activation": "swish"
    },
    {
      "type": "lstm",
      "input_size": 10,
      "hidden_size": 10
    },
    {
      "type": "dense",
      "input_size": 10,
      "output_size": 2,
      "activation": "asinh"
    }
  ],
  "weights": {
    "layer_0": {
      "w": [
        [
          -0.6405019122320007,
          0.009226207515899865,
          -0.8765845513494136,
          -0.6844577348845196,
          0.48896096968406577,
          -0.851165767943901,
          -0.8242944519604446,
          -0.9344793714565833,
          0.40352238409931007,
          -0.7380516117422891,
          -0.7100344359211199,
          0.8141707322265168,
          -0.26150954835908446,
          0.896222872127574,
          -0.0818636249205118,
          -0.4524818614570735,
          0.2482025704492976
        ],
        [
          -0.19830828661728817,
          0.7910213805554889,
          0.0797164191265376,
          -0.4568845499050412,
          -0.4038298123967169,
          0.6181189262179207,
          -0.2689638284385433,
          -0.05828404755686756,
          -0.10807081248805772,
          -0.9385801661018601,
          0.08225931446326418,
          0.9427900173801635,
          0.1652553437676112,
          0.012549107769072476,
          -0.40510841952026555,
          0.9386418868764317,
          0.7523821748678774
        ],
        [
          -0.7220631880729326,
          -0.8504049907709406,
          -0.1329520216526635,
          0.3676556672909661,
          0.4252223151177592,
          0.3093583625759071,
          -0.7150439421896763,
          0.7120437878736878,
          0.03543568682911291,
          0.7129872853561796,
          0.4741332439505803,
          -0.4916735740718751,
          -0.1683145995323937,
          -0.14792108822660333,
          -0.10584422414543071,
          0.4932707146292348,
          0.6792034451376592
        ],
        [
          0.7062390369985048,
          -0.9360998592839695,
          0.34835208335550294,
          -0.15319956950433578,
          -0.9362779686413026,
          -0.8940113966282294,
          0.41538620929038816,
          0.17525872745671678,
          -0.8492814486177087,
          0.8760279563595614,
          0.30883947081754815,
          -0.3792684502438395,
          0.3141767665190569,
          -0.7897691995533633,
          0.4052905933817921,
          -0.06581756051303489,
          0.5591392598561116
        ],
        [
          0.0954666088256293,
          0.1880878471826184,
          0.3656233154065023,
          -0.8001249855560607,
          0.2690028145642993,
          -0.7897610423188185,
          0.7220509793291887,
          -0.6255800142768632,
          -0.7886804873990234,
          0.247970987296791,
          0.8211052632066493,
          -0.8027932288453945,
          0.6413434095421751,
          -0.8554242996224766,
          -0.9362211850056756,
          -0.6953075067317087,
          -0.9412433514252603
        ],
        [
          -0.7195742600360939,
          -0.4699050756982578,
          0.9143977278215925,
          0.5096545956869141,
          0.89404784627905,
          0.9167540964543819,
          -0.8630650008837047,
          0.8604770590022834,
          0.5112883766901437,
          0.8792016211451823,
          -0.859521958709276,
          -0.9119607855963228,
          0.42222669064851126,
          -0.736058110569977,
          -0.5373688487561756,
          -0.9098639622451585,
          -0.8870421940324462
        ],
        [
          -0.12864198547298222,
          -0.5475456843587752,
          0.10196817671716252,
          -0.3901186134536646,
          -0.4961675746120827,
          -0.06413481783295605,
          -0.7112300675085423,
          -0.4653833002065154,
          -0.3651506847771683,
          -0.8285416754848323,
          0.4950087992016865,
          0.6969411740080464,
          -0.4514905571983613,
          -0.512567202433511,
          0.14208163127792806,
          0.14074960528489866,
          -0.9242179835714804
        ],
        [
          0.4846678854208195,
          0.9340374828329949,
          -0.060183105762855016,
          -0.43724346413867954,
          -0.5639171214808749,
          0.5895750496580532,
          -0.5956054933038755,
          0.013077179971807906,
          -0.49774145839937833,
          -0.7266003764581811,
          -0.7332463939420495,
          -0.8151080565757449,
          0.8897923335063029,
          0.1866141780813868,
          0.44235210558814453,
          -0.5015362454715462,
          -0.9171230752684758
        ],
        [
          0.6056227642856538,
          0.9219954749887149,
          0.6018710119011073,
          -0.7578375350806108,
          -0.6387018470399606,
          -0.6966238508302358,
          -0.8644386373593885,
          0.8895631559469455,
          0.5180651810699448,
          0.7988703560353287,
          0.6482358826582453,
          0.37913141255178284,
          -0.905901649947398,
          -0.23026746703914291,
          -0.8287682989941427,
          0.9023014901504123,
          -0.7937605474035516
        ],
        [
          -0.03918587479210989,
          0.8888838150028342,
          0.5183595014979632,
          -0.5780879515175524,
          -0.9107946220806643,
          -0.04523868191853331,
          0.9261492705012502,
          -0.08532237624419314,
          -0.9392928457936585,
          -0.9426465437256091,
          0.5679977176741347,
          0.7968827168625423,
          -0.2292421471729995,
          0.6597202618711726,
          -0.31593681589474265,
          0.858715035110492,
          0.3036209034469377
        ]
      ],
      "b": [
        0.11564504108312645,
        -0.8677898455669781,
        0.367527016934587,
        0.09713955854195677,
        -0.6456637117755535,
        -0.9394127701241383,
        -0.015882209136919623,
        -0.3610096098981853,
        -0.8874851262095637,
        -0.8947284386314175
      ]
    },
    "layer_1": {
      "weight_ih": [
        [
          0.6027797183816921,
          0.21531412132249406,
          -0.21121189325776873,
          -0.5236653698632587,
          -0.5059548520982222,
          -0.6221743973500674,
          -0.3319219291574473,
          0.38421429853499367,
          0.27178305886157705,
          -0.6829134553408766
        ],
        [
          0.14849985176922986,
          0.6698717644148187,
          0.30068792493459706,
          0.688396473204536,
          0.13890378596228614,
          -0.38035865632159965,
          0.5591286943804026,
          0.31549328718862446,
          0.32864598600667816,
          0.5973194144478433
        ],
        [
          -0.17232443267381936,
          -0.6239171270161326,
          -0.3471721413622524,
          -0.4260313680975593,
          0.47604230036820616,
          0.38705573711657926,
          0.19449018470950052,
          0.15760911567520564,
          -0.134002662421298,
          -0.5588120365916882
        ],
        [
          -0.5251090400887597,
          -0.6540508672352184,
          -0.3034956558529336,
          -0.16027309478192953,
          -0.1710303181526297,
          0.481888890839979,
          -0.13350891057839642,
          -0.23839792912229213,
          -0.10587690001556527,
          -0.05595485114849885
        ],
        [
          0.5995515020741526,
          0.609282914643243,
          -0.32302298040533656,
          -0.5948736588076607,
          0.5656717523244614,
          -0.6555792762266485,
          0.07053484566480883,
          0.6756089070454399,
          -0.6334732711855232,
          0.46192235942077997
        ],
        [
          -0.6187575148967828,
          0.1899654494099593,
          0.26057800328873326,
          -0.25602130600578427,
          0.5202315516185385,
          -0.640080711625299,
          0.12362996706518548,
          -0.6652536969818927,
          0.5045143459768382,
          -0.6332662183065854
        ],
        [
          -0.06440048807194554,
          0.31389473153419556,
          0.04237103461991343,
          0.6140522665966277,
          -0.4293836481265121,
          0.419811308164999,
          -0.4764699620091123,
          0.4796901310359598,
          -0.45694067768841484,
          0.3721646530554208
        ],
        [
          0.1538016441327914,
          -0.6089991887146966,
          -0.4320517228368866,
          -0.5608782625188546,
          -0.08478279107567466,
          0.6416878553394341,
          -0.5617499616954171,
          0.5307768348219266,
          0.14437209346428392,
          -0.6675508010003239
        ],
        [
          0.5646900771470493,
          -0.39441672045335746,
          0.28316181693949827,
          0.3328660220515989,
          0.43937128821631233,
          -0.6725564677286857,
          0.6232136486734143,
          0.649612288310518,
          0.6861206033465688,
          0.6694120511512984
        ],
        [
          0.23799020750518907,
          0.6539371518459551,
          0.16689603949225162,
          0.3345833993498335,
          0.6220238215358433,
          0.10561886173568302,
          -0.44940997873698907,
          -0.17763994681527528,
          0.6759321022298295,
          0.640762088499758
        ],
        [
          0.210517726915474,
          0.6832285314810764,
          0.08461748261539115,
          -0.4693657164810142,
          -0.6600479204958571,
          -0.4982304868527174,
          0.22315219622597526,
          0.3961995609759321,
          -0.6064339193500229,
          0.5856725962918246
        ],
        [
          -0.48568093516801303,
          0.10267607378596355,
          -0.6869354184434245,
          0.5898463390906885,
          -0.4197993755086566,
          0.6867022941878516,
          0.6451220015813908,
          0.5851051464040686,
          0.49596482465520353,
          0.5780254006672403
        ],
        [
          -0.5531847283307628,
          -0.1473615511510762,
          0.24505260139248963,
          -0.561314190541859,
          -0.546092447427766,
          0.5302353984048853,
          -0.21006809690758815,
          0.4709018831048546,
          -0.5066350024942723,
          -0.2606734807856425
        ],
        [
          -0.4900951391092272,
          0.518456814499521,
          -0.5985736168015847,
          0.6321875347465697,
          -0.5671203191783032,
          -0.6290384145991047,
          0.616246055741362,
          0.4223205279253275,
          0.4403487760388445,
          -0.2532283294684826
        ],
        [
          0.5507190588954229,
          0.614228878963281,
          0.16423147682350958,
          0.18979854702317633,
          0.6610528260035156,
          0.24920235589388073,
          -0.6897722625862582,
          0.5171398240855822,
          -0.401404895123717,
          0.14865398785018902
        ],
        [
          -0.15702728990663695,
          -0.1407297202103538,
          -0.3707041008553651,
          0.617490619299391,
          0.32814604734669084,
          0.573195534491024,
          -0.5028897420956081,
          0.6624791788495548,
          -0.10043410500096406,
          -0.5441815331430111
        ],
        [
          0.6411455234109504,
          0.19561363173910273,
          -0.6125696343024697,
          0.47465607849549096,
          0.04226459028599472,
          0.19138951888723588,
          -0.5394236922260338,
          -0.6681970838766991,
          -0.5622303411468823,
          0.6354749594666484
        ],
        [
          -0.07163877322958168,
          -0.3941406177727767,
          0.598464171885511,
          0.12942375404884066,
          0.22028758349680944,
          -0.3813840278825518,
          -0.5033681564520209,
          -0.6709458238306212,
          -0.5081637002930497,
          -0.6428867014381664
        ],
        [
          -0.2119781182774576,
          0.5873780963486546,
          0.12890108955418222,
          -0.056682170477876936,
          0.35318460185392264,
          0.3935546656781337,
          0.6888267791573821,
          -0.30199929728219943,
          -0.6024516756911901,
          -0.455942972933146
        ],
        [
          -0.6686756409421083,
          -0.033853516084946356,
          0.6047375519699472,
          0.3783519608858912,
          -0.6642294643484412,
          0.22919012383811466,
          0.5481833171920747,
          0.390511773836723,
          -0.5406748354790896,
          -0.4550949575638021
        ],
        [
          -0.3510496072521842,
          -0.525703405914216,
          -0.24060282319933568,
          -0.38930403626241594,
          0.169997574246182,
          0.45687953571584927,
          -0.42796218062213515,
          -0.6764117130981603,
          -0.5178922090259067,
          -0.2064642317801581
        ],
        [
          -0.6460841404141363,
          -0.4661985929513973,
          -0.6226831963952738,
          0.30700010954588997,
          0.20095506676545427,
          -0.28216374397164024,
          -0.582956409388089,
          0.2550608081120238,
          -0.686995624343422,
          -0.3624001144831697
        ],
        [
          -0.37877431558784014,
          0.38989575569118906,
          0.5973373769211359,
          -0.3740563731641261,
          0.6255983467021209,
          -0.33225489136358555,
          -0.5757126822984864,
          -0.6747255969858557,
          -0.06311985946874932,
          -0.15487332968125078
        ],
        [
          0.43817702297743866,
          -0.4431855943413682,
          -0.4935388265593278,
          0.5881801771151958,
          0.35664253301823656,
          0.19252952576799087,
          0.6425770876685775,
          -0.5124165621651526,
          -0.0038462266246618304,
          -0.6200319260580978
        ],
        [
          0.6866117199820594,
          0.6928079214500038,
          -0.3170270334299412,
          0.6042766658054264,
          -0.6417899743547617,
          0.6488146312410887,
          0.6890116225989786,
          0.41202343733289903,
          0.6190989789776984,
          -0.21409553551068977
        ],
        [
          0.6362068722058418,
          0.0419565372750238,
          0.21676143694902172,
          -0.34449731027502006,
          0.29516660170201847,
          0.30485177156758114,
          -0.4990396149286504,
          0.6717044624152069,
          -0.027382105117035316,
          -0.20370040358212615
        ],
        [
          0.05770074749805443,
          0.6609916619179694,
          0.6769533650626631,
          0.3785016705745794,
          -0.2051752893153982,
          -0.002141125248065201,
          -0.6844318038961715,
          -0.04309928922077144,
          0.011027979274785382,
          0.46329735971841535
        ],
        [
          0.3392588869622102,
          -0.4428354120553166,
          -0.6858851363973857,
          -0.0635047458656176,
          -0.09172199994770569,
          -0.2657013970233616,
          0.18069585165423574,
          0.4470997701837751,
          0.6444632360084648,
          -0.4999797811601363
        ],
        [
          -0.16835488394252618,
          -0.6222684113075545,
          -0.18147156219547877,
          -0.6185443132068542,
          0.6255408436072196,
          0.16888551415280073,
          0.06752208833014639,
          -0.30000165884597796,
          0.6710465336441078,
          0.5774137750133381
        ],
        [
          0.22483378085586736,
          -0.4316244542493569,
          0.6723548486377264,
          -0.2173297213145462,
          -0.46164099073862314,
          -0.5643562705390569,
          -0.12793799736076272,
          -0.6412530952521066,
          -0.02392470473745434,
          -0.5760654573187309
        ],
        [
          -0.6553283329379871,
          0.5015883864582451,
          -0.6843498733442441,
          -0.25289735450842377,
          -0.6123505487112781,
          -0.6136449761948323,
          -0.07508076813861486,
          0.6690702902005978,
          0.24507944213944433,
          0.04014774595966675
        ],
        [
          -0.6580379677545892,
          0.44405456603716376,
          -0.49194386995081424,
          0.12404944973420218,
          0.20377732326429876,
          0.3506534401368493,
          0.65478759497215,
          0.2068296944467839,
          0.6593759645348629,
          0.4306363036356795
        ],
        [
          -0.3583607770300313,
          0.1502802094090009,
          -0.4271225189006151,
          -0.421418710029384,
          0.4485974125016996,
          -0.2201156450163484,
          -0.6052224056338968,
          -0.2630321940584829,
          -0.19252515259721992,
          -0.527383838877991
        ],
        [
          -0.3815698699798587,
          -0.21701914719176946,
          -0.5982679479987055,
          -0.4253396187653394,
          0.06853938064551934,
          0.5763763010949097,
          -0.34994980499519135,
          -0.049282941108433564,
          0.5597891895903757,
          0.0011196686015235713
        ],
        [
          -0.3309726542175099,
          0.5923987981391832,
          -0.07849497007262163,
          -0.5119695557230098,
          -0.6643976431885714,
          -0.6698771555925676,
          0.6616369835709661,
          0.6181221405855539,
          -0.6780122801151628,
          0.6414719658785049
        ],
        [
          -0.5602519030824518,
          -0.5652324740203024,
          0.5694621323743032,
          -0.6156206888021156,
          -0.6901836726931891,
          0.1945502954266134,
          -0.6677339138615122,
          -0.5888576038775505,
          0.6257869751557503,
          0.5788167856908804
        ],
        [
          0.6807633812073426,
          0.6231704610319091,
          -0.2823410175491556,
          -0.24025367289819943,
          0.31204718748556903,
          -0.2883734472661051,
          0.5250333312931805,
          0.5983789182559538,
          -0.5308582432433657,
          0.5526825478935182
        ],
        [
          -0.6625322354938985,
          0.02965077938473859,
          0.6886723721252401,
          -0.6176390700196901,
          -0.2530313679427742,
          0.6166575773533052,
          -0.5509111238869561,
          -0.6637410735873898,
          -0.687911537351285,
          0.5353327305325117
        ],
        [
          -0.652707041006726,
          -0.6516428284237413,
          0.10275058012734628,
          -0.6540017437794519,
          0.5831585721675039,
          -0.5470145321868788,
          -0.6499001134060514,
          0.27678160507865934,
          -0.2379870335753425,
          -0.40899588700811884
        ],
        [
          -0.5126825195976759,
          0.6670930374838298,
          -0.20549155017726128,
          -0.6629042520048634,
          -0.5800670060696204,
          -0.3139889903804822,
          -0.6442050506387439,
          0.38795080541030025,
          0.448764861624809,
          -0.671695705141656
        ]
      ],
      "weight_hh": [
        [
          -0.5053817966560926,
          0.15153987249683754,
          0.05324263045682054,
          0.04197128538385908,
          0.0007510205916065882,
          -0.4721626862433075,
          -0.39873724215319456,
          -0.6063492216581075,
          -0.30912336850914196,
          0.34775395459876135
        ],
        [
          -0.06312439509693624,
          -0.44650233603304557,
          -0.5217085674972564,
          0.5825676542515132,
          -0.2395657327114426,
          -0.6320142391618889,
          0.06127890175051609,
          -0.5217050171720261,
          0.45603456031765166,
          -0.6606492398407554
        ],
        [
          -0.5394660279771406,
          0.6002058182067647,
          -0.32123670933117976,
          -0.6664343789751086,
          0.0006757267345366413,
          0.6740983050010414,
          0.6252696861992204,
          -0.06237417837801029,
          -0.30921701265518203,
          0.4383849179205275
        ],
        [
          -0.15749754671086302,
          0.6874804342995771,
          0.40628103521345005,
          0.5683023574673669,
          0.14305441117399031,
          -0.42026498789848266,
          -0.44589167746658454,
          0.04176599600370101,
          0.5158619907233699,
          -0.3126813863312748
        ],
        [
          0.49925235206432705,
          0.5206585633787737,
          0.45859296723853804,
          0.6546483855728322,
          0.5783045840318839,
          -0.6709084035355726,
          0.6454758910199263,
          0.11270037336992988,
          -0.12338808070975249,
          -0.2963403491056988
        ],
        [
          -0.6449053559898594,
          0.641505490115547,
          0.023514569703887656,
          0.6855735918996388,
          0.4911190799584355,
          0.07552602949618736,
          0.020545977035162033,
          0.5048498806048345,
          0.3540660728663616,
          -0.4513836119709591
        ],
        [
          -0.6682647398464059,
          -0.3319471263414476,
          -0.23003573900130186,
          0.47877785924580163,
          0.2703575297950549,
          -0.6254460038151708,
          -0.2336763305820596,
          -0.4099039795493877,
          0.5523519471610923,
          0.6135035962094879
        ],
        [
          0.6892282439617121,
          0.37928534613506093,
          0.4537423513080727,
          0.5477435906715629,
          0.33863467634284183,
          -0.6244667511375127,
          0.10833528306221396,
          0.6189240524609023,
          0.5002092571536858,
          -0.6865632272110953
        ],
        [
          0.6717415970583289,
          0.49739840199963825,
          -0.041603710090263646,
          -0.24863837188277038,
          -0.1594703316424032,
          -0.6035058937301914,
          0.585693114567257,
          -0.3467723073215431,
          0.39117553620585044,
          0.24606302076895314
        ],
        [
          -0.5465177344101342,
          -0.5647697838684924,
          -0.663430417898403,
          0.6413170999227018,
          0.6926389369233332,
          0.01578810577696166,
          0.5405653519902447,
          0.506919743227481,
          -0.6916903619975648,
          0.5819797216573548
        ],
        [
          -0.5781696482508101,
          -0.5762997635436289,
          -0.47503000642654303,
          -0.4193521632605605,
          0.10295315368830926,
          0.5602995582633699,
          -0.09447025795805997,
          0.006746327751886549,
          -0.4511900179622149,
          -0.366779695535254
        ],
        [
          -0.5586060316798425,
          -0.4793602591322561,
          0.6279284944532832,
          -0.17007464906860525,
          0.6032734210138784,
          -0.39206488261501443,
          -0.6418764213345131,
          0.4676026441513865,
          0.30137119696166026,
          -0.10798217030938773
        ],
        [
          0.11188944019093294,
          -0.6657120292864143,
          -0.162160513861886,
          -0.5488370682520116,
          -0.08767054248787187,
          0.3110379208957257,
          0.6879816391304989,
          0.24760337000616417,
          0.45073405253129817,
          0.5339515634259555
        ],
        [
          0.6677618180788232,
          0.6847323882953513,
          -0.33229321292313324,
          -0.3957520377789341,
          -0.6024235218043793,
          -0.6445693304597415,
          -0.4963085710069173,
          -0.5359294044608371,
          0.6323875842170126,
          -0.6480770610314981
        ],
        [
          -0.2665401830426681,
          0.5944095401141105,
          -0.5378879015667614,
          0.06740016214057087,
          -0.5825864842039218,
          -0.5649397696369631,
          -0.6353734800751076,
          -0.3388577257722987,
          0.4170538066636129,
          -0.1797405603865193
        ],
        [
          0.6519601911107129,
          0.5601141178966083,
          -0.4867470014595856,
          -0.35364321439700414,
          0.4920814892794372,
          -0.2263896387128515,
          -0.6791878028924034,
          0.4773459088025651,
          0.18975127994531815,
          0.6236554669071641
        ],
        [
          -0.6677378581681528,
          0.23771020297230638,
          0.6081936418240819,
          0.4532479165745773,
          0.5812381800497086,
          -0.4915147525586746,
          -0.6483101549090171,
          -0.1865411551011349,
          0.634817512217154,
          -0.6035195835226448
        ],
        [
          0.06995825960786728,
          -0.2699612770777757,
          -0.2023292646790985,
          -0.5295271271150855,
          0.2934233322313271,
          -0.6879491172141098,
          -0.6767947344033021,
          0.4720013529547784,
          0.6376645300663637,
          -0.6176521196081287
        ],
        [
          0.5889154935793806,
          0.20441348664506442,
          -0.2705078791435249,
          0.12280652310827056,
          -0.6796968769771995,
          0.647284926900209,
          -0.45246094606109055,
          0.6905451863169114,
          0.4936116247718887,
          0.6604674672659807
        ],
        [
          0.6351241059139108,
          -0.6152373055139676,
          0.6264729468498713,
          -0.3641339499041028,
          -0.5876968376173657,
          -0.07322819710568351,
          -0.6817726511008012,
          -0.03915432855268075,
          0.3444684375989584,
          -0.04878464333636301
        ],
        [
          -0.6866467774438526,
          -0.5327798240317799,
          -0.01870143667074231,
          0.6777753175097305,
          0.6812066862113606,
          0.5130253035207428,
          -0.03430033425344914,
          0.3930822796015194,
          -0.36489836942301607,
          -0.03981678616322448
        ],
        [
          0.4395250012407481,
          -0.47482466623611447,
          -0.3565662813350683,
          -0.5927427175019189,
          -0.3556360707839843,
          -0.5760772215586792,
          0.40788598728464276,
          -0.5802497444701443,
          -0.07643140506317025,
          0.37720880053237327
        ],
        [
          0.5977929374720279,
          -0.4755622631554946,
          -0.658505346215964,
          0.3290918179478024,
          0.40918947514719384,
          -0.38756055425668484,
          -0.09689792703348465,
          0.41523790701906416,
          -0.4151369794212554,
          -0.17807443815198953
        ],
        [
          -0.2515795243502108,
          0.4430940586909271,
          0.6689087425370004,
          0.6402383263769842,
          0.6635176521898707,
          0.3799457790826275,
          0.4079418588798247,
          -0.41763731877224103,
          0.6571957473014005,
          0.06920632528421933
        ],
        [
          -0.5498489468115929,
          0.28150877050627776,
          -0.6683109222318885,
          0.5146221551019925,
          -0.6759857289758083,
          0.5162665199779413,
          -0.6004553106898739,
          0.6685470877678583,
          -0.6317217682407079,
          0.5277783604826232
        ],
        [
          -0.26368269266254096,
          -0.02968394303634203,
          -0.4186461065855077,
          -0.3609198879435119,
          -0.6631942418075257,
          0.11799167619018025,
          -0.6421595572835485,
          0.5636697026353967,
          0.048069240886016384,
          -0.2634076034545875
        ],
        [
          -0.4334166931269143,
          0.5258874410425802,
          0.30396398435387895,
          -0.6800411527567124,
          -0.5071047705788656,
          -0.31896433018530174,
          -0.36995631260901535,
          -0.6852169556549025,
          0.47635233525574683,
          0.21546346566554564
        ],
        [
          -0.2237782094220338,
          0.21914001149315399,
          -0.40947992628998797,
          -0.5887420175215149,
          -0.12205261131023859,
          -0.08024704609121025,
          0.3253576231049149,
          0.19985835109170424,
          -0.26074248296641467,
          0.5641514404144674
        ],
        [
          -0.4513704845636386,
          -0.3872611782288213,
          -0.2854468101860985,
          0.052674935147337454,
          0.3127585551606742,
          -0.6849578829885493,
          -0.026094461897094523,
          0.19930825022815513,
          0.2283250453715472,
          0.48447568391307905
        ],
        [
          -0.6126700459490657,
          0.19787502820228586,
          -0.6687206997120612,
          0.335828653924902,
          0.14719190339694932,
          -0.6194764028052357,
          0.6873699674688969,
          -0.4591831360140817,
          0.6911831871256457,
          0.36562299215340066
        ],
        [
          -0.5667137258786327,
          -0.689991266356773,
          0.4477186190197284,
          -0.5114400074918057,
          -0.00494143978340178,
          -0.5070036254285475,
          0.338323007849594,
          -0.4756999629417465,
          -0.28932094589501106,
          -0.23513546255932422
        ],
        [
          -0.09076976056512243,
          0.4584093521422239,
          -0.10699445640935967,
          -0.5239372364629169,
          -0.5130702221176967,
          -0.629055893768895,
          0.6444149418626242,
          0.28547735204607017,
          -0.3460842736123983,
          -0.27174276254945934
        ],
        [
          -0.3751468072320015,
          0.43242617461459076,
          -0.5487908973425342,
          -0.30744762848955165,
          -0.593839035600513,
          -0.6786040263659527,
          0.4313791191165022,
          -0.4530074761613532,
          0.10933945787182053,
          0.5639481296852724
        ],
        [
          0.2805838886063925,
          0.6252920821177488,
          -0.2461960502832648,
          0.37096613235661624,
          0.3294606239835549,
          -0.49043450086821616,
          0.3077198221265569,
          0.39036428186375716,
          -0.5549919062724479,
          0.61203819912467
        ],
        [
          0.13003847415853476,
          -0.22528865487197886,
          -0.03944759034124301,
          -0.2471840380671682,
          0.10247312967989053,
          -0.35992834195320733,
          0.19053501987285704,
          0.3422483417394291,
          -0.5057171662933256,
          -0.4766173295904962
        ],
        [
          -0.29167147961580664,
          -0.013742610383219112,
          -0.683646855095809,
          -0.1505156040676885,
          -0.6420025942364808,
          0.6783758691151232,
          -0.15198877457624316,
          0.6645478484832927,
          0.6079239339953137,
          0.4341071814596178
        ],
        [
          -0.6087718234373283,
          -0.0777868396793523,
          0.5146828109903501,
          0.07532174523252377,
          0.6842808351375407,
          0.09853261973905114,
          -0.35989858866681995,
          0.6123964717147115,
          -0.1522740606163152,
          -0.46725020726565897
        ],
        [
          0.07091660100350838,
          0.3583151058256091,
          0.6609259093329463,
          -0.5231502759523516,
          -0.06849485902301555,
          -0.22697434543406353,
          -0.5177829857054335,
          0.6624079733688293,
          0.4875053733640733,
          0.5735605078881629
        ],
        [
          -0.6484649061852334,
          0.6618944486912275,
          0.12727660706143995,
          -0.48585124650674044,
          -0.6514216161040306,
          -0.48228941944962395,
          0.529840840894062,
          0.5822109296989879,
          -0.6314985225629811,
          -0.015010605727139748
        ],
        [
          -0.6466836884514571,
          -0.5681175742043546,
          -0.06851769220362236,
          0.6031405766254023,
          -0.09638715931719488,
          -0.511166759301604,
          -0.0046382944550728,
          -0.5320445908725264,
          0.43645568593977435,
          -0.6521385422724313
        ]
      ],
      "bias_ih": [
        0.19756463510850025,
        0.022986112281402654,
        0.1827602423017573,
        -0.18519509784594212,
        -0.07284184322508613,
        -0.11287129931942236,
        -0.16730184812514462,
        0.1079962629915886,
        -0.10283262512031446,
        0.15274933014830083,
        0.6403225065914393,
        -3.9455729290547787,
        -1.7367130651910583,
        -3.6274670100994872,
        0.885512653966245,
        -2.7325738910051616,
        2.1799312703767058,
        0.8953785182012739,
        -3.974487175947926,
        1.8873462780669517,
        -0.04008596637975173,
        0.13893348452539883,
        0.06198902648925403,
        -0.03765195606327881,
        -0.19862191769962498,
        -0.1138633865830214,
        -0.05902185592517137,
        0.07311836815894679,
        -0.13275938441891227,
        -0.08095947380478458,
        -0.1902336679723921,
        0.13893296822236317,
        -0.17382689087633307,
        -0.15051768343762692,
        0.19675325736986982,
        0.03812692848971205,
        0.1814799737251263,
        0.16384975989972478,
        -0.011583438174094907,
        0.1059734789583881
      ],
      "bias_hh": [
        -0.010404892757493067,
        -0.14470761750509228,
        -0.1850419230474911,
        0.10386847824599432,
        -0.16139009447659414,
        -0.19710342787941182,
        -0.1702052814165892,
        0.19350158836843923,
        -0.154632812045451,
        0.07922288532018501,
        -0.008092431840249659,
        -0.13092606165795728,
        0.006043165247952148,
        -0.1313567491105318,
        -0.16997487088279511,
        0.10366340374244393,
        0.1490029794207719,
        -0.009335340933932262,
        -0.17961245229545095,
        -0.02748110223016012,
        -0.19938748592339178,
        -0.08961651800251935,
        0.006440975359260859,
        -0.11909391699388162,
        -0.02771207898583511,
        0.1829211113165759,
        0.008608315484033152,
        -0.06453840168204963,
        0.16531717216641922,
        -0.02372835833515402,
        0.024781415385554284,
        -0.09456589530479093,
        0.18346196131891462,
        -0.15077554958274436,
        0.14650388509912893,
        -0.09459722572413819,
        0.19297689874056895,
        0.15488697690418135,
        -0.08223059126538806,
        -0.17420830003981416
      ]
    },
    "layer_2": {
      "w": [
        [
          0.0325447160315151,
          -1.334020671087635,
          -0.11802551941286743,
          -0.46939539118005336,
          0.7487426989873713,
          -1.366375508843113,
          0.6023171624163515,
          -0.7273176338696595,
          -1.3798420028264224,
          0.7376587081780486
        ],
        [
          0.6263137245221035,
          0.7678110147236661,
          0.8854031194665859,
          1.0736185040090873,
          -1.3805754276974815,
          0.44924155484050954,
          0.9961236470985544,
          -0.8442873665469385,
          0.18955609733854129,
          1.2917847120949217
        ]
      ],
      "b": [
        -0.6712574013723991,
        1.326870571159673
      ]
    }
  },
  "input_mask": [
    0,
    2,
    3,
    5,
    6,
    7,
    11,
    12,
    18,
    19,
    27,
    28,
    29,
    30,
    32,
    33,
    34
  ],
  "ablated_input": null,
  "ablated_value": 0.0,
  "output_param": "atan2_signed",
  "scaled_pi_n": 1.0,
  "delta_max": 0.35,
  "normalization": [
    {
      "transform": "none",
      "scale": 0.8655390346546353,
      "center": 0.9204641308303162
    },
    {
      "transform": "asinh",
      "scale": 0.8175600848274288,
      "center": 0.8867681772014051
    },
    {
      "transform": "asinh",
      "scale": 462.6300273768903,
      "center": -333.1697854608212
    },
    {
      "transform": "none",
      "scale": 5413222.0902614985,
      "center": -508770.60939412704
    },
    {
      "transform": "none",
      "scale": 1157.3507227945558,
      "center": 4549.679429911598
    },
    {
      "transform": "asinh",
      "scale": 10.358129862795693,
      "center": 12.17320223341297
    },
    {
      "transform": "asinh",
      "scale": 0.33924629426269115,
      "center": 0.40005844701414567
    },
    {
      "transform": "none",
      "scale": 0.42411593596120784,
      "center": 0.42858041580763234
    },
    {
      "transform": "asinh",
      "scale": 33.09832239288295,
      "center": 82.65759631477488
    },
    {
      "transform": "asinh",
      "scale": 0.0911362193061205,
      "center": -0.04718278665783951
    },
    {
      "transform": "asinh",
      "scale": 0.2151370816795333,
      "center": 0.29274513397808116
    },
    {
      "transform": "asinh",
      "scale": 9.832939972853932,
      "center": 11.55598244317186
    },
    {
      "transform": "asinh",
      "scale": 3.256400734674897,
      "center": 3.827025266270693
    },
    {
      "transform": "asinh",
      "scale": 5107742.117847206,
      "center": -3590633.2113008387
    },
    {
      "transform": "asinh",
      "scale": 10217099.16686349,
      "center": -6706141.091617538
    },
    {
      "transform": "none",
      "scale": 0.5,
      "center": 0.5
    },
    {
      "transform": "none",
      "scale": 1e-6,
      "center": 0.4262529995153208
    },
    {
      "transform": "asinh",
      "scale": 594.4827404994671,
      "center": 716.3429422450554
    },
    {
      "transform": "asinh",
      "scale": 412.89140647256187,
      "center": -302.7939124482325
    },
    {
      "transform": "asinh",
      "scale": 154.12675819494976,
      "center": -169.7611160606572
    },
    {
      "transform": "none",
      "scale": 1.5707963267948966,
      "center": 1.5707963267948966
    },
    {
      "transform": "none",
      "scale": 0.1,
      "center": 0.0
    },
    {
      "transform": "none",
      "scale": 3.141592653589793,
      "center": 0.0
    },
    {
      "transform": "tanh",
      "scale": 30.0,
      "center": 0.0
    },
    {
      "transform": "tanh",
      "scale": 100.0,
      "center": 0.0
    },
    {
      "transform": "none",
      "scale": 1.0,
      "center": 0.0
    },
    {
      "transform": "none",
      "scale": 1.0,
      "center": 0.0
    },
    {
      "transform": "none",
      "scale": 1.0,
      "center": 0.0
    },
    {
      "transform": "none",
      "scale": 1.0,
      "center": 0.0
    },
    {
      "transform": "none",
      "scale": 1.0,
      "center": 0.0
    },
    {
      "transform": "none",
      "scale": 1.0,
      "center": 0.0
    },
    {
      "transform": "asinh",
      "scale": 17774.23743300369,
      "center": 20521.130577512882
    },
    {
      "transform": "asinh",
      "scale": 500.0,
      "center": 500.0
    },
    {
      "transform": "none",
      "scale": 60.0,
      "center": 60.0
    },
    {
      "transform": "none",
      "scale": 100.0,
      "center": 0.0
    }
  ]
}