{
  "format_version": 2,
  "architecture": [
    {
      "type": "dense",
      "input_size": 17,
      "output_size": 16,
      "activation": "swish"
    },
    {
      "type": "mamba",
      "input_size": 16,
      "d_state": 12,
      "dt_rank": 1
    },
    {
      "type": "dense",
      "input_size": 16,
      "output_size": 2,
      "activation": "asinh"
    }
  ],
  "weights": {
    "layer_0": {
      "w": [
        [
          -0.6078374343349913,
          -0.7313664939236642,
          -0.4898377021805358,
          -0.4908998269827796,
          0.7478472279724797,
          0.010050643533152881,
          -0.7319361538070247,
          -0.2670269082541089,
          -0.4923788587939656,
          0.33807566593203564,
          0.49584026490878585,
          0.5626064571010463,
          0.10151511847290828,
          0.28490276392580083,
          0.3238072002956274,
          0.7264590091939631,
          -0.4204989860163737
        ],
        [
          0.6412064328860645,
          -0.8522486392885424,
          0.8134922771604367,
          0.5330397689387945,
          -0.8162909256264833,
          -0.06712009821289555,
          0.8516528113372046,
          0.7931094178748552,
          0.3583888928659862,
          0.6879384903628869,
          -0.7596041382573313,
          -0.017564155451753938,
          0.1482647315300336,
          -0.8471364573214193,
          -0.023769213133251976,
          -0.17953689345833101,
          -0.797691650804787
        ],
        [
          -0.4587778512615908,
          -0.7242138009270748,
          0.7368671729052159,
          -0.7307263721550287,
          -0.19329366336635967,
          -0.4487822739395619,
          0.6951393820566367,
          -0.450807844819529,
          -0.7788800160996969,
          -0.33130378266363547,
          -0.6932147600591172,
          -0.17936471909612972,
          -0.6555046704168349,
          -0.8466366088454101,
          -0.03151202808918607,
          0.7208685051220831,
          0.7714204498321904
        ],
        [
          -0.7627231503478011,
          -0.8239668726885532,
          0.22972758926963666,
          0.8311127884981668,
          0.8320983860274003,
          0.7192932111483874,
          0.39576500886179455,
          -0.7691031720780201,
          -0.29713539884362206,
          -0.5219855134981644,
          -0.4224820302730294,
          0.49299081162097647,
          -0.4514063648533946,
          0.05987203141967479,
          -0.3468680513748521,
          0.8387037536040594,
          -0.8259915714171624
        ],
        [
          -0.1841220549064121,
          -0.8037314791165776,
          0.34242367371266424,
          -0.33496612265523174,
          -0.8350919537798065,
          0.5490703373475687,
          -0.4687697315504978,
          0.8518396172809704,
          -0.024837318357712412,
          0.8507806471562172,
          -0.24141767311365026,
          -0.37542240441237856,
          -0.8475222282380497,
          0.644181490736772,
          0.21109011721948123,
          -0.4291846775495391,
          -0.5704256147707726
        ],
        [
          -0.8131245263212584,
          0.14875987841183536,
          -0.09130544628783688,
          -0.6060204363072859,
          -0.04445808597546341,
          0.6768898807666521,
          0.4915802279660597,
          0.29483209849176717,
          -0.017813350505847314,
          0.06462132324022651,
          -0.5591391622314951,
          -0.03040860469243334,
          -0.1480859142205958,
          -0.08269632323487319,
          -0.8310775727411055,
          0.848004461005877,
          0.5814638163764019
        ],
        [
          -0.017979235409225747,
          -0.08868356692764512,
          -0.7563974036291656,
          -0.4045511848563609,
          0.20868977725271898,
          -0.11973104172715665,
          0.7435896023189865,
          0.836228781118217,
          -0.60206142211914,
          -0.27201388337593646,
          -0.03802148998317978,
          -0.6841851590041101,
          -0.1549116163916905,
          -0.3624369065571688,
          -0.5716578925480207,
          0.29567138586214026,
          0.8474717979223674
        ],
        [
          -0.6729692744986475,
          0.842358988979609,
          -0.3539397218677544,
          0.33288948651322525,
          0.6804679237703459,
          0.8349291152631642,
          -0.5917292926213028,
          0.6225485517746536,
          -0.29883017064592177,
          0.5976984234581253,
          -0.09942950221784708,
          0.6998946346092352,
          -0.04704682096001578,
          -0.07647357926808496,
          -0.6144378399179149,
          0.7754345019369937,
          -0.01279232723609558
        ],
        [
          0.6347844423325975,
          0.7822256198332402,
          -0.021411703428990347,
          0.0979884247326811,
          -0.28090545157980606,
          0.4692740563469997,
          -0.6851301471745282,
          -0.4179453146801635,
          -0.14914357957415714,
          -0.8447841444317236,
          -0.10552838384472152,
          0.8404064331363754,
          -0.6055653531691373,
          0.29007022833088336,
          0.6430682762179769,
          0.008560960617861046,
          0.18484120915687252
        ],
        [
          -0.3251292195913247,
          -0.12190607313888768,
          -0.011279385930970665,
          -0.6919091063283391,
          0.761494012854856,
          -0.08316524911484724,
          -0.03729210771509717,
          0.013499437339762554,
          0.518863715272573,
          0.470673126667126,
          0.7590243342063476,
          0.04872037214024316,
          0.6504107624634323,
          -0.7702594138873451,
          0.46222332516555875,
          -0.04608740447583315,
          -0.7255897340201218
        ],
        [
          0.0018552970047227557,
          0.05225584707694764,
          -0.5899294880565304,
          0.24906424473844013,
          -0.31320387662863847,
          0.2095258190018876,
          0.3638455494284385,
          0.24581458049906968,
          -0.842875003408943,
          -0.36772342006998604,
          -0.09521553731896859,
          0.7771264121830699,
          0.58506167038305,
          -0.24825120664806943,
          -0.2689728107285554,
          -0.7225738495615365,
          -0.7557623267294179
        ],
        [
          0.4553846806564992,
          -0.09707669245979045,
          -0.2065802710379646,
          -0.26990617944022843,
          -0.8312163298804188,
          0.6993501089447152,
          -0.2865313379922009,
          -0.1422804240915594,
          0.21960712003318394,
          -0.7237914025936579,
          0.46247481562472226,
          0.2931019251122875,
          -0.008331729609518224,
          0.7936332087876021,
          0.10203011568769993,
          0.7392325416268966,
          -0.0005253810525471803
        ],
        [
          -0.3524246406817946,
          0.8261424118888716,
          0.5958715020228145,
          0.7990448646908455,
          -0.48129499970295864,
          0.5149320015166778,
          0.8518492628634313,
          0.4685542830538285,
          -0.4079828802134093,
          0.5728410643088808,
          0.24428752027169454,
          -0.7106795911537305,
          -0.11364675380971545,
          -0.5974723100311364,
          -0.29157904183387506,
          -0.7522206177826813,
          0.11590240759122783
        ],
        [
          -0.7218255538157812,
          -0.829651500547544,
          -0.13537049899391673,
          0.3294562803340162,
          0.2749068891969868,
          -0.19617024751100842,
          0.8239025956568087,
          -0.4609168507313702,
          -0.614612320727556,
          0.7731205412538964,
          0.7191564491265294,
          -0.5879262389683402,
          -0.2843086610147134,
          0.3371979714348814,
          -0.4661753887708954,
          0.7409239472805114,
          0.5916102614920276
        ],
        [
          0.04028245553245846,
          -0.8105027643869229,
          -0.784905140046468,
          0.186835110055793,
          0.08821997508162172,
          0.6552129928416126,
          -0.43026532022209923,
          0.4003458440901877,
          -0.5804446758493369,
          -0.18656951576739567,
          0.20119574544757213,
          0.7317704954853492,
          0.028255006387179593,
          0.08207646199582763,
          0.6320533957607732,
          -0.29940733255068763,
          -0.708086303254577
        ],
        [
          0.16279311189231493,
          -0.8427931430501029,
          -0.3074160459055154,
          -0.36770820749524163,
          0.45256934874621013,
          -0.31240828195217096,
          0.39595119707747717,
          0.5323256466053525,
          -0.850832744236695,
          0.836290092588337,
          -0.6044722684185653,
          -0.31686282058806825,
          -0.6414881953219581,
          -0.7054048478343017,
          -0.5835572965800304,
          -0.7684103525042835,
          0.16644268918166039
        ]
      ],
      "b": [
        0.6508924084824876,
        -0.6295001000419567,
        -0.40085158400807697,
        -0.8513632234522203,
        -0.8340770625857652,
        0.8517795808346948,
        -0.3959741846775073,
        0.10724436163463147,
        0.21592626254670844,
        -0.06946887356032427,
        0.47613123082599684,
        -0.14639629572359736,
        0.49548973991550693,
        -0.8048298221647686,
        0.224641605105951,
        0.23544509521587154
      ]
    },
    "layer_1": {
      "x_proj_w": [
        [
          0.748294565976029,
          -0.7349302512820658,
          -0.5760682909699195,
          0.2796531604400321,
          0.6046256134296097,
          -0.3675909912250836,
          0.2475700086090422,
          -0.4353716198718567,
          -0.426005590881548,
          -0.2588100302904044,
          0.7591404302288776,
          -0.39730830883931356,
          -0.09569499551429783,
          -0.3493878954979347,
          -0.6319399571850715,
          0.45436999261377586
        ],
        [
          -0.12569373170899922,
          0.7600779562404201,
          0.5283325515023014,
          0.5254357397787461,
          -0.5284339393966517,
          0.3339308889795647,
          -0.5476864652593079,
          -0.21904228129688408,
          -0.14191102605648387,
          -0.31027716015822904,
          -0.19744077604761212,
          -0.763301951115785,
          -0.29862415576547086,
          0.7537002949939897,
          0.24456256919522779,
          -0.40493751328864636
        ],
        [
          -0.7147471109908051,
          0.7513460254451894,
          -0.7538791942940094,
          -0.21615966474367942,
          0.7014290608174958,
          0.11869841443409546,
          0.6180726504487759,
          -0.42601912842509715,
          0.021370652584333127,
          0.6995605688054756,
          -0.7613207018200323,
          -0.6345123861439621,
          0.724941110025372,
          -0.1309021958889004,
          0.49366742330948954,
          0.6790720462542856
        ],
        [
          0.43272011608035243,
          0.757981181775258,
          -0.23702378271855384,
          -0.05078421486620044,
          -0.08243644445275078,
          0.15885515039321163,
          0.598369417179599,
          0.45277492960331367,
          0.6292549906991791,
          -0.5412420689874261,
          -0.7001274025835422,
          -0.7548679680894929,
          -0.7623766869318227,
          -0.5332314532595848,
          -0.4567131838714063,
          -0.7209867505478105
        ],
        [
          -0.7636412011579078,
          0.7545350743622357,
          -0.5501583545583772,
          0.22297536222505165,
          0.608553881781223,
          -0.1640154837382316,
          0.7100785869458515,
          -0.7379786591275767,
          0.05865566404382616,
          -0.36558990948160675,
          -0.7475690729080003,
          0.2512317090172411,
          0.7283896211727141,
          0.6059236594583235,
          -0.450486616696407,
          0.7067581872091098
        ],
        [
          -0.06415509313759393,
          -0.7453327176290588,
          0.6767223434345864,
          -0.7531158335841375,
          0.6985637663071977,
          0.09930215625284267,
          0.631795941197157,
          -0.5457492091312995,
          0.7587076421673866,
          -0.680900494674938,
          0.7567599366539202,
          -0.02581678490103223,
          0.6979235660099454,
          0.538124513199677,
          -0.024392359389051266,
          -0.7341621902494715
        ],
        [
          0.6523415116788192,
          -0.4649810176301228,
          0.24392360159740645,
          0.07028042972540283,
          -0.1891169715815878,
          -0.4738146899378711,
          0.6381382816994934,
          -0.7047085237792998,
          0.4944166939891781,
          0.47479724697283676,
          -0.015237242682042185,
          -0.7564631861684863,
          -0.5954512707242998,
          -0.4216074339713856,
          -0.19179131672373728,
          -0.1538622149860498
        ],
        [
          -0.20171842867591805,
          -0.5996389609436632,
          0.7522237430286347,
          0.6032868408199328,
          -0.20865173113273183,
          0.1567716436965686,
          0.7510960072151538,
          0.5878179509230963,
          -0.4959353343170867,
          -0.7589184503381721,
          0.6344313228550027,
          -0.6978685799832588,
          0.7614898278327444,
          -0.37546264161307374,
          0.47181506773312076,
          0.03319189757721552
        ],
        [
          -0.6971944170791448,
          0.46434353397314543,
          -0.5430644565578049,
          -0.48096703274465713,
          0.05873573585166947,
          -0.15760025391978116,
          0.3210357138033748,
          -0.6728521764770873,
          -0.054058987889583854,
          0.7426585866505202,
          -0.4420193126735053,
          0.371968570252742,
          0.0035010561166123333,
          0.263261597206635,
          -0.30950854921955795,
          -0.6051565246390639
        ],
        [
          0.6257390335749433,
          0.6415255603304597,
          -0.21466828691275075,
          -0.7312960296323935,
          -0.5387649792124823,
          0.16692935994550728,
          0.7234754772170318,
          0.6507083270885048,
          -0.7098507195411085,
          0.4494325078228607,
          0.6830436030634912,
          -0.5148476909143866,
          -0.7539370403702749,
          0.5561020174161424,
          -0.7570001424316422,
          0.688305861433691
        ],
        [
          -0.5004695419446036,
          -0.7504750594996257,
          0.7346696381330307,
          -0.2745121028539143,
          -0.7074418727940207,
          0.7545835085338528,
          -0.7601674205262917,
          0.7252413248995893,
          0.4383296956137883,
          -0.6120260376533022,
          -0.6061387788879737,
          -0.7645250875022895,
          0.25053764703954307,
          -0.3810888736486264,
          0.6308704731574937,
          0.7612078891723346
        ],
        [
          -0.7529825023700635,
          0.3631248247091734,
          0.44621542207975096,
          -0.5426289252990881,
          -0.5023228541578577,
          -0.05647105831607391,
          0.763527073337152,
          0.31351314142610565,
          0.11094019656866472,
          -0.4478220268781138,
          -0.7023775813134147,
          0.39999349430349573,
          0.35194113680112094,
          0.5302898071999123,
          -0.4924708671159756,
          0.48563404191827986
        ],
        [
          0.6835529914160923,
          0.5020494771705832,
          0.54733953168312,
          0.38396525766837475,
          -0.41055518456661244,
          -0.535995192637488,
          0.7625557099100952,
          0.7458603418386409,
          -0.18421469081933584,
          0.2578712601969184,
          0.6703907827359323,
          0.6095792905796724,
          -0.3233009498277722,
          -0.6292490033127922,
          -0.7646398463980526,
          0.1394475176598099
        ],
        [
          -0.222042100355492,
          -0.5770675449077806,
          -0.2639686249085569,
          0.7475505662050073,
          0.519554137665158,
          0.1299819976337505,
          -0.7030013810094159,
          -0.5219504042029415,
          0.7285300604264735,
          -0.712059336671171,
          -0.7583086072129069,
          0.7430794959507163,
          -0.7094400411365045,
          -0.3931854836667952,
          -0.7495180334264853,
          0.09774934898577403
        ],
        [
          0.10470469964926987,
          -0.5513227353101992,
          -0.5779233477959482,
          -0.754517237237719,
          -0.6738460188770352,
          0.27823539951833265,
          -0.6072782581661093,
          0.14146720338828866,
          0.45077724907832883,
          -0.11223000503632752,
          -0.021715296996429934,
          -0.2740240851953834,
          0.7298369740436617,
          -0.208588181649474,
          -0.033409935322094575,
          0.1666746422632045
        ],
        [
          -0.5243095360937663,
          0.7474039874976977,
          0.5997037152175433,
          0.6210166108973578,
          -0.2909265164145804,
          0.14265274388196092,
          0.6816149115641228,
          0.6859949775871668,
          0.6650526030334265,
          -0.35858115099813576,
          -0.6776602483098565,
          0.7360508545393691,
          -0.18124291052385,
          -0.5037011971891073,
          0.47133001741246305,
          -0.6433489829596043
        ],
        [
          -0.6148751901792269,
          0.6489018482507269,
          -0.7650228316520161,
          -0.5953540420717551,
          -0.37940404088870705,
          -0.6234938036917304,
          0.7618055994145287,
          -0.6667016443037672,
          -0.5886529475204003,
          -0.4186781594849836,
          -0.3461996800563805,
          -0.7349454965256448,
          0.6100688750416616,
          -0.5473808548220137,
          0.7284858051973131,
          0.7150791224968607
        ],
        [
          -0.5068116135287357,
          -0.7384857622394805,
          -0.18507580069174145,
          0.6947482506458804,
          -0.24808407903519447,
          -0.6949441764940654,
          0.4786568735970218,
          -0.5790801425126473,
          0.7154665764960335,
          0.45153004427915744,
          0.05486149425999809,
          -0.657272262067454,
          -0.6289707898653997,
          0.6856769849050461,
          -0.5561905441084137,
          -0.3040409622212577
        ],
        [
          0.6767395452591649,
          -0.7126213904208448,
          -0.5618756659575724,
          -0.5223325000779578,
          0.18364116735483105,
          0.3182206935698437,
          0.5562108734209286,
          -0.49396868547788164,
          -0.39382112823545634,
          0.6775610449225933,
          -0.08125259895193171,
          0.1263067122603877,
          0.7640048879786903,
          0.03699884995851588,
          0.7092608924972663,
          -0.5424309445918611
        ],
        [
          -0.6591569491567191,
          -0.7226690291223709,
          0.7197423567862873,
          0.762352921508576,
          -0.656122225246037,
          0.730518232128923,
          0.6914024401869794,
          0.4247023202169331,
          0.5805879004990335,
          -0.7315469404203637,
          0.5755715778576549,
          -0.7082148596938096,
          0.3371402190256594,
          0.7433867032706396,
          -0.7356941330356452,
          0.21328143694383195
        ],
        [
          -0.3872517113544338,
          0.3779902226507248,
          -0.7422015822231796,
          -0.3086779812566594,
          -0.7403723151758781,
          -0.6164122063352776,
          0.6445298472806631,
          -0.30122502071796725,
          0.5366978444563766,
          0.05840904099939426,
          0.02306182016961411,
          0.289353563612778,
          -0.4038522034173867,
          0.513214476553352,
          -0.7624236044796175,
          -0.7117939122316188
        ],
        [
          0.6443234193032166,
          0.5760961791947574,
          -0.546406113351292,
          0.6839585907923647,
          0.6524912236171503,
          0.6549739030875061,
          0.5799996565693233,
          -0.6359920404594634,
          -0.6049622569696612,
          -0.21855672251634972,
          0.2590978875256913,
          0.7630553505418047,
          0.4609656543974565,
          0.5213448646552916,
          0.5379174209871338,
          -0.1998982009766247
        ],
        [
          0.47086443782216136,
          -0.4996242698862371,
          -0.2983693943719686,
          -0.002470667117775882,
          0.7268772820321818,
          0.5128166372688647,
          -0.5284205596387174,
          0.6061930933028856,
          -0.7271654645877482,
          -0.7281164698542714,
          0.6709652197076617,
          0.5075215574589009,
          0.7103978765861387,
          0.655117139790254,
          0.04591088341307148,
          -0.21839291913117242
        ],
        [
          0.6027644141304327,
          0.28989659589649386,
          0.7036088521635195,
          0.38606270369524887,
          0.1647805355016183,
          0.7042346692857073,
          0.2678190678608965,
          -0.011275589016707666,
          -0.7267786224741118,
          -0.06759498695398813,
          -0.013917119272218725,
          -0.5245331911933087,
          -0.5099312576435495,
          0.12351464130043788,
          0.5228664717344136,
          -0.5206496619295781
        ],
        [
          -0.6588852621120191,
          0.21935357670500943,
          -0.01387092039898663,
          0.6969547451939353,
          -0.6990797214799294,
          0.7592921159373343,
          -0.08393143521774282,
          -0.7562003025467386,
          -0.09764142045759472,
          0.6392676474374757,
          0.33136470965214104,
          -0.7185826469344617,
          0.24985361734963574,
          -0.5805424296169617,
          0.5784505811045624,
          -0.7337934713468881
        ]
      ],
      "dt_proj_w": [
        [
          -0.06449900518758378
        ],
        [
          0.8022696520559831
        ],
        [
          1.0150118658866158
        ],
        [
          -1.1827286657689002
        ],
        [
          0.4089403715423714
        ],
        [
          0.7530627810331552
        ],
        [
          -1.1578554997704036
        ],
        [
          -0.7549378824885905
        ],
        [
          0.5125350144318752
        ],
        [
          1.1685389393224408
        ],
        [
          0.9676731021778944
        ],
        [
          0.04314955261167586
        ],
        [
          -1.1504727951824585
        ],
        [
          0.1815960397108627
        ],
        [
          0.2731137806144659
        ],
        [
          0.8098550960870448
        ]
      ],
      "dt_proj_b": [
        -3.7957225656273317,
        -2.6266954832351006,
        -3.5952812151872853,
        -3.0496315013410222,
        -2.0113028687133294,
        -2.5154479821146585,
        -3.584022217240675,
        -4.436159391268984,
        -3.088008672560477,
        -1.6133422671462938,
        -4.180397139210773,
        -3.4223234529876527,
        -3.548489421054635,
        -4.245219881394048,
        -3.649923234243866,
        -3.245116058876966
      ],
      "a_log": [
        [
          -0.09006022061697516,
          2.084285987416991,
          1.0098836319233029,
          0.7137690398869616,
          2.8608438730134953,
          3.16362263237728,
          3.785663139270228,
          2.076930539476032,
          1.9180226894482597,
          3.129181647367441,
          2.6447122666367946,
          0.5594118640443183
        ],
        [
          1.0115996681782535,
          -0.005965892653085003,
          1.9619663579932414,
          -0.18415754759439124,
          -0.30589343655804946,
          0.547654419521678,
          2.3395177529796642,
          0.3783847282739016,
          3.830728958753021,
          1.5502735354400041,
          0.5320155278776832,
          0.8417540440957711
        ],
        [
          1.7259738023347877,
          0.15726841382805246,
          1.2623207307924116,
          0.7459953060980096,
          1.095513261106096,
          -0.14994788425630418,
          0.036976553012482594,
          0.1389115534574905,
          1.6529933049869683,
          3.8260697578381753,
          2.200449774310138,
          0.8101875771153773
        ],
        [
          1.9994210085586577,
          1.816013967843543,
          -0.8975208010995692,
          -0.12823960347446356,
          -0.0014230292086284124,
          1.798026259862608,
          2.5429776835273303,
          3.5056988566478324,
          1.414357515683023,
          1.8012461027991586,
          0.4307137717391123,
          3.6675051729268513
        ],
        [
          1.1991386427435216,
          1.2125755955528494,
          -0.8704709620404285,
          1.48435891282035,
          3.3572027929495647,
          0.21045483345277693,
          0.43053826375790005,
          0.11266870727539216,
          4.013104393228684,
          0.36189398268341577,
          3.7742455581994143,
          4.30020567730957
        ],
        [
          0.795349336996154,
          0.03543183076099776,
          0.49226097879712327,
          1.2610763447507878,
          2.7734433646660817,
          3.3560092836461752,
          3.0084793818882467,
          2.0092746173486695,
          2.566596806102422,
          4.274324625829076,
          0.4424248969800275,
          4.001713237649918
        ],
        [
          1.5836017550748611,
          -0.5204434144705333,
          -0.8617741502390808,
          0.20747999393864602,
          2.957448097208527,
          2.3321555437759183,
          3.2639743279706703,
          3.754804970401839,
          3.5487320114927052,
          2.262221900687192,
          0.7063636134997591,
          3.872529663236708
        ],
        [
          -1.8680684796907014,
          0.10613065464004778,
          2.4099175287119827,
          3.236635808196679,
          3.5439482136531675,
          3.3488539074334542,
          3.7023589465912554,
          3.9009090828435173,
          1.9858189095123264,
          2.6450873409191127,
          3.8755553786561,
          3.690549415994692
        ],
        [
          -0.27476710509668223,
          2.348159244593788,
          0.12167113691014042,
          0.26241652711172825,
          0.48059110126516846,
          3.7276681811401557,
          2.695719876432955,
          2.086078216490747,
          0.25838505485903934,
          3.9129778194312252,
          0.48175809592786073,
          3.585691082825961
        ],
        [
          1.5220496282842721,
          1.6740884532207239,
          3.097330297886735,
          0.2707560117356812,
          -0.38909937830350627,
          2.776982955057432,
          2.7793201460585077,
          0.2253416090820899,
          0.47592484017750825,
          3.508685177887215,
          0.6281085426784997,
          3.7421226071586324
        ],
        [
          0.9323267185021362,
          1.7156877669301203,
          -0.19297272821723022,
          3.3661901869384128,
          0.319289166601722,
          2.0322977737378753,
          1.1449496354154478,
          0.2781754902406292,
          2.30043040742553,
          0.3913573357437298,
          2.3063180741129816,
          3.8733279786850803
        ],
        [
          -1.9422271826540303,
          -1.2873845236204098,
          1.9418573491695608,
          1.1160040729066367,
          1.904507467938117,
          3.6528933212107915,
          0.5532020630293939,
          3.6872906592236165,
          3.872956449887827,
          2.348207210134417,
          2.7299518784459877,
          4.26343715209785
        ],
        [
          1.6829268208414931,
          -0.4023381997518243,
          2.500444114614216,
          2.4853697678292797,
          2.5984051148269307,
          -0.06804307489815942,
          1.0545235378885298,
          3.4934568491252427,
          4.170863354669747,
          1.0473000459740414,
          3.9815838348802206,
          0.7919065295280974
        ],
        [
          1.8681150853848791,
          -1.1381244267268935,
          2.816464208425808,
          1.9731512496629071,
          3.570217113970407,
          -0.07910303248195111,
          3.515084150166433,
          1.0100886823500166,
          1.929379517345338,
          3.9508059397710116,
          0.5693942558072846,
          1.3853477887603667
        ],
        [
          0.26255435203400923,
          -0.48881222982671513,
          2.6743673947288453,
          3.3531276426533863,
          -0.37307549335615026,
          0.6574584125212515,
          1.838962388110531,
          2.756051156835396,
          1.2008438068014409,
          3.8730283933650727,
          4.114683985581095,
          0.7898424658912642
        ],
        [
          0.028986462972005356,
          0.9255566461200675,
          1.776096243464376,
          0.7558057075215501,
          3.2754989503844847,
          2.2440357805432534,
          3.4260649275791524,
          1.9335354113369967,
          4.024370620580693,
          1.2886543730780624,
          1.7187546084754435,
          4.334335526201513
        ]
      ],
      "d_skip": [
        2.897667315024264,
        0.8331856880712087,
        -0.8837115615382749,
        2.695706572627063,
        -0.7583612569572559,
        0.8597021913492546,
        -0.8088742557404904,
        0.7158982105293232,
        1.4557777720445264,
        -0.9969657159044876,
        -0.48591763311304836,
        1.4822130625143468,
        1.011052125352775,
        -0.7172314026853537,
        1.0306952737760917,
        2.6878164508865825
      ]
    },
    "layer_2": {
      "w": [
        [
          0.4304901195123896,
          0.9250112660224015,
          -0.2275885975897426,
          -0.5992484072633243,
          0.1739773923697847,
          1.1344700155494571,
          1.1545067799332367,
          0.7246060410107886,
          -0.6356439562881036,
          -1.1448264211638017,
          0.3341629149904721,
          0.481390613404721,
          -0.4539346606420692,
          1.071664182321038,
          -1.1509173902981447,
          -0.3030809510717074
        ],
        [
          1.1122040226967216,
          0.27219537857275045,
          1.1075211861962706,
          -0.01246244134689034,
          0.7544470488505417,
          0.5539336646058937,
          1.0801562345955267,
          1.0960370734952227,
          -0.06105400216178358,
          -0.8146763503837491,
          0.6853085490057094,
          0.5955154289255211,
          1.145533853672752,
          -0.3722992749000813,
          -1.0712088680595695,
          0.9393678718829674
        ]
      ],
      "b": [
        -1.1529000289768907,
        -0.9354130885766041
      ]
    }
  },
  "input_mask": [
    0,
    2,
    3,
    5,
    6,
    7,
    11,
    12,
    18,
    19,
    27,
    28,
    29,
    30,
    32,
    33,
    34
  ],
  "ablated_input": null,
  "ablated_value": 0.0,
  "output_param": "atan2_signed",
  "scaled_pi_n": 1.0,
  "delta_max": 0.35,
  "normalization": [
    {
      "transform": "none",
      "scale": 0.8655390346546353,
      "center": 0.9204641308303162
    },
    {
      "transform": "asinh",
      "scale": 0.8175600848274288,
      "center": 0.8867681772014051
    },
    {
      "transform": "asinh",
      "scale": 462.6300273768903,
      "center": -333.1697854608212
    },
    {
      "transform": "none",
      "scale": 5413222.0902614985,
      "center": -508770.60939412704
    },
    {
      "transform": "none",
      "scale": 1157.3507227945558,
      "center": 4549.679429911598
    },
    {
      "transform": "asinh",
      "scale": 10.358129862795693,
      "center": 12.17320223341297
    },
    {
      "transform": "asinh",
      "scale": 0.33924629426269115,
      "center": 0.40005844701414567
    },
    {
      "transform": "none",
      "scale": 0.42411593596120784,
      "center": 0.42858041580763234
    },
    {
      "transform": "asinh",
      "scale": 33.09832239288295,
      "center": 82.65759631477488
    },
    {
      "transform": "asinh",
      "scale": 0.0911362193061205,
      "center": -0.04718278665783951
    },
    {
      "transform": "asinh",
      "scale": 0.2151370816795333,
      "center": 0.29274513397808116
    },
    {
      "transform": "asinh",
      "scale": 9.832939972853932,
      "center": 11.55598244317186
    },
    {
      "transform": "asinh",
      "scale": 3.256400734674897,
      "center": 3.827025266270693
    },
    {
      "transform": "asinh",
      "scale": 5107742.117847206,
      "center": -3590633.2113008387
    },
    {
      "transform": "asinh",
      "scale": 10217099.16686349,
      "center": -6706141.091617538
    },
    {
      "transform": "none",
      "scale": 0.5,
      "center": 0.5
    },
    {
      "transform": "none",
      "scale": 1e-6,
      "center": 0.4262529995153208
    },
    {
      "transform": "asinh",
      "scale": 594.4827404994671,
      "center": 716.3429422450554
    },
    {
      "transform": "asinh",
      "scale": 412.89140647256187,
      "center": -302.7939124482325
    },
    {
      "transform": "asinh",
      "scale": 154.12675819494976,
      "center": -169.7611160606572
    },
    {
      "transform": "none",
      "scale": 1.5707963267948966,
      "center": 1.5707963267948966
    },
    {
      "transform": "none",
      "scale": 0.1,
      "center": 0.0
    },
    {
      "transform": "none",
      "scale": 3.141592653589793,
      "center": 0.0
    },
    {
      "transform": "tanh",
      "scale": 30.0,
      "center": 0.0
    },
    {
      "transform": "tanh",
      "scale": 100.0,
      "center": 0.0
    },
    {
      "transform": "none",
      "scale": 1.0,
      "center": 0.0
    },
    {
      "transform": "none",
      "scale": 1.0,
      "center": 0.0
    },
    {
      "transform": "none",
      "scale": 1.0,
      "center": 0.0
    },
    {
      "transform": "none",
      "scale": 1.0,
      "center": 0.0
    },
    {
      "transform": "none",
      "scale": 1.0,
      "center": 0.0
    },
    {
      "transform": "none",
      "scale": 1.0,
      "center": 0.0
    },
    {
      "transform": "asinh",
      "scale": 17774.23743300369,
      "center": 20521.130577512882
    },
    {
      "transform": "asinh",
      "scale": 500.0,
      "center": 500.0
    },
    {
      "transform": "none",
      "scale": 60.0,
      "center": 60.0
    },
    {
      "transform": "none",
      "scale": 100.0,
      "center": 0.0
    }
  ]
}