{
  "format_version": 2,
  "architecture": [
    {
      "type": "dense",
      "input_size": 17,
      "output_size": 32,
      "activation": "swish"
    },
    {
      "type": "dense",
      "input_size": 32,
      "output_size": 16,
      "activation": "swish"
    },
    {
      "type": "dense",
      "input_size": 16,
      "output_size": 1,
      "activation": "tanh"
    }
  ],
  "weights": {
    "layer_0": {
      "w": [
        [
          -0.36720401630065136,
          -0.6119748505470441,
          -0.5137292584338048,
          -0.32999552692105943,
          0.07505956048116169,
          -0.14473472627366646,
          0.08535778281840112,
          0.007007325674565412,
          0.09209762072745009,
          0.3845997924462494,
          -0.6987890837802045,
          -0.2094885672184693,
          -0.04138885029442951,
          0.5752928801120369,
          0.48545372254978125,
          -0.15796521539908026,
          0.26326197612805113
        ],
        [
          -0.38892239681630086,
          -0.23610007339128958,
          -0.04005326380738328,
          -0.48280137649075855,
          -0.009093505762380882,
          -0.5482471031262417,
          0.6442289048024947,
          0.6074260919791861,
          0.4417750712647457,
          -0.3123202522841575,
          -0.16158084483406532,
          0.10149146678350507,
          0.1613395976502705,
          -0.24246614561685054,
          -0.48764414621709873,
          0.4155417447232028,
          0.5335399078758516
        ],
        [
          0.06918385002902216,
          -0.6891177110563005,
          0.6209660615834458,
          -0.2484541192091262,
          0.12626983251264146,
          -0.5148106829490449,
          0.48263972751811424,
          -0.42003532787672737,
          0.4231206840496726,
          0.36646422302826687,
          -0.0012398121857341016,
          -0.4255394082829439,
          0.6940555883776265,
          0.008035082914905955,
          -0.13557629439107044,
          -0.28160227978392105,
          -0.33079598326328985
        ],
        [
          -0.14586587768476544,
          -0.31172945935022855,
          0.4387867975071129,
          0.036119258025694045,
          -0.45508893955000973,
          0.055222324496353226,
          -0.39065704371508575,
          0.14649582793808502,
          0.06222883916146971,
          0.6612512309956977,
          -0.06741042011498488,
          0.06655516032406283,
          0.3223194920651937,
          0.6870867365800983,
          0.2611593603000494,
          -0.6960959855023793,
          0.2350609466167073
        ],
        [
          0.3294412859271292,
          -0.20927108645610754,
          -0.2502797320589503,
          0.11342613592614614,
          -0.23068433264342797,
          -0.029454677098443294,
          0.6249717417346596,
          -0.507244385410816,
          0.15665258104256252,
          0.6182342234009395,
          -0.07549275067232042,
          0.4123557240858724,
          -0.6125524308078415,
          0.025972110282206806,
          0.039145453778482775,
          -0.4292022720935617,
          -0.5089264193369055
        ],
        [
          -0.16408222235763092,
          0.20539149507074173,
          -0.25419298953270797,
          -0.38713013699746357,
          -0.4409605371074323,
          0.5598077680148783,
          0.32051524123792263,
          -0.3899395283609096,
          -0.13852525457481624,
          -0.3562639686825528,
          -0.21775417058751467,
          0.14006369557333775,
          0.500923588554117,
          0.3482961255853114,
          0.6987713612152306,
          -0.6914059368997972,
          0.35235612568513885
        ],
        [
          0.37082087411980313,
          -0.4547448915986767,
          0.6985174877421605,
          0.5935098802119994,
          0.6542282790122598,
          -0.14282660582050755,
          0.02665635180291459,
          -0.26243356997054007,
          0.13542770445533248,
          -0.311911436059301,
          0.08797397391831774,
          -0.10797818458437713,
          0.19860041063521972,
          -0.2705470865792004,
          0.09840696235645663,
          -0.2070609426067629,
          0.1395501942185876
        ],
        [
          0.6832625241343162,
          -0.6833370935022639,
          0.2147398207849044,
          -0.15074806147125253,
          0.21607188819069978,
          -0.22163324347717123,
          0.1891338592116134,
          -0.4945375847744222,
          0.28146347476691547,
          -0.5176792433719577,
          -0.06696418126994397,
          0.4145140068160078,
          0.6997254749470014,
          0.42525605006021805,
          -0.676462040108351,
          0.38099713630777243,
          0.6102100384488525
        ],
        [
          0.5727507421648255,
          0.594123787792713,
          0.2696673287824005,
          -0.12539406392466212,
          -0.6849111918161651,
          0.14171771773737263,
          -0.36490101230742356,
          -0.07190208519836438,
          -0.3528069207322946,
          -0.13474033816961817,
          -0.20914804669349196,
          0.6895570318078292,
          0.007072903852679002,
          0.0663673614501018,
          -0.3907206845890057,
          -0.07765169001285166,
          -0.10603384742923294
        ],
        [
          -0.37994501223340904,
          -0.68305544140134,
          0.040712302158044,
          -0.4812867950632155,
          0.20808336887968149,
          0.5702906408133788,
          0.03357640957446495,
          -0.24749725221933339,
          -0.4414447461769932,
          0.0824664926374794,
          -0.289384458613978,
          -0.638523307982708,
          0.6910266898031381,
          0.3114108898122314,
          0.101244327116917,
          -0.4036080460838336,
          -0.3455898632874407
        ],
        [
          -0.47574668790129093,
          -0.47404577125337966,
          0.26103942843887684,
          -0.039513397078151824,
          0.39956748669814446,
          0.2614042247071672,
          0.10742565372023927,
          -0.6953872475256934,
          0.19525393508423095,
          -0.2695433154460324,
          -0.3698425794260611,
          -0.06521790834879415,
          0.33444667343600964,
          0.3549493545576792,
          -0.07613636696032233,
          -0.2682610672826801,
          -0.016969155270146974
        ],
        [
          0.16486268917634217,
          0.4256498773882078,
          0.6601429344294929,
          -0.3114938966843896,
          -0.008504201227962471,
          -0.01119738319043917,
          0.15645847093376786,
          -0.11714665724438433,
          -0.1054262624791612,
          -0.12560680270927538,
          -0.03406735684647655,
          0.46325931361721806,
          0.43200234721545283,
          0.27923825011928416,
          0.3098086360535126,
          0.36650779975592607,
          0.2304963176344017
        ],
        [
          -0.1609689727722572,
          -0.14738716568662047,
          -0.2799077213286179,
          -0.0409871108437776,
          0.2054388198478848,
          -0.3131189953701507,
          0.48776309887603575,
          0.12416541878633092,
          -0.06202401331306129,
          0.6526638162066862,
          0.48729405561605854,
          0.24314129163028142,
          0.10029684678534767,
          -0.24339097059165093,
          -0.43263139766051184,
          -0.36373355085918946,
          -0.6583175948049289
        ],
        [
          0.25710637318666185,
          0.1740215127879785,
          0.4067076515000636,
          -0.06971427762054094,
          0.32928183818717316,
          0.1331039590542189,
          -0.018204183533769625,
          0.07197717060436926,
          0.6499685327312374,
          -0.2991768754211208,
          -0.46474610079407236,
          0.05169863311048173,
          -0.690943501641194,
          -0.6987155496535029,
          0.11949839357284098,
          -0.2586520782662482,
          0.3411559905184145
        ],
        [
          -0.05931498272988722,
          -0.6978038122665808,
          -0.3676982302797514,
          -0.3241256888359256,
          0.5308501068148626,
          0.5746172625773525,
          -0.2787845374825885,
          0.6972909593113814,
          0.698605577688935,
          0.18353375611218425,
          0.03514329309988129,
          -0.5723426637259821,
          -0.015357855040154522,
          0.1659069818097233,
          0.09540152087114762,
          -0.13627997645187695,
          0.0029315012811402807
        ],
        [
          0.2831886936728707,
          -0.5615036842483649,
          0.1671145053782065,
          -0.41757908901417323,
          -0.6967386029096787,
          0.6982305213352866,
          0.6931331289454277,
          -0.22080764817665993,
          -0.538329536916955,
          0.10424395587942648,
          0.5636205743408425,
          -0.5315700443598262,
          0.4530697324240336,
          -0.22632457295257224,
          0.6540983982554687,
          0.007226200724896437,
          0.038743362700049744
        ],
        [
          0.18413503486864313,
          -0.2076408008390362,
          -0.6438507884873352,
          -0.6935416565375941,
          0.659619218947259,
          -0.19392888933684804,
          -0.6817371059351386,
          -0.09104322551440147,
          -0.17463736642713645,
          -0.12758006143156697,
          -0.09456273648780911,
          -0.47122862933566384,
          -0.6708933171974341,
          0.027059081934619145,
          0.06201908239898313,
          -0.38015884139313116,
          0.3317898068079739
        ],
        [
          0.16765644289397375,
          0.003685597284508124,
          -0.18039813275380323,
          -0.28946960355661255,
          -0.19772030135667085,
          -0.6995739910167798,
          -0.4200254638510527,
          0.36091769199132195,
          0.22928888856364638,
          0.47569660149542625,
          -0.6792463178474715,
          0.3891630982238701,
          0.453177898703121,
          0.6313907110402681,
          -0.5413710488626011,
          0.28212830013127943,
          -0.017132136781848772
        ],
        [
          0.23864830290743333,
          -0.6699760295523783,
          -0.436676418085971,
          -0.6409877686507421,
          0.3227836874827277,
          0.440277079059217,
          0.3553179733854275,
          -0.3798651666011228,
          0.6827756297744625,
          -0.14549595897785395,
          -0.25501795166903535,
          -0.32960348381161364,
          -0.6177737081735334,
          0.18589544300509642,
          -0.6794284140018517,
          0.699688075840563,
          -0.3977393757328349
        ],
        [
          -0.05365147686238814,
          -0.00314595466989831,
          -0.34947665344918083,
          -0.21151775698765246,
          -0.5331147412717403,
          -0.37714413094319615,
          -0.6660902875204536,
          0.380249998418279,
          -0.042067305418942325,
          0.6229468869510124,
          0.2336057686811316,
          -0.6822012581722792,
          0.2858010886790231,
          -0.029880609389410062,
          0.635088627882574,
          0.29166070121834187,
          0.13385920399228657
        ],
        [
          0.3255526833783804,
          0.17573649456484364,
          0.03125129952151651,
          0.5080834405989647,
          0.11592351062415174,
          -0.5914457687682996,
          -0.015920828053186065,
          0.29779963441462576,
          -0.05666851651425564,
          -0.13633131670995247,
          -0.3208690347677342,
          0.6977196887586035,
          -0.2674906618779555,
          -0.26181959884919853,
          0.41066362322332783,
          0.20364118099469286,
          -0.6586441424833079
        ],
        [
          -0.10624742116501351,
          0.6081513753916936,
          -0.0015094112740660082,
          0.505186221937808,
          -0.6031409132027403,
          0.6386145780121384,
          -0.10093079961386464,
          -0.29707253587436216,
          0.15935528830444867,
          -0.36672153422455295,
          0.16525171717756126,
          0.6675421115456655,
          -0.1437868263863742,
          -0.6234270478002863,
          0.14599906752827074,
          -0.6208014570354331,
          0.05037879240232135
        ],
        [
          -0.051795485607543434,
          0.5425456087288738,
          0.06481357006082977,
          -0.02042949817356332,
          0.19620391097538226,
          -0.05200984355871108,
          0.018485529953502278,
          -0.023139759389326997,
          0.3059482832832445,
          0.1259794049870221,
          0.25793800669074485,
          0.6900072666848862,
          -0.3772857051298997,
          0.28133914478941,
          0.4615003582347055,
          -0.3341287070242288,
          0.37893479447763023
        ],
        [
          -0.11990015589091929,
          -0.38422067679334293,
          0.4454330533137103,
          0.5599477775642627,
          0.45165770051085463,
          0.01180432532322595,
          -0.07824527017209804,
          -0.004310952682496039,
          -0.23212112804328572,
          0.44825373787787015,
          0.649020086470264,
          -0.0040020036118162405,
          0.024744336134245093,
          0.6181236415164728,
          -0.17014619178243717,
          -0.12411039158902437,
          -0.1610774474479324
        ],
        [
          0.015467920220290532,
          0.6992298874676661,
          0.04033957619147999,
          0.6990013655780449,
          -0.6571583416681193,
          -0.44237889907058986,
          -0.2865427051734754,
          -0.6348360512540323,
          -0.06576772656637331,
          0.3854050374789406,
          0.001571790598912326,
          -0.43068360121705196,
          0.3918259733020253,
          0.3012738262943795,
          -0.30093829071855965,
          0.4795515051179413,
          0.1990835942645559
        ],
        [
          -0.17855551993759378,
          0.3532587631640074,
          0.6977783732564455,
          0.0036103577012788213,
          0.18436445482555908,
          -0.23764908480101699,
          -0.19072962028346907,
          0.026643506626248148,
          0.6712261952222944,
          0.12900018933209345,
          -0.679534855398217,
          -0.6712871110096483,
          0.029574545673405672,
          -0.5893478125455226,
          -0.15525381897131507,
          -0.27499493388185675,
          0.22367410813337907
        ],
        [
          -0.18896848998343518,
          -0.25436915476128663,
          -0.5468884154573033,
          -0.10039024929509155,
          0.03154205261635512,
          0.12718665340395674,
          0.24545443913663545,
          -0.3782822543073985,
          0.113996204964956,
          0.6919872512617702,
          0.09548135562100135,
          0.5282406077771964,
          -0.44817853864566,
          0.30306711743870096,
          -0.3991579035939091,
          0.35555134056862947,
          -0.4029505084159233
        ],
        [
          0.18471292404204054,
          0.2181908136969768,
          0.21046983031592525,
          0.25630053570996547,
          0.6521229140000435,
          0.21145239280183203,
          0.09952940599087978,
          0.6591770748781074,
          0.46748993165310426,
          -0.4889159721690968,
          0.11348959155934224,
          -0.3795609303649907,
          0.08001980908893791,
          -0.039847833654381715,
          -0.21845622968672346,
          -0.5763683645743897,
          0.37712054050217847
        ],
        [
          -0.6916094909195241,
          0.4570665407553689,
          -0.5699407322540255,
          -0.4579311616331118,
          0.007652139337222752,
          -0.12631375185756055,
          -0.03226194274714933,
          0.14568134110976438,
          0.06912642945333336,
          -0.6915536072841114,
          0.4438118330633234,
          0.08420787210980041,
          0.6996857074663418,
          0.4579607114920383,
          -0.16585551384783603,
          0.43450900630537936,
          -0.6780779580138847
        ],
        [
          -0.09239694638253082,
          0.37875502925038473,
          0.1581235639155415,
          0.29843326577233154,
          -0.05060336076452876,
          -0.28030876572254554,
          0.31467558908753257,
          0.06843919824027955,
          -0.2937768536080069,
          -0.2149678454799543,
          0.3820624257993017,
          -0.1819015368632193,
          -0.4901238190024717,
          -0.6190576128280535,
          -0.6495516660231367,
          -0.1068090267290539,
          -0.31648751177393664
        ],
        [
          0.20876375985925122,
          0.6257485492177359,
          0.38661722334447113,
          0.36184176834864656,
          0.389576936757309,
          0.21452184168615884,
          -0.03985299902309358,
          0.3104344473049425,
          -0.32396359406881853,
          0.3694901154407455,
          0.11404965095858066,
          0.6455466341554841,
          -0.4457658047275427,
          0.18138889723502105,
          -0.33490054228056565,
          0.4719578245684348,
          0.06287528094908945
        ],
        [
          0.1335049615307684,
          -0.6998254958887982,
          0.07520747419681373,
          0.09835629091417808,
          -0.4822312394922037,
          0.33603650876156066,
          0.05531066770661486,
          -0.6121605709977498,
          0.02437631413102448,
          0.3108307623306281,
          -0.11264471363293538,
          -0.2782788449636304,
          0.66396432434217,
          0.1344329839220315,
          0.3686345611623971,
          0.4877593439997918,
          0.19331273659388082
        ]
      ],
      "b": [
        -0.07485856092523846,
        0.0630649434751186,
        -0.5296484944466676,
        -0.1687573184608352,
        -0.22284215453107253,
        0.11583972730558156,
        -0.4936003527894055,
        0.6646931256917807,
        -0.10300496067885256,
        -0.44915694666092487,
        0.14728739387137568,
        -0.4060250251892585,
        0.33787834198808975,
        -0.618694339431997,
        -0.10931819899088269,
        0.33737220921124145,
        0.2625726424453728,
        -0.6492664313908464,
        -0.04106746403898931,
        0.24081252056559488,
        -0.6052829729518265,
        -0.013950079893818801,
        0.1963568360155985,
        0.35871257407969837,
        -0.1414885491123553,
        -0.6895177845815438,
        -0.3395317514766937,
        0.16673883750429896,
        0.5802700623073838,
        0.6250152674229259,
        0.026275965900866005,
        -0.16608587238759276
      ]
    },
    "layer_1": {
      "w": [
        [
          -0.012638064656904313,
          -0.5200506350542686,
          -0.08164613463750636,
          -0.10940711655395718,
          0.46699816911999814,
          0.37881444548127796,
          0.2315669307201249,
          -0.03664435317374237,
          0.6279995183445789,
          -0.3743302539296974,
          -0.33850211680404846,
          0.13680434381820228,
          -0.09885621692134405,
          0.20162518859146616,
          0.6795685564483388,
          0.3016141392237067,
          -0.1401714345445595,
          -0.23355295455956482,
          0.1503687427625391,
          0.28105229323819014,
          0.4588695061313336,
          0.3941726532776494,
          0.44952125062734327,
          -0.533134737660422,
          -0.7007375183386747,
          0.4506323100363153,
          0.4432001985615376,
          0.01828696397240548,
          0.033203421722170834,
          -0.34187607310706003,
          -0.6001558757772494,
          0.08833167055559188
        ],
        [
          -0.39498890616346305,
          -0.6036311547636392,
          0.6774919688899296,
          -0.3517877702627609,
          -0.17582372789382716,
          0.6874589631400757,
          -0.15302401484808092,
          0.2571474060890844,
          0.42851629688786164,
          0.2438755643812217,
          0.31985470584246556,
          0.6254170079424864,
          0.15200442805871495,
          0.7049069673865594,
          -0.12604036589752832,
          -0.5799688418496449,
          0.18254861936102218,
          0.3794069225429805,
          0.18200283784341043,
          0.3909286643639561,
          0.02400957054546371,
          0.17204253114973045,
          -0.35724965908601486,
          0.02250296643995242,
          -0.3152115395746312,
          0.03536306027825398,
          -0.007406336096648758,
          -0.6191003054968286,
          0.21301344640989706,
          0.5755776337240229,
          0.04913655268462047,
          -0.49394240819592033
        ],
        [
          0.18588586556061504,
          -0.6023933281588723,
          0.028157312573575233,
          -0.5123624016682515,
          -0.34729853264871935,
          0.13438361613885297,
          0.13350268165557555,
          0.16514943095831236,
          -0.2863259963025134,
          -0.2989240344482864,
          -0.707010851935328,
          -0.42090403598433884,
          -0.44258125737936804,
          -0.2542181148736,
          0.08193506233513403,
          0.6435335465040896,
          -0.10449111014588786,
          -0.022046871428319292,
          0.2626281814887884,
          -0.04035423526647086,
          -0.3031263842963073,
          0.2710210695289259,
          0.09724177709542126,
          0.2465496355602541,
          0.5611227455225721,
          0.47570303745097287,
          0.6669999587733212,
          0.7013063197612298,
          0.09674622199376615,
          -0.21167487901857152,
          0.6744341414669986,
          -0.39615240056090417
        ],
        [
          0.5056157465788261,
          0.6495545559752715,
          -0.6991620375557878,
          -0.2022971201958963,
          -0.43967928323800504,
          -0.31738619929409595,
          -0.2952827434997557,
          0.19973938173546313,
          -0.028587792165165937,
          0.052330691460932166,
          -0.5869898006902134,
          -0.01803505262628946,
          -0.7059305136652648,
          0.10563973732151577,
          0.09926490334484628,
          0.36544409200372996,
          -0.2004115285160507,
          0.5889911753966123,
          -0.29409154891244615,
          -0.34542184518753555,
          0.6579769881924279,
          0.4046710246522155,
          0.30355308465274045,
          -0.37541118131004264,
          -0.03121852152230653,
          -0.16466661079086264,
          0.010691905402364532,
          0.38490048056773885,
          -0.14088554873673453,
          0.14430397396079064,
          -0.5527155209332598,
          -0.26641190075073323
        ],
        [
          0.5666776107537773,
          -0.09376331008471395,
          0.6273736036695617,
          -0.2804009577726379,
          -0.34313348359350665,
          0.04001115167461844,
          0.3879155245161602,
          0.42486823566008225,
          0.1631461153284417,
          0.0026430451659417153,
          0.60287753972337,
          -0.21257408237428477,
          0.04998320308754367,
          0.18769897675098124,
          0.09350181968852334,
          -0.19741925343459965,
          -0.06993750928584352,
          0.16744306966611666,
          0.6199701059491486,
          -0.6504991303183375,
          -0.7068934397404023,
          0.6138759160070549,
          0.1817473049481526,
          0.02625186516242528,
          0.45073400161615196,
          0.015495614837907512,
          0.11733424256295366,
          -0.7067490680578524,
          -0.23541668683554134,
          -0.6787859333203069,
          -0.3077172489783938,
          0.23729388878534763
        ],
        [
          0.6062097790955433,
          -0.12358116843059763,
          0.18643510758466075,
          -0.41374238170467525,
          0.6451131564941065,
          0.26136962131409414,
          0.07917826354073221,
          0.18148712793053368,
          -0.026496820391905596,
          -0.25411926512468985,
          0.024000308006486448,
          0.23828794966509215,
          -0.20775535649433374,
          0.034073091830002844,
          -0.4636444554833066,
          -0.6931784660430341,
          -0.40786845729325494,
          -0.4194214238690107,
          0.39415896704057685,
          0.5603361218263353,
          0.7064928086973378,
          -0.330203059956248,
          0.15973006544014978,
          -0.4329138022450624,
          0.5135657026654771,
          0.14372984569177805,
          -0.35460723904568603,
          0.18992550576913103,
          0.13563080291752527,
          -0.2308654653625536,
          -0.2694638359235962,
          0.11829234822095902
        ],
        [
          0.1726835572408545,
          -0.5371193877887053,
          -0.40096132839620163,
          -0.128369439511948,
          0.4047262305565157,
          0.16942275703357057,
          -0.4323641783529325,
          -0.05033676065379089,
          -0.5673093101293074,
          0.6186305437468395,
          -0.6025492927271762,
          -0.325816520942083,
          -0.6872910090747183,
          -0.2814114671300473,
          -0.13854016623809784,
          -0.10818913507739847,
          -0.2500980706881894,
          0.44560599920597876,
          0.4909267695274896,
          0.6479150336402827,
          -0.0938374070202721,
          0.635321631276205,
          0.27184781199783914,
          -0.6891321478310661,
          -0.33008156888651424,
          0.6744813237596178,
          0.17700289453760276,
          -0.1048747339317242,
          -0.39824578830952595,
          0.19138477390580777,
          -0.5532084045231721,
          -0.6982883126426285
        ],
        [
          -0.4271258295333744,
          0.08419148474701521,
          0.4809988330950886,
          -0.7070991389575615,
          -0.44674233943955094,
          0.3461724844029329,
          -0.027762742588561373,
          0.03692181752376311,
          -0.0067593965025638525,
          -0.010281888820994678,
          0.5455034357010572,
          -0.061200695732953725,
          0.002427018352525123,
          0.6548334543177173,
          0.5638699672557107,
          0.30412950257481064,
          0.012332333368996307,
          0.017793408245372455,
          -0.6332178985951903,
          0.17411957250128396,
          -0.16246816750512283,
          0.5775697286369633,
          0.15851815168174155,
          0.055829070462728336,
          0.4785291788694862,
          -0.10195532727667744,
          -0.4437597923810777,
          -0.09264329821877004,
          -0.3202664815822399,
          -0.5920618023056123,
          0.5070371946279398,
          0.01353540555353816
        ],
        [
          -0.6904423567806207,
          -0.624285285173553,
          0.5455506401771556,
          0.26096977690953116,
          -0.3575277870904798,
          -0.004829293730663431,
          -0.1350182711001483,
          0.013558913411534812,
          -0.4032763756110745,
          -0.39455176312920753,
          -0.5569674542233924,
          -0.02779902599549189,
          -0.02597276367109791,
          -0.4109006255507002,
          -0.2625740664062466,
          -0.16960411855636315,
          0.6704324039637063,
          -0.18931723224188746,
          -0.5543602262474066,
          0.06910266046944324,
          0.4703762942957149,
          -0.6863486869409752,
          -0.7022954876360646,
          -0.4845485941747284,
          -0.4810091828232823,
          0.15155574739708377,
          -0.1855767485426485,
          -0.14309836423932387,
          0.4160641757207372,
          0.6219550424853145,
          0.012750459261957281,
          0.15282576195493225
        ],
        [
          0.24887524917472748,
          0.10407541508514584,
          0.25323207085581256,
          -0.1195335323405321,
          -0.3099292677540683,
          0.10958470502999795,
          -0.5083586651539236,
          -0.17358964725578485,
          -0.3147343278002657,
          -0.214231392767383,
          0.7057158017957136,
          -0.19887376156638148,
          0.5028199515568067,
          0.6142909746111219,
          -0.13216769371669224,
          0.5681985065985405,
          -0.6610767640168695,
          -0.298894575619615,
          0.4824503291619969,
          -0.17701430679483476,
          0.4050754399238373,
          -0.06251188610569736,
          0.048909190640123,
          -0.7035265872799423,
          0.6599876431587813,
          0.1490618146804782,
          0.6459783776117026,
          -0.13461005673840176,
          -0.17178567174285497,
          0.21729713713375742,
          0.10518849148160736,
          -0.2902799896109194
        ],
        [
          -0.10862327714100695,
          0.10704460822109974,
          -0.24708540421970732,
          -0.6942594552345398,
          -0.35614356207429887,
          -0.6894173119301708,
          0.05647032807525376,
          -0.1815506992177024,
          0.20863071095862173,
          0.10534700461834856,
          -0.22614929544441764,
          -0.7070477769095482,
          -0.443360896274211,
          -0.3237976492484325,
          0.6499284357282241,
          0.2358178598777967,
          0.5761589263806858,
          -0.05571654722358721,
          0.09020044832676843,
          -0.056967844016355906,
          -0.25933111510082196,
          0.4043233869042445,
          -0.23825522716999548,
          0.4901907385215535,
          0.05359593135536278,
          0.23343380429309102,
          0.3969476478974202,
          -0.13535147000586023,
          -0.5550177392006792,
          0.004205902729801703,
          -0.07980763975201033,
          0.12909882964436536
        ],
        [
          -0.4491131446906928,
          0.2465811328643751,
          -0.08936969344499857,
          -0.5918167011901296,
          -0.17940917444338988,
          -0.26753942006719483,
          -0.212872889868519,
          0.47976822673429254,
          -0.16255312775434716,
          0.3960617532648737,
          -0.6710998969948244,
          0.3796341121862149,
          -0.41165969303692107,
          0.6924645213331412,
          -0.5238628734504583,
          -0.5619554230565179,
          -0.1082225550772008,
          -0.5533553757086194,
          -0.11094706242885088,
          0.046623014207666125,
          0.41666718958969307,
          -0.09083165189315134,
          0.3370519769268455,
          -0.7020006109654989,
          0.0827970783487918,
          0.06223006566360778,
          -0.20496018356139256,
          -0.696120228849187,
          -0.13545626888025397,
          -0.13664374837254045,
          0.003722352708583454,
          -0.0735474790877908
        ],
        [
          -0.24100238161659693,
          0.6805460146310766,
          -0.18213692478613597,
          -0.6398550508312075,
          -0.02868580274061827,
          -0.17943117136569486,
          0.5483088459564095,
          -0.6389769076608136,
          0.3269582763802842,
          -0.4693227997608612,
          -0.3128940936079024,
          0.1691266864557407,
          -0.2382402593681393,
          0.6226063711714714,
          -0.7063814544719562,
          -0.3995352391175216,
          0.027187549582651238,
          0.6274283964442929,
          -0.006718976199082793,
          -0.43094873516319526,
          -0.184070472216186,
          0.04251348368539121,
          -0.5814175719305648,
          -0.17067973536243386,
          0.1896132915550458,
          -0.30087702487873624,
          -0.2968081410547842,
          0.35269211320607685,
          -0.3695419228373951,
          0.2810749585751884,
          0.43536021096478794,
          0.6879079312223723
        ],
        [
          0.5942455879728196,
          0.4114383826710054,
          -0.31000679861648334,
          0.3795897752148579,
          -0.13798584803018765,
          0.2757659871482504,
          0.1290225704000728,
          0.07153381838112183,
          -0.022203412982917392,
          0.2791137045434099,
          0.2610752965059786,
          -0.03902980001963807,
          0.09723515604951793,
          0.3469236524660605,
          -0.4031749654289253,
          -0.0732380889939005,
          -0.2160085181855118,
          0.0711701600439334,
          0.37939285615244345,
          0.16276170058487294,
          -0.5509790809464614,
          0.7070010120391651,
          -0.5902671718907748,
          -0.0290622121105778,
          0.0668061396593661,
          -0.700534958829848,
          -0.4537531505991062,
          -0.06761015638002232,
          -0.35031512314679136,
          -0.26842963630274325,
          0.15005001345761493,
          -0.23458944179681973
        ],
        [
          -0.38213630203714005,
          0.10950450062082595,
          0.6353077872307668,
          -0.11895567440875265,
          -0.11156254008561528,
          0.272583614293486,
          0.025191933012441492,
          0.0184025324996705,
          -0.2907398316429526,
          -0.5404285601616691,
          0.6970198772162634,
          0.14940405097984943,
          -0.38150690978864754,
          -0.07327034720618997,
          0.25803375756429814,
          -0.14842184805273673,
          0.7071063467314526,
          0.34843718595370177,
          0.1866838565753891,
          -0.18806614939995847,
          -0.3180808788932454,
          0.2523688207199942,
          -0.05908180803546004,
          -0.30735190019485265,
          0.6572305943634053,
          -0.7060512348058021,
          0.419843658100567,
          -0.43101259108946993,
          -0.5036628749117793,
          0.08115285235661662,
          0.6215404409785116,
          -0.2715210742947635
        ],
        [
          0.5752358633488265,
          0.018030989738779257,
          0.05294162965193128,
          -0.11095539215422945,
          0.4250864485094247,
          -0.2546867711938114,
          -0.5651313614742902,
          0.3880134223041988,
          -0.2223482281735315,
          0.3317701249945576,
          0.496182742289767,
          -0.017408854386363526,
          0.6987273071883856,
          -0.6353179222690464,
          0.619628976442686,
          -0.19431703912101972,
          -0.4113244858210476,
          -0.10012350318408236,
          0.4612980652162374,
          -0.10228562692467735,
          -0.3593444500432283,
          0.0034759976648549573,
          0.24101203195145793,
          0.6537738772329934,
          0.13312818112677782,
          0.12662823902007647,
          0.38531884876021805,
          -0.47505944587637217,
          0.4640833999902013,
          0.05702487529435385,
          -0.07386168522284142,
          0.4847098107765647
        ]
      ],
      "b": [
        0.6162809527077117,
        -0.14299836063445204,
        0.07453189726061515,
        -0.4909011083896798,
        -0.456277743072661,
        0.2730527757768496,
        -0.16225018118998158,
        -0.026477252001896323,
        0.2764992603211115,
        -0.702218349800325,
        0.25232007345097496,
        0.6568902745282806,
        -0.47634191304784546,
        -0.04364918004268503,
        -0.06123920583024012,
        -0.02732724963321942
      ]
    },
    "layer_2": {
      "w": [
        [
          -0.06618627489812434,
          1.178574301850894,
          0.5744271010979134,
          -0.39908607251230366,
          -0.28043721684067857,
          1.0558124564518148,
          0.7859863825051738,
          -0.21751782972043365,
          0.2645178799232548,
          0.34294468562386493,
          1.1556472162857363,
          -0.21827571055457085,
          0.33612188328175296,
          1.1813714035305105,
          -1.1622380551180567,
          -0.005078298760472499
        ]
      ],
      "b": [
        0.7691229528879411
      ]
    }
  },
  "input_mask": [
    0,
    2,
    3,
    5,
    6,
    7,
    11,
    12,
    18,
    19,
    27,
    28,
    29,
    30,
    32,
    33,
    34
  ],
  "ablated_input": null,
  "ablated_value": 0.0,
  "output_param": "scaled_pi",
  "scaled_pi_n": 2.0,
  "delta_max": 0.35
}