{
  "format_version": 2,
  "architecture": [
    {
      "type": "dense",
      "input_size": 17,
      "output_size": 14,
      "activation": "swish"
    },
    {
      "type": "lstm",
      "input_size": 14,
      "hidden_size": 14
    },
    {
      "type": "dense",
      "input_size": 14,
      "output_size": 2,
      "activation": "asinh"
    }
  ],
  "weights": {
    "layer_0": {
      "w": [
        [
          -0.5896333426208593,
          0.44287619310285675,
          -0.8263285835312504,
          -0.7922019970972668,
          0.47300456710644745,
          -0.1364133443807789,
          0.17407219757710812,
          -0.1938606118762417,
          0.21487499887760275,
          -0.3127769755078723,
          0.4307576329130308,
          -0.18818055663628241,
          -0.34998328717381644,
          -0.3238281547690145,
          -0.8037410163173695,
          -0.8788358890247701,
          0.8659819033715946
        ],
        [
          -0.5596069851740539,
          -0.4688167577307818,
          -0.21438402983298788,
          0.6007320732991778,
          0.7903072186727315,
          -0.6639040313322194,
          0.254204036359296,
          0.7672602354261581,
          0.2203502911628824,
          -0.02262580054006491,
          0.5121080703536388,
          -0.7835962333603058,
          -0.5558549347078259,
          0.6942917248912565,
          -0.4497879544776752,
          0.3957733922313099,
          0.24808758241711437
        ],
        [
          -0.3074054234507392,
          -0.6851588837329695,
          -0.12138377168203662,
          -0.8693363946620472,
          0.8188047082595676,
          -0.6323329933227634,
          -0.08556867987519001,
          0.6192547859418279,
          -0.7260464964849201,
          0.6709759274453936,
          0.44439294674880514,
          0.22442028205059772,
          -0.7423028668799944,
          -0.19249939908392155,
          0.5199376465189623,
          0.21638045118273752,
          -0.7919397024366729
        ],
        [
          -0.44243296321318715,
          -0.7611094514430046,
          -0.30043059467409905,
          -0.8125479382226013,
          -0.3644628406183199,
          -0.6522700481336418,
          0.8755898693346135,
          0.0906362529772391,
          0.5062906656467204,
          0.866043217352135,
          0.6830403096570014,
          -0.09179962522583518,
          -0.27022321818529516,
          -0.8418113917566518,
          0.49633196159640647,
          0.49404733964024106,
          0.07713934929076605
        ],
        [
          0.8064336055582458,
          -0.04682377296049234,
          -0.4759647970294609,
          -0.6225036397303871,
          -0.6435706877151529,
          -0.7838437368520711,
          -0.10103547658692014,
          0.4469734258439956,
          0.6818952996934865,
          0.22269964436579126,
          0.581582852933575,
          0.7289767873753207,
          0.01519827640532534,
          0.48949630778102204,
          -0.23387616779255227,
          0.01197567831775248,
          0.6357396098169893
        ],
        [
          -0.1195679912396389,
          -0.5181557024932961,
          -0.13834880362538282,
          0.3860361246036582,
          0.7948957594683267,
          -0.27176619157332216,
          -0.7617226523047027,
          -0.7614758712738551,
          0.8219226858450878,
          -0.008264374740281522,
          -0.6370625159620276,
          0.8309801628409713,
          0.7690891261411276,
          -0.6369100917521663,
          -0.7161603279067099,
          0.6707493230612626,
          -0.8200490627705821
        ],
        [
          -0.1762728209646648,
          -0.20144409789347917,
          -0.7453787480903196,
          0.3453577831805551,
          0.7920684821051772,
          -0.6836284194696708,
          0.017602674170622,
          0.29209572569869235,
          -0.7983027134845233,
          0.6980499288972694,
          -0.8224954390622766,
          0.598415542260743,
          0.12209472750022787,
          0.35882064125511415,
          -0.29413694836048954,
          -0.40388322773787344,
          0.15187759489489994
        ],
        [
          -0.5220916679187279,
          -0.41861867051967744,
          0.4146125431811488,
          -0.5561746751849812,
          -0.3302447121832284,
          -0.8717366321491893,
          -0.277383200175525,
          0.3383447077430869,
          -0.571076967426527,
          -0.8778024375460342,
          -0.428000123536592,
          0.1779306423772834,
          0.7927484803862087,
          -0.17180769327294854,
          0.6707705458497765,
          -0.703067248174444,
          0.17442853036080053
        ],
        [
          -0.3329575841330016,
          -0.7791237800941034,
          0.3365861669056621,
          -0.5389900750868097,
          0.13015910173033263,
          0.42293186930005866,
          -0.7511501562343231,
          -0.06343256225499228,
          0.4433554283144291,
          -0.6826580774258998,
          0.19208952458077777,
          0.8414166970827052,
          -0.2328627173593084,
          -0.7778075538945955,
          0.6530803720485939,
          -0.38394756486171955,
          0.5810441604541433
        ],
        [
          -0.5600945017169285,
          0.1347009846175381,
          -0.6321997214639303,
          0.3568077350275155,
          0.3266227851976199,
          0.5904158731126471,
          0.3997895242052766,
          0.55884148670709,
          -0.042194250943680234,
          0.2550428039603011,
          -0.8663916847639129,
          -0.10433714202441957,
          0.2284017318058379,
          -0.8217413696467829,
          0.2857476895953869,
          0.6808091845245509,
          -0.5428946663547516
        ],
        [
          -0.8757539603699729,
          -0.50796994577141,
          0.25020049029744806,
          0.21593542068418625,
          -0.8522864447226809,
          -0.38442106433823936,
          -0.3962941407691394,
          0.04695225643032097,
          0.8238114717274759,
          -0.6831645364754034,
          0.554911929383669,
          -0.2466200622023168,
          -0.1725982388610393,
          0.6937549508172701,
          0.36390678742712745,
          -0.8739322209546193,
          -0.8093717889487881
        ],
        [
          0.5974593056622871,
          0.6803783830535998,
          -0.8269312092766719,
          -0.4762142996628948,
          0.6741634522649437,
          -0.3894130151314341,
          -0.6712198246631574,
          0.21024382860702506,
          -0.5448311218947508,
          -0.8195969213679282,
          -0.712578451355818,
          0.09707684292077978,
          0.15292406512456969,
          -0.10671449342626993,
          0.34993483676275916,
          0.4164666390379902,
          -0.19911529163928798
        ],
        [
          -0.019524874297426553,
          -0.0005170123606635935,
          0.7562727855054697,
          -0.602695720284308,
          0.1588659201197965,
          0.23476907477355924,
          -0.26615885386392857,
          -0.8775869970411543,
          -0.25525958516769753,
          0.7192592943441606,
          0.5844484491377041,
          -0.21290031863161185,
          0.25912932071316563,
          -0.8111111877066246,
          0.39331693751807084,
          -0.49001989717180355,
          0.26702302530276467
        ],
        [
          -0.28064625167687385,
          -0.37483080273654623,
          0.31797354989842164,
          -0.11406591852792447,
          0.24120635447894678,
          -0.6800661011146836,
          -0.563307600004002,
          0.5110405337124372,
          0.1771165872250905,
          -0.4709427788380811,
          0.3405421994068635,
          0.06270426626706493,
          0.24145356652908767,
          0.6802994247717095,
          0.2230425886902273,
          -0.045087927270407446,
          0.3912495649778843
        ]
      ],
      "b": [
        -0.20526370970253027,
        0.7519122116336324,
        -0.5825438431980967,
        -0.48969255793140365,
        -0.17717780424801233,
        -0.7958326823885467,
        -0.5100990429192185,
        -0.3584574489039092,
        -0.4064284260645827,
        0.7969231161432572,
        -0.22529419750636215,
        0.6685025341475085,
        -0.7349624564553621,
        0.17670907831980986
      ]
    },
    "layer_1": {
      "weight_ih": [
        [
          -0.4407951720137422,
          0.24047153881177308,
          0.5671703377609135,
          -0.3228671818921999,
          -0.4862648964518572,
          -0.0490053506310435,
          0.06863007050624892,
          0.5539056609518805,
          0.5182156089907574,
          -0.14367117445929706,
          -0.3834782040080104,
          -0.21841980337326355,
          0.4323767315094297,
          0.17434658514191048
        ],
        [
          -0.5023904281624662,
          0.36453416310916587,
          -0.1873020995478556,
          0.04380909366783603,
          0.46728299449595456,
          -0.3691023294322554,
          -0.4849873565725584,
          0.5593699290592445,
          0.552219298588185,
          0.06210110060224272,
          0.4641244741445433,
          0.5013176016986934,
          -0.5812514715999069,
          0.5204629985023151
        ],
        [
          -0.20496331602991724,
          -0.2852281979604594,
          -0.07832544027484856,
          -0.4392011434780392,
          0.1728786721636385,
          0.4321883056300494,
          0.37303516416369664,
          0.3449923428172348,
          -0.36815705388595854,
          -0.22014644718878745,
          0.46071463246844646,
          0.33508594664559244,
          -0.48119246072462124,
          0.5673629238227947
        ],
        [
          0.3986548324049479,
          0.42070742862812416,
          0.5648628268105657,
          0.5311397929856089,
          -0.3939784814204232,
          0.011123230847255638,
          0.23678055447068758,
          -0.3922051062496652,
          0.19629485466695584,
          0.5142398278102608,
          0.5565329606575181,
          -0.5177938709121759,
          -0.5403778603679855,
          0.15989626454285677
        ],
        [
          -0.451362377062329,
          -0.16033673914295654,
          0.2988915607145559,
          -0.5656691757269747,
          0.5166056494073342,
          0.009426976058257486,
          0.5553137614914857,
          -0.5785084420860426,
          -0.06543313930979233,
          0.04613855317453097,
          -0.509076970851059,
          -0.5802783426653241,
          0.5592011796939081,
          0.25494621963780506
        ],
        [
          0.40783472306642343,
          0.3702533116091552,
          0.29535230374495425,
          -0.1299844882378579,
          -0.49737391370973577,
          -0.5608412566247465,
          -0.0528931852267005,
          0.5498488070908857,
          -0.06210625418742144,
          -0.12602827120897286,
          0.42454731959735026,
          0.18993574189792106,
          -0.04872901345063674,
          -0.01655602338340012
        ],
        [
          0.16360605558799712,
          -0.5619142219978664,
          0.5645910642342514,
          -0.27118590125424036,
          -0.15993185743129124,
          -0.16085674204067063,
          0.07488763258670161,
          0.1703313650489915,
          0.26843702981742545,
          -0.021626604543420358,
          0.18863962216266306,
          -0.45610557164215837,
          0.36255412658010455,
          -0.2843986494220031
        ],
        [
          -0.2748907747262367,
          -0.4736099301258702,
          -0.48522477241450546,
          -0.12433738339703254,
          -0.19764297903005396,
          -0.2591704245943181,
          -0.5080818734722232,
          -0.1216651107288722,
          0.5053743569508998,
          0.5715882003399994,
          -0.5740282832520962,
          0.1382061294686543,
          0.058954287104961534,
          -0.4840186272615452
        ],
        [
          -0.5604886233450187,
          -0.523573540147032,
          -0.4202964221408101,
          -0.08648885569892789,
          -0.14774338183483088,
          0.1887513314298006,
          0.30262529072307065,
          -0.5563948660344071,
          -0.5730630295388417,
          0.563916423197334,
          -0.23218105009551127,
          -0.05911223556466316,
          0.2939948542117953,
          0.05820873582338715
        ],
        [
          0.4235484061934812,
          0.1484775143802205,
          -0.5792113705188635,
          -0.2898826044936862,
          -0.30805777278354546,
          0.3510968833535385,
          0.2960031139124155,
          -0.19679986738961347,
          0.5682648382578791,
          -0.09119632066726407,
          -0.017061193169812028,
          0.13678495327730877,
          -0.3995625447539032,
          0.20444795755459477
        ],
        [
          0.5529654944549435,
          -0.30240195228423944,
          -0.2821815580677701,
          -0.2614794737460005,
          -0.5844947258921354,
          -0.2413070049636839,
          -0.48430318124201005,
          0.17687092865820142,
          0.12956291967728484,
          -0.22951924131656176,
          -0.13976856890999628,
          -0.23639452003121347,
          0.5619757108977229,
          -0.13154180045440989
        ],
        [
          0.18079871542495163,
          0.33299241096834153,
          -0.08112511216784479,
          -0.2686624665426834,
          -0.45057157120112445,
          -0.33973391291753396,
          -0.568214567751523,
          -0.0817236968486591,
          -0.5335520750382576,
          0.31336646991604433,
          0.4890301691874285,
          -0.23877890766996107,
          0.2481003774190007,
          -0.5813872376003808
        ],
        [
          0.4548552366308459,
          -0.5167078831316299,
          0.5547448406888654,
          -0.513297191779883,
          0.31085688392387956,
          -0.4323307469587473,
          -0.3767908259603945,
          -0.37983138194793575,
          -0.5431473791925142,
          0.5695215546162845,
          0.45672247544462474,
          -0.3433584501899939,
          -0.06542461537279542,
          -0.3231823004679809
        ],
        [
          0.49560417610267804,
          -0.34131834056096144,
          -0.29104883874012055,
          0.3243065925397175,
          0.5662661210323862,
          0.402580557191907,
          0.17434216264786073,
          -0.5180805069588386,
          0.2687473446573817,
          -0.41013851656550315,
          -0.2504439770292681,
          -0.30199903188598276,
          -0.5756581583571475,
          -0.4586477306837019
        ],
        [
          0.22405210674652387,
          0.14360580288440916,
          -0.2567154775496061,
          -0.4927786553250342,
          0.12230606510463582,
          -0.20118914969654472,
          0.26112363812411166,
          0.03838001209374686,
          0.2812041648262522,
          0.15040073374965302,
          -0.5136222123974207,
          0.4243537097298796,
          -0.5802526684210157,
          -0.5238225922626063
        ],
        [
          0.0343687396895207,
          -0.4014848343400506,
          -0.3711597371983128,
          0.5584786103674683,
          0.5196165874845976,
          -0.10784054856942649,
          -0.5741658813900559,
          0.5640285380901912,
          0.12120270237291886,
          0.5691449676669537,
          -0.5796604608216757,
          -0.32828747883360265,
          -0.4138985107915666,
          -0.4500609899678908
        ],
        [
          0.532963331080374,
          -0.45228488531743805,
          0.16430760378532805,
          -0.21765516595130324,
          -0.3524727238381933,
          -0.016942803664227735,
          -0.38576407523179557,
          -0.22447048819574744,
          -0.4836901548872104,
          0.477615519556556,
          0.5413432098359997,
          -0.15797400927623073,
          -0.09251360086703064,
          -0.542370481370381
        ],
        [
          -0.5340616982901185,
          0.5211635019432898,
          -0.0005391901851210523,
          0.5855003327110452,
          0.5118396432252686,
          0.032118390696284194,
          -0.30780432550986503,
          0.28764086409213874,
          -0.11724830924025692,
          0.4579125985385052,
          0.03701561722423896,
          0.04897021377943589,
          0.5775222886528223,
          0.3847718677642913
        ],
        [
          -0.2614267530871892,
          0.5569736644128088,
          0.4867902432682595,
          0.27400521238606457,
          0.48624665606114525,
          -0.5387821479663136,
          0.22722955460571226,
          0.0005372537643465458,
          -0.27499499584176923,
          -0.11988410597956567,
          0.5461983416522992,
          0.08922452052851071,
          0.053127067969616304,
          -0.2810803170310724
        ],
        [
          0.047801627736431374,
          0.46702477351729976,
          0.40849457599823225,
          -0.12019129783886695,
          -0.43609375726156985,
          0.5424814577405274,
          0.3544400616055331,
          0.12002117315430483,
          -0.4987623305483913,
          -0.5606375978751817,
          0.1732224182265707,
          -0.5400506617367207,
          0.0137655436254992,
          0.5455699698533883
        ],
        [
          0.5314511299049812,
          -0.3157869203840679,
          -0.22859798660405062,
          -0.02993750798470296,
          0.3148757398233184,
          -0.4906830653436061,
          -0.1811430174587293,
          0.4412330329360382,
          -0.0704149320075752,
          0.3701331864124541,
          0.4286238765234226,
          -0.5386067176220883,
          -0.19883490829771888,
          0.021606085567561495
        ],
        [
          0.5782955509572757,
          -0.47712176428462494,
          -0.19186444568100386,
          0.060273311951960284,
          0.41503485431840337,
          0.5590567977900972,
          -0.5216792842020364,
          0.37486556706431107,
          -0.05299917222292183,
          -0.10780723317315771,
          0.4126369453770615,
          0.11067518702151902,
          0.36914671771100205,
          0.4444451081501667
        ],
        [
          0.4522877858364559,
          -0.16731517114477296,
          -0.2526861657487462,
          -0.3816867423401713,
          0.5539983422191609,
          -0.5013077186527689,
          0.1705713331505454,
          0.4677879860653197,
          0.03319806240509249,
          -0.1951387420719531,
          -0.4199410253871805,
          0.5599405455547929,
          -0.24683934507373262,
          -0.3174547462292515
        ],
        [
          -0.06598558470542693,
          -0.5732245349593226,
          0.39929768868724835,
          0.1288094627956875,
          -0.0733723409083642,
          0.325938581343133,
          0.023608642215220077,
          -0.58308208356364,
          -0.32320767707589765,
          -0.5572211842989573,
          0.5464790200680026,
          0.2015784342663154,
          0.5772133277525201,
          -0.27265740524377324
        ],
        [
          -0.5420053476883538,
          -0.4848674073330429,
          -0.4603199852673713,
          0.06668563409874573,
          -0.5124228983996039,
          0.29069925325370327,
          -0.2535665422941247,
          -0.535246541030411,
          -0.2571046674541755,
          -0.5847537674026093,
          0.30309625574659516,
          -0.09270300014915922,
          0.288952768753732,
          0.3034873063518222
        ],
        [
          0.3228221952788358,
          0.36569617920479547,
          -0.48194630592762494,
          -0.311447502337171,
          0.36155058366282566,
          -0.5465856742820419,
          -0.39575832208932393,
          -0.14986798420167735,
          0.4428311249781237,
          -0.5349702376549254,
          0.3443808465700231,
          0.5551999781624483,
          0.10361012296882577,
          -0.443346279907755
        ],
        [
          -0.5234689402633134,
          0.09323732919400995,
          -0.5050455611129443,
          -0.5114589314948985,
          0.23932376434146885,
          0.15346484255435477,
          0.5025695901589285,
          0.46930435157486905,
          -0.32749711986129454,
          -0.4818768899020779,
          0.45688804690159956,
          0.5225189263459241,
          0.3006325734832186,
          0.4688923354700997
        ],
        [
          0.012122192406161303,
          -0.47231899390221305,
          -0.5765194686258234,
          0.15892175911647555,
          -0.5732970448827602,
          -0.14748477449797115,
          -0.21630697023452222,
          -0.1948912352368758,
          -0.4381746010244203,
          -0.2760843580998451,
          -0.5246555141291812,
          -0.5849907633967567,
          0.1303586596330797,
          -0.5758085002448035
        ],
        [
          -0.5513509989751937,
          -0.12979989889399185,
          -0.0664395533002684,
          -0.49011958272557465,
          -0.22710997782092301,
          -0.3631044966784477,
          -0.08653101687530923,
          0.4437762020954189,
          0.0885632167765189,
          0.06877259922576784,
          -0.023619571883461532,
          -0.5608981308876299,
          0.037859136244236424,
          -0.3652425817246704
        ],
        [
          -0.00003513390003984096,
          0.16513757972974596,
          -0.5842320904261449,
          -0.4650743656875066,
          -0.5482242561518722,
          -0.5563144608426557,
          0.031671867061800474,
          -0.01366751286403367,
          0.5854534211953385,
          0.010018103875919282,
          -0.018883012184572112,
          0.5759512344134289,
          -0.3223855188247237,
          0.4545645643012862
        ],
        [
          -0.15152755476397028,
          0.4050254984498126,
          -0.5364235161686723,
          0.5700951681475767,
          -0.18830738755788384,
          -0.39731308778247887,
          -0.555980953505002,
          -0.060749984696979675,
          0.44260989158005015,
          0.05739121405609737,
          -0.18612220165545756,
          -0.5618890521426668,
          -0.14944153803446153,
          -0.5651635493751253
        ],
        [
          -0.1479925912080443,
          -0.11434571325563181,
          -0.4428754477037389,
          0.4991447532841088,
          0.4395047718335118,
          0.36088425504827093,
          0.22140420722063636,
          0.5600019605459775,
          0.3017721854195282,
          0.3264068343017884,
          0.10897151353356271,
          0.2977332724407332,
          -0.08227880547839361,
          0.4340859545315453
        ],
        [
          -0.4195012173866597,
          0.46570175141034087,
          -0.4739203791417178,
          -0.2366898614316728,
          0.3913690746936176,
          0.5026584800574773,
          -0.21491876531281917,
          -0.513661475898097,
          -0.5664665298221507,
          0.2703031008708068,
          -0.4252375468569901,
          0.004618929569773167,
          -0.4893028155533541,
          0.31484659791950986
        ],
        [
          0.4577144124399398,
          0.3475842752629471,
          0.3048926687156468,
          0.35186428040124906,
          0.12071086062589187,
          -0.018309164427016467,
          0.10662899930692771,
          0.05502915222304927,
          0.41034431597777876,
          0.4685698093957692,
          -0.49337873566059653,
          0.4676135537664049,
          0.5712128710922014,
          0.4352022309098741
        ],
        [
          0.10191831178777877,
          -0.5236807399846907,
          -0.5116527663150123,
          -0.41584592579572877,
          0.010390844470362981,
          -0.3376301495635664,
          0.5729113329901415,
          -0.5649647920545828,
          0.07146166549282851,
          -0.29088217555943446,
          0.3450461916909865,
          0.5076504088392476,
          0.5738576702908976,
          0.583490564335286
        ],
        [
          -0.3570772953409183,
          -0.21298035460339348,
          -0.5119641014892264,
          0.0246579121325069,
          -0.4716337627861462,
          0.11678876053217913,
          -0.46883256922900096,
          0.5562516930829852,
          -0.25561512553120624,
          0.425731061990405,
          0.5839986928299398,
          0.006037188779409286,
          -0.4561607015791831,
          -0.3479213560308547
        ],
        [
          0.15839078581690813,
          -0.2845511391543033,
          0.2635939294326698,
          0.4696742882807635,
          -0.13212087602863004,
          -0.5029800269966005,
          -0.047156865938528525,
          0.34128665184784335,
          -0.33462226842349174,
          -0.4721181216131345,
          -0.5410256885532012,
          0.5790729286429671,
          0.24068101963176458,
          0.47793045232174125
        ],
        [
          0.5686909001000945,
          0.44119567773994917,
          0.3698135559650291,
          -0.5033997678114936,
          -0.5226199994714464,
          -0.5834833867903226,
          -0.46620703843333106,
          -0.45326350491166356,
          -0.1827719423741665,
          -0.3909587532793972,
          0.5380088630882082,
          0.34401779993239034,
          0.49126588269229277,
          0.35431824416999225
        ],
        [
          0.4178282478422203,
          0.12921565592945494,
          -0.19116107436768726,
          -0.10903254871921436,
          0.3377612841868869,
          0.1382723346388517,
          0.4091020125652398,
          -0.5542563747616704,
          -0.5666066913818694,
          0.022948004706054292,
          -0.353600360321505,
          -0.22739008132566285,
          -0.3024960899211455,
          -0.505999930119148
        ],
        [
          0.3951172868523053,
          -0.21833496809911113,
          -0.2201915169674618,
          -0.5336932043775876,
          0.575750680723751,
          0.30732975323073186,
          -0.09678167709441754,
          0.20810985725295705,
          0.09306786760357932,
          0.08115862114739181,
          0.3640067308312348,
          0.36357314993888645,
          -0.1794089204807363,
          0.571278800464938
        ],
        [
          0.3288076685355288,
          -0.5266967991692486,
          0.45778899534521933,
          -0.04502078354302608,
          0.5835703447893202,
          -0.4823181011884284,
          0.45995502449001535,
          -0.14169662618711704,
          0.5793364985339496,
          -0.0682219826339392,
          0.053332407069633714,
          0.37352713828319395,
          0.5464379966496474,
          0.5036557515936922
        ],
        [
          0.151241903051878,
          0.14466846804659983,
          0.17098844900913657,
          -0.33647768030376185,
          0.4569445531934412,
          0.3589122178986369,
          -0.08433125816755083,
          -0.5624558092296222,
          -0.3283105724307928,
          -0.5803775340699424,
          0.5467272585126889,
          0.3150207034941427,
          -0.2584286096339194,
          0.5157809594901005
        ],
        [
          0.20427091654224272,
          0.5468097581159278,
          0.5265461379493185,
          0.5219845732081273,
          -0.5339725906178602,
          -0.5598098290622,
          -0.5141039926566254,
          -0.3010365925235092,
          -0.07817555142580601,
          0.3227370405795611,
          -0.3842246731724751,
          -0.3179256145187871,
          0.10892774507106684,
          -0.43462203181818504
        ],
        [
          -0.5716039053500244,
          -0.13873546472155446,
          0.5811265893931107,
          0.27214174818530723,
          -0.2049061125645078,
          0.30264987518478836,
          0.5215577799596857,
          0.4281944151888252,
          0.315334010138678,
          -0.5802961614210577,
          0.5664614357115977,
          -0.19107936523512553,
          0.14110585376774354,
          0.5760169660001507
        ],
        [
          -0.5810671387491485,
          -0.495582063181138,
          0.4315506972340456,
          -0.05181072197962622,
          -0.568854582768461,
          -0.0009002624646917701,
          -0.028369438043231998,
          0.553985182699554,
          0.5524831360863808,
          -0.48139831470674804,
          -0.32200105472105384,
          -0.5794397136829481,
          0.10512309066400782,
          0.498457465228645
        ],
        [
          -0.17953772550652558,
          0.2275701143316483,
          -0.5001331336972767,
          -0.3148009420822803,
          -0.5764857472231826,
          -0.09646634292769318,
          -0.5461283996401112,
          0.3969108847148053,
          0.354838842683461,
          -0.2875314422324925,
          0.46533871370727276,
          -0.12284783582128345,
          -0.5204875082838397,
          0.03748315943161884
        ],
        [
          0.07846692299755931,
          -0.16125771990381405,
          0.4136820055133662,
          0.037382254300384665,
          0.5721797848654994,
          -0.5151124832332225,
          -0.26461902187416114,
          -0.361957205801159,
          0.5291469048216261,
          -0.19316716765082204,
          0.5404270696142178,
          0.5430066436972875,
          0.34518306411084,
          0.28911130852150047
        ],
        [
          -0.3318463961860356,
          0.33710761584956916,
          0.36887505252577935,
          0.5108145184783474,
          -0.21489683303130652,
          0.3297213203651901,
          0.37872343717087487,
          -0.5610432715242889,
          0.5345701328222304,
          0.22979899310251561,
          0.177258700834798,
          0.5296200805768266,
          0.22849209682939708,
          0.3559301248424418
        ],
        [
          0.5698993966216107,
          -0.25421080096955184,
          -0.27729725815808864,
          0.08463817349098224,
          -0.2323414812730834,
          0.5043091870524795,
          0.1360444506921349,
          -0.08572981938998497,
          0.5394054469157715,
          0.3766177618520442,
          0.5165690486875464,
          0.5320646390658234,
          -0.125863454211466,
          0.1133651521539426
        ],
        [
          0.36571120817005187,
          0.45408570473982646,
          0.5197898843284284,
          -0.3139341811953517,
          0.4043936331661283,
          -0.5703136228837262,
          -0.5332133647259646,
          0.5610341737691039,
          -0.5734777341897805,
          -0.4324730430214987,
          0.0503520657865697,
          0.09059617792701491,
          0.3218777401413977,
          -0.5797918920193346
        ],
        [
          0.3830396814281326,
          -0.19524521701820302,
          -0.16813453106482373,
          -0.44615123431868897,
          0.5191271395686988,
          -0.2129994240562456,
          -0.47711587927945803,
          -0.4771572034613087,
          -0.34420731932436716,
          0.2537935541863322,
          -0.5010953457545492,
          0.005009454986298567,
          0.13508476098712985,
          -0.15322118862518164
        ],
        [
          -0.5452706839143856,
          0.40331244614270245,
          -0.45318251953606226,
          -0.515662891369899,
          -0.5753815752470146,
          0.32060035183163194,
          0.2735950516151211,
          0.20261741703166503,
          -0.11549454902968753,
          0.16723452112101445,
          0.1968484852371506,
          0.3520676437709239,
          0.16031601567205034,
          -0.5491581630574573
        ],
        [
          -0.48675245057418554,
          -0.34503822498782144,
          -0.5437422534861999,
          0.4459558340581903,
          0.5534250266328656,
          0.48734316996935967,
          0.2737705770578761,
          -0.4993621628451583,
          -0.4576078672223246,
          -0.02763746156071223,
          -0.31850469337364995,
          -0.39372139202124495,
          -0.2870228485282669,
          -0.4175738468970413
        ],
        [
          -0.3758922984644911,
          -0.4677135635777879,
          0.01594411750174407,
          0.5250171835850393,
          0.5776981917837828,
          -0.34464924973446076,
          -0.2420908520122162,
          0.12247411394782692,
          0.2438184787396479,
          0.4740379582356552,
          -0.26995026211433193,
          0.219722960376589,
          -0.24231866647490108,
          -0.4312897634256947
        ],
        [
          -0.39062387847143576,
          0.09269092850251803,
          0.029447499344852357,
          -0.5375557683432184,
          -0.42800278653557805,
          0.43661848184387086,
          -0.5200255773298067,
          0.06587012182392105,
          -0.06794739921168536,
          -0.3494760406916285,
          -0.32130679679105945,
          0.5193617997535759,
          -0.575748720131307,
          -0.08845438049650117
        ],
        [
          -0.13806743209908606,
          0.45771768999748363,
          -0.27023766265004096,
          -0.0889627522749411,
          0.3306055776041831,
          -0.39152245748713527,
          0.4447375745425498,
          -0.11519222331477669,
          -0.455783467991825,
          -0.07482394286670802,
          -0.44050986167764716,
          -0.03334535552341056,
          -0.3270619305861373,
          -0.5491251137768203
        ]
      ],
      "weight_hh": [
        [
          0.07180936257457815,
          0.25331938977830926,
          0.35396352416300036,
          -0.3597715829432121,
          0.45181185949395186,
          -0.29720764265355276,
          0.26316299707930313,
          -0.44148320239034594,
          0.28864930498393515,
          -0.5661246789487724,
          0.43714918144122594,
          0.13884573312568793,
          0.5232450361474194,
          -0.3699106562020109
        ],
        [
          -0.47605034634932397,
          -0.14324131947311136,
          0.17484194808632136,
          -0.3575125986337183,
          -0.4776400213979367,
          -0.5155040644373178,
          -0.055281248629683866,
          0.44164038527719984,
          -0.44485382860401207,
          0.5821371784312973,
          -0.23085977249251644,
          0.5582485513597827,
          0.4614566164016992,
          0.3877846642811057
        ],
        [
          0.5697022386733602,
          -0.4908052115850736,
          -0.012254513048575166,
          0.09327752304349368,
          -0.38541164547040485,
          0.29185198671119206,
          -0.5532460351998774,
          -0.20494982243442667,
          -0.3878047214447385,
          -0.2404234918029139,
          -0.29442969749321024,
          -0.412050319019124,
          0.29733710635645594,
          -0.31310239049441296
        ],
        [
          0.5342013388524579,
          -0.34085475035875606,
          0.5841538095080835,
          -0.11941004539244526,
          0.5608414843654047,
          -0.472791929937493,
          -0.04913665785621402,
          0.39999648286936973,
          0.023198017626964162,
          0.3037433078391807,
          -0.10172520838357857,
          0.38796519406717833,
          0.3337939504296129,
          -0.34242975365221506
        ],
        [
          0.5162370490367235,
          -0.10752846690647327,
          -0.10136875319642902,
          0.3402468161009278,
          0.24929215827445483,
          -0.526286211171907,
          -0.5214166427443102,
          0.1244020763355933,
          0.553068160635985,
          0.14352493124560228,
          -0.4985505348127435,
          -0.29557199123969397,
          -0.5243131844045235,
          0.4440554471578909
        ],
        [
          -0.1850529866703559,
          0.39780129856376867,
          -0.5551904690716688,
          0.4361016513265715,
          0.2693605805602516,
          -0.2344001775967684,
          0.15962555471669637,
          0.40123188910143937,
          -0.3647855701333145,
          -0.49675786930206733,
          -0.5278857398164738,
          -0.2639642816869425,
          0.5237853554860937,
          0.11689706942139277
        ],
        [
          -0.21019413277698523,
          0.5678506841799228,
          0.09090403618294896,
          0.43711935877057095,
          -0.42252151537763516,
          -0.2476625220564736,
          -0.5540998906686488,
          -0.4511916409254755,
          -0.44558241318326347,
          -0.5269567491720254,
          0.18331233017893211,
          -0.4992036271216701,
          -0.17887111444297443,
          0.004682456933448931
        ],
        [
          0.11632717917647417,
          0.2946403601786248,
          -0.43328687973123475,
          -0.4805713212236925,
          0.36293116321421237,
          -0.4548826983307086,
          -0.5690335939872114,
          0.5104841150094722,
          0.29426208844150337,
          0.40716206800765276,
          -0.44957733640196096,
          -0.01244127461547595,
          -0.3588566448775782,
          -0.5835741346821578
        ],
        [
          0.003937162404588634,
          0.584228964852696,
          0.5075223236783354,
          -0.2831048090637053,
          0.3690289017063695,
          0.429486342411472,
          -0.39366333005548715,
          -0.06333341777760271,
          -0.47579045854894575,
          -0.45763403745455844,
          0.5642060706181028,
          -0.06640278264805777,
          0.2572074159025167,
          -0.325289446253812
        ],
        [
          -0.47267574274339985,
          -0.007454932662475433,
          0.39370822030615127,
          -0.39762395223150626,
          0.01261935016235094,
          0.5617443678488035,
          -0.4482136328088868,
          -0.014387487534191168,
          -0.38314119546286074,
          -0.3331713342477024,
          -0.3162955992806025,
          0.3028215404176554,
          -0.5824277814939474,
          0.22586999666019025
        ],
        [
          0.3538137838391593,
          0.5424674349510544,
          0.2576179982168131,
          0.007267391805621193,
          0.5180991374737681,
          0.36185089821488925,
          -0.09937336929299367,
          -0.5408865531962386,
          -0.47601842222158386,
          0.12767845354639307,
          -0.5792080697763563,
          -0.15079866446242168,
          -0.19651095573562338,
          0.4360507921015583
        ],
        [
          0.148208910609556,
          -0.17098545481050714,
          -0.22909091758128441,
          0.4581195451458878,
          0.15629394385295414,
          -0.05292847215295848,
          -0.07272863966356335,
          0.45802704460007104,
          0.48238729210861997,
          -0.20985828190551525,
          0.13324150650492494,
          0.26736384100548094,
          -0.44408658104080734,
          -0.5230558430551281
        ],
        [
          -0.4675433061732019,
          0.4496899556648907,
          -0.5028202539316098,
          0.013693632229065167,
          0.5753075313676884,
          0.20728006062078952,
          -0.26989586617429834,
          0.162215405435703,
          -0.04546188931890527,
          0.1071212293667867,
          -0.18143347952125727,
          0.5352792359244897,
          0.10452775516448698,
          0.38242594052082723
        ],
        [
          -0.04123994136503317,
          0.5525748709853359,
          -0.23043965989360432,
          0.17310596861977734,
          -0.40172429804226306,
          0.14791651941863349,
          0.5818481395878846,
          -0.2117808320308726,
          -0.4894506915521545,
          0.21637915332024005,
          0.04831991266293134,
          0.5345726655956266,
          -0.0587272818963227,
          -0.0938725859780753
        ],
        [
          0.02475202372135532,
          -0.5051921804680121,
          -0.3928929789811517,
          -0.40012012892063087,
          0.2253830927779984,
          -0.2218904310058724,
          -0.5213331576983725,
          -0.4669711867816651,
          0.012872526417719632,
          -0.1829386637504135,
          -0.05716613493865774,
          -0.5807200461809614,
          0.3659145419736137,
          0.3894205984669905
        ],
        [
          0.5133538999806037,
          -0.5537151405430548,
          -0.2436441245322209,
          0.07011969847062582,
          0.34751360064722414,
          0.3273643405252633,
          0.39977342762038914,
          0.4569273448805281,
          -0.33945697120543505,
          -0.26606375612354294,
          -0.37969413916584527,
          0.057798876854884274,
          0.38683482127796276,
          0.10691677075686323
        ],
        [
          -0.37582670195622614,
          -0.3379789134623344,
          -0.20525264079946642,
          -0.4658474524781351,
          -0.04729528086184642,
          0.4762294328337774,
          -0.5257708393097488,
          0.24314795971292902,
          0.16881893612861587,
          0.5497440964432477,
          0.2940052745312094,
          0.4392223015667568,
          -0.544653717869214,
          -0.3276254402699034
        ],
        [
          -0.5739687838870283,
          0.45780488060694957,
          0.23658461016043675,
          -0.39285012223369986,
          0.4540603292857289,
          -0.5587070756917287,
          0.11930753018158369,
          -0.29863846528512333,
          0.4083562328750793,
          0.09458793068691818,
          0.5842745376230257,
          0.2389982444401555,
          -0.43003019520306596,
          -0.08098614182580843
        ],
        [
          0.11633446185871621,
          -0.10875445245425969,
          -0.5845050024210896,
          -0.5233982393237271,
          -0.008330058779653426,
          0.43831422347161586,
          -0.5131168495296277,
          -0.49659988988461856,
          -0.3251663794987601,
          0.45645939657271584,
          -0.5808743917360072,
          0.07767090037901869,
          -0.5518845886570007,
          0.18341072567950645
        ],
        [
          -0.2976635781628514,
          0.12341200378088713,
          -0.5585826910552472,
          -0.048336115203764796,
          -0.17089130000934238,
          -0.5564999374037977,
          0.46854331175070774,
          0.5153774026506733,
          0.10848409047583207,
          0.2751499909849253,
          0.323458721368881,
          0.4428741805162105,
          0.5851193062341188,
          0.40724272772551895
        ],
        [
          0.4561467361113706,
          0.43929974646994807,
          -0.04252657128052384,
          0.5084981938932721,
          -0.49303818990249904,
          0.09239333373902336,
          -0.469597302116711,
          -0.34834679674573765,
          -0.31968447707148806,
          0.4049453126483835,
          0.15246092669144817,
          -0.5259620197610143,
          0.565013001787784,
          0.2652434883522765
        ],
        [
          -0.43983173437973877,
          -0.16851267804653275,
          -0.5166041486742804,
          0.10404965094975971,
          0.11222455377920892,
          -0.24688622796976256,
          0.3068715218214616,
          0.014816007457111313,
          0.3198809970738371,
          0.46666743520532716,
          0.34728771862303665,
          0.280713356551068,
          0.5796573307996041,
          -0.456993286162905
        ],
        [
          0.5816305042642443,
          -0.40582210447887845,
          -0.48073901848321343,
          0.15379230092269358,
          0.10360366062832893,
          0.4479813295618117,
          -0.38059193332500796,
          0.5435987843093765,
          0.016667946677874856,
          0.51047585588235,
          0.2430624410225266,
          -0.19123525898698784,
          -0.10430581411112755,
          -0.0072210726558673555
        ],
        [
          -0.050883662477541614,
          -0.23033902885987234,
          -0.5134428470775678,
          -0.1840071999899749,
          0.528609914048653,
          -0.4737717514025896,
          0.39409893110948946,
          -0.1598613324156682,
          -0.5707249321006107,
          -0.5275083444861753,
          0.1684233353250103,
          -0.45487103367595594,
          0.046319854195317034,
          0.23544987364211456
        ],
        [
          0.04387833913429107,
          0.5496568131910727,
          -0.5149895717267029,
          -0.523413366835108,
          -0.3251219320760136,
          -0.537581019827941,
          -0.5163718448496429,
          -0.42231971853353656,
          0.30235963356662754,
          0.21228496702086674,
          -0.5029262003882038,
          0.5681585418247098,
          0.4277633215791926,
          -0.391863435779161
        ],
        [
          -0.21052460489111602,
          0.4906733161869715,
          -0.28509142484684735,
          0.2948647354270615,
          -0.46035589049556724,
          0.5677160219650871,
          -0.5673569513428655,
          -0.5151283757563322,
          0.3752888642053287,
          0.1839666408895061,
          -0.5518947621533803,
          0.04420399673167508,
          0.014342033215896777,
          -0.22820939623324904
        ],
        [
          0.43584725830110294,
          0.19367247724953052,
          0.0040927548712014206,
          -0.4465065158763314,
          0.5752053577456754,
          0.13979336645675866,
          0.489535643385938,
          -0.32911424218659885,
          0.5418748545315005,
          0.27774762612080395,
          0.4786701754872974,
          0.21399934745976212,
          -0.5212121184475123,
          0.07403532979896266
        ],
        [
          0.5174259510564098,
          0.12425142058084404,
          -0.3507154011202227,
          -0.16854137218765314,
          0.19956746981430484,
          -0.5521255978248688,
          -0.04130154175084488,
          -0.5775141028264726,
          0.49001108484458056,
          -0.4291554443232154,
          0.5467082225005918,
          0.1487211250061019,
          -0.5824179714895341,
          0.002838259778236263
        ],
        [
          0.15959914176396917,
          -0.1211047825389045,
          0.2087271717962591,
          -0.1263075157446263,
          -0.014081102209373975,
          0.4333244540918334,
          -0.18620252880496196,
          0.35050019066302096,
          -0.0250086888584502,
          -0.49675724793812376,
          0.4611441269373918,
          -0.3123804379782229,
          -0.33785341385639717,
          -0.5296741061068729
        ],
        [
          0.3415386775716578,
          0.5159393448984982,
          0.38366918713125586,
          0.4656245037223493,
          -0.5630275848377464,
          0.45050461858332047,
          0.5252721669740926,
          0.41770269920505754,
          0.5195847743809766,
          -0.05488839409985491,
          0.13167032597294004,
          -0.40343934228793255,
          -0.4837765352676762,
          0.42436744359176737
        ],
        [
          0.5588944108276578,
          -0.4243575581540234,
          0.007142487392559627,
          0.08156522877372197,
          0.5621781479297748,
          0.5407328619932209,
          -0.5617736643729025,
          0.13489806246906455,
          -0.5621129531929009,
          0.48285401177366694,
          -0.23415818472758654,
          0.10133153910040182,
          -0.4342954648253279,
          0.09612413168976797
        ],
        [
          0.21920906137890794,
          -0.18807479381385644,
          -0.5232470319367087,
          0.3706816297312001,
          0.579122822571215,
          0.33834597181074233,
          -0.17775750914112104,
          0.2721707594651074,
          0.5246717236498765,
          0.46743210713142636,
          0.46584428944650746,
          0.5310965077731512,
          0.5022147904591171,
          -0.3391849985316739
        ],
        [
          0.14093385291268334,
          -0.38880812487519983,
          0.5756344778167547,
          -0.4877619371028471,
          0.046087977374142275,
          0.2515697871927398,
          0.5798255483917406,
          0.19520017047806537,
          -0.41781258650141406,
          -0.5169736361796443,
          -0.4012766883720307,
          0.20932773866487775,
          0.3931797351106321,
          -0.5837785903733222
        ],
        [
          -0.5620151121705449,
          -0.11534738538890854,
          -0.5786007721330555,
          0.17090508804036197,
          -0.5002114351529099,
          0.5311163852212096,
          0.4938295827930991,
          -0.47807568296883285,
          -0.2931056343377978,
          0.5804031031936706,
          0.5844132637042961,
          0.34290880396944246,
          0.514491357454539,
          -0.5547930193033737
        ],
        [
          0.3158714920255672,
          0.5257004730951532,
          -0.11264879109231202,
          -0.4804033450591918,
          0.42713580610422197,
          -0.5518422928072784,
          -0.4363162508330556,
          0.17802756782361784,
          0.5596228221601428,
          -0.20771447564474121,
          -0.03567144981969883,
          0.27468876550319166,
          0.39618768198587995,
          0.3003100348358646
        ],
        [
          -0.12767902155950517,
          -0.5814488042961039,
          0.1398818226886791,
          -0.548019924656889,
          -0.4039077097862343,
          0.2848776880492737,
          -0.18293635094519167,
          -0.48190499978636064,
          0.17100769972738483,
          -0.1704572382169245,
          0.3464636320741803,
          -0.2809813093443503,
          -0.5844286768778335,
          0.5448086395762043
        ],
        [
          -0.19651859753431095,
          0.11677049060548772,
          -0.3862700863232851,
          -0.3143887182843751,
          -0.40729856045467994,
          0.20943964430596118,
          -0.18901353615018368,
          0.47576820022724065,
          0.3165469676726578,
          -0.46771049844504364,
          0.5592242392371777,
          -0.4983099310741307,
          -0.5692816151896156,
          -0.39512703899608437
        ],
        [
          0.42286549339770974,
          0.4734377314641717,
          0.42768844925666294,
          0.1862868751852883,
          -0.49961055578809216,
          0.513856176398891,
          0.21115986589718172,
          0.47480178303825815,
          0.1615805787275757,
          0.4171628449635131,
          -0.3224343891476881,
          -0.36717157074379736,
          -0.2345813730239102,
          -0.5119337393039116
        ],
        [
          -0.5486654600972022,
          -0.5554108405256682,
          0.4842626538029452,
          0.012090304775075222,
          0.27740542959659953,
          0.16387838518812536,
          0.3316911052296442,
          -0.12239228948825803,
          -0.18687879628287485,
          0.0821235047493819,
          0.2606038242873696,
          -0.49785636932752864,
          0.5407224088120081,
          0.14105765057657604
        ],
        [
          0.3825114839575462,
          0.2338235066463077,
          -0.46086683645997195,
          -0.5833659626745856,
          0.41874001210340006,
          0.5491950434897014,
          -0.5735948659418588,
          -0.055068922329311154,
          -0.11789166790795996,
          0.5816268447946676,
          0.2521250329662008,
          -0.5184000065904399,
          -0.11321864694089484,
          0.4147525374792994
        ],
        [
          0.5625210709292222,
          -0.44627270186906287,
          -0.5602603579863568,
          0.28608498306272057,
          0.0707582554087105,
          -0.0584342379899081,
          -0.5373005995322537,
          -0.05625845592784162,
          0.3814161793112564,
          0.05912795195872578,
          -0.21617141475577067,
          -0.0540012979773431,
          0.008136128461404324,
          0.561428251850682
        ],
        [
          0.36755769593882026,
          0.5603729773498175,
          -0.27659499589953473,
          -0.5704331123427483,
          0.2635267342702907,
          0.33296310028815457,
          -0.12430810049527985,
          0.5372781500958314,
          0.036554656412778885,
          -0.07466934119594903,
          0.1394914173523113,
          -0.48453811377276934,
          0.2819742534605906,
          -0.44923099785555676
        ],
        [
          0.42398237088153656,
          0.3843485260094346,
          0.47497224444422226,
          -0.3149921129265653,
          0.35917598606801926,
          -0.3367838159992613,
          -0.4136924609888829,
          -0.5843731435578453,
          0.4361128045443309,
          0.5851220938941991,
          -0.039701424166783794,
          0.4924561710549059,
          0.27674807408281565,
          -0.015519086031943852
        ],
        [
          0.3035850117276929,
          -0.2926617842774395,
          0.2479414347481882,
          0.5041599538714284,
          -0.542185755918119,
          0.5326357813901786,
          -0.5497341233688265,
          0.5704839074383542,
          0.09284004045337046,
          -0.5277791898164647,
          -0.5635702373530117,
          0.493540419320324,
          0.4826773695890335,
          -0.3170685966654261
        ],
        [
          0.4920373984905534,
          0.576298503815316,
          -0.18180943305536307,
          -0.4440080863659379,
          -0.503969766958019,
          -0.5656432629566063,
          0.20947600066471594,
          -0.5263235391495202,
          0.11611166376045967,
          -0.0666881164478289,
          -0.4251116746412723,
          -0.30340269385142016,
          -0.30510986450872685,
          0.05786423654360551
        ],
        [
          -0.1492106281708495,
          0.43595935220903403,
          0.2288698285625611,
          -0.32936722224985543,
          -0.5836849575321982,
          -0.469525311951604,
          -0.035497094973120924,
          -0.24368276819617218,
          0.3601537172729117,
          -0.30964030289996197,
          0.49942700432993326,
          0.02199263890629244,
          -0.4378973635900977,
          -0.07534872464669462
        ],
        [
          -0.44623737420835974,
          0.5668929597676587,
          0.5280010793076569,
          0.007578937990841084,
          0.16917564097376547,
          0.5478720937757603,
          0.5396783324060727,
          -0.17040047008264186,
          0.2991909162199339,
          0.5346499351255286,
          -0.13769389922742004,
          0.4335813492850079,
          0.5615963233204112,
          0.4642070806176085
        ],
        [
          -0.4929618593384127,
          -0.4520075934701031,
          -0.3953712558538762,
          0.03956506644010527,
          -0.3615119399334874,
          -0.06858673759249512,
          -0.11389269224730897,
          -0.5706934782005296,
          0.5505508049549733,
          -0.23597129059345145,
          -0.43406169798596445,
          0.5838567453647409,
          -0.016166011361997912,
          0.1445288256740126
        ],
        [
          0.20291386569741543,
          0.5499390801721885,
          -0.2285952200693866,
          -0.5232927502975839,
          0.11674676372234682,
          0.522587140537837,
          -0.415104099408282,
          0.2919139798325191,
          -0.22918277259048114,
          -0.14519422782886837,
          -0.31087297137459224,
          -0.38526222291635104,
          0.5825990076074364,
          -0.14572684233527006
        ],
        [
          0.27169900276487313,
          -0.432487826369097,
          -0.008876498323087567,
          -0.1686840051418791,
          -0.2395739179185209,
          -0.520192015441501,
          0.0030321054642155065,
          0.18813978033449763,
          -0.44713499018501013,
          -0.34180372612566,
          0.5605719127859145,
          0.05671330714535172,
          0.37962371651915294,
          0.05402663775963079
        ],
        [
          0.4645382809504707,
          0.34016561434721704,
          0.48199223050401174,
          -0.16081153807436138,
          0.4022369081585542,
          -0.2740669852312118,
          -0.036790230169331806,
          -0.4260400236598437,
          -0.49801766564976924,
          -0.23795972587194153,
          -0.5683421769807175,
          0.4444898121142512,
          0.568212695406617,
          -0.5754377896199865
        ],
        [
          -0.21039397919747044,
          0.32059887605814796,
          -0.39505495746828756,
          -0.08677880610397598,
          -0.07624290200783868,
          0.05857152477664329,
          0.5445058404803679,
          0.4409219753893413,
          -0.003126430291771065,
          0.21616761382510297,
          0.004772281416107194,
          0.5533880577812363,
          0.4879144178534628,
          0.014118343177359716
        ],
        [
          -0.18948384511883049,
          -0.3829555111721511,
          -0.4977997717162281,
          -0.43064711339092443,
          -0.16871295452375984,
          0.16061363131429285,
          -0.37298210926350067,
          -0.060055533154458995,
          0.32460306476847334,
          0.40231336233906156,
          -0.5113270067434829,
          0.3640171498747834,
          -0.4476930609941736,
          0.25477555985551725
        ],
        [
          0.5010146267923682,
          0.4787981893910359,
          0.57714817275079,
          -0.5701845632476389,
          -0.3543906432960637,
          0.05436883294614947,
          0.4448601745049844,
          -0.5546607007727472,
          -0.5719674449051603,
          -0.5140464647760309,
          -0.08094342062431126,
          -0.035067163108814636,
          -0.5678795635683257,
          -0.08023496896775228
        ],
        [
          -0.1250117172512683,
          -0.46626635123461635,
          0.5544234530364375,
          0.3107878800496364,
          -0.035333230601014676,
          -0.2604822794055874,
          -0.5477406300097706,
          -0.010351493820194735,
          -0.5361689052212185,
          0.020076428220936138,
          0.010997087678404571,
          0.09086659612307701,
          0.3970294171679065,
          0.0639287568582767
        ],
        [
          0.35267987705626924,
          -0.049274033179543375,
          0.4260677118470869,
          0.019149367538450646,
          -0.5346409864527728,
          0.39064119199436254,
          0.49580013224830755,
          -0.3581952137930784,
          0.49471699282145265,
          -0.19489953608013588,
          0.48311150548981907,
          -0.5126112402458518,
          0.43736594323045075,
          0.1036282669438795
        ]
      ],
      "bias_ih": [
        0.11898221635667411,
        -0.19106370089003125,
        0.11013508202757877,
        -0.0009665452304791766,
        0.15723112958052604,
        0.05890284511649824,
        0.18448193181065425,
        0.17360713086303148,
        0.008840876809474901,
        0.19233887361016205,
        0.10023697881020488,
        -0.013740315847741713,
        0.0016482052581265338,
        -0.036504342724256594,
        1.240902911974592,
        1.0848047937497274,
        -2.392171214048332,
        3.8331172535065567,
        1.2043761816202725,
        1.7486662633798167,
        1.0059345150430659,
        0.9510290347972381,
        1.3020990688296195,
        -0.5081927886134987,
        0.9684798336075584,
        0.9183476977506739,
        1.031396314611304,
        1.137249531561781,
        -0.16414475483870428,
        -0.015118878496714644,
        -0.1288311552066032,
        0.013424149494627391,
        -0.1758918786623477,
        -0.0850468847063931,
        0.06386996093263042,
        0.006730881111112641,
        -0.18343801917595318,
        0.047756626166491956,
        0.10176232019571507,
        -0.09662105307748275,
        -0.05486395414794215,
        0.11950279188054413,
        -0.08700951467093519,
        -0.17094321358514203,
        0.16054983138127488,
        -0.027077142701417173,
        0.06675762124216361,
        0.10629608345089897,
        0.17256433043251124,
        -0.07991931025716233,
        0.0906343529108179,
        0.08195068352408563,
        0.03811568307307525,
        -0.0029390076551455424,
        0.0012078145839456433,
        -0.14639562158892244
      ],
      "bias_hh": [
        -0.17263999411391023,
        -0.04327027811638054,
        0.18548346936966176,
        0.1002307815931544,
        -0.0933653082520934,
        -0.03915273491787302,
        -0.040731446567015495,
        -0.036688083309580954,
        -0.05921463622511838,
        -0.1667761714713306,
        -0.0022591210816662044,
        -0.17910115175569483,
        -0.15429525690352408,
        -0.17798616907816134,
        -0.11192989623783041,
        -0.016019581619820256,
        0.09506113592771592,
        -0.022697428169473455,
        0.1518744437343566,
        -0.15269302573927238,
        -0.10403884427934734,
        0.02854275599957226,
        -0.042751717524659893,
        0.005067597110948091,
        0.10530182310589847,
        -0.010924563893437239,
        -0.15023784643104449,
        -0.11371860969405898,
        -0.032365256078466326,
        0.03684657652707651,
        -0.05181048587006229,
        0.08332186094552807,
        0.002770016602396813,
        -0.00224912873584307,
        0.15092788369654225,
        0.02611121311193637,
        0.09338693477590809,
        0.06628837624334916,
        -0.025817930569146885,
        -0.19732298457040764,
        0.18863050764669542,
        -0.15279339018034493,
        -0.04375402021538738,
        -0.01193339539410082,
        0.10977876051736307,
        -0.02373773929347342,
        -0.0026988510376043107,
        -0.06915832929664811,
        -0.05559674583043164,
        -0.007076564511446309,
        -0.02676940570325309,
        -0.1864639450348542,
        0.1601127482356986,
        0.1927398738432639,
        -0.08395066573617678,
        -0.1155846544908502
      ]
    },
    "layer_2": {
      "w": [
        [
          0.8494420736515189,
          0.006325381569197264,
          0.389590862252442,
          0.40566627851311554,
          -0.6066563875150969,
          -0.3490968514782755,
          0.1383551285412159,
          1.0509232133855666,
          0.9157981532623851,
          0.4786699480620966,
          -0.5017981395493775,
          0.19629594282798202,
          1.1787952676258269,
          -0.6438483065538133
        ],
        [
          -1.1900357802123078,
          -0.9116888838837638,
          -0.21392617317992513,
          -1.1985706114859795,
          -0.2880251244202682,
          1.0355483329909991,
          -1.0627905956680834,
          0.726086611383659,
          0.14907053049689978,
          -1.1772518605297462,
          0.04069752729911014,
          -1.073132944581017,
          -1.1922383629261166,
          -0.8141245420761192
        ]
      ],
      "b": [
        0.6696652061950248,
        0.43097802495707294
      ]
    }
  },
  "input_mask": [
    0,
    2,
    3,
    5,
    6,
    7,
    11,
    12,
    18,
    19,
    27,
    28,
    29,
    30,
    32,
    33,
    34
  ],
  "ablated_input": null,
  "ablated_value": 0.0,
  "output_param": "atan2_signed",
  "scaled_pi_n": 1.0,
  "delta_max": 0.35,
  "normalization": [
    {
      "transform": "none",
      "scale": 0.8655390346546353,
      "center": 0.9204641308303162
    },
    {
      "transform": "asinh",
      "scale": 0.8175600848274288,
      "center": 0.8867681772014051
    },
    {
      "transform": "asinh",
      "scale": 462.6300273768903,
      "center": -333.1697854608212
    },
    {
      "transform": "none",
      "scale": 5413222.0902614985,
      "center": -508770.60939412704
    },
    {
      "transform": "none",
      "scale": 1157.3507227945558,
      "center": 4549.679429911598
    },
    {
      "transform": "asinh",
      "scale": 10.358129862795693,
      "center": 12.17320223341297
    },
    {
      "transform": "asinh",
      "scale": 0.33924629426269115,
      "center": 0.40005844701414567
    },
    {
      "transform": "none",
      "scale": 0.42411593596120784,
      "center": 0.42858041580763234
    },
    {
      "transform": "asinh",
      "scale": 33.09832239288295,
      "center": 82.65759631477488
    },
    {
      "transform": "asinh",
      "scale": 0.0911362193061205,
      "center": -0.04718278665783951
    },
    {
      "transform": "asinh",
      "scale": 0.2151370816795333,
      "center": 0.29274513397808116
    },
    {
      "transform": "asinh",
      "scale": 9.832939972853932,
      "center": 11.55598244317186
    },
    {
      "transform": "asinh",
      "scale": 3.256400734674897,
      "center": 3.827025266270693
    },
    {
      "transform": "asinh",
      "scale": 5107742.117847206,
      "center": -3590633.2113008387
    },
    {
      "transform": "asinh",
      "scale": 10217099.16686349,
      "center": -6706141.091617538
    },
    {
      "transform": "none",
      "scale": 0.5,
      "center": 0.5
    },
    {
      "transform": "none",
      "scale": 1e-6,
      "center": 0.4262529995153208
    },
    {
      "transform": "asinh",
      "scale": 594.4827404994671,
      "center": 716.3429422450554
    },
    {
      "transform": "asinh",
      "scale": 412.89140647256187,
      "center": -302.7939124482325
    },
    {
      "transform": "asinh",
      "scale": 154.12675819494976,
      "center": -169.7611160606572
    },
    {
      "transform": "none",
      "scale": 1.5707963267948966,
      "center": 1.5707963267948966
    },
    {
      "transform": "none",
      "scale": 0.1,
      "center": 0.0
    },
    {
      "transform": "none",
      "scale": 3.141592653589793,
      "center": 0.0
    },
    {
      "transform": "tanh",
      "scale": 30.0,
      "center": 0.0
    },
    {
      "transform": "tanh",
      "scale": 100.0,
      "center": 0.0
    },
    {
      "transform": "none",
      "scale": 1.0,
      "center": 0.0
    },
    {
      "transform": "none",
      "scale": 1.0,
      "center": 0.0
    },
    {
      "transform": "none",
      "scale": 1.0,
      "center": 0.0
    },
    {
      "transform": "none",
      "scale": 1.0,
      "center": 0.0
    },
    {
      "transform": "none",
      "scale": 1.0,
      "center": 0.0
    },
    {
      "transform": "none",
      "scale": 1.0,
      "center": 0.0
    },
    {
      "transform": "asinh",
      "scale": 17774.23743300369,
      "center": 20521.130577512882
    },
    {
      "transform": "asinh",
      "scale": 500.0,
      "center": 500.0
    },
    {
      "transform": "none",
      "scale": 60.0,
      "center": 60.0
    },
    {
      "transform": "none",
      "scale": 100.0,
      "center": 0.0
    }
  ]
}