{
  "format_version": 2,
  "architecture": [
    {
      "type": "dense",
      "input_size": 17,
      "output_size": 25,
      "activation": "swish"
    },
    {
      "type": "mamba",
      "input_size": 25,
      "d_state": 19,
      "dt_rank": 1
    },
    {
      "type": "dense",
      "input_size": 25,
      "output_size": 2,
      "activation": "asinh"
    }
  ],
  "weights": {
    "layer_0": {
      "w": [
        [
          -0.5656910952891164,
          -0.12071588918532306,
          0.08201020664214942,
          -0.052549129130607386,
          -0.00855522012826282,
          -0.46656245967261206,
          0.12893345651476673,
          0.5604777655105426,
          0.7510436455506082,
          0.3806195625011042,
          -0.0450367240413545,
          -0.7510287466153813,
          0.3440926473217927,
          -0.7056019214886362,
          0.6495980389258993,
          0.05817525367371956,
          0.2393731006358737
        ],
        [
          -0.7159431542829502,
          0.16739210258752468,
          -0.27900512965325036,
          0.7272209951182638,
          0.7028565767900272,
          0.38102300619111173,
          -0.7405623476315023,
          -0.7321068335829978,
          0.12965551604187608,
          -0.21117738725906932,
          -0.5705440366609265,
          0.3968401178640364,
          0.7114746612388287,
          0.23832597493565877,
          0.2759628690669089,
          -0.5878568695402261,
          -0.7112524562138945
        ],
        [
          -0.7162214272285103,
          -0.45066030554418807,
          0.4116820015116167,
          -0.7076411395597478,
          0.49102246186476606,
          0.41794183992913236,
          -0.244456671285892,
          0.5968488814697004,
          0.0921502742819511,
          -0.2846452373292397,
          -0.7553523009594573,
          0.41736858465982873,
          0.6778236247466076,
          -0.5355861292111622,
          0.6293931057846793,
          -0.23613544013756238,
          0.08991920394457886
        ],
        [
          -0.4704228137781989,
          -0.34232230533349184,
          0.43543521449183675,
          -0.4788998063795452,
          0.6770198511688175,
          0.5755110489204354,
          0.3315190185645609,
          0.20326140903082535,
          -0.23608443734242335,
          0.7533781862300688,
          0.07521251422997366,
          -0.5652307613403712,
          -0.6754981187084579,
          -0.3056301750918409,
          -0.18462618554579902,
          -0.35695688396593617,
          -0.42021229447917524
        ],
        [
          -0.23814033640224064,
          0.5390993527293881,
          0.050905823785586946,
          -0.6179005203237117,
          0.2068558966494134,
          -0.3248813171218738,
          0.6983685773147876,
          0.5690200084848729,
          0.04113527303984066,
          -0.7184066527085278,
          -0.2512395103830657,
          -0.4918878998883982,
          0.1756935272023039,
          -0.4392737814434703,
          0.45497539974764467,
          0.001365382853113939,
          0.01742997688321324
        ],
        [
          0.2139393491685948,
          0.23684781903798402,
          -0.565197455278013,
          0.5688649437638604,
          0.677068893270242,
          0.2458914326450985,
          -0.7228748466426833,
          -0.6507322295138296,
          0.18944170848742614,
          0.6704751877319648,
          0.3521368611599218,
          -0.03599473302900302,
          0.05215442626628841,
          -0.6146016388814416,
          -0.2815993023893475,
          0.20753778073824825,
          0.6279877216203329
        ],
        [
          -0.208550129348944,
          -0.28809274082950553,
          0.664361799676676,
          0.727802514319478,
          0.6387652997740016,
          0.5066925061696674,
          -0.6082597806921597,
          0.6225582948532173,
          -0.6165802355979317,
          -0.7529980887795931,
          0.7399021144073141,
          -0.5724376880754886,
          -0.7462576205998169,
          0.34107237771345034,
          -0.2648980650682996,
          0.7100908235944399,
          -0.12854291781254912
        ],
        [
          -0.6452149086375787,
          0.1728825676240059,
          -0.693248581215715,
          -0.4479187339472152,
          -0.5683138131975844,
          0.029830765452632413,
          -0.49395952448594954,
          0.2572098608641409,
          -0.09608427809607112,
          -0.07154217623266423,
          -0.7479441014263571,
          -0.5879886058878996,
          -0.39370074870899474,
          -0.4348755354803109,
          0.27662582490235166,
          -0.6055415374292508,
          -0.6043264360303958
        ],
        [
          -0.1456543789140976,
          -0.17464230177762818,
          -0.727055990197219,
          0.45538219782516065,
          0.1745472910363206,
          0.519966149496599,
          0.5062546964289298,
          0.6063638109792242,
          -0.6204187691948295,
          0.40203169137256833,
          -0.03222889153316644,
          0.5821458799241772,
          -0.14075682087815966,
          -0.6649923284127794,
          0.37418894113426426,
          -0.6073056378632842,
          -0.29718400880346524
        ],
        [
          0.0732301262329198,
          -0.6700552245560558,
          -0.1316121778031979,
          0.4151626390435701,
          0.1798191448078117,
          0.3716186410822333,
          -0.23028230692889962,
          0.744294036008146,
          -0.17090430473663287,
          0.4659848332482035,
          0.6639116218681207,
          -0.5416355331210044,
          0.4212679670596753,
          -0.6958830303254316,
          0.2584961479663004,
          0.2860375461278575,
          -0.2236454394224685
        ],
        [
          0.33142183460412156,
          -0.6073520928347758,
          0.5537703980823319,
          -0.7277329932571518,
          -0.35223258891717196,
          -0.6289459554521979,
          0.36683670629787546,
          0.31608851939318794,
          0.3312799329595424,
          0.13571697573276653,
          0.42412845639528207,
          0.06781644820496291,
          0.5420167529300823,
          0.5112301227905278,
          0.10313790025774394,
          0.022297461293832588,
          0.10409362407392808
        ],
        [
          -0.6764036813961042,
          -0.026314841957123636,
          0.23332885653587065,
          -0.7541803345825427,
          0.6880428489177703,
          0.1852415672871095,
          -0.3143737316611069,
          0.536901510415196,
          0.7335816525844623,
          -0.5619548814910957,
          -0.6335887427083141,
          0.5904521135098668,
          -0.7426535791969874,
          -0.2585807004165518,
          0.030268516639488374,
          -0.18619906717600443,
          0.5528631566331228
        ],
        [
          -0.5096444450748664,
          0.7116657301613494,
          -0.3670536085231221,
          -0.6287812398813672,
          0.3440126054597781,
          -0.16109146689044995,
          0.6780886473258037,
          -0.6087565746760031,
          0.7236862334390457,
          -0.17443368507146828,
          0.009376500810581945,
          0.4368922088262128,
          -0.2603635348346866,
          -0.6139252978758867,
          -0.5540431012258334,
          -0.1824105831875854,
          0.03321707919353789
        ],
        [
          -0.6170321239187623,
          -0.20101728624092385,
          0.6500607227119055,
          0.3169082133011658,
          -0.14893146133564894,
          -0.7533729403105787,
          -0.44756518625742203,
          0.578007625973318,
          -0.5932937025523968,
          -0.7117661129850265,
          0.6859708971218066,
          0.35163156019714514,
          0.7053021666298429,
          -0.48314814984399335,
          0.36982446337801766,
          0.017758074977932248,
          -0.6909872340828842
        ],
        [
          -0.3542254514279492,
          -0.19914437377785688,
          0.15241629734248419,
          -0.5568735215657765,
          0.5040609844705026,
          -0.3260566340823828,
          -0.302369451343915,
          -0.42963425551943274,
          -0.3505872333426332,
          -0.5189421443260503,
          0.3194834506824491,
          -0.43788476407025817,
          0.5489706470504201,
          0.13733304031860816,
          -0.24149334526575494,
          -0.26936077640056555,
          -0.47350628375521653
        ],
        [
          0.47505061081895295,
          -0.5666424379368384,
          0.6224663458643933,
          0.5731111860790252,
          0.6250903147067917,
          0.364508862628522,
          -0.6164103934805074,
          0.20100353403423865,
          -0.49780581918456457,
          -0.20259247243967637,
          -0.5848269148603841,
          0.4974233035671092,
          0.06969303855361164,
          -0.6029781304463455,
          -0.1631846093233026,
          -0.2726061653432581,
          0.30718016752532895
        ],
        [
          -0.3935790249094703,
          -0.6453611843451993,
          -0.5299410656457667,
          0.7007756291471234,
          -0.2432804569417324,
          -0.18225127386678375,
          0.6524039463045541,
          -0.7323810432362788,
          -0.1735441974890023,
          0.5426340169342097,
          -0.3537606626827057,
          -0.3268198821930306,
          0.3890378378778012,
          -0.08011985082977091,
          -0.49749145775252696,
          -0.06809420188539772,
          -0.5296865742961241
        ],
        [
          0.17973066910119773,
          -0.39485626014586134,
          0.044809876378866687,
          0.741580521559841,
          0.16341453329226707,
          0.26796484716620084,
          -0.003660325640514994,
          -0.2386073038149562,
          0.44682393549265176,
          -0.046688643263628204,
          -0.48708019903253186,
          -0.7110120305427325,
          0.5928093199796038,
          -0.08587356356880582,
          -0.7506159897426004,
          0.7421397369404743,
          0.5702610551495502
        ],
        [
          0.205302400911352,
          -0.35614501047088737,
          0.7472438483706838,
          0.045223843480709514,
          0.2800598450609251,
          0.6793165873627554,
          -0.4513566751146736,
          -0.14455555141958287,
          -0.3449741770031333,
          0.7490578696275374,
          -0.5900497664946277,
          -0.62951498436177,
          -0.6444686135894285,
          -0.24755458905616623,
          0.02758700407434489,
          -0.038778063648744254,
          -0.3834281430280536
        ],
        [
          0.3571095144636549,
          -0.039844508804384726,
          -0.24685373928539844,
          -0.7474358701744586,
          -0.4038447666993383,
          -0.5919720734937755,
          0.16508485477428947,
          -0.1681212495783233,
          -0.3433287016853718,
          -0.02592384284067728,
          0.12672154649676237,
          0.005811002967602508,
          0.6967656628186272,
          0.002014603507815793,
          -0.2648132207602754,
          0.695343163262957,
          -0.693894723387854
        ],
        [
          0.12365205842971705,
          0.4850375063844514,
          0.04660070038304587,
          0.03436398764933957,
          0.026808268501788413,
          -0.22713727298185915,
          0.16432998862757497,
          -0.23355614787500034,
          0.36480760662681977,
          0.004193545730003745,
          -0.4397898167619381,
          -0.4833194855054593,
          0.4655741648380245,
          -0.12135756284702637,
          0.4698226431216257,
          0.1618141721614873,
          0.6914683480150015
        ],
        [
          -0.27293299579445035,
          0.045339683438868184,
          0.32714816809482117,
          -0.7362204328453907,
          -0.07627807605314996,
          -0.25620727231495644,
          0.3516084246622475,
          0.7443523353372734,
          0.17541061509865863,
          -0.44599745284424414,
          -0.7323460652206752,
          -0.02398739230136837,
          0.053625432250856475,
          0.5628851709834943,
          -0.3708077094553506,
          -0.6010285338494618,
          -0.4257111678310699
        ],
        [
          0.056034818548856946,
          0.6088734994697376,
          -0.15623235690591297,
          -0.5719875917436535,
          -0.424455341793115,
          0.07452365457689603,
          0.3805247317916449,
          -0.4240624095078297,
          -0.7370920787638553,
          -0.4837380967265957,
          0.22234667072059677,
          0.5402429597179124,
          -0.17888351392866075,
          -0.2554101751014215,
          0.4102953464826071,
          -0.7115678241074099,
          0.6680250997762127
        ],
        [
          -0.3155803379601686,
          -0.6657422821884629,
          -0.7422614879473117,
          -0.7543059579225906,
          -0.34006724095453217,
          -0.5832763976114002,
          -0.21044456947966872,
          0.047491084890354696,
          0.41826502810463495,
          0.7420836621100642,
          0.6220744087935683,
          0.5498543451310998,
          -0.5092820570346757,
          0.2691470947323382,
          -0.2692098754984939,
          -0.538405727910447,
          -0.551804462325272
        ],
        [
          0.12376281337015238,
          -0.12779615420924306,
          0.6934271502081957,
          0.010483798326465732,
          -0.25500515522061873,
          0.04390727857107002,
          0.7422702596980097,
          0.10638980496628658,
          0.6685022409596448,
          0.706679944930148,
          0.4184562089063333,
          0.6123341592097813,
          -0.4506972872529015,
          -0.4026721502493767,
          -0.47753117965842296,
          -0.1964843713923775,
          0.23103938655093392
        ]
      ],
      "b": [
        0.12255823536570365,
        -0.246418057295814,
        -0.3373887544371097,
        0.7556873514192282,
        0.4818618726490449,
        0.13296601608838343,
        -0.436770415048017,
        -0.363770360838311,
        -0.059675278114232455,
        0.7484978100664308,
        -0.20462909848240263,
        0.3302400908310452,
        -0.16573817346838737,
        -0.15779545841291898,
        0.39132454403197525,
        -0.2457873512023685,
        -0.4098060719071731,
        -0.6737789795636041,
        -0.5153215100415325,
        0.06752397690627798,
        0.39502226196482537,
        -0.23521575863169442,
        0.06454243282870709,
        -0.3841169422750521,
        0.1445630103410136
      ]
    },
    "layer_1": {
      "x_proj_w": [
        [
          0.5832467966194206,
          -0.11722362749704784,
          -0.04340230554124924,
          -0.16515248983313668,
          0.09727162840740466,
          0.08250266970601461,
          0.45097533199456463,
          -0.5324060608523653,
          0.48080452655098216,
          -0.4789933581566967,
          -0.037212108476085026,
          0.3514628073656004,
          -0.0787191733407222,
          0.41056935576897,
          0.5883878557982392,
          0.35994838407844487,
          -0.3145478671170635,
          -0.47557564108028894,
          0.008605115965326982,
          0.4442275065647092,
          -0.5877524177427371,
          -0.41951962343684535,
          -0.5784916196193491,
          -0.0044476499530439195,
          0.3411239873199565
        ],
        [
          -0.4191175033114095,
          0.3452124098925168,
          0.03654372511000192,
          -0.5556924459666716,
          0.05170276977753152,
          0.009568219745477613,
          0.4492714726844689,
          -0.1399610826325608,
          -0.22667359294287126,
          0.42544989525925003,
          -0.09957124936255046,
          -0.45342540194648984,
          0.5013992353455952,
          -0.08113699810407704,
          -0.017268501445820816,
          0.045681099101827605,
          -0.5161552417364293,
          -0.6073631473149743,
          -0.5484732939336496,
          0.5368365215058983,
          -0.6067630578008598,
          -0.5138905590826016,
          0.3084168305738282,
          -0.03572627648496385,
          0.22948260877871607
        ],
        [
          -0.604226029526812,
          -0.14579455259279234,
          -0.06919364392374372,
          0.6081429932397759,
          -0.01790505281189747,
          0.023379368578015702,
          0.21892054453666276,
          0.6077250343929881,
          -0.25240963822201296,
          -0.2735737965314825,
          0.28863666695316736,
          -0.5920386320295172,
          -0.07507780330108205,
          -0.1412126190329266,
          0.00331535128631566,
          -0.15485258422255088,
          0.43784960817377794,
          -0.423236140745048,
          -0.5060532234064907,
          0.5937140840189259,
          0.2888227877430316,
          0.1039607618277737,
          -0.46457717631336526,
          0.5984644364546123,
          0.1283272867961739
        ],
        [
          0.474655453609387,
          0.47811766353981633,
          -0.008160648882731825,
          -0.052444201423961445,
          -0.28507316049702547,
          -0.43858073532435693,
          0.37332974368385463,
          0.5568569460347255,
          -0.47585039802201456,
          0.07728470103917484,
          0.26133909581346637,
          -0.5605880823278632,
          0.06551049692760214,
          -0.11783990684178125,
          -0.0898972469498055,
          -0.5061153255084696,
          -0.5179808392334052,
          -0.4579272679696844,
          -0.3027417051070738,
          0.46829266519598045,
          0.027655335472830944,
          0.485626740067699,
          -0.28877471949666395,
          -0.256081552713272,
          0.4837890261921207
        ],
        [
          -0.3663503705208785,
          -0.1386702800034273,
          -0.5839273621937463,
          -0.11623500038451795,
          -0.3490077532700516,
          -0.15780140443612894,
          -0.4547586995477695,
          0.5189735720788959,
          0.013371541559646483,
          -0.21994082137950555,
          -0.5934185412953541,
          0.5066054908831359,
          -0.3392287215542421,
          -0.16888668111395122,
          0.6059610036702432,
          0.1330276472434243,
          -0.010103116963027237,
          0.5972722051907242,
          -0.2723883616291605,
          0.5541808745517163,
          -0.5644001844302569,
          0.4807999898129449,
          0.4553860044341562,
          0.12298545282424145,
          -0.37095976711047884
        ],
        [
          -0.5373582133773361,
          0.3744412560660537,
          -0.4691380707149143,
          0.6120055040482018,
          0.09050288509069915,
          -0.5228688152504556,
          -0.4256754582565318,
          0.26586301907786947,
          0.18624728534854174,
          0.589684656207105,
          -0.1642813222304636,
          -0.5602280809372174,
          0.522706301003488,
          0.20963872641051862,
          0.2024004520534035,
          -0.5520742635600213,
          -0.39919412812574695,
          -0.535809761901291,
          -0.015101880554032165,
          0.580155124316132,
          0.37761410119165184,
          -0.09395574816620933,
          -0.44754613188522563,
          0.6062252869660745,
          0.6119097900104196
        ],
        [
          -0.5377792078994066,
          -0.05435299615407174,
          0.25908539702294975,
          -0.11593611556282274,
          0.009829835600898895,
          0.10718884495111003,
          0.43917576429870886,
          0.12831092954944623,
          -0.5079046269256668,
          -0.13502446504024251,
          -0.5509135581776512,
          -0.5146844440990359,
          -0.5558377450192719,
          0.06656643104078952,
          -0.08997844344422223,
          -0.4207622297342759,
          0.40362783559683346,
          0.3233292697921699,
          -0.04056205316054251,
          0.1496480723964364,
          -0.3412337415118012,
          0.30458744064815757,
          -0.187649989884127,
          -0.4990133137860828,
          -0.046924500598684915
        ],
        [
          -0.29266679436259085,
          -0.5809986737844097,
          0.42491369093483766,
          0.49789585280215354,
          0.4520014258979048,
          -0.5004470026568488,
          0.18192684160422834,
          0.5102160003837717,
          0.5242315825460178,
          0.34444940351958486,
          0.11479519688272777,
          0.6070601993859859,
          0.2510778303247472,
          0.017792164409247357,
          -0.365870110143109,
          0.4231992149731112,
          -0.2095735215717116,
          0.5753825007173481,
          -0.4412198994745873,
          -0.5878109389529006,
          -0.039145817378907544,
          -0.5380804342458665,
          0.3261802097559673,
          -0.5464458304914291,
          0.5434956524368044
        ],
        [
          0.1856875807307493,
          -0.38784881535835947,
          0.2895819957074717,
          0.19348399693135643,
          0.4503255122567891,
          -0.20998451902170656,
          0.6000224897141533,
          0.18495213293853596,
          -0.5130544820016127,
          0.5587352073402618,
          -0.597252923281231,
          0.017875170231582804,
          -0.043684420845329086,
          0.33267870245674047,
          0.15479206315837746,
          0.06030822067792729,
          -0.5478720580321339,
          -0.5761705514535818,
          0.04820812462718638,
          0.07057130006866497,
          -0.5762200359920211,
          -0.1983339127760097,
          0.1912379170086077,
          -0.4276452065095494,
          0.34919519712866154
        ],
        [
          0.3907380096390498,
          0.6111576791105855,
          -0.19100430808644547,
          -0.608873332570971,
          0.5918570834574906,
          -0.4318238036780802,
          -0.6047952903556079,
          -0.4476979201837296,
          0.4931984416315205,
          0.4633056708713852,
          -0.5244509376514063,
          -0.3061379567659148,
          -0.48881538715034556,
          -0.4605619711420019,
          -0.32861029038307854,
          0.17194330676126812,
          -0.5351266417804421,
          0.45283084446212873,
          -0.27644637648460796,
          0.09326929834034514,
          0.5250789047742643,
          -0.40703958762480563,
          -0.5745340076759555,
          0.5352638667917831,
          0.5788160802510598
        ],
        [
          -0.5637005141483868,
          -0.008991538609167127,
          -0.3390014832656102,
          -0.35717977677453444,
          0.36038014501151694,
          -0.41904325367615225,
          -0.6088779360686778,
          -0.16398653240650013,
          -0.13310808670258578,
          -0.4843104879669099,
          -0.3897740562625429,
          0.479685151251235,
          -0.24461735059438083,
          0.14497910488782528,
          0.26150632709026667,
          -0.1807141269631824,
          -0.16256167681793798,
          0.5153007547930173,
          -0.34181317093023406,
          -0.19591097991433198,
          -0.34553405821349964,
          -0.3384786404222757,
          -0.33054729954226125,
          -0.3406046004085333,
          0.5562792424891247
        ],
        [
          -0.01799719665558286,
          -0.5507817645972525,
          -0.07294505106272087,
          -0.4444804466385729,
          -0.20363550663703145,
          0.5940450523781842,
          -0.3817266347196412,
          0.41960120173160553,
          0.4396453132873863,
          0.21023136306632162,
          0.2626682407383616,
          -0.4012377246985598,
          -0.36079844850592896,
          -0.263922583760896,
          0.5164985929147323,
          -0.45734925318579156,
          0.1019559370270624,
          0.4434810136987719,
          0.21328018695487205,
          0.5102698502259255,
          0.42993791320522345,
          -0.28443289701949587,
          -0.5186407744468662,
          -0.30525972892786607,
          0.5596044869905201
        ],
        [
          0.5190198615979165,
          -0.13239819880325931,
          0.15417447223214786,
          0.1425421263490635,
          -0.48621880470473255,
          0.3382362797632844,
          -0.11484728285876827,
          0.4342717182120608,
          0.42798141675945534,
          0.5777778146654842,
          0.5305804000792478,
          0.47270931484548706,
          -0.028662560276027982,
          -0.00801595585159498,
          -0.24718740333749767,
          -0.526092426202632,
          -0.6043377685164106,
          -0.4222150143670751,
          0.02851227781291621,
          0.47271057205444134,
          -0.2833188996201906,
          0.5566361254754271,
          0.5904408055619197,
          0.5671045200689835,
          0.321118602163426
        ],
        [
          -0.36152390719233674,
          -0.1463105134150634,
          -0.24177127500680262,
          -0.5487614551873854,
          0.3586066379910662,
          0.05006156398880357,
          -0.5974104810417245,
          0.49597900989536736,
          0.26277644874324224,
          -0.48555544412768925,
          -0.4520144948764989,
          0.5660808355082969,
          0.4764690904076918,
          -0.3938379325587361,
          0.20088554824219496,
          0.4512049049068365,
          0.5515344640358324,
          0.08425787855770128,
          -0.24085580703764603,
          0.051342368119343784,
          -0.3133926934238132,
          0.03684129791271229,
          -0.18442109313677585,
          0.3205406344924122,
          -0.15495233290990096
        ],
        [
          -0.3515248552597324,
          -0.34544467935132533,
          0.05108117666693612,
          -0.44637345472269097,
          -0.5709627584051552,
          0.5593490489745985,
          -0.012744850545797659,
          0.3104539658167933,
          -0.42353003018823776,
          0.5315165760854954,
          -0.3880471073543076,
          -0.5724612050640047,
          -0.18680792506328958,
          -0.5702626973648497,
          -0.25562004964653046,
          0.57519370147021,
          -0.2834763027834779,
          -0.5092776974876758,
          -0.4137668765514423,
          0.2193689298518109,
          0.48167511629767135,
          -0.13649839628834087,
          0.5164151651688995,
          0.038824406742828055,
          0.5668677249470193
        ],
        [
          0.36328236369064504,
          0.36046441157739284,
          -0.35694915566322793,
          0.3203856178162625,
          -0.5855066263342907,
          -0.3207552669358327,
          -0.31943985362562605,
          0.09292409038822702,
          0.265358985452829,
          -0.4534801766179801,
          0.16079872423796382,
          -0.596100864528809,
          -0.3632744707604535,
          -0.23491301349015203,
          -0.3753377269321463,
          0.08666974190569443,
          -0.18053549443805694,
          0.3980272463728438,
          -0.5404154171635683,
          0.28353775597805264,
          -0.3321249705662595,
          0.41058204893969164,
          0.44236227053771815,
          -0.5290665141725865,
          -0.4003366487020621
        ],
        [
          -0.5700826935310999,
          -0.48321606860776,
          0.5503495816536776,
          0.47649958903737044,
          -0.4996809194165574,
          -0.15305501728411908,
          0.451837758663052,
          -0.4557580596902372,
          -0.5759089713055521,
          -0.43449705466194966,
          -0.42487885051104535,
          -0.23018689508911905,
          -0.13774221015430393,
          0.25067651178378014,
          -0.45549136788925804,
          0.40273127360668215,
          0.3702638376536882,
          -0.20988925306308165,
          0.015341128084104816,
          -0.6009074834198763,
          0.10008457231543566,
          -0.610518990136095,
          0.5088180753263829,
          0.48002979567081816,
          0.6027570040974912
        ],
        [
          -0.01930948275402511,
          -0.596270926444696,
          0.49108361181017735,
          0.4800431050968066,
          -0.13420149489155625,
          0.02932239330448394,
          0.5722564540699808,
          0.24758338928634127,
          -0.4765136282497592,
          -0.4977034429079272,
          0.3944229051903352,
          -0.6078560845480733,
          0.2537237462871318,
          -0.39543958855369277,
          -0.01570937422495866,
          -0.08476293655398337,
          -0.28449838453282483,
          -0.4360141662079209,
          0.4532193449929882,
          0.5623434184194016,
          0.2071268257359512,
          -0.33238110846754143,
          -0.48315423325969753,
          0.042446980079776764,
          -0.2815408268114168
        ],
        [
          0.5040268441226206,
          0.3714774651380631,
          -0.14874898889064536,
          0.3859932806341472,
          -0.11323931263016945,
          -0.25324456810167084,
          0.08737738419844698,
          0.10824636233946305,
          -0.4053685412554092,
          0.011250204779123973,
          0.5882462462768345,
          0.13834232086232556,
          -0.4401713301983118,
          0.07896174824578672,
          0.44909809690575964,
          -0.4547037714054586,
          0.04657796489891397,
          -0.4286059608770262,
          -0.38535676533815855,
          0.44157356889407184,
          0.26163974461212935,
          -0.5094691334985709,
          -0.573995079641524,
          0.30421829955312707,
          0.12278955991223206
        ],
        [
          0.6101874733715582,
          0.33619466704222645,
          0.4370129051663103,
          0.4207765488809656,
          -0.20230973724675627,
          -0.1601341973268215,
          -0.5796725583939102,
          -0.19171660912618804,
          -0.16573048370345744,
          0.5603306792835585,
          -0.35531488752003043,
          0.6057756627968127,
          -0.20755389036630045,
          0.21524375574696353,
          0.5296995150611432,
          0.34889848014107316,
          -0.15594038408462613,
          -0.1433805288374813,
          0.3639162276542993,
          0.4568623244953618,
          0.5133757084155961,
          -0.18123212780031045,
          0.25796929113604705,
          0.5171657307614748,
          -0.46707660127758954
        ],
        [
          0.11554594822023379,
          -0.3676504359351234,
          -0.4342163295743454,
          -0.25739660108584084,
          -0.32081219396568134,
          -0.2811319320919282,
          0.14704640448304596,
          -0.4751291762597304,
          -0.4935109268506482,
          -0.5079065410858512,
          -0.08256238672163874,
          0.16273239660193128,
          0.24946557516066659,
          0.5080642344079798,
          -0.6046375949957398,
          0.021693798661083008,
          0.6022963112354327,
          0.34104170796852196,
          -0.4768295557894332,
          -0.36529212927375676,
          0.4488506147235962,
          -0.216383160282119,
          0.15294560948947655,
          -0.4559611571271419,
          0.014801287031528387
        ],
        [
          -0.5639330645032199,
          0.587662350506605,
          0.36383316686660183,
          -0.14249629296857003,
          -0.5096831003651474,
          -0.5667129089081051,
          -0.04757998846620115,
          -0.149584408809664,
          -0.2575253328005628,
          0.21096788200494931,
          -0.424950376355394,
          0.08210161391958215,
          -0.347342828942687,
          0.2762865511902953,
          -0.026821081494816545,
          -0.4719722693545751,
          -0.06627201998191012,
          0.5545227175097764,
          0.16544425738429114,
          0.3722966369226437,
          0.47738756046952546,
          0.40080481420244074,
          -0.5831818552347714,
          -0.5526734422648981,
          -0.44380947405985793
        ],
        [
          -0.11343777313967052,
          -0.5025617373538731,
          0.5118441171977643,
          -0.4837225697344568,
          -0.04835321871147147,
          0.530061818117447,
          -0.3762286309316625,
          0.22745092016743984,
          -0.20709659446128192,
          0.49756889055240006,
          0.14114669316011696,
          -0.49963237262891214,
          -0.04827943218101183,
          0.3793612294466957,
          0.007193799476042262,
          -0.5386886801872367,
          0.5195790418500581,
          0.3757013114192621,
          0.1952577302641061,
          0.3295249967526912,
          0.40751830804238276,
          0.3411965489812486,
          0.5633037987863094,
          0.34643201133435997,
          -0.21550547667014064
        ],
        [
          -0.031191307118503375,
          -0.4239125147012519,
          -0.597844016122212,
          -0.01188357740601298,
          -0.5733439930583263,
          0.5103973482209212,
          0.5861596892160179,
          -0.5400066382517187,
          -0.4828018208425432,
          0.6025443375212922,
          0.4364228302245958,
          -0.22541031172229042,
          -0.6004573563164773,
          -0.13883486284380464,
          0.014471560481640888,
          0.3645464237156012,
          0.20536094380423997,
          0.5775887730325462,
          0.5658921651557642,
          0.07412763293069657,
          -0.10987980602460479,
          -0.461634793911694,
          0.34927961334882307,
          0.04121919622770975,
          -0.5957915808569723
        ],
        [
          0.402631790105193,
          0.5992474291290579,
          0.5252866782493972,
          0.6037924630160154,
          0.3920122790793159,
          0.4413780796006488,
          -0.1481513472493825,
          -0.08850510808421375,
          -0.13572013816512873,
          -0.2678421112291763,
          0.3515768260380636,
          -0.6098032251791579,
          0.3919755048599367,
          0.22430607486401055,
          0.5590397124290232,
          0.5033001634097038,
          -0.3501408299599396,
          0.21643435393100063,
          0.36816480660003337,
          0.2443977687031701,
          0.055729076735498206,
          -0.3356833493482726,
          -0.08623075249271939,
          0.5639888815134693,
          0.5727539725632362
        ],
        [
          -0.28678921126566964,
          -0.6079464178346174,
          -0.35957640229125526,
          0.3896758699269838,
          0.39221645439073605,
          0.45136711532622464,
          0.004422891934540485,
          -0.18277231655833698,
          -0.593253675542786,
          -0.5872671017424715,
          -0.2681865802484555,
          -0.5484437125854006,
          -0.5446057052778421,
          -0.41598962689055385,
          0.1357155623792834,
          -0.17374446262490428,
          0.20542952375848933,
          -0.1871660938160286,
          0.3859007865394958,
          0.19147426946475132,
          -0.3194582607670769,
          -0.3529481775007803,
          -0.6017950169777299,
          0.4773541763024818,
          -0.5332606931298228
        ],
        [
          -0.2568089660659204,
          0.4210438488283006,
          -0.461743860165018,
          -0.5161945747196726,
          0.6046446820981679,
          0.5145594524938455,
          -0.20823623800695346,
          0.011483805910726841,
          -0.09282707743422458,
          0.5030386027886027,
          0.21344610357775962,
          -0.13752046763105047,
          0.5847426856339886,
          0.17539654584352393,
          0.10063996089751182,
          0.565035291267568,
          -0.09665543195319315,
          0.5264757724974167,
          -0.4133690198168388,
          0.23568990491522857,
          -0.5599370408042712,
          0.5052891122183105,
          -0.23396406529190528,
          -0.4616062588534454,
          0.5478096246507511
        ],
        [
          -0.11484056373938312,
          -0.41735466451880987,
          0.5314583878197987,
          -0.5811090724636988,
          -0.583619599829369,
          0.5261893015356283,
          -0.2810127440916611,
          -0.382329049150141,
          0.5754732534200346,
          -0.24813665246091227,
          0.6036443955938697,
          -0.6028577555928306,
          0.05474604991408116,
          -0.24025126499197147,
          0.4964518868083896,
          -0.3440166901123084,
          0.3149853282442754,
          0.43838321226665045,
          0.47775735693940136,
          -0.5465421915434299,
          0.34645775065703954,
          -0.11935025924232784,
          -0.5312107754841369,
          0.17284166429239167,
          -0.4360381682510886
        ],
        [
          -0.42895912274794057,
          -0.1803070463825998,
          -0.4374489575338701,
          -0.30952860356633555,
          0.5868443824907192,
          -0.3431805516404197,
          0.5071467905630929,
          0.23688577116419163,
          -0.4471286250424604,
          -0.5185970376398834,
          -0.6123046568821429,
          0.5970577224218732,
          -0.5431016601694243,
          -0.41765485539594993,
          -0.6044810662634936,
          0.4040513147853093,
          -0.47633146296115214,
          -0.06210355741122908,
          -0.41608061917139105,
          0.05894107247925395,
          -0.3403743620222321,
          0.40295675042557666,
          -0.5560138509392886,
          -0.19039797891535348,
          -0.14883294648680523
        ],
        [
          -0.3932071814228437,
          -0.502504831513769,
          0.5964449830945067,
          -0.3491078236650855,
          -0.10475576287872301,
          0.20989563853439452,
          0.37195406908333184,
          0.16186795157229217,
          -0.5337136841680802,
          0.17970845723206752,
          0.3886990416288365,
          0.18048466485068904,
          -0.1881760335465278,
          0.28350435777448224,
          -0.35198434468645734,
          -0.16024884858473304,
          -0.0051911804587230215,
          -0.5385472909244688,
          -0.5666367682529463,
          -0.18001442543675916,
          0.5983944824995824,
          0.5773813320649817,
          0.21544196892703527,
          -0.024570942331940793,
          -0.1804605204566641
        ],
        [
          -0.14990567515565656,
          -0.4418506427364747,
          0.4108833463072916,
          -0.545795900075452,
          0.5874026243788075,
          -0.5305214650331739,
          0.5997345539126289,
          0.5108116429640326,
          0.4024947269067387,
          0.5415705333196115,
          -0.47289766977493347,
          -0.5750681740052875,
          -0.31789025316434083,
          0.5944683760446712,
          -0.4099893567451435,
          -0.06790334135664111,
          0.11339167832994568,
          -0.4335174276469012,
          -0.5737918763764421,
          0.6003202350403087,
          0.1053352190847815,
          -0.3185543257381957,
          -0.19637036700046323,
          -0.3465885367475793,
          0.10398559622926695
        ],
        [
          0.45750698575959126,
          -0.606313846803715,
          0.04468714086462411,
          -0.30444020037269903,
          -0.5954488419968549,
          0.38188737314292276,
          0.4370618783004687,
          0.3355120127540999,
          0.5011324873693705,
          -0.5779851215282498,
          0.5380785173206448,
          0.22417700759250248,
          -0.0622391513824293,
          0.4375396052626481,
          0.1990684096981249,
          0.5834875324775894,
          -0.02343080540678133,
          -0.6051893970375151,
          -0.6024457010985322,
          0.5472143978140944,
          -0.367136228220315,
          -0.5640878075082163,
          0.21432544783367924,
          -0.3838653291229922,
          -0.4716425928317743
        ],
        [
          -0.4984457005077911,
          0.40151868904068344,
          -0.3885212423052013,
          0.19679472603158354,
          0.39994265130937867,
          -0.11446694018762033,
          0.41822526827861983,
          0.5749830846864943,
          0.007718736537356552,
          -0.4277568883555855,
          -0.4922423838199499,
          0.49511177437110354,
          0.22776741734753392,
          -0.1351317734579759,
          -0.12619872344903604,
          -0.3994018544104858,
          0.20726680457526436,
          0.08973968570578461,
          0.35588756066201155,
          0.40389317041580064,
          -0.017150573823022985,
          -0.023826503397787913,
          -0.5486114543335149,
          0.10750367151691265,
          -0.4205401729113686
        ],
        [
          -0.4602278856976305,
          0.1649339682681069,
          -0.4206439339115302,
          -0.5502763558243051,
          -0.42459307596609935,
          -0.2379781284785995,
          -0.5114302146992398,
          -0.5175759421938615,
          -0.07162646261281502,
          0.3149160250771068,
          -0.15656896314440522,
          0.6102972672758218,
          0.48251615843237583,
          -0.0989808119096961,
          0.33911598115290986,
          0.2366142395055819,
          -0.529439752760727,
          -0.0373631879495101,
          0.5026766049220248,
          -0.5256747140600362,
          -0.5513634036074544,
          -0.4932822201729556,
          0.41501547801741223,
          0.17762248134965142,
          0.252093981570803
        ],
        [
          0.28432400709324124,
          -0.5672474410173255,
          -0.377648090145902,
          0.4433986683930027,
          -0.12776189476536332,
          -0.5479602725389621,
          0.5276590827979237,
          -0.33669498247371055,
          -0.08824322974070165,
          -0.1024036838064395,
          0.45168323790492004,
          -0.22454803726025607,
          0.3056877460553986,
          -0.5220689086291495,
          -0.5435569772408925,
          0.582265882932953,
          0.008858300730639312,
          -0.40742562384459446,
          0.41172768566956264,
          -0.14819746911296072,
          -0.1831797889114225,
          -0.35955770152397226,
          -0.3577599013236353,
          -0.3023659143724483,
          0.5637147147473203
        ],
        [
          -0.04720625180128546,
          -0.5053873106434142,
          -0.38647253472738474,
          0.1901856123049478,
          -0.378339156269222,
          -0.1813502360871777,
          0.38070142771029514,
          0.48655884723606624,
          -0.08058459212100066,
          0.4485064040336546,
          -0.5449944361543859,
          -0.4829377887129481,
          0.5901050654238487,
          0.16575323628804794,
          -0.5393786348987935,
          0.5098206158026946,
          0.6088830905473783,
          0.15591449926595935,
          -0.03526699305019998,
          0.25076544004947965,
          -0.4563080378008932,
          0.5735678371113788,
          0.3988602017816927,
          0.4118319007908864,
          0.1524924170949128
        ],
        [
          -0.5285856311888878,
          -0.4095975777154034,
          0.362522019754858,
          -0.5468163996540202,
          -0.36933411678547656,
          -0.5503581744043617,
          -0.46220415495326,
          -0.47759871801495746,
          -0.08497871310178473,
          0.45964778125079664,
          0.3733622576713471,
          0.17477640947508866,
          0.11007691359555039,
          0.4228147126124362,
          -0.22191034823266842,
          0.2811637393445494,
          0.38940815746739776,
          -0.511919547514211,
          -0.15413945188750622,
          0.5225433973907647,
          -0.05434859870373743,
          -0.48099510465622475,
          0.2561481829356057,
          0.3106741405363468,
          0.20339887557439817
        ],
        [
          0.11066882171273429,
          -0.05969456081042834,
          -0.23022013219321125,
          -0.4637230571216191,
          0.21984227297369652,
          -0.2511269679740867,
          0.5541981404224514,
          0.15704020378345895,
          0.36636743056847276,
          -0.5759223154536056,
          0.14123852361433908,
          -0.46370961164466407,
          -0.511501677217267,
          0.3613323719599272,
          -0.5184873810234929,
          -0.4655658942368336,
          -0.04584801687125639,
          -0.32204920222256933,
          0.07180087029309257,
          0.5972326685270339,
          -0.3441323898021676,
          -0.5398691798872935,
          -0.25528297274033684,
          0.466654201117201,
          0.5485362461285528
        ],
        [
          -0.568697176716281,
          0.4602342807836364,
          -0.5428204983415522,
          0.3813962032735301,
          -0.6041558571909976,
          0.48744198404195416,
          0.3026042350064476,
          -0.4602379285295105,
          0.42929461905569877,
          0.04695109140988374,
          0.4945822809009237,
          0.23026404415503232,
          0.48501495443424925,
          0.06339601252961047,
          0.5330593720887717,
          0.3430622520226796,
          -0.39416713768981504,
          -0.14439368611151704,
          0.40383374625268487,
          -0.3145342178185039,
          0.5775178564866394,
          -0.11893903285185353,
          0.4381322774762182,
          -0.2985070697106767,
          0.1568197789743272
        ]
      ],
      "dt_proj_w": [
        [
          0.19872536810814345
        ],
        [
          -0.27518831155402057
        ],
        [
          -0.5243180209893863
        ],
        [
          0.21286531829929
        ],
        [
          -0.4668304268382637
        ],
        [
          0.8817462590449373
        ],
        [
          -0.3536152506496828
        ],
        [
          0.8656176889898742
        ],
        [
          -0.8692018227615973
        ],
        [
          0.433768922958334
        ],
        [
          -0.8546156052921358
        ],
        [
          -0.843563123776943
        ],
        [
          -0.49974099295916696
        ],
        [
          -0.3953203685123349
        ],
        [
          -0.7526812603244581
        ],
        [
          0.19951084726539003
        ],
        [
          0.028901910757266225
        ],
        [
          0.2733369504480233
        ],
        [
          -0.2154188516902641
        ],
        [
          0.9086400024337681
        ],
        [
          -0.9333722690497738
        ],
        [
          0.6900211435390388
        ],
        [
          0.1711955103300472
        ],
        [
          0.790945337441768
        ],
        [
          -0.6809644728286806
        ]
      ],
      "dt_proj_b": [
        -3.5024400336609895,
        -2.333282733338211,
        -4.490129050519604,
        -4.303220365725461,
        -1.0476139574010657,
        -4.206025197405628,
        -2.058863978849633,
        -4.777886275088034,
        -2.4241781062064995,
        -3.6829708597214896,
        -1.8555350257244254,
        -3.2645887076429023,
        -3.4321117170827926,
        -1.4871864987942862,
        -3.3865625025060755,
        -2.9663052878796092,
        -3.5322415722042955,
        -4.217541282432691,
        -2.650521197126939,
        -3.573630956638226,
        -3.1252645493588784,
        -3.3051002902461297,
        -2.1012728604835402,
        -1.7208552621940796,
        -0.776509876108638
      ],
      "a_log": [
        [
          0.050955253649770604,
          0.8164898885309593,
          2.778503781521649,
          0.8277497765356514,
          1.6772494843948673,
          1.6846872771722448,
          2.4925319718387566,
          2.3023982921513624,
          2.3862465339848407,
          1.6192930984294043,
          3.1059842931035586,
          4.103248437527171,
          2.8018889175917367,
          2.409719042812344,
          0.8932474710690613,
          1.4714662711424358,
          0.9466988532274494,
          2.9198844056544973,
          1.7561119312826423
        ],
        [
          -1.4685086236479146,
          2.003036704481508,
          -0.8761348280730635,
          3.235580757733281,
          -0.2806539473366572,
          -0.1315827455617009,
          1.5370910770161683,
          0.14214093260996477,
          1.795953880399304,
          0.9300865875953632,
          1.6669191361811397,
          2.826117947092768,
          2.0726471731112035,
          2.7015609661059097,
          2.6226622314376593,
          2.5465066476206877,
          1.0546757019763207,
          4.261629720746888,
          3.260055948038865
        ],
        [
          1.9337329230110494,
          1.6670401881653474,
          1.7807360123580336,
          2.9962696912658044,
          1.432328191659105,
          2.0335770218254345,
          3.2917303011600225,
          1.4784259508673698,
          0.5778629773016875,
          1.4877964743315508,
          2.1923564410312717,
          2.5086132192277923,
          2.520652335040295,
          2.5011850612342563,
          3.843451101994518,
          3.2272639102866365,
          4.73499877972417,
          2.4571781598435436,
          3.281787014787001
        ],
        [
          0.037535574423048335,
          0.964480439922724,
          2.0844323461143413,
          2.0086554018198095,
          2.9634754087792414,
          1.7936817815609065,
          1.7619277885037683,
          2.0612239213821577,
          0.9985882819815648,
          2.9965215124977496,
          0.8218077392273535,
          2.4935397657867666,
          2.74026988984401,
          1.2189353555090503,
          3.6792979105152397,
          4.2979131350511235,
          1.5417218430883568,
          2.621012783599473,
          2.9660255678214273
        ],
        [
          0.3643264619560047,
          1.1049031102973483,
          1.471334059851314,
          1.4910764401345682,
          3.5584364650749984,
          1.65483603940237,
          2.1834885532326993,
          3.956804028117835,
          1.074795012947995,
          1.4355327053012263,
          2.7251647764783162,
          3.095362455402819,
          1.5378297922577309,
          2.340484618310746,
          1.4226628800582026,
          4.2545729616646035,
          4.694453333111538,
          2.907988263034754,
          2.774717795320424
        ],
        [
          0.12443238663423317,
          1.1227830157068723,
          2.484361965707504,
          2.7709037369661607,
          1.6279169655429355,
          1.9000885021414575,
          1.877117121057765,
          0.5579481886133859,
          2.114190863939511,
          2.9940662466817303,
          2.370484469381564,
          1.6696937166156411,
          2.8710420755877486,
          2.0871158571273183,
          2.919918019248701,
          2.510418075645882,
          0.8902208417532187,
          1.1731195323593708,
          1.2960866701710632
        ],
        [
          -0.2246726158242145,
          0.5706211071822453,
          2.995447713619418,
          0.3359351479008429,
          2.128748769661282,
          1.721804910149226,
          1.9380673856553934,
          2.761440515715366,
          2.389877560796219,
          0.645907847134922,
          2.0817357814054747,
          4.148218687336531,
          2.548159834280443,
          3.4178759986631397,
          4.275324317028752,
          3.284984200622587,
          3.935659169137173,
          1.7801764249671594,
          3.47626986860886
        ],
        [
          -0.2633015131290961,
          0.07515766242918698,
          1.1223096015968796,
          0.9184973733985338,
          1.6525514705596034,
          3.6534562563314195,
          3.238683156167304,
          3.408786466905564,
          1.8974727252385342,
          4.199422306382052,
          0.8653433906743477,
          3.553927278104859,
          2.9134328204596738,
          1.0143337347134547,
          2.185482459564838,
          2.371498792801106,
          1.1271652319515995,
          1.6628217672809706,
          2.1755822600867933
        ],
        [
          -1.0840062229551108,
          0.6792886377953431,
          1.4216005427286251,
          2.7827040989366596,
          3.1891815269817565,
          1.9096390741370683,
          2.4227405288520263,
          3.7748897395899026,
          2.4643115394767117,
          2.9729243609351603,
          1.2438689158949041,
          4.144153534301003,
          2.9037328996411893,
          2.8544439167548004,
          2.465243614851114,
          3.368076775871824,
          2.1795151340720853,
          1.7566180166748113,
          2.934880832218987
        ],
        [
          0.7634246843639518,
          1.114355836733747,
          1.3893694815858961,
          0.8648947426116649,
          1.6438536078364379,
          2.035588914436847,
          1.9734516085220009,
          2.0564485922985405,
          0.26882019428350673,
          1.5580840281158355,
          4.229551046349483,
          3.772738208156982,
          2.627005333409052,
          4.393985317247602,
          4.408802593705619,
          4.5105955388602315,
          4.63411771845427,
          4.859912953971783,
          2.9506513242029673
        ],
        [
          0.871061860170848,
          0.07237555775568172,
          2.1126374556576586,
          1.4313687220033662,
          -0.09445606328292788,
          1.773273830670237,
          2.149138247744893,
          2.0458881341550077,
          2.2144545119296577,
          0.4051874434589675,
          3.318477948387063,
          2.8572920221639224,
          3.4614877455423883,
          2.1232251984600126,
          2.7459027144201635,
          3.175196789768238,
          3.451088091261309,
          2.635202031490166,
          2.654261878572811
        ],
        [
          0.9202066828904645,
          -0.24600868713348234,
          1.4166477532222614,
          0.49846156523642304,
          1.3220874739999924,
          1.766415204280014,
          1.9417334153624979,
          1.9055263150101016,
          1.247505451595341,
          3.486573631929412,
          0.4570157467468605,
          2.360621018754698,
          3.669198889397552,
          3.1162249551422363,
          4.194423265219323,
          4.065312372591469,
          4.74243537736081,
          2.963610884188875,
          1.8381808359432545
        ],
        [
          -1.0438011064461148,
          0.8222996607761148,
          0.5771193941480657,
          1.4242372221862187,
          2.1881970537966264,
          1.3257190227677573,
          2.2620330403699125,
          3.2115602837469526,
          4.066935119867712,
          3.4927924574051867,
          2.399067661379345,
          0.9001973023527137,
          2.7380512205643885,
          4.124966843571687,
          2.067516611208406,
          2.6719443299955823,
          3.225524231059205,
          1.5169265745521683,
          2.7441997337396504
        ],
        [
          1.6130457789669066,
          0.455056145712305,
          -0.335704076367759,
          3.136066732473279,
          3.347201366349174,
          2.89336192162715,
          1.9975183790171,
          0.9584509520448614,
          3.3550030932048456,
          0.4555882052957777,
          2.1169671913906933,
          1.1031698124080136,
          4.175825022607313,
          1.0961872954137735,
          2.03393124766592,
          3.643605515980007,
          2.0085702550597113,
          1.887665386863604,
          2.866349339948296
        ],
        [
          -0.07422858904792529,
          0.8763167173298396,
          -0.8845980010851828,
          1.768138111782471,
          0.35473634789974884,
          -0.0951285656895669,
          2.0814451925601487,
          2.3359133612385614,
          1.8541892591625186,
          1.0356192917643268,
          1.0845169257621645,
          0.9325411579417336,
          1.3395159555072707,
          2.397185338620976,
          1.0022296940719055,
          4.641834143785299,
          1.1316468912728823,
          0.9023875191191716,
          3.4460891140568233
        ],
        [
          0.48283122176886506,
          2.5591361007692472,
          0.9490331074524829,
          0.8871556594754089,
          2.806089330289442,
          0.7605505026929921,
          2.051171463593348,
          0.1642424014150409,
          2.455533608270713,
          1.031087804424489,
          2.3385117386884966,
          4.42547654775872,
          2.5988992012355707,
          2.2227044744245568,
          2.9922286598661465,
          2.775538548887314,
          1.5436664572028937,
          2.902264372995561,
          3.3234365712181204
        ],
        [
          0.9970955673572628,
          1.2156197468070027,
          0.8425373074788047,
          3.203298702121675,
          3.136014437501573,
          1.3916325421481905,
          0.6862324309558829,
          1.244828932035382,
          4.021731756871148,
          3.9246813209419837,
          0.7577164356806019,
          3.5162644748234215,
          1.60847154099621,
          1.66304287218579,
          0.9301498257750815,
          3.3466988843448338,
          2.799859220715063,
          2.335971346554331,
          1.1372867784933254
        ],
        [
          -0.09215018114426776,
          2.248184790508169,
          0.7698735152914236,
          2.723575248062578,
          1.4886603984668723,
          1.5625886631494754,
          3.3687037778595537,
          3.4834914564798996,
          3.3523134502516987,
          1.58015568897182,
          1.6222648854726087,
          0.7616270206976595,
          3.9017556159465805,
          4.449123199092827,
          1.4274862827888377,
          1.3052774064054418,
          3.2927410324456488,
          2.6646813298071503,
          1.3578027273227307
        ],
        [
          -0.03217176728194393,
          -0.13634947499527383,
          0.2499789020933998,
          1.2885965495077543,
          1.8438883276474807,
          1.7711967845436252,
          2.0312188642554565,
          2.2698701003064357,
          0.4224895365522604,
          3.2923825426745115,
          1.3189633874259794,
          2.2500604117122815,
          3.0197242851913466,
          1.3237867769536282,
          2.4682470178199263,
          2.999151126642931,
          2.7833339066069556,
          2.940611001440184,
          1.2364438651705294
        ],
        [
          0.5393023790407283,
          2.022393564132949,
          1.586299712322688,
          1.3853482615413557,
          -0.30244554967837345,
          2.9724592835279857,
          0.6517211968347705,
          2.266243095079515,
          2.156012002408084,
          4.105511756714105,
          2.992911293085037,
          3.39284870904423,
          2.3881886794357423,
          0.7663564051156957,
          2.9682396266125157,
          4.03325201049776,
          2.8624560540515502,
          1.173881645692573,
          4.03891472314079
        ],
        [
          -0.15869255295170803,
          0.6286623144710599,
          3.0134040747735344,
          2.965205292790098,
          0.09364395471923531,
          1.726637361657604,
          1.5594562299645045,
          0.12149761784185044,
          3.719799512689264,
          3.924479283864416,
          2.635462917928711,
          3.0217145483870627,
          2.854799533239568,
          3.803215204711677,
          2.7977107152626495,
          1.309443346854804,
          1.764933154059773,
          1.4764634562030845,
          4.68975813369037
        ],
        [
          0.21417686971760963,
          2.468393378993401,
          2.134626029262736,
          0.6739473944978192,
          2.881352567358703,
          3.025448883016238,
          1.6509849199705704,
          4.069722264464741,
          2.839492541655716,
          1.7364097872212805,
          1.6819875888816136,
          2.448312998302593,
          2.0296554339351145,
          3.30644527617138,
          3.0174287841364387,
          1.1201717846253723,
          2.7185640457545412,
          3.851376846515433,
          1.489648634673871
        ],
        [
          0.008772975074739175,
          0.7227346373430783,
          1.0761434394978688,
          1.6170065946763927,
          1.6610574252831942,
          1.686939003719423,
          1.9798808725597439,
          1.4977037284350954,
          2.029438636392635,
          3.912323593543389,
          3.3143997450392173,
          3.7441408220716346,
          2.4970815808881324,
          1.9757731667246214,
          1.810929411991882,
          2.7185246400781686,
          3.15516420750443,
          1.563694048934137,
          2.138666799294778
        ],
        [
          0.39243306365955766,
          0.6151912220520415,
          -0.30431084962532295,
          1.7240907684327722,
          3.2052101235515877,
          3.203073431195807,
          3.593003350489994,
          3.653100371687007,
          1.1549363274183346,
          4.25721971871429,
          3.787987741046136,
          1.425590439719714,
          2.6815559538087865,
          0.932388315770549,
          4.596905800620464,
          2.7710165534312763,
          4.815655197253083,
          2.574729206908853,
          1.5223245541463404
        ],
        [
          -0.2167211616900535,
          2.302923234976063,
          2.350333141072287,
          0.3662665578405325,
          -0.3661232695518056,
          2.2680602347449432,
          1.1314431235962417,
          2.2282751835584924,
          2.0644782099142276,
          4.1693477886145,
          1.3627823065084035,
          1.472338619581669,
          1.0928370369836111,
          3.50003456819017,
          3.2259183115047567,
          3.9604608443021454,
          4.743836241400359,
          1.5566130464223442,
          2.317389007428198
        ]
      ],
      "d_skip": [
        1.1424110237740361,
        2.1875451796096663,
        1.1973350467726083,
        0.4904796394974005,
        1.9424707122961342,
        1.0904797385660294,
        -0.9465334910149188,
        -0.9839226734789471,
        0.6710067668729265,
        1.040215100317163,
        1.6524293747369834,
        1.1601671463306302,
        1.0173222183373087,
        0.9302936768078964,
        0.7930046924761138,
        0.05418629236094019,
        1.5501433496884718,
        -0.6792800204006417,
        2.6918080771239152,
        0.9667400391064571,
        1.2139059944424124,
        2.8046150308808553,
        1.0205458489929402,
        0.7051557260167804,
        1.0452744625124035
      ]
    },
    "layer_2": {
      "w": [
        [
          -0.3894667353981258,
          -0.0500813040335365,
          0.3596825286256158,
          -0.272368138510801,
          -0.1033182064425886,
          0.9381097095495239,
          -0.11855637244771988,
          0.28891618350495296,
          -0.3521363579519865,
          0.2423882956143657,
          0.3630750824895199,
          0.16005627321540072,
          0.5979045634205189,
          -0.8334142616094277,
          -0.21751015105089555,
          0.4120110727812061,
          -0.16448038081315852,
          0.30410816620417225,
          0.06301698432349245,
          -0.9107208598846774,
          0.005009229536834248,
          -0.11604840337958955,
          -0.5481969122191332,
          0.9046568687450982,
          -0.2733888660594088
        ],
        [
          0.9347100673709505,
          -0.4005457175648607,
          0.8213999539328283,
          0.6666265907460525,
          -0.17783584606584402,
          -0.16453476919024568,
          0.8314731262913038,
          0.9244668329092447,
          -0.25507709254287636,
          0.9179790183449983,
          0.6950927521931183,
          0.30919522110188,
          0.5410302170921382,
          -0.7383149037956294,
          -0.9331728765420705,
          -0.3316213512620281,
          -0.229482399041128,
          -0.7263280378021016,
          0.051035761445618055,
          0.7812471445536742,
          -0.30317231711790005,
          -0.8677103144880586,
          -0.9003241298580887,
          0.610918859953538,
          0.8721329687407413
        ]
      ],
      "b": [
        -0.6145322182276833,
        0.6260697481019772
      ]
    }
  },
  "input_mask": [
    0,
    2,
    3,
    5,
    6,
    7,
    11,
    12,
    18,
    19,
    27,
    28,
    29,
    30,
    32,
    33,
    34
  ],
  "ablated_input": null,
  "ablated_value": 0.0,
  "output_param": "atan2_signed",
  "scaled_pi_n": 1.0,
  "delta_max": 0.35,
  "normalization": [
    {
      "transform": "none",
      "scale": 0.8655390346546353,
      "center": 0.9204641308303162
    },
    {
      "transform": "asinh",
      "scale": 0.8175600848274288,
      "center": 0.8867681772014051
    },
    {
      "transform": "asinh",
      "scale": 462.6300273768903,
      "center": -333.1697854608212
    },
    {
      "transform": "none",
      "scale": 5413222.0902614985,
      "center": -508770.60939412704
    },
    {
      "transform": "none",
      "scale": 1157.3507227945558,
      "center": 4549.679429911598
    },
    {
      "transform": "asinh",
      "scale": 10.358129862795693,
      "center": 12.17320223341297
    },
    {
      "transform": "asinh",
      "scale": 0.33924629426269115,
      "center": 0.40005844701414567
    },
    {
      "transform": "none",
      "scale": 0.42411593596120784,
      "center": 0.42858041580763234
    },
    {
      "transform": "asinh",
      "scale": 33.09832239288295,
      "center": 82.65759631477488
    },
    {
      "transform": "asinh",
      "scale": 0.0911362193061205,
      "center": -0.04718278665783951
    },
    {
      "transform": "asinh",
      "scale": 0.2151370816795333,
      "center": 0.29274513397808116
    },
    {
      "transform": "asinh",
      "scale": 9.832939972853932,
      "center": 11.55598244317186
    },
    {
      "transform": "asinh",
      "scale": 3.256400734674897,
      "center": 3.827025266270693
    },
    {
      "transform": "asinh",
      "scale": 5107742.117847206,
      "center": -3590633.2113008387
    },
    {
      "transform": "asinh",
      "scale": 10217099.16686349,
      "center": -6706141.091617538
    },
    {
      "transform": "none",
      "scale": 0.5,
      "center": 0.5
    },
    {
      "transform": "none",
      "scale": 1e-6,
      "center": 0.4262529995153208
    },
    {
      "transform": "asinh",
      "scale": 594.4827404994671,
      "center": 716.3429422450554
    },
    {
      "transform": "asinh",
      "scale": 412.89140647256187,
      "center": -302.7939124482325
    },
    {
      "transform": "asinh",
      "scale": 154.12675819494976,
      "center": -169.7611160606572
    },
    {
      "transform": "none",
      "scale": 1.5707963267948966,
      "center": 1.5707963267948966
    },
    {
      "transform": "none",
      "scale": 0.1,
      "center": 0.0
    },
    {
      "transform": "none",
      "scale": 3.141592653589793,
      "center": 0.0
    },
    {
      "transform": "tanh",
      "scale": 30.0,
      "center": 0.0
    },
    {
      "transform": "tanh",
      "scale": 100.0,
      "center": 0.0
    },
    {
      "transform": "none",
      "scale": 1.0,
      "center": 0.0
    },
    {
      "transform": "none",
      "scale": 1.0,
      "center": 0.0
    },
    {
      "transform": "none",
      "scale": 1.0,
      "center": 0.0
    },
    {
      "transform": "none",
      "scale": 1.0,
      "center": 0.0
    },
    {
      "transform": "none",
      "scale": 1.0,
      "center": 0.0
    },
    {
      "transform": "none",
      "scale": 1.0,
      "center": 0.0
    },
    {
      "transform": "asinh",
      "scale": 17774.23743300369,
      "center": 20521.130577512882
    },
    {
      "transform": "asinh",
      "scale": 500.0,
      "center": 500.0
    },
    {
      "transform": "none",
      "scale": 60.0,
      "center": 60.0
    },
    {
      "transform": "none",
      "scale": 100.0,
      "center": 0.0
    }
  ]
}