{
  "format_version": 2,
  "architecture": [
    {
      "type": "dense",
      "input_size": 17,
      "output_size": 72,
      "activation": "swish"
    },
    {
      "type": "dense",
      "input_size": 72,
      "output_size": 36,
      "activation": "swish"
    },
    {
      "type": "dense",
      "input_size": 36,
      "output_size": 2,
      "activation": "asinh"
    }
  ],
  "weights": {
    "layer_0": {
      "w": [
        [
          0.5126280699082845,
          0.2243119584125317,
          0.12655257596516611,
          0.12868972327230865,
          -0.30439768786811217,
          0.10860344335149452,
          -0.05461409553028518,
          -0.279211880952293,
          -0.4811295642215766,
          0.2455381256396263,
          -0.0608369065644111,
          -0.46755673926655306,
          -0.13314930143786707,
          -0.22368560743989185,
          -0.47658247286698546,
          0.11809933048044619,
          0.12170085526075791
        ],
        [
          -0.18589456735445575,
          -0.12839610034256504,
          0.013704818943179875,
          -0.10454731703385789,
          0.22394286059755963,
          -0.37267119743750876,
          -0.39643925411198794,
          -0.1692589180221974,
          0.05996456373708525,
          0.45823422191324914,
          0.1654720225979932,
          -0.3026812752175372,
          -0.07608465701662948,
          0.17270334395383102,
          -0.5140982226281691,
          -0.36558348786226746,
          0.21924516969510277
        ],
        [
          -0.3521667819849247,
          -0.19986947073577643,
          -0.41684359172102703,
          0.07756485217386855,
          -0.1110625931556079,
          0.19669842003352522,
          -0.3524934811140674,
          0.416775432439798,
          0.35333077478926034,
          -0.13940706246373802,
          0.24281422851985723,
          -0.29464738610459223,
          0.20808081116531651,
          0.24911598460596884,
          0.4318353208211333,
          0.23966462516050624,
          0.06369671694308321
        ],
        [
          -0.31183571098513796,
          0.20600698850830723,
          0.05379795890553041,
          -0.20965641393068202,
          0.4734198912744342,
          0.10978596115088801,
          -0.030624833175593724,
          -0.27578839926798415,
          -0.16830850485580473,
          -0.06886700359039016,
          0.14110469705385786,
          0.3432105549214364,
          -0.27701638246297344,
          -0.21203880006200015,
          0.037139480558163074,
          -0.09583056663383971,
          -0.3008496735502342
        ],
        [
          0.2771518300487832,
          0.43649162085104387,
          0.2460467490050673,
          0.36579749569674747,
          -0.44633356972604543,
          0.32657673875488835,
          -0.11530492281440113,
          -0.01066861363264715,
          -0.20579416876138318,
          -0.32363988326450344,
          0.5053982941161735,
          -0.18470925025281987,
          0.48625196683150895,
          -0.13739388454407908,
          -0.47467183962910936,
          0.5124502858896681,
          -0.41576727377594774
        ],
        [
          -0.25613499014898466,
          -0.38816532357482325,
          -0.3428337532072071,
          0.09285581769455475,
          -0.3591641108321877,
          0.2674182294856714,
          0.4291210459013287,
          0.02198013694020229,
          -0.1485890591528808,
          -0.08004623597953514,
          -0.24515911526551132,
          0.010751982260929327,
          0.01579884597844816,
          -0.362651490860193,
          -0.0459165236748203,
          -0.2328674602182142,
          -0.029974243189025307
        ],
        [
          -0.26652453610113225,
          -0.22719489141959237,
          -0.37581061400745575,
          0.42561161282634696,
          -0.21883218691344508,
          -0.4527441864200654,
          -0.3820087608553303,
          -0.024402459308717372,
          -0.14819678650314133,
          0.360619445896039,
          0.23002334741631614,
          0.24654030617099243,
          -0.2864730030383036,
          0.287806573247255,
          0.47088093329421876,
          -0.21316898524023825,
          0.05644935154404129
        ],
        [
          0.16779954148304976,
          0.4168626975082461,
          0.3641320312516211,
          -0.39307968748028144,
          0.3724683440184674,
          -0.18054503562302093,
          0.16397227980568863,
          0.03167055990293033,
          -0.0434101497263481,
          -0.2229813748620857,
          0.5091026974235912,
          0.32007488400384065,
          0.5187751885113322,
          -0.24338525318075727,
          -0.39169614309588874,
          0.41140579739761596,
          -0.2596443570804817
        ],
        [
          0.47889203409845826,
          -0.12223239810946701,
          0.39190627211885853,
          -0.1683616543473515,
          -0.12669166864889397,
          -0.3400697721290038,
          0.439309351944456,
          0.1560119052687906,
          0.5029643649308836,
          0.1923151189708987,
          -0.49007073672424784,
          -0.1274858444005182,
          -0.3901339678988463,
          0.2967453593377746,
          -0.09717596741470502,
          -0.09127151009297219,
          -0.4010325668073327
        ],
        [
          -0.5121604140452433,
          0.3634186936478493,
          0.4805728140320107,
          -0.08329642216059868,
          0.13745578726390006,
          -0.12324115260466545,
          -0.05904635009732634,
          0.41900048639418586,
          0.0039729418209261125,
          -0.4208726288300277,
          -0.016978640516526977,
          0.4937244617653048,
          -0.3361611832329464,
          -0.16299026986890397,
          -0.17317912376449368,
          -0.19711199917338945,
          -0.1451988712064431
        ],
        [
          0.12771929816091587,
          -0.4004230837052672,
          0.0869944460659261,
          -0.1062855664964919,
          0.37609495445964636,
          0.36809034253152983,
          -0.27180802807354143,
          0.4298411531854701,
          0.14230291222784908,
          0.12461176379548966,
          -0.31077852583706633,
          0.02918786810861751,
          0.4559699630595099,
          0.3624661751267836,
          -0.12140585013906469,
          0.20098731426823424,
          -0.516628329307113
        ],
        [
          0.5169089689909553,
          -0.3573748068041973,
          0.24562545626699372,
          0.25545391097543124,
          0.5192422366866666,
          0.2215028880535853,
          -0.4963689879156782,
          -0.4489635856300386,
          0.011109334899168544,
          0.30559299610182844,
          -0.45411012720594524,
          -0.4627054178211801,
          0.32329688399219314,
          -0.08685389796472309,
          -0.247031650495026,
          0.022229801368487068,
          -0.27968583639499595
        ],
        [
          -0.26962002108777633,
          0.07777093283115699,
          0.05390797762143518,
          -0.27596827289828485,
          -0.19473207997233338,
          0.3989267432085578,
          -0.040810598846943213,
          -0.1476500351962341,
          -0.18210671726558103,
          0.2044909063728063,
          -0.32605888383930476,
          0.3103098655049815,
          -0.03974442090601832,
          0.24685856825371355,
          -0.3282384716682685,
          -0.4330785387495717,
          0.46066764166270024
        ],
        [
          -0.3944692399322365,
          0.3283566331121276,
          0.22514983753803464,
          0.026398833918853337,
          -0.3992266734870653,
          -0.17228367386140453,
          0.34991416282098475,
          0.0967328498597485,
          -0.09793954933609844,
          -0.4999487513166592,
          -0.054635190814177004,
          -0.23449064526662133,
          0.5073713009277011,
          0.3524404423716576,
          -0.11843041024715001,
          -0.12892025009356622,
          0.03716290526893118
        ],
        [
          0.15473860103260528,
          0.43224042359360837,
          0.16815740511132682,
          -0.18533625472721688,
          -0.2101212072179215,
          0.4744911426230888,
          -0.38579838058016747,
          -0.5153367357184833,
          -0.074447486120791,
          0.2501961861686637,
          -0.3664256858272647,
          -0.03739062042812347,
          0.40015880507916424,
          0.24863390570768018,
          0.18442068871026474,
          -0.25213759025994076,
          0.4640108823956819
        ],
        [
          0.5160159517157513,
          -0.307139061484473,
          0.19534393201257327,
          -0.47834469618366093,
          0.46116505232697746,
          0.30950865994783294,
          -0.12942998705339526,
          0.3179847806881305,
          -0.12326089136766644,
          -0.5187737762846317,
          0.34613473566337627,
          -0.26736798296512343,
          0.16484241365600638,
          -0.4388239129803071,
          -0.13751356667860315,
          -0.13506758060930912,
          -0.10347364943791232
        ],
        [
          -0.29445767894064856,
          0.5062913050959438,
          -0.40326340645192515,
          -0.5103616303873583,
          -0.44504632804141186,
          -0.20387410677108542,
          -0.04927402768241235,
          -0.15815520164921792,
          -0.09163853502764546,
          0.46800936824158534,
          0.11529667322322956,
          -0.12824001755658831,
          -0.44134161494481305,
          -0.0056161330734600945,
          -0.36044897146492816,
          -0.34831236348780226,
          0.5187991724684299
        ],
        [
          -0.16710300425011776,
          -0.4429892154588423,
          0.44448456883506904,
          -0.4574234917880452,
          -0.44170617195691425,
          -0.4236601452017872,
          0.23633510555841253,
          0.4065915335747058,
          -0.4347812919864245,
          -0.09019662116015942,
          -0.399657112085021,
          -0.31142291977114983,
          0.2581251034186678,
          0.48262892582055306,
          0.5055089552767925,
          0.25574930979947563,
          -0.49941626777743525
        ],
        [
          -0.4972168676748767,
          0.1842624470045955,
          0.4892635894725009,
          0.4469992754632496,
          0.2282795322146779,
          0.3644586447144328,
          0.20487429646147692,
          -0.035700501352223524,
          -0.3648496059449827,
          0.464061861229055,
          0.24755721411473586,
          0.4384000925954391,
          -0.08988406062922916,
          0.4542395461949742,
          -0.3828596632322453,
          -0.07257545135199972,
          0.41657827980846973
        ],
        [
          0.43300160525099196,
          -0.11835548262638451,
          0.13190371578751514,
          0.5080875563213695,
          0.352432739436794,
          0.37740045168566627,
          0.21930985004282155,
          0.49428490976907125,
          -0.5063187759813643,
          0.3324091994974545,
          -0.3141973329034654,
          -0.2728574905941439,
          -0.39283983804336425,
          -0.40984428253508776,
          0.4256804375197587,
          -0.5046588848278178,
          0.4093311764314338
        ],
        [
          -0.1906660088434175,
          -0.3699535128501622,
          0.12821018588654076,
          -0.37374287218680713,
          -0.23185979501383075,
          0.5015573959388101,
          -0.1805345320692231,
          -0.15237529111533538,
          0.04370336544903086,
          0.5152241106547798,
          -0.10423082182467491,
          0.4910918874123936,
          0.21601776727296784,
          0.2331693661906844,
          0.466145945048389,
          -0.4710026970432532,
          -0.4580486651602234
        ],
        [
          -0.0015735730548557259,
          -0.1659563391328429,
          -0.3961325991600327,
          0.440893847961647,
          0.31584233179937926,
          0.4729236313342915,
          -0.047424549495270474,
          0.1946536679615487,
          -0.024338044076537002,
          -0.11120958204832315,
          0.3720519926931213,
          -0.15068826100107818,
          0.07163148014525644,
          0.4774573440177552,
          0.14323124538440035,
          0.4953232301949405,
          -0.43979758699168764
        ],
        [
          -0.2872785364260584,
          -0.08405198902791594,
          -0.1263737362623213,
          -0.4397670760171084,
          -0.14228324916111423,
          -0.17335936923159434,
          -0.1963914552366503,
          0.4240764304294664,
          -0.20067131957943984,
          0.2889985922619225,
          0.2521617211169619,
          -0.33822931298138953,
          -0.19003765754958257,
          -0.15319427818742914,
          -0.5063311515927172,
          0.5018418287567638,
          0.30659104338558507
        ],
        [
          0.1479466911610796,
          -0.0788930678523852,
          0.3054188886913495,
          -0.2756235490270583,
          -0.12183889809965048,
          -0.5085119755865631,
          -0.3830163563468844,
          -0.07569798987419063,
          -0.07261039754781612,
          0.4173332788884051,
          -0.16241053218685486,
          -0.12178817063444386,
          0.25074282653454083,
          -0.15236329012030764,
          -0.47039430178533065,
          0.44292109621022135,
          0.40739115963363604
        ],
        [
          -0.436797312172427,
          0.37618566833552713,
          -0.4065638383386607,
          -0.16158340236132146,
          -0.3994770925704045,
          0.11688184157621295,
          -0.3503286717087553,
          -0.4826095430734092,
          -0.22615410874815522,
          0.48744932284982123,
          0.3097104048523762,
          -0.15701318085223614,
          -0.10438494371948503,
          -0.10351853521332316,
          -0.005105733018439418,
          -0.322983299270716,
          -0.469069322485505
        ],
        [
          0.20195802510959893,
          -0.24165372252395478,
          0.4591740947559194,
          0.5175790435177624,
          -0.19709371883675286,
          -0.28016226193136173,
          -0.0032622994999474964,
          -0.4368853244959943,
          -0.36080835731240263,
          -0.5117301021677501,
          -0.4339466276616746,
          0.03458097217737688,
          0.46123586254348026,
          0.4600514467732598,
          -0.4744850549009589,
          -0.3798693097911326,
          0.05332523933985123
        ],
        [
          -0.2576934633415238,
          0.24663971499170012,
          0.3828093979157977,
          -0.02368742089630871,
          0.28333114210095567,
          -0.42762973351061584,
          -0.02538060223827976,
          0.34176920390097076,
          -0.3349506341811472,
          -0.1669016848684936,
          0.2033075729960956,
          0.08047201741625665,
          -0.05503902879540418,
          -0.20872964644584385,
          0.10474477935027793,
          -0.2604557870378332,
          -0.4316768413053405
        ],
        [
          0.31086115342970067,
          0.19071604201736003,
          0.21463405948687786,
          -0.3748385985550543,
          0.46462462688934136,
          0.39690095098468914,
          -0.2119070924492702,
          0.38319612478330145,
          -0.22179075606489546,
          0.07753209141484807,
          -0.35109765391066095,
          -0.06695232276900198,
          0.12736869943011475,
          0.30649877325319697,
          -0.06908924842948727,
          0.4016742624076647,
          0.09779024106296386
        ],
        [
          0.18113327030944038,
          0.33130802889893585,
          0.2210206197477631,
          -0.034849758434016886,
          0.24780426968105873,
          -0.10159989868784214,
          -0.391904809531064,
          -0.2899803518038938,
          0.07699430000558183,
          -0.4706476898183496,
          0.1605380231690492,
          -0.08191199905129865,
          0.24264512359404822,
          0.22204913133749304,
          0.22003296570101627,
          -0.46982446530001587,
          -0.13624292368191904
        ],
        [
          0.2522993880650034,
          0.2710461618005334,
          0.2513915125299785,
          0.5075922498980187,
          -0.06495918324538136,
          0.04390468996025332,
          -0.2439130382040382,
          -0.3676255184724126,
          0.4191435007160955,
          0.30533147369782776,
          -0.17442636612418022,
          0.35177157235983403,
          0.380825778919169,
          -0.15096927973653274,
          0.08205597941984388,
          -0.40908071353603603,
          0.1865592710971421
        ],
        [
          0.12604146478224443,
          0.4156611085692621,
          0.12035853257356144,
          0.1449480638044881,
          0.32501944146218953,
          -0.5029418442004919,
          -0.369726889338866,
          0.46313400008918215,
          -0.14941007997452554,
          -0.2534049313159451,
          0.4424520636791125,
          0.15155689880850143,
          -0.40350688042395455,
          0.40418711774143823,
          -0.07523320721683707,
          -0.07318448741141304,
          -0.4540783878996
        ],
        [
          -0.2019339488712819,
          0.18805240129299794,
          -0.29566412940433906,
          0.2832217626604775,
          -0.22777816155148894,
          -0.5086049524045682,
          -0.14185590791425928,
          -0.5173313705518625,
          -0.09394362919456284,
          -0.30658987732025234,
          -0.32612798529153486,
          0.30971494810871725,
          -0.44490411196733726,
          -0.01787147181034654,
          0.2484970900931882,
          -0.34657085760351625,
          0.37489638529129465
        ],
        [
          -0.04715499197595674,
          -0.42644597669209283,
          -0.14404637862059144,
          -0.48580191073937645,
          0.31543611251284687,
          0.5050488341720966,
          -0.27311645726013634,
          0.41660316607997094,
          0.43763968901573047,
          0.2540159093633817,
          0.25788958183444977,
          0.467820433527776,
          -0.33866952875218354,
          -0.2943029579152293,
          0.5179773451591004,
          -0.3540728763961609,
          -0.4210478376017704
        ],
        [
          -0.37002484786867246,
          0.013414767391960125,
          -0.20507769024482025,
          -0.09408084815256113,
          0.15400502405834327,
          -0.011508605616937673,
          -0.4616268840189093,
          -0.3891346524771958,
          -0.38095444774222403,
          -0.5179417871336267,
          -0.4433570130447718,
          -0.28036457603211984,
          0.4999028255591632,
          -0.051408548268474685,
          -0.04601018192927536,
          0.3240512358740242,
          -0.13070436398932428
        ],
        [
          -0.44455689334582904,
          0.11883632031744618,
          -0.2514572538852244,
          -0.4710759201194894,
          -0.38220496684260835,
          0.3572707058627195,
          0.2961713081756022,
          0.20998910525262893,
          -0.092971757521222,
          -0.4524681448110576,
          -0.10032807757600032,
          0.03529859848131178,
          -0.14700795338170008,
          0.23664748136243197,
          -0.05340604301373347,
          -0.25113479693773,
          -0.42908125564988137
        ],
        [
          0.25892468248896294,
          0.4922183810260766,
          -0.33289545105990626,
          -0.3017712903255109,
          -0.5063363694967062,
          0.022992674776112554,
          0.30053070003206683,
          -0.375214608761653,
          -0.014272069639452156,
          0.4258546490478081,
          -0.48919830970185574,
          -0.35858731566330815,
          -0.3295165802356757,
          0.14277960439970494,
          0.17577005115316724,
          0.27714843592383376,
          0.11775070768224138
        ],
        [
          0.18837756646165116,
          -0.4129909430772388,
          0.19702392436942162,
          0.366422654390393,
          -0.3320558833726305,
          -0.3221387591707866,
          -0.34180857197951625,
          0.27725826229013295,
          0.18175680557069906,
          0.07809695345127621,
          0.24906292380747486,
          -0.47136043262095634,
          0.2954393447597278,
          -0.48420120694422986,
          0.23944700872356384,
          0.5120816137078162,
          0.23282067930274464
        ],
        [
          -0.12854555107408555,
          -0.49664423692371923,
          -0.31009580738009335,
          0.14264859869771074,
          -0.4965995284263973,
          -0.34232130704500247,
          0.3411030349108809,
          -0.1050193983996977,
          -0.1964784823373767,
          0.477224986915346,
          0.2469053137488837,
          0.21672379261491037,
          -0.4885239624791428,
          -0.16294588880088917,
          0.5025919553635391,
          -0.4655248658979866,
          0.5163491594991204
        ],
        [
          -0.5175651140189943,
          0.4691446159787114,
          -0.08858096862536302,
          0.44354910228884836,
          0.17679158075729395,
          0.05109684615846155,
          -0.33028240827627287,
          0.21747786650922496,
          0.13294554721393081,
          0.4198261421984517,
          -0.32655761074773637,
          -9.325409945248886e-6,
          0.12659297584887186,
          0.09920315227221888,
          0.023962666503248853,
          -0.4950115128671275,
          -0.12867421213638802
        ],
        [
          -0.1852731206800955,
          -0.375741115218728,
          0.11984518277074285,
          0.1303051891010263,
          0.44146075479129765,
          -0.4641447073200666,
          -0.07138941234089219,
          -0.3048761434163195,
          -0.360203566949595,
          -0.3651299979642987,
          0.46809257979833874,
          0.44238250947780966,
          -0.24945570572487846,
          -0.15271418486627986,
          -0.09900712424721869,
          -0.3834258361758309,
          -0.44732754597627855
        ],
        [
          0.4686354028923857,
          0.3004604696152319,
          -0.09223443833639416,
          0.30197086210698754,
          0.09765740132794554,
          0.5151770188050026,
          -0.01594400485699754,
          -0.21457162733798774,
          0.49922722361498695,
          0.286613801174495,
          -0.48878406962229937,
          -0.3158686175340326,
          0.04414437615391498,
          -0.2737786583245826,
          0.0168888130288376,
          0.3925869702685312,
          -0.046345934416653634
        ],
        [
          -0.4867880421436455,
          0.2753331117255806,
          -0.3118827667581363,
          -0.3927802010087404,
          -0.43325048019898604,
          -0.0550105208130946,
          0.15846625006416382,
          0.08530816402718266,
          -0.12511612554569534,
          -0.2626976208394326,
          0.16232299658190374,
          0.2918118630425338,
          0.2711949059243436,
          -0.08792104314381921,
          0.2783362921127953,
          -0.4452748751762634,
          0.4283076416225884
        ],
        [
          -0.49887588049521703,
          -0.25184440611400905,
          -0.04304727645342504,
          -0.11990706440970123,
          -0.0670018966517289,
          -0.40581067426749684,
          0.2856199377529537,
          -0.5167524886526487,
          0.43749079799059754,
          -0.17243793600437418,
          0.4623018598563259,
          0.1182264202623644,
          -0.5079627085213713,
          -0.059757166934729156,
          -0.2670654699613233,
          -0.3325902665516669,
          0.5054547650710169
        ],
        [
          -0.2952319074962736,
          0.12230159754916181,
          -0.44883531726353504,
          -0.25334919293164915,
          0.1073127333627154,
          -0.28804971387874767,
          0.30120429939883264,
          0.2190639293352582,
          -0.18866746949608898,
          -0.5181156058948458,
          -0.5172034446571021,
          0.2181579967520838,
          0.24224228864856123,
          0.2177684676830085,
          -0.13021563523551066,
          -0.2229163038839424,
          -0.2370735769298345
        ],
        [
          -0.28518231663412463,
          -0.05973018691246107,
          0.5191701560173064,
          0.4928136519970704,
          -0.235901309715201,
          -0.36831346909567153,
          0.08288383115533182,
          0.25827900138611837,
          0.2417036507654815,
          0.4534166109732397,
          -0.5097987388774928,
          0.5184138227191016,
          0.5066499637590293,
          -0.3012186129416323,
          -0.11776338001710523,
          0.42984943980561385,
          -0.5117828289192384
        ],
        [
          -0.10802336045121219,
          -0.11607569292648989,
          -0.3078361779849673,
          -0.29925372146343643,
          0.30318981039400095,
          -0.2940541255770317,
          0.3124513060309734,
          0.19449527899495178,
          -0.26600086190844713,
          -0.5179413032920985,
          -0.47357066130535186,
          -0.13214228911092812,
          -0.07029054492140585,
          0.03683885785322771,
          -0.07753724537034051,
          0.06250115384614885,
          -0.2608108485023065
        ],
        [
          0.08389495625473609,
          -0.4558115915219919,
          0.4795127388537084,
          -0.27136837181804985,
          -0.42627511748930863,
          -0.41996241009341495,
          -0.15285804752899534,
          -0.169015915760298,
          -0.11653661096676182,
          0.021441202105907164,
          0.21675494947604623,
          0.24716600748718875,
          0.5188628007827939,
          -0.22837142827827994,
          0.2064924340607146,
          -0.4925083202221019,
          0.5033619445046585
        ],
        [
          0.17467620077617296,
          0.357802563415647,
          0.10690408854811517,
          -0.20126215691678656,
          -0.4716686455833141,
          0.12298700561338538,
          0.3063368354103264,
          -0.05213456304283087,
          0.41006447318751205,
          -0.4904372404799772,
          0.22494862988690745,
          -0.30487247635785275,
          0.494583049126159,
          -0.5101793108911268,
          0.38307142552582485,
          0.10670593665380046,
          -0.016528572132829322
        ],
        [
          -0.3890870284286128,
          -0.009290153589968875,
          -0.07318396644953695,
          -0.22392784678067174,
          -0.2974642673482557,
          -0.22449310294960817,
          0.4673093775665834,
          0.517310372552055,
          0.22714626004063843,
          0.5069457073057423,
          0.5191738920938177,
          0.14178630593417618,
          0.4940148325560595,
          -0.32197004156863474,
          0.41119642118808286,
          0.4339102553788359,
          -0.06478531956433942
        ],
        [
          0.26581049178647687,
          -0.1077832113538062,
          0.23510835588966006,
          0.36424861470920755,
          0.42662155639632393,
          -0.018440980970967913,
          0.2775522832987227,
          -0.26203647726265233,
          0.4987091521398558,
          0.33369824447281116,
          -0.49765815772147953,
          -0.38306414388944704,
          -0.4112060931338766,
          -0.4153783060965658,
          0.1430760795402417,
          0.09016435230825859,
          -0.41232124290595457
        ],
        [
          -0.3096966322713758,
          0.3613266313562793,
          0.44431981865459536,
          -0.005537379938162612,
          0.3798126285067631,
          0.508003510417817,
          -0.16487493499437061,
          -0.12680621614633758,
          -0.08056922489966495,
          0.45463648690671954,
          -0.05059524828784506,
          -0.29960452114525526,
          0.11395495017199053,
          0.09571922431136248,
          -0.06586367432692508,
          0.5167153001472159,
          0.3648877169587713
        ],
        [
          -0.17218327426629382,
          0.5168712848330258,
          0.4744880255446331,
          0.24379393575731467,
          -0.5186152544373536,
          -0.05340967445216588,
          -0.19239281322958174,
          -0.31473629240829926,
          -0.0444441223960525,
          -0.4597875824276882,
          -0.4191199636278862,
          -0.17105360610176773,
          -0.17751790995112837,
          -0.041621101944266214,
          0.18094360963070455,
          0.02623651645489211,
          -0.3563363170170248
        ],
        [
          0.33041652695651413,
          -0.287582299897011,
          -0.49894557356467667,
          0.2826483814886228,
          -0.09188017440371116,
          -0.39874451941405337,
          -0.1067557788660618,
          0.44155396326434704,
          -0.29529461955693004,
          0.48385676215438156,
          -0.17127262326048864,
          -0.13233518771057268,
          0.3780756185126384,
          -0.2574236799896232,
          0.4579846469274831,
          -0.2521645579703964,
          -0.39776339106236824
        ],
        [
          0.012303573435136994,
          0.28256885464103865,
          -0.397209758280612,
          -0.31268206588295844,
          0.08687289528493147,
          0.11360797945415946,
          -0.3756128024695925,
          -0.502232379192616,
          0.2904089429842569,
          -0.30077240737659816,
          0.4591973258049423,
          -0.3598513456203689,
          0.33531601838146874,
          -0.07664598309974063,
          0.3603761328645959,
          0.2151014787908363,
          0.0009529547028914731
        ],
        [
          0.1195395537241839,
          -0.013645091334008486,
          -0.27889934681722234,
          0.08991726491864405,
          0.4669030423135728,
          -0.01476099653130969,
          -0.05427299524446183,
          0.17095444828784168,
          0.3473491440831278,
          -0.193581861054746,
          0.25754948634193797,
          -0.09079499318872397,
          -0.1211149457285689,
          0.025764478927844614,
          0.02420954821894905,
          -0.3444024460019467,
          0.3596123536180992
        ],
        [
          0.3576440197319628,
          -0.434989250905215,
          0.3211244694297062,
          -0.5041167981471475,
          0.36802240394796615,
          0.48121154070972894,
          0.04072705577433411,
          -0.5016668078405084,
          0.1862402798311824,
          0.01034468742065231,
          -0.1403128364959656,
          -0.263554364329923,
          0.3392454077941107,
          -0.28771960236663674,
          -0.023904958565177936,
          -0.047008381648948494,
          -0.42666980850176894
        ],
        [
          -0.3980277205753622,
          -0.12507272162144373,
          -0.20140600693408672,
          -0.32100874784206235,
          0.1095361637565031,
          0.36274491093585703,
          -0.3578470410190513,
          0.4047979613505508,
          -0.4286764638227594,
          -0.3186841713714088,
          -0.06334991899668657,
          0.12946252018276438,
          0.3966641890368624,
          -0.3985056287721903,
          -0.16151707489992662,
          -0.3845217008484022,
          -0.30473164898254623
        ],
        [
          -0.22842467421677703,
          0.14736249116833267,
          -0.13512331392404947,
          0.48271201819213594,
          0.34719238302561095,
          -0.053379951067436815,
          0.028677827867767958,
          -0.44965172042315715,
          0.4886822232198399,
          -0.22835898934009885,
          -0.032655139068916206,
          -0.34684330192585144,
          -0.4917575059043028,
          0.4893924162214144,
          -0.5066178759802649,
          0.11726966639174918,
          -0.2648906008647924
        ],
        [
          -0.40868573439324,
          0.07058922299494974,
          -0.3237435069315028,
          0.26805852527719365,
          -0.4753686294060563,
          -0.5191970631951183,
          -0.29031509048679094,
          0.43291938238607086,
          -0.2969588295268684,
          -0.000024515366328414778,
          0.5173910925995743,
          0.3100263348304073,
          0.03994349624555893,
          -0.24452917364068016,
          0.21687328404364759,
          0.17846044919513737,
          0.16083719640305527
        ],
        [
          -0.424753414455758,
          -0.22381305914912658,
          0.4115100541322282,
          0.04139909205988834,
          0.3345887852171403,
          -0.3413260542633337,
          0.4706731049721359,
          -0.492933251395932,
          0.12888887818120076,
          -0.2983509196328325,
          -0.09707026274900515,
          -0.5126627592467944,
          -0.14923972664084262,
          -0.33364714803956347,
          -0.4186121181984356,
          0.17218679681935123,
          0.18312670010830834
        ],
        [
          0.4888726139783851,
          0.0017194717785030678,
          0.3307884485235719,
          0.3263972347984143,
          0.13422966765862587,
          -0.5102666809128871,
          0.33470390710486564,
          -0.2949849163727209,
          0.3158104828459136,
          -0.2163731672699437,
          -0.10075187196358587,
          0.39461541504728925,
          -0.2943342907189016,
          -0.06974898680491198,
          0.09899680944649236,
          0.20682340726261306,
          -0.33687734134032765
        ],
        [
          -0.12002509626924363,
          0.42234474961523916,
          -0.34748824343737417,
          -0.11250642192319144,
          -0.2879920707383319,
          0.5178347336888977,
          0.018485297221337516,
          0.4837126069469514,
          -0.024883950247984066,
          0.004433751322140633,
          -0.06750666499045999,
          -0.02358838790281309,
          -0.0913467620796169,
          -0.3716542203076655,
          0.11375708682139818,
          0.5037760693988892,
          -0.11132363469738021
        ],
        [
          0.36500082504009734,
          -0.48454191155338433,
          -0.5055416304944179,
          -0.48367349883287997,
          0.5105090183676301,
          -0.3938362877578723,
          0.4755937396977844,
          0.39110119501188534,
          -0.49175804854859667,
          0.3112829980017855,
          0.3975261298528683,
          0.4802564982510331,
          0.12196071214503346,
          0.023318289218237975,
          -0.04903237157357215,
          -0.2395394234503952,
          -0.03136877932524462
        ],
        [
          0.41358046614365995,
          -0.1500294703372675,
          -0.14673413397308332,
          -0.4438987922111111,
          -0.4161204150200889,
          0.044008339240509065,
          -0.48074225306050505,
          0.46006032510023476,
          -0.10380261894742898,
          0.3858465213064335,
          0.37729324109812945,
          0.007376071172783494,
          -0.5044201363206364,
          0.1106971150147652,
          -0.2489969779280548,
          -0.44739073611667235,
          -0.40486051095493486
        ],
        [
          0.03862076900005329,
          0.21680351327417924,
          0.2543125386891053,
          -0.432582561205987,
          -0.13883748380377126,
          -0.014805312324368214,
          -0.390221105489963,
          -0.028596266543785664,
          -0.423440220143876,
          0.36394633482527006,
          0.3363661002489414,
          0.4399063312584267,
          -0.32953652707838077,
          -0.34258341510922835,
          0.5101230986805915,
          0.45719924661187017,
          0.3864339504351909
        ],
        [
          0.3066896570964859,
          0.08471799139260583,
          0.38489764996995435,
          0.06442253752839577,
          0.3420765658918674,
          0.3505071699175839,
          -0.38646119430720216,
          -0.16608274350772234,
          -0.202167050351991,
          -0.19088905011764307,
          0.12281692420703216,
          -0.4973609166802735,
          0.3285994029643611,
          0.03248820564597421,
          -0.22903526934614943,
          0.16149836709313303,
          -0.051011585038202134
        ],
        [
          -0.1750587861014884,
          -0.4942207384594713,
          -0.4613152546973052,
          0.2269956815910963,
          -0.35005833602253844,
          -0.11776717945921594,
          0.12992412017247223,
          -0.47047052646046633,
          -0.05163129396469185,
          -0.28027961704986626,
          -0.5187271099454146,
          0.49631448202782835,
          0.4788885585006216,
          -0.388549332346352,
          0.5051899700514785,
          -0.04050940536929476,
          -0.4568847185997336
        ],
        [
          -0.4686913567147829,
          0.0006023558362641124,
          -0.06387067114177242,
          0.06050985255791208,
          -0.4616296830003531,
          0.3324594152777156,
          -0.0981912016772234,
          -0.40151014985244315,
          -0.1677625917695567,
          0.27914270383518447,
          -0.08318125474266402,
          0.09109162922111724,
          0.23857308783477016,
          0.1904863784477786,
          0.3449249777478193,
          0.43675112182288833,
          0.2634595498748501
        ],
        [
          0.34754733274417626,
          -0.45505348657164385,
          -0.35784197813857316,
          0.0992276433489293,
          0.44793342554840987,
          -0.130925936915762,
          -0.4466427686994835,
          0.1287995312542981,
          -0.13803095282163536,
          -0.307092800420116,
          0.3312234520143529,
          -0.3807898564468542,
          -0.21610663598788415,
          0.04811253416573702,
          -0.2059568659710565,
          -0.2982730995433187,
          0.3547412485078789
        ],
        [
          0.4133380037663884,
          -0.2359476345879606,
          -0.3528919542733987,
          0.09664627328279818,
          -0.46054256300463237,
          -0.21501744867952105,
          0.12734007635502098,
          -0.10498485862274021,
          -0.33489180164197785,
          0.04581197614900867,
          0.45564986150236275,
          -0.23588541099550908,
          -0.49352434514455507,
          0.4594977571348703,
          -0.4743816176400226,
          0.4549726604929687,
          0.0726996995241882
        ],
        [
          -0.2257060297073858,
          -0.4642469883356792,
          -0.27966776746302513,
          -0.10124978165317206,
          -0.3743414097499183,
          -0.32309949836727925,
          -0.0011252737545908165,
          0.17179536876995638,
          -0.38385509822166175,
          0.0871253699800848,
          0.1672673819429913,
          -0.35441412280147555,
          0.4634361215479017,
          -0.002478331384788035,
          0.2560349439489359,
          0.45030013334966823,
          -0.21331849463553348
        ],
        [
          -0.31146975689069323,
          0.25903014995557005,
          0.16008825636784652,
          -0.4554721517781967,
          0.3996331142796615,
          -0.04816001897036609,
          -0.3190489475562447,
          0.32978674603915126,
          -0.3715051202861923,
          0.18203816661673689,
          -0.015580641797458328,
          0.198033777868047,
          0.2642075927074534,
          -0.3789118855341238,
          -0.2512530337902795,
          0.10768244057868637,
          -0.3078399452858089
        ]
      ],
      "b": [
        -0.4813556526620606,
        -0.22857248053504026,
        -0.5105564300131136,
        0.23780148821252833,
        -0.0943008328840999,
        0.0010559398882971083,
        0.48456198178655685,
        0.12132628310005666,
        -0.37606362326819875,
        -0.18524042039096322,
        0.3343881800636602,
        0.21418952746372466,
        0.23833789287367013,
        -0.19226094495123763,
        0.013351844078826614,
        -0.2283876057970342,
        0.30813602339561386,
        0.14132100203185027,
        0.40711867190685724,
        0.3742004773352098,
        -0.3096958784890468,
        0.2336979874921149,
        0.20104941754427008,
        -0.3081296167720724,
        -0.32955242624727,
        -0.13356867403249345,
        0.26484462876070125,
        -0.4991699822316241,
        0.25148927407282207,
        -0.4079388276220709,
        -0.5161065093669446,
        0.28321685153696896,
        -0.1341807345565409,
        -0.22609530617960033,
        -0.38410097830523215,
        0.009966705580339186,
        0.06898410784811204,
        0.028898501608036753,
        0.44908725022862295,
        -0.47918447175600615,
        0.13884404455836874,
        -0.4432239215009334,
        0.11415278576058985,
        0.2266112457188253,
        0.39600224685320806,
        0.5091003211053701,
        -0.12119758921680807,
        -0.08150538170196009,
        -0.28172018683038524,
        0.16338882420606937,
        -0.4074386892980244,
        -0.4734972368206901,
        0.10992274067706087,
        0.06326971092147582,
        -0.05047389625283849,
        0.23963346848485356,
        0.2754970302645956,
        -0.016789566635965314,
        -0.4996252924423496,
        0.3401433597356226,
        0.06002568711902567,
        0.48133919502557887,
        0.17423629731463486,
        -0.1477525938991141,
        -0.3649583670173911,
        -0.12008246034566655,
        0.18699801735667754,
        0.025936223408044357,
        -0.24522674433460423,
        -0.16930159597272276,
        -0.26452215348524266,
        0.03522680209341811
      ]
    },
    "layer_1": {
      "w": [
        [
          -0.08509139744722893,
          0.37348403771823013,
          -0.17495682445567073,
          -0.21474189299784086,
          -0.05432245328475166,
          0.3255764137086954,
          0.024382908443526752,
          0.45404115318650495,
          0.4177354674623378,
          -0.22100320698505221,
          -0.30235480379290147,
          -0.37813704025993883,
          0.1738341580840188,
          0.3649238180585246,
          0.4224243653285372,
          0.3796654418962332,
          0.29346386354737697,
          0.35826106495495047,
          0.19085462558084842,
          -0.4282186959616115,
          0.07643980352566615,
          -0.39079140336873575,
          -0.4589240242447378,
          0.28896416696492244,
          -0.2732012138995291,
          0.3979787268583851,
          -0.43882968670915073,
          -0.1424313470930747,
          0.15289668759713027,
          -0.466255092091241,
          0.41824967805109536,
          -0.45412683549424276,
          0.44976823757249085,
          0.021160104577946204,
          -0.04954997751517454,
          0.1369674237371059,
          0.33247709558759153,
          0.32407977829752277,
          0.406397803298683,
          0.47059791739460666,
          0.30467243914182707,
          0.3629396323543539,
          -0.46628043608137837,
          -0.38082914494438735,
          0.36819079722879566,
          -0.3203459975793449,
          -0.09758149619480727,
          -0.4240624761232833,
          -0.21265890862630937,
          0.04493375203348959,
          -0.39784535378901614,
          -0.4675676907945617,
          0.39059277397398096,
          -0.4506674708548848,
          -0.4375198973473964,
          0.05689449798916357,
          -0.4645502480409915,
          0.30770005238713216,
          -0.0056318418911878165,
          -0.3606512429186699,
          -0.1388429921800617,
          -0.44668690805386335,
          -0.2255517451429091,
          0.417543755535541,
          0.13181133206174422,
          0.3799027075387623,
          -0.2867154070867902,
          -0.4339528583394898,
          -0.14859361607158472,
          -0.13647231607513866,
          -0.27777161715154486,
          0.08376883858557682
        ],
        [
          0.009461561861925594,
          -0.0107008528052987,
          0.0901795260114362,
          0.43856575295707734,
          -0.3462356422983526,
          -0.14075867959246124,
          -0.13521152420747912,
          -0.44522901091151007,
          0.2505886054165457,
          0.1163447629616392,
          -0.0033322975860478055,
          0.11943710224264659,
          0.37048231877885396,
          0.06367866348803508,
          -0.4517700842997072,
          -0.3656133344935713,
          0.2598332145276381,
          -0.09163606451684286,
          0.012061871958846337,
          -0.46774541202425407,
          -0.24212685756281652,
          -0.32203477225631005,
          0.19699359466908406,
          0.32625097288227933,
          -0.3393511790720666,
          0.07002201714258971,
          -0.23439400697341384,
          -0.36458804882208595,
          0.3661043672588804,
          0.2193388372338736,
          0.240642103640061,
          -0.17081092863842218,
          -0.44168925455230795,
          0.008747120877206305,
          -0.10671024608351126,
          0.45792473562829594,
          -0.19588079941274844,
          -0.060812218730589895,
          0.4348410885231899,
          0.06319113669237009,
          -0.4699985083774443,
          -0.2623482958761606,
          0.0705588988085234,
          -0.40456266325394824,
          -0.2129256250865535,
          -0.38916203946526745,
          -0.44523419925355895,
          -0.25161261826989634,
          0.3365679735596677,
          -0.2829525423796713,
          0.3107989434023527,
          0.4177562147187631,
          -0.28364738203056394,
          -0.06787054132861864,
          0.30346158120605915,
          0.18842858126735873,
          -0.3105393420281285,
          0.10462287739688814,
          -0.36989071192808515,
          -0.3188278638008797,
          0.41814380431218945,
          -0.09190199215766082,
          0.34195944002692313,
          -0.19178502401750008,
          0.032575735041095344,
          0.3510112706786578,
          -0.04248676302969895,
          0.03878827775531479,
          0.023090114600140377,
          -0.12594588256478917,
          -0.09800065187474,
          -0.050594410691872815
        ],
        [
          0.3601378584753506,
          0.16587251452240115,
          0.46491381708042223,
          0.07885563753960523,
          0.34680825430201123,
          0.17618180967807584,
          -0.36423213669726473,
          -0.012146817961364909,
          -0.3396032227745329,
          -0.2488996154585959,
          -0.42625366965250455,
          -0.4226769078535465,
          0.35637278935982886,
          -0.44540344852082303,
          0.04328041524632831,
          0.1893116937992927,
          0.43851876395064016,
          0.17486979839128658,
          -0.3077660492878447,
          -0.38105092426940673,
          -0.1191397883072069,
          0.11415555382092057,
          -0.45160588851397615,
          -0.3004688015827607,
          -0.3819556803674277,
          0.07655757564732002,
          -0.06350624692980672,
          0.25294712686962917,
          -0.25642069836488546,
          -0.0040494215401643,
          0.30479444886433205,
          -0.189552652131169,
          -0.2703835926117547,
          0.37426291290290115,
          0.435699027069099,
          0.20093788078101493,
          -0.19173208814442544,
          0.2826780053335115,
          0.28165535589788604,
          0.03391658602000558,
          -0.29798616569728675,
          0.26492156302200864,
          -0.07662876169694888,
          -0.2901360166566878,
          -0.12373373580302999,
          -0.16569097120461218,
          0.4014084068238274,
          0.38019102820388617,
          -0.38651214580692456,
          -0.15962447580173905,
          -0.010405657424041093,
          0.41316235752273633,
          0.027369620595575184,
          -0.2881591665911093,
          -0.26146578622603833,
          -0.3164611413771262,
          -0.3087623816712829,
          -0.3042378331422532,
          -0.3979782460664534,
          0.11320522095504915,
          -0.3427320695286453,
          -0.4037057818402788,
          0.28919728999139016,
          0.22731291984381385,
          0.4576199081395609,
          0.4561835020551126,
          0.4697467878514746,
          -0.058033610377807965,
          0.1034766359100433,
          -0.1492773971830474,
          -0.47030053311040615,
          0.1101562361652404
        ],
        [
          0.28784287277648624,
          0.3467059139344483,
          0.3468415180387985,
          0.4713449017369846,
          -0.36498511217734886,
          0.4168708478424269,
          -0.20087084269239247,
          0.1686784461269044,
          -0.38830574697265,
          -0.318605707191876,
          0.1636337701353916,
          -0.26708505464193844,
          0.2705724183168884,
          -0.011317384902338246,
          -0.06492961548284415,
          0.40011821451263796,
          -0.06828286873998823,
          -0.4613836862053076,
          -0.11497635397356942,
          -0.3560886290803892,
          0.27670606134234577,
          -0.17988818844510518,
          0.36476018711674185,
          -0.41031839701561235,
          -0.05120381451609268,
          -0.24165444021327706,
          -0.18404634993894098,
          -0.15628152133705853,
          0.10918659611507908,
          -0.4306882182913697,
          -0.031125181446697125,
          -0.25089192097449664,
          0.25666951587340714,
          0.3852207295011165,
          -0.26496857290964726,
          -0.26451863191092184,
          -0.016125420518369682,
          -0.34239916006882803,
          -0.12179893183586493,
          -0.3390409900444783,
          0.42430145254379625,
          -0.3508810915508228,
          -0.24782410784999398,
          0.08891708045764135,
          0.39326432879030715,
          0.348993033880841,
          0.4573416438955362,
          -0.1061479005231174,
          -0.013382193250349173,
          0.2772663404876353,
          0.21709325893585252,
          -0.41906208744435225,
          0.19670305338005256,
          -0.46951724476291745,
          0.05071644908417472,
          0.4471915975639209,
          0.2527913218579537,
          -0.1323742068223791,
          0.3547077531288638,
          0.0636859863485778,
          -0.39314968549084167,
          0.18299604304733552,
          0.014056144422198935,
          -0.4589129177732337,
          -0.39005440322836316,
          0.27481434761945556,
          -0.40915112593389175,
          -0.2103683594054903,
          0.4484232984438883,
          0.21104083183161948,
          -0.03160290969012802,
          0.30648193801165613
        ],
        [
          0.016272509939687874,
          -0.4207180560838469,
          0.05300712181981648,
          -0.15009007485859044,
          -0.10969871389217872,
          -0.18714506050970592,
          0.333978531706972,
          0.43623814637056035,
          0.29318688153773653,
          -0.23468839220253912,
          -0.3719002978681568,
          0.46007872982023745,
          -0.4032607486489409,
          0.22448530515814846,
          0.34769153309599377,
          -0.21713935473247797,
          -0.3673633847667642,
          0.33694879242257536,
          -0.34594807311474796,
          0.24632654523114006,
          -0.3476688972523985,
          0.4228674735433785,
          -0.385551710145287,
          -0.07154789606831025,
          -0.23651009344400506,
          0.1643605829389423,
          -0.22019262490216152,
          0.3172159575705158,
          0.15346375360906195,
          -0.07625344645260201,
          -0.42927162655154605,
          0.05272968549032642,
          0.45291643113070357,
          0.4300070948600745,
          -0.13448263644284336,
          -0.4402626575361576,
          -0.15076576889860915,
          0.2728553080161523,
          -0.07066442737414452,
          -0.41535729153395545,
          0.19222599984600874,
          0.014113852723900144,
          0.23051907338200472,
          -0.23466689581872363,
          0.46929805610109243,
          0.4082380849815851,
          0.3211857945837723,
          -0.39794354713100083,
          0.40692271978066763,
          -0.4594114089128911,
          -0.026895088941360445,
          0.11348244074437297,
          0.278295969694316,
          -0.291880790301963,
          0.4657843947624206,
          0.3940523143251621,
          0.4707630892451967,
          -0.1947764397001977,
          -0.07642232187873177,
          0.38015656385320196,
          -0.46230385024241766,
          0.15124974952752757,
          -0.30079870196219965,
          -0.22950276439322856,
          -0.04441814174859615,
          -0.4279458837656181,
          0.38080086478796027,
          0.36845079782540824,
          -0.4465378323314734,
          0.36860741542135445,
          0.432564314239395,
          -0.4444048502262602
        ],
        [
          -0.3070994695080416,
          -0.46380927174712533,
          0.140354436733926,
          0.041193054565003884,
          0.3196385271427975,
          -0.3287020504696493,
          -0.3960776234621105,
          0.21641791181515047,
          0.39942015111156026,
          0.2648773992867862,
          -0.27506391270557884,
          0.06683879278778804,
          -0.24003763030371358,
          -0.4661660221387715,
          0.2804086106469984,
          0.41009991784681143,
          0.39316873467711666,
          0.4478021104823504,
          0.044428466312509296,
          0.20493571570532365,
          0.38465381354335026,
          -0.09325229990246131,
          0.10748380668632673,
          -0.31296150690315316,
          -0.44683077128727444,
          0.44953749726595893,
          0.4587600784732183,
          0.08285160720609974,
          -0.14392948313266818,
          -0.46970394576591323,
          0.43267974060185044,
          -0.1652665023788561,
          0.0122258471714074,
          -0.4701722611880253,
          0.08072192803024347,
          -0.3946248692289866,
          -0.3165848755654428,
          0.055855136366341096,
          -0.033003438814816266,
          0.3131317558909954,
          -0.2779533939375244,
          -0.2693282027227596,
          0.016239090551189328,
          -0.049681925964015106,
          -0.39403517079632644,
          0.22651172793734697,
          0.3344326648189522,
          -0.3509214841943738,
          -0.18577919124888037,
          0.21583801119283497,
          0.012418915795084973,
          0.3760459990504299,
          -0.21274882642161397,
          0.3649143739650228,
          0.21583814685226121,
          -0.40260666735924777,
          0.24251579185212957,
          -0.049999079862285356,
          -0.10804345898253631,
          0.2538172840196593,
          -0.3613746180189112,
          0.018427011293526863,
          0.35831322088129924,
          -0.4539216207858994,
          0.3935483044233222,
          -0.3596457705928107,
          0.09691004470002984,
          -0.07221241518716465,
          0.26891931687435333,
          0.35747258038606944,
          -0.2098570523533601,
          -0.044046320731146116
        ],
        [
          -0.15566141449382687,
          0.01803767285780883,
          0.36145736764875835,
          -0.46897725683190944,
          -0.0713090830869006,
          -0.21461832226225053,
          0.204289149355258,
          -0.21996560474729815,
          0.14438442704724797,
          -0.13833650951059678,
          0.17478067166486777,
          -0.42762245390301845,
          0.13740591211258857,
          0.0025361738424298785,
          -0.1083387493166042,
          -0.3683926575216724,
          -0.27431049038918764,
          -0.06240848037739466,
          -0.4683543986877423,
          0.237611729062695,
          0.3006097859601088,
          -0.09906408181215554,
          -0.45381946244577415,
          -0.21326616217709243,
          0.2840956734582154,
          -0.20411093666718788,
          -0.4496030878891342,
          -0.4543532868824823,
          -0.2585648815824406,
          -0.3326829139099237,
          -0.24540983379855166,
          0.22935470545245484,
          0.3474414443137437,
          -0.01671061327254081,
          -0.4683703155472434,
          -0.19273446305874792,
          -0.3221871691831233,
          0.25496222164269233,
          -0.4370812066142176,
          -0.10326793942259055,
          0.07110998169133131,
          -0.370031159579939,
          0.29904605194347555,
          -0.0682158804211172,
          0.003299974403438488,
          -0.46268545305104675,
          0.0263562088643865,
          0.46931011143734425,
          0.2743748693857859,
          0.2403164336851591,
          0.17611473929657862,
          -0.35434107907306334,
          0.4067664978987444,
          -0.3672515731162247,
          0.1204315066054713,
          -0.4563654648977371,
          0.4064485662218392,
          -0.188850162394892,
          -0.1965955975641886,
          0.33647619761256564,
          -0.45434397688629274,
          -0.037967968798012786,
          -0.11849148893199984,
          0.32109160848234974,
          -0.19341282035790786,
          -0.16360701534133193,
          0.34587340266204525,
          -0.02419017939389506,
          -0.18989243191867078,
          -0.09025606308995454,
          0.25673339341390833,
          -0.3349984101575416
        ],
        [
          0.38687146896672764,
          0.16090561074276366,
          -0.34709649783122365,
          0.2731184928842708,
          -0.24496906542408256,
          -0.028129974940073688,
          0.2666429970301981,
          -0.17547917491362675,
          -0.13074763395723743,
          0.1475560549535393,
          0.4210793090149886,
          -0.2448873869796155,
          0.4327607852036306,
          0.3228762767581308,
          -0.10659221654371381,
          -0.006673309542943873,
          -0.11228487505682488,
          -0.10871126975621298,
          0.28434223236829814,
          -0.4270823155444708,
          -0.18951864418531578,
          0.4521535800659532,
          -0.15168961237315032,
          0.06293081379160392,
          0.06573476666847444,
          0.29910603449685225,
          -0.014184972156273512,
          -0.407376070317121,
          -0.04951778300315279,
          0.2321769964634709,
          -0.1234270300760622,
          -0.16640990992612847,
          0.2943057924245909,
          -0.37147334429817447,
          -0.15805149345586778,
          0.22624011565048907,
          -0.18691336529806296,
          -0.21272085043702565,
          0.3477573632283134,
          0.2698179719453184,
          -0.3590952787394184,
          -0.15045223945195918,
          0.2260360078517215,
          -0.42438775191430256,
          -0.2791577740418207,
          0.34579858360146054,
          0.1096509582499069,
          0.1731673185614171,
          0.47049074692324044,
          -0.12381037532708,
          0.3297474324892793,
          -0.14987086502820618,
          -0.46712786767901354,
          0.1763613611263567,
          0.3509483405745192,
          -0.02071652210412922,
          -0.2562262758976148,
          -0.30592078272909495,
          0.3813218194440453,
          -0.2914728007753032,
          0.3924678674694043,
          0.0017682875147918553,
          0.181579685496571,
          0.38541880200532885,
          0.16328111575048698,
          0.22682228333841192,
          -0.3009223942915309,
          -0.34793370883080227,
          0.38478914136047726,
          -0.17381855180054162,
          0.02849188562453947,
          0.46456612000247177
        ],
        [
          0.3365436046967819,
          0.23227802026660538,
          0.3798994319490333,
          -0.46972445380535505,
          0.03365154452436203,
          -0.3682291244140399,
          0.10160415848844018,
          -0.19397386988985627,
          0.369585168515723,
          0.4633676522374699,
          -0.22305512221515716,
          0.36953210582690976,
          -0.44896115885878374,
          -0.014047196225864755,
          -0.17181388498718825,
          0.041040153305643035,
          0.1664717188517132,
          0.25989937140016095,
          -0.4027208113726149,
          -0.048198071427968336,
          -0.24540265257814078,
          0.3976086833946034,
          0.17307692169336786,
          0.19067430927989215,
          -0.29467366735162676,
          -0.19655782705771196,
          -0.024183812378667624,
          -0.03213388284779539,
          -0.4097102289228079,
          0.3531495800489398,
          0.053889486265294995,
          0.0018136223371227889,
          -0.346836999938523,
          0.08800293033521056,
          -0.07328555354717609,
          0.2820562724705422,
          0.05018470214599835,
          0.31909886437718227,
          -0.2965940283860481,
          -0.21226855686569118,
          -0.008650570158378279,
          -0.41660721962952024,
          -0.0016079619211655238,
          -0.03928653982340302,
          -0.1682412855286039,
          0.1585390232180286,
          -0.1640923104544773,
          0.01055674213527552,
          0.036037060427351886,
          -0.0486625619248634,
          0.09099283113185486,
          0.41206396573573967,
          0.44833962094278745,
          0.04810040487143974,
          -0.1455208274040906,
          -0.14446774047689193,
          -0.3903343051704664,
          -0.39928916093458533,
          0.44510155196606727,
          0.37288947727701827,
          -0.06097810221431299,
          -0.21979970458472536,
          -0.3768570302142771,
          0.03021711827615825,
          -0.002585286676441867,
          0.3923259038649842,
          -0.018851719483251705,
          -0.10061041579898355,
          0.11464577862417935,
          0.37641737966953537,
          0.27920955149068416,
          -0.4367966998303521
        ],
        [
          0.4189317759467801,
          0.15449030684170761,
          0.21579675262225295,
          -0.3368579399013395,
          0.09911087675759278,
          0.06708583018615943,
          -0.3497724995654373,
          0.2085104462392965,
          -0.0206123789159266,
          0.46553837434736833,
          -0.14496920212081382,
          0.4190887809567019,
          -0.05820045832441623,
          0.36649553314676053,
          0.2670110852152737,
          -0.2703955143750731,
          -0.006945736386262447,
          0.3597082117699877,
          0.25912111858069287,
          -0.4354975210769185,
          0.1594169663765772,
          0.3639578470410899,
          0.3281657235065182,
          0.465751491973604,
          -0.01795108617122898,
          -0.4475463663957606,
          0.15587434574454184,
          0.46366141931914373,
          -0.049558692485481726,
          -0.4020668188968867,
          0.17580399638588917,
          0.11313465957963953,
          -0.4120297548364795,
          -0.1928319564426793,
          -0.27265345596175844,
          0.17132362971683468,
          0.3644122954752884,
          -0.3213501074211358,
          0.37220501997118804,
          0.37199727407955885,
          0.006684465644995363,
          0.2853472939980438,
          -0.035429969628235414,
          0.3775097109646768,
          0.08580517565812718,
          0.4367999822156703,
          -0.3233119053278428,
          -0.4597202350741311,
          -0.08138160178359105,
          -0.4368993893132127,
          0.3019678239860596,
          -0.12083790413301165,
          -0.3681231804326243,
          -0.4000039929842805,
          -0.23329184718681814,
          0.18554164150399088,
          0.44744410068396523,
          0.260710814414745,
          -0.444641850999155,
          0.3138579129822149,
          -0.2594991537756377,
          -0.15610248074189104,
          -0.03918400470905303,
          -0.4152012016110518,
          0.4153888674216626,
          -0.37795863673236396,
          0.16039747139459515,
          0.34352630636102155,
          0.3983664783621398,
          -0.4318005159063229,
          -0.2873889841662786,
          -0.18179549826856284
        ],
        [
          -0.10405863972508939,
          0.4652984735573438,
          -0.3279211269121841,
          0.45634314692364053,
          0.2300447861779561,
          0.4616403653829686,
          -0.35573842032295655,
          0.04943736890062311,
          -0.05794884461673827,
          -0.3473455952484206,
          0.28436457103488044,
          -0.16980717262260098,
          0.3514829004848272,
          0.03958182916354924,
          -0.10403807615482086,
          0.45979781146668686,
          0.11751722781444252,
          0.0697627977147176,
          0.13663501668417177,
          -0.3337953114739086,
          0.44229306653443745,
          0.465726628117646,
          0.37114451472754173,
          -0.32631846945334186,
          0.2975170999314555,
          0.4052237113920084,
          0.19761691170966023,
          -0.4707837454862255,
          -0.0397285786232171,
          -0.4690833710225396,
          0.2680190610787887,
          0.2963824135366193,
          0.16248191807193446,
          -0.06901384437468139,
          -0.3729811224217779,
          0.38986539662818287,
          0.4681173437528362,
          -0.4683881246210859,
          -0.46713622643629416,
          -0.16458883659089207,
          -0.2874156097132926,
          0.4555085458793017,
          0.43875404147759334,
          0.1864671491651304,
          -0.422929204748228,
          0.2812359169094434,
          0.09137128069471212,
          -0.3587021225319986,
          0.3068601806703789,
          -0.3395127149228846,
          -0.20955920310414577,
          0.32522538865976225,
          -0.2762220178013881,
          0.07352150718840822,
          0.4706417090316939,
          0.21189006837621216,
          -0.28646894224640485,
          -0.28075814083094064,
          -0.217646190262341,
          0.22946199045577997,
          -0.2775567960472938,
          0.17557577720197237,
          0.18059223336115116,
          -0.23054990022289917,
          -0.12623682307711553,
          -0.12580616052329396,
          0.14223628938930588,
          0.03925646649967818,
          -0.14892492086337294,
          -0.3772348323967005,
          -0.3045031690098715,
          0.4701244320716992
        ],
        [
          -0.42460789324217957,
          0.21375979923094557,
          -0.22628016011942662,
          0.026321739871644656,
          -0.011857121695792894,
          0.4000261963620815,
          -0.0067211983809817855,
          0.33096445103905914,
          0.06474187979827317,
          0.10015480416406275,
          -0.38662178441201134,
          0.4167863591294996,
          0.4299067160705403,
          -0.2652570067190995,
          0.4613042691394881,
          -0.29683003064543323,
          -0.12276709814388376,
          0.25960423693146994,
          0.11234726840249076,
          -0.04520960000249452,
          -0.3073004835717986,
          -0.18759268046572602,
          -0.4599830913543183,
          0.45029321124805677,
          0.00430484931528069,
          -0.3273026876797651,
          0.4178494149069678,
          0.4628618490359483,
          -0.3754085791616884,
          -0.25893617546995706,
          0.14491789437840052,
          0.2031382756997756,
          0.2303875897422505,
          0.46362003115664907,
          -0.2889180198177219,
          0.39699385705237533,
          0.2935410614272336,
          0.05679780446415472,
          0.43400344986674533,
          -0.4399215063028853,
          -0.43087270381409837,
          -0.41908707403392076,
          -0.12227765498389292,
          -0.27629550928840263,
          0.042892917026227106,
          -0.40011304753222865,
          0.12262350292620094,
          0.3021693498011562,
          -0.34423096277170306,
          0.2602153254390913,
          -0.2885010327804216,
          -0.31964808710530257,
          0.08267561729828932,
          -0.14045617284427786,
          0.05340642529057882,
          0.39221864740354717,
          -0.017990643802648865,
          -0.23246607260976557,
          0.3356786436912692,
          -0.38273258320480874,
          0.17187260565693496,
          -0.3852180613275725,
          -0.15605153363124552,
          0.25911111939170106,
          -0.2773568656818549,
          -0.456395661637951,
          -0.13202080658270005,
          0.14070803585105673,
          -0.40517924250549,
          -0.3197163830775217,
          -0.4544572445660692,
          -0.45055502465327846
        ],
        [
          0.2616480763600396,
          -0.43698335622279616,
          0.06968881289494133,
          -0.027634294240154456,
          0.012093318874598413,
          -0.18211252697869523,
          -0.4574690207383197,
          0.05655759066576549,
          -0.20226718009951627,
          -0.44016434461677145,
          -0.4626416785167282,
          -0.04418828747422082,
          0.18413689905202402,
          0.12035379822898706,
          0.3776189259148208,
          0.3856927184310921,
          0.05520389609952603,
          -0.052452327929031706,
          -0.40312243569437284,
          0.34257681354034997,
          0.43781783229314153,
          0.3546524282489386,
          0.33665248319989716,
          0.11368648256558656,
          -0.4531049638898466,
          -0.007634321293083224,
          -0.29426248587595405,
          0.13411750458608174,
          -0.21895788954689505,
          -0.24814283124513045,
          0.183418160096525,
          0.3862616361698771,
          -0.3644474579478268,
          -0.4020465174121177,
          -0.022431742608488292,
          -0.43163249984073465,
          0.04631161746475365,
          -0.457839121597625,
          -0.17397623957626768,
          -0.4177932389688334,
          -0.33227650409628073,
          0.3210651320209047,
          -0.25834056970382646,
          0.2684385894876983,
          -0.38544011708647,
          -0.0744114853614618,
          -0.41537738519829315,
          0.31653239611673,
          0.3027503495107373,
          -0.24535890949423741,
          -0.29422663479300687,
          0.2777008755156143,
          -0.3476220040837246,
          -0.41581700916340086,
          0.1260101773939789,
          -0.2278591450099846,
          0.38063452586047686,
          -0.41367639396457284,
          -0.034211243905760746,
          0.10225161380913805,
          -0.2644173028001733,
          -0.4709115485450551,
          0.1917619320456222,
          0.15716076521541955,
          0.38975615089268156,
          0.44192869411232427,
          0.1550632032638788,
          0.4056917640284291,
          0.2992353442160597,
          0.17187111180063508,
          -0.36388191357072436,
          0.4362695772655406
        ],
        [
          -0.40774826967427347,
          -0.22025142326365987,
          -0.4280389639551957,
          -0.3637954116244067,
          -0.4638689013919692,
          -0.34993256543697493,
          0.0880398450052885,
          0.4398633237886709,
          0.3459716312434853,
          -0.004974783645239567,
          0.08716110345603878,
          -0.31892478949351355,
          -0.37289932658583397,
          -0.14665234601046673,
          -0.2877246511800724,
          -0.21959629973277967,
          0.36783624285555816,
          -0.2326134641203176,
          0.3707617520943163,
          -0.0956560919559169,
          0.41872185859203315,
          -0.23246897784171347,
          0.30095428244830313,
          0.3583098143483907,
          0.09895626408977631,
          -0.18893011482918365,
          -0.4679606952016454,
          0.32909950296349977,
          -0.23324277012812983,
          0.4500618206358067,
          -0.3540984966390853,
          0.22976189421163484,
          0.18851165175046058,
          -0.4669793803121638,
          -0.4441448908317649,
          -0.16869412348682916,
          -0.3584708349747511,
          0.14099205372383905,
          -0.33785654387118375,
          0.016201745172544246,
          -0.05603859730485605,
          0.4378309519515531,
          0.3339504919143368,
          0.07041261215919603,
          -0.35661138495824213,
          0.0446464521267117,
          0.26916844743244217,
          0.20028506525752932,
          0.21761159319732382,
          -0.0761398573931949,
          -0.3911050322748534,
          0.46359747727187706,
          0.3018331262110825,
          0.10371143023257823,
          -0.44705750224083907,
          0.035474400623432434,
          -0.07593113397657175,
          0.3248133020077272,
          0.145673985651399,
          -0.4711237796745195,
          0.46964293269673585,
          -0.18896406302914365,
          -0.4116961523536289,
          -0.16870378102007116,
          -0.20939704211034021,
          -0.2129065458704651,
          -0.17127854157497724,
          -0.4205655392141403,
          0.25730493975356417,
          -0.21975456565031637,
          0.45225939091249356,
          0.28828465206888987
        ],
        [
          -0.46827069461991777,
          -0.060397012320626164,
          0.3095776293629513,
          0.41253489766383633,
          0.16692816129592558,
          -0.2565988669824051,
          -0.39087969334292005,
          0.39232713973025946,
          -0.4447247962054691,
          -0.19677281714924294,
          0.2050671031402238,
          -0.25354279459004236,
          -0.32260582515741293,
          0.022362578411400102,
          0.20358098934344426,
          -0.09387628586568403,
          0.23360199905068002,
          -0.38618471235797214,
          0.31738476296448925,
          -0.05593636970951188,
          -0.31313701954556955,
          -0.014771013774237896,
          -0.04574527465148187,
          0.32804644257004834,
          0.10728762024310756,
          -0.39620899699955947,
          -0.1669427303099748,
          -0.34679714797207595,
          0.12052134795355451,
          -0.25089981089073865,
          0.4214425460103024,
          -0.4628126140835593,
          -0.052357918286050686,
          -0.3501262983624532,
          -0.40671297573364207,
          -0.40980228893886206,
          0.11894103004165135,
          0.2346497742180248,
          0.4421919174064748,
          -0.44864382877197784,
          0.2183278591152512,
          -0.4667712154410659,
          0.4176145164833527,
          -0.043850241958284686,
          -0.015918680264771945,
          0.1960934836986279,
          -0.4495147410324546,
          0.3018468223425459,
          -0.263207031219718,
          -0.28908578535780133,
          0.31526143080758284,
          0.3167878700698258,
          -0.43831401953132015,
          -0.44933429877290887,
          0.3480980853797597,
          -0.1845159268277481,
          -0.3874055269094546,
          0.25764327290662026,
          0.2024026122636683,
          -0.32413876883010023,
          0.1343294326184059,
          -0.4304016933174027,
          -0.16184674437513635,
          -0.3687545565512977,
          -0.22254718787451996,
          0.019289289904727336,
          -0.23807107627607615,
          -0.12637319820520515,
          0.4709947954613376,
          0.3698673752172045,
          -0.2047637878893241,
          0.4383986094729009
        ],
        [
          0.40336307644819946,
          0.2823932937222745,
          0.31274818927455594,
          -0.37559575356790026,
          0.3153645034737459,
          0.31647138104781636,
          -0.2952796986620271,
          0.11959060558742918,
          -0.4032229759503194,
          -0.43456481056843993,
          0.22704985242351794,
          -0.08564221257221521,
          -0.22387612106223587,
          -0.04506877440235241,
          0.2992085530726074,
          -0.3414517625755643,
          0.4663881945449221,
          -0.26905556045929946,
          0.3351753639633279,
          0.01010546536044904,
          0.006534748267966128,
          -0.03146150639083589,
          0.08530111839891674,
          -0.24708853377366402,
          -0.3058174903326974,
          -0.3920418107781002,
          -0.4133931462720746,
          0.22029367690409452,
          0.043458622958946314,
          0.45168039567538043,
          -0.26254779763899116,
          0.26936213838647916,
          -0.28132499315060444,
          -0.47130222711438924,
          -0.07099381011567918,
          0.29110893635563717,
          0.46831157717945104,
          0.10120423874231166,
          0.023615121495967006,
          -0.3787500901762396,
          -0.04228197828968311,
          0.34316568335847586,
          0.4027897902961298,
          -0.28349035673813244,
          -0.3881644598279711,
          -0.029362866079304162,
          -0.23623176158934245,
          -0.01346261684857225,
          -0.10693616535501171,
          0.3151352777974966,
          0.4277601959434103,
          0.34086435017754313,
          0.14510150345584505,
          -0.03432554556023559,
          0.2559290148445278,
          0.19348181034801915,
          0.120917449407975,
          -0.08360780703154458,
          0.20961746400187176,
          -0.10311350452928364,
          -0.21680523679893937,
          -0.2376292512112392,
          -0.034121492525935826,
          0.29979999474299734,
          -0.3200141558994161,
          -0.29223358443173464,
          0.0769633952607478,
          0.45868611590136155,
          0.1702408596824998,
          0.1852927992984188,
          -0.1941333345129077,
          0.0981318469610799
        ],
        [
          -0.05347206315097808,
          0.4332283702798275,
          -0.09657881672964663,
          0.026648866686547645,
          0.21897870522281093,
          -0.19388008648571575,
          0.1277666999856406,
          -0.4298216222342128,
          -0.40856429125615173,
          0.3875468757621855,
          -0.4105645976329654,
          -0.4356093264964172,
          0.4336052781032075,
          -0.34902782448183955,
          -0.2907448426785177,
          0.235896360224217,
          -0.2893745528512489,
          -0.4532223438189783,
          -0.1675604041171092,
          0.15481816704256623,
          -0.4141114147997052,
          0.4195283049275166,
          -0.22651338178229355,
          -0.3651090664046132,
          -0.11583612787284303,
          0.3122344168250577,
          -0.09925807989755914,
          0.4588015134701505,
          0.1920121100621679,
          0.18857563602016114,
          -0.35727386610197776,
          -0.39898953628272044,
          0.0708001711794396,
          -0.3168592261591082,
          -0.28622223202170083,
          0.16699766608248157,
          -0.15036279482101977,
          0.17076164942126648,
          0.44866225987912234,
          0.4710623878423983,
          -0.3615423327949201,
          -0.06528345275176539,
          0.28830825772968327,
          -0.3500422938231469,
          0.4564194210170457,
          -0.28135981916544994,
          0.05686015548934309,
          0.23142969202495833,
          -0.4683470814564086,
          -0.4704748095751015,
          -0.2549858664001633,
          -0.05981598493084417,
          -0.16169237846878537,
          -0.4205817998998287,
          -0.4108968308659769,
          -0.46650206617264306,
          -0.331241778967225,
          0.15927261514025293,
          0.3084974706237491,
          0.04533176617547885,
          0.4503052264257488,
          0.4080260466171596,
          -0.09643817803323818,
          0.10049624612164654,
          -0.10852476579845444,
          -0.42266320133596613,
          -0.4338146136256793,
          -0.3692229055873846,
          0.14959338422066992,
          -0.45061508189747995,
          -0.17186440594475122,
          0.04205158263431641
        ],
        [
          -0.2418483848065425,
          0.008605332563902834,
          -0.3688139015962575,
          -0.019205425342999405,
          -0.34545500259460515,
          -0.2416409920535476,
          -0.04104474718320544,
          0.4506088153619594,
          -0.2212171443191695,
          -0.39321149710144637,
          -0.34388524285125677,
          0.14166175047176022,
          0.21385995305312056,
          -0.002386706681961559,
          -0.1199114012712123,
          0.03152922557141746,
          0.3462370754017755,
          0.2563673403988389,
          0.125008596051969,
          0.4579296007553334,
          0.2891262454453759,
          -0.34025850453373807,
          0.4525123102008347,
          -0.19004035655083956,
          -0.33502852247253173,
          0.2390293947514488,
          -0.08020302428541959,
          0.14714754646263262,
          0.35054975653989295,
          -0.11419265016096558,
          0.3283571909029971,
          0.3304131755308509,
          -0.38207666809678736,
          0.4627090633521542,
          0.05824196956438776,
          0.22017139141784992,
          -0.09804238916176711,
          0.2133292067226129,
          0.36872140105899454,
          -0.29544877999946195,
          -0.23372068442916516,
          -0.4281886744043281,
          -0.45612309682180163,
          0.4079323593668529,
          -0.14831027713126183,
          -0.1904657088365045,
          0.28295303070567446,
          -0.14069873617725426,
          0.4704310339876209,
          0.05710230382081771,
          -0.4545688600322086,
          0.2827148588326579,
          -0.21438901442930752,
          -0.4275507570735105,
          0.4164376911195877,
          0.4639784802252066,
          -0.3638027472678237,
          0.09732310851537429,
          0.2505596346088512,
          -0.0656877679762225,
          0.061684804879900024,
          -0.2298334141054233,
          -0.3276234642343294,
          -0.4167259125572191,
          0.20271754269860442,
          -0.37148956091136903,
          0.26084313994288,
          -0.22170233294739763,
          0.4038588805352309,
          -0.45665174085881266,
          -0.2536680855300475,
          0.24679858851023273
        ],
        [
          0.25131171427691457,
          -0.1279101826656901,
          -0.0686382682201338,
          0.020046066180503253,
          0.015549779132114472,
          -0.4467692688279211,
          0.29349445721104195,
          -0.05186933654465509,
          -0.1927821925952521,
          0.4063767175088696,
          -0.05597218269346682,
          -0.4277851244017332,
          0.4508648862011778,
          -0.26959477245675034,
          -0.3961669954300706,
          0.440492729116964,
          -0.12394526431757391,
          -0.31756206081473554,
          0.46588258248167047,
          -0.00840272626471339,
          -0.22072584393617012,
          0.17166621983424668,
          0.4121212899687414,
          -0.4077130968978833,
          0.034747380215657264,
          -0.09335868129454761,
          -0.29104455711648564,
          0.0133468963909667,
          0.25335494187115803,
          0.40865142693595535,
          0.04225350988021026,
          -0.25934662913449,
          -0.3238912707180125,
          -0.24279357459269307,
          -0.30171565841236775,
          -0.11180554168833684,
          0.442495764748979,
          -0.14638984534573796,
          0.0393845897641425,
          -0.16351589398352467,
          0.3118496710306763,
          -0.4598268567088695,
          0.1583220675040552,
          0.16282357830833294,
          0.24603499920868532,
          -0.1774818925698713,
          0.06875595930186473,
          -0.15021839256249636,
          0.3381423589063135,
          -0.4588522643846614,
          -0.10153896550699981,
          -0.05296216691525518,
          -0.1287279465247519,
          0.0819843827669452,
          0.41749962168169774,
          -0.4346125174120876,
          0.44592272731144444,
          0.09103182118261488,
          0.4354845973762962,
          -0.08847179804918759,
          -0.31218216944235455,
          0.10014189873365664,
          -0.20823614112880262,
          -0.44466087862810116,
          0.2408598329568784,
          -0.04293463222332661,
          -0.008998579327241851,
          0.1848887847423455,
          -0.463920365686984,
          0.04222090346006446,
          -0.3643822125959864,
          0.14663718492660371
        ],
        [
          0.24089665993562626,
          -0.21053478803526138,
          -0.12434499066214683,
          -0.44058270831350294,
          -0.36041772843080655,
          -0.4536329967300994,
          -0.2058652636639045,
          -0.26566382542210926,
          0.36231986836876695,
          0.08498939264790939,
          0.14656740071148633,
          -0.14726368264908252,
          0.4516690150981798,
          0.056917334079547244,
          0.012490985933137078,
          -0.058637174735204745,
          -0.4293426909243956,
          0.3753277931022876,
          -0.10011952650509798,
          0.348757912105253,
          0.17386028808802867,
          0.3806008656903176,
          0.4401869278487285,
          -0.168929224311474,
          -0.3940169616822658,
          0.35773822767413377,
          0.15139772697937504,
          0.17859148430660066,
          0.24193352618312047,
          -0.4263907318864908,
          -0.28391800704530057,
          -0.2008129041085882,
          -0.22008458566326206,
          0.03946597182435696,
          -0.30575064410877095,
          -0.4669792065120976,
          0.4139405833678884,
          0.17118171971065588,
          -0.29376525928395214,
          -0.4525120517514996,
          -0.23540173414444018,
          -0.3753640620893881,
          0.11259020995469793,
          0.32475464506140506,
          0.10138715314878011,
          0.4613939096515097,
          0.19954821132875955,
          0.36843118925151763,
          -0.1684721927592968,
          0.00963801425443106,
          0.37639469988548013,
          -0.45642264263715165,
          0.14340876528451707,
          -0.3283911850555292,
          0.04062689638856454,
          0.3685926513478218,
          0.04458577373015293,
          -0.348769365588956,
          0.39787076371157015,
          -0.4117022084187451,
          0.3572970201118516,
          0.18060160715294904,
          0.043236277652436095,
          0.34895351278089826,
          0.11227715402817873,
          -0.3827351368011416,
          -0.3890818347449232,
          0.4323241030501088,
          -0.2649305157031673,
          0.2727939152758573,
          0.342239700712187,
          -0.3157583219977835
        ],
        [
          0.3165472971013604,
          0.20450425070689016,
          0.07008261291709461,
          0.42229914828836757,
          -0.020425136324252913,
          -0.41305444322281076,
          0.36043144756412293,
          0.4693590073063859,
          0.3432420082653578,
          0.4450887166185431,
          -0.3688442956140543,
          0.2816110496263401,
          -0.44527642551501073,
          -0.13940177190189496,
          -0.0451491242923443,
          -0.4680154711012306,
          0.3690660257255297,
          -0.43000949439945224,
          -0.01098963180118745,
          -0.0887088324382555,
          0.4384808430512305,
          0.2473319637802096,
          -0.13132786407300207,
          -0.14384983113847322,
          0.4712922943628739,
          0.2175704607915243,
          -0.37150193995762487,
          -0.23716375690188457,
          -0.3585993603746349,
          0.4518616143479962,
          0.09214212313451364,
          0.0862162574568488,
          -0.3124214483072869,
          0.27556301290433216,
          -0.030661212068370802,
          0.18900941722656994,
          0.3367540267196102,
          -0.4009981405911867,
          0.4669642265826709,
          0.16366490798541233,
          0.4559422149533584,
          -0.03944886373826256,
          -0.34402318649698876,
          -0.38032732384918394,
          -0.1202230215284717,
          0.21280041196996513,
          -0.23916129527927096,
          0.15397428759922482,
          -0.4491640983627983,
          0.2676209753108715,
          0.11005603269974096,
          0.19780807184305638,
          -0.16962896669712874,
          -0.3640393759765185,
          0.44109314948767153,
          -0.013833263255818018,
          -0.08159806024727778,
          0.43317354913884254,
          0.18425409486573785,
          0.38526630461379674,
          0.06774894707040424,
          -0.15236341676869047,
          0.10466643486505267,
          0.37586882494797713,
          -0.42801560941843747,
          -0.2673644432843544,
          -0.2511069661818297,
          -0.0004946649017764648,
          -0.2707994143429451,
          -0.07911603548283397,
          0.39017887448910893,
          -0.044384264373787174
        ],
        [
          0.4682313355022859,
          -0.019949874621180308,
          -0.0705968043639923,
          0.17505912258061151,
          -0.06303194645669646,
          -0.017352692281348725,
          -0.09008794512869284,
          0.08041981422499633,
          0.15765108152488116,
          0.24990816084841116,
          -0.07274133049077969,
          -0.28831072853557804,
          -0.20475060165739395,
          -0.46285553889809583,
          0.2865594402083107,
          -0.28500928848367035,
          0.25220277311909867,
          -0.3760821552546113,
          -0.4287971180927338,
          0.2146357160524186,
          0.36427459615566316,
          -0.2060073381589249,
          0.1505222138485527,
          -0.12829085496399334,
          0.3927810698905091,
          0.3948595159577132,
          -0.2562527600443968,
          -0.45310522577171286,
          0.47130232068778644,
          0.13557202253376077,
          -0.0776846310073806,
          -0.2148317836986412,
          -0.001252083079964994,
          -0.2608900722853357,
          0.4630209244889216,
          -0.4713979844092047,
          0.31287229290088625,
          0.38540896644770617,
          -0.19424334019299344,
          -0.10276266732348593,
          0.1312281323325969,
          0.03807720588523411,
          -0.14616605416662515,
          0.3360814436746816,
          -0.45936056065757636,
          0.4488402086098152,
          -0.06766497203454547,
          -0.05427723131930967,
          -0.07968522617431073,
          -0.4050698135145273,
          0.0040538294320141555,
          -0.27695416355419084,
          0.3881354400153373,
          0.04501640131144968,
          -0.43559479397181755,
          -0.04162812926648657,
          -0.10149783894384107,
          0.3411859164463146,
          0.08113999864654176,
          0.14883431431137528,
          -0.04829183535088899,
          0.36572018419498453,
          0.3827459911036635,
          -0.07973989658992292,
          0.053754425961762275,
          -0.20452981693726702,
          0.458027795594805,
          0.1485805159413327,
          0.03215615014956452,
          0.11280294434166538,
          0.14569475076582183,
          0.46521380857979544
        ],
        [
          0.16326866106749782,
          -0.4058620260865948,
          0.043239650796227824,
          0.4681209804724855,
          0.09382067822472784,
          0.19537848962187732,
          -0.4433060895665508,
          -0.15538474052773965,
          0.08624419254859916,
          -0.11613231391510037,
          -0.0034758058895216215,
          -0.1968888995326824,
          0.2820017006814839,
          0.04431102516162755,
          -0.04199093601924481,
          -0.469025808936274,
          0.18573612863856137,
          -0.22676630928292504,
          0.2508149748980675,
          0.11293862981832603,
          0.2820912555108306,
          -0.4662037589263365,
          0.021676672712356737,
          0.29036571434171754,
          0.13073567363675076,
          0.059705053806180186,
          -0.07237951746833138,
          0.34468254880338145,
          0.4627929221625322,
          -0.36163007428028593,
          0.4085381849427018,
          -0.3588760307652409,
          -0.12131794306216126,
          -0.3413537973513827,
          0.3305011585907217,
          0.09775031778742616,
          -0.24811288863887992,
          0.07028809341245001,
          -0.16267482409450895,
          0.13140598280697857,
          0.3938284322623369,
          0.06041740016919783,
          0.029894016102502197,
          0.1383367021172267,
          0.3592420837125241,
          -0.46760948221006327,
          0.009787104427602278,
          0.26551352666936356,
          0.18816723038838457,
          0.2109437538110518,
          0.3036383293911842,
          0.11966279241308064,
          0.4548807036123139,
          0.13165936911703313,
          0.18471499039418082,
          -0.30217219161758635,
          -0.47004584887226025,
          0.059506600137479104,
          0.023182143595015692,
          -0.24608395413915676,
          -0.28951027622257575,
          0.07467734521807368,
          -0.2115852017766482,
          0.16145404147363351,
          0.452664350995727,
          -0.20564200289094353,
          -0.1213849204933466,
          0.339184014017865,
          -0.062108251245202806,
          0.17692547319559482,
          -0.27042361983803564,
          -0.4443104483998618
        ],
        [
          -0.26245349223191183,
          -0.4449059039709359,
          0.15213654348176608,
          0.4647928928441939,
          -0.1857465792491333,
          0.33766117792595984,
          0.02197454672740229,
          -0.3550200246466137,
          0.14322639777463364,
          -0.2889983414641263,
          0.45991293512415543,
          0.34263711335520874,
          0.3383595870917949,
          -0.43078745621170117,
          0.0851746052696124,
          -0.4587521174016777,
          -0.10021036399186484,
          0.4093270854366029,
          -0.17213726094522586,
          0.3040735148684567,
          -0.44199313832156617,
          0.0130981890745282,
          0.06974893440652563,
          -0.272685448482503,
          -0.1499665012119185,
          -0.4637436331319618,
          -0.4572645182583278,
          0.46556915389093856,
          -0.3078320017033141,
          0.4686120478289856,
          0.008131213454041941,
          -0.07599783911072316,
          0.1505756503155572,
          -0.057462608492524436,
          -0.12752751172973892,
          0.3514895856810669,
          -0.34650142089560965,
          -0.06103235582906563,
          -0.07752036499763026,
          -0.0758550246180893,
          -0.25367250247541373,
          0.26341921396309564,
          0.13862635300278348,
          0.45526776186157314,
          0.32000414595034876,
          0.20383580980206795,
          -0.40521728544417035,
          0.07291264400071518,
          -0.11939060006057245,
          -0.004891385293280148,
          0.34561336923768304,
          0.3072967301772591,
          0.31204088200768065,
          0.2971468940523925,
          0.035611056342376046,
          -0.16845546740075223,
          -0.12215935700952313,
          -0.10566892989701404,
          -0.4243361222704521,
          0.369007856210838,
          0.05940677854225218,
          -0.020334239555612976,
          0.016208971208889977,
          -0.11186735563376504,
          -0.4294757717204531,
          0.0645533072947494,
          0.43178082350733993,
          -0.2680608430330601,
          0.15963897508721803,
          -0.42846626093838175,
          -0.1317787099045708,
          0.4474389938286363
        ],
        [
          0.1766661941347688,
          0.002752414492618094,
          0.24355818731806345,
          -0.4547865496666414,
          0.34818091021101305,
          -0.41003086821330986,
          -0.27019808941791185,
          -0.41010392290054315,
          -0.44728533550054034,
          -0.169336609964455,
          -0.33529570871117054,
          0.2807481886812552,
          0.18807893033117706,
          0.1838883260081371,
          -0.45981564683725057,
          0.20135943641110632,
          0.24636836027266695,
          0.21898985408927552,
          0.05405247510001354,
          -0.39603444493972906,
          -0.2131317063446535,
          -0.3339462261471618,
          -0.13914298328236108,
          -0.3867011799947824,
          -0.15432815147976392,
          0.2933790909220605,
          -0.3694557905327888,
          0.4687815560389238,
          -0.18430368215738824,
          0.39339897150935543,
          0.32203205797688905,
          0.2355762992984216,
          0.15429999998849853,
          0.11558807305492957,
          -0.03900834415548271,
          0.4303167046428513,
          0.07787490969124966,
          0.2395945303343816,
          -0.186013880940871,
          -0.3161119128248628,
          -0.42210755212951867,
          0.28407130620234966,
          0.09852451916483673,
          -0.05020403964479542,
          -0.2889167381490092,
          0.1567981918318211,
          -0.4469701665209835,
          -0.2710246374374882,
          -0.4027984422796399,
          -0.020273524698923184,
          -0.05063629528965907,
          -0.405626560353225,
          -0.12198156779456765,
          -0.1687075732830286,
          -0.3174328310676957,
          -0.23428575388435588,
          -0.2586690228725591,
          0.1958484110126797,
          0.35103340688481044,
          0.03696524226920872,
          -0.46427181224005143,
          0.35507904680266655,
          -0.019253272957609813,
          -0.22579049988811023,
          0.25876604210117193,
          -0.31106279130474224,
          0.142599505361638,
          0.4520393790187991,
          -0.002977521297648389,
          0.15168265035181983,
          0.060534302217896796,
          0.4543122978739579
        ],
        [
          0.44758459396492156,
          -0.3074747361428208,
          -0.4551293626552936,
          0.4019579284340449,
          -0.3889616929307279,
          -0.020376583696679662,
          0.03374298979174917,
          -0.3731539411578542,
          0.08192470864827361,
          0.4019714222721752,
          -0.4530179646701748,
          0.4248790104721383,
          -0.16398635027283404,
          0.3696745207646276,
          0.22770632110939237,
          -0.3062712326576761,
          -0.27377585617512057,
          0.021755161052997074,
          0.08606692396263038,
          -0.3108984598160164,
          0.10395137477499361,
          0.46657880552627573,
          0.1298195035502323,
          -0.012963730647995275,
          0.28518884168549996,
          0.3282842495855811,
          -0.14743522757551286,
          -0.4655319137844951,
          0.1787719185661456,
          -0.43582889798487473,
          -0.12565472629767266,
          0.27467166958345324,
          -0.23032768245804788,
          0.30362157604292583,
          0.3308397524037273,
          0.37723532868807763,
          0.057933195025702044,
          0.18796084168258376,
          -0.40342006816360004,
          -0.1284959331288476,
          -0.4671473952312425,
