{
  "format_version": 2,
  "architecture": [
    {
      "type": "dense",
      "input_size": 18,
      "output_size": 32,
      "activation": "swish"
    },
    {
      "type": "dense",
      "input_size": 32,
      "output_size": 16,
      "activation": "swish"
    },
    {
      "type": "dense",
      "input_size": 16,
      "output_size": 1,
      "activation": "tanh"
    }
  ],
  "weights": {
    "layer_0": {
      "w": [
        [
          0.364205516365125,
          -0.6829233654136285,
          -0.32504008561710473,
          -0.4804253158764291,
          0.026382272943986984,
          -0.6061691879070016,
          0.6905231749426972,
          -0.1354350091079849,
          -0.4458362476950646,
          0.6572983666799692,
          0.02470939550398321,
          -0.32986410468898475,
          -0.4398676214029884,
          -0.023371496342094455,
          0.5317855039657955,
          0.5614332650230425,
          0.03772676841430067,
          -0.4136926149859134
        ],
        [
          -0.6858698891729611,
          -0.03477697352042264,
          -0.048431834967838205,
          -0.5678897051824108,
          0.007299521105710083,
          0.5491005022519713,
          0.14503106763100315,
          0.5986547449113953,
          0.6676234651170287,
          0.6848443864867113,
          0.5381315974442069,
          0.08944622427550197,
          0.6891558072579373,
          -0.31150968687904285,
          -0.6080175019533165,
          0.6916044125501568,
          -0.29721247260629907,
          -0.5135858581261331
        ],
        [
          -0.00423842668417429,
          -0.2829738470972878,
          0.6362927787308807,
          0.538123826880369,
          -0.058516347195041285,
          0.6868535981076165,
          0.09210122496050976,
          0.02990061551355705,
          -0.6758231143584875,
          0.41704159167573773,
          0.6774725573848281,
          -0.4494764544631791,
          0.6208820497989109,
          0.2419018095297325,
          0.628473043847098,
          0.13780926277374117,
          0.032945866119427736,
          -0.6498184111164632
        ],
        [
          -0.41113996162412275,
          0.6012491944257714,
          -0.4440667632464971,
          0.2570425154564958,
          0.5829948063170025,
          0.049729517008297086,
          0.48399088751667985,
          0.6408616692594822,
          -0.10746390215565893,
          -0.5929645040562281,
          -0.057931685946900346,
          -0.03214253822332891,
          0.23161813488811378,
          0.17516704208821676,
          0.6828596941122915,
          0.5979131796185626,
          -0.25611317174256437,
          -0.577172648779676
        ],
        [
          -0.45937557932810347,
          -0.5890857166813667,
          -0.6642718536239867,
          0.23089454649666497,
          0.4953216307230257,
          -0.02324085921660246,
          -0.5505448454126892,
          -0.36581105557039334,
          -0.6627162074924244,
          0.2227716332361318,
          0.4511503314298857,
          -0.15412241275697003,
          -0.30496853929017004,
          0.5590359137669989,
          -0.6909176980457249,
          -0.15333494451199525,
          0.03390027847628296,
          0.011186702898746459
        ],
        [
          -0.3446479527486494,
          0.10356032357401745,
          -0.17947415007985612,
          -0.12869031108354723,
          0.36642494902423195,
          -0.27266516828719695,
          0.18321801947873084,
          0.6096943932574579,
          0.676306385905022,
          -0.19298486382779756,
          0.07498802220474976,
          0.22008732855238333,
          0.3416338543801869,
          0.09573596657966588,
          0.3049532111380632,
          -0.12854492510538407,
          -0.09103932975961826,
          -0.22184676468337927
        ],
        [
          -0.11436276137267043,
          0.6616259573200958,
          -0.1397704911613633,
          0.3302852232193012,
          -0.691765756515179,
          0.6864926971077325,
          0.647969005682322,
          0.03453343650729457,
          0.07178372991102511,
          0.03334848464862672,
          0.3113298565768796,
          -0.5245996784377384,
          0.0520233761176635,
          0.5120067076939223,
          -0.06555969628957325,
          0.13801939122906692,
          0.26076448787688233,
          -0.07876666606210048
        ],
        [
          0.14670190138201167,
          -0.34835277501947987,
          0.5759692180471194,
          0.0593056246696696,
          0.2286941061875729,
          0.029310660850721315,
          -0.4616436391877326,
          0.03264231246783911,
          0.19483471443390243,
          -0.028359005246107016,
          -0.22334267766415006,
          -0.5521936124864562,
          -0.09605857215964042,
          -0.5901573831102318,
          -0.4670822613566717,
          -0.053682387214069816,
          0.319290044677476,
          -0.05460760737598036
        ],
        [
          0.2944332991476788,
          -0.06625060317671749,
          0.13173551918630444,
          0.049482958666607235,
          0.21363404132318164,
          -0.04644788632458274,
          -0.11908058501848129,
          -0.5098581501256886,
          0.37217265481219464,
          0.661046774820913,
          0.6921719769336507,
          0.5486671623726895,
          -0.2850538684902444,
          -0.022125929940936206,
          0.495111957787036,
          -0.3988596564153194,
          -0.3975509771531122,
          -0.37102321086167395
        ],
        [
          0.2929082706627797,
          0.024386063903126254,
          -0.4117007303001065,
          0.684374925011094,
          0.11357283548751362,
          -0.030934539730229083,
          -0.5891724019634481,
          0.40175022820847084,
          -0.41629536281472246,
          0.07271772782114072,
          0.6841951164851201,
          -0.29121426126414407,
          -0.6043653618427585,
          0.6903064245458586,
          0.6314763337027498,
          0.15994800230023754,
          -0.29366734018945967,
          -0.0169097903472204
        ],
        [
          0.5451677610680221,
          -0.2441991671823185,
          0.17201758633355568,
          0.20655478152924578,
          0.03375293203018559,
          0.6814083878172434,
          -0.6534100700864794,
          0.32304659231634925,
          -0.20746494023004525,
          0.28794027346861983,
          0.27819479939654357,
          -0.6496001544396015,
          -0.22719688497093143,
          0.3875241759082999,
          -0.2994434600815608,
          0.4264743416033794,
          0.38535853601701064,
          0.027940620951363182
        ],
        [
          -0.6346650205514779,
          0.15668369439068341,
          -0.12154370254100177,
          0.0629271405855355,
          0.01186032856753827,
          -0.31316228356829284,
          -0.048872654415946015,
          0.00625999402969224,
          -0.5090634350332002,
          0.350665250565251,
          0.6533879919601375,
          -0.3088799667032204,
          0.05505541316619589,
          -0.2833043096656356,
          -0.6912696974586242,
          -0.577937018647945,
          -0.21383364575556063,
          0.5619681917736932
        ],
        [
          0.22950166999598243,
          -0.4345757411467179,
          -0.12328070060734664,
          -0.2843339578598303,
          -0.5719959275359158,
          0.27665356282711995,
          0.5175089023775903,
          -0.40960927413298137,
          0.03251321342643154,
          -0.5792029688245854,
          -0.27045364598432314,
          0.6694749839456529,
          0.26627731780019315,
          -0.6769192331982848,
          -0.4208020088800713,
          0.3814252666575795,
          0.2901258207899139,
          -0.1115660951765991
        ],
        [
          -0.6159875502270935,
          0.03809765007525612,
          -0.056694890311610346,
          0.03674341400478254,
          -0.5022858386300413,
          -0.6654769803702008,
          -0.495522217582138,
          0.05166939126203862,
          -0.5503085970350875,
          -0.30499945072349144,
          0.13004621557348828,
          0.5221285988221607,
          0.2712071420206087,
          -0.2310725298410915,
          -0.45407030625938904,
          0.004696931743351285,
          -0.6539494290326443,
          -0.34951208439105397
        ],
        [
          0.26289266203038264,
          -0.4693594517167684,
          -0.028359497914507648,
          0.20427106451956867,
          0.1914882241480722,
          0.6079267804521584,
          0.6636302550614437,
          -0.16817301019365083,
          0.10621094005158671,
          -0.39677401311839505,
          -0.3582930225056851,
          0.6645020312137431,
          0.20047108110338852,
          -0.2952766478126363,
          0.2948707639107737,
          -0.18283871902205162,
          0.4657833472247619,
          0.5169868974299849
        ],
        [
          -0.6666646663847865,
          0.49350715445155036,
          0.4863162488067412,
          -0.22589972379787238,
          -0.026340448061468402,
          0.09470339406317563,
          -0.3618093578897221,
          -0.4495275143063334,
          -0.4926610529688769,
          0.37704165190936,
          0.13218030489297627,
          0.1568549533955501,
          -0.4995551928045471,
          0.4915022390768875,
          0.6548389311845264,
          0.6548350840169512,
          -0.31302832738312314,
          -0.23652919277439022
        ],
        [
          0.35240615404975695,
          -0.027104033442231,
          0.07475738520819575,
          0.2537448132766468,
          -0.4099795025452039,
          0.5481254314819013,
          0.018354713284219448,
          -0.03587524386141394,
          0.4402493982527118,
          -0.5360471571291803,
          -0.18974449902357582,
          0.2947979838579933,
          -0.30628712480370524,
          0.1127025265157574,
          0.3380414657438193,
          0.22716497620953657,
          0.5940274319063541,
          0.0797854026327266
        ],
        [
          -0.4518030246598659,
          -0.03301635278281567,
          0.17528267520654772,
          -0.23897049687189953,
          -0.23925830453035107,
          0.13486940869898845,
          -0.4877910812647116,
          0.11465856284350917,
          -0.37518419345441256,
          0.661472765009635,
          -0.6538468679613292,
          -0.40812353750138464,
          0.08965157164542936,
          -0.009736247865835046,
          -0.6239280801810261,
          0.1644567613172041,
          -0.2995873311621862,
          -0.5886173249752247
        ],
        [
          -0.192963908335678,
          0.6883083354840493,
          -0.25915434141917065,
          -0.5870428423817761,
          0.07746145704423035,
          0.6722731776482782,
          0.5812093109833336,
          -0.377639808074239,
          0.36746636810382305,
          0.2608388796518023,
          -0.050129591393363704,
          0.6511774122734442,
          0.18009359799380265,
          -0.3246920950736518,
          -0.46907672059190875,
          -0.22635100641012856,
          0.6227279683300111,
          0.18061690170462286
        ],
        [
          -0.1671291673140911,
          -0.41626010832590443,
          -0.13124848416561974,
          0.1264725256430257,
          0.38984536997808283,
          0.6427000178790061,
          -0.4950526338653556,
          -0.4736734797653543,
          0.3234722435355595,
          -0.10697957697972316,
          -0.001004530996982833,
          0.20034610329767621,
          -0.10062831106328118,
          0.1056228510695546,
          0.1039771239929046,
          0.006585538501133303,
          0.09077688844765053,
          -0.4460943944683543
        ],
        [
          0.49692810869207293,
          -0.546721625166994,
          0.5739646890091901,
          0.3054352663134313,
          -0.18306574877474913,
          -0.5740504886482218,
          -0.15300924697704765,
          0.21473821399482718,
          -0.40545103158379214,
          0.49925519299692644,
          0.11618297304395575,
          0.3980428662005757,
          -0.35690038377526156,
          0.31036692587996373,
          -0.5823771987165898,
          0.6923842041662218,
          -0.3806676530466518,
          -0.28772407670448985
        ],
        [
          -0.1168942415308295,
          0.5520097814525433,
          -0.6781765914750748,
          -0.12435561370605397,
          -0.1768968655084927,
          0.3768267895313884,
          0.035186582860534776,
          -0.3791983012019712,
          0.14920255711886843,
          -0.34378932849453214,
          0.19948900412311077,
          -0.141419727868362,
          0.15612941852352957,
          -0.6306894915984039,
          0.6511874237897395,
          -0.04778635162278899,
          0.6539242499010911,
          -0.17093088370046106
        ],
        [
          -0.0892383816260609,
          -0.11493417366649905,
          -0.6772575506747541,
          -0.6839561998719454,
          -0.19221829770681353,
          0.23504653363814088,
          0.1341390732744604,
          0.03959172938448752,
          0.2071851035102491,
          0.6086964758877933,
          -0.5107179352593759,
          0.2849968651603728,
          -0.08849576313178964,
          0.23602425704170693,
          -0.669047868937552,
          0.25969746010397254,
          -0.288785664820645,
          0.5590622974816275
        ],
        [
          -0.29653719848654353,
          0.2714015566300918,
          -0.2838154937361812,
          -0.6033866298979496,
          0.06461152714301066,
          0.6771741928892951,
          -0.3093754923433694,
          -0.14570076754757355,
          0.48302908091511454,
          0.5297789054337656,
          -0.25631701484725405,
          -0.07772111464440168,
          -0.14114716099845737,
          0.11761080295773796,
          0.5961537275650854,
          -0.09984454984249691,
          -0.0627212972684218,
          0.18455940703307028
        ],
        [
          -0.2859619729813543,
          0.3751667691987701,
          -0.3638880161137667,
          0.42506655870504284,
          0.46917503711654573,
          0.5587742301541054,
          -0.45891236154873866,
          -0.5847543873302853,
          -0.41082537552348336,
          -0.5632336065905235,
          -0.5631218963724036,
          -0.08167027943440908,
          -0.0774340336796372,
          0.46688416635673735,
          0.43082346520230197,
          0.0943636149021857,
          0.2607019813716903,
          -0.5912612985869606
        ],
        [
          0.1555419890262444,
          0.6765462305420165,
          -0.2734176826273162,
          -0.10109795939342603,
          0.024903605140069507,
          0.2650850901041858,
          0.008543442644072141,
          0.06441638287727292,
          -0.5598734615551566,
          0.1551668824751613,
          -0.33086434253824965,
          -0.09454334397989017,
          -0.4923540071481725,
          -0.12802296023379367,
          0.1468189843198161,
          -0.361889934299502,
          -0.23771597438651354,
          0.6905805954753652
        ],
        [
          -0.523476460976797,
          0.23218082755545977,
          -0.023959029180335545,
          -0.2695405640543805,
          -0.21119987186407685,
          -0.1480589186489475,
          0.03844192735930241,
          -0.04910012548247422,
          -0.6322983640591546,
          0.6928093290742985,
          -0.5184608198932088,
          -0.23286701543491656,
          0.31547503152482204,
          0.2904940486139884,
          0.23670117280311254,
          0.286054981706261,
          -0.16885711401388737,
          0.6566277800790392
        ],
        [
          -0.32540921514574606,
          -0.12190722344965788,
          0.17879632582807004,
          0.28100573470567347,
          -0.3297119174707172,
          -0.414615152716907,
          0.644928863957497,
          -0.047798637307199354,
          0.4311649443663441,
          0.3219529240314043,
          -0.18424829718534874,
          0.3118442116859972,
          -0.22367593639663136,
          -0.6155542010676359,
          0.12722610834576864,
          0.10410455998932833,
          -0.4015286812029142,
          0.10806102356102909
        ],
        [
          -0.11355588993541887,
          0.6925180148694785,
          0.06820067843319733,
          -0.5087616017193342,
          0.47279817418506687,
          -0.5332327809215621,
          -0.19834115585525758,
          0.21870915783577505,
          -0.6037574372758556,
          -0.5928337460867765,
          0.28527866222623977,
          0.5784609331887973,
          0.6926992949254893,
          -0.4764318545023309,
          -0.324869507163155,
          -0.6326580375892158,
          0.2660683537889168,
          -0.3422149353955232
        ],
        [
          -0.011289168594395327,
          -0.4997433711497006,
          -0.6887934192100061,
          -0.37922371606915656,
          -0.16121225843865605,
          -0.3884790945948953,
          -0.09340898450070556,
          -0.1317978108645328,
          -0.0020327918242785126,
          0.6751820670510964,
          -0.2819869224614852,
          -0.28910788893994915,
          -0.051588905723668255,
          -0.18956568138113794,
          0.357730158305402,
          -0.5994754788529852,
          0.1712109343483964,
          0.12544982534851512
        ],
        [
          -0.1784752031231398,
          -0.0888466894769554,
          0.29720347313506956,
          0.5555552427670485,
          -0.32068021082253084,
          0.10925034856315619,
          -0.14926077356991008,
          0.46495825222028464,
          0.5378366054054753,
          0.672213235690512,
          0.23020207130689174,
          0.3158477691070478,
          -0.13530858176258365,
          -0.04923731885164384,
          -0.1739228028021539,
          -0.1546668096295558,
          -0.463642780661265,
          -0.489528608344745
        ],
        [
          -0.6632940293036717,
          -0.1564252303883481,
          -0.43522931521951724,
          -0.29997690343811534,
          -0.3340319039707958,
          -0.26013886522966595,
          0.5796891461384681,
          0.2904606705542312,
          -0.10622526231442664,
          -0.28620623813806667,
          0.08112096086551845,
          -0.2527003552925273,
          0.21465528226194364,
          0.36646621284556624,
          0.36068159544059286,
          -0.29040764217805604,
          -0.21609659159863642,
          0.6763251602257565
        ]
      ],
      "b": [
        -0.3809468857633587,
        -0.15863856193730552,
        0.4619733909449073,
        -0.4494647510749989,
        0.5695768546913187,
        0.5609408364921726,
        -0.686196892457321,
        0.07892935362134734,
        -0.21953980736778234,
        0.5362678439067856,
        0.6162835023620801,
        0.03850102613839568,
        0.6841272752372698,
        -0.5752790823191505,
        -0.0955902614074543,
        0.5101024355208648,
        0.0719745518934436,
        0.6839733602972333,
        -0.40098917496481035,
        -0.12574993516470934,
        0.038690177587014096,
        0.35702644122628757,
        0.3819535548335513,
        -0.1278178651417018,
        0.31692065427948246,
        -0.41643353526087634,
        0.3904470896887906,
        -0.6853465231755111,
        -0.3705785002502122,
        -0.5993886300705943,
        0.5822756220210243,
        0.3506408834069188
      ]
    },
    "layer_1": {
      "w": [
        [
          0.3210636335447975,
          -0.05280894210761733,
          -0.26385829455693,
          -0.6691435377910367,
          -0.054360904315641445,
          -0.6364665126012203,
          -0.5112689711986926,
          0.35955328937344666,
          -0.14085089284647334,
          -0.6248210310807425,
          0.047670017453144364,
          -0.45763331534186247,
          0.3274088453975782,
          0.2838437871966618,
          -0.21979272958747864,
          -0.22288373389830496,
          -0.0046926156777381545,
          -0.4783124083759374,
          0.6733308171731006,
          0.7068399208938893,
          0.2760217025371524,
          0.48135385061610203,
          -0.02935196039058674,
          -0.11525866207297453,
          0.6025782638488181,
          0.574531676652353,
          0.3616496008024107,
          -0.00951936960562827,
          0.11620849972447167,
          -0.29304853819128246,
          -0.11682413650737744,
          -0.6175360370904026
        ],
        [
          0.003658309840481433,
          -0.46344889272604634,
          -0.14582093410563723,
          0.0250228628376149,
          0.29777306233557066,
          0.687825402751756,
          -0.6808323102420168,
          0.4396530824137602,
          0.010942917717948086,
          0.19031619690453627,
          0.5336492415807673,
          0.2167489389011268,
          -0.258993171879035,
          0.12026959386837399,
          0.7054392144025193,
          0.08920779985549421,
          0.17083583741565522,
          0.28029497856345464,
          -0.1833006729556782,
          -0.7070967237367694,
          0.08453490799595864,
          0.2383534489771003,
          0.6435418749257958,
          -0.33996988120407806,
          0.1632444163688992,
          -0.22403745045203693,
          0.4955723211470894,
          -0.060138134442606184,
          -0.1758538369705006,
          0.38342105094951184,
          -0.27162262238183205,
          -0.49149452965942586
        ],
        [
          -0.1557028032002985,
          -0.14919079416659609,
          0.4804547661850117,
          -0.35247257902936396,
          0.6028825797285963,
          0.01313728771410494,
          0.65856602254992,
          -0.3572180308675807,
          0.37761010757262603,
          0.7056222698777946,
          -0.3388298164131327,
          -0.20405681583658375,
          0.3849355351900271,
          0.5108526931909659,
          0.11812562231820889,
          -0.3944108464470964,
          0.22991702275410097,
          0.08882531141499883,
          -0.26280418307640624,
          0.3308699496526587,
          -0.035361558242447355,
          0.1996214374069607,
          0.4035246273779888,
          -0.06517802609909129,
          0.08906429725437048,
          -0.44590919001036006,
          -0.07053284970671247,
          0.575347966122027,
          -0.008535684324717852,
          0.3308985639912633,
          0.7067346063371639,
          0.6524868417766801
        ],
        [
          0.08808309522655566,
          -0.09475822974603287,
          0.1636366445428663,
          0.19658256391942963,
          0.23183299837146454,
          0.547943792419319,
          0.5273883018181039,
          -0.044729695303732275,
          0.6922393889065998,
          -0.3134932221152812,
          0.16014320327668385,
          0.31652586538638683,
          -0.20305574148518868,
          -0.16348704292927618,
          0.2463910100175709,
          -0.020004191812036942,
          0.3005923768894784,
          -0.4640626435076332,
          0.5318197250502329,
          0.4393750041329191,
          -0.21915030500060567,
          -0.0800459216871694,
          0.5687864599647151,
          0.7004702036673304,
          -0.2601204391580501,
          0.4590996490230864,
          0.30632206947653373,
          -0.17905706675294242,
          0.6769205756467148,
          0.35746046264515774,
          0.2645407074485765,
          0.3199846337532569
        ],
        [
          0.16863559207458712,
          -0.246261579404301,
          0.14908203570007883,
          -0.13945000484922765,
          0.5497908462546507,
          0.30829895829216725,
          0.4254564291882791,
          0.09149631404981684,
          0.4951420110516157,
          0.5645157087971796,
          0.13793723495137977,
          -0.7039915454865857,
          0.6803835010993898,
          -0.33811522029680463,
          0.55040736717682,
          0.1819808636042911,
          0.2799455970270174,
          0.03495805794385598,
          0.13167414489487006,
          -0.25054464181343333,
          -0.17030581053578076,
          -0.4115484946719589,
          0.5452664284346919,
          0.18157445570141217,
          0.32162484209829134,
          0.5797281024209556,
          -0.16977046975437737,
          0.5282761022592511,
          0.6367999086104555,
          -0.573078779648715,
          -0.4151505340483661,
          0.6816425962002618
        ],
        [
          0.40395005921797866,
          0.5827687167781198,
          -0.13287360358664846,
          -0.4833228115743511,
          -0.009018983504113787,
          -0.11155805104180183,
          -0.0684980893249697,
          -0.511939029994861,
          0.04455822535684362,
          -0.38872646097736036,
          0.38706035249957116,
          -0.5144331014744681,
          -0.6778249621151679,
          -0.1902899522639555,
          -0.33105947873515396,
          0.27720354498645294,
          0.26093167105206516,
          0.15717575961068997,
          0.6190340957739976,
          0.6751947740987384,
          0.5973843264170077,
          0.5764772947899103,
          0.027466630024902794,
          0.2528628087794662,
          0.5284155505850915,
          -0.2751421113189812,
          0.5409741381393148,
          -0.5070392282046259,
          0.06539593021977552,
          0.32596700285168156,
          -0.649272302786145,
          0.5309989284780962
        ],
        [
          -0.34139088818696817,
          0.40088680910907504,
          -0.558258098857981,
          0.25118981172748933,
          0.5326798637378592,
          0.373325066622752,
          -0.1485407678413192,
          0.7035435653833336,
          0.48005015238232496,
          0.1416889745649751,
          -0.04243553768141628,
          -0.0527078457046094,
          -0.034453613359052615,
          -0.7059839486478664,
          -0.02583861790870101,
          0.6693556706073159,
          0.676278586095255,
          -0.40576058310838803,
          -0.6310608362882234,
          -0.07732809403233332,
          0.3213514668556309,
          -0.2148114168752328,
          0.2948073459018211,
          -0.005214162543628609,
          -0.1509473090541874,
          -0.32393826283347943,
          0.6736073517018729,
          -0.30572303802309486,
          -0.08286680749623554,
          0.1111412835543164,
          0.1288917902317278,
          -0.058341497575465695
        ],
        [
          -0.23291854186229688,
          -0.04751046839702355,
          0.09794939313775042,
          0.5400697095036121,
          0.06194395638585071,
          0.07139672333734026,
          0.6757678019821488,
          -0.49366344263894135,
          0.6685965849642194,
          -0.1958397991693579,
          0.027324749251065206,
          -0.6229166120223197,
          -0.17700810964151514,
          0.09538999609313792,
          -0.05928663700982495,
          -0.13340830101466583,
          0.05964289242016174,
          -0.03472432377232748,
          -0.7061524226771053,
          -0.5248772359599566,
          -0.3045670736806902,
          -0.21397413437938861,
          0.24852863848607765,
          -0.02470424334600796,
          -0.023553719809981,
          0.04039946846990994,
          0.3153270666487441,
          -0.135971032382587,
          0.060154563180716214,
          -0.57482405907627,
          0.04975638828793194,
          0.02483128863167816
        ],
        [
          0.6648046419691317,
          -0.4543106004605531,
          0.42333892199191137,
          0.4354758605070509,
          0.5409937701330935,
          -0.38563523343302397,
          0.49641788846246604,
          -0.13220962777960577,
          -0.42602922422332035,
          0.5081144181065743,
          0.22102726113767412,
          -0.6963194912349543,
          -0.6888911792984121,
          0.22754870136341365,
          -0.05046473902451243,
          0.6395844842424799,
          -0.2463566084171555,
          0.26768025563510334,
          -0.030574679293023044,
          -0.21931932454856823,
          -0.39999149640364595,
          -0.10122790727423592,
          0.5303627638769995,
          0.04303582630331826,
          -0.22744943235412196,
          0.044989172365388796,
          0.21713998230360754,
          0.21180182607055154,
          -0.6972288816085606,
          -0.33580114158663427,
          0.6065948035960375,
          0.2668042695016568
        ],
        [
          0.6818063097455184,
          0.4522222090636444,
          -0.7040681822946848,
          -0.19090271497605604,
          -0.0029585920925007114,
          -0.38447897525323477,
          0.7008896226428106,
          0.2231595796972774,
          -0.3874457016771603,
          -0.3548366356158587,
          -0.5921690374504532,
          -0.4218232694034871,
          0.08039898440698046,
          -0.4895821573437753,
          0.1425332837507347,
          -0.35362042351279016,
          0.6391355355546787,
          0.6388563046018035,
          -0.2177741477732697,
          0.10578240816152173,
          0.3207658419213316,
          -0.006319471560973122,
          0.15784846030345479,
          0.10043070440260538,
          -0.641828229131799,
          0.5793778299506739,
          0.195989397686558,
          0.20562884392295888,
          0.6723283305094151,
          -0.4837461935990315,
          -0.6409646104650283,
          0.0149625415986121
        ],
        [
          0.08185271102318581,
          -0.5123877492930013,
          -0.07821972288869161,
          -0.6737101753347742,
          -0.591828609573689,
          -0.18023223362245844,
          -0.6848760845689701,
          -0.06277985835251465,
          0.5154864547142134,
          0.5226965223879408,
          0.5843503375288387,
          -0.5260151401515558,
          0.2971494705556913,
          0.42053598877258935,
          0.6682412441805766,
          -0.6342648012477519,
          0.3350809909122875,
          0.15722766602855875,
          -0.027125476905592638,
          -0.2770127249746255,
          -0.09901723304559595,
          -0.6055554619712129,
          0.4544798013457413,
          -0.6988545094633649,
          -0.47853706994736234,
          0.49430051441745715,
          0.035280069530997826,
          0.10927749700273859,
          -0.1367062834324304,
          0.6155673075320888,
          0.6695423670586674,
          -0.18882967093270242
        ],
        [
          -0.00839821508011973,
          -0.08089793591174577,
          0.6689868362767123,
          -0.3422881969008007,
          0.21338918496473236,
          -0.08127045641488595,
          0.6070645135020162,
          -0.48047368658389034,
          0.6912480856605191,
          -0.17106890069187064,
          0.2504920571570516,
          0.08963325270228162,
          0.4300470437993512,
          0.41357815998025893,
          0.6978991489016154,
          -0.01506369961282239,
          -0.3166849446750071,
          -0.2702326183778153,
          0.6692753137639501,
          -0.43749479459021545,
          0.05579456722317966,
          -0.4313905508560478,
          0.18159341364785564,
          0.02418596675056095,
          0.011902969372211247,
          -0.6248207528643839,
          0.5616557919977273,
          0.6767222102135605,
          0.06992377675473194,
          0.3500046155050841,
          -0.6804870682430687,
          0.01983322930629794
        ],
        [
          -0.013319438761717706,
          0.681498213623747,
          -0.2206410552046289,
          -0.7009776560568142,
          0.31876904469951606,
          -0.05749902516090277,
          0.6050833659529306,
          -0.2894803838127337,
          -0.2403840040057858,
          0.5418140472156986,
          -0.027911190265100583,
          -0.09047268654367657,
          0.4525799971480019,
          0.056178518188970905,
          -0.2733358766183761,
          -0.07443226697146865,
          -0.6727163164280928,
          -0.693903175001957,
          0.5636142483458414,
          -0.007397401400277781,
          0.21694571780583582,
          -0.028747818685748827,
          0.015361569239991435,
          -0.4334850385356676,
          -0.2488561742801909,
          -0.29601390478732964,
          0.22210126950749653,
          -0.09382249183527203,
          -0.3352936122143629,
          0.34188839716877883,
          0.665455560492369,
          0.407882538705142
        ],
        [
          0.07256378999117041,
          -0.3909453976868555,
          0.023948009718097407,
          -0.5262834345156542,
          0.18998129214526993,
          0.3118500878893723,
          -0.4769902393995205,
          0.15742296509325515,
          0.21730889905031425,
          0.1266690640125816,
          -0.14217508648324606,
          0.6931781903004081,
          -0.1602823106545952,
          -0.08495063444791062,
          0.11087554222088936,
          -0.3303962455847829,
          -0.38019959723646113,
          0.09483342378911919,
          0.2958271315080919,
          -0.32076122645513194,
          -0.6339432904256734,
          0.1690080729492911,
          0.689306689057363,
          -0.21853070164250854,
          0.2887787427215921,
          0.6524974495675838,
          0.17223542867536912,
          -0.2602972102084958,
          0.008230918160012424,
          0.262510157137561,
          -0.049261697471818966,
          -0.0894009109730105
        ],
        [
          0.20410994359939671,
          -0.4463264047479431,
          -0.5066995305006704,
          0.3614866084041345,
          -0.07970991560448615,
          -0.16671951254488748,
          0.252275303690462,
          -0.004300373241100441,
          -0.31286667871182017,
          -0.12031041018291944,
          -0.10684542651918505,
          0.4444695261736219,
          0.6428461715675376,
          0.43664575222849134,
          -0.2865737812069664,
          -0.637077774610306,
          0.5299288231320868,
          0.3395087662426487,
          -0.07558076404335046,
          0.22065299203790767,
          -0.2012810027928229,
          0.6445329230599554,
          -0.3644888215197896,
          -0.5364498805608786,
          -0.37157579634566484,
          -0.12040579579216781,
          -0.27629076272665215,
          0.07151201437549726,
          -0.21195471430463542,
          0.697145800370876,
          -0.6147242260713116,
          0.5218633150710176
        ],
        [
          0.31958724751008816,
          0.05398545955859202,
          0.5264531825526443,
          -0.3076948751809759,
          -0.16223706226168721,
          -0.20609513688521863,
          -0.42461711670516217,
          0.1357853092109963,
          -0.2617599434318359,
          0.3706045153294172,
          -0.6669125537148609,
          0.20348507514301306,
          -0.07452380860900698,
          -0.35842041075860165,
          0.2168083904893947,
          0.6344064064795581,
          -0.08563956454424526,
          0.07129922496849717,
          0.43272465702295826,
          0.005371516309313429,
          -0.4879699345632713,
          0.42293498706768096,
          0.29702200533185963,
          0.4074610840969529,
          0.6605628659417696,
          0.6364876896781327,
          0.3603190920032272,
          -0.4222172200511356,
          -0.050254592685299415,
          0.6562131347242036,
          -0.5736963694362441,
          0.26327520496802637
        ]
      ],
      "b": [
        0.2529231883376485,
        -0.3709196870197929,
        -0.5544015180235519,
        0.4971662578035313,
        -0.09105451830018485,
        -0.5743592664591202,
        0.39488636196480165,
        -0.5312173724992688,
        -0.0547869331855243,
        -0.5896991124277772,
        0.09319064445997682,
        0.6974173022449065,
        -0.4761342675866764,
        0.6820390112302787,
        0.4301158890669138,
        0.12860367804315997
      ]
    },
    "layer_2": {
      "w": [
        [
          -0.9103676383829042,
          -0.39842145829231457,
          1.1846372964309542,
          0.8840908705529686,
          -0.6359982957593083,
          0.04326649003796468,
          0.43785772175346893,
          0.6602758268738871,
          1.1491136933960526,
          -0.20197790189460507,
          0.3836510729530225,
          -0.004425814741353173,
          1.180701245174333,
          0.452713635452076,
          -1.1840584448124314,
          1.0022715534387083
        ]
      ],
      "b": [
        -0.6580425604650364
      ]
    }
  },
  "input_mask": [
    0,
    1,
    2,
    3,
    4,
    5,
    6,
    7,
    9,
    11,
    12,
    17,
    18,
    19,
    27,
    28,
    29,
    30
  ],
  "ablated_input": null,
  "ablated_value": 0.0,
  "output_param": "scaled_pi",
  "scaled_pi_n": 2.0,
  "delta_max": 0.35
}